{
  "Metadata" : {
    "Game" : "TicTacToe",
    "Seed" : 1692024081400,
    "Type" : "Tabular",
    "Alpha" : 0.0010000000474974513,
    "Gamma" : 0.75,
    "Epsilon" : 0.10000000149011612,
    "Solver" : "Q_LEARNING",
    "Heuristic" : "players.heuristics.WinOnlyHeuristic",
    "FeatureVector" : "players.rl.featureVectors.TicTacToeDim1StateVector",
    "NGamesTotal" : 25600,
    "NGamesWithTheseSettings" : 25600,
    "TimeTaken" : "00h 00m 19.7s",
    "ContinuedFrom" : null
  },
  "Weights" : {
    "[-1.0,1.0,1.0,1.0,1.0,-1.0,0.0,0.0,-1.0]" : 0.5601014862950691,
    "[0.0,1.0,-1.0,0.0,1.0,1.0,-1.0,-1.0,1.0]" : 0.5587791468943457,
    "[0.0,-1.0,1.0,-1.0,1.0,-1.0,0.0,1.0,1.0]" : 0.5561225312470987,
    "[-1.0,-1.0,1.0,0.0,1.0,1.0,0.0,1.0,-1.0]" : 0.5543425736195343,
    "[1.0,-1.0,-1.0,0.0,1.0,1.0,1.0,-1.0,0.0]" : 0.5530029228688087,
    "[0.0,1.0,-1.0,-1.0,1.0,-1.0,1.0,0.0,1.0]" : 0.5521075858904989,
    "[-1.0,0.0,0.0,-1.0,1.0,1.0,1.0,1.0,-1.0]" : 0.5516592451143182,
    "[-1.0,-1.0,1.0,1.0,0.0,-1.0,1.0,0.0,1.0]" : 0.5489597601367969,
    "[1.0,-1.0,-1.0,1.0,1.0,0.0,-1.0,1.0,0.0]" : 0.548508268383736,
    "[0.0,-1.0,0.0,-1.0,1.0,1.0,1.0,-1.0,1.0]" : 0.5480563246869568,
    "[1.0,0.0,-1.0,0.0,1.0,1.0,-1.0,1.0,-1.0]" : 0.5476039285940631,
    "[-1.0,1.0,-1.0,0.0,1.0,1.0,1.0,0.0,-1.0]" : 0.5466977774080836,
    "[1.0,-1.0,-1.0,-1.0,0.0,1.0,1.0,0.0,1.0]" : 0.5466977774080836,
    "[1.0,-1.0,1.0,-1.0,0.0,0.0,-1.0,1.0,1.0]" : 0.5466977774080836,
    "[1.0,0.0,1.0,1.0,0.0,-1.0,-1.0,-1.0,1.0]" : 0.5462440214079393,
    "[-1.0,0.0,1.0,1.0,1.0,0.0,-1.0,1.0,-1.0]" : 0.5462440214079393,
    "[1.0,0.0,1.0,-1.0,1.0,-1.0,-1.0,1.0,0.0]" : 0.5462440214079393,
    "[1.0,0.0,-1.0,-1.0,1.0,1.0,-1.0,1.0,0.0]" : 0.5453351463222899,
    "[-1.0,1.0,1.0,-1.0,0.0,0.0,1.0,-1.0,1.0]" : 0.5448800263269998,
    "[1.0,-1.0,0.0,-1.0,-1.0,1.0,0.0,1.0,1.0]" : 0.5444244507561172,
    "[0.0,-1.0,1.0,1.0,1.0,-1.0,0.0,-1.0,1.0]" : 0.5444244507561172,
    "[0.0,1.0,0.0,-1.0,1.0,-1.0,1.0,-1.0,1.0]" : 0.5439684191536105,
    "[1.0,-1.0,0.0,0.0,1.0,1.0,1.0,-1.0,-1.0]" : 0.5435119310629914,
    "[1.0,1.0,0.0,1.0,-1.0,-1.0,0.0,-1.0,1.0]" : 0.5407633906479506,
    "[1.0,0.0,1.0,-1.0,0.0,1.0,1.0,-1.0,-1.0]" : 0.5403036943204367,
    "[1.0,-1.0,1.0,0.0,0.0,-1.0,1.0,1.0,-1.0]" : 0.5403036943204367,
    "[1.0,0.0,1.0,1.0,-1.0,-1.0,0.0,1.0,-1.0]" : 0.5398435378364168,
    "[1.0,-1.0,1.0,-1.0,1.0,-1.0,0.0,1.0,0.0]" : 0.5398435378364168,
    "[-1.0,1.0,0.0,0.0,1.0,1.0,1.0,-1.0,-1.0]" : 0.5398435378364168,
    "[1.0,-1.0,1.0,1.0,1.0,-1.0,0.0,-1.0,0.0]" : 0.5393829207352739,
    "[0.0,1.0,1.0,1.0,0.0,-1.0,1.0,-1.0,-1.0]" : 0.5379983011160168,
    "[0.0,1.0,1.0,1.0,-1.0,0.0,-1.0,-1.0,1.0]" : 0.5379983011160168,
    "[0.0,1.0,-1.0,1.0,-1.0,-1.0,1.0,0.0,1.0]" : 0.5379983011160168,
    "[1.0,1.0,0.0,-1.0,0.0,1.0,-1.0,-1.0,1.0]" : 0.5370729098188128,
    "[1.0,-1.0,-1.0,0.0,-1.0,1.0,1.0,1.0,0.0]" : 0.5370729098188128,
    "[0.0,-1.0,1.0,1.0,1.0,0.0,-1.0,-1.0,1.0]" : 0.5342855996936149,
    "[1.0,0.0,1.0,-1.0,-1.0,1.0,-1.0,1.0,0.0]" : 0.5328856574755275,
    "[0.0,1.0,-1.0,1.0,0.0,1.0,1.0,-1.0,-1.0]" : 0.5319500255321484,
    "[-1.0,1.0,0.0,1.0,0.0,1.0,-1.0,-1.0,1.0]" : 0.5314815070169119,
    "[-1.0,1.0,1.0,-1.0,0.0,1.0,1.0,-1.0,0.0]" : 0.5310125195141503,
    "[1.0,-1.0,-1.0,1.0,0.0,1.0,0.0,1.0,-1.0]" : 0.5310125195141503,
    "[1.0,1.0,0.0,-1.0,1.0,-1.0,1.0,-1.0,0.0]" : 0.5305430625544066,
    "[-1.0,-1.0,1.0,1.0,0.0,-1.0,1.0,1.0,0.0]" : 0.5305430625544066,
    "[1.0,-1.0,-1.0,1.0,0.0,-1.0,0.0,1.0,1.0]" : 0.530073135667754,
    "[-1.0,1.0,-1.0,1.0,0.0,-1.0,0.0,1.0,1.0]" : 0.530073135667754,
    "[1.0,1.0,0.0,-1.0,0.0,1.0,-1.0,1.0,-1.0]" : 0.530073135667754,
    "[0.0,-1.0,0.0,1.0,1.0,-1.0,1.0,-1.0,1.0]" : 0.5291318702316617,
    "[-1.0,1.0,-1.0,-1.0,0.0,1.0,1.0,1.0,0.0]" : 0.5281887194370415,
    "[0.0,1.0,-1.0,1.0,1.0,0.0,-1.0,-1.0,1.0]" : 0.5277164358504597,
    "[1.0,-1.0,0.0,-1.0,1.0,-1.0,1.0,1.0,0.0]" : 0.5277164358504597,
    "[-1.0,-1.0,1.0,-1.0,0.0,1.0,1.0,1.0,0.0]" : 0.5277164358504597,
    "[1.0,1.0,-1.0,1.0,0.0,-1.0,0.0,-1.0,1.0]" : 0.5277164358504597,
    "[1.0,1.0,0.0,0.0,-1.0,1.0,1.0,-1.0,-1.0]" : 0.5272436795075125,
    "[-1.0,-1.0,1.0,1.0,-1.0,0.0,0.0,1.0,1.0]" : 0.5267704499349702,
    "[1.0,1.0,-1.0,0.0,0.0,-1.0,1.0,-1.0,1.0]" : 0.5253479171003688,
    "[-1.0,0.0,1.0,1.0,1.0,-1.0,0.0,1.0,-1.0]" : 0.5239211081176163,
    "[1.0,-1.0,1.0,-1.0,1.0,-1.0,1.0,0.0,-1.0]" : 0.5234445526476287,
    "[0.0,-1.0,1.0,1.0,0.0,-1.0,1.0,1.0,-1.0]" : 0.5229675201451159,
    "[1.0,-1.0,-1.0,-1.0,1.0,0.0,1.0,-1.0,1.0]" : 0.5229675201451159,
    "[-1.0,1.0,0.0,1.0,1.0,0.0,1.0,-1.0,-1.0]" : 0.5229675201451159,
    "[-1.0,0.0,1.0,-1.0,1.0,-1.0,1.0,-1.0,1.0]" : 0.522490010132568,
    "[1.0,0.0,-1.0,-1.0,1.0,-1.0,1.0,-1.0,1.0]" : 0.522490010132568,
    "[1.0,-1.0,1.0,0.0,1.0,-1.0,1.0,-1.0,-1.0]" : 0.5220120221319968,
    "[-1.0,-1.0,1.0,0.0,1.0,-1.0,1.0,-1.0,1.0]" : 0.5220120221319968,
    "[-1.0,-1.0,1.0,-1.0,1.0,1.0,0.0,-1.0,1.0]" : 0.5220120221319968,
    "[1.0,-1.0,1.0,-1.0,1.0,-1.0,-1.0,0.0,1.0]" : 0.5220120221319968,
    "[1.0,-1.0,1.0,0.0,1.0,-1.0,-1.0,-1.0,1.0]" : 0.5220120221319968,
    "[0.0,0.0,-1.0,1.0,1.0,-1.0,-1.0,1.0,1.0]" : 0.5220120221319968,
    "[1.0,0.0,1.0,-1.0,1.0,-1.0,-1.0,-1.0,1.0]" : 0.5215335556649359,
    "[1.0,-1.0,1.0,-1.0,1.0,0.0,1.0,-1.0,-1.0]" : 0.5215335556649359,
    "[1.0,1.0,1.0,-1.0,1.0,-1.0,0.0,-1.0,-1.0]" : 0.5210546102524396,
    "[1.0,-1.0,-1.0,1.0,1.0,-1.0,1.0,-1.0,0.0]" : 0.5205751854150832,
    "[1.0,-1.0,1.0,-1.0,1.0,0.0,-1.0,-1.0,1.0]" : 0.5200952806729618,
    "[0.0,1.0,1.0,-1.0,0.0,1.0,1.0,-1.0,-1.0]" : 0.5200952806729618,
    "[0.0,-1.0,-1.0,-1.0,1.0,-1.0,1.0,1.0,1.0]" : 0.5196148955456905,
    "[-1.0,-1.0,1.0,-1.0,1.0,-1.0,1.0,0.0,1.0]" : 0.5196148955456905,
    "[-1.0,1.0,-1.0,-1.0,1.0,0.0,1.0,1.0,-1.0]" : 0.519134029552403,
    "[-1.0,0.0,-1.0,1.0,1.0,1.0,-1.0,-1.0,1.0]" : 0.518652682211752,
    "[1.0,-1.0,-1.0,1.0,1.0,1.0,-1.0,0.0,-1.0]" : 0.518652682211752,
    "[-1.0,-1.0,1.0,1.0,1.0,1.0,-1.0,0.0,-1.0]" : 0.518652682211752,
    "[-1.0,0.0,-1.0,1.0,1.0,1.0,1.0,-1.0,-1.0]" : 0.518652682211752,
    "[1.0,-1.0,1.0,-1.0,1.0,-1.0,1.0,-1.0,0.0]" : 0.5181708530419082,
    "[1.0,1.0,-1.0,-1.0,1.0,0.0,-1.0,1.0,-1.0]" : 0.5181708530419082,
    "[-1.0,1.0,-1.0,0.0,1.0,-1.0,-1.0,1.0,1.0]" : 0.5181708530419082,
    "[1.0,-1.0,0.0,-1.0,0.0,1.0,-1.0,1.0,1.0]" : 0.5181708530419082,
    "[1.0,-1.0,-1.0,-1.0,0.0,1.0,0.0,1.0,1.0]" : 0.5181708530419082,
    "[1.0,-1.0,0.0,-1.0,1.0,1.0,1.0,-1.0,0.0]" : 0.5176885415605602,
    "[0.0,-1.0,1.0,-1.0,1.0,-1.0,1.0,-1.0,1.0]" : 0.5172057472849136,
    "[0.0,-1.0,-1.0,1.0,1.0,1.0,-1.0,-1.0,1.0]" : 0.5167224697316909,
    "[-1.0,1.0,1.0,0.0,1.0,-1.0,-1.0,1.0,-1.0]" : 0.5167224697316909,
    "[-1.0,-1.0,1.0,-1.0,1.0,0.0,1.0,1.0,-1.0]" : 0.5167224697316909,
    "[1.0,-1.0,-1.0,1.0,1.0,-1.0,-1.0,0.0,1.0]" : 0.5167224697316909,
    "[0.0,1.0,-1.0,1.0,1.0,-1.0,-1.0,0.0,1.0]" : 0.5162387084171306,
    "[-1.0,1.0,0.0,-1.0,1.0,1.0,1.0,0.0,-1.0]" : 0.5162387084171306,
    "[-1.0,0.0,1.0,1.0,1.0,-1.0,1.0,-1.0,-1.0]" : 0.5157544628569871,
    "[-1.0,1.0,-1.0,1.0,1.0,0.0,-1.0,0.0,1.0]" : 0.5157544628569871,
    "[-1.0,0.0,1.0,0.0,-1.0,1.0,1.0,-1.0,1.0]" : 0.5152697325665302,
    "[-1.0,0.0,1.0,-1.0,-1.0,1.0,1.0,0.0,1.0]" : 0.5152697325665302,
    "[-1.0,-1.0,1.0,0.0,-1.0,-1.0,1.0,1.0,1.0]" : 0.5152697325665302,
    "[-1.0,0.0,1.0,0.0,-1.0,-1.0,1.0,1.0,1.0]" : 0.5152697325665302,
    "[-1.0,-1.0,1.0,0.0,-1.0,0.0,1.0,1.0,1.0]" : 0.5152697325665302,
    "[-1.0,-1.0,1.0,0.0,1.0,1.0,-1.0,-1.0,1.0]" : 0.5147845170605443,
    "[1.0,0.0,-1.0,-1.0,1.0,-1.0,-1.0,1.0,1.0]" : 0.5147845170605443,
    "[-1.0,0.0,1.0,-1.0,1.0,-1.0,1.0,0.0,1.0]" : 0.5147845170605443,
    "[-1.0,-1.0,1.0,1.0,1.0,0.0,1.0,-1.0,-1.0]" : 0.5147845170605443,
    "[1.0,1.0,-1.0,-1.0,1.0,0.0,-1.0,-1.0,1.0]" : 0.5147845170605443,
    "[1.0,0.0,-1.0,-1.0,1.0,1.0,-1.0,-1.0,1.0]" : 0.5147845170605443,
    "[-1.0,-1.0,1.0,-1.0,1.0,1.0,1.0,0.0,-1.0]" : 0.5147845170605443,
    "[1.0,-1.0,-1.0,0.0,1.0,-1.0,-1.0,1.0,1.0]" : 0.5147845170605443,
    "[1.0,-1.0,-1.0,1.0,1.0,0.0,1.0,-1.0,-1.0]" : 0.514298815853328,
    "[0.0,1.0,0.0,-1.0,1.0,-1.0,0.0,1.0,0.0]" : 0.514298815853328,
    "[-1.0,0.0,1.0,-1.0,1.0,0.0,1.0,0.0,0.0]" : 0.514298815853328,
    "[0.0,0.0,1.0,0.0,-1.0,1.0,-1.0,0.0,1.0]" : 0.514298815853328,
    "[-1.0,-1.0,1.0,0.0,1.0,-1.0,1.0,0.0,1.0]" : 0.514298815853328,
    "[-1.0,1.0,0.0,0.0,1.0,-1.0,0.0,1.0,0.0]" : 0.513812628458694,
    "[1.0,1.0,1.0,-1.0,1.0,-1.0,-1.0,0.0,-1.0]" : 0.513812628458694,
    "[1.0,0.0,1.0,1.0,-1.0,0.0,1.0,-1.0,-1.0]" : 0.513812628458694,
    "[-1.0,1.0,1.0,0.0,1.0,-1.0,1.0,-1.0,-1.0]" : 0.513812628458694,
    "[1.0,1.0,-1.0,-1.0,1.0,-1.0,-1.0,0.0,1.0]" : 0.513812628458694,
    "[0.0,0.0,-1.0,1.0,1.0,1.0,0.0,-1.0,0.0]" : 0.513812628458694,
    "[0.0,-1.0,1.0,-1.0,0.0,1.0,0.0,0.0,1.0]" : 0.513812628458694,
    "[1.0,1.0,1.0,-1.0,-1.0,0.0,1.0,-1.0,-1.0]" : 0.513812628458694,
    "[-1.0,-1.0,0.0,-1.0,1.0,0.0,1.0,1.0,1.0]" : 0.513812628458694,
    "[1.0,0.0,1.0,0.0,-1.0,1.0,-1.0,-1.0,1.0]" : 0.513812628458694,
    "[1.0,-1.0,1.0,0.0,-1.0,1.0,-1.0,0.0,1.0]" : 0.513812628458694,
    "[1.0,-1.0,1.0,1.0,-1.0,0.0,1.0,0.0,-1.0]" : 0.513812628458694,
    "[1.0,-1.0,1.0,-1.0,-1.0,1.0,-1.0,0.0,1.0]" : 0.5133259543899682,
    "[1.0,-1.0,0.0,1.0,0.0,0.0,1.0,0.0,-1.0]" : 0.5133259543899682,
    "[-1.0,0.0,1.0,-1.0,-1.0,1.0,1.0,-1.0,1.0]" : 0.5133259543899682,
    "[0.0,-1.0,0.0,1.0,1.0,1.0,-1.0,0.0,0.0]" : 0.5133259543899682,
    "[1.0,0.0,-1.0,-1.0,-1.0,0.0,1.0,1.0,1.0]" : 0.5133259543899682,
    "[1.0,0.0,0.0,1.0,0.0,-1.0,1.0,-1.0,0.0]" : 0.5133259543899682,
    "[-1.0,0.0,0.0,1.0,1.0,1.0,0.0,-1.0,0.0]" : 0.5133259543899682,
    "[1.0,-1.0,1.0,1.0,-1.0,-1.0,1.0,0.0,-1.0]" : 0.5133259543899682,
    "[-1.0,-1.0,1.0,-1.0,1.0,1.0,0.0,0.0,1.0]" : 0.5133259543899682,
    "[1.0,1.0,1.0,-1.0,-1.0,0.0,0.0,0.0,0.0]" : 0.5133259543899682,
    "[1.0,0.0,-1.0,1.0,-1.0,-1.0,1.0,-1.0,1.0]" : 0.5133259543899682,
    "[-1.0,0.0,-1.0,-1.0,1.0,-1.0,1.0,1.0,1.0]" : 0.5133259543899682,
    "[-1.0,0.0,1.0,0.0,0.0,1.0,0.0,-1.0,1.0]" : 0.5133259543899682,
    "[1.0,1.0,1.0,-1.0,-1.0,0.0,-1.0,0.0,1.0]" : 0.5133259543899682,
    "[1.0,1.0,1.0,0.0,-1.0,-1.0,1.0,0.0,-1.0]" : 0.5133259543899682,
    "[1.0,-1.0,-1.0,-1.0,-1.0,0.0,1.0,1.0,1.0]" : 0.5133259543899682,
    "[1.0,1.0,1.0,0.0,1.0,-1.0,0.0,-1.0,-1.0]" : 0.5133259543899682,
    "[-1.0,-1.0,1.0,1.0,1.0,0.0,1.0,0.0,-1.0]" : 0.5128387931599893,
    "[-1.0,0.0,0.0,1.0,1.0,1.0,-1.0,0.0,0.0]" : 0.5128387931599893,
    "[1.0,0.0,0.0,1.0,-1.0,-1.0,1.0,0.0,0.0]" : 0.5128387931599893,
    "[1.0,1.0,1.0,0.0,0.0,0.0,-1.0,0.0,-1.0]" : 0.5128387931599893,
    "[-1.0,-1.0,1.0,0.0,1.0,0.0,1.0,0.0,0.0]" : 0.5128387931599893,
    "[1.0,1.0,1.0,0.0,-1.0,-1.0,-1.0,-1.0,1.0]" : 0.5128387931599893,
    "[0.0,0.0,-1.0,0.0,-1.0,0.0,1.0,1.0,1.0]" : 0.5128387931599893,
    "[0.0,0.0,1.0,-1.0,1.0,0.0,1.0,0.0,-1.0]" : 0.5128387931599893,
    "[-1.0,0.0,1.0,0.0,1.0,-1.0,1.0,-1.0,1.0]" : 0.5128387931599893,
    "[1.0,0.0,1.0,-1.0,1.0,-1.0,1.0,0.0,-1.0]" : 0.5128387931599893,
    "[0.0,1.0,-1.0,0.0,1.0,0.0,-1.0,1.0,0.0]" : 0.5128387931599893,
    "[1.0,1.0,1.0,-1.0,0.0,0.0,-1.0,0.0,0.0]" : 0.5128387931599893,
    "[1.0,0.0,-1.0,1.0,0.0,0.0,1.0,-1.0,0.0]" : 0.5128387931599893,
    "[-1.0,-1.0,1.0,0.0,0.0,1.0,0.0,0.0,1.0]" : 0.5128387931599893,
    "[0.0,-1.0,1.0,0.0,0.0,1.0,0.0,-1.0,1.0]" : 0.5128387931599893,
    "[0.0,0.0,0.0,1.0,1.0,1.0,-1.0,-1.0,0.0]" : 0.5128387931599893,
    "[1.0,0.0,-1.0,1.0,0.0,0.0,1.0,0.0,-1.0]" : 0.5128387931599893,
    "[1.0,0.0,0.0,-1.0,1.0,0.0,-1.0,0.0,1.0]" : 0.5128387931599893,
    "[0.0,0.0,0.0,1.0,1.0,1.0,-1.0,0.0,-1.0]" : 0.5128387931599893,
    "[0.0,-1.0,-1.0,1.0,1.0,1.0,0.0,0.0,0.0]" : 0.5128387931599893,
    "[-1.0,-1.0,1.0,0.0,1.0,1.0,-1.0,0.0,1.0]" : 0.5128387931599893,
    "[0.0,0.0,1.0,0.0,1.0,-1.0,1.0,0.0,-1.0]" : 0.5128387931599893,
    "[1.0,1.0,1.0,-1.0,0.0,-1.0,0.0,0.0,0.0]" : 0.5128387931599893,
    "[0.0,-1.0,0.0,1.0,1.0,1.0,0.0,0.0,-1.0]" : 0.5128387931599893,
    "[-1.0,0.0,1.0,0.0,-1.0,1.0,0.0,0.0,1.0]" : 0.5128387931599893,
    "[1.0,-1.0,-1.0,1.0,-1.0,0.0,1.0,0.0,1.0]" : 0.5128387931599893,
    "[-1.0,-1.0,0.0,1.0,1.0,1.0,0.0,0.0,0.0]" : 0.5128387931599893,
    "[1.0,0.0,-1.0,0.0,-1.0,-1.0,1.0,1.0,1.0]" : 0.5128387931599893,
    "[1.0,1.0,1.0,0.0,-1.0,-1.0,-1.0,0.0,1.0]" : 0.5128387931599893,
    "[1.0,1.0,0.0,1.0,0.0,-1.0,-1.0,-1.0,1.0]" : 0.5128387931599893,
    "[1.0,1.0,1.0,-1.0,-1.0,0.0,1.0,0.0,-1.0]" : 0.5128387931599893,
    "[1.0,0.0,-1.0,0.0,1.0,-1.0,-1.0,1.0,1.0]" : 0.5123511442811083,
    "[1.0,1.0,1.0,0.0,0.0,0.0,-1.0,-1.0,0.0]" : 0.5123511442811083,
    "[0.0,0.0,1.0,0.0,1.0,-1.0,1.0,-1.0,0.0]" : 0.5123511442811083,
    "[0.0,0.0,1.0,-1.0,1.0,0.0,1.0,-1.0,0.0]" : 0.5123511442811083,
    "[0.0,1.0,0.0,-1.0,1.0,0.0,-1.0,1.0,0.0]" : 0.5123511442811083,
    "[0.0,0.0,0.0,1.0,1.0,1.0,0.0,-1.0,-1.0]" : 0.5123511442811083,
    "[1.0,1.0,1.0,0.0,0.0,-1.0,0.0,0.0,-1.0]" : 0.5123511442811083,
    "[-1.0,1.0,1.0,-1.0,1.0,-1.0,1.0,0.0,-1.0]" : 0.5123511442811083,
    "[1.0,0.0,0.0,0.0,1.0,0.0,-1.0,-1.0,1.0]" : 0.5123511442811083,
    "[1.0,1.0,1.0,0.0,-1.0,0.0,-1.0,0.0,0.0]" : 0.5123511442811083,
    "[1.0,-1.0,0.0,0.0,1.0,0.0,-1.0,0.0,1.0]" : 0.5123511442811083,
    "[-1.0,0.0,1.0,0.0,0.0,1.0,-1.0,0.0,1.0]" : 0.5123511442811083,
    "[-1.0,0.0,-1.0,0.0,0.0,0.0,1.0,1.0,1.0]" : 0.5123511442811083,
    "[1.0,1.0,-1.0,-1.0,1.0,0.0,-1.0,0.0,1.0]" : 0.5123511442811083,
    "[0.0,-1.0,1.0,-1.0,1.0,1.0,1.0,-1.0,-1.0]" : 0.5123511442811083,
    "[1.0,-1.0,0.0,-1.0,1.0,0.0,0.0,0.0,1.0]" : 0.5123511442811083,
    "[1.0,0.0,0.0,0.0,1.0,-1.0,0.0,-1.0,1.0]" : 0.5123511442811083,
    "[0.0,0.0,0.0,0.0,-1.0,-1.0,1.0,1.0,1.0]" : 0.5123511442811083,
    "[0.0,0.0,1.0,0.0,1.0,0.0,1.0,-1.0,-1.0]" : 0.5123511442811083,
    "[1.0,1.0,1.0,0.0,0.0,0.0,0.0,-1.0,-1.0]" : 0.5123511442811083,
    "[0.0,0.0,1.0,0.0,0.0,1.0,-1.0,-1.0,1.0]" : 0.5123511442811083,
    "[1.0,1.0,1.0,-1.0,0.0,0.0,0.0,0.0,-1.0]" : 0.5123511442811083,
    "[0.0,0.0,1.0,-1.0,0.0,1.0,0.0,-1.0,1.0]" : 0.5123511442811083,
    "[1.0,0.0,-1.0,1.0,-1.0,0.0,1.0,0.0,0.0]" : 0.5123511442811083,
    "[1.0,1.0,1.0,0.0,0.0,-1.0,0.0,-1.0,0.0]" : 0.5123511442811083,
    "[0.0,-1.0,1.0,0.0,1.0,0.0,1.0,0.0,-1.0]" : 0.5123511442811083,
    "[0.0,1.0,-1.0,0.0,1.0,0.0,0.0,1.0,-1.0]" : 0.5123511442811083,
    "[1.0,-1.0,-1.0,1.0,0.0,0.0,1.0,0.0,0.0]" : 0.5123511442811083,
    "[-1.0,1.0,-1.0,0.0,1.0,0.0,-1.0,1.0,1.0]" : 0.5123511442811083,
    "[0.0,0.0,-1.0,0.0,0.0,-1.0,1.0,1.0,1.0]" : 0.5123511442811083,
    "[0.0,0.0,1.0,0.0,-1.0,1.0,0.0,-1.0,1.0]" : 0.5123511442811083,
    "[-1.0,-1.0,1.0,0.0,1.0,0.0,1.0,-1.0,0.0]" : 0.5123511442811083,
    "[-1.0,0.0,0.0,-1.0,0.0,0.0,1.0,1.0,1.0]" : 0.5123511442811083,
    "[1.0,0.0,-1.0,0.0,1.0,0.0,-1.0,0.0,1.0]" : 0.5123511442811083,
    "[0.0,1.0,0.0,0.0,1.0,0.0,-1.0,1.0,-1.0]" : 0.5123511442811083,
    "[-1.0,0.0,0.0,0.0,0.0,-1.0,1.0,1.0,1.0]" : 0.5123511442811083,
    "[0.0,0.0,-1.0,-1.0,0.0,0.0,1.0,1.0,1.0]" : 0.5123511442811083,
    "[0.0,1.0,0.0,0.0,1.0,-1.0,-1.0,1.0,0.0]" : 0.5123511442811083,
    "[0.0,0.0,0.0,-1.0,0.0,-1.0,1.0,1.0,1.0]" : 0.5123511442811083,
    "[0.0,0.0,1.0,-1.0,0.0,1.0,-1.0,0.0,1.0]" : 0.5123511442811083,
    "[1.0,0.0,-1.0,-1.0,1.0,0.0,1.0,-1.0,1.0]" : 0.5123511442811083,
    "[1.0,0.0,0.0,-1.0,1.0,0.0,0.0,-1.0,1.0]" : 0.5118630072651882,
    "[0.0,1.0,0.0,-1.0,1.0,0.0,0.0,1.0,-1.0]" : 0.5118630072651882,
    "[0.0,0.0,1.0,-1.0,-1.0,1.0,0.0,0.0,1.0]" : 0.5118630072651882,
    "[1.0,-1.0,0.0,0.0,1.0,0.0,0.0,-1.0,1.0]" : 0.5118630072651882,
    "[1.0,1.0,1.0,0.0,-1.0,0.0,0.0,-1.0,0.0]" : 0.5118630072651882,
    "[1.0,0.0,-1.0,-1.0,1.0,0.0,0.0,0.0,1.0]" : 0.5118630072651882,
    "[-1.0,-1.0,1.0,1.0,1.0,-1.0,1.0,-1.0,0.0]" : 0.5118630072651882,
    "[-1.0,1.0,-1.0,0.0,1.0,0.0,0.0,1.0,0.0]" : 0.5118630072651882,
    "[1.0,1.0,1.0,0.0,-1.0,0.0,0.0,0.0,-1.0]" : 0.5118630072651882,
    "[0.0,0.0,0.0,-1.0,-1.0,0.0,1.0,1.0,1.0]" : 0.5118630072651882,
    "[1.0,0.0,0.0,1.0,0.0,-1.0,1.0,0.0,-1.0]" : 0.5118630072651882,
    "[1.0,0.0,-1.0,1.0,0.0,-1.0,1.0,0.0,0.0]" : 0.5118630072651882,
    "[-1.0,0.0,1.0,0.0,1.0,-1.0,1.0,0.0,0.0]" : 0.5118630072651882,
    "[0.0,-1.0,1.0,0.0,0.0,1.0,-1.0,0.0,1.0]" : 0.5118630072651882,
    "[1.0,-1.0,0.0,0.0,1.0,-1.0,0.0,0.0,1.0]" : 0.5118630072651882,
    "[-1.0,1.0,0.0,0.0,1.0,0.0,-1.0,1.0,0.0]" : 0.5118630072651882,
    "[0.0,-1.0,1.0,0.0,1.0,-1.0,1.0,0.0,0.0]" : 0.5118630072651882,
    "[0.0,-1.0,0.0,0.0,-1.0,0.0,1.0,1.0,1.0]" : 0.5118630072651882,
    "[1.0,0.0,0.0,0.0,1.0,-1.0,-1.0,0.0,1.0]" : 0.5118630072651882,
    "[-1.0,0.0,0.0,0.0,-1.0,0.0,1.0,1.0,1.0]" : 0.5118630072651882,
    "[1.0,-1.0,1.0,-1.0,1.0,0.0,1.0,0.0,-1.0]" : 0.5118630072651882,
    "[1.0,0.0,0.0,1.0,-1.0,0.0,1.0,-1.0,0.0]" : 0.5118630072651882,
    "[0.0,-1.0,1.0,-1.0,1.0,0.0,1.0,0.0,0.0]" : 0.5118630072651882,
    "[0.0,1.0,-1.0,0.0,1.0,-1.0,0.0,1.0,0.0]" : 0.5118630072651882,
    "[0.0,-1.0,0.0,-1.0,0.0,0.0,1.0,1.0,1.0]" : 0.5118630072651882,
    "[-1.0,-1.0,1.0,0.0,1.0,1.0,0.0,-1.0,1.0]" : 0.5118630072651882,
    "[0.0,-1.0,1.0,0.0,-1.0,1.0,0.0,0.0,1.0]" : 0.5118630072651882,
    "[0.0,1.0,-1.0,-1.0,1.0,0.0,0.0,1.0,0.0]" : 0.5118630072651882,
    "[1.0,0.0,0.0,-1.0,1.0,-1.0,0.0,0.0,1.0]" : 0.5118630072651882,
    "[1.0,-1.0,0.0,1.0,0.0,0.0,1.0,-1.0,0.0]" : 0.5118630072651882,
    "[1.0,0.0,0.0,1.0,0.0,0.0,1.0,-1.0,-1.0]" : 0.5118630072651882,
    "[0.0,0.0,-1.0,1.0,1.0,1.0,0.0,0.0,-1.0]" : 0.5118630072651882,
    "[0.0,0.0,1.0,-1.0,1.0,-1.0,1.0,0.0,0.0]" : 0.5118630072651882,
    "[0.0,-1.0,0.0,0.0,0.0,-1.0,1.0,1.0,1.0]" : 0.5118630072651882,
    "[0.0,-1.0,-1.0,0.0,0.0,0.0,1.0,1.0,1.0]" : 0.5118630072651882,
    "[1.0,1.0,-1.0,-1.0,1.0,-1.0,0.0,-1.0,1.0]" : 0.5118630072651882,
    "[0.0,-1.0,0.0,1.0,1.0,1.0,0.0,-1.0,0.0]" : 0.5118630072651882,
    "[1.0,-1.0,-1.0,0.0,1.0,0.0,0.0,0.0,1.0]" : 0.5118630072651882,
    "[-1.0,0.0,1.0,-1.0,0.0,1.0,0.0,0.0,1.0]" : 0.5118630072651882,
    "[-1.0,0.0,0.0,1.0,1.0,1.0,0.0,0.0,-1.0]" : 0.5118630072651882,
    "[-1.0,0.0,-1.0,1.0,1.0,1.0,0.0,0.0,0.0]" : 0.5118630072651882,
    "[1.0,1.0,1.0,0.0,-1.0,-1.0,0.0,0.0,0.0]" : 0.5118630072651882,
    "[1.0,0.0,-1.0,0.0,1.0,-1.0,0.0,0.0,1.0]" : 0.5118630072651882,
    "[-1.0,1.0,0.0,0.0,1.0,0.0,0.0,1.0,-1.0]" : 0.5118630072651882,
    "[1.0,1.0,1.0,-1.0,0.0,0.0,0.0,-1.0,0.0]" : 0.5118630072651882,
    "[-1.0,-1.0,0.0,0.0,0.0,0.0,1.0,1.0,1.0]" : 0.5118630072651882,
    "[-1.0,0.0,1.0,0.0,1.0,0.0,1.0,-1.0,0.0]" : 0.5118630072651882,
    "[-1.0,1.0,0.0,-1.0,1.0,0.0,0.0,1.0,0.0]" : 0.5118630072651882,
    "[1.0,1.0,1.0,0.0,0.0,-1.0,-1.0,0.0,0.0]" : 0.5118630072651882,
    "[1.0,-1.0,0.0,1.0,-1.0,0.0,1.0,0.0,0.0]" : 0.5118630072651882,
    "[1.0,0.0,0.0,1.0,-1.0,0.0,1.0,0.0,-1.0]" : 0.5118630072651882,
    "[0.0,0.0,-1.0,1.0,1.0,1.0,-1.0,0.0,0.0]" : 0.5118630072651882,
    "[0.0,1.0,0.0,0.0,1.0,-1.0,0.0,1.0,-1.0]" : 0.5118630072651882,
    "[1.0,-1.0,0.0,1.0,0.0,-1.0,1.0,0.0,0.0]" : 0.5118630072651882,
    "[-1.0,0.0,1.0,0.0,1.0,0.0,1.0,0.0,-1.0]" : 0.5118630072651882,
    "[0.0,-1.0,1.0,0.0,1.0,0.0,1.0,-1.0,0.0]" : 0.5118630072651882,
    "[1.0,0.0,-1.0,0.0,1.0,0.0,0.0,-1.0,1.0]" : 0.5118630072651882,
    "[0.0,1.0,-1.0,0.0,1.0,0.0,-1.0,1.0,-1.0]" : 0.5118630072651882,
    "[-1.0,0.0,-1.0,-1.0,1.0,0.0,1.0,1.0,1.0]" : 0.5118630072651882,
    "[-1.0,0.0,1.0,-1.0,1.0,1.0,0.0,-1.0,1.0]" : 0.5118630072651882,
    "[-1.0,0.0,1.0,1.0,1.0,0.0,1.0,-1.0,-1.0]" : 0.5113743816236033,
    "[1.0,-1.0,-1.0,-1.0,1.0,1.0,0.0,-1.0,1.0]" : 0.5113743816236033,
    "[1.0,0.0,-1.0,0.0,1.0,0.0,-1.0,-1.0,1.0]" : 0.5113743816236033,
    "[-1.0,1.0,1.0,-1.0,1.0,-1.0,1.0,-1.0,0.0]" : 0.5113743816236033,
    "[1.0,-1.0,-1.0,-1.0,1.0,-1.0,1.0,0.0,1.0]" : 0.5113743816236033,
    "[1.0,1.0,-1.0,0.0,1.0,0.0,-1.0,1.0,-1.0]" : 0.5113743816236033,
    "[-1.0,-1.0,1.0,0.0,1.0,1.0,1.0,-1.0,-1.0]" : 0.5113743816236033,
    "[-1.0,1.0,0.0,-1.0,-1.0,1.0,1.0,0.0,1.0]" : 0.5113743816236033,
    "[1.0,0.0,-1.0,1.0,-1.0,0.0,1.0,-1.0,1.0]" : 0.5113743816236033,
    "[1.0,-1.0,-1.0,-1.0,1.0,1.0,-1.0,0.0,1.0]" : 0.5108852668672388,
    "[-1.0,-1.0,1.0,-1.0,1.0,-1.0,1.0,1.0,0.0]" : 0.5108852668672388,
    "[1.0,1.0,-1.0,0.0,1.0,0.0,-1.0,-1.0,1.0]" : 0.5108852668672388,
    "[1.0,0.0,0.0,1.0,-1.0,0.0,1.0,-1.0,-1.0]" : 0.5108852668672388,
    "[-1.0,0.0,1.0,-1.0,1.0,-1.0,1.0,0.0,0.0]" : 0.5108852668672388,
    "[0.0,-1.0,-1.0,0.0,1.0,-1.0,1.0,1.0,1.0]" : 0.5108852668672388,
    "[1.0,1.0,1.0,0.0,1.0,-1.0,-1.0,-1.0,0.0]" : 0.5108852668672388,
    "[1.0,-1.0,-1.0,0.0,1.0,1.0,-1.0,0.0,1.0]" : 0.5108852668672388,
    "[1.0,1.0,1.0,-1.0,-1.0,0.0,-1.0,0.0,0.0]" : 0.5108852668672388,
    "[1.0,0.0,-1.0,0.0,1.0,-1.0,1.0,-1.0,1.0]" : 0.5108852668672388,
    "[0.0,-1.0,-1.0,-1.0,1.0,0.0,1.0,1.0,1.0]" : 0.5108852668672388,
    "[0.0,0.0,-1.0,1.0,1.0,1.0,-1.0,0.0,-1.0]" : 0.5103956625064903,
    "[1.0,-1.0,0.0,-1.0,1.0,-1.0,-1.0,1.0,1.0]" : 0.5103956625064903,
    "[1.0,0.0,0.0,-1.0,1.0,0.0,-1.0,-1.0,1.0]" : 0.5103956625064903,
    "[-1.0,0.0,1.0,0.0,1.0,-1.0,1.0,0.0,-1.0]" : 0.5103956625064903,
    "[-1.0,-1.0,1.0,-1.0,0.0,1.0,1.0,-1.0,1.0]" : 0.5103956625064903,
    "[1.0,1.0,1.0,0.0,-1.0,-1.0,1.0,-1.0,-1.0]" : 0.5103956625064903,
    "[1.0,0.0,0.0,1.0,1.0,-1.0,1.0,-1.0,-1.0]" : 0.5103956625064903,
    "[-1.0,1.0,1.0,-1.0,1.0,0.0,1.0,-1.0,-1.0]" : 0.5103956625064903,
    "[-1.0,0.0,-1.0,0.0,-1.0,0.0,1.0,1.0,1.0]" : 0.5103956625064903,
    "[-1.0,0.0,-1.0,1.0,1.0,1.0,1.0,0.0,-1.0]" : 0.5103956625064903,
    "[1.0,0.0,-1.0,-1.0,1.0,-1.0,0.0,0.0,1.0]" : 0.5103956625064903,
    "[1.0,0.0,1.0,-1.0,1.0,0.0,1.0,-1.0,-1.0]" : 0.5103956625064903,
    "[1.0,-1.0,-1.0,0.0,1.0,-1.0,0.0,0.0,1.0]" : 0.5103956625064903,
    "[1.0,0.0,0.0,1.0,-1.0,-1.0,1.0,0.0,-1.0]" : 0.5103956625064903,
    "[0.0,-1.0,1.0,1.0,1.0,-1.0,1.0,-1.0,-1.0]" : 0.5103956625064903,
    "[-1.0,-1.0,1.0,-1.0,-1.0,1.0,1.0,0.0,1.0]" : 0.5103956625064903,
    "[1.0,-1.0,0.0,1.0,1.0,-1.0,-1.0,-1.0,1.0]" : 0.5103956625064903,
    "[1.0,-1.0,0.0,1.0,1.0,-1.0,1.0,0.0,-1.0]" : 0.5103956625064903,
    "[0.0,0.0,1.0,-1.0,-1.0,1.0,-1.0,0.0,1.0]" : 0.5103956625064903,
    "[0.0,-1.0,1.0,-1.0,1.0,-1.0,1.0,1.0,-1.0]" : 0.5103956625064903,
    "[-1.0,0.0,1.0,1.0,1.0,-1.0,1.0,0.0,-1.0]" : 0.5103956625064903,
    "[1.0,0.0,0.0,-1.0,1.0,-1.0,-1.0,0.0,1.0]" : 0.5103956625064903,
    "[0.0,-1.0,1.0,-1.0,1.0,1.0,-1.0,-1.0,1.0]" : 0.5103956625064903,
    "[-1.0,0.0,1.0,-1.0,1.0,1.0,1.0,-1.0,-1.0]" : 0.5103956625064903,
    "[1.0,-1.0,-1.0,-1.0,1.0,0.0,-1.0,1.0,1.0]" : 0.5103956625064903,
    "[-1.0,1.0,-1.0,-1.0,1.0,-1.0,0.0,1.0,1.0]" : 0.5103956625064903,
    "[1.0,1.0,-1.0,0.0,1.0,-1.0,-1.0,0.0,1.0]" : 0.5103956625064903,
    "[1.0,-1.0,-1.0,0.0,1.0,0.0,-1.0,1.0,1.0]" : 0.5103956625064903,
    "[-1.0,-1.0,1.0,1.0,1.0,-1.0,1.0,0.0,-1.0]" : 0.5099055680512633,
    "[0.0,1.0,-1.0,-1.0,1.0,0.0,-1.0,1.0,1.0]" : 0.5099055680512633,
    "[-1.0,0.0,-1.0,1.0,1.0,1.0,0.0,0.0,-1.0]" : 0.5099055680512633,
    "[-1.0,-1.0,1.0,-1.0,-1.0,0.0,1.0,1.0,1.0]" : 0.5099055680512633,
    "[1.0,1.0,-1.0,0.0,1.0,-1.0,-1.0,-1.0,1.0]" : 0.5099055680512633,
    "[1.0,-1.0,-1.0,0.0,1.0,0.0,-1.0,0.0,1.0]" : 0.5099055680512633,
    "[1.0,-1.0,-1.0,1.0,-1.0,0.0,1.0,0.0,0.0]" : 0.5099055680512633,
    "[0.0,-1.0,1.0,0.0,-1.0,-1.0,1.0,1.0,1.0]" : 0.5099055680512633,
    "[-1.0,0.0,-1.0,1.0,1.0,1.0,-1.0,0.0,0.0]" : 0.5099055680512633,
    "[1.0,1.0,1.0,0.0,-1.0,0.0,-1.0,-1.0,0.0]" : 0.5099055680512633,
    "[-1.0,0.0,0.0,-1.0,-1.0,0.0,1.0,1.0,1.0]" : 0.5099055680512633,
    "[1.0,-1.0,1.0,0.0,1.0,-1.0,-1.0,0.0,1.0]" : 0.5099055680512633,
    "[-1.0,0.0,1.0,-1.0,1.0,0.0,1.0,0.0,-1.0]" : 0.5099055680512633,
    "[-1.0,-1.0,1.0,0.0,1.0,-1.0,1.0,1.0,-1.0]" : 0.5099055680512633,
    "[0.0,0.0,1.0,-1.0,1.0,-1.0,1.0,0.0,-1.0]" : 0.5099055680512633,
    "[-1.0,1.0,0.0,0.0,1.0,0.0,-1.0,1.0,-1.0]" : 0.5099055680512633,
    "[-1.0,0.0,1.0,0.0,1.0,0.0,1.0,-1.0,-1.0]" : 0.5099055680512633,
    "[-1.0,1.0,-1.0,0.0,1.0,0.0,-1.0,1.0,0.0]" : 0.5099055680512633,
    "[-1.0,1.0,0.0,-1.0,1.0,-1.0,1.0,1.0,-1.0]" : 0.5099055680512633,
    "[1.0,1.0,1.0,0.0,-1.0,0.0,0.0,-1.0,-1.0]" : 0.5099055680512633,
    "[-1.0,-1.0,0.0,0.0,-1.0,0.0,1.0,1.0,1.0]" : 0.5099055680512633,
    "[0.0,-1.0,1.0,1.0,1.0,1.0,-1.0,0.0,-1.0]" : 0.5099055680512633,
    "[0.0,0.0,1.0,0.0,1.0,-1.0,1.0,-1.0,-1.0]" : 0.5099055680512633,
    "[1.0,-1.0,-1.0,0.0,1.0,-1.0,1.0,-1.0,1.0]" : 0.5099055680512633,
    "[1.0,-1.0,-1.0,0.0,1.0,0.0,0.0,-1.0,1.0]" : 0.5099055680512633,
    "[0.0,0.0,-1.0,0.0,-1.0,-1.0,1.0,1.0,1.0]" : 0.5099055680512633,
    "[-1.0,0.0,1.0,1.0,1.0,-1.0,1.0,-1.0,0.0]" : 0.5099055680512633,
    "[1.0,-1.0,-1.0,0.0,1.0,1.0,-1.0,1.0,0.0]" : 0.5099055680512633,
    "[1.0,-1.0,1.0,0.0,1.0,-1.0,1.0,0.0,-1.0]" : 0.5099055680512633,
    "[1.0,-1.0,-1.0,1.0,1.0,1.0,0.0,-1.0,-1.0]" : 0.5094149830109728,
    "[1.0,0.0,-1.0,1.0,1.0,-1.0,-1.0,0.0,1.0]" : 0.5094149830109728,
    "[-1.0,1.0,-1.0,-1.0,1.0,-1.0,1.0,1.0,0.0]" : 0.5094149830109728,
    "[0.0,0.0,1.0,-1.0,1.0,-1.0,1.0,-1.0,0.0]" : 0.5094149830109728,
    "[-1.0,-1.0,0.0,0.0,-1.0,1.0,1.0,1.0,1.0]" : 0.5094149830109728,
    "[1.0,-1.0,0.0,1.0,-1.0,0.0,1.0,1.0,-1.0]" : 0.5094149830109728,
    "[0.0,-1.0,1.0,-1.0,1.0,0.0,1.0,1.0,-1.0]" : 0.5094149830109728,
    "[-1.0,-1.0,1.0,1.0,1.0,0.0,1.0,-1.0,0.0]" : 0.5094149830109728,
    "[-1.0,0.0,-1.0,1.0,-1.0,0.0,1.0,1.0,1.0]" : 0.5094149830109728,
    "[-1.0,0.0,-1.0,1.0,1.0,1.0,1.0,-1.0,0.0]" : 0.5094149830109728,
    "[1.0,0.0,-1.0,0.0,1.0,-1.0,-1.0,0.0,1.0]" : 0.5094149830109728,
    "[0.0,-1.0,-1.0,0.0,-1.0,0.0,1.0,1.0,1.0]" : 0.5094149830109728,
    "[1.0,1.0,1.0,-1.0,1.0,0.0,-1.0,-1.0,0.0]" : 0.5094149830109728,
    "[1.0,1.0,1.0,0.0,-1.0,-1.0,0.0,0.0,-1.0]" : 0.5094149830109728,
    "[-1.0,0.0,0.0,1.0,1.0,1.0,-1.0,0.0,-1.0]" : 0.5094149830109728,
    "[-1.0,1.0,-1.0,0.0,1.0,0.0,0.0,1.0,-1.0]" : 0.5094149830109728,
    "[-1.0,-1.0,1.0,0.0,-1.0,1.0,0.0,0.0,1.0]" : 0.5094149830109728,
    "[1.0,0.0,-1.0,-1.0,1.0,0.0,-1.0,0.0,1.0]" : 0.5094149830109728,
    "[1.0,-1.0,0.0,0.0,1.0,0.0,-1.0,-1.0,1.0]" : 0.5094149830109728,
    "[1.0,-1.0,-1.0,1.0,1.0,0.0,-1.0,-1.0,1.0]" : 0.5094149830109728,
    "[1.0,1.0,1.0,0.0,-1.0,0.0,-1.0,0.0,-1.0]" : 0.5094149830109728,
    "[-1.0,1.0,1.0,-1.0,-1.0,1.0,0.0,0.0,1.0]" : 0.5094149830109728,
    "[-1.0,1.0,1.0,0.0,-1.0,1.0,-1.0,0.0,1.0]" : 0.5094149830109728,
    "[1.0,-1.0,0.0,1.0,1.0,1.0,-1.0,0.0,-1.0]" : 0.5094149830109728,
    "[0.0,1.0,1.0,0.0,1.0,-1.0,-1.0,1.0,-1.0]" : 0.5094149830109728,
    "[0.0,-1.0,1.0,0.0,1.0,0.0,1.0,-1.0,-1.0]" : 0.5094149830109728,
    "[0.0,0.0,1.0,-1.0,1.0,-1.0,1.0,1.0,-1.0]" : 0.5094149830109728,
    "[1.0,0.0,1.0,-1.0,1.0,-1.0,1.0,-1.0,-1.0]" : 0.5094149830109728,
    "[1.0,-1.0,0.0,1.0,1.0,-1.0,-1.0,0.0,1.0]" : 0.5094149830109728,
    "[-1.0,-1.0,1.0,1.0,1.0,0.0,0.0,1.0,-1.0]" : 0.5094149830109728,
    "[-1.0,0.0,1.0,0.0,-1.0,1.0,-1.0,0.0,1.0]" : 0.5089239068945425,
    "[1.0,0.0,-1.0,1.0,-1.0,0.0,1.0,-1.0,0.0]" : 0.5089239068945425,
    "[1.0,0.0,-1.0,-1.0,1.0,1.0,0.0,-1.0,1.0]" : 0.5089239068945425,
    "[1.0,1.0,1.0,-1.0,0.0,-1.0,-1.0,0.0,0.0]" : 0.5089239068945425,
    "[1.0,-1.0,0.0,0.0,1.0,-1.0,-1.0,1.0,1.0]" : 0.5089239068945425,
    "[1.0,1.0,1.0,1.0,-1.0,-1.0,-1.0,0.0,-1.0]" : 0.5089239068945425,
    "[1.0,-1.0,0.0,1.0,-1.0,-1.0,1.0,1.0,-1.0]" : 0.5089239068945425,
    "[-1.0,0.0,-1.0,0.0,-1.0,1.0,1.0,1.0,1.0]" : 0.5089239068945425,
    "[0.0,-1.0,1.0,1.0,1.0,1.0,0.0,-1.0,-1.0]" : 0.5089239068945425,
    "[0.0,1.0,-1.0,-1.0,1.0,-1.0,0.0,1.0,0.0]" : 0.5089239068945425,
    "[-1.0,-1.0,1.0,0.0,1.0,0.0,1.0,0.0,-1.0]" : 0.5089239068945425,
    "[1.0,0.0,-1.0,1.0,1.0,-1.0,-1.0,-1.0,1.0]" : 0.5089239068945425,
    "[0.0,-1.0,1.0,-1.0,1.0,1.0,-1.0,0.0,1.0]" : 0.5089239068945425,
    "[1.0,-1.0,-1.0,-1.0,1.0,0.0,0.0,0.0,1.0]" : 0.5089239068945425,
    "[-1.0,-1.0,1.0,-1.0,1.0,0.0,1.0,0.0,0.0]" : 0.5089239068945425,
    "[0.0,0.0,1.0,-1.0,1.0,1.0,-1.0,-1.0,1.0]" : 0.5089239068945425,
    "[1.0,0.0,-1.0,1.0,-1.0,0.0,1.0,0.0,-1.0]" : 0.5089239068945425,
    "[1.0,-1.0,-1.0,1.0,0.0,0.0,1.0,-1.0,0.0]" : 0.5089239068945425,
    "[-1.0,0.0,1.0,-1.0,-1.0,1.0,0.0,0.0,1.0]" : 0.5089239068945425,
    "[0.0,-1.0,1.0,-1.0,1.0,0.0,1.0,-1.0,0.0]" : 0.5089239068945425,
    "[1.0,0.0,-1.0,1.0,-1.0,-1.0,1.0,0.0,0.0]" : 0.5089239068945425,
    "[1.0,1.0,1.0,-1.0,1.0,0.0,-1.0,0.0,-1.0]" : 0.5089239068945425,
    "[-1.0,-1.0,1.0,-1.0,0.0,1.0,0.0,0.0,1.0]" : 0.5089239068945425,
    "[0.0,0.0,1.0,0.0,-1.0,1.0,-1.0,-1.0,1.0]" : 0.5089239068945425,
    "[-1.0,0.0,-1.0,1.0,1.0,1.0,-1.0,0.0,1.0]" : 0.5089239068945425,
    "[0.0,0.0,1.0,-1.0,-1.0,1.0,1.0,-1.0,1.0]" : 0.5089239068945425,
    "[1.0,1.0,1.0,1.0,-1.0,-1.0,-1.0,0.0,0.0]" : 0.5089239068945425,
    "[-1.0,0.0,-1.0,0.0,1.0,-1.0,1.0,1.0,1.0]" : 0.5089239068945425,
    "[1.0,1.0,1.0,1.0,-1.0,0.0,-1.0,0.0,-1.0]" : 0.5089239068945425,
    "[-1.0,0.0,1.0,0.0,-1.0,1.0,-1.0,1.0,1.0]" : 0.5089239068945425,
    "[1.0,1.0,1.0,0.0,1.0,-1.0,-1.0,0.0,-1.0]" : 0.5089239068945425,
    "[1.0,1.0,-1.0,-1.0,1.0,0.0,0.0,-1.0,1.0]" : 0.5089239068945425,
    "[1.0,1.0,-1.0,-1.0,1.0,0.0,0.0,1.0,-1.0]" : 0.5089239068945425,
    "[1.0,-1.0,1.0,-1.0,1.0,0.0,1.0,-1.0,0.0]" : 0.5084323392104046,
    "[1.0,-1.0,-1.0,1.0,1.0,0.0,1.0,0.0,-1.0]" : 0.5084323392104046,
    "[1.0,1.0,1.0,-1.0,-1.0,1.0,-1.0,-1.0,0.0]" : 0.5084323392104046,
    "[-1.0,1.0,0.0,0.0,1.0,-1.0,0.0,1.0,-1.0]" : 0.5084323392104046,
    "[1.0,1.0,1.0,-1.0,0.0,-1.0,-1.0,1.0,-1.0]" : 0.5084323392104046,
    "[1.0,1.0,1.0,-1.0,0.0,-1.0,0.0,0.0,-1.0]" : 0.5084323392104046,
    "[-1.0,0.0,-1.0,-1.0,-1.0,1.0,1.0,1.0,1.0]" : 0.5084323392104046,
    "[1.0,-1.0,1.0,0.0,1.0,0.0,-1.0,-1.0,1.0]" : 0.5084323392104046,
    "[1.0,-1.0,-1.0,1.0,-1.0,-1.0,1.0,1.0,0.0]" : 0.5084323392104046,
    "[1.0,1.0,-1.0,1.0,-1.0,0.0,1.0,0.0,-1.0]" : 0.5084323392104046,
    "[-1.0,1.0,-1.0,0.0,-1.0,-1.0,1.0,1.0,1.0]" : 0.5084323392104046,
    "[-1.0,0.0,1.0,1.0,1.0,1.0,0.0,-1.0,-1.0]" : 0.5084323392104046,
    "[0.0,1.0,0.0,0.0,1.0,-1.0,-1.0,1.0,-1.0]" : 0.5084323392104046,
    "[1.0,-1.0,-1.0,1.0,0.0,-1.0,1.0,0.0,0.0]" : 0.5084323392104046,
    "[0.0,0.0,-1.0,-1.0,0.0,-1.0,1.0,1.0,1.0]" : 0.5084323392104046,
    "[-1.0,1.0,1.0,-1.0,1.0,-1.0,1.0,0.0,0.0]" : 0.5084323392104046,
    "[1.0,0.0,-1.0,1.0,1.0,1.0,-1.0,-1.0,0.0]" : 0.5084323392104046,
    "[0.0,-1.0,1.0,0.0,1.0,-1.0,1.0,-1.0,0.0]" : 0.5084323392104046,
    "[1.0,0.0,0.0,-1.0,1.0,-1.0,0.0,-1.0,1.0]" : 0.5084323392104046,
    "[1.0,-1.0,0.0,0.0,1.0,-1.0,0.0,-1.0,1.0]" : 0.5084323392104046,
    "[-1.0,1.0,-1.0,-1.0,1.0,0.0,0.0,1.0,0.0]" : 0.5084323392104046,
    "[-1.0,0.0,1.0,0.0,0.0,1.0,-1.0,-1.0,1.0]" : 0.5084323392104046,
    "[-1.0,1.0,1.0,0.0,1.0,0.0,1.0,-1.0,-1.0]" : 0.5084323392104046,
    "[-1.0,-1.0,0.0,1.0,1.0,1.0,0.0,-1.0,0.0]" : 0.5084323392104046,
    "[1.0,1.0,1.0,-1.0,-1.0,0.0,1.0,-1.0,0.0]" : 0.5084323392104046,
    "[-1.0,1.0,-1.0,0.0,1.0,-1.0,0.0,1.0,0.0]" : 0.5084323392104046,
    "[-1.0,1.0,0.0,0.0,1.0,-1.0,-1.0,1.0,1.0]" : 0.5084323392104046,
    "[-1.0,0.0,1.0,0.0,1.0,1.0,-1.0,-1.0,1.0]" : 0.5084323392104046,
    "[-1.0,-1.0,1.0,0.0,0.0,1.0,-1.0,0.0,1.0]" : 0.5084323392104046,
    "[-1.0,1.0,1.0,0.0,1.0,-1.0,-1.0,1.0,0.0]" : 0.5084323392104046,
    "[0.0,-1.0,1.0,-1.0,1.0,1.0,1.0,0.0,-1.0]" : 0.5084323392104046,
    "[-1.0,0.0,-1.0,1.0,1.0,1.0,0.0,-1.0,1.0]" : 0.5084323392104046,
    "[0.0,1.0,1.0,-1.0,-1.0,1.0,0.0,-1.0,1.0]" : 0.5084323392104046,
    "[1.0,1.0,0.0,-1.0,1.0,-1.0,-1.0,-1.0,1.0]" : 0.5084323392104046,
    "[-1.0,1.0,1.0,0.0,1.0,0.0,-1.0,1.0,-1.0]" : 0.5084323392104046,
    "[1.0,1.0,1.0,0.0,-1.0,1.0,-1.0,0.0,-1.0]" : 0.5084323392104046,
    "[1.0,1.0,1.0,-1.0,-1.0,1.0,0.0,0.0,-1.0]" : 0.5084323392104046,
    "[0.0,1.0,-1.0,-1.0,1.0,0.0,1.0,1.0,-1.0]" : 0.5084323392104046,
    "[1.0,1.0,-1.0,-1.0,1.0,1.0,-1.0,0.0,0.0]" : 0.5084323392104046,
    "[0.0,0.0,-1.0,1.0,1.0,1.0,0.0,-1.0,-1.0]" : 0.5079402794664996,
    "[1.0,1.0,1.0,-1.0,-1.0,0.0,0.0,-1.0,0.0]" : 0.5079402794664996,
    "[-1.0,-1.0,1.0,0.0,0.0,1.0,0.0,-1.0,1.0]" : 0.5079402794664996,
    "[1.0,0.0,0.0,1.0,0.0,-1.0,1.0,-1.0,-1.0]" : 0.5079402794664996,
    "[0.0,-1.0,0.0,1.0,1.0,1.0,0.0,-1.0,-1.0]" : 0.5079402794664996,
    "[-1.0,0.0,1.0,-1.0,1.0,0.0,1.0,-1.0,0.0]" : 0.5079402794664996,
    "[-1.0,1.0,1.0,-1.0,1.0,0.0,1.0,0.0,-1.0]" : 0.5079402794664996,
    "[1.0,0.0,-1.0,0.0,1.0,-1.0,0.0,-1.0,1.0]" : 0.5079402794664996,
    "[0.0,-1.0,0.0,1.0,1.0,1.0,-1.0,-1.0,0.0]" : 0.5079402794664996,
    "[-1.0,0.0,1.0,0.0,-1.0,1.0,0.0,-1.0,1.0]" : 0.5079402794664996,
    "[0.0,0.0,-1.0,-1.0,-1.0,1.0,1.0,1.0,1.0]" : 0.5079402794664996,
    "[1.0,-1.0,0.0,-1.0,1.0,0.0,0.0,-1.0,1.0]" : 0.5079402794664996,
    "[-1.0,-1.0,0.0,-1.0,0.0,0.0,1.0,1.0,1.0]" : 0.5079402794664996,
    "[0.0,-1.0,1.0,-1.0,-1.0,1.0,0.0,0.0,1.0]" : 0.5079402794664996,
    "[1.0,0.0,0.0,0.0,1.0,-1.0,-1.0,-1.0,1.0]" : 0.5079402794664996,
    "[0.0,0.0,1.0,-1.0,1.0,0.0,1.0,-1.0,-1.0]" : 0.5079402794664996,
    "[0.0,-1.0,1.0,0.0,-1.0,1.0,-1.0,1.0,1.0]" : 0.5079402794664996,
    "[1.0,-1.0,-1.0,1.0,0.0,0.0,1.0,0.0,-1.0]" : 0.5079402794664996,
    "[1.0,-1.0,-1.0,1.0,1.0,-1.0,0.0,0.0,1.0]" : 0.5079402794664996,
    "[0.0,-1.0,1.0,1.0,1.0,1.0,-1.0,-1.0,0.0]" : 0.5079402794664996,
    "[1.0,1.0,1.0,-1.0,-1.0,0.0,0.0,0.0,-1.0]" : 0.5079402794664996,
    "[0.0,1.0,-1.0,-1.0,1.0,0.0,-1.0,1.0,0.0]" : 0.5079402794664996,
    "[0.0,-1.0,1.0,0.0,0.0,1.0,-1.0,-1.0,1.0]" : 0.5079402794664996,
    "[1.0,-1.0,0.0,-1.0,1.0,-1.0,0.0,0.0,1.0]" : 0.5079402794664996,
    "[-1.0,-1.0,0.0,1.0,1.0,1.0,-1.0,0.0,0.0]" : 0.5079402794664996,
    "[1.0,-1.0,0.0,1.0,-1.0,-1.0,1.0,0.0,0.0]" : 0.5079402794664996,
    "[-1.0,-1.0,1.0,0.0,1.0,-1.0,1.0,0.0,0.0]" : 0.5079402794664996,
    "[-1.0,1.0,0.0,0.0,1.0,-1.0,1.0,1.0,-1.0]" : 0.5079402794664996,
    "[1.0,-1.0,1.0,1.0,-1.0,-1.0,1.0,0.0,0.0]" : 0.5079402794664996,
    "[0.0,-1.0,1.0,-1.0,1.0,-1.0,1.0,0.0,0.0]" : 0.5079402794664996,
    "[0.0,-1.0,0.0,-1.0,-1.0,0.0,1.0,1.0,1.0]" : 0.5079402794664996,
    "[-1.0,0.0,0.0,0.0,-1.0,-1.0,1.0,1.0,1.0]" : 0.5079402794664996,
    "[-1.0,0.0,0.0,1.0,1.0,1.0,-1.0,-1.0,0.0]" : 0.5079402794664996,
    "[1.0,1.0,1.0,0.0,-1.0,-1.0,-1.0,0.0,0.0]" : 0.5079402794664996,
    "[1.0,0.0,-1.0,1.0,-1.0,0.0,1.0,1.0,-1.0]" : 0.5079402794664996,
    "[-1.0,1.0,0.0,-1.0,1.0,0.0,0.0,1.0,-1.0]" : 0.5079402794664996,
    "[1.0,1.0,1.0,0.0,-1.0,0.0,-1.0,1.0,-1.0]" : 0.5079402794664996,
    "[-1.0,1.0,1.0,0.0,-1.0,1.0,0.0,-1.0,1.0]" : 0.5079402794664996,
    "[0.0,-1.0,-1.0,1.0,1.0,1.0,0.0,-1.0,1.0]" : 0.5079402794664996,
    "[-1.0,0.0,1.0,1.0,1.0,1.0,-1.0,0.0,-1.0]" : 0.5079402794664996,
    "[-1.0,0.0,0.0,1.0,-1.0,-1.0,1.0,1.0,1.0]" : 0.5079402794664996,
    "[1.0,0.0,-1.0,1.0,1.0,0.0,1.0,-1.0,-1.0]" : 0.5079402794664996,
    "[-1.0,0.0,1.0,-1.0,1.0,0.0,1.0,-1.0,1.0]" : 0.5079402794664996,
    "[0.0,-1.0,-1.0,1.0,1.0,1.0,1.0,-1.0,-1.0]" : 0.5079402794664996,
    "[-1.0,1.0,1.0,0.0,1.0,-1.0,1.0,-1.0,0.0]" : 0.5079402794664996,
    "[0.0,-1.0,-1.0,1.0,1.0,1.0,1.0,-1.0,0.0]" : 0.5074477271702749,
    "[-1.0,-1.0,0.0,1.0,1.0,1.0,-1.0,1.0,-1.0]" : 0.5074477271702749,
    "[1.0,-1.0,-1.0,1.0,-1.0,-1.0,1.0,0.0,1.0]" : 0.5074477271702749,
    "[-1.0,0.0,1.0,1.0,1.0,1.0,-1.0,-1.0,0.0]" : 0.5074477271702749,
    "[-1.0,0.0,1.0,-1.0,1.0,1.0,1.0,0.0,-1.0]" : 0.5074477271702749,
    "[0.0,-1.0,-1.0,1.0,1.0,1.0,0.0,0.0,-1.0]" : 0.5074477271702749,
    "[0.0,1.0,0.0,-1.0,1.0,-1.0,0.0,1.0,-1.0]" : 0.5074477271702749,
    "[-1.0,1.0,-1.0,0.0,1.0,0.0,1.0,1.0,-1.0]" : 0.5074477271702749,
    "[1.0,-1.0,0.0,1.0,1.0,0.0,-1.0,-1.0,1.0]" : 0.5074477271702749,
    "[0.0,1.0,-1.0,0.0,1.0,-1.0,-1.0,1.0,0.0]" : 0.5074477271702749,
    "[0.0,-1.0,0.0,0.0,-1.0,-1.0,1.0,1.0,1.0]" : 0.5074477271702749,
    "[0.0,-1.0,-1.0,1.0,1.0,1.0,0.0,-1.0,0.0]" : 0.5074477271702749,
    "[0.0,0.0,1.0,-1.0,1.0,1.0,1.0,-1.0,-1.0]" : 0.5074477271702749,
    "[-1.0,0.0,1.0,-1.0,-1.0,0.0,1.0,1.0,1.0]" : 0.5074477271702749,
    "[0.0,-1.0,1.0,0.0,-1.0,1.0,-1.0,0.0,1.0]" : 0.5074477271702749,
    "[-1.0,1.0,-1.0,0.0,-1.0,0.0,1.0,1.0,1.0]" : 0.5074477271702749,
    "[-1.0,-1.0,1.0,1.0,0.0,1.0,-1.0,-1.0,1.0]" : 0.5074477271702749,
    "[1.0,1.0,1.0,-1.0,0.0,0.0,-1.0,-1.0,0.0]" : 0.5074477271702749,
    "[1.0,1.0,1.0,0.0,-1.0,-1.0,0.0,-1.0,0.0]" : 0.5074477271702749,
    "[1.0,1.0,1.0,0.0,0.0,-1.0,0.0,-1.0,-1.0]" : 0.5074477271702749,
    "[1.0,0.0,-1.0,1.0,0.0,0.0,1.0,-1.0,-1.0]" : 0.5074477271702749,
    "[1.0,0.0,0.0,1.0,-1.0,-1.0,1.0,1.0,-1.0]" : 0.5074477271702749,
    "[1.0,0.0,-1.0,1.0,1.0,1.0,-1.0,0.0,-1.0]" : 0.5074477271702749,
    "[0.0,-1.0,1.0,0.0,1.0,-1.0,1.0,0.0,-1.0]" : 0.5074477271702749,
    "[-1.0,-1.0,1.0,0.0,0.0,1.0,1.0,-1.0,1.0]" : 0.5074477271702749,
    "[-1.0,0.0,-1.0,-1.0,0.0,0.0,1.0,1.0,1.0]" : 0.5074477271702749,
    "[0.0,0.0,-1.0,1.0,1.0,1.0,-1.0,-1.0,0.0]" : 0.5074477271702749,
    "[-1.0,0.0,0.0,-1.0,0.0,-1.0,1.0,1.0,1.0]" : 0.5074477271702749,
    "[-1.0,1.0,0.0,-1.0,1.0,-1.0,0.0,1.0,0.0]" : 0.5074477271702749,
    "[1.0,1.0,1.0,-1.0,0.0,0.0,-1.0,0.0,-1.0]" : 0.5074477271702749,
    "[-1.0,0.0,-1.0,0.0,0.0,-1.0,1.0,1.0,1.0]" : 0.5074477271702749,
    "[1.0,-1.0,0.0,1.0,-1.0,0.0,1.0,0.0,-1.0]" : 0.5074477271702749,
    "[0.0,-1.0,-1.0,1.0,1.0,1.0,-1.0,0.0,0.0]" : 0.5074477271702749,
    "[1.0,0.0,0.0,1.0,-1.0,-1.0,1.0,-1.0,0.0]" : 0.5074477271702749,
    "[1.0,0.0,-1.0,-1.0,1.0,1.0,-1.0,0.0,1.0]" : 0.5074477271702749,
    "[0.0,1.0,0.0,-1.0,1.0,-1.0,-1.0,1.0,0.0]" : 0.5074477271702749,
    "[-1.0,0.0,0.0,1.0,1.0,1.0,0.0,-1.0,-1.0]" : 0.5074477271702749,
    "[-1.0,-1.0,1.0,0.0,1.0,0.0,1.0,1.0,-1.0]" : 0.5074477271702749,
    "[1.0,-1.0,0.0,1.0,0.0,0.0,1.0,-1.0,-1.0]" : 0.5074477271702749,
    "[1.0,-1.0,0.0,-1.0,1.0,0.0,-1.0,0.0,1.0]" : 0.5074477271702749,
    "[0.0,1.0,0.0,-1.0,1.0,-1.0,-1.0,1.0,1.0]" : 0.5074477271702749,
    "[1.0,1.0,1.0,-1.0,-1.0,0.0,-1.0,-1.0,1.0]" : 0.5074477271702749,
    "[1.0,1.0,1.0,0.0,-1.0,-1.0,-1.0,1.0,0.0]" : 0.5074477271702749,
    "[-1.0,1.0,1.0,-1.0,-1.0,1.0,0.0,-1.0,1.0]" : 0.5074477271702749,
    "[-1.0,0.0,1.0,1.0,-1.0,1.0,0.0,-1.0,1.0]" : 0.5074477271702749,
    "[-1.0,0.0,1.0,1.0,-1.0,1.0,-1.0,0.0,1.0]" : 0.5069546818286852,
    "[-1.0,-1.0,1.0,0.0,-1.0,1.0,-1.0,1.0,1.0]" : 0.5069546818286852,
    "[1.0,-1.0,-1.0,1.0,1.0,0.0,-1.0,0.0,1.0]" : 0.5069546818286852,
    "[0.0,0.0,1.0,-1.0,1.0,-1.0,1.0,-1.0,1.0]" : 0.5069546818286852,
    "[-1.0,1.0,-1.0,-1.0,1.0,0.0,0.0,1.0,1.0]" : 0.5069546818286852,
    "[-1.0,1.0,-1.0,1.0,1.0,0.0,-1.0,1.0,-1.0]" : 0.5069546818286852,
    "[1.0,0.0,-1.0,1.0,-1.0,1.0,1.0,-1.0,-1.0]" : 0.5069546818286852,
    "[-1.0,0.0,1.0,0.0,1.0,-1.0,1.0,-1.0,0.0]" : 0.5069546818286852,
    "[1.0,1.0,1.0,0.0,-1.0,1.0,0.0,-1.0,-1.0]" : 0.5069546818286852,
    "[0.0,-1.0,-1.0,-1.0,-1.0,1.0,1.0,1.0,1.0]" : 0.5069546818286852,
    "[1.0,-1.0,-1.0,1.0,0.0,0.0,1.0,-1.0,1.0]" : 0.5069546818286852,
    "[1.0,1.0,1.0,-1.0,-1.0,1.0,-1.0,0.0,0.0]" : 0.5069546818286852,
    "[-1.0,1.0,-1.0,-1.0,-1.0,0.0,1.0,1.0,1.0]" : 0.5069546818286852,
    "[0.0,-1.0,-1.0,0.0,0.0,-1.0,1.0,1.0,1.0]" : 0.5069546818286852,
    "[-1.0,1.0,0.0,-1.0,0.0,-1.0,1.0,1.0,1.0]" : 0.5069546818286852,
    "[-1.0,-1.0,1.0,1.0,-1.0,1.0,-1.0,0.0,1.0]" : 0.5069546818286852,
    "[-1.0,1.0,0.0,1.0,1.0,-1.0,-1.0,1.0,0.0]" : 0.5069546818286852,
    "[-1.0,-1.0,0.0,1.0,-1.0,0.0,1.0,1.0,1.0]" : 0.5069546818286852,
    "[1.0,1.0,1.0,-1.0,-1.0,0.0,0.0,1.0,-1.0]" : 0.5069546818286852,
    "[1.0,1.0,-1.0,1.0,-1.0,-1.0,1.0,-1.0,0.0]" : 0.5069546818286852,
    "[0.0,0.0,1.0,-1.0,-1.0,1.0,0.0,-1.0,1.0]" : 0.5069546818286852,
    "[0.0,-1.0,1.0,-1.0,-1.0,1.0,1.0,0.0,1.0]" : 0.5069546818286852,
    "[1.0,1.0,0.0,-1.0,1.0,-1.0,0.0,1.0,-1.0]" : 0.5069546818286852,
    "[0.0,0.0,-1.0,-1.0,-1.0,0.0,1.0,1.0,1.0]" : 0.5069546818286852,
    "[0.0,-1.0,1.0,-1.0,1.0,1.0,1.0,-1.0,0.0]" : 0.5069546818286852,
    "[1.0,1.0,1.0,-1.0,-1.0,0.0,-1.0,1.0,-1.0]" : 0.5069546818286852,
    "[1.0,0.0,1.0,1.0,-1.0,-1.0,1.0,-1.0,-1.0]" : 0.5069546818286852,
    "[1.0,1.0,1.0,-1.0,1.0,0.0,0.0,-1.0,-1.0]" : 0.5069546818286852,
    "[0.0,1.0,0.0,-1.0,1.0,0.0,-1.0,1.0,-1.0]" : 0.5069546818286852,
    "[1.0,-1.0,0.0,0.0,1.0,-1.0,-1.0,0.0,1.0]" : 0.5069546818286852,
    "[1.0,1.0,1.0,0.0,0.0,-1.0,-1.0,0.0,-1.0]" : 0.5069546818286852,
    "[0.0,0.0,1.0,-1.0,0.0,1.0,-1.0,-1.0,1.0]" : 0.5069546818286852,
    "[-1.0,-1.0,0.0,1.0,1.0,1.0,0.0,0.0,-1.0]" : 0.5069546818286852,
    "[1.0,0.0,-1.0,1.0,-1.0,1.0,1.0,0.0,-1.0]" : 0.5069546818286852,
    "[-1.0,-1.0,1.0,1.0,1.0,1.0,-1.0,0.0,0.0]" : 0.5069546818286852,
    "[0.0,1.0,1.0,-1.0,1.0,-1.0,1.0,-1.0,0.0]" : 0.5069546818286852,
    "[0.0,1.0,1.0,0.0,-1.0,1.0,-1.0,-1.0,1.0]" : 0.5069546818286852,
    "[-1.0,-1.0,0.0,0.0,1.0,-1.0,1.0,1.0,1.0]" : 0.5069546818286852,
    "[1.0,1.0,-1.0,-1.0,1.0,-1.0,0.0,1.0,0.0]" : 0.5069546818286852,
    "[1.0,1.0,-1.0,1.0,-1.0,0.0,1.0,-1.0,0.0]" : 0.5069546818286852,
    "[-1.0,1.0,1.0,-1.0,1.0,-1.0,0.0,1.0,-1.0]" : 0.5064611429481916,
    "[1.0,1.0,1.0,-1.0,-1.0,1.0,0.0,-1.0,-1.0]" : 0.5064611429481916,
    "[-1.0,1.0,-1.0,1.0,1.0,1.0,0.0,-1.0,0.0]" : 0.5064611429481916,
    "[0.0,-1.0,0.0,1.0,-1.0,-1.0,1.0,1.0,1.0]" : 0.5064611429481916,
    "[-1.0,0.0,-1.0,1.0,-1.0,-1.0,1.0,1.0,1.0]" : 0.5064611429481916,
    "[1.0,-1.0,0.0,-1.0,-1.0,0.0,1.0,1.0,1.0]" : 0.5064611429481916,
    "[-1.0,1.0,1.0,-1.0,1.0,0.0,1.0,-1.0,0.0]" : 0.5064611429481916,
    "[1.0,-1.0,0.0,1.0,1.0,0.0,1.0,-1.0,-1.0]" : 0.5064611429481916,
    "[1.0,0.0,-1.0,-1.0,0.0,-1.0,1.0,1.0,1.0]" : 0.5064611429481916,
    "[1.0,0.0,1.0,1.0,-1.0,-1.0,1.0,-1.0,0.0]" : 0.5064611429481916,
    "[1.0,1.0,1.0,-1.0,0.0,-1.0,0.0,-1.0,0.0]" : 0.5064611429481916,
    "[0.0,-1.0,1.0,1.0,-1.0,1.0,-1.0,0.0,1.0]" : 0.5064611429481916,
    "[-1.0,-1.0,1.0,-1.0,1.0,0.0,1.0,-1.0,1.0]" : 0.5064611429481916,
    "[1.0,1.0,1.0,-1.0,0.0,-1.0,1.0,-1.0,-1.0]" : 0.5064611429481916,
    "[1.0,1.0,1.0,1.0,-1.0,-1.0,0.0,0.0,-1.0]" : 0.5064611429481916,
    "[1.0,-1.0,1.0,1.0,0.0,0.0,1.0,-1.0,-1.0]" : 0.5064611429481916,
    "[0.0,0.0,-1.0,-1.0,1.0,-1.0,1.0,1.0,1.0]" : 0.5064611429481916,
    "[0.0,-1.0,1.0,-1.0,1.0,0.0,1.0,0.0,-1.0]" : 0.5064611429481916,
    "[-1.0,1.0,-1.0,1.0,1.0,-1.0,0.0,1.0,0.0]" : 0.5064611429481916,
    "[-1.0,-1.0,1.0,0.0,0.0,1.0,-1.0,1.0,1.0]" : 0.5064611429481916,
    "[-1.0,-1.0,0.0,1.0,1.0,1.0,-1.0,-1.0,1.0]" : 0.5064611429481916,
    "[1.0,1.0,1.0,-1.0,1.0,-1.0,-1.0,-1.0,0.0]" : 0.5064611429481916,
    "[1.0,1.0,1.0,-1.0,-1.0,0.0,-1.0,1.0,0.0]" : 0.5064611429481916,
    "[0.0,-1.0,0.0,1.0,1.0,1.0,-1.0,1.0,-1.0]" : 0.5064611429481916,
    "[0.0,-1.0,1.0,0.0,1.0,-1.0,1.0,1.0,-1.0]" : 0.505967110034761,
    "[1.0,1.0,1.0,0.0,-1.0,-1.0,1.0,-1.0,0.0]" : 0.505967110034761,
    "[0.0,1.0,-1.0,-1.0,0.0,-1.0,1.0,1.0,1.0]" : 0.505967110034761,
    "[1.0,-1.0,0.0,-1.0,0.0,-1.0,1.0,1.0,1.0]" : 0.505967110034761,
    "[-1.0,1.0,-1.0,1.0,1.0,-1.0,-1.0,1.0,0.0]" : 0.505967110034761,
    "[-1.0,-1.0,0.0,1.0,-1.0,-1.0,1.0,1.0,1.0]" : 0.505967110034761,
    "[0.0,1.0,-1.0,-1.0,1.0,1.0,-1.0,1.0,-1.0]" : 0.505967110034761,
    "[1.0,-1.0,-1.0,1.0,-1.0,0.0,1.0,1.0,0.0]" : 0.505967110034761,
    "[1.0,1.0,1.0,1.0,-1.0,-1.0,-1.0,-1.0,0.0]" : 0.505967110034761,
    "[1.0,1.0,1.0,-1.0,1.0,-1.0,-1.0,0.0,0.0]" : 0.505967110034761,
    "[-1.0,-1.0,1.0,-1.0,0.0,0.0,1.0,1.0,1.0]" : 0.505967110034761,
    "[-1.0,-1.0,1.0,1.0,-1.0,1.0,0.0,0.0,1.0]" : 0.505967110034761,
    "[1.0,1.0,1.0,0.0,-1.0,-1.0,-1.0,1.0,-1.0]" : 0.505967110034761,
    "[1.0,-1.0,-1.0,1.0,1.0,-1.0,1.0,0.0,0.0]" : 0.505967110034761,
    "[0.0,-1.0,-1.0,-1.0,0.0,0.0,1.0,1.0,1.0]" : 0.505967110034761,
    "[1.0,0.0,0.0,1.0,1.0,-1.0,-1.0,-1.0,1.0]" : 0.505967110034761,
    "[-1.0,1.0,1.0,0.0,-1.0,1.0,-1.0,-1.0,1.0]" : 0.505967110034761,
    "[1.0,-1.0,-1.0,0.0,1.0,1.0,-1.0,-1.0,1.0]" : 0.505967110034761,
    "[0.0,0.0,1.0,-1.0,-1.0,1.0,-1.0,1.0,1.0]" : 0.505967110034761,
    "[-1.0,1.0,0.0,0.0,-1.0,-1.0,1.0,1.0,1.0]" : 0.505967110034761,
    "[1.0,-1.0,1.0,-1.0,0.0,1.0,0.0,-1.0,1.0]" : 0.505967110034761,
    "[1.0,1.0,1.0,-1.0,-1.0,1.0,-1.0,0.0,-1.0]" : 0.505967110034761,
    "[0.0,1.0,-1.0,-1.0,-1.0,0.0,1.0,1.0,1.0]" : 0.505967110034761,
    "[1.0,0.0,-1.0,1.0,-1.0,1.0,1.0,-1.0,0.0]" : 0.505967110034761,
    "[1.0,1.0,1.0,-1.0,0.0,-1.0,-1.0,0.0,1.0]" : 0.505967110034761,
    "[1.0,-1.0,-1.0,1.0,-1.0,0.0,1.0,1.0,-1.0]" : 0.505967110034761,
    "[0.0,-1.0,1.0,1.0,-1.0,-1.0,1.0,1.0,0.0]" : 0.505967110034761,
    "[-1.0,0.0,-1.0,1.0,1.0,1.0,-1.0,1.0,0.0]" : 0.5054725825938661,
    "[1.0,-1.0,-1.0,-1.0,0.0,-1.0,1.0,1.0,1.0]" : 0.5054725825938661,
    "[1.0,0.0,-1.0,1.0,1.0,-1.0,0.0,-1.0,1.0]" : 0.5054725825938661,
    "[1.0,1.0,1.0,-1.0,0.0,-1.0,0.0,1.0,-1.0]" : 0.5054725825938661,
    "[1.0,-1.0,0.0,1.0,0.0,-1.0,1.0,-1.0,0.0]" : 0.5054725825938661,
    "[1.0,-1.0,0.0,0.0,1.0,-1.0,1.0,-1.0,1.0]" : 0.5054725825938661,
    "[1.0,-1.0,0.0,0.0,-1.0,-1.0,1.0,1.0,1.0]" : 0.5054725825938661,
    "[1.0,-1.0,1.0,1.0,0.0,-1.0,1.0,-1.0,0.0]" : 0.5054725825938661,
    "[-1.0,0.0,1.0,0.0,1.0,-1.0,1.0,1.0,-1.0]" : 0.5054725825938661,
    "[1.0,1.0,1.0,1.0,0.0,-1.0,-1.0,0.0,-1.0]" : 0.5054725825938661,
    "[-1.0,-1.0,0.0,0.0,0.0,-1.0,1.0,1.0,1.0]" : 0.5054725825938661,
    "[1.0,0.0,-1.0,1.0,0.0,-1.0,1.0,-1.0,0.0]" : 0.5054725825938661,
    "[-1.0,1.0,-1.0,-1.0,1.0,1.0,0.0,1.0,-1.0]" : 0.5054725825938661,
    "[-1.0,0.0,1.0,-1.0,1.0,-1.0,1.0,1.0,0.0]" : 0.5054725825938661,
    "[1.0,-1.0,-1.0,1.0,0.0,-1.0,1.0,-1.0,1.0]" : 0.5054725825938661,
    "[-1.0,1.0,-1.0,0.0,1.0,-1.0,1.0,1.0,0.0]" : 0.5054725825938661,
    "[1.0,-1.0,0.0,0.0,1.0,1.0,-1.0,-1.0,1.0]" : 0.5054725825938661,
    "[1.0,-1.0,1.0,-1.0,-1.0,1.0,0.0,0.0,1.0]" : 0.5054725825938661,
    "[0.0,1.0,-1.0,-1.0,1.0,1.0,0.0,1.0,-1.0]" : 0.5054725825938661,
    "[0.0,1.0,1.0,-1.0,1.0,-1.0,-1.0,1.0,-1.0]" : 0.5054725825938661,
    "[1.0,1.0,-1.0,1.0,-1.0,0.0,1.0,-1.0,-1.0]" : 0.5054725825938661,
    "[-1.0,1.0,0.0,-1.0,1.0,-1.0,0.0,1.0,1.0]" : 0.5054725825938661,
    "[1.0,1.0,0.0,-1.0,1.0,-1.0,-1.0,1.0,-1.0]" : 0.5054725825938661,
    "[1.0,-1.0,-1.0,1.0,-1.0,1.0,1.0,0.0,-1.0]" : 0.5054725825938661,
    "[0.0,-1.0,-1.0,1.0,1.0,1.0,-1.0,1.0,-1.0]" : 0.5054725825938661,
    "[-1.0,0.0,0.0,-1.0,-1.0,1.0,1.0,1.0,1.0]" : 0.5054725825938661,
    "[1.0,0.0,1.0,-1.0,-1.0,1.0,0.0,-1.0,1.0]" : 0.5054725825938661,
    "[1.0,1.0,1.0,0.0,-1.0,-1.0,0.0,1.0,-1.0]" : 0.5054725825938661,
    "[0.0,1.0,0.0,1.0,1.0,-1.0,-1.0,1.0,-1.0]" : 0.5054725825938661,
    "[1.0,0.0,-1.0,-1.0,1.0,0.0,0.0,-1.0,1.0]" : 0.5054725825938661,
    "[1.0,1.0,1.0,1.0,-1.0,0.0,-1.0,-1.0,0.0]" : 0.5054725825938661,
    "[-1.0,1.0,0.0,-1.0,-1.0,0.0,1.0,1.0,1.0]" : 0.5054725825938661,
    "[1.0,1.0,-1.0,0.0,1.0,-1.0,0.0,-1.0,1.0]" : 0.5054725825938661,
    "[0.0,-1.0,-1.0,0.0,-1.0,1.0,1.0,1.0,1.0]" : 0.5054725825938661,
    "[-1.0,0.0,1.0,-1.0,1.0,0.0,1.0,1.0,-1.0]" : 0.5054725825938661,
    "[0.0,-1.0,1.0,-1.0,-1.0,1.0,-1.0,1.0,1.0]" : 0.5054725825938661,
    "[1.0,-1.0,0.0,1.0,1.0,-1.0,1.0,-1.0,-1.0]" : 0.5054725825938661,
    "[1.0,0.0,0.0,1.0,-1.0,-1.0,1.0,-1.0,1.0]" : 0.5054725825938661,
    "[1.0,-1.0,0.0,1.0,-1.0,1.0,1.0,0.0,-1.0]" : 0.5054725825938661,
    "[0.0,-1.0,1.0,-1.0,-1.0,1.0,0.0,1.0,1.0]" : 0.5054725825938661,
    "[-1.0,-1.0,1.0,1.0,1.0,1.0,-1.0,-1.0,0.0]" : 0.5054725825938661,
    "[1.0,1.0,1.0,-1.0,0.0,0.0,-1.0,1.0,-1.0]" : 0.5049775601304842,
    "[0.0,1.0,1.0,-1.0,1.0,-1.0,1.0,0.0,-1.0]" : 0.5049775601304842,
    "[-1.0,1.0,0.0,0.0,1.0,-1.0,-1.0,1.0,0.0]" : 0.5049775601304842,
    "[1.0,0.0,0.0,1.0,-1.0,1.0,1.0,-1.0,-1.0]" : 0.5049775601304842,
    "[-1.0,0.0,1.0,1.0,-1.0,1.0,-1.0,-1.0,1.0]" : 0.5049775601304842,
    "[1.0,1.0,1.0,0.0,0.0,-1.0,-1.0,-1.0,0.0]" : 0.5049775601304842,
    "[-1.0,-1.0,1.0,-1.0,-1.0,1.0,0.0,1.0,1.0]" : 0.5049775601304842,
    "[1.0,-1.0,0.0,-1.0,1.0,0.0,-1.0,1.0,1.0]" : 0.5049775601304842,
    "[0.0,-1.0,0.0,1.0,1.0,1.0,-1.0,0.0,-1.0]" : 0.5049775601304842,
    "[1.0,1.0,1.0,0.0,-1.0,-1.0,0.0,-1.0,1.0]" : 0.5049775601304842,
    "[-1.0,-1.0,1.0,0.0,1.0,1.0,1.0,0.0,-1.0]" : 0.5049775601304842,
    "[0.0,0.0,-1.0,1.0,-1.0,-1.0,1.0,1.0,1.0]" : 0.5049775601304842,
    "[-1.0,-1.0,0.0,1.0,1.0,1.0,-1.0,1.0,0.0]" : 0.5049775601304842,
    "[1.0,1.0,-1.0,1.0,-1.0,-1.0,1.0,0.0,0.0]" : 0.5049775601304842,
    "[1.0,1.0,0.0,1.0,-1.0,-1.0,1.0,-1.0,-1.0]" : 0.5049775601304842,
    "[-1.0,1.0,0.0,0.0,1.0,1.0,-1.0,1.0,-1.0]" : 0.5049775601304842,
    "[-1.0,1.0,0.0,1.0,1.0,-1.0,-1.0,1.0,-1.0]" : 0.5049775601304842,
    "[-1.0,-1.0,1.0,1.0,1.0,-1.0,1.0,0.0,0.0]" : 0.5049775601304842,
    "[-1.0,1.0,-1.0,-1.0,1.0,1.0,0.0,1.0,0.0]" : 0.5049775601304842,
    "[-1.0,-1.0,1.0,0.0,0.0,-1.0,1.0,1.0,1.0]" : 0.5049775601304842,
    "[1.0,-1.0,0.0,1.0,0.0,-1.0,1.0,0.0,-1.0]" : 0.5049775601304842,
    "[-1.0,-1.0,0.0,1.0,1.0,1.0,-1.0,0.0,1.0]" : 0.5049775601304842,
    "[-1.0,0.0,1.0,-1.0,0.0,1.0,0.0,-1.0,1.0]" : 0.5049775601304842,
    "[1.0,-1.0,-1.0,1.0,-1.0,1.0,1.0,0.0,0.0]" : 0.5049775601304842,
    "[1.0,-1.0,1.0,0.0,1.0,0.0,1.0,-1.0,-1.0]" : 0.5049775601304842,
    "[1.0,1.0,1.0,-1.0,0.0,-1.0,0.0,-1.0,1.0]" : 0.5049775601304842,
    "[-1.0,0.0,1.0,-1.0,0.0,1.0,1.0,-1.0,1.0]" : 0.5049775601304842,
    "[0.0,-1.0,1.0,-1.0,1.0,0.0,1.0,-1.0,1.0]" : 0.5049775601304842,
    "[-1.0,1.0,-1.0,1.0,1.0,1.0,-1.0,0.0,-1.0]" : 0.5049775601304842,
    "[-1.0,1.0,1.0,1.0,1.0,-1.0,-1.0,0.0,0.0]" : 0.504771593163336,
    "[0.0,-1.0,1.0,1.0,1.0,0.0,-1.0,1.0,-1.0]" : 0.5047594330843992,
    "[0.0,1.0,1.0,-1.0,1.0,-1.0,-1.0,1.0,0.0]" : 0.5044820421490975,
    "[-1.0,0.0,-1.0,1.0,1.0,1.0,0.0,1.0,-1.0]" : 0.5044820421490975,
    "[-1.0,0.0,-1.0,1.0,0.0,-1.0,1.0,1.0,1.0]" : 0.5044820421490975,
    "[1.0,-1.0,-1.0,1.0,0.0,1.0,1.0,0.0,-1.0]" : 0.5044820421490975,
    "[1.0,-1.0,-1.0,0.0,1.0,-1.0,0.0,1.0,1.0]" : 0.5044820421490975,
    "[-1.0,-1.0,0.0,-1.0,1.0,-1.0,1.0,1.0,1.0]" : 0.5044820421490975,
    "[1.0,1.0,1.0,1.0,-1.0,0.0,0.0,-1.0,-1.0]" : 0.5044820421490975,
    "[0.0,1.0,-1.0,1.0,1.0,1.0,-1.0,0.0,-1.0]" : 0.5044820421490975,
    "[0.0,-1.0,1.0,-1.0,-1.0,0.0,1.0,1.0,1.0]" : 0.5044820421490975,
    "[0.0,1.0,-1.0,-1.0,1.0,0.0,0.0,1.0,-1.0]" : 0.5044820421490975,
    "[0.0,-1.0,1.0,-1.0,0.0,1.0,-1.0,0.0,1.0]" : 0.5044820421490975,
    "[-1.0,-1.0,0.0,1.0,1.0,1.0,0.0,-1.0,1.0]" : 0.5044820421490975,
    "[0.0,-1.0,1.0,-1.0,0.0,1.0,0.0,-1.0,1.0]" : 0.5044820421490975,
    "[-1.0,1.0,1.0,0.0,1.0,-1.0,0.0,1.0,-1.0]" : 0.5044820421490975,
    "[-1.0,1.0,0.0,1.0,1.0,1.0,-1.0,-1.0,0.0]" : 0.5044820421490975,
    "[1.0,0.0,-1.0,1.0,0.0,1.0,1.0,-1.0,-1.0]" : 0.5044820421490975,
    "[0.0,-1.0,0.0,-1.0,0.0,-1.0,1.0,1.0,1.0]" : 0.5044820421490975,
    "[-1.0,1.0,-1.0,1.0,1.0,1.0,-1.0,-1.0,0.0]" : 0.5044820421490975,
    "[-1.0,0.0,-1.0,1.0,1.0,1.0,0.0,-1.0,0.0]" : 0.5044820421490975,
    "[1.0,1.0,1.0,-1.0,0.0,0.0,0.0,-1.0,-1.0]" : 0.5044820421490975,
    "[0.0,1.0,-1.0,0.0,-1.0,-1.0,1.0,1.0,1.0]" : 0.5044820421490975,
    "[1.0,-1.0,-1.0,0.0,1.0,0.0,1.0,-1.0,1.0]" : 0.5044820421490975,
    "[0.0,-1.0,1.0,-1.0,1.0,-1.0,1.0,1.0,0.0]" : 0.5044820421490975,
    "[1.0,1.0,0.0,0.0,1.0,-1.0,-1.0,-1.0,1.0]" : 0.5044820421490975,
    "[1.0,1.0,0.0,-1.0,1.0,0.0,-1.0,-1.0,1.0]" : 0.5044820421490975,
    "[1.0,0.0,0.0,-1.0,1.0,-1.0,1.0,-1.0,1.0]" : 0.5044820421490975,
    "[0.0,-1.0,-1.0,1.0,1.0,1.0,0.0,1.0,-1.0]" : 0.5044820421490975,
    "[-1.0,-1.0,0.0,1.0,1.0,1.0,1.0,-1.0,0.0]" : 0.5044820421490975,
    "[-1.0,0.0,-1.0,-1.0,0.0,1.0,1.0,1.0,1.0]" : 0.5044820421490975,
    "[1.0,-1.0,1.0,-1.0,0.0,1.0,-1.0,-1.0,1.0]" : 0.5044820421490975,
    "[1.0,0.0,-1.0,0.0,1.0,1.0,-1.0,-1.0,1.0]" : 0.5044820421490975,
    "[1.0,0.0,-1.0,1.0,1.0,0.0,-1.0,-1.0,1.0]" : 0.5044820421490975,
    "[-1.0,-1.0,1.0,0.0,1.0,0.0,1.0,-1.0,1.0]" : 0.5044820421490975,
    "[0.0,0.0,1.0,1.0,-1.0,1.0,-1.0,-1.0,1.0]" : 0.5044820421490975,
    "[1.0,0.0,1.0,-1.0,-1.0,1.0,-1.0,-1.0,1.0]" : 0.5044820421490975,
    "[-1.0,1.0,-1.0,1.0,1.0,1.0,0.0,-1.0,-1.0]" : 0.5044820421490975,
    "[1.0,-1.0,-1.0,-1.0,1.0,0.0,1.0,0.0,1.0]" : 0.5044820421490975,
    "[-1.0,1.0,-1.0,0.0,1.0,-1.0,0.0,1.0,1.0]" : 0.5039860281536919,
    "[-1.0,1.0,0.0,1.0,1.0,1.0,-1.0,0.0,-1.0]" : 0.5039860281536919,
    "[-1.0,1.0,0.0,1.0,1.0,0.0,-1.0,1.0,-1.0]" : 0.5039860281536919,
    "[0.0,1.0,-1.0,-1.0,1.0,1.0,-1.0,1.0,0.0]" : 0.5039860281536919,
    "[-1.0,-1.0,0.0,1.0,1.0,1.0,0.0,1.0,-1.0]" : 0.5039860281536919,
    "[-1.0,-1.0,1.0,-1.0,1.0,1.0,1.0,0.0,0.0]" : 0.5039860281536919,
    "[1.0,-1.0,1.0,1.0,0.0,-1.0,1.0,0.0,-1.0]" : 0.5039860281536919,
    "[1.0,1.0,1.0,-1.0,0.0,0.0,1.0,-1.0,-1.0]" : 0.5039860281536919,
    "[1.0,1.0,1.0,0.0,-1.0,0.0,1.0,-1.0,-1.0]" : 0.5039860281536919,
    "[1.0,-1.0,-1.0,-1.0,1.0,0.0,0.0,1.0,1.0]" : 0.5039860281536919,
    "[-1.0,-1.0,1.0,1.0,1.0,1.0,0.0,-1.0,0.0]" : 0.5039860281536919,
    "[0.0,0.0,-1.0,1.0,1.0,1.0,1.0,-1.0,-1.0]" : 0.5039860281536919,
    "[0.0,-1.0,1.0,-1.0,1.0,-1.0,1.0,0.0,1.0]" : 0.5039860281536919,
    "[1.0,0.0,1.0,-1.0,1.0,-1.0,-1.0,0.0,1.0]" : 0.5039860281536919,
    "[-1.0,-1.0,0.0,1.0,1.0,1.0,1.0,-1.0,-1.0]" : 0.5039860281536919,
    "[1.0,-1.0,0.0,-1.0,1.0,0.0,1.0,-1.0,1.0]" : 0.5039860281536919,
    "[0.0,-1.0,0.0,1.0,1.0,1.0,1.0,-1.0,-1.0]" : 0.5039860281536919,
    "[1.0,-1.0,0.0,1.0,1.0,-1.0,0.0,-1.0,1.0]" : 0.5039860281536919,
    "[1.0,0.0,1.0,-1.0,-1.0,1.0,-1.0,0.0,1.0]" : 0.5039860281536919,
    "[-1.0,1.0,-1.0,1.0,1.0,1.0,-1.0,0.0,0.0]" : 0.5039860281536919,
    "[1.0,1.0,1.0,0.0,0.0,-1.0,-1.0,1.0,-1.0]" : 0.5039860281536919,
    "[-1.0,-1.0,1.0,1.0,1.0,1.0,0.0,0.0,-1.0]" : 0.5039860281536919,
    "[1.0,0.0,-1.0,-1.0,1.0,0.0,-1.0,1.0,1.0]" : 0.5039860281536919,
    "[0.0,-1.0,1.0,0.0,1.0,-1.0,1.0,-1.0,1.0]" : 0.5039860281536919,
    "[1.0,0.0,1.0,1.0,-1.0,-1.0,1.0,0.0,-1.0]" : 0.5039860281536919,
    "[-1.0,1.0,0.0,-1.0,1.0,0.0,1.0,1.0,-1.0]" : 0.5039860281536919,
    "[1.0,0.0,-1.0,-1.0,1.0,-1.0,1.0,0.0,1.0]" : 0.5039860281536919,
    "[0.0,-1.0,1.0,1.0,1.0,-1.0,1.0,0.0,-1.0]" : 0.5039860281536919,
    "[0.0,1.0,-1.0,0.0,1.0,-1.0,-1.0,1.0,1.0]" : 0.5039860281536919,
    "[1.0,1.0,0.0,-1.0,1.0,0.0,-1.0,1.0,-1.0]" : 0.5039860281536919,
    "[1.0,-1.0,-1.0,-1.0,1.0,1.0,0.0,0.0,1.0]" : 0.5039860281536919,
    "[1.0,-1.0,0.0,-1.0,1.0,1.0,-1.0,0.0,1.0]" : 0.5039860281536919,
    "[-1.0,0.0,1.0,1.0,1.0,0.0,-1.0,-1.0,1.0]" : 0.5038638400944451,
    "[1.0,-1.0,0.0,1.0,-1.0,1.0,0.0,1.0,-1.0]" : 0.5038624331240498,
    "[1.0,0.0,1.0,-1.0,-1.0,1.0,1.0,0.0,-1.0]" : 0.5038365592734111,
    "[1.0,0.0,-1.0,1.0,-1.0,-1.0,1.0,0.0,1.0]" : 0.5034895176477566,
    "[1.0,1.0,1.0,-1.0,0.0,1.0,-1.0,0.0,-1.0]" : 0.5034895176477566,
    "[0.0,-1.0,-1.0,1.0,1.0,1.0,-1.0,1.0,0.0]" : 0.5034895176477566,
    "[1.0,1.0,1.0,0.0,-1.0,0.0,-1.0,-1.0,1.0]" : 0.5034895176477566,
    "[0.0,1.0,0.0,-1.0,1.0,1.0,-1.0,1.0,-1.0]" : 0.5034895176477566,
    "[1.0,1.0,1.0,-1.0,0.0,0.0,-1.0,-1.0,1.0]" : 0.5034895176477566,
    "[1.0,1.0,0.0,1.0,0.0,-1.0,1.0,-1.0,-1.0]" : 0.5034895176477566,
    "[0.0,0.0,-1.0,1.0,1.0,1.0,-1.0,1.0,-1.0]" : 0.5034895176477566,
    "[0.0,1.0,-1.0,1.0,1.0,1.0,0.0,-1.0,-1.0]" : 0.5034895176477566,
    "[1.0,1.0,1.0,1.0,0.0,-1.0,0.0,-1.0,-1.0]" : 0.5034895176477566,
    "[1.0,1.0,-1.0,1.0,0.0,0.0,1.0,-1.0,-1.0]" : 0.5034895176477566,
    "[1.0,0.0,-1.0,1.0,1.0,-1.0,1.0,-1.0,0.0]" : 0.5034895176477566,
    "[1.0,1.0,1.0,-1.0,0.0,-1.0,1.0,-1.0,0.0]" : 0.5034895176477566,
    "[-1.0,0.0,-1.0,1.0,1.0,1.0,-1.0,1.0,-1.0]" : 0.5034895176477566,
    "[-1.0,0.0,0.0,1.0,1.0,1.0,1.0,-1.0,-1.0]" : 0.5034895176477566,
    "[-1.0,1.0,-1.0,1.0,1.0,1.0,0.0,0.0,-1.0]" : 0.5034895176477566,
    "[1.0,-1.0,1.0,-1.0,1.0,0.0,-1.0,0.0,1.0]" : 0.5034895176477566,
    "[1.0,0.0,-1.0,1.0,0.0,-1.0,1.0,-1.0,1.0]" : 0.5034895176477566,
    "[-1.0,-1.0,0.0,-1.0,0.0,1.0,1.0,1.0,1.0]" : 0.5029925101342844,
    "[-1.0,1.0,0.0,-1.0,1.0,1.0,0.0,1.0,-1.0]" : 0.5029925101342844,
    "[0.0,1.0,-1.0,1.0,1.0,-1.0,-1.0,1.0,0.0]" : 0.5029925101342844,
    "[0.0,1.0,1.0,-1.0,1.0,0.0,1.0,-1.0,-1.0]" : 0.5029925101342844,
    "[1.0,-1.0,0.0,1.0,-1.0,-1.0,1.0,0.0,1.0]" : 0.5029925101342844,
    "[-1.0,1.0,1.0,0.0,0.0,1.0,-1.0,-1.0,1.0]" : 0.5029925101342844,
    "[0.0,1.0,1.0,-1.0,1.0,-1.0,1.0,-1.0,-1.0]" : 0.5029925101342844,
    "[1.0,-1.0,-1.0,1.0,1.0,1.0,0.0,-1.0,0.0]" : 0.5029925101342844,
    "[-1.0,-1.0,1.0,0.0,-1.0,1.0,1.0,0.0,1.0]" : 0.5029925101342844,
    "[1.0,1.0,-1.0,0.0,1.0,-1.0,-1.0,1.0,0.0]" : 0.5029925101342844,
    "[-1.0,0.0,1.0,-1.0,1.0,1.0,1.0,-1.0,0.0]" : 0.5029925101342844,
    "[1.0,0.0,0.0,-1.0,1.0,-1.0,-1.0,1.0,1.0]" : 0.5029925101342844,
    "[-1.0,1.0,1.0,-1.0,1.0,0.0,0.0,1.0,-1.0]" : 0.5029925101342844,
    "[0.0,1.0,1.0,-1.0,1.0,0.0,-1.0,1.0,-1.0]" : 0.5029925101342844,
    "[0.0,0.0,1.0,1.0,1.0,-1.0,1.0,-1.0,-1.0]" : 0.5029925101342844,
    "[1.0,-1.0,1.0,-1.0,1.0,-1.0,0.0,0.0,1.0]" : 0.5029925101342844,
    "[1.0,-1.0,0.0,1.0,0.0,-1.0,1.0,1.0,-1.0]" : 0.5029925101342844,
    "[1.0,-1.0,-1.0,0.0,-1.0,0.0,1.0,1.0,1.0]" : 0.5029925101342844,
    "[-1.0,1.0,1.0,0.0,1.0,-1.0,1.0,0.0,-1.0]" : 0.5029925101342844,
    "[1.0,-1.0,0.0,1.0,-1.0,-1.0,1.0,1.0,0.0]" : 0.5029925101342844,
    "[0.0,0.0,-1.0,1.0,1.0,1.0,-1.0,-1.0,1.0]" : 0.5029925101342844,
    "[1.0,-1.0,1.0,-1.0,0.0,1.0,-1.0,0.0,1.0]" : 0.5029925101342844,
    "[1.0,-1.0,-1.0,0.0,1.0,1.0,0.0,-1.0,1.0]" : 0.5029925101342844,
    "[1.0,-1.0,-1.0,0.0,-1.0,-1.0,1.0,1.0,1.0]" : 0.5029925101342844,
    "[1.0,-1.0,1.0,0.0,1.0,-1.0,0.0,-1.0,1.0]" : 0.5029925101342844,
    "[1.0,1.0,1.0,-1.0,0.0,-1.0,-1.0,1.0,0.0]" : 0.5029925101342844,
    "[1.0,-1.0,1.0,-1.0,1.0,-1.0,1.0,0.0,0.0]" : 0.5029925101342844,
    "[1.0,-1.0,-1.0,1.0,1.0,1.0,-1.0,0.0,0.0]" : 0.5029925101342844,
    "[-1.0,1.0,1.0,0.0,-1.0,0.0,1.0,-1.0,1.0]" : 0.5029266021398661,
    "[1.0,1.0,-1.0,-1.0,0.0,1.0,0.0,-1.0,1.0]" : 0.5028811449572058,
    "[-1.0,1.0,-1.0,-1.0,1.0,1.0,1.0,0.0,0.0]" : 0.5028616572799564,
    "[0.0,1.0,1.0,0.0,1.0,-1.0,-1.0,-1.0,1.0]" : 0.5028554456735526,
    "[1.0,-1.0,-1.0,1.0,0.0,-1.0,1.0,0.0,1.0]" : 0.5024950051157699,
    "[0.0,1.0,1.0,-1.0,-1.0,1.0,-1.0,-1.0,1.0]" : 0.5024950051157699,
    "[0.0,-1.0,0.0,1.0,1.0,1.0,-1.0,-1.0,1.0]" : 0.5024950051157699,
    "[-1.0,-1.0,0.0,1.0,1.0,1.0,1.0,0.0,-1.0]" : 0.5024950051157699,
    "[1.0,-1.0,-1.0,1.0,0.0,-1.0,1.0,1.0,0.0]" : 0.5024950051157699,
    "[1.0,-1.0,1.0,1.0,0.0,-1.0,1.0,-1.0,-1.0]" : 0.5024950051157699,
    "[1.0,-1.0,-1.0,1.0,0.0,0.0,1.0,1.0,-1.0]" : 0.5024950051157699,
    "[-1.0,1.0,-1.0,-1.0,0.0,0.0,1.0,1.0,1.0]" : 0.5024950051157699,
    "[1.0,0.0,-1.0,1.0,1.0,1.0,0.0,-1.0,-1.0]" : 0.5024950051157699,
    "[0.0,-1.0,1.0,-1.0,0.0,1.0,-1.0,1.0,1.0]" : 0.5024950051157699,
    "[1.0,-1.0,0.0,-1.0,1.0,1.0,-1.0,-1.0,1.0]" : 0.5024950051157699,
    "[1.0,-1.0,-1.0,1.0,1.0,1.0,0.0,0.0,-1.0]" : 0.5024950051157699,
    "[1.0,1.0,-1.0,1.0,0.0,-1.0,1.0,-1.0,0.0]" : 0.5024950051157699,
    "[-1.0,-1.0,1.0,-1.0,1.0,0.0,1.0,1.0,0.0]" : 0.5024950051157699,
    "[1.0,1.0,-1.0,-1.0,1.0,-1.0,0.0,0.0,1.0]" : 0.5024950051157699,
    "[1.0,0.0,1.0,-1.0,0.0,1.0,-1.0,-1.0,1.0]" : 0.5024950051157699,
    "[-1.0,-1.0,1.0,-1.0,0.0,-1.0,1.0,1.0,1.0]" : 0.5024950051157699,
    "[0.0,1.0,1.0,0.0,1.0,-1.0,1.0,-1.0,-1.0]" : 0.5024950051157699,
    "[1.0,1.0,-1.0,-1.0,1.0,0.0,-1.0,1.0,0.0]" : 0.5024950051157699,
    "[-1.0,0.0,1.0,0.0,1.0,1.0,1.0,-1.0,-1.0]" : 0.5024950051157699,
    "[1.0,1.0,1.0,1.0,0.0,-1.0,-1.0,-1.0,0.0]" : 0.5024950051157699,
    "[-1.0,1.0,0.0,1.0,1.0,-1.0,0.0,1.0,-1.0]" : 0.5024950051157699,
    "[1.0,1.0,0.0,0.0,1.0,-1.0,-1.0,1.0,-1.0]" : 0.5024950051157699,
    "[1.0,-1.0,0.0,-1.0,1.0,-1.0,0.0,1.0,1.0]" : 0.5024950051157699,
    "[0.0,1.0,0.0,-1.0,-1.0,1.0,1.0,-1.0,1.0]" : 0.5024452619326061,
    "[1.0,1.0,-1.0,-1.0,0.0,1.0,0.0,1.0,-1.0]" : 0.5024443595920276,
    "[-1.0,1.0,-1.0,1.0,1.0,-1.0,0.0,0.0,1.0]" : 0.5024338162088725,
    "[-1.0,-1.0,1.0,1.0,0.0,0.0,-1.0,1.0,1.0]" : 0.5024156202273169,
    "[-1.0,-1.0,1.0,1.0,1.0,0.0,-1.0,1.0,0.0]" : 0.502412152047661,
    "[1.0,-1.0,0.0,1.0,1.0,-1.0,-1.0,1.0,0.0]" : 0.5024072397725611,
    "[1.0,-1.0,1.0,-1.0,1.0,1.0,0.0,0.0,-1.0]" : 0.5023986387360656,
    "[1.0,1.0,-1.0,0.0,-1.0,0.0,1.0,-1.0,1.0]" : 0.5023816537588115,
    "[-1.0,0.0,0.0,1.0,1.0,-1.0,-1.0,1.0,1.0]" : 0.5023796073260229,
    "[1.0,1.0,1.0,-1.0,0.0,-1.0,-1.0,-1.0,1.0]" : 0.5019970020942103,
    "[-1.0,1.0,-1.0,0.0,0.0,-1.0,1.0,1.0,1.0]" : 0.5019970020942103,
    "[-1.0,1.0,-1.0,0.0,1.0,1.0,0.0,1.0,-1.0]" : 0.5019970020942103,
    "[0.0,-1.0,-1.0,-1.0,0.0,1.0,1.0,1.0,1.0]" : 0.5019970020942103,
    "[1.0,-1.0,-1.0,1.0,0.0,1.0,1.0,-1.0,-1.0]" : 0.5019970020942103,
    "[1.0,-1.0,0.0,-1.0,1.0,1.0,0.0,-1.0,1.0]" : 0.5019970020942103,
    "[1.0,-1.0,-1.0,-1.0,1.0,-1.0,0.0,1.0,1.0]" : 0.5019970020942103,
    "[-1.0,1.0,-1.0,1.0,1.0,0.0,0.0,1.0,-1.0]" : 0.5019970020942103,
    "[1.0,1.0,1.0,1.0,-1.0,-1.0,0.0,-1.0,-1.0]" : 0.5019970020942103,
    "[1.0,0.0,0.0,-1.0,1.0,1.0,-1.0,-1.0,1.0]" : 0.5019970020942103,
    "[1.0,1.0,1.0,-1.0,0.0,1.0,0.0,-1.0,-1.0]" : 0.5019970020942103,
    "[-1.0,1.0,1.0,-1.0,0.0,1.0,0.0,-1.0,1.0]" : 0.5019970020942103,
    "[-1.0,-1.0,0.0,1.0,0.0,-1.0,1.0,1.0,1.0]" : 0.5019970020942103,
    "[0.0,-1.0,-1.0,1.0,1.0,1.0,1.0,0.0,-1.0]" : 0.5019970020942103,
    "[0.0,-1.0,1.0,0.0,1.0,1.0,1.0,-1.0,-1.0]" : 0.5019970020942103,
    "[1.0,-1.0,0.0,1.0,1.0,1.0,0.0,-1.0,-1.0]" : 0.5019970020942103,
    "[0.0,-1.0,-1.0,1.0,-1.0,0.0,1.0,1.0,1.0]" : 0.5019970020942103,
    "[0.0,-1.0,-1.0,1.0,1.0,1.0,-1.0,0.0,1.0]" : 0.5019970020942103,
    "[1.0,-1.0,0.0,1.0,1.0,1.0,-1.0,-1.0,0.0]" : 0.5019970020942103,
    "[1.0,1.0,1.0,-1.0,1.0,-1.0,0.0,-1.0,0.0]" : 0.5019970020942103,
    "[0.0,-1.0,1.0,1.0,-1.0,-1.0,0.0,1.0,1.0]" : 0.5019717169359663,
    "[1.0,0.0,0.0,-1.0,1.0,1.0,1.0,-1.0,-1.0]" : 0.5019678453516758,
    "[1.0,0.0,-1.0,0.0,-1.0,1.0,1.0,1.0,-1.0]" : 0.5019619199034175,
    "[1.0,-1.0,1.0,0.0,0.0,-1.0,-1.0,1.0,1.0]" : 0.5019592602224175,
    "[0.0,1.0,1.0,1.0,-1.0,-1.0,-1.0,1.0,0.0]" : 0.5019560226914673,
    "[-1.0,1.0,-1.0,0.0,1.0,1.0,0.0,-1.0,1.0]" : 0.5019523113881177,
    "[-1.0,1.0,-1.0,0.0,-1.0,1.0,1.0,0.0,1.0]" : 0.5019513182359442,
    "[1.0,-1.0,1.0,1.0,0.0,-1.0,-1.0,0.0,1.0]" : 0.5019379827153467,
    "[1.0,0.0,1.0,0.0,-1.0,1.0,-1.0,1.0,-1.0]" : 0.5019376120220035,
    "[-1.0,0.0,1.0,1.0,-1.0,-1.0,0.0,1.0,1.0]" : 0.5019376083533424,
    "[1.0,-1.0,1.0,0.0,-1.0,0.0,-1.0,1.0,1.0]" : 0.5019015720548407,
    "[1.0,1.0,1.0,0.0,0.0,-1.0,1.0,-1.0,-1.0]" : 0.5014985005711038,
    "[1.0,0.0,1.0,-1.0,1.0,0.0,-1.0,-1.0,1.0]" : 0.5014985005711038,
    "[1.0,1.0,1.0,-1.0,0.0,-1.0,1.0,0.0,-1.0]" : 0.5014985005711038,
    "[-1.0,1.0,0.0,1.0,1.0,1.0,0.0,-1.0,-1.0]" : 0.5014985005711038,
    "[1.0,-1.0,1.0,-1.0,1.0,-1.0,0.0,-1.0,1.0]" : 0.5014985005711038,
    "[0.0,1.0,-1.0,-1.0,1.0,-1.0,-1.0,1.0,1.0]" : 0.5014985005711038,
    "[-1.0,-1.0,1.0,1.0,0.0,1.0,0.0,-1.0,1.0]" : 0.5014985005711038,
    "[0.0,1.0,-1.0,0.0,1.0,1.0,-1.0,1.0,-1.0]" : 0.5014985005711038,
    "[1.0,1.0,1.0,0.0,-1.0,1.0,-1.0,-1.0,0.0]" : 0.5014985005711038,
    "[-1.0,0.0,1.0,-1.0,-1.0,1.0,0.0,1.0,1.0]" : 0.5014985005711038,
    "[-1.0,1.0,-1.0,1.0,1.0,0.0,-1.0,1.0,0.0]" : 0.5014985005711038,
    "[0.0,1.0,-1.0,1.0,1.0,1.0,-1.0,-1.0,0.0]" : 0.5014985005711038,
    "[-1.0,1.0,-1.0,0.0,1.0,1.0,-1.0,1.0,0.0]" : 0.5014985005711038,
    "[1.0,-1.0,1.0,0.0,1.0,-1.0,1.0,-1.0,0.0]" : 0.5014985005711038,
    "[0.0,-1.0,0.0,-1.0,-1.0,1.0,1.0,1.0,1.0]" : 0.5014985005711038,
    "[0.0,1.0,1.0,-1.0,0.0,1.0,-1.0,-1.0,1.0]" : 0.5014985005711038,
    "[-1.0,-1.0,1.0,0.0,1.0,-1.0,1.0,1.0,0.0]" : 0.5014985005711038,
    "[0.0,1.0,1.0,-1.0,-1.0,1.0,1.0,-1.0,0.0]" : 0.5014985005711038,
    "[-1.0,0.0,1.0,-1.0,1.0,-1.0,1.0,1.0,-1.0]" : 0.5014985005711038,
    "[1.0,1.0,0.0,1.0,-1.0,-1.0,1.0,-1.0,0.0]" : 0.5014985005711038,
    "[1.0,-1.0,0.0,1.0,0.0,-1.0,-1.0,1.0,1.0]" : 0.5014845783109066,
    "[0.0,1.0,-1.0,-1.0,0.0,1.0,1.0,1.0,-1.0]" : 0.5014826180184837,
    "[1.0,1.0,0.0,-1.0,-1.0,1.0,0.0,1.0,-1.0]" : 0.5014782268886041,
    "[0.0,-1.0,1.0,-1.0,0.0,1.0,1.0,1.0,-1.0]" : 0.5014767495703655,
    "[0.0,0.0,-1.0,-1.0,1.0,1.0,1.0,-1.0,1.0]" : 0.5014702897403486,
    "[-1.0,-1.0,1.0,1.0,1.0,-1.0,0.0,0.0,1.0]" : 0.5014698916234097,
    "[1.0,0.0,1.0,1.0,0.0,-1.0,-1.0,1.0,-1.0]" : 0.5014674366735159,
    "[0.0,0.0,1.0,1.0,1.0,-1.0,-1.0,-1.0,1.0]" : 0.5014655462041804,
    "[1.0,0.0,0.0,-1.0,1.0,1.0,-1.0,1.0,-1.0]" : 0.5014650586395166,
    "[0.0,-1.0,1.0,1.0,-1.0,1.0,-1.0,1.0,0.0]" : 0.5014610555347943,
    "[1.0,1.0,-1.0,-1.0,1.0,1.0,0.0,0.0,-1.0]" : 0.50145984331332,
    "[-1.0,1.0,1.0,1.0,-1.0,0.0,-1.0,0.0,1.0]" : 0.5014576726494377,
    "[0.0,0.0,1.0,1.0,1.0,-1.0,-1.0,1.0,-1.0]" : 0.5014572235387511,
    "[-1.0,0.0,1.0,1.0,-1.0,-1.0,1.0,0.0,1.0]" : 0.5014538098261592,
    "[1.0,-1.0,-1.0,-1.0,1.0,0.0,1.0,1.0,0.0]" : 0.5014525670056418,
    "[-1.0,0.0,1.0,1.0,0.0,-1.0,1.0,-1.0,1.0]" : 0.5014479746106009,
    "[1.0,0.0,-1.0,-1.0,0.0,1.0,1.0,-1.0,1.0]" : 0.5014479009987131,
    "[-1.0,1.0,-1.0,1.0,1.0,0.0,1.0,-1.0,0.0]" : 0.5014469581010603,
    "[0.0,1.0,-1.0,0.0,1.0,-1.0,1.0,-1.0,1.0]" : 0.5014383355916987,
    "[-1.0,1.0,1.0,0.0,1.0,-1.0,0.0,-1.0,1.0]" : 0.5014379505805497,
    "[-1.0,-1.0,1.0,1.0,1.0,-1.0,0.0,1.0,0.0]" : 0.5014277988416701,
    "[1.0,0.0,-1.0,-1.0,-1.0,1.0,1.0,0.0,1.0]" : 0.5014188096240769,
    "[1.0,-1.0,1.0,0.0,-1.0,0.0,1.0,1.0,-1.0]" : 0.5013996712107122,
    "[1.0,-1.0,-1.0,1.0,0.0,1.0,1.0,-1.0,0.0]" : 0.50099950004745,
    "[1.0,-1.0,-1.0,1.0,1.0,-1.0,0.0,-1.0,1.0]" : 0.50099950004745,
    "[-1.0,-1.0,1.0,1.0,1.0,1.0,0.0,-1.0,-1.0]" : 0.50099950004745,
    "[-1.0,0.0,0.0,1.0,1.0,1.0,-1.0,1.0,-1.0]" : 0.50099950004745,
    "[-1.0,0.0,1.0,-1.0,0.0,-1.0,1.0,1.0,1.0]" : 0.50099950004745,
    "[1.0,1.0,0.0,1.0,-1.0,0.0,1.0,-1.0,-1.0]" : 0.50099950004745,
    "[-1.0,-1.0,1.0,-1.0,1.0,1.0,1.0,-1.0,0.0]" : 0.50099950004745,
    "[0.0,1.0,0.0,-1.0,1.0,-1.0,1.0,1.0,-1.0]" : 0.50099950004745,
    "[1.0,0.0,-1.0,1.0,-1.0,-1.0,1.0,1.0,0.0]" : 0.50099950004745,
    "[-1.0,1.0,-1.0,-1.0,0.0,-1.0,1.0,1.0,1.0]" : 0.50099950004745,
    "[0.0,1.0,1.0,-1.0,-1.0,1.0,-1.0,0.0,1.0]" : 0.50099950004745,
    "[-1.0,1.0,-1.0,0.0,1.0,1.0,-1.0,1.0,-1.0]" : 0.50099950004745,
    "[1.0,1.0,0.0,1.0,-1.0,-1.0,1.0,0.0,-1.0]" : 0.50099950004745,
    "[-1.0,-1.0,1.0,0.0,-1.0,1.0,0.0,1.0,1.0]" : 0.50099950004745,
    "[1.0,1.0,1.0,-1.0,0.0,1.0,-1.0,-1.0,0.0]" : 0.50099950004745,
    "[1.0,-1.0,1.0,0.0,0.0,1.0,-1.0,-1.0,1.0]" : 0.50099950004745,
    "[0.0,1.0,-1.0,1.0,1.0,0.0,-1.0,1.0,-1.0]" : 0.50099950004745,
    "[-1.0,1.0,1.0,-1.0,1.0,-1.0,0.0,1.0,0.0]" : 0.50099950004745,
    "[-1.0,0.0,0.0,-1.0,1.0,-1.0,1.0,1.0,1.0]" : 0.50099950004745,
    "[1.0,1.0,1.0,1.0,-1.0,-1.0,0.0,-1.0,0.0]" : 0.50099950004745,
    "[1.0,-1.0,0.0,1.0,1.0,-1.0,1.0,-1.0,0.0]" : 0.50099950004745,
    "[0.0,-1.0,1.0,1.0,1.0,-1.0,1.0,-1.0,0.0]" : 0.50099950004745,
    "[-1.0,-1.0,1.0,-1.0,0.0,1.0,0.0,1.0,1.0]" : 0.50099950004745,
    "[1.0,1.0,1.0,0.0,0.0,-1.0,-1.0,-1.0,1.0]" : 0.50099950004745,
    "[1.0,0.0,-1.0,-1.0,-1.0,1.0,1.0,1.0,0.0]" : 0.5009945155185122,
    "[1.0,-1.0,1.0,1.0,-1.0,-1.0,0.0,1.0,0.0]" : 0.5009940155244497,
    "[-1.0,1.0,0.0,1.0,-1.0,-1.0,0.0,1.0,1.0]" : 0.5009895508948173,
    "[-1.0,1.0,1.0,1.0,0.0,-1.0,-1.0,1.0,0.0]" : 0.50098857519761,
    "[-1.0,1.0,0.0,1.0,0.0,-1.0,-1.0,1.0,1.0]" : 0.5009865901475195,
    "[1.0,-1.0,1.0,-1.0,1.0,1.0,-1.0,0.0,0.0]" : 0.5009861148666837,
    "[-1.0,1.0,-1.0,1.0,-1.0,0.0,1.0,0.0,1.0]" : 0.5009856420344345,
    "[0.0,1.0,-1.0,1.0,-1.0,0.0,1.0,-1.0,1.0]" : 0.5009831668602677,
    "[-1.0,1.0,0.0,1.0,1.0,0.0,-1.0,-1.0,1.0]" : 0.500981726011921,
    "[0.0,-1.0,1.0,1.0,0.0,1.0,-1.0,1.0,-1.0]" : 0.5009811823575098,
    "[-1.0,1.0,0.0,-1.0,1.0,0.0,1.0,-1.0,1.0]" : 0.500980782571737,
    "[-1.0,1.0,-1.0,-1.0,0.0,1.0,1.0,0.0,1.0]" : 0.5009782608475756,
    "[-1.0,1.0,0.0,1.0,-1.0,-1.0,1.0,0.0,1.0]" : 0.5009773613360565,
    "[1.0,-1.0,0.0,1.0,0.0,1.0,-1.0,1.0,-1.0]" : 0.500976291622416,
    "[-1.0,1.0,0.0,1.0,-1.0,1.0,0.0,-1.0,1.0]" : 0.5009685497732445,
    "[-1.0,1.0,0.0,1.0,1.0,-1.0,1.0,-1.0,0.0]" : 0.5009652071963059,
    "[1.0,-1.0,1.0,1.0,1.0,-1.0,-1.0,0.0,0.0]" : 0.500964635032578,
    "[1.0,1.0,0.0,-1.0,-1.0,1.0,0.0,-1.0,1.0]" : 0.5009497802888742,
    "[0.0,1.0,-1.0,-1.0,1.0,1.0,1.0,0.0,-1.0]" : 0.5009440948895545,
    "[0.0,-1.0,-1.0,1.0,-1.0,-1.0,1.0,1.0,1.0]" : 0.5005000000237487,
    "[1.0,1.0,0.0,-1.0,1.0,-1.0,0.0,-1.0,1.0]" : 0.5005000000237487,
    "[0.0,1.0,1.0,-1.0,1.0,-1.0,0.0,1.0,-1.0]" : 0.5005000000237487,
    "[-1.0,1.0,0.0,-1.0,1.0,-1.0,1.0,0.0,1.0]" : 0.5005000000237487,
    "[1.0,-1.0,0.0,-1.0,1.0,-1.0,1.0,-1.0,1.0]" : 0.5005000000237487,
    "[1.0,0.0,1.0,0.0,1.0,-1.0,1.0,-1.0,-1.0]" : 0.5005000000237487,
    "[-1.0,-1.0,0.0,-1.0,-1.0,1.0,1.0,1.0,1.0]" : 0.5005000000237487,
    "[1.0,-1.0,1.0,-1.0,1.0,1.0,0.0,-1.0,0.0]" : 0.5005000000237487,
    "[1.0,0.0,1.0,1.0,0.0,-1.0,1.0,-1.0,-1.0]" : 0.5005000000237487,
    "[1.0,1.0,1.0,-1.0,1.0,-1.0,0.0,0.0,-1.0]" : 0.5005000000237487,
    "[1.0,-1.0,-1.0,0.0,0.0,-1.0,1.0,1.0,1.0]" : 0.5005000000237487,
    "[-1.0,0.0,1.0,-1.0,1.0,-1.0,0.0,1.0,1.0]" : 0.5005000000237487,
    "[-1.0,1.0,-1.0,-1.0,1.0,0.0,1.0,1.0,0.0]" : 0.5005000000237487,
    "[0.0,1.0,-1.0,-1.0,1.0,-1.0,0.0,1.0,1.0]" : 0.5005000000237487,
    "[-1.0,-1.0,1.0,-1.0,0.0,1.0,1.0,0.0,1.0]" : 0.5005000000237487,
    "[-1.0,-1.0,1.0,1.0,0.0,1.0,-1.0,0.0,1.0]" : 0.5005000000237487,
    "[1.0,1.0,1.0,-1.0,-1.0,0.0,0.0,-1.0,1.0]" : 0.5005000000237487,
    "[1.0,0.0,1.0,-1.0,1.0,-1.0,1.0,-1.0,0.0]" : 0.5005000000237487,
    "[-1.0,0.0,1.0,1.0,0.0,1.0,-1.0,-1.0,1.0]" : 0.5005000000237487,
    "[-1.0,0.0,0.0,1.0,1.0,1.0,-1.0,-1.0,1.0]" : 0.5005000000237487,
    "[1.0,-1.0,-1.0,-1.0,0.0,0.0,1.0,1.0,1.0]" : 0.5005000000237487,
    "[0.0,1.0,1.0,-1.0,1.0,-1.0,0.0,-1.0,1.0]" : 0.5005000000237487,
    "[1.0,-1.0,0.0,-1.0,1.0,-1.0,1.0,0.0,1.0]" : 0.5005000000237487,
    "[-1.0,-1.0,1.0,1.0,1.0,0.0,0.0,-1.0,1.0]" : 0.5005000000237487,
    "[1.0,-1.0,-1.0,1.0,1.0,1.0,-1.0,-1.0,0.0]" : 0.5005000000237487,
    "[-1.0,-1.0,1.0,1.0,0.0,1.0,-1.0,1.0,0.0]" : 0.5005000000237487,
    "[0.0,-1.0,1.0,1.0,0.0,1.0,-1.0,-1.0,1.0]" : 0.5005000000237487,
    "[0.0,-1.0,0.0,-1.0,1.0,-1.0,1.0,1.0,1.0]" : 0.5005000000237487,
    "[1.0,-1.0,1.0,-1.0,1.0,0.0,0.0,-1.0,1.0]" : 0.5005000000237487,
    "[1.0,-1.0,0.0,1.0,0.0,-1.0,1.0,-1.0,1.0]" : 0.5005000000237487,
    "[-1.0,-1.0,1.0,-1.0,1.0,0.0,1.0,0.0,1.0]" : 0.5005000000237487,
    "[1.0,-1.0,-1.0,0.0,1.0,-1.0,1.0,0.0,1.0]" : 0.5005000000237487,
    "[1.0,0.0,1.0,0.0,1.0,-1.0,-1.0,-1.0,1.0]" : 0.5005000000237487,
    "[-1.0,1.0,0.0,-1.0,1.0,-1.0,1.0,1.0,0.0]" : 0.5005000000237487,
    "[1.0,1.0,1.0,-1.0,-1.0,1.0,0.0,-1.0,0.0]" : 0.5005000000237487,
    "[0.0,-1.0,1.0,-1.0,0.0,-1.0,1.0,1.0,1.0]" : 0.5005000000237487,
    "[-1.0,1.0,0.0,-1.0,0.0,1.0,1.0,-1.0,1.0]" : 0.5004995000237012,
    "[0.0,0.0,-1.0,1.0,1.0,-1.0,1.0,-1.0,1.0]" : 0.5004995000237012,
    "[1.0,-1.0,-1.0,-1.0,1.0,1.0,0.0,1.0,0.0]" : 0.5004990005236538,
    "[1.0,-1.0,-1.0,0.0,0.0,1.0,1.0,1.0,-1.0]" : 0.5004990005236538,
    "[1.0,-1.0,0.0,-1.0,1.0,1.0,-1.0,1.0,0.0]" : 0.5004990005236538,
    "[1.0,-1.0,0.0,1.0,1.0,0.0,-1.0,1.0,-1.0]" : 0.5004985015231065,
    "[0.0,1.0,-1.0,0.0,1.0,1.0,1.0,-1.0,-1.0]" : 0.5004980030215597,
    "[1.0,1.0,-1.0,0.0,0.0,1.0,1.0,-1.0,-1.0]" : 0.5004980030215597,
    "[1.0,1.0,0.0,-1.0,-1.0,1.0,1.0,-1.0,0.0]" : 0.5004975050185144,
    "[1.0,-1.0,1.0,1.0,1.0,-1.0,0.0,0.0,-1.0]" : 0.5004965105059351,
    "[1.0,0.0,1.0,-1.0,-1.0,1.0,0.0,1.0,-1.0]" : 0.5004965105059351,
    "[0.0,-1.0,1.0,-1.0,1.0,1.0,0.0,1.0,-1.0]" : 0.5004955179813867,
    "[1.0,-1.0,1.0,-1.0,0.0,1.0,1.0,0.0,-1.0]" : 0.5004940329134304,
    "[0.0,1.0,1.0,1.0,-1.0,-1.0,1.0,-1.0,0.0]" : 0.5004935388804935,
    "[1.0,-1.0,-1.0,-1.0,1.0,1.0,1.0,0.0,0.0]" : 0.5004930453415896,
    "[-1.0,1.0,-1.0,1.0,0.0,-1.0,1.0,0.0,1.0]" : 0.5004925522962246,
    "[1.0,-1.0,0.0,0.0,-1.0,1.0,1.0,1.0,-1.0]" : 0.500492059743905,
    "[-1.0,1.0,1.0,1.0,-1.0,0.0,0.0,-1.0,1.0]" : 0.5004910761164302,
    "[1.0,-1.0,1.0,-1.0,-1.0,1.0,0.0,1.0,0.0]" : 0.5004905850402904,
    "[1.0,1.0,0.0,-1.0,-1.0,1.0,1.0,0.0,-1.0]" : 0.5004900944552269,
    "[1.0,0.0,1.0,-1.0,0.0,1.0,-1.0,1.0,-1.0]" : 0.5004891147563643,
    "[0.0,-1.0,1.0,1.0,-1.0,0.0,-1.0,1.0,1.0]" : 0.5004876488788808,
    "[1.0,0.0,1.0,1.0,-1.0,0.0,-1.0,1.0,-1.0]" : 0.5004876488788808,
    "[0.0,1.0,0.0,1.0,-1.0,-1.0,1.0,-1.0,1.0]" : 0.5004871612299787,
    "[-1.0,1.0,1.0,1.0,0.0,0.0,-1.0,-1.0,1.0]" : 0.5004861873946338,
    "[-1.0,1.0,-1.0,0.0,1.0,1.0,1.0,-1.0,0.0]" : 0.5004852155059858,
    "[-1.0,0.0,0.0,1.0,1.0,-1.0,1.0,-1.0,1.0]" : 0.5004852155059858,
    "[-1.0,1.0,-1.0,1.0,0.0,1.0,0.0,-1.0,1.0]" : 0.5004847302904568,
    "[-1.0,1.0,-1.0,1.0,1.0,0.0,0.0,-1.0,1.0]" : 0.5004837613145602,
    "[0.0,-1.0,1.0,0.0,1.0,-1.0,-1.0,1.0,1.0]" : 0.5004837613145602,
    "[1.0,-1.0,1.0,-1.0,1.0,0.0,-1.0,1.0,0.0]" : 0.5004813473406509,
    "[1.0,-1.0,0.0,0.0,1.0,1.0,-1.0,1.0,-1.0]" : 0.5004794248373562,
    "[1.0,-1.0,1.0,-1.0,1.0,0.0,0.0,1.0,-1.0]" : 0.500478945412496,
    "[1.0,1.0,-1.0,0.0,-1.0,1.0,1.0,0.0,-1.0]" : 0.500478945412496,
    "[1.0,-1.0,1.0,-1.0,0.0,0.0,1.0,1.0,-1.0]" : 0.5004779880005711,
    "[-1.0,0.0,1.0,1.0,0.0,-1.0,-1.0,1.0,1.0]" : 0.5,
    "[1.0,1.0,-1.0,-1.0,0.0,1.0,1.0,-1.0,-1.0]" : 0.5,
    "[1.0,-1.0,1.0,0.0,-1.0,1.0,-1.0,1.0,-1.0]" : 0.5,
    "[1.0,-1.0,1.0,-1.0,0.0,1.0,-1.0,1.0,0.0]" : 0.5,
    "[-1.0,1.0,-1.0,1.0,0.0,-1.0,1.0,-1.0,1.0]" : 0.5,
    "[-1.0,-1.0,1.0,1.0,1.0,0.0,-1.0,-1.0,1.0]" : 0.5,
    "[1.0,0.0,0.0,-1.0,-1.0,1.0,1.0,1.0,-1.0]" : 0.5,
    "[-1.0,0.0,1.0,1.0,1.0,-1.0,-1.0,-1.0,1.0]" : 0.5,
    "[0.0,-1.0,1.0,1.0,1.0,-1.0,-1.0,-1.0,1.0]" : 0.5,
    "[1.0,-1.0,1.0,-1.0,1.0,-1.0,0.0,1.0,-1.0]" : 0.5,
    "[0.0,1.0,-1.0,-1.0,1.0,-1.0,1.0,-1.0,1.0]" : 0.5,
    "[-1.0,0.0,1.0,1.0,1.0,-1.0,-1.0,1.0,-1.0]" : 0.5,
    "[-1.0,1.0,-1.0,-1.0,0.0,1.0,1.0,-1.0,1.0]" : 0.5,
    "[1.0,-1.0,-1.0,-1.0,-1.0,1.0,1.0,1.0,0.0]" : 0.5,
    "[1.0,-1.0,-1.0,0.0,1.0,1.0,0.0,1.0,-1.0]" : 0.5,
    "[-1.0,1.0,1.0,1.0,-1.0,-1.0,0.0,-1.0,1.0]" : 0.5,
    "[-1.0,1.0,0.0,1.0,1.0,-1.0,-1.0,-1.0,1.0]" : 0.5,
    "[0.0,1.0,-1.0,1.0,-1.0,1.0,1.0,-1.0,0.0]" : 0.5,
    "[1.0,-1.0,1.0,-1.0,1.0,-1.0,-1.0,1.0,0.0]" : 0.5,
    "[0.0,1.0,-1.0,-1.0,-1.0,1.0,1.0,-1.0,1.0]" : 0.5,
    "[-1.0,0.0,1.0,1.0,1.0,-1.0,-1.0,0.0,1.0]" : 0.5,
    "[1.0,1.0,-1.0,-1.0,-1.0,1.0,1.0,0.0,-1.0]" : 0.5,
    "[-1.0,-1.0,1.0,1.0,1.0,-1.0,-1.0,0.0,1.0]" : 0.5,
    "[1.0,0.0,1.0,1.0,-1.0,-1.0,-1.0,1.0,-1.0]" : 0.5,
    "[1.0,0.0,1.0,1.0,-1.0,-1.0,-1.0,1.0,0.0]" : 0.5,
    "[-1.0,1.0,-1.0,-1.0,1.0,1.0,1.0,-1.0,0.0]" : 0.5,
    "[1.0,0.0,-1.0,-1.0,0.0,1.0,1.0,1.0,-1.0]" : 0.5,
    "[-1.0,1.0,1.0,1.0,0.0,-1.0,-1.0,-1.0,1.0]" : 0.5,
    "[-1.0,1.0,-1.0,1.0,0.0,0.0,1.0,-1.0,1.0]" : 0.5,
    "[1.0,-1.0,1.0,-1.0,1.0,0.0,-1.0,1.0,-1.0]" : 0.5,
    "[-1.0,1.0,-1.0,1.0,1.0,-1.0,0.0,-1.0,1.0]" : 0.5,
    "[1.0,1.0,-1.0,-1.0,0.0,1.0,1.0,-1.0,0.0]" : 0.5,
    "[-1.0,-1.0,1.0,1.0,0.0,-1.0,-1.0,1.0,1.0]" : 0.5,
    "[1.0,1.0,-1.0,-1.0,0.0,1.0,1.0,0.0,-1.0]" : 0.5,
    "[1.0,-1.0,1.0,-1.0,0.0,1.0,0.0,1.0,-1.0]" : 0.5,
    "[1.0,-1.0,0.0,-1.0,0.0,1.0,1.0,1.0,-1.0]" : 0.5,
    "[-1.0,1.0,-1.0,-1.0,-1.0,1.0,1.0,0.0,1.0]" : 0.5,
    "[1.0,0.0,-1.0,-1.0,1.0,1.0,1.0,-1.0,0.0]" : 0.5,
    "[-1.0,0.0,1.0,1.0,-1.0,-1.0,-1.0,1.0,1.0]" : 0.5,
    "[-1.0,1.0,0.0,-1.0,1.0,-1.0,1.0,-1.0,1.0]" : 0.5,
    "[1.0,-1.0,-1.0,0.0,-1.0,1.0,1.0,1.0,-1.0]" : 0.5,
    "[-1.0,-1.0,1.0,1.0,1.0,-1.0,-1.0,1.0,0.0]" : 0.5,
    "[0.0,0.0,1.0,1.0,-1.0,-1.0,-1.0,1.0,1.0]" : 0.5,
    "[0.0,1.0,-1.0,-1.0,1.0,1.0,1.0,-1.0,-1.0]" : 0.5,
    "[-1.0,1.0,0.0,0.0,1.0,-1.0,1.0,-1.0,1.0]" : 0.5,
    "[1.0,1.0,-1.0,-1.0,-1.0,1.0,1.0,-1.0,0.0]" : 0.5,
    "[-1.0,0.0,0.0,-1.0,1.0,1.0,1.0,-1.0,1.0]" : 0.5,
    "[1.0,-1.0,0.0,-1.0,1.0,1.0,1.0,-1.0,-1.0]" : 0.5,
    "[0.0,-1.0,1.0,1.0,-1.0,-1.0,-1.0,1.0,1.0]" : 0.5,
    "[1.0,-1.0,0.0,-1.0,1.0,1.0,0.0,1.0,-1.0]" : 0.5,
    "[-1.0,1.0,0.0,1.0,-1.0,-1.0,1.0,-1.0,1.0]" : 0.5,
    "[-1.0,1.0,-1.0,0.0,1.0,1.0,1.0,-1.0,-1.0]" : 0.5,
    "[-1.0,1.0,1.0,1.0,0.0,-1.0,0.0,-1.0,1.0]" : 0.5,
    "[1.0,-1.0,-1.0,-1.0,1.0,1.0,0.0,1.0,-1.0]" : 0.5,
    "[-1.0,1.0,-1.0,1.0,-1.0,0.0,1.0,-1.0,1.0]" : 0.5,
    "[1.0,-1.0,-1.0,-1.0,0.0,1.0,1.0,1.0,-1.0]" : 0.5,
    "[1.0,1.0,0.0,-1.0,-1.0,1.0,1.0,-1.0,-1.0]" : 0.5,
    "[1.0,-1.0,1.0,0.0,0.0,1.0,-1.0,1.0,-1.0]" : 0.5,
    "[-1.0,1.0,-1.0,0.0,1.0,-1.0,1.0,-1.0,1.0]" : 0.5,
    "[1.0,-1.0,1.0,-1.0,-1.0,1.0,0.0,1.0,-1.0]" : 0.5,
    "[1.0,-1.0,-1.0,-1.0,1.0,1.0,-1.0,1.0,0.0]" : 0.5,
    "[1.0,-1.0,1.0,0.0,1.0,0.0,-1.0,1.0,-1.0]" : 0.5,
    "[1.0,-1.0,1.0,1.0,-1.0,-1.0,0.0,1.0,-1.0]" : 0.5,
    "[0.0,1.0,1.0,1.0,0.0,-1.0,-1.0,-1.0,1.0]" : 0.5,
    "[0.0,-1.0,0.0,-1.0,1.0,1.0,1.0,1.0,-1.0]" : 0.5,
    "[0.0,1.0,1.0,1.0,-1.0,-1.0,-1.0,-1.0,1.0]" : 0.5,
    "[1.0,-1.0,1.0,1.0,0.0,-1.0,-1.0,1.0,-1.0]" : 0.5,
    "[-1.0,-1.0,1.0,1.0,1.0,-1.0,0.0,1.0,-1.0]" : 0.5,
    "[1.0,-1.0,-1.0,-1.0,1.0,1.0,1.0,-1.0,0.0]" : 0.5,
    "[-1.0,1.0,-1.0,0.0,0.0,1.0,1.0,-1.0,1.0]" : 0.5,
    "[1.0,-1.0,1.0,1.0,-1.0,0.0,0.0,1.0,-1.0]" : 0.5,
    "[-1.0,1.0,-1.0,-1.0,1.0,0.0,1.0,-1.0,1.0]" : 0.5,
    "[1.0,0.0,-1.0,-1.0,1.0,1.0,0.0,1.0,-1.0]" : 0.5,
    "[1.0,-1.0,-1.0,0.0,1.0,1.0,-1.0,1.0,-1.0]" : 0.5,
    "[-1.0,-1.0,1.0,1.0,1.0,-1.0,0.0,-1.0,1.0]" : 0.5,
    "[0.0,1.0,-1.0,-1.0,1.0,1.0,1.0,-1.0,0.0]" : 0.5,
    "[1.0,-1.0,1.0,1.0,-1.0,-1.0,-1.0,1.0,0.0]" : 0.5,
    "[1.0,0.0,-1.0,-1.0,1.0,1.0,-1.0,1.0,-1.0]" : 0.5,
    "[0.0,0.0,-1.0,-1.0,1.0,1.0,1.0,1.0,-1.0]" : 0.5,
    "[0.0,-1.0,1.0,-1.0,-1.0,1.0,1.0,1.0,0.0]" : 0.5,
    "[0.0,1.0,-1.0,1.0,1.0,-1.0,-1.0,-1.0,1.0]" : 0.5,
    "[1.0,0.0,1.0,1.0,-1.0,-1.0,-1.0,0.0,1.0]" : 0.5,
    "[-1.0,1.0,-1.0,-1.0,1.0,1.0,1.0,0.0,-1.0]" : 0.5,
    "[1.0,-1.0,1.0,0.0,1.0,-1.0,0.0,1.0,-1.0]" : 0.5,
    "[-1.0,1.0,-1.0,0.0,-1.0,1.0,1.0,-1.0,1.0]" : 0.5,
    "[1.0,-1.0,0.0,-1.0,1.0,1.0,1.0,0.0,-1.0]" : 0.5,
    "[-1.0,1.0,1.0,1.0,-1.0,-1.0,-1.0,0.0,1.0]" : 0.5,
    "[-1.0,1.0,1.0,1.0,-1.0,-1.0,0.0,0.0,1.0]" : 0.5,
    "[0.0,1.0,-1.0,1.0,1.0,-1.0,0.0,-1.0,1.0]" : 0.5,
    "[-1.0,1.0,-1.0,1.0,-1.0,-1.0,1.0,0.0,1.0]" : 0.5,
    "[1.0,1.0,0.0,-1.0,0.0,1.0,1.0,-1.0,-1.0]" : 0.5,
    "[-1.0,1.0,0.0,1.0,1.0,-1.0,0.0,-1.0,1.0]" : 0.5,
    "[1.0,-1.0,0.0,-1.0,-1.0,1.0,1.0,1.0,-1.0]" : 0.5,
    "[-1.0,1.0,1.0,1.0,-1.0,0.0,-1.0,-1.0,1.0]" : 0.5,
    "[-1.0,1.0,-1.0,1.0,1.0,0.0,-1.0,-1.0,1.0]" : 0.5,
    "[1.0,-1.0,1.0,0.0,1.0,-1.0,-1.0,1.0,-1.0]" : 0.5,
    "[1.0,0.0,-1.0,0.0,1.0,1.0,1.0,-1.0,-1.0]" : 0.5,
    "[1.0,0.0,-1.0,-1.0,1.0,1.0,1.0,-1.0,-1.0]" : 0.5,
    "[1.0,1.0,-1.0,-1.0,1.0,1.0,0.0,-1.0,0.0]" : 0.5,
    "[-1.0,-1.0,1.0,1.0,-1.0,-1.0,0.0,1.0,1.0]" : 0.5,
    "[-1.0,0.0,1.0,1.0,1.0,-1.0,-1.0,1.0,0.0]" : 0.5,
    "[0.0,1.0,-1.0,1.0,0.0,-1.0,1.0,-1.0,1.0]" : 0.5,
    "[1.0,-1.0,1.0,-1.0,0.0,1.0,-1.0,1.0,-1.0]" : 0.5,
    "[-1.0,1.0,-1.0,1.0,1.0,-1.0,-1.0,0.0,1.0]" : 0.5,
    "[1.0,-1.0,0.0,-1.0,1.0,1.0,-1.0,1.0,-1.0]" : 0.5,
    "[1.0,-1.0,-1.0,0.0,1.0,1.0,1.0,-1.0,-1.0]" : 0.5,
    "[1.0,1.0,-1.0,0.0,-1.0,1.0,1.0,-1.0,0.0]" : 0.5,
    "[-1.0,1.0,-1.0,1.0,0.0,1.0,1.0,-1.0,0.0]" : 0.5,
    "[1.0,1.0,-1.0,-1.0,-1.0,1.0,1.0,0.0,0.0]" : 0.5,
    "[-1.0,1.0,0.0,1.0,0.0,-1.0,1.0,-1.0,1.0]" : 0.5,
    "[-1.0,1.0,-1.0,-1.0,1.0,-1.0,1.0,0.0,1.0]" : 0.5,
    "[-1.0,0.0,1.0,1.0,-1.0,0.0,-1.0,1.0,1.0]" : 0.5,
    "[-1.0,1.0,0.0,-1.0,-1.0,1.0,1.0,-1.0,1.0]" : 0.5,
    "[-1.0,0.0,1.0,1.0,1.0,-1.0,0.0,-1.0,1.0]" : 0.5,
    "[1.0,0.0,-1.0,-1.0,-1.0,1.0,1.0,1.0,-1.0]" : 0.5,
    "[1.0,1.0,0.0,-1.0,1.0,0.0,1.0,-1.0,-1.0]" : 0.5,
    "[-1.0,-1.0,1.0,1.0,-1.0,0.0,-1.0,1.0,1.0]" : 0.5,
    "[0.0,1.0,1.0,1.0,-1.0,-1.0,-1.0,0.0,1.0]" : 0.5,
    "[1.0,-1.0,-1.0,-1.0,1.0,1.0,1.0,0.0,-1.0]" : 0.5,
    "[0.0,-1.0,1.0,1.0,1.0,-1.0,-1.0,1.0,0.0]" : 0.5,
    "[1.0,-1.0,1.0,-1.0,-1.0,1.0,-1.0,1.0,0.0]" : 0.5,
    "[0.0,1.0,-1.0,-1.0,1.0,1.0,0.0,-1.0,1.0]" : 0.5,
    "[-1.0,1.0,0.0,1.0,-1.0,0.0,1.0,-1.0,1.0]" : 0.5,
    "[0.0,1.0,-1.0,-1.0,-1.0,1.0,1.0,0.0,1.0]" : 0.5,
    "[0.0,-1.0,1.0,1.0,1.0,-1.0,-1.0,1.0,-1.0]" : 0.5,
    "[0.0,-1.0,0.0,1.0,1.0,-1.0,-1.0,1.0,1.0]" : 0.5,
    "[-1.0,1.0,-1.0,0.0,1.0,0.0,1.0,-1.0,1.0]" : 0.5,
    "[-1.0,1.0,0.0,1.0,1.0,-1.0,-1.0,0.0,1.0]" : 0.5,
    "[-1.0,-1.0,1.0,1.0,1.0,0.0,-1.0,1.0,-1.0]" : 0.5,
    "[1.0,-1.0,1.0,0.0,1.0,-1.0,-1.0,1.0,0.0]" : 0.5,
    "[0.0,1.0,-1.0,-1.0,1.0,0.0,1.0,-1.0,1.0]" : 0.5,
    "[1.0,-1.0,1.0,1.0,-1.0,0.0,-1.0,1.0,-1.0]" : 0.5,
    "[1.0,-1.0,1.0,1.0,-1.0,0.0,-1.0,1.0,0.0]" : 0.5,
    "[0.0,-1.0,1.0,1.0,1.0,-1.0,-1.0,0.0,1.0]" : 0.5,
    "[0.0,1.0,1.0,1.0,-1.0,-1.0,0.0,-1.0,1.0]" : 0.5,
    "[-1.0,1.0,-1.0,0.0,1.0,-1.0,1.0,0.0,1.0]" : 0.5,
    "[-1.0,1.0,0.0,-1.0,1.0,1.0,1.0,-1.0,0.0]" : 0.5,
    "[1.0,-1.0,-1.0,0.0,1.0,1.0,1.0,0.0,-1.0]" : 0.5,
    "[0.0,1.0,0.0,-1.0,1.0,1.0,1.0,-1.0,-1.0]" : 0.5,
    "[1.0,1.0,-1.0,-1.0,1.0,0.0,1.0,-1.0,0.0]" : 0.5,
    "[-1.0,-1.0,1.0,0.0,1.0,-1.0,0.0,1.0,1.0]" : 0.5,
    "[1.0,1.0,-1.0,0.0,-1.0,1.0,1.0,-1.0,-1.0]" : 0.5,
    "[-1.0,-1.0,1.0,1.0,1.0,0.0,-1.0,0.0,1.0]" : 0.5,
    "[0.0,1.0,-1.0,-1.0,0.0,1.0,1.0,-1.0,1.0]" : 0.5,
    "[1.0,0.0,1.0,0.0,1.0,-1.0,-1.0,1.0,-1.0]" : 0.5,
    "[-1.0,1.0,1.0,1.0,0.0,-1.0,-1.0,0.0,1.0]" : 0.5,
    "[-1.0,1.0,1.0,1.0,0.0,-1.0,1.0,-1.0,0.0]" : 0.5,
    "[1.0,1.0,-1.0,-1.0,0.0,0.0,1.0,-1.0,1.0]" : 0.5,
    "[0.0,1.0,-1.0,0.0,-1.0,1.0,1.0,-1.0,1.0]" : 0.5,
    "[0.0,1.0,-1.0,-1.0,-1.0,1.0,1.0,1.0,0.0]" : 0.5,
    "[1.0,-1.0,1.0,1.0,0.0,-1.0,-1.0,1.0,0.0]" : 0.5,
    "[1.0,-1.0,1.0,0.0,-1.0,1.0,-1.0,1.0,0.0]" : 0.5,
    "[1.0,0.0,-1.0,-1.0,1.0,1.0,1.0,0.0,-1.0]" : 0.5,
    "[1.0,-1.0,0.0,-1.0,-1.0,1.0,1.0,1.0,0.0]" : 0.5,
    "[-1.0,1.0,1.0,0.0,0.0,-1.0,1.0,-1.0,1.0]" : 0.5,
    "[0.0,1.0,-1.0,1.0,-1.0,-1.0,1.0,-1.0,1.0]" : 0.5,
    "[1.0,-1.0,1.0,0.0,-1.0,1.0,0.0,1.0,-1.0]" : 0.5,
    "[1.0,-1.0,1.0,1.0,0.0,0.0,-1.0,1.0,-1.0]" : 0.5,
    "[0.0,1.0,0.0,1.0,1.0,-1.0,-1.0,-1.0,1.0]" : 0.5,
    "[0.0,-1.0,1.0,1.0,0.0,-1.0,-1.0,1.0,1.0]" : 0.5,
    "[0.0,-1.0,1.0,1.0,1.0,-1.0,0.0,1.0,-1.0]" : 0.5,
    "[-1.0,1.0,0.0,0.0,-1.0,1.0,1.0,-1.0,1.0]" : 0.5,
    "[-1.0,1.0,0.0,-1.0,1.0,1.0,1.0,-1.0,-1.0]" : 0.5,
    "[1.0,0.0,1.0,-1.0,-1.0,1.0,-1.0,1.0,-1.0]" : 0.5,
    "[-1.0,1.0,1.0,1.0,1.0,-1.0,0.0,-1.0,0.0]" : 0.5,
    "[1.0,-1.0,-1.0,-1.0,0.0,1.0,1.0,1.0,0.0]" : 0.5,
    "[-1.0,1.0,-1.0,-1.0,1.0,0.0,1.0,0.0,1.0]" : 0.5,
    "[1.0,-1.0,0.0,1.0,-1.0,-1.0,0.0,1.0,1.0]" : 0.5,
    "[0.0,-1.0,1.0,0.0,1.0,1.0,-1.0,1.0,-1.0]" : 0.5,
    "[1.0,-1.0,1.0,1.0,0.0,-1.0,0.0,1.0,-1.0]" : 0.5,
    "[-1.0,-1.0,1.0,1.0,0.0,-1.0,0.0,1.0,1.0]" : 0.5,
    "[1.0,0.0,1.0,-1.0,1.0,-1.0,-1.0,1.0,-1.0]" : 0.5,
    "[1.0,-1.0,0.0,-1.0,1.0,0.0,1.0,1.0,-1.0]" : 0.5,
    "[0.0,0.0,0.0,-1.0,1.0,-1.0,0.0,1.0,1.0]" : 0.49988279674131303,
    "[0.0,0.0,-1.0,-1.0,1.0,-1.0,0.0,1.0,1.0]" : 0.49988279674131303,
    "[-1.0,0.0,1.0,0.0,1.0,1.0,0.0,-1.0,0.0]" : 0.49988095520394554,
    "[0.0,-1.0,0.0,1.0,1.0,0.0,1.0,-1.0,0.0]" : 0.49987910443120315,
    "[1.0,0.0,1.0,0.0,0.0,-1.0,1.0,-1.0,0.0]" : 0.4998779895153201,
    "[0.0,-1.0,0.0,0.0,1.0,1.0,-1.0,0.0,1.0]" : 0.49987761713242296,
    "[1.0,0.0,1.0,0.0,0.0,0.0,-1.0,-1.0,1.0]" : 0.49987761713242296,
    "[-1.0,0.0,0.0,-1.0,1.0,0.0,1.0,1.0,0.0]" : 0.49987649774570464,
    "[0.0,1.0,1.0,0.0,1.0,-1.0,0.0,0.0,-1.0]" : 0.49987649774570464,
    "[1.0,-1.0,-1.0,1.0,1.0,0.0,0.0,-1.0,0.0]" : 0.49987612386954455,
    "[0.0,1.0,1.0,-1.0,1.0,-1.0,0.0,0.0,0.0]" : 0.49987612386954455,
    "[-1.0,0.0,0.0,-1.0,1.0,-1.0,1.0,1.0,0.0]" : 0.49987612386954455,
    "[1.0,0.0,1.0,0.0,0.0,0.0,1.0,-1.0,-1.0]" : 0.49987612386954455,
    "[1.0,0.0,1.0,-1.0,0.0,0.0,-1.0,-1.0,1.0]" : 0.499875749619134,
    "[1.0,1.0,0.0,-1.0,1.0,-1.0,-1.0,0.0,0.0]" : 0.499875749619134,
    "[1.0,-1.0,0.0,0.0,0.0,-1.0,1.0,0.0,1.0]" : 0.499875749619134,
    "[1.0,0.0,1.0,-1.0,1.0,0.0,0.0,-1.0,0.0]" : 0.499875749619134,
    "[-1.0,-1.0,1.0,0.0,1.0,1.0,0.0,0.0,0.0]" : 0.499875749619134,
    "[0.0,-1.0,0.0,0.0,1.0,-1.0,1.0,0.0,1.0]" : 0.499875749619134,
    "[1.0,0.0,1.0,-1.0,0.0,0.0,0.0,-1.0,1.0]" : 0.499875749619134,
    "[1.0,-1.0,-1.0,0.0,0.0,0.0,1.0,0.0,1.0]" : 0.49987537499409845,
    "[1.0,1.0,0.0,-1.0,1.0,0.0,-1.0,0.0,0.0]" : 0.49987537499409845,
    "[1.0,0.0,1.0,0.0,0.0,-1.0,1.0,0.0,-1.0]" : 0.49987537499409845,
    "[1.0,0.0,-1.0,0.0,0.0,-1.0,1.0,0.0,1.0]" : 0.49987537499409845,
    "[0.0,-1.0,1.0,-1.0,0.0,0.0,1.0,0.0,1.0]" : 0.49987537499409845,
    "[0.0,-1.0,0.0,1.0,1.0,0.0,1.0,0.0,-1.0]" : 0.49987537499409845,
    "[0.0,1.0,1.0,-1.0,1.0,-1.0,0.0,0.0,-1.0]" : 0.49987537499409845,
    "[1.0,0.0,-1.0,1.0,1.0,0.0,0.0,-1.0,0.0]" : 0.49987537499409845,
    "[0.0,1.0,1.0,-1.0,1.0,0.0,0.0,0.0,-1.0]" : 0.4998749999940628,
    "[0.0,-1.0,0.0,-1.0,1.0,0.0,1.0,0.0,1.0]" : 0.4998749999940628,
    "[0.0,0.0,0.0,-1.0,1.0,-1.0,1.0,1.0,0.0]" : 0.4998749999940628,
    "[0.0,0.0,-1.0,-1.0,1.0,0.0,0.0,1.0,1.0]" : 0.49975940465020646,
    "[0.0,-1.0,0.0,-1.0,1.0,-1.0,1.0,0.0,1.0]" : 0.49975646375136296,
    "[0.0,-1.0,1.0,-1.0,1.0,0.0,0.0,0.0,1.0]" : 0.4997564596592266,
    "[0.0,-1.0,0.0,1.0,1.0,0.0,1.0,-1.0,-1.0]" : 0.49975497494591176,
    "[0.0,-1.0,1.0,-1.0,1.0,0.0,0.0,-1.0,1.0]" : 0.49975423278344827,
    "[-1.0,0.0,1.0,-1.0,0.0,0.0,1.0,0.0,1.0]" : 0.49975423278344827,
    "[1.0,1.0,0.0,-1.0,1.0,-1.0,0.0,0.0,0.0]" : 0.4997538611449446,
    "[0.0,0.0,0.0,1.0,1.0,0.0,1.0,-1.0,-1.0]" : 0.4997534910019437,
    "[1.0,0.0,1.0,-1.0,0.0,0.0,-1.0,0.0,1.0]" : 0.4997527451175093,
    "[0.0,0.0,0.0,-1.0,1.0,-1.0,1.0,0.0,1.0]" : 0.4997523708670988,
    "[1.0,-1.0,0.0,1.0,1.0,0.0,0.0,-1.0,0.0]" : 0.4997523708670988,
    "[0.0,-1.0,1.0,0.0,1.0,0.0,0.0,-1.0,1.0]" : 0.4997519973648149,
    "[1.0,-1.0,-1.0,1.0,1.0,0.0,0.0,0.0,0.0]" : 0.4997516234886548,
    "[-1.0,-1.0,1.0,-1.0,0.0,0.0,1.0,0.0,1.0]" : 0.49975124923824427,
    "[0.0,-1.0,1.0,0.0,1.0,1.0,0.0,-1.0,0.0]" : 0.49975124923824427,
    "[1.0,0.0,1.0,0.0,1.0,-1.0,0.0,-1.0,0.0]" : 0.4997508746132087,
    "[0.0,-1.0,0.0,0.0,1.0,1.0,-1.0,-1.0,1.0]" : 0.49963727122841234,
    "[0.0,0.0,1.0,-1.0,1.0,0.0,0.0,-1.0,1.0]" : 0.49963542856985926,
    "[1.0,0.0,1.0,0.0,0.0,-1.0,1.0,-1.0,-1.0]" : 0.49963209568309946,
    "[0.0,0.0,-1.0,0.0,1.0,-1.0,0.0,1.0,1.0]" : 0.49963134719197944,
    "[1.0,-1.0,0.0,0.0,1.0,0.0,1.0,-1.0,0.0]" : 0.4996306068932962,
    "[1.0,1.0,0.0,0.0,1.0,-1.0,-1.0,0.0,0.0]" : 0.49962948451556616,
    "[1.0,1.0,0.0,-1.0,0.0,-1.0,-1.0,1.0,1.0]" : 0.49950050047629885,
    "[-1.0,1.0,0.0,1.0,-1.0,-1.0,1.0,1.0,0.0]" : 0.49900149995264503,
    "[0.0,-1.0,1.0,1.0,-1.0,-1.0,1.0,0.0,1.0]" : 0.4989994999524551,
    "[1.0,-1.0,-1.0,1.0,-1.0,0.0,0.0,1.0,1.0]" : 0.4989994999524551,
    "[1.0,1.0,0.0,1.0,1.0,-1.0,-1.0,-1.0,0.0]" : 0.4989994999524551,
    "[-1.0,1.0,-1.0,1.0,0.0,1.0,0.0,1.0,-1.0]" : 0.4989994999524551,
    "[0.0,0.0,1.0,1.0,0.0,-1.0,1.0,-1.0,0.0]" : 0.49854035520084833,
    "[1.0,0.0,-1.0,-1.0,1.0,0.0,1.0,1.0,-1.0]" : 0.4985014999288963,
    "[1.0,-1.0,-1.0,1.0,-1.0,-1.0,0.0,1.0,1.0]" : 0.4984999999287538,
    "[1.0,1.0,0.0,-1.0,-1.0,1.0,-1.0,-1.0,1.0]" : 0.4984999999287538,
    "[1.0,1.0,0.0,-1.0,-1.0,1.0,-1.0,0.0,1.0]" : 0.4984999999287538,
    "[1.0,-1.0,-1.0,1.0,0.0,1.0,0.0,-1.0,1.0]" : 0.4984999999287538,
    "[-1.0,1.0,0.0,0.0,1.0,1.0,-1.0,0.0,-1.0]" : 0.4984999999287538,
    "[-1.0,1.0,1.0,-1.0,0.0,-1.0,1.0,1.0,-1.0]" : 0.4984999999287538,
    "[1.0,-1.0,1.0,-1.0,0.0,0.0,1.0,-1.0,1.0]" : 0.4984999999287538,
    "[0.0,1.0,-1.0,1.0,0.0,1.0,-1.0,1.0,-1.0]" : 0.4984999999287538,
    "[-1.0,1.0,-1.0,1.0,0.0,1.0,-1.0,1.0,0.0]" : 0.4984999999287538,
    "[-1.0,0.0,-1.0,1.0,0.0,1.0,1.0,-1.0,1.0]" : 0.4984999999287538,
    "[0.0,1.0,1.0,-1.0,1.0,1.0,0.0,-1.0,-1.0]" : 0.4984999999287538,
    "[1.0,0.0,1.0,0.0,-1.0,1.0,-1.0,-1.0,0.0]" : 0.4984999999287538,
    "[0.0,1.0,-1.0,1.0,1.0,0.0,-1.0,0.0,-1.0]" : 0.4984999999287538,
    "[-1.0,0.0,1.0,1.0,0.0,1.0,1.0,-1.0,-1.0]" : 0.4984999999287538,
    "[0.0,-1.0,-1.0,1.0,-1.0,1.0,0.0,0.0,1.0]" : 0.4984999999287538,
    "[0.0,1.0,1.0,-1.0,-1.0,0.0,-1.0,0.0,1.0]" : 0.4984999999287538,
    "[-1.0,1.0,1.0,0.0,0.0,1.0,-1.0,0.0,-1.0]" : 0.4984999999287538,
    "[-1.0,-1.0,0.0,0.0,1.0,1.0,1.0,-1.0,1.0]" : 0.4984999999287538,
    "[-1.0,1.0,0.0,1.0,0.0,1.0,-1.0,1.0,-1.0]" : 0.4984999999287538,
    "[0.0,-1.0,-1.0,1.0,-1.0,1.0,1.0,0.0,1.0]" : 0.4984999999287538,
    "[-1.0,-1.0,1.0,-1.0,1.0,0.0,0.0,1.0,1.0]" : 0.4984999999287538,
    "[-1.0,1.0,1.0,-1.0,0.0,0.0,1.0,1.0,-1.0]" : 0.4984999999287538,
    "[0.0,1.0,1.0,1.0,-1.0,-1.0,1.0,0.0,-1.0]" : 0.4984999999287538,
    "[1.0,-1.0,1.0,-1.0,0.0,-1.0,1.0,-1.0,1.0]" : 0.4984999999287538,
    "[1.0,-1.0,0.0,1.0,0.0,1.0,-1.0,-1.0,1.0]" : 0.4984999999287538,
    "[0.0,1.0,1.0,-1.0,0.0,-1.0,1.0,-1.0,1.0]" : 0.4984999999287538,
    "[1.0,-1.0,1.0,0.0,-1.0,-1.0,1.0,1.0,0.0]" : 0.4984999999287538,
    "[1.0,1.0,-1.0,-1.0,0.0,-1.0,0.0,1.0,1.0]" : 0.4984999999287538,
    "[0.0,-1.0,-1.0,1.0,1.0,0.0,1.0,-1.0,1.0]" : 0.4984999999287538,
    "[0.0,-1.0,1.0,1.0,0.0,1.0,1.0,-1.0,-1.0]" : 0.4984999999287538,
    "[1.0,1.0,-1.0,0.0,0.0,-1.0,-1.0,1.0,1.0]" : 0.4984999999287538,
    "[1.0,1.0,0.0,0.0,-1.0,1.0,-1.0,-1.0,1.0]" : 0.4984999999287538,
    "[1.0,0.0,-1.0,1.0,-1.0,-1.0,0.0,1.0,1.0]" : 0.4984999999287538,
    "[0.0,-1.0,1.0,-1.0,1.0,0.0,-1.0,1.0,1.0]" : 0.4984999999287538,
    "[-1.0,1.0,1.0,0.0,0.0,-1.0,1.0,1.0,-1.0]" : 0.4984999999287538,
    "[-1.0,-1.0,1.0,0.0,-1.0,1.0,1.0,1.0,0.0]" : 0.4984999999287538,
    "[0.0,1.0,-1.0,1.0,1.0,0.0,1.0,-1.0,-1.0]" : 0.4984999999287538,
    "[0.0,1.0,1.0,-1.0,1.0,-1.0,-1.0,0.0,1.0]" : 0.4984999999287538,
    "[0.0,-1.0,0.0,1.0,-1.0,1.0,1.0,1.0,-1.0]" : 0.4984999999287538,
    "[0.0,1.0,-1.0,1.0,0.0,1.0,-1.0,-1.0,1.0]" : 0.4984999999287538,
    "[-1.0,0.0,-1.0,1.0,1.0,0.0,0.0,1.0,-1.0]" : 0.4984999999287538,
    "[1.0,-1.0,1.0,-1.0,-1.0,0.0,0.0,1.0,1.0]" : 0.4984999999287538,
    "[0.0,1.0,1.0,-1.0,0.0,1.0,-1.0,1.0,-1.0]" : 0.4984999999287538,
    "[-1.0,0.0,-1.0,1.0,-1.0,1.0,0.0,1.0,0.0]" : 0.4984999999287538,
    "[-1.0,0.0,-1.0,0.0,1.0,1.0,-1.0,1.0,0.0]" : 0.4984999999287538,
    "[0.0,1.0,0.0,0.0,-1.0,-1.0,1.0,1.0,-1.0]" : 0.4984999999287538,
    "[-1.0,-1.0,0.0,0.0,-1.0,1.0,1.0,0.0,1.0]" : 0.4984999999287538,
    "[-1.0,1.0,1.0,1.0,0.0,1.0,-1.0,-1.0,0.0]" : 0.4984999999287538,
    "[0.0,1.0,0.0,-1.0,-1.0,0.0,-1.0,1.0,1.0]" : 0.4984999999287538,
    "[0.0,1.0,1.0,-1.0,1.0,-1.0,-1.0,-1.0,1.0]" : 0.4984999999287538,
    "[-1.0,0.0,-1.0,0.0,0.0,1.0,-1.0,1.0,1.0]" : 0.4984999999287538,
    "[-1.0,1.0,-1.0,-1.0,0.0,1.0,0.0,1.0,1.0]" : 0.4984999999287538,
    "[1.0,-1.0,1.0,-1.0,0.0,-1.0,0.0,1.0,1.0]" : 0.4984999999287538,
    "[-1.0,-1.0,0.0,-1.0,1.0,1.0,1.0,-1.0,1.0]" : 0.4984999999287538,
    "[-1.0,1.0,0.0,-1.0,0.0,1.0,1.0,1.0,-1.0]" : 0.4984999999287538,
    "[1.0,-1.0,1.0,-1.0,0.0,-1.0,1.0,0.0,1.0]" : 0.49849700492597004,
    "[1.0,0.0,1.0,1.0,0.0,-1.0,0.0,-1.0,0.0]" : 0.4984679835655688,
    "[1.0,1.0,0.0,1.0,0.0,-1.0,0.0,-1.0,0.0]" : 0.49846570850057453,
    "[0.0,1.0,1.0,1.0,0.0,-1.0,0.0,-1.0,0.0]" : 0.49842341276547963,
    "[1.0,-1.0,0.0,0.0,0.0,-1.0,0.0,1.0,1.0]" : 0.4984233712542722,
    "[0.0,1.0,1.0,0.0,0.0,-1.0,1.0,-1.0,0.0]" : 0.4984202795695165,
    "[1.0,0.0,-1.0,1.0,0.0,1.0,0.0,-1.0,0.0]" : 0.4984152200520413,
    "[1.0,1.0,0.0,0.0,0.0,-1.0,1.0,-1.0,0.0]" : 0.4983856941486475,
    "[0.0,1.0,1.0,-1.0,0.0,0.0,0.0,-1.0,1.0]" : 0.4983751400522495,
    "[0.0,0.0,0.0,1.0,1.0,0.0,-1.0,-1.0,1.0]" : 0.4983606740282417,
    "[0.0,-1.0,1.0,-1.0,0.0,1.0,1.0,0.0,0.0]" : 0.498353601392487,
    "[0.0,0.0,0.0,1.0,0.0,1.0,1.0,-1.0,-1.0]" : 0.4983500933443711,
    "[1.0,1.0,0.0,-1.0,0.0,1.0,0.0,-1.0,0.0]" : 0.49834966771888767,
    "[0.0,-1.0,0.0,1.0,0.0,-1.0,1.0,0.0,1.0]" : 0.4983490248710331,
    "[0.0,-1.0,0.0,-1.0,0.0,1.0,1.0,0.0,1.0]" : 0.49834752411737865,
    "[0.0,-1.0,0.0,-1.0,0.0,1.0,0.0,1.0,1.0]" : 0.4983433358903619,
    "[0.0,0.0,0.0,0.0,1.0,1.0,1.0,-1.0,-1.0]" : 0.49833157237724446,
    "[0.0,1.0,0.0,-1.0,1.0,0.0,1.0,0.0,-1.0]" : 0.4983290485082266,
    "[1.0,-1.0,0.0,0.0,0.0,-1.0,1.0,1.0,0.0]" : 0.49832835626130584,
    "[0.0,0.0,0.0,1.0,0.0,1.0,-1.0,-1.0,1.0]" : 0.49832712423841025,
    "[0.0,-1.0,1.0,-1.0,0.0,1.0,0.0,1.0,0.0]" : 0.4983263944571647,
    "[1.0,0.0,1.0,-1.0,0.0,1.0,0.0,-1.0,0.0]" : 0.4983225534239688,
    "[1.0,0.0,-1.0,-1.0,0.0,0.0,0.0,1.0,1.0]" : 0.49832205296968074,
    "[1.0,1.0,0.0,-1.0,0.0,0.0,-1.0,-1.0,1.0]" : 0.49832097540732423,
    "[0.0,1.0,0.0,1.0,0.0,-1.0,1.0,-1.0,0.0]" : 0.49832079975864446,
    "[1.0,0.0,-1.0,0.0,1.0,1.0,0.0,-1.0,0.0]" : 0.4983127381820062,
    "[0.0,-1.0,1.0,-1.0,0.0,0.0,1.0,1.0,0.0]" : 0.4983126510369515,
    "[0.0,-1.0,0.0,-1.0,0.0,1.0,1.0,1.0,0.0]" : 0.4983105924668047,
    "[1.0,-1.0,-1.0,0.0,0.0,-1.0,0.0,1.0,1.0]" : 0.4983098645031249,
    "[1.0,-1.0,0.0,1.0,0.0,-1.0,0.0,0.0,1.0]" : 0.4983057433592522,
    "[-1.0,1.0,0.0,0.0,1.0,-1.0,1.0,0.0,0.0]" : 0.49830368363185434,
    "[-1.0,1.0,0.0,0.0,0.0,-1.0,1.0,1.0,0.0]" : 0.49830147195805563,
    "[0.0,-1.0,1.0,-1.0,0.0,0.0,0.0,1.0,1.0]" : 0.4982989470205318,
    "[0.0,1.0,0.0,-1.0,0.0,1.0,0.0,-1.0,1.0]" : 0.49829728250059435,
    "[1.0,1.0,0.0,-1.0,0.0,0.0,0.0,-1.0,1.0]" : 0.49829646323511323,
    "[0.0,1.0,1.0,-1.0,0.0,0.0,0.0,1.0,-1.0]" : 0.4982955231605371,
    "[1.0,0.0,0.0,-1.0,1.0,0.0,-1.0,1.0,0.0]" : 0.4982932227127272,
    "[0.0,-1.0,0.0,1.0,0.0,1.0,1.0,0.0,-1.0]" : 0.49828590507403236,
    "[0.0,-1.0,0.0,1.0,0.0,-1.0,1.0,1.0,0.0]" : 0.49827846973171824,
    "[1.0,0.0,0.0,-1.0,0.0,1.0,0.0,-1.0,1.0]" : 0.498274441614275,
    "[0.0,-1.0,0.0,1.0,1.0,0.0,-1.0,0.0,1.0]" : 0.4982686860635148,
    "[1.0,-1.0,-1.0,0.0,1.0,1.0,0.0,0.0,0.0]" : 0.49826717829036443,
    "[0.0,1.0,-1.0,-1.0,1.0,0.0,0.0,0.0,1.0]" : 0.4982599145195388,
    "[0.0,1.0,1.0,-1.0,0.0,1.0,0.0,-1.0,0.0]" : 0.498241634834395,
    "[0.0,-1.0,0.0,0.0,1.0,1.0,1.0,0.0,-1.0]" : 0.49823622272825613,
    "[-1.0,0.0,0.0,0.0,1.0,1.0,1.0,-1.0,0.0]" : 0.49823540195620614,
    "[1.0,-1.0,-1.0,0.0,0.0,0.0,0.0,1.0,1.0]" : 0.4982325545307572,
    "[0.0,1.0,1.0,-1.0,0.0,0.0,1.0,0.0,-1.0]" : 0.49822882594725404,
    "[1.0,-1.0,-1.0,1.0,0.0,1.0,0.0,0.0,0.0]" : 0.4982286351913757,
    "[1.0,0.0,-1.0,-1.0,1.0,0.0,0.0,1.0,0.0]" : 0.4982060362352982,
    "[0.0,-1.0,0.0,1.0,0.0,-1.0,0.0,1.0,1.0]" : 0.4981957505284556,
    "[0.0,1.0,0.0,0.0,1.0,-1.0,-1.0,0.0,1.0]" : 0.4981955020781852,
    "[1.0,0.0,0.0,-1.0,0.0,1.0,-1.0,-1.0,1.0]" : 0.49818993707977954,
    "[0.0,1.0,-1.0,-1.0,0.0,0.0,0.0,1.0,1.0]" : 0.49818559411282864,
    "[0.0,0.0,1.0,-1.0,1.0,0.0,0.0,1.0,-1.0]" : 0.49818557668961455,
    "[1.0,1.0,0.0,-1.0,0.0,0.0,-1.0,1.0,0.0]" : 0.4981831993124297,
    "[1.0,-1.0,0.0,1.0,0.0,-1.0,0.0,1.0,0.0]" : 0.49818315819251247,
    "[-1.0,0.0,1.0,0.0,0.0,1.0,1.0,-1.0,0.0]" : 0.49817663129761003,
    "[-1.0,-1.0,1.0,1.0,0.0,1.0,0.0,0.0,0.0]" : 0.49816967631603554,
    "[-1.0,0.0,1.0,-1.0,0.0,1.0,1.0,0.0,0.0]" : 0.49816833762919016,
    "[1.0,1.0,0.0,0.0,0.0,-1.0,-1.0,1.0,0.0]" : 0.4981682023561597,
    "[0.0,-1.0,-1.0,1.0,0.0,-1.0,0.0,1.0,1.0]" : 0.4981655720723956,
    "[0.0,-1.0,0.0,1.0,0.0,1.0,-1.0,0.0,1.0]" : 0.49816485203614175,
    "[0.0,0.0,1.0,1.0,0.0,-1.0,1.0,0.0,-1.0]" : 0.4981565861278926,
    "[1.0,0.0,1.0,0.0,0.0,-1.0,-1.0,1.0,0.0]" : 0.49815649811393087,
    "[0.0,1.0,-1.0,0.0,1.0,-1.0,0.0,0.0,1.0]" : 0.4981558235583548,
    "[1.0,-1.0,-1.0,0.0,0.0,0.0,1.0,1.0,0.0]" : 0.4981526680067084,
    "[1.0,0.0,-1.0,1.0,0.0,-1.0,0.0,0.0,1.0]" : 0.4981488832934147,
    "[-1.0,0.0,1.0,0.0,0.0,-1.0,1.0,1.0,0.0]" : 0.4981458324770957,
    "[0.0,-1.0,1.0,0.0,1.0,-1.0,0.0,-1.0,1.0]" : 0.49813690365135604,
    "[-1.0,1.0,0.0,0.0,0.0,-1.0,0.0,1.0,1.0]" : 0.4981280137556563,
    "[1.0,0.0,0.0,0.0,1.0,-1.0,-1.0,1.0,0.0]" : 0.4981276957904962,
    "[1.0,-1.0,-1.0,1.0,0.0,-1.0,0.0,1.0,0.0]" : 0.49812004670058085,
    "[0.0,0.0,-1.0,1.0,0.0,1.0,1.0,-1.0,0.0]" : 0.4981185830119776,
    "[1.0,-1.0,-1.0,1.0,0.0,-1.0,0.0,0.0,1.0]" : 0.4981002673823218,
    "[-1.0,1.0,0.0,-1.0,0.0,0.0,1.0,1.0,0.0]" : 0.498096964560661,
    "[0.0,1.0,-1.0,0.0,0.0,-1.0,0.0,1.0,1.0]" : 0.4980967719307487,
    "[0.0,1.0,1.0,0.0,0.0,0.0,1.0,-1.0,-1.0]" : 0.49809243209757614,
    "[1.0,1.0,0.0,0.0,0.0,-1.0,-1.0,0.0,1.0]" : 0.49808307986145167,
    "[-1.0,0.0,1.0,1.0,1.0,0.0,0.0,-1.0,0.0]" : 0.4980812681389849,
    "[1.0,1.0,0.0,0.0,0.0,0.0,-1.0,-1.0,1.0]" : 0.4980751053774797,
    "[1.0,-1.0,0.0,-1.0,0.0,1.0,-1.0,0.0,1.0]" : 0.49807239368249645,
    "[0.0,-1.0,1.0,1.0,0.0,1.0,-1.0,0.0,0.0]" : 0.49807205564792445,
    "[1.0,1.0,0.0,0.0,0.0,0.0,1.0,-1.0,-1.0]" : 0.4980713274522611,
    "[-1.0,-1.0,1.0,1.0,1.0,0.0,0.0,0.0,0.0]" : 0.4980672105217066,
    "[1.0,0.0,1.0,1.0,0.0,-1.0,0.0,0.0,-1.0]" : 0.4980662685516579,
    "[1.0,0.0,1.0,-1.0,0.0,1.0,-1.0,0.0,0.0]" : 0.49806608651515477,
    "[-1.0,0.0,1.0,1.0,0.0,1.0,0.0,-1.0,0.0]" : 0.4980646736202447,
    "[-1.0,1.0,-1.0,1.0,1.0,0.0,-1.0,0.0,0.0]" : 0.4980583765458628,
    "[1.0,0.0,-1.0,0.0,0.0,1.0,1.0,-1.0,0.0]" : 0.498053814160946,
    "[0.0,0.0,-1.0,1.0,0.0,-1.0,1.0,0.0,1.0]" : 0.4980527967784138,
    "[-1.0,-1.0,1.0,0.0,0.0,0.0,1.0,1.0,0.0]" : 0.4980524229487227,
    "[1.0,0.0,0.0,-1.0,0.0,1.0,-1.0,0.0,1.0]" : 0.4980513237654047,
    "[-1.0,0.0,0.0,-1.0,0.0,1.0,1.0,0.0,1.0]" : 0.4980498427456619,
    "[-1.0,0.0,1.0,0.0,1.0,-1.0,0.0,1.0,0.0]" : 0.4980471024827408,
    "[-1.0,1.0,0.0,-1.0,1.0,0.0,1.0,0.0,0.0]" : 0.4980390176788426,
    "[0.0,1.0,1.0,0.0,0.0,0.0,-1.0,-1.0,1.0]" : 0.49803898571700744,
    "[0.0,1.0,0.0,-1.0,0.0,1.0,-1.0,-1.0,1.0]" : 0.49802796869531607,
    "[-1.0,1.0,0.0,0.0,0.0,-1.0,1.0,0.0,1.0]" : 0.49802273199257235,
    "[0.0,0.0,1.0,0.0,1.0,-1.0,0.0,1.0,-1.0]" : 0.4980220774737467,
    "[1.0,-1.0,0.0,-1.0,1.0,0.0,1.0,-1.0,0.0]" : 0.4980102695820149,
    "[-1.0,0.0,0.0,1.0,0.0,1.0,0.0,-1.0,1.0]" : 0.4980085036663856,
    "[1.0,-1.0,1.0,-1.0,1.0,-1.0,0.0,0.0,0.0]" : 0.4980076970109464,
    "[0.0,0.0,-1.0,1.0,1.0,0.0,0.0,-1.0,1.0]" : 0.49800647611281246,
    "[0.0,1.0,1.0,-1.0,-1.0,1.0,0.0,1.0,-1.0]" : 0.4980029999047901,
    "[0.0,-1.0,1.0,1.0,0.0,0.0,1.0,0.0,-1.0]" : 0.49799186509597443,
    "[0.0,1.0,-1.0,-1.0,0.0,0.0,1.0,1.0,0.0]" : 0.49798791767302075,
    "[1.0,0.0,-1.0,1.0,0.0,0.0,0.0,-1.0,1.0]" : 0.497987869450166,
    "[1.0,-1.0,0.0,0.0,0.0,1.0,-1.0,0.0,1.0]" : 0.4979820632327072,
    "[0.0,-1.0,1.0,1.0,0.0,0.0,-1.0,0.0,1.0]" : 0.4979657301209379,
    "[1.0,1.0,0.0,-1.0,0.0,1.0,-1.0,-1.0,0.0]" : 0.4979637340020146,
    "[0.0,1.0,1.0,-1.0,-1.0,1.0,0.0,-1.0,0.0]" : 0.49795052279781743,
    "[0.0,-1.0,1.0,1.0,1.0,0.0,0.0,0.0,-1.0]" : 0.4979471581306171,
    "[-1.0,0.0,0.0,1.0,1.0,0.0,-1.0,1.0,-1.0]" : 0.49794350872225507,
    "[1.0,-1.0,0.0,0.0,1.0,1.0,-1.0,0.0,0.0]" : 0.4979386900603272,
    "[-1.0,-1.0,1.0,0.0,0.0,0.0,0.0,1.0,1.0]" : 0.4979353723665869,
    "[0.0,1.0,1.0,0.0,0.0,-1.0,-1.0,1.0,0.0]" : 0.49793278162899274,
    "[0.0,1.0,1.0,0.0,0.0,-1.0,0.0,1.0,-1.0]" : 0.4979305510784096,
    "[-1.0,1.0,-1.0,0.0,1.0,1.0,0.0,0.0,-1.0]" : 0.49792797109380577,
    "[0.0,0.0,-1.0,0.0,1.0,1.0,-1.0,1.0,-1.0]" : 0.4979261240307625,
    "[0.0,1.0,-1.0,-1.0,0.0,0.0,1.0,0.0,1.0]" : 0.497914742791096,
    "[-1.0,0.0,1.0,1.0,0.0,0.0,0.0,-1.0,1.0]" : 0.4979105160980242,
    "[1.0,0.0,1.0,-1.0,0.0,0.0,0.0,1.0,-1.0]" : 0.497905556284113,
    "[0.0,0.0,0.0,-1.0,1.0,-1.0,1.0,-1.0,1.0]" : 0.4978910474812447,
    "[-1.0,-1.0,1.0,0.0,0.0,-1.0,1.0,1.0,0.0]" : 0.49785887967440545,
    "[1.0,1.0,0.0,-1.0,0.0,0.0,0.0,1.0,-1.0]" : 0.49785529804077083,
    "[1.0,-1.0,0.0,0.0,0.0,1.0,1.0,0.0,-1.0]" : 0.4978551074037049,
    "[1.0,-1.0,0.0,1.0,0.0,1.0,0.0,0.0,-1.0]" : 0.49785435027186725,
    "[-1.0,1.0,0.0,-1.0,1.0,-1.0,1.0,0.0,0.0]" : 0.4978530227350352,
    "[1.0,0.0,-1.0,1.0,0.0,-1.0,0.0,-1.0,1.0]" : 0.4978504114920347,
    "[1.0,-1.0,-1.0,-1.0,0.0,0.0,0.0,1.0,1.0]" : 0.49784785321179814,
    "[-1.0,0.0,1.0,0.0,1.0,-1.0,0.0,1.0,-1.0]" : 0.49784485789666927,
    "[0.0,0.0,1.0,-1.0,1.0,-1.0,0.0,1.0,-1.0]" : 0.4978331185872843,
    "[0.0,-1.0,0.0,1.0,-1.0,-1.0,1.0,1.0,0.0]" : 0.49783203100669626,
    "[0.0,-1.0,0.0,-1.0,-1.0,1.0,0.0,1.0,1.0]" : 0.497816164976884,
    "[1.0,1.0,0.0,1.0,-1.0,-1.0,0.0,-1.0,0.0]" : 0.4978158096085383,
    "[-1.0,-1.0,0.0,1.0,0.0,-1.0,1.0,1.0,0.0]" : 0.4977833302976668,
    "[1.0,1.0,-1.0,-1.0,0.0,0.0,0.0,-1.0,1.0]" : 0.49775737519414026,
    "[0.0,0.0,1.0,-1.0,0.0,1.0,1.0,-1.0,0.0]" : 0.4977373488391019,
    "[0.0,1.0,0.0,1.0,0.0,-1.0,1.0,-1.0,-1.0]" : 0.49773242643967,
    "[0.0,0.0,1.0,1.0,0.0,-1.0,1.0,-1.0,-1.0]" : 0.4977320085693667,
