{
  "Metadata" : {
    "Seed" : 1688062048720,
    "Type" : "Tabular",
    "Alpha" : 0.125,
    "Gamma" : 0.8751999735832214,
    "Epsilon" : 0.375,
    "Solver" : "Q_LEARNING",
    "Heuristic" : "players.heuristics.WinOnlyHeuristic",
    "QWeightsDataStructure" : "players.rl.QWDSTabular",
    "RLFeatureVector" : "games.tictactoe.TicTacToeStateVector",
    "NGamesTotal" : 1000000,
    "NGamesWithTheseSettings" : 1000000,
    "ContinuedFrom" : null
  },
  "Weights" : {
    "[1.0,1.0,0.0,-1.0,1.0,-1.0,-1.0,-1.0,1.0]" : 0.9999999999999996,
    "[1.0,0.0,1.0,-1.0,1.0,-1.0,1.0,-1.0,-1.0]" : 0.9999999999999996,
    "[-1.0,-1.0,1.0,1.0,1.0,-1.0,1.0,-1.0,0.0]" : 0.9999999999999996,
    "[1.0,0.0,-1.0,1.0,-1.0,0.0,1.0,0.0,0.0]" : 0.9999999999999996,
    "[1.0,-1.0,-1.0,-1.0,1.0,0.0,1.0,0.0,1.0]" : 0.9999999999999996,
    "[1.0,-1.0,-1.0,1.0,0.0,0.0,1.0,0.0,0.0]" : 0.9999999999999996,
    "[-1.0,-1.0,0.0,1.0,1.0,1.0,0.0,-1.0,0.0]" : 0.9999999999999996,
    "[-1.0,1.0,-1.0,0.0,-1.0,-1.0,1.0,1.0,1.0]" : 0.9999999999999996,
    "[-1.0,-1.0,1.0,-1.0,1.0,0.0,1.0,1.0,-1.0]" : 0.9999999999999996,
    "[0.0,0.0,1.0,-1.0,1.0,0.0,1.0,0.0,-1.0]" : 0.9999999999999996,
    "[-1.0,1.0,-1.0,-1.0,1.0,-1.0,1.0,1.0,0.0]" : 0.9999999999999996,
    "[1.0,0.0,1.0,-1.0,-1.0,1.0,-1.0,0.0,1.0]" : 0.9999999999999996,
    "[1.0,-1.0,0.0,0.0,1.0,-1.0,0.0,0.0,1.0]" : 0.9999999999999996,
    "[1.0,-1.0,-1.0,0.0,1.0,-1.0,0.0,0.0,1.0]" : 0.9999999999999996,
    "[1.0,0.0,0.0,0.0,1.0,-1.0,-1.0,-1.0,1.0]" : 0.9999999999999996,
    "[0.0,-1.0,-1.0,-1.0,-1.0,1.0,1.0,1.0,1.0]" : 0.9999999999999996,
    "[1.0,1.0,1.0,0.0,-1.0,0.0,-1.0,-1.0,1.0]" : 0.9999999999999996,
    "[1.0,1.0,1.0,-1.0,-1.0,1.0,-1.0,0.0,-1.0]" : 0.9999999999999996,
    "[-1.0,0.0,-1.0,0.0,-1.0,1.0,1.0,1.0,1.0]" : 0.9999999999999996,
    "[0.0,1.0,-1.0,0.0,1.0,0.0,-1.0,1.0,0.0]" : 0.9999999999999996,
    "[-1.0,1.0,0.0,-1.0,1.0,0.0,0.0,1.0,0.0]" : 0.9999999999999996,
    "[-1.0,-1.0,1.0,-1.0,-1.0,1.0,0.0,1.0,1.0]" : 0.9999999999999996,
    "[1.0,-1.0,-1.0,-1.0,1.0,0.0,0.0,0.0,1.0]" : 0.9999999999999996,
    "[1.0,0.0,-1.0,0.0,1.0,-1.0,1.0,-1.0,1.0]" : 0.9999999999999996,
    "[0.0,1.0,0.0,0.0,1.0,-1.0,-1.0,1.0,0.0]" : 0.9999999999999996,
    "[1.0,0.0,1.0,-1.0,1.0,-1.0,-1.0,1.0,0.0]" : 0.9999999999999996,
    "[1.0,1.0,1.0,-1.0,-1.0,1.0,0.0,-1.0,-1.0]" : 0.9999999999999996,
    "[1.0,1.0,1.0,0.0,-1.0,1.0,-1.0,0.0,-1.0]" : 0.9999999999999996,
    "[1.0,-1.0,-1.0,0.0,-1.0,1.0,1.0,1.0,0.0]" : 0.9999999999999996,
    "[-1.0,0.0,-1.0,1.0,1.0,1.0,1.0,-1.0,0.0]" : 0.9999999999999996,
    "[1.0,0.0,-1.0,0.0,1.0,0.0,0.0,-1.0,1.0]" : 0.9999999999999996,
    "[0.0,-1.0,1.0,-1.0,0.0,1.0,0.0,0.0,1.0]" : 0.9999999999999996,
    "[-1.0,0.0,-1.0,0.0,0.0,0.0,1.0,1.0,1.0]" : 0.9999999999999996,
    "[0.0,1.0,0.0,-1.0,1.0,0.0,0.0,1.0,-1.0]" : 0.9999999999999996,
    "[-1.0,0.0,1.0,1.0,1.0,0.0,-1.0,1.0,-1.0]" : 0.9999999999999996,
    "[1.0,-1.0,0.0,0.0,1.0,0.0,0.0,-1.0,1.0]" : 0.9999999999999996,
    "[0.0,-1.0,1.0,0.0,1.0,-1.0,1.0,1.0,-1.0]" : 0.9999999999999996,
    "[1.0,1.0,-1.0,0.0,1.0,0.0,-1.0,-1.0,1.0]" : 0.9999999999999996,
    "[0.0,-1.0,0.0,1.0,1.0,1.0,-1.0,0.0,0.0]" : 0.9999999999999996,
    "[1.0,0.0,0.0,1.0,-1.0,-1.0,1.0,-1.0,1.0]" : 0.9999999999999996,
    "[1.0,-1.0,0.0,1.0,-1.0,0.0,1.0,0.0,0.0]" : 0.9999999999999996,
    "[1.0,0.0,0.0,0.0,1.0,-1.0,0.0,-1.0,1.0]" : 0.9999999999999996,
    "[1.0,0.0,1.0,1.0,-1.0,-1.0,1.0,0.0,-1.0]" : 0.9999999999999996,
    "[-1.0,-1.0,1.0,0.0,1.0,-1.0,1.0,0.0,0.0]" : 0.9999999999999996,
    "[1.0,1.0,-1.0,-1.0,1.0,0.0,-1.0,0.0,1.0]" : 0.9999999999999996,
    "[1.0,-1.0,1.0,-1.0,-1.0,1.0,0.0,0.0,1.0]" : 0.9999999999999996,
    "[0.0,-1.0,1.0,1.0,1.0,1.0,-1.0,0.0,-1.0]" : 0.9999999999999996,
    "[1.0,-1.0,-1.0,-1.0,1.0,-1.0,0.0,1.0,1.0]" : 0.9999999999999996,
    "[-1.0,-1.0,1.0,1.0,1.0,-1.0,1.0,0.0,0.0]" : 0.9999999999999996,
    "[1.0,0.0,0.0,-1.0,1.0,-1.0,-1.0,0.0,1.0]" : 0.9999999999999996,
    "[1.0,1.0,-1.0,1.0,-1.0,-1.0,1.0,-1.0,0.0]" : 0.9999999999999996,
    "[1.0,-1.0,0.0,1.0,1.0,-1.0,-1.0,-1.0,1.0]" : 0.9999999999999996,
    "[-1.0,1.0,-1.0,0.0,1.0,1.0,1.0,0.0,-1.0]" : 0.9999999999999996,
    "[1.0,0.0,1.0,-1.0,1.0,0.0,1.0,-1.0,-1.0]" : 0.9999999999999996,
    "[1.0,1.0,0.0,-1.0,1.0,-1.0,-1.0,1.0,-1.0]" : 0.9999999999999996,
    "[-1.0,0.0,1.0,-1.0,-1.0,1.0,0.0,1.0,1.0]" : 0.9999999999999996,
    "[1.0,1.0,0.0,-1.0,1.0,-1.0,1.0,-1.0,0.0]" : 0.9999999999999996,
    "[-1.0,0.0,1.0,0.0,1.0,0.0,1.0,0.0,-1.0]" : 0.9999999999999996,
    "[-1.0,1.0,1.0,-1.0,1.0,0.0,1.0,0.0,-1.0]" : 0.9999999999999996,
    "[-1.0,-1.0,0.0,1.0,1.0,1.0,-1.0,-1.0,1.0]" : 0.9999999999999996,
    "[-1.0,0.0,1.0,0.0,1.0,-1.0,1.0,0.0,-1.0]" : 0.9999999999999996,
    "[-1.0,-1.0,1.0,-1.0,1.0,1.0,1.0,0.0,-1.0]" : 0.9999999999999996,
    "[1.0,0.0,-1.0,1.0,0.0,-1.0,1.0,0.0,0.0]" : 0.9999999999999996,
    "[1.0,1.0,1.0,1.0,-1.0,-1.0,-1.0,0.0,0.0]" : 0.9999999999999996,
    "[1.0,-1.0,1.0,-1.0,1.0,0.0,1.0,-1.0,-1.0]" : 0.9999999999999996,
    "[0.0,1.0,1.0,-1.0,1.0,-1.0,0.0,-1.0,1.0]" : 0.9999999999999996,
    "[1.0,0.0,-1.0,0.0,-1.0,-1.0,1.0,1.0,1.0]" : 0.9999999999999996,
    "[0.0,0.0,1.0,-1.0,1.0,-1.0,1.0,-1.0,1.0]" : 0.9999999999999996,
    "[1.0,-1.0,1.0,0.0,1.0,-1.0,-1.0,0.0,1.0]" : 0.9999999999999996,
    "[1.0,-1.0,-1.0,-1.0,1.0,1.0,0.0,-1.0,1.0]" : 0.9999999999999996,
    "[0.0,-1.0,1.0,0.0,1.0,-1.0,1.0,-1.0,0.0]" : 0.9999999999999996,
    "[1.0,-1.0,0.0,-1.0,1.0,1.0,1.0,-1.0,0.0]" : 0.9999999999999996,
    "[-1.0,-1.0,1.0,-1.0,1.0,1.0,0.0,-1.0,1.0]" : 0.9999999999999996,
    "[1.0,-1.0,-1.0,1.0,-1.0,1.0,1.0,0.0,-1.0]" : 0.9999999999999996,
    "[1.0,1.0,0.0,1.0,-1.0,-1.0,0.0,-1.0,1.0]" : 0.9999999999999996,
    "[-1.0,-1.0,0.0,1.0,-1.0,0.0,1.0,1.0,1.0]" : 0.9999999999999996,
    "[0.0,0.0,-1.0,-1.0,-1.0,0.0,1.0,1.0,1.0]" : 0.9999999999999996,
    "[1.0,0.0,-1.0,0.0,1.0,-1.0,0.0,0.0,1.0]" : 0.9999999999999996,
    "[1.0,-1.0,0.0,1.0,1.0,0.0,-1.0,-1.0,1.0]" : 0.9999999999999996,
    "[1.0,0.0,1.0,-1.0,1.0,-1.0,1.0,0.0,-1.0]" : 0.9999999999999996,
    "[0.0,0.0,-1.0,1.0,1.0,1.0,0.0,0.0,-1.0]" : 0.9999999999999996,
    "[-1.0,0.0,1.0,-1.0,1.0,1.0,0.0,-1.0,1.0]" : 0.9999999999999996,
    "[1.0,-1.0,0.0,-1.0,1.0,0.0,0.0,0.0,1.0]" : 0.9999999999999996,
    "[-1.0,0.0,-1.0,1.0,1.0,1.0,-1.0,-1.0,1.0]" : 0.9999999999999996,
    "[1.0,0.0,-1.0,1.0,-1.0,-1.0,1.0,-1.0,1.0]" : 0.9999999999999996,
    "[0.0,-1.0,0.0,0.0,-1.0,0.0,1.0,1.0,1.0]" : 0.9999999999999996,
    "[-1.0,-1.0,1.0,0.0,1.0,1.0,0.0,-1.0,1.0]" : 0.9999999999999996,
    "[-1.0,1.0,1.0,0.0,1.0,-1.0,1.0,-1.0,-1.0]" : 0.9999999999999996,
    "[-1.0,1.0,1.0,0.0,1.0,-1.0,-1.0,1.0,-1.0]" : 0.9999999999999996,
    "[-1.0,1.0,0.0,-1.0,1.0,-1.0,0.0,1.0,1.0]" : 0.9999999999999996,
    "[-1.0,0.0,0.0,1.0,1.0,1.0,-1.0,0.0,0.0]" : 0.9999999999999996,
    "[0.0,-1.0,1.0,1.0,-1.0,1.0,-1.0,0.0,1.0]" : 0.9999999999999996,
    "[0.0,-1.0,1.0,0.0,1.0,0.0,1.0,-1.0,-1.0]" : 0.9999999999999996,
    "[1.0,0.0,1.0,0.0,1.0,-1.0,-1.0,-1.0,1.0]" : 0.9999999999999996,
    "[1.0,0.0,-1.0,1.0,0.0,0.0,1.0,-1.0,0.0]" : 0.9999999999999996,
    "[1.0,0.0,-1.0,-1.0,1.0,-1.0,1.0,-1.0,1.0]" : 0.9999999999999996,
    "[-1.0,0.0,-1.0,1.0,1.0,1.0,0.0,-1.0,1.0]" : 0.9999999999999996,
    "[-1.0,1.0,0.0,-1.0,1.0,-1.0,0.0,1.0,0.0]" : 0.9999999999999996,
    "[1.0,-1.0,-1.0,-1.0,1.0,1.0,-1.0,0.0,1.0]" : 0.9999999999999996,
    "[0.0,0.0,0.0,1.0,1.0,1.0,-1.0,-1.0,0.0]" : 0.9999999999999996,
    "[1.0,-1.0,1.0,-1.0,1.0,0.0,-1.0,-1.0,1.0]" : 0.9999999999999996,
    "[1.0,-1.0,0.0,1.0,0.0,0.0,1.0,0.0,-1.0]" : 0.9999999999999996,
    "[-1.0,0.0,0.0,1.0,1.0,1.0,-1.0,-1.0,1.0]" : 0.9999999999999996,
    "[1.0,1.0,0.0,1.0,-1.0,-1.0,1.0,-1.0,0.0]" : 0.9999999999999996,
    "[1.0,0.0,0.0,1.0,0.0,0.0,1.0,-1.0,-1.0]" : 0.9999999999999996,
    "[1.0,0.0,-1.0,0.0,1.0,1.0,-1.0,1.0,-1.0]" : 0.9999999999999996,
    "[1.0,-1.0,0.0,1.0,-1.0,-1.0,1.0,1.0,-1.0]" : 0.9999999999999996,
    "[1.0,1.0,-1.0,-1.0,1.0,-1.0,0.0,-1.0,1.0]" : 0.9999999999999996,
    "[1.0,1.0,1.0,1.0,-1.0,-1.0,0.0,-1.0,-1.0]" : 0.9999999999999996,
    "[-1.0,0.0,1.0,-1.0,1.0,1.0,1.0,-1.0,-1.0]" : 0.9999999999999996,
    "[1.0,1.0,1.0,-1.0,0.0,0.0,0.0,-1.0,0.0]" : 0.9999999999999996,
    "[0.0,1.0,1.0,0.0,1.0,-1.0,-1.0,1.0,-1.0]" : 0.9999999999999996,
    "[-1.0,1.0,-1.0,0.0,1.0,-1.0,0.0,1.0,1.0]" : 0.9999999999999996,
    "[-1.0,0.0,1.0,-1.0,1.0,-1.0,1.0,0.0,0.0]" : 0.9999999999999996,
    "[1.0,1.0,1.0,0.0,0.0,-1.0,-1.0,0.0,0.0]" : 0.9999999999999996,
    "[1.0,-1.0,0.0,1.0,-1.0,-1.0,1.0,0.0,1.0]" : 0.9999999999999996,
    "[1.0,0.0,-1.0,1.0,0.0,0.0,1.0,0.0,-1.0]" : 0.9999999999999996,
    "[0.0,0.0,1.0,-1.0,-1.0,1.0,0.0,-1.0,1.0]" : 0.9999999999999996,
    "[0.0,0.0,-1.0,1.0,1.0,1.0,1.0,-1.0,-1.0]" : 0.9999999999999996,
    "[-1.0,0.0,0.0,1.0,1.0,1.0,-1.0,-1.0,0.0]" : 0.9999999999999996,
    "[1.0,1.0,-1.0,0.0,1.0,-1.0,-1.0,0.0,1.0]" : 0.9999999999999996,
    "[0.0,-1.0,-1.0,1.0,1.0,1.0,-1.0,1.0,-1.0]" : 0.9999999999999996,
    "[-1.0,0.0,-1.0,1.0,1.0,1.0,1.0,-1.0,-1.0]" : 0.9999999999999996,
    "[1.0,1.0,1.0,0.0,-1.0,-1.0,-1.0,-1.0,1.0]" : 0.9999999999999996,
    "[0.0,0.0,1.0,0.0,0.0,1.0,-1.0,-1.0,1.0]" : 0.9999999999999996,
    "[-1.0,0.0,1.0,1.0,1.0,-1.0,1.0,0.0,-1.0]" : 0.9999999999999996,
    "[0.0,1.0,0.0,0.0,1.0,-1.0,0.0,1.0,-1.0]" : 0.9999999999999996,
    "[1.0,-1.0,0.0,0.0,1.0,-1.0,-1.0,0.0,1.0]" : 0.9999999999999996,
    "[0.0,0.0,0.0,-1.0,-1.0,0.0,1.0,1.0,1.0]" : 0.9999999999999996,
    "[1.0,-1.0,0.0,-1.0,1.0,1.0,0.0,-1.0,1.0]" : 0.9999999999999996,
    "[1.0,-1.0,-1.0,-1.0,-1.0,0.0,1.0,1.0,1.0]" : 0.9999999999999996,
    "[1.0,1.0,1.0,-1.0,-1.0,0.0,1.0,-1.0,-1.0]" : 0.9999999999999996,
    "[1.0,1.0,1.0,-1.0,1.0,-1.0,0.0,-1.0,-1.0]" : 0.9999999999999996,
    "[-1.0,0.0,-1.0,1.0,1.0,1.0,-1.0,1.0,-1.0]" : 0.9999999999999996,
    "[1.0,1.0,0.0,1.0,-1.0,-1.0,1.0,0.0,-1.0]" : 0.9999999999999996,
    "[-1.0,0.0,1.0,0.0,-1.0,1.0,-1.0,0.0,1.0]" : 0.9999999999999996,
    "[1.0,0.0,-1.0,1.0,-1.0,1.0,1.0,-1.0,-1.0]" : 0.9999999999999996,
    "[1.0,-1.0,-1.0,0.0,1.0,0.0,0.0,0.0,1.0]" : 0.9999999999999996,
    "[0.0,-1.0,1.0,0.0,1.0,-1.0,1.0,0.0,0.0]" : 0.9999999999999996,
    "[-1.0,0.0,-1.0,0.0,1.0,-1.0,1.0,1.0,1.0]" : 0.9999999999999996,
    "[0.0,1.0,0.0,0.0,1.0,0.0,-1.0,1.0,-1.0]" : 0.9999999999999996,
    "[1.0,-1.0,0.0,1.0,1.0,0.0,1.0,-1.0,-1.0]" : 0.9999999999999996,
    "[1.0,-1.0,0.0,1.0,1.0,-1.0,-1.0,0.0,1.0]" : 0.9999999999999996,
    "[0.0,0.0,-1.0,0.0,0.0,-1.0,1.0,1.0,1.0]" : 0.9999999999999996,
    "[-1.0,-1.0,1.0,1.0,1.0,1.0,-1.0,-1.0,0.0]" : 0.9999999999999996,
    "[0.0,0.0,1.0,-1.0,0.0,1.0,0.0,-1.0,1.0]" : 0.9999999999999996,
    "[1.0,1.0,1.0,0.0,1.0,-1.0,-1.0,0.0,-1.0]" : 0.9999999999999996,
    "[1.0,1.0,1.0,0.0,-1.0,-1.0,-1.0,1.0,0.0]" : 0.9999999999999996,
    "[1.0,1.0,1.0,-1.0,0.0,0.0,-1.0,0.0,0.0]" : 0.9999999999999996,
    "[1.0,0.0,0.0,-1.0,1.0,-1.0,0.0,0.0,1.0]" : 0.9999999999999996,
    "[1.0,1.0,1.0,-1.0,-1.0,0.0,0.0,-1.0,1.0]" : 0.9999999999999996,
    "[1.0,-1.0,0.0,-1.0,1.0,0.0,-1.0,0.0,1.0]" : 0.9999999999999996,
    "[-1.0,0.0,1.0,0.0,-1.0,1.0,0.0,0.0,1.0]" : 0.9999999999999996,
    "[-1.0,1.0,-1.0,1.0,1.0,1.0,-1.0,-1.0,0.0]" : 0.9999999999999996,
    "[0.0,-1.0,0.0,-1.0,-1.0,1.0,1.0,1.0,1.0]" : 0.9999999999999996,
    "[1.0,-1.0,0.0,1.0,-1.0,-1.0,1.0,1.0,0.0]" : 0.9999999999999996,
    "[-1.0,1.0,-1.0,-1.0,1.0,0.0,1.0,1.0,-1.0]" : 0.9999999999999996,
    "[0.0,0.0,1.0,-1.0,-1.0,1.0,0.0,0.0,1.0]" : 0.9999999999999996,
    "[0.0,1.0,-1.0,-1.0,1.0,0.0,0.0,1.0,0.0]" : 0.9999999999999996,
    "[-1.0,1.0,1.0,0.0,-1.0,1.0,-1.0,-1.0,1.0]" : 0.9999999999999996,
    "[1.0,1.0,1.0,-1.0,0.0,0.0,0.0,0.0,-1.0]" : 0.9999999999999996,
    "[-1.0,0.0,0.0,0.0,-1.0,-1.0,1.0,1.0,1.0]" : 0.9999999999999996,
    "[1.0,1.0,1.0,-1.0,1.0,0.0,-1.0,0.0,-1.0]" : 0.9999999999999996,
    "[0.0,-1.0,0.0,1.0,1.0,1.0,-1.0,0.0,-1.0]" : 0.9999999999999996,
    "[1.0,0.0,-1.0,1.0,-1.0,0.0,1.0,-1.0,1.0]" : 0.9999999999999996,
    "[0.0,1.0,-1.0,0.0,1.0,0.0,0.0,1.0,-1.0]" : 0.9999999999999996,
    "[-1.0,-1.0,1.0,0.0,1.0,-1.0,1.0,-1.0,1.0]" : 0.9999999999999996,
    "[1.0,-1.0,-1.0,1.0,1.0,1.0,-1.0,0.0,-1.0]" : 0.9999999999999996,
    "[0.0,0.0,-1.0,1.0,1.0,-1.0,-1.0,1.0,1.0]" : 0.9999999999999996,
    "[1.0,-1.0,0.0,-1.0,1.0,1.0,-1.0,0.0,1.0]" : 0.9999999999999996,
    "[1.0,0.0,-1.0,1.0,-1.0,0.0,1.0,-1.0,0.0]" : 0.9999999999999996,
    "[-1.0,-1.0,1.0,1.0,1.0,0.0,1.0,0.0,-1.0]" : 0.9999999999999996,
    "[-1.0,-1.0,0.0,-1.0,1.0,0.0,1.0,1.0,1.0]" : 0.9999999999999996,
    "[0.0,-1.0,-1.0,0.0,-1.0,0.0,1.0,1.0,1.0]" : 0.9999999999999996,
    "[1.0,0.0,-1.0,-1.0,1.0,1.0,-1.0,1.0,0.0]" : 0.9999999999999996,
    "[1.0,1.0,1.0,0.0,-1.0,0.0,-1.0,0.0,-1.0]" : 0.9999999999999996,
    "[-1.0,1.0,-1.0,1.0,1.0,1.0,0.0,-1.0,-1.0]" : 0.9999999999999996,
    "[1.0,0.0,-1.0,1.0,1.0,-1.0,-1.0,0.0,1.0]" : 0.9999999999999996,
    "[1.0,0.0,0.0,1.0,0.0,-1.0,1.0,-1.0,0.0]" : 0.9999999999999996,
    "[-1.0,-1.0,1.0,0.0,-1.0,1.0,-1.0,1.0,1.0]" : 0.9999999999999996,
    "[1.0,1.0,1.0,0.0,0.0,-1.0,0.0,0.0,-1.0]" : 0.9999999999999996,
    "[0.0,-1.0,1.0,-1.0,1.0,0.0,1.0,0.0,0.0]" : 0.9999999999999996,
    "[0.0,0.0,1.0,0.0,-1.0,1.0,-1.0,-1.0,1.0]" : 0.9999999999999996,
    "[0.0,0.0,-1.0,1.0,1.0,1.0,-1.0,0.0,0.0]" : 0.9999999999999996,
    "[-1.0,0.0,-1.0,1.0,-1.0,-1.0,1.0,1.0,1.0]" : 0.9999999999999996,
    "[-1.0,-1.0,1.0,0.0,1.0,1.0,1.0,0.0,-1.0]" : 0.9999999999999996,
    "[1.0,-1.0,-1.0,0.0,1.0,1.0,-1.0,1.0,0.0]" : 0.9999999999999996,
    "[1.0,-1.0,-1.0,0.0,1.0,-1.0,1.0,-1.0,1.0]" : 0.9999999999999996,
    "[1.0,-1.0,1.0,-1.0,1.0,-1.0,1.0,0.0,-1.0]" : 0.9999999999999996,
    "[1.0,-1.0,-1.0,1.0,-1.0,0.0,1.0,1.0,-1.0]" : 0.9999999999999996,
    "[1.0,-1.0,-1.0,-1.0,1.0,1.0,0.0,0.0,1.0]" : 0.9999999999999996,
    "[1.0,1.0,1.0,-1.0,-1.0,0.0,0.0,-1.0,0.0]" : 0.9999999999999996,
    "[1.0,0.0,-1.0,1.0,1.0,0.0,1.0,-1.0,-1.0]" : 0.9999999999999996,
    "[-1.0,1.0,-1.0,0.0,1.0,0.0,1.0,1.0,-1.0]" : 0.9999999999999996,
    "[-1.0,-1.0,1.0,0.0,-1.0,1.0,0.0,0.0,1.0]" : 0.9999999999999996,
    "[0.0,0.0,1.0,-1.0,0.0,1.0,-1.0,0.0,1.0]" : 0.9999999999999996,
    "[0.0,1.0,1.0,-1.0,-1.0,1.0,-1.0,-1.0,1.0]" : 0.9999999999999996,
    "[-1.0,-1.0,0.0,1.0,1.0,1.0,0.0,1.0,-1.0]" : 0.9999999999999996,
    "[1.0,0.0,0.0,1.0,-1.0,-1.0,1.0,1.0,-1.0]" : 0.9999999999999996,
    "[-1.0,0.0,1.0,0.0,1.0,0.0,1.0,-1.0,0.0]" : 0.9999999999999996,
    "[0.0,-1.0,1.0,-1.0,1.0,0.0,1.0,1.0,-1.0]" : 0.9999999999999996,
    "[-1.0,0.0,1.0,0.0,1.0,-1.0,1.0,-1.0,0.0]" : 0.9999999999999996,
    "[1.0,0.0,0.0,0.0,1.0,0.0,-1.0,-1.0,1.0]" : 0.9999999999999996,
    "[1.0,-1.0,1.0,1.0,-1.0,-1.0,1.0,0.0,-1.0]" : 0.9999999999999996,
    "[0.0,1.0,-1.0,0.0,1.0,-1.0,0.0,1.0,0.0]" : 0.9999999999999996,
    "[1.0,-1.0,0.0,1.0,1.0,1.0,-1.0,0.0,-1.0]" : 0.9999999999999996,
    "[0.0,-1.0,-1.0,0.0,1.0,-1.0,1.0,1.0,1.0]" : 0.9999999999999996,
    "[-1.0,1.0,0.0,0.0,1.0,0.0,-1.0,1.0,0.0]" : 0.9999999999999996,
    "[-1.0,1.0,-1.0,0.0,1.0,0.0,0.0,1.0,0.0]" : 0.9999999999999996,
    "[0.0,0.0,0.0,1.0,1.0,1.0,0.0,-1.0,-1.0]" : 0.9999999999999996,
    "[1.0,0.0,-1.0,1.0,-1.0,-1.0,1.0,0.0,0.0]" : 0.9999999999999996,
    "[-1.0,1.0,0.0,0.0,1.0,-1.0,0.0,1.0,0.0]" : 0.9999999999999996,
    "[0.0,1.0,0.0,-1.0,1.0,0.0,-1.0,1.0,-1.0]" : 0.9999999999999996,
    "[0.0,-1.0,0.0,-1.0,1.0,-1.0,1.0,1.0,1.0]" : 0.9999999999999996,
    "[-1.0,0.0,0.0,-1.0,1.0,1.0,1.0,1.0,-1.0]" : 0.9999999999999996,
    "[1.0,1.0,1.0,-1.0,-1.0,0.0,-1.0,0.0,0.0]" : 0.9999999999999996,
    "[-1.0,1.0,-1.0,0.0,1.0,0.0,-1.0,1.0,1.0]" : 0.9999999999999996,
    "[-1.0,1.0,-1.0,-1.0,-1.0,0.0,1.0,1.0,1.0]" : 0.9999999999999996,
    "[1.0,1.0,1.0,-1.0,1.0,0.0,-1.0,-1.0,0.0]" : 0.9999999999999996,
    "[-1.0,1.0,1.0,-1.0,1.0,0.0,1.0,-1.0,-1.0]" : 0.9999999999999996,
    "[0.0,1.0,0.0,-1.0,1.0,0.0,-1.0,1.0,0.0]" : 0.9999999999999996,
    "[-1.0,-1.0,1.0,1.0,-1.0,1.0,-1.0,0.0,1.0]" : 0.9999999999999996,
    "[-1.0,0.0,-1.0,1.0,1.0,1.0,0.0,0.0,-1.0]" : 0.9999999999999996,
    "[-1.0,0.0,0.0,1.0,1.0,1.0,-1.0,0.0,-1.0]" : 0.9999999999999996,
    "[1.0,-1.0,1.0,1.0,-1.0,0.0,1.0,0.0,-1.0]" : 0.9999999999999996,
    "[1.0,0.0,0.0,-1.0,1.0,0.0,0.0,-1.0,1.0]" : 0.9999999999999996,
    "[-1.0,1.0,-1.0,-1.0,1.0,1.0,0.0,1.0,-1.0]" : 0.9999999999999996,
    "[1.0,1.0,-1.0,-1.0,1.0,-1.0,-1.0,1.0,0.0]" : 0.9999999999999996,
    "[1.0,0.0,-1.0,1.0,-1.0,1.0,1.0,0.0,-1.0]" : 0.9999999999999996,
    "[0.0,-1.0,1.0,1.0,1.0,-1.0,1.0,0.0,-1.0]" : 0.9999999999999996,
    "[-1.0,0.0,0.0,1.0,1.0,1.0,0.0,0.0,-1.0]" : 0.9999999999999996,
    "[1.0,1.0,1.0,0.0,-1.0,0.0,1.0,-1.0,-1.0]" : 0.9999999999999996,
    "[0.0,0.0,1.0,-1.0,-1.0,1.0,-1.0,0.0,1.0]" : 0.9999999999999996,
    "[1.0,1.0,0.0,0.0,-1.0,1.0,1.0,-1.0,-1.0]" : 0.9999999999999996,
    "[1.0,-1.0,-1.0,1.0,-1.0,-1.0,1.0,1.0,0.0]" : 0.9999999999999996,
    "[1.0,0.0,-1.0,-1.0,1.0,-1.0,0.0,0.0,1.0]" : 0.9999999999999996,
    "[1.0,1.0,1.0,-1.0,-1.0,0.0,-1.0,1.0,-1.0]" : 0.9999999999999996,
    "[1.0,1.0,1.0,1.0,-1.0,0.0,-1.0,-1.0,0.0]" : 0.9999999999999996,
    "[-1.0,0.0,1.0,-1.0,-1.0,1.0,0.0,0.0,1.0]" : 0.9999999999999996,
    "[1.0,1.0,1.0,-1.0,1.0,-1.0,-1.0,0.0,-1.0]" : 0.9999999999999996,
    "[-1.0,-1.0,0.0,0.0,1.0,-1.0,1.0,1.0,1.0]" : 0.9999999999999996,
    "[1.0,-1.0,-1.0,1.0,1.0,-1.0,0.0,-1.0,1.0]" : 0.9999999999999996,
    "[-1.0,0.0,0.0,0.0,0.0,-1.0,1.0,1.0,1.0]" : 0.9999999999999996,
    "[-1.0,-1.0,1.0,-1.0,-1.0,1.0,1.0,0.0,1.0]" : 0.9999999999999996,
    "[0.0,-1.0,0.0,-1.0,-1.0,0.0,1.0,1.0,1.0]" : 0.9999999999999996,
    "[0.0,0.0,1.0,1.0,1.0,-1.0,1.0,-1.0,-1.0]" : 0.9999999999999996,
    "[-1.0,-1.0,1.0,-1.0,1.0,-1.0,1.0,0.0,1.0]" : 0.9999999999999996,
    "[1.0,1.0,-1.0,-1.0,1.0,0.0,-1.0,1.0,-1.0]" : 0.9999999999999996,
    "[0.0,0.0,-1.0,1.0,1.0,1.0,0.0,-1.0,0.0]" : 0.9999999999999996,
    "[-1.0,0.0,-1.0,-1.0,-1.0,1.0,1.0,1.0,1.0]" : 0.9999999999999996,
    "[-1.0,1.0,0.0,0.0,1.0,0.0,-1.0,1.0,-1.0]" : 0.9999999999999996,
    "[-1.0,0.0,-1.0,1.0,1.0,1.0,0.0,0.0,0.0]" : 0.9999999999999996,
    "[1.0,-1.0,1.0,-1.0,1.0,-1.0,-1.0,0.0,1.0]" : 0.9999999999999996,
    "[-1.0,-1.0,0.0,1.0,1.0,1.0,-1.0,1.0,-1.0]" : 0.9999999999999996,
    "[-1.0,1.0,1.0,-1.0,-1.0,1.0,0.0,-1.0,1.0]" : 0.9999999999999996,
    "[1.0,-1.0,0.0,1.0,0.0,0.0,1.0,-1.0,0.0]" : 0.9999999999999996,
    "[1.0,0.0,-1.0,0.0,1.0,0.0,-1.0,0.0,1.0]" : 0.9999999999999996,
    "[1.0,0.0,1.0,1.0,-1.0,0.0,1.0,-1.0,-1.0]" : 0.9999999999999996,
    "[-1.0,-1.0,1.0,0.0,-1.0,1.0,1.0,0.0,1.0]" : 0.9999999999999996,
    "[1.0,-1.0,0.0,-1.0,1.0,-1.0,1.0,1.0,0.0]" : 0.9999999999999996,
    "[1.0,0.0,-1.0,0.0,1.0,0.0,-1.0,-1.0,1.0]" : 0.9999999999999996,
    "[-1.0,1.0,0.0,1.0,1.0,1.0,-1.0,-1.0,0.0]" : 0.9999999999999996,
    "[1.0,1.0,1.0,0.0,-1.0,-1.0,0.0,0.0,-1.0]" : 0.9999999999999996,
    "[1.0,1.0,1.0,0.0,-1.0,0.0,-1.0,1.0,-1.0]" : 0.9999999999999996,
    "[-1.0,-1.0,1.0,-1.0,1.0,-1.0,1.0,1.0,0.0]" : 0.9999999999999996,
    "[-1.0,0.0,1.0,0.0,1.0,-1.0,1.0,1.0,-1.0]" : 0.9999999999999996,
    "[1.0,-1.0,-1.0,1.0,-1.0,0.0,1.0,0.0,0.0]" : 0.9999999999999996,
    "[1.0,-1.0,-1.0,0.0,1.0,-1.0,-1.0,1.0,1.0]" : 0.9999999999999996,
    "[0.0,-1.0,-1.0,-1.0,1.0,0.0,1.0,1.0,1.0]" : 0.9999999999999996,
    "[1.0,-1.0,1.0,0.0,1.0,0.0,1.0,-1.0,-1.0]" : 0.9999999999999996,
    "[-1.0,1.0,0.0,0.0,1.0,0.0,0.0,1.0,-1.0]" : 0.9999999999999996,
    "[1.0,0.0,-1.0,-1.0,1.0,-1.0,1.0,0.0,1.0]" : 0.9999999999999996,
    "[1.0,1.0,1.0,0.0,-1.0,-1.0,1.0,-1.0,-1.0]" : 0.9999999999999996,
    "[-1.0,0.0,1.0,0.0,1.0,1.0,-1.0,-1.0,1.0]" : 0.9999999999999996,
    "[-1.0,-1.0,1.0,1.0,1.0,1.0,-1.0,0.0,0.0]" : 0.9999999999999996,
    "[1.0,0.0,-1.0,1.0,-1.0,0.0,1.0,0.0,-1.0]" : 0.9999999999999996,
    "[0.0,-1.0,0.0,1.0,1.0,1.0,-1.0,1.0,-1.0]" : 0.9999999999999996,
    "[0.0,0.0,1.0,0.0,-1.0,1.0,-1.0,0.0,1.0]" : 0.9999999999999996,
    "[-1.0,1.0,-1.0,-1.0,1.0,1.0,0.0,1.0,0.0]" : 0.9999999999999996,
    "[0.0,1.0,1.0,1.0,-1.0,0.0,-1.0,-1.0,1.0]" : 0.9999999999999996,
    "[1.0,-1.0,0.0,-1.0,1.0,0.0,-1.0,1.0,1.0]" : 0.9999999999999996,
    "[-1.0,1.0,0.0,-1.0,-1.0,1.0,1.0,0.0,1.0]" : 0.9999999999999996,
    "[0.0,0.0,0.0,1.0,1.0,1.0,-1.0,0.0,-1.0]" : 0.9999999999999996,
    "[-1.0,-1.0,1.0,0.0,1.0,0.0,1.0,0.0,0.0]" : 0.9999999999999996,
    "[1.0,1.0,1.0,0.0,-1.0,-1.0,-1.0,1.0,-1.0]" : 0.9999999999999996,
    "[-1.0,-1.0,0.0,1.0,1.0,1.0,0.0,0.0,0.0]" : 0.9999999999999996,
    "[1.0,0.0,1.0,0.0,1.0,-1.0,1.0,-1.0,-1.0]" : 0.9999999999999996,
    "[-1.0,1.0,0.0,1.0,1.0,0.0,1.0,-1.0,-1.0]" : 0.9999999999999996,
    "[-1.0,-1.0,0.0,1.0,1.0,1.0,-1.0,0.0,0.0]" : 0.9999999999999996,
    "[1.0,1.0,-1.0,0.0,1.0,-1.0,-1.0,-1.0,1.0]" : 0.9999999999999996,
    "[1.0,1.0,-1.0,-1.0,1.0,-1.0,0.0,1.0,0.0]" : 0.9999999999999996,
    "[-1.0,-1.0,1.0,1.0,1.0,1.0,-1.0,0.0,-1.0]" : 0.9999999999999996,
    "[-1.0,-1.0,1.0,0.0,1.0,-1.0,1.0,1.0,-1.0]" : 0.9999999999999996,
    "[-1.0,0.0,1.0,1.0,-1.0,1.0,-1.0,0.0,1.0]" : 0.9999999999999996,
    "[0.0,1.0,-1.0,-1.0,1.0,-1.0,0.0,1.0,0.0]" : 0.9999999999999996,
    "[-1.0,-1.0,1.0,0.0,-1.0,-1.0,1.0,1.0,1.0]" : 0.9999999999999996,
    "[-1.0,1.0,0.0,1.0,1.0,-1.0,0.0,1.0,-1.0]" : 0.9999999999999996,
    "[1.0,1.0,1.0,0.0,-1.0,1.0,0.0,-1.0,-1.0]" : 0.9999999999999996,
    "[1.0,1.0,1.0,0.0,-1.0,-1.0,0.0,0.0,0.0]" : 0.9999999999999996,
    "[1.0,1.0,1.0,-1.0,-1.0,0.0,0.0,0.0,0.0]" : 0.9999999999999996,
    "[1.0,1.0,1.0,0.0,-1.0,-1.0,0.0,-1.0,0.0]" : 0.9999999999999996,
    "[1.0,0.0,-1.0,-1.0,1.0,0.0,-1.0,0.0,1.0]" : 0.9999999999999996,
    "[0.0,1.0,0.0,-1.0,1.0,-1.0,0.0,1.0,0.0]" : 0.9999999999999996,
    "[1.0,1.0,-1.0,0.0,1.0,0.0,-1.0,1.0,-1.0]" : 0.9999999999999996,
    "[-1.0,1.0,0.0,0.0,1.0,-1.0,-1.0,1.0,1.0]" : 0.9999999999999996,
    "[-1.0,0.0,-1.0,1.0,-1.0,0.0,1.0,1.0,1.0]" : 0.9999999999999996,
    "[1.0,0.0,1.0,-1.0,-1.0,1.0,-1.0,1.0,0.0]" : 0.9999999999999996,
    "[0.0,-1.0,0.0,0.0,0.0,-1.0,1.0,1.0,1.0]" : 0.9999999999999996,
    "[1.0,1.0,1.0,1.0,-1.0,-1.0,-1.0,-1.0,0.0]" : 0.9999999999999996,
    "[1.0,1.0,-1.0,1.0,-1.0,0.0,1.0,-1.0,-1.0]" : 0.9999999999999996,
    "[1.0,0.0,-1.0,1.0,1.0,-1.0,-1.0,-1.0,1.0]" : 0.9999999999999996,
    "[1.0,0.0,1.0,-1.0,-1.0,1.0,0.0,-1.0,1.0]" : 0.9999999999999996,
    "[1.0,-1.0,1.0,-1.0,1.0,0.0,-1.0,0.0,1.0]" : 0.9999999999999996,
    "[-1.0,0.0,1.0,-1.0,-1.0,1.0,1.0,-1.0,1.0]" : 0.9999999999999996,
    "[1.0,-1.0,1.0,1.0,-1.0,-1.0,1.0,0.0,0.0]" : 0.9999999999999996,
    "[1.0,0.0,-1.0,-1.0,1.0,0.0,0.0,-1.0,1.0]" : 0.9999999999999996,
    "[-1.0,-1.0,1.0,-1.0,1.0,0.0,1.0,-1.0,1.0]" : 0.9999999999999996,
    "[-1.0,1.0,-1.0,0.0,-1.0,0.0,1.0,1.0,1.0]" : 0.9999999999999996,
    "[1.0,0.0,1.0,-1.0,1.0,-1.0,-1.0,0.0,1.0]" : 0.9999999999999996,
    "[0.0,1.0,0.0,0.0,1.0,-1.0,-1.0,1.0,-1.0]" : 0.9999999999999996,
    "[1.0,-1.0,-1.0,0.0,1.0,1.0,0.0,-1.0,1.0]" : 0.9999999999999996,
    "[1.0,-1.0,1.0,0.0,1.0,-1.0,1.0,-1.0,-1.0]" : 0.9999999999999996,
    "[1.0,1.0,1.0,1.0,-1.0,-1.0,0.0,-1.0,0.0]" : 0.9999999999999996,
    "[0.0,0.0,1.0,-1.0,-1.0,1.0,1.0,-1.0,1.0]" : 0.9999999999999996,
    "[-1.0,0.0,0.0,-1.0,0.0,0.0,1.0,1.0,1.0]" : 0.9999999999999996,
    "[0.0,-1.0,-1.0,1.0,1.0,1.0,0.0,0.0,-1.0]" : 0.9999999999999996,
    "[1.0,1.0,-1.0,-1.0,1.0,0.0,0.0,1.0,-1.0]" : 0.9999999999999996,
    "[1.0,1.0,1.0,0.0,0.0,0.0,-1.0,0.0,-1.0]" : 0.9999999999999996,
    "[1.0,1.0,1.0,1.0,-1.0,0.0,-1.0,0.0,-1.0]" : 0.9999999999999996,
    "[0.0,0.0,-1.0,-1.0,0.0,0.0,1.0,1.0,1.0]" : 0.9999999999999996,
    "[1.0,0.0,-1.0,1.0,-1.0,-1.0,1.0,1.0,0.0]" : 0.9999999999999996,
    "[0.0,0.0,1.0,-1.0,1.0,-1.0,1.0,1.0,-1.0]" : 0.9999999999999996,
    "[-1.0,-1.0,0.0,1.0,1.0,1.0,-1.0,1.0,0.0]" : 0.9999999999999996,
    "[0.0,-1.0,1.0,0.0,-1.0,1.0,0.0,0.0,1.0]" : 0.9999999999999996,
    "[1.0,-1.0,1.0,-1.0,-1.0,1.0,-1.0,0.0,1.0]" : 0.9999999999999996,
    "[1.0,-1.0,-1.0,-1.0,1.0,0.0,1.0,-1.0,1.0]" : 0.9999999999999996,
    "[0.0,1.0,-1.0,1.0,-1.0,-1.0,1.0,0.0,1.0]" : 0.9999999999999996,
    "[-1.0,-1.0,1.0,0.0,1.0,0.0,1.0,0.0,-1.0]" : 0.9999999999999996,
    "[1.0,-1.0,0.0,0.0,-1.0,-1.0,1.0,1.0,1.0]" : 0.9999999999999996,
    "[1.0,1.0,1.0,0.0,-1.0,1.0,-1.0,-1.0,0.0]" : 0.9999999999999996,
    "[-1.0,-1.0,0.0,0.0,0.0,0.0,1.0,1.0,1.0]" : 0.9999999999999996,
    "[0.0,-1.0,1.0,0.0,1.0,0.0,1.0,0.0,-1.0]" : 0.9999999999999996,
    "[0.0,1.0,-1.0,-1.0,1.0,0.0,1.0,1.0,-1.0]" : 0.9999999999999996,
    "[0.0,0.0,0.0,-1.0,0.0,-1.0,1.0,1.0,1.0]" : 0.9999999999999996,
    "[1.0,0.0,-1.0,-1.0,1.0,1.0,-1.0,-1.0,1.0]" : 0.9999999999999996,
    "[1.0,1.0,1.0,-1.0,1.0,-1.0,0.0,0.0,-1.0]" : 0.9999999999999996,
    "[1.0,-1.0,-1.0,1.0,1.0,0.0,-1.0,1.0,0.0]" : 0.9999999999999996,
    "[-1.0,0.0,1.0,-1.0,1.0,0.0,1.0,-1.0,0.0]" : 0.9999999999999996,
    "[1.0,0.0,-1.0,-1.0,1.0,0.0,0.0,0.0,1.0]" : 0.9999999999999996,
    "[1.0,0.0,-1.0,1.0,1.0,1.0,0.0,-1.0,-1.0]" : 0.9999999999999996,
    "[-1.0,0.0,0.0,-1.0,-1.0,0.0,1.0,1.0,1.0]" : 0.9999999999999996,
    "[0.0,-1.0,0.0,1.0,1.0,1.0,0.0,-1.0,0.0]" : 0.9999999999999996,
    "[1.0,-1.0,0.0,-1.0,-1.0,1.0,0.0,1.0,1.0]" : 0.9999999999999996,
    "[-1.0,0.0,0.0,1.0,1.0,1.0,0.0,-1.0,0.0]" : 0.9999999999999996,
    "[-1.0,1.0,0.0,0.0,1.0,-1.0,-1.0,1.0,0.0]" : 0.9999999999999996,
    "[-1.0,0.0,-1.0,1.0,1.0,1.0,-1.0,0.0,0.0]" : 0.9999999999999996,
    "[1.0,-1.0,1.0,0.0,1.0,0.0,-1.0,-1.0,1.0]" : 0.9999999999999996,
    "[1.0,1.0,1.0,0.0,0.0,0.0,-1.0,-1.0,0.0]" : 0.9999999999999996,
    "[1.0,0.0,-1.0,-1.0,1.0,0.0,1.0,-1.0,1.0]" : 0.9999999999999996,
    "[1.0,0.0,0.0,1.0,-1.0,0.0,1.0,-1.0,0.0]" : 0.9999999999999996,
    "[1.0,-1.0,0.0,1.0,0.0,-1.0,1.0,0.0,0.0]" : 0.9999999999999996,
    "[1.0,-1.0,-1.0,0.0,1.0,0.0,1.0,-1.0,1.0]" : 0.9999999999999996,
    "[1.0,-1.0,0.0,0.0,1.0,0.0,-1.0,-1.0,1.0]" : 0.9999999999999996,
    "[-1.0,-1.0,0.0,1.0,-1.0,-1.0,1.0,1.0,1.0]" : 0.9999999999999996,
    "[1.0,-1.0,-1.0,1.0,1.0,1.0,0.0,-1.0,-1.0]" : 0.9999999999999996,
    "[0.0,1.0,-1.0,1.0,1.0,1.0,0.0,-1.0,-1.0]" : 0.9999999999999996,
    "[1.0,1.0,1.0,-1.0,0.0,-1.0,0.0,0.0,0.0]" : 0.9999999999999996,
    "[1.0,-1.0,-1.0,0.0,1.0,0.0,0.0,-1.0,1.0]" : 0.9999999999999996,
    "[0.0,-1.0,1.0,-1.0,1.0,0.0,1.0,-1.0,0.0]" : 0.9999999999999996,
    "[-1.0,0.0,1.0,0.0,1.0,0.0,1.0,-1.0,-1.0]" : 0.9999999999999996,
    "[-1.0,0.0,1.0,0.0,-1.0,-1.0,1.0,1.0,1.0]" : 0.9999999999999996,
    "[1.0,-1.0,0.0,-1.0,1.0,0.0,0.0,-1.0,1.0]" : 0.9999999999999996,
    "[0.0,-1.0,0.0,-1.0,0.0,0.0,1.0,1.0,1.0]" : 0.9999999999999996,
    "[-1.0,1.0,-1.0,-1.0,1.0,-1.0,0.0,1.0,1.0]" : 0.9999999999999996,
    "[0.0,-1.0,-1.0,1.0,1.0,1.0,0.0,-1.0,0.0]" : 0.9999999999999996,
    "[-1.0,0.0,1.0,1.0,1.0,-1.0,1.0,-1.0,-1.0]" : 0.9999999999999996,
    "[0.0,0.0,0.0,0.0,-1.0,-1.0,1.0,1.0,1.0]" : 0.9999999999999996,
    "[0.0,-1.0,-1.0,0.0,-1.0,1.0,1.0,1.0,1.0]" : 0.9999999999999996,
    "[-1.0,1.0,1.0,0.0,-1.0,1.0,-1.0,0.0,1.0]" : 0.9999999999999996,
    "[0.0,-1.0,1.0,-1.0,1.0,-1.0,1.0,0.0,0.0]" : 0.9999999999999996,
    "[-1.0,-1.0,0.0,0.0,-1.0,0.0,1.0,1.0,1.0]" : 0.9999999999999996,
    "[1.0,0.0,-1.0,1.0,1.0,1.0,-1.0,0.0,-1.0]" : 0.9999999999999996,
    "[1.0,1.0,1.0,0.0,0.0,0.0,0.0,-1.0,-1.0]" : 0.9999999999999996,
    "[1.0,0.0,0.0,-1.0,1.0,0.0,-1.0,-1.0,1.0]" : 0.9999999999999996,
    "[-1.0,1.0,0.0,-1.0,1.0,0.0,0.0,1.0,-1.0]" : 0.9999999999999996,
    "[1.0,-1.0,-1.0,1.0,1.0,-1.0,0.0,0.0,1.0]" : 0.9999999999999996,
    "[1.0,1.0,1.0,0.0,-1.0,0.0,0.0,-1.0,0.0]" : 0.9999999999999996,
    "[0.0,0.0,-1.0,-1.0,-1.0,1.0,1.0,1.0,1.0]" : 0.9999999999999996,
    "[1.0,-1.0,1.0,0.0,1.0,-1.0,-1.0,-1.0,1.0]" : 0.9999999999999996,
    "[0.0,-1.0,1.0,0.0,1.0,0.0,1.0,-1.0,0.0]" : 0.9999999999999996,
    "[0.0,-1.0,-1.0,0.0,0.0,0.0,1.0,1.0,1.0]" : 0.9999999999999996,
    "[-1.0,-1.0,1.0,0.0,1.0,0.0,1.0,1.0,-1.0]" : 0.9999999999999996,
    "[1.0,-1.0,-1.0,0.0,1.0,-1.0,0.0,1.0,1.0]" : 0.9999999999999996,
    "[1.0,0.0,-1.0,0.0,1.0,-1.0,0.0,-1.0,1.0]" : 0.9999999999999996,
    "[1.0,0.0,1.0,1.0,-1.0,-1.0,0.0,1.0,-1.0]" : 0.9999999999999996,
    "[1.0,-1.0,-1.0,1.0,1.0,0.0,1.0,-1.0,-1.0]" : 0.9999999999999996,
    "[0.0,0.0,-1.0,0.0,-1.0,0.0,1.0,1.0,1.0]" : 0.9999999999999996,
    "[-1.0,-1.0,1.0,0.0,1.0,1.0,-1.0,-1.0,1.0]" : 0.9999999999999996,
    "[0.0,-1.0,1.0,0.0,-1.0,1.0,-1.0,1.0,1.0]" : 0.9999999999999996,
    "[1.0,1.0,-1.0,-1.0,1.0,0.0,-1.0,-1.0,1.0]" : 0.9999999999999996,
    "[0.0,1.0,-1.0,1.0,1.0,-1.0,-1.0,0.0,1.0]" : 0.9999999999999996,
    "[-1.0,-1.0,1.0,0.0,1.0,0.0,1.0,-1.0,0.0]" : 0.9999999999999996,
    "[1.0,1.0,1.0,0.0,-1.0,0.0,0.0,-1.0,-1.0]" : 0.9999999999999996,
    "[1.0,1.0,1.0,0.0,-1.0,-1.0,-1.0,0.0,1.0]" : 0.9999999999999996,
    "[1.0,0.0,1.0,-1.0,1.0,-1.0,-1.0,-1.0,1.0]" : 0.9999999999999996,
    "[1.0,1.0,1.0,-1.0,1.0,0.0,0.0,-1.0,-1.0]" : 0.9999999999999996,
    "[1.0,-1.0,-1.0,-1.0,1.0,0.0,0.0,1.0,1.0]" : 0.9999999999999996,
    "[-1.0,0.0,1.0,0.0,0.0,1.0,-1.0,0.0,1.0]" : 0.9999999999999996,
    "[0.0,0.0,1.0,-1.0,1.0,-1.0,1.0,0.0,0.0]" : 0.9999999999999996,
    "[1.0,-1.0,0.0,-1.0,1.0,-1.0,-1.0,1.0,1.0]" : 0.9999999999999996,
    "[-1.0,0.0,1.0,-1.0,1.0,0.0,1.0,0.0,0.0]" : 0.9999999999999996,
    "[0.0,-1.0,1.0,-1.0,-1.0,1.0,-1.0,1.0,1.0]" : 0.9999999999999996,
    "[-1.0,1.0,0.0,-1.0,1.0,1.0,1.0,0.0,-1.0]" : 0.9999999999999996,
    "[0.0,0.0,1.0,-1.0,1.0,-1.0,1.0,-1.0,0.0]" : 0.9999999999999996,
    "[-1.0,1.0,-1.0,1.0,1.0,-1.0,0.0,1.0,0.0]" : 0.9999999999999996,
    "[-1.0,0.0,1.0,0.0,1.0,-1.0,1.0,0.0,0.0]" : 0.9999999999999996,
    "[1.0,-1.0,1.0,-1.0,1.0,-1.0,0.0,1.0,0.0]" : 0.9999999999999996,
    "[1.0,-1.0,0.0,1.0,-1.0,0.0,1.0,0.0,-1.0]" : 0.9999999999999996,
    "[0.0,0.0,-1.0,0.0,-1.0,-1.0,1.0,1.0,1.0]" : 0.9999999999999996,
    "[-1.0,0.0,-1.0,1.0,1.0,1.0,-1.0,0.0,1.0]" : 0.9999999999999996,
    "[1.0,1.0,0.0,-1.0,1.0,0.0,-1.0,-1.0,1.0]" : 0.9999999999999996,
    "[1.0,1.0,-1.0,-1.0,1.0,0.0,0.0,-1.0,1.0]" : 0.9999999999999996,
    "[0.0,-1.0,0.0,1.0,1.0,1.0,0.0,-1.0,-1.0]" : 0.9999999999999996,
    "[0.0,1.0,1.0,-1.0,1.0,-1.0,-1.0,1.0,-1.0]" : 0.9999999999999996,
    "[1.0,-1.0,-1.0,1.0,1.0,-1.0,1.0,0.0,0.0]" : 0.9999999999999996,
    "[-1.0,1.0,0.0,1.0,1.0,1.0,0.0,-1.0,-1.0]" : 0.9999999999999996,
    "[-1.0,0.0,1.0,0.0,-1.0,1.0,-1.0,1.0,1.0]" : 0.9999999999999996,
    "[1.0,1.0,1.0,0.0,0.0,-1.0,0.0,-1.0,0.0]" : 0.9999999999999996,
    "[0.0,1.0,-1.0,-1.0,1.0,1.0,0.0,1.0,-1.0]" : 0.9999999999999996,
    "[-1.0,0.0,1.0,-1.0,1.0,0.0,1.0,0.0,-1.0]" : 0.9999999999999996,
    "[1.0,-1.0,-1.0,1.0,1.0,0.0,1.0,0.0,-1.0]" : 0.9999999999999996,
    "[1.0,1.0,0.0,0.0,1.0,-1.0,-1.0,1.0,-1.0]" : 0.9999999999999996,
    "[0.0,1.0,-1.0,1.0,1.0,1.0,-1.0,-1.0,0.0]" : 0.9999999999999996,
    "[1.0,-1.0,-1.0,1.0,1.0,-1.0,-1.0,0.0,1.0]" : 0.9999999999999996,
    "[-1.0,1.0,1.0,0.0,-1.0,1.0,0.0,-1.0,1.0]" : 0.9999999999999996,
    "[1.0,1.0,1.0,0.0,-1.0,0.0,0.0,0.0,-1.0]" : 0.9999999999999996,
    "[1.0,-1.0,1.0,0.0,-1.0,1.0,-1.0,0.0,1.0]" : 0.9999999999999996,
    "[1.0,0.0,-1.0,1.0,-1.0,0.0,1.0,1.0,-1.0]" : 0.9999999999999996,
    "[-1.0,0.0,1.0,1.0,1.0,1.0,-1.0,0.0,-1.0]" : 0.9999999999999996,
    "[1.0,0.0,0.0,1.0,-1.0,0.0,1.0,-1.0,-1.0]" : 0.9999999999999996,
    "[1.0,-1.0,0.0,0.0,1.0,0.0,-1.0,0.0,1.0]" : 0.9999999999999996,
    "[0.0,1.0,-1.0,-1.0,1.0,0.0,-1.0,1.0,0.0]" : 0.9999999999999996,
    "[-1.0,1.0,1.0,-1.0,-1.0,1.0,0.0,0.0,1.0]" : 0.9999999999999996,
    "[1.0,1.0,1.0,0.0,-1.0,0.0,-1.0,0.0,0.0]" : 0.9999999999999996,
    "[0.0,-1.0,-1.0,-1.0,1.0,-1.0,1.0,1.0,1.0]" : 0.9999999999999996,
    "[0.0,0.0,1.0,-1.0,-1.0,1.0,-1.0,1.0,1.0]" : 0.9999999999999996,
    "[1.0,-1.0,1.0,1.0,1.0,-1.0,0.0,-1.0,0.0]" : 0.9999999999999996,
    "[1.0,-1.0,-1.0,1.0,1.0,0.0,1.0,-1.0,0.0]" : 0.9999999999999996,
    "[1.0,-1.0,-1.0,1.0,1.0,1.0,0.0,0.0,-1.0]" : 0.9999999999999996,
    "[0.0,-1.0,-1.0,1.0,1.0,1.0,0.0,1.0,-1.0]" : 0.9999999999999996,
    "[0.0,1.0,-1.0,-1.0,1.0,1.0,-1.0,1.0,0.0]" : 0.9999999999999996,
    "[0.0,0.0,1.0,-1.0,1.0,1.0,-1.0,-1.0,1.0]" : 0.9999999999999996,
    "[1.0,1.0,1.0,0.0,-1.0,0.0,-1.0,-1.0,0.0]" : 0.9999999999999996,
    "[1.0,-1.0,1.0,0.0,1.0,-1.0,1.0,0.0,-1.0]" : 0.9999999999999996,
    "[1.0,1.0,1.0,1.0,-1.0,-1.0,-1.0,0.0,-1.0]" : 0.9999999999999996,
    "[1.0,0.0,0.0,1.0,-1.0,-1.0,1.0,-1.0,0.0]" : 0.9999999999999996,
    "[1.0,0.0,0.0,1.0,-1.0,-1.0,1.0,0.0,0.0]" : 0.9999999999999996,
    "[-1.0,1.0,1.0,0.0,1.0,-1.0,-1.0,1.0,0.0]" : 0.9999999999999996,
    "[0.0,1.0,-1.0,-1.0,1.0,-1.0,1.0,0.0,1.0]" : 0.9999999999999996,
    "[1.0,0.0,0.0,0.0,1.0,-1.0,-1.0,0.0,1.0]" : 0.9999999999999996,
    "[1.0,0.0,-1.0,1.0,-1.0,1.0,1.0,-1.0,0.0]" : 0.9999999999999996,
    "[0.0,-1.0,0.0,0.0,-1.0,-1.0,1.0,1.0,1.0]" : 0.9999999999999996,
    "[1.0,0.0,1.0,-1.0,-1.0,1.0,-1.0,-1.0,1.0]" : 0.9999999999999996,
    "[1.0,1.0,1.0,0.0,-1.0,-1.0,-1.0,0.0,0.0]" : 0.9999999999999996,
    "[-1.0,1.0,1.0,1.0,1.0,-1.0,0.0,0.0,-1.0]" : 0.9999999999999996,
    "[-1.0,0.0,1.0,-1.0,0.0,1.0,0.0,0.0,1.0]" : 0.9999999999999996,
    "[-1.0,-1.0,0.0,1.0,1.0,1.0,-1.0,0.0,1.0]" : 0.9999999999999996,
    "[1.0,-1.0,1.0,-1.0,1.0,0.0,1.0,0.0,-1.0]" : 0.9999999999999996,
    "[1.0,0.0,0.0,1.0,-1.0,-1.0,1.0,0.0,-1.0]" : 0.9999999999999996,
    "[1.0,0.0,0.0,1.0,0.0,-1.0,1.0,0.0,-1.0]" : 0.9999999999999996,
    "[0.0,0.0,1.0,-1.0,1.0,0.0,1.0,-1.0,0.0]" : 0.9999999999999996,
    "[-1.0,-1.0,1.0,0.0,1.0,0.0,1.0,-1.0,1.0]" : 0.9999999999999996,
    "[1.0,0.0,0.0,-1.0,1.0,1.0,-1.0,-1.0,1.0]" : 0.9999999999999996,
    "[-1.0,0.0,1.0,1.0,1.0,1.0,-1.0,-1.0,0.0]" : 0.9999999999999996,
    "[1.0,1.0,0.0,1.0,-1.0,-1.0,1.0,-1.0,-1.0]" : 0.9999999999999996,
    "[0.0,-1.0,1.0,1.0,-1.0,-1.0,1.0,1.0,0.0]" : 0.9999999999999996,
    "[1.0,0.0,-1.0,1.0,1.0,-1.0,0.0,-1.0,1.0]" : 0.9999999999999996,
    "[0.0,-1.0,1.0,1.0,1.0,-1.0,0.0,-1.0,1.0]" : 0.9999999999999996,
    "[1.0,1.0,1.0,-1.0,-1.0,0.0,0.0,0.0,-1.0]" : 0.9999999999999996,
    "[-1.0,0.0,1.0,1.0,-1.0,1.0,-1.0,-1.0,1.0]" : 0.9999999999999996,
    "[-1.0,-1.0,1.0,-1.0,1.0,1.0,1.0,0.0,0.0]" : 0.9999999999999996,
    "[1.0,-1.0,-1.0,0.0,1.0,0.0,-1.0,1.0,1.0]" : 0.9999999999999996,
    "[1.0,-1.0,0.0,1.0,-1.0,-1.0,1.0,0.0,0.0]" : 0.9999999999999996,
    "[-1.0,1.0,-1.0,0.0,1.0,-1.0,1.0,1.0,0.0]" : 0.9999999999999996,
    "[0.0,0.0,1.0,0.0,1.0,0.0,1.0,-1.0,-1.0]" : 0.9999999999999996,
    "[1.0,-1.0,-1.0,-1.0,1.0,0.0,-1.0,1.0,1.0]" : 0.9999999999999996,
    "[1.0,-1.0,-1.0,-1.0,1.0,-1.0,1.0,0.0,1.0]" : 0.9999999999999996,
    "[-1.0,1.0,-1.0,-1.0,1.0,0.0,0.0,1.0,0.0]" : 0.9999999999999996,
    "[0.0,0.0,1.0,0.0,1.0,-1.0,1.0,0.0,-1.0]" : 0.9999999999999996,
    "[1.0,0.0,-1.0,1.0,1.0,-1.0,1.0,-1.0,0.0]" : 0.9999999999999996,
    "[-1.0,1.0,-1.0,0.0,1.0,-1.0,-1.0,1.0,1.0]" : 0.9999999999999996,
    "[1.0,0.0,0.0,1.0,1.0,-1.0,-1.0,-1.0,1.0]" : 0.9999999999999996,
    "[1.0,1.0,1.0,-1.0,-1.0,1.0,0.0,-1.0,0.0]" : 0.9999999999999996,
    "[1.0,0.0,0.0,1.0,-1.0,0.0,1.0,0.0,-1.0]" : 0.9999999999999996,
    "[-1.0,0.0,1.0,-1.0,1.0,-1.0,1.0,-1.0,1.0]" : 0.9999999999999996,
    "[-1.0,0.0,-1.0,0.0,-1.0,0.0,1.0,1.0,1.0]" : 0.9999999999999996,
    "[0.0,0.0,1.0,0.0,1.0,-1.0,1.0,-1.0,0.0]" : 0.9999999999999996,
    "[1.0,0.0,-1.0,0.0,1.0,-1.0,-1.0,0.0,1.0]" : 0.9999999999999996,
    "[0.0,-1.0,1.0,0.0,-1.0,-1.0,1.0,1.0,1.0]" : 0.9999999999999996,
    "[1.0,0.0,-1.0,1.0,1.0,0.0,-1.0,-1.0,1.0]" : 0.9999999999999996,
    "[-1.0,0.0,1.0,-1.0,1.0,-1.0,1.0,0.0,1.0]" : 0.9999999999999996,
    "[0.0,-1.0,0.0,1.0,1.0,1.0,-1.0,-1.0,0.0]" : 0.9999999999999996,
    "[0.0,-1.0,1.0,0.0,0.0,1.0,0.0,-1.0,1.0]" : 0.9999999999999996,
    "[1.0,-1.0,-1.0,1.0,-1.0,-1.0,1.0,0.0,1.0]" : 0.9999999999999996,
    "[1.0,-1.0,0.0,0.0,1.0,-1.0,-1.0,1.0,1.0]" : 0.9999999999999996,
    "[0.0,-1.0,0.0,1.0,1.0,1.0,0.0,0.0,-1.0]" : 0.9999999999999996,
    "[1.0,0.0,0.0,-1.0,1.0,0.0,-1.0,0.0,1.0]" : 0.9999999999999996,
    "[-1.0,1.0,-1.0,1.0,1.0,1.0,0.0,-1.0,0.0]" : 0.9999999999999996,
    "[0.0,1.0,1.0,-1.0,1.0,-1.0,1.0,-1.0,-1.0]" : 0.9999999999999996,
    "[-1.0,1.0,1.0,0.0,1.0,0.0,1.0,-1.0,-1.0]" : 0.9999999999999996,
    "[-1.0,0.0,1.0,-1.0,-1.0,1.0,1.0,0.0,1.0]" : 0.9999999999999996,
    "[-1.0,-1.0,1.0,0.0,1.0,1.0,-1.0,0.0,1.0]" : 0.9999999999999996,
    "[1.0,1.0,1.0,-1.0,-1.0,0.0,0.0,1.0,-1.0]" : 0.9999999999999996,
    "[0.0,1.0,1.0,0.0,1.0,-1.0,1.0,-1.0,-1.0]" : 0.9999999999999996,
    "[-1.0,1.0,-1.0,-1.0,1.0,0.0,1.0,1.0,0.0]" : 0.9999999999999996,
    "[-1.0,1.0,-1.0,0.0,1.0,0.0,-1.0,1.0,0.0]" : 0.9999999999999996,
    "[0.0,1.0,1.0,-1.0,1.0,0.0,-1.0,1.0,-1.0]" : 0.9999999999999996,
    "[-1.0,-1.0,1.0,-1.0,1.0,0.0,1.0,1.0,0.0]" : 0.9999999999999996,
    "[-1.0,1.0,-1.0,0.0,1.0,0.0,0.0,1.0,-1.0]" : 0.9999999999999996,
    "[-1.0,1.0,-1.0,0.0,1.0,-1.0,0.0,1.0,0.0]" : 0.9999999999999996,
    "[-1.0,0.0,1.0,1.0,1.0,1.0,0.0,-1.0,-1.0]" : 0.9999999999999996,
    "[-1.0,0.0,-1.0,-1.0,1.0,-1.0,1.0,1.0,1.0]" : 0.9999999999999996,
    "[1.0,1.0,1.0,-1.0,-1.0,1.0,-1.0,-1.0,0.0]" : 0.9999999999999996,
    "[0.0,-1.0,1.0,-1.0,1.0,1.0,1.0,-1.0,-1.0]" : 0.9999999999999996,
    "[-1.0,-1.0,1.0,0.0,1.0,-1.0,1.0,1.0,0.0]" : 0.9999999999999996,
    "[-1.0,0.0,1.0,-1.0,1.0,0.0,1.0,-1.0,1.0]" : 0.9999999999999996,
    "[0.0,-1.0,1.0,-1.0,-1.0,1.0,0.0,1.0,1.0]" : 0.9999999999999996,
    "[1.0,1.0,-1.0,1.0,-1.0,-1.0,1.0,0.0,0.0]" : 0.9999999999999996,
    "[0.0,1.0,-1.0,-1.0,1.0,0.0,-1.0,1.0,1.0]" : 0.9999999999999996,
    "[0.0,1.0,0.0,-1.0,1.0,1.0,-1.0,1.0,-1.0]" : 0.9999999999999996,
    "[-1.0,-1.0,1.0,-1.0,1.0,0.0,1.0,0.0,0.0]" : 0.9999999999999996,
    "[0.0,-1.0,1.0,-1.0,1.0,0.0,1.0,0.0,-1.0]" : 0.9999999999999996,
    "[1.0,0.0,1.0,1.0,-1.0,-1.0,1.0,-1.0,-1.0]" : 0.9999999999999996,
    "[-1.0,1.0,1.0,0.0,1.0,0.0,-1.0,1.0,-1.0]" : 0.9999999999999996,
    "[1.0,0.0,0.0,1.0,1.0,-1.0,1.0,-1.0,-1.0]" : 0.9999999999999996,
    "[0.0,0.0,1.0,-1.0,1.0,-1.0,1.0,0.0,-1.0]" : 0.9999999999999996,
    "[0.0,-1.0,1.0,-1.0,1.0,-1.0,1.0,1.0,-1.0]" : 0.9999999999999996,
    "[-1.0,1.0,0.0,1.0,1.0,-1.0,-1.0,1.0,0.0]" : 0.9999999999999996,
    "[0.0,0.0,-1.0,1.0,1.0,1.0,-1.0,-1.0,0.0]" : 0.9999999999999996,
    "[-1.0,1.0,-1.0,1.0,1.0,-1.0,-1.0,1.0,0.0]" : 0.9999999999999996,
    "[0.0,-1.0,1.0,0.0,0.0,1.0,-1.0,0.0,1.0]" : 0.9999999999999996,
    "[-1.0,0.0,0.0,0.0,-1.0,0.0,1.0,1.0,1.0]" : 0.9999999999999996,
    "[-1.0,1.0,1.0,-1.0,1.0,0.0,1.0,-1.0,0.0]" : 0.9999999999999996,
    "[0.0,0.0,-1.0,1.0,1.0,1.0,-1.0,0.0,-1.0]" : 0.9999999999999996,
    "[1.0,0.0,-1.0,1.0,-1.0,-1.0,1.0,0.0,1.0]" : 0.9999999999999996,
    "[1.0,-1.0,0.0,1.0,-1.0,1.0,1.0,0.0,-1.0]" : 0.9999999999999996,
    "[-1.0,1.0,-1.0,-1.0,1.0,0.0,0.0,1.0,1.0]" : 0.9999999999999996,
    "[-1.0,0.0,1.0,0.0,1.0,-1.0,1.0,-1.0,1.0]" : 0.9999999999999996,
    "[-1.0,1.0,-1.0,1.0,1.0,0.0,-1.0,0.0,1.0]" : 0.9999999999999996,
    "[0.0,-1.0,-1.0,1.0,1.0,1.0,1.0,0.0,-1.0]" : 0.9999999999999996,
    "[0.0,-1.0,1.0,-1.0,-1.0,1.0,0.0,0.0,1.0]" : 0.9999999999999996,
    "[0.0,-1.0,1.0,0.0,-1.0,1.0,-1.0,0.0,1.0]" : 0.9999999999999996,
    "[0.0,-1.0,1.0,-1.0,1.0,1.0,-1.0,0.0,1.0]" : 0.9999999999999996,
    "[0.0,1.0,-1.0,0.0,1.0,0.0,-1.0,1.0,-1.0]" : 0.9999999999999996,
    "[-1.0,0.0,-1.0,1.0,1.0,1.0,1.0,0.0,-1.0]" : 0.9999999999999996,
    "[1.0,-1.0,-1.0,1.0,-1.0,0.0,1.0,0.0,1.0]" : 0.9999999999999996,
    "[1.0,1.0,1.0,0.0,1.0,-1.0,-1.0,-1.0,0.0]" : 0.9999999999999996,
    "[1.0,0.0,-1.0,-1.0,-1.0,0.0,1.0,1.0,1.0]" : 0.9999999999999996,
    "[0.0,0.0,-1.0,1.0,1.0,1.0,0.0,-1.0,-1.0]" : 0.9999999999999996,
    "[1.0,1.0,0.0,-1.0,1.0,0.0,-1.0,1.0,-1.0]" : 0.9999999999999996,
    "[0.0,0.0,1.0,0.0,1.0,-1.0,1.0,-1.0,-1.0]" : 0.9999999999999996,
    "[-1.0,0.0,1.0,1.0,1.0,-1.0,1.0,-1.0,0.0]" : 0.9999999999999996,
    "[-1.0,-1.0,1.0,0.0,1.0,-1.0,1.0,0.0,1.0]" : 0.9999999999999996,
    "[1.0,1.0,-1.0,0.0,1.0,-1.0,0.0,-1.0,1.0]" : 0.9999999999999996,
    "[0.0,-1.0,0.0,1.0,1.0,-1.0,1.0,-1.0,1.0]" : 0.9999999999999996,
    "[1.0,-1.0,0.0,-1.0,1.0,-1.0,0.0,0.0,1.0]" : 0.9999999999999996,
    "[-1.0,-1.0,1.0,-1.0,1.0,1.0,0.0,0.0,1.0]" : 0.9999999999999996,
    "[1.0,1.0,-1.0,1.0,-1.0,0.0,1.0,0.0,-1.0]" : 0.9999999999999996,
    "[0.0,1.0,-1.0,0.0,1.0,-1.0,-1.0,1.0,0.0]" : 0.9999999999999996,
    "[0.0,-1.0,1.0,-1.0,1.0,0.0,1.0,-1.0,1.0]" : 0.9999999999999996,
    "[-1.0,0.0,1.0,0.0,-1.0,1.0,0.0,-1.0,1.0]" : 0.9999999999999996,
    "[-1.0,1.0,0.0,1.0,1.0,-1.0,-1.0,1.0,-1.0]" : 0.9999999999999996,
    "[1.0,0.0,0.0,-1.0,1.0,-1.0,0.0,-1.0,1.0]" : 0.9999999999999996,
    "[-1.0,0.0,0.0,1.0,-1.0,-1.0,1.0,1.0,1.0]" : 0.9999999999999996,
    "[-1.0,1.0,1.0,0.0,1.0,-1.0,1.0,-1.0,0.0]" : 0.9999999999999996,
    "[1.0,1.0,1.0,0.0,1.0,-1.0,0.0,-1.0,-1.0]" : 0.9999999999999996,
    "[-1.0,1.0,0.0,0.0,1.0,-1.0,0.0,1.0,-1.0]" : 0.9999999999999996,
    "[-1.0,-1.0,0.0,0.0,-1.0,1.0,1.0,1.0,1.0]" : 0.9999999999999996,
    "[0.0,0.0,1.0,0.0,-1.0,1.0,0.0,-1.0,1.0]" : 0.9999999999999996,
    "[0.0,-1.0,-1.0,1.0,1.0,1.0,0.0,0.0,0.0]" : 0.9999999999999996,
    "[-1.0,-1.0,1.0,1.0,1.0,-1.0,1.0,0.0,-1.0]" : 0.9999999999999996,
    "[1.0,-1.0,0.0,-1.0,1.0,1.0,-1.0,-1.0,1.0]" : 0.9999999999999996,
    "[-1.0,-1.0,0.0,-1.0,-1.0,1.0,1.0,1.0,1.0]" : 0.9999999999999996,
    "[0.0,1.0,-1.0,-1.0,1.0,1.0,-1.0,1.0,-1.0]" : 0.9999999999999996,
    "[-1.0,0.0,1.0,-1.0,1.0,1.0,1.0,-1.0,0.0]" : 0.9999999999999996,
    "[1.0,0.0,1.0,1.0,-1.0,-1.0,1.0,-1.0,0.0]" : 0.9999999999999996,
    "[-1.0,1.0,0.0,0.0,1.0,1.0,1.0,-1.0,-1.0]" : 0.9999999999999996,
    "[0.0,1.0,1.0,-1.0,-1.0,1.0,-1.0,0.0,1.0]" : 0.9999999999999996,
    "[-1.0,0.0,1.0,1.0,-1.0,1.0,0.0,-1.0,1.0]" : 0.9999999999999996,
    "[-1.0,0.0,-1.0,-1.0,1.0,0.0,1.0,1.0,1.0]" : 0.9999999999999996,
    "[1.0,-1.0,-1.0,0.0,-1.0,-1.0,1.0,1.0,1.0]" : 0.9999999999999996,
    "[0.0,1.0,-1.0,-1.0,1.0,0.0,0.0,1.0,-1.0]" : 0.9999999999999996,
    "[1.0,-1.0,0.0,-1.0,-1.0,0.0,1.0,1.0,1.0]" : 0.9999999999999996,
    "[0.0,1.0,1.0,-1.0,1.0,0.0,1.0,-1.0,-1.0]" : 0.9999999999999996,
    "[1.0,0.0,-1.0,0.0,1.0,1.0,-1.0,-1.0,1.0]" : 0.9999999999999996,
    "[-1.0,-1.0,0.0,1.0,1.0,1.0,0.0,0.0,-1.0]" : 0.9999999999999996,
    "[1.0,-1.0,-1.0,0.0,1.0,0.0,-1.0,0.0,1.0]" : 0.9999999999999996,
    "[1.0,-1.0,0.0,1.0,-1.0,0.0,1.0,1.0,-1.0]" : 0.9999999999999996,
    "[1.0,0.0,-1.0,-1.0,1.0,1.0,0.0,-1.0,1.0]" : 0.9999999999999996,
    "[0.0,1.0,0.0,-1.0,1.0,-1.0,0.0,1.0,-1.0]" : 0.9999999999999996,
    "[-1.0,0.0,1.0,0.0,-1.0,1.0,1.0,-1.0,1.0]" : 0.9999999999999996,
    "[-1.0,0.0,1.0,-1.0,1.0,1.0,1.0,0.0,-1.0]" : 0.9999999999999996,
    "[-1.0,-1.0,1.0,0.0,-1.0,0.0,1.0,1.0,1.0]" : 0.9999999999999996,
    "[-1.0,0.0,0.0,1.0,1.0,1.0,0.0,-1.0,-1.0]" : 0.9999999999999996,
    "[1.0,0.0,-1.0,-1.0,1.0,1.0,-1.0,0.0,1.0]" : 0.9999999999999996,
    "[0.0,1.0,0.0,1.0,1.0,-1.0,-1.0,1.0,-1.0]" : 0.9999999999999996,
    "[-1.0,-1.0,1.0,1.0,-1.0,0.0,0.0,1.0,1.0]" : 0.9999999999999996,
    "[1.0,1.0,1.0,-1.0,-1.0,0.0,1.0,-1.0,0.0]" : 0.9999999999999996,
    "[0.0,-1.0,-1.0,1.0,1.0,1.0,-1.0,0.0,1.0]" : 0.9999999999999996,
    "[-1.0,-1.0,1.0,0.0,0.0,1.0,0.0,0.0,1.0]" : 0.9999999999999996,
    "[0.0,-1.0,-1.0,1.0,-1.0,-1.0,1.0,1.0,1.0]" : 0.9999999999999996,
    "[1.0,-1.0,-1.0,0.0,-1.0,0.0,1.0,1.0,1.0]" : 0.9999999999999996,
    "[1.0,1.0,1.0,-1.0,-1.0,1.0,0.0,0.0,-1.0]" : 0.9999999999999996,
    "[-1.0,0.0,-1.0,1.0,1.0,1.0,0.0,-1.0,0.0]" : 0.9999999999999996,
    "[0.0,-1.0,1.0,0.0,1.0,-1.0,1.0,0.0,-1.0]" : 0.9999999999999996,
    "[-1.0,1.0,0.0,0.0,-1.0,-1.0,1.0,1.0,1.0]" : 0.9999999999999996,
    "[1.0,1.0,-1.0,1.0,-1.0,0.0,1.0,-1.0,0.0]" : 0.9999999999999996,
    "[0.0,1.0,-1.0,0.0,1.0,1.0,-1.0,-1.0,1.0]" : 0.9999999999999996,
    "[1.0,1.0,1.0,0.0,-1.0,-1.0,0.0,-1.0,1.0]" : 0.9999999999999996,
    "[1.0,1.0,1.0,-1.0,-1.0,0.0,1.0,0.0,-1.0]" : 0.9999999999999996,
    "[-1.0,1.0,1.0,-1.0,1.0,-1.0,1.0,-1.0,0.0]" : 0.9999999999999996,
    "[0.0,-1.0,1.0,-1.0,1.0,1.0,1.0,0.0,-1.0]" : 0.9999999999999996,
    "[1.0,-1.0,0.0,1.0,1.0,-1.0,1.0,0.0,-1.0]" : 0.9999999999999996,
    "[0.0,-1.0,1.0,1.0,1.0,-1.0,1.0,-1.0,-1.0]" : 0.9999999999999996,
    "[1.0,1.0,1.0,1.0,-1.0,0.0,0.0,-1.0,-1.0]" : 0.9999999999999996,
    "[1.0,1.0,0.0,0.0,1.0,-1.0,-1.0,-1.0,1.0]" : 0.9999999999999996,
    "[0.0,0.0,1.0,-1.0,1.0,0.0,1.0,-1.0,-1.0]" : 0.9999999999999996,
    "[1.0,1.0,1.0,0.0,-1.0,-1.0,1.0,-1.0,0.0]" : 0.9999999999999996,
    "[0.0,-1.0,-1.0,1.0,-1.0,0.0,1.0,1.0,1.0]" : 0.9999999999999996,
    "[0.0,1.0,-1.0,-1.0,-1.0,0.0,1.0,1.0,1.0]" : 0.9999999999999996,
    "[0.0,-1.0,-1.0,1.0,1.0,1.0,1.0,-1.0,-1.0]" : 0.9999999999999996,
    "[0.0,-1.0,1.0,-1.0,-1.0,0.0,1.0,1.0,1.0]" : 0.9999999999999996,
    "[0.0,0.0,1.0,-1.0,1.0,1.0,1.0,-1.0,-1.0]" : 0.9999999999999996,
    "[0.0,-1.0,-1.0,1.0,1.0,1.0,-1.0,0.0,0.0]" : 0.9999999999999996,
    "[-1.0,-1.0,1.0,-1.0,1.0,1.0,1.0,-1.0,0.0]" : 0.9999999999999996,
    "[-1.0,0.0,1.0,0.0,0.0,1.0,0.0,-1.0,1.0]" : 0.9999999999999996,
    "[0.0,1.0,1.0,-1.0,-1.0,1.0,1.0,-1.0,0.0]" : 0.9999999999999996,
    "[0.0,-1.0,1.0,-1.0,-1.0,1.0,1.0,0.0,1.0]" : 0.9999999999999996,
    "[0.0,1.0,0.0,-1.0,1.0,-1.0,-1.0,1.0,0.0]" : 0.9999999999999996,
    "[1.0,-1.0,0.0,0.0,1.0,-1.0,0.0,-1.0,1.0]" : 0.9999999999999996,
    "[0.0,-1.0,1.0,0.0,1.0,1.0,1.0,-1.0,-1.0]" : 0.9999999999999994,
    "[-1.0,1.0,-1.0,1.0,1.0,1.0,-1.0,0.0,-1.0]" : 0.9999999999999992,
    "[-1.0,-1.0,1.0,1.0,1.0,1.0,0.0,-1.0,-1.0]" : 0.9999999999999991,
    "[1.0,-1.0,-1.0,0.0,1.0,1.0,-1.0,-1.0,1.0]" : 0.999999999999999,
    "[-1.0,1.0,1.0,-1.0,1.0,-1.0,1.0,0.0,0.0]" : 0.999999999999999,
    "[1.0,1.0,-1.0,-1.0,1.0,1.0,-1.0,0.0,0.0]" : 0.999999999999999,
    "[0.0,1.0,0.0,-1.0,1.0,-1.0,-1.0,1.0,1.0]" : 0.999999999999996,
    "[0.0,-1.0,1.0,-1.0,1.0,-1.0,1.0,0.0,1.0]" : 0.9999999999999948,
    "[1.0,-1.0,1.0,-1.0,1.0,0.0,0.0,-1.0,1.0]" : 0.9999999999999948,
    "[-1.0,-1.0,1.0,-1.0,-1.0,0.0,1.0,1.0,1.0]" : 0.999999999999994,
    "[-1.0,1.0,1.0,-1.0,1.0,-1.0,0.0,1.0,-1.0]" : 0.9999999999999931,
    "[0.0,1.0,1.0,-1.0,-1.0,1.0,0.0,-1.0,1.0]" : 0.9999999999999931,
    "[0.0,-1.0,0.0,1.0,-1.0,-1.0,1.0,1.0,1.0]" : 0.9999999999999931,
    "[-1.0,-1.0,1.0,0.0,1.0,1.0,0.0,1.0,-1.0]" : 0.9999999999999921,
    "[1.0,-1.0,0.0,1.0,1.0,-1.0,1.0,-1.0,-1.0]" : 0.9999999999999866,
    "[-1.0,-1.0,0.0,1.0,1.0,1.0,1.0,-1.0,0.0]" : 0.9999999999999847,
    "[1.0,1.0,1.0,-1.0,-1.0,0.0,-1.0,1.0,0.0]" : 0.9999999999999825,
    "[-1.0,1.0,0.0,-1.0,1.0,-1.0,1.0,1.0,-1.0]" : 0.99999999999997,
    "[1.0,1.0,1.0,-1.0,-1.0,0.0,-1.0,-1.0,1.0]" : 0.9999999999999608,
    "[-1.0,-1.0,0.0,1.0,1.0,1.0,1.0,-1.0,-1.0]" : 0.9999999999999553,
    "[-1.0,-1.0,1.0,1.0,1.0,0.0,0.0,1.0,-1.0]" : 0.9999999999997098,
    "[-1.0,0.0,1.0,-1.0,1.0,0.0,1.0,1.0,-1.0]" : 0.9999999999997098,
    "[-1.0,-1.0,1.0,1.0,1.0,0.0,0.0,-1.0,1.0]" : 0.999999999999621,
    "[-1.0,1.0,-1.0,1.0,1.0,0.0,0.0,1.0,-1.0]" : 0.9999999999995668,
    "[1.0,-1.0,-1.0,1.0,1.0,1.0,-1.0,-1.0,0.0]" : 0.999999999999505,
    "[0.0,1.0,-1.0,-1.0,1.0,-1.0,-1.0,1.0,1.0]" : 0.9999999999994342,
    "[-1.0,1.0,0.0,0.0,1.0,1.0,-1.0,1.0,-1.0]" : 0.9999999999991555,
    "[-1.0,1.0,-1.0,0.0,1.0,1.0,-1.0,1.0,0.0]" : 0.9999999999990348,
    "[-1.0,0.0,1.0,1.0,1.0,-1.0,0.0,1.0,-1.0]" : 0.9999999999983534,
    "[1.0,-1.0,-1.0,1.0,0.0,0.0,1.0,0.0,-1.0]" : 0.9999999999975422,
    "[0.0,1.0,-1.0,1.0,1.0,0.0,-1.0,1.0,-1.0]" : 0.9999999999975422,
    "[-1.0,0.0,1.0,0.0,0.0,1.0,-1.0,-1.0,1.0]" : 0.9999999999967899,
    "[-1.0,-1.0,1.0,0.0,0.0,1.0,-1.0,0.0,1.0]" : 0.9999999999958072,
    "[-1.0,1.0,0.0,-1.0,-1.0,0.0,1.0,1.0,1.0]" : 0.9999999999937413,
    "[1.0,1.0,1.0,0.0,-1.0,-1.0,0.0,1.0,-1.0]" : 0.9999999999906576,
    "[-1.0,-1.0,1.0,1.0,-1.0,1.0,0.0,0.0,1.0]" : 0.999999999989323,
    "[1.0,0.0,-1.0,0.0,1.0,-1.0,-1.0,1.0,1.0]" : 0.9999999999877976,
    "[1.0,-1.0,1.0,-1.0,1.0,-1.0,1.0,-1.0,0.0]" : 0.9999999999860545,
    "[0.0,1.0,-1.0,0.0,-1.0,-1.0,1.0,1.0,1.0]" : 0.9999999999860545,
    "[0.0,0.0,-1.0,-1.0,1.0,-1.0,1.0,1.0,1.0]" : 0.9999999999860545,
    "[1.0,-1.0,-1.0,1.0,1.0,-1.0,1.0,-1.0,0.0]" : 0.9999999999840623,
    "[1.0,0.0,0.0,1.0,-1.0,1.0,1.0,-1.0,-1.0]" : 0.9999999999791833,
    "[-1.0,0.0,1.0,-1.0,-1.0,0.0,1.0,1.0,1.0]" : 0.9999999999689266,
    "[1.0,1.0,1.0,0.0,0.0,-1.0,-1.0,0.0,-1.0]" : 0.9999999999644875,
    "[1.0,1.0,1.0,-1.0,1.0,-1.0,-1.0,0.0,0.0]" : 0.9999999999469902,
    "[0.0,0.0,1.0,1.0,-1.0,1.0,-1.0,-1.0,1.0]" : 0.9999999999469902,
    "[-1.0,0.0,-1.0,0.0,0.0,-1.0,1.0,1.0,1.0]" : 0.9999999999469902,
    "[1.0,1.0,1.0,0.0,-1.0,-1.0,1.0,0.0,-1.0]" : 0.9999999999394173,
    "[1.0,0.0,-1.0,1.0,0.0,0.0,1.0,-1.0,-1.0]" : 0.9999999998966488,
    "[0.0,-1.0,1.0,0.0,1.0,-1.0,1.0,-1.0,1.0]" : 0.9999999998457266,
    "[0.0,-1.0,1.0,-1.0,1.0,1.0,-1.0,-1.0,1.0]" : 0.9999999997368165,
    "[1.0,-1.0,1.0,0.0,1.0,-1.0,0.0,-1.0,1.0]" : 0.9999999997368165,
    "[0.0,1.0,-1.0,1.0,1.0,0.0,-1.0,-1.0,1.0]" : 0.9999999997368165,
    "[-1.0,1.0,1.0,0.0,1.0,-1.0,1.0,0.0,-1.0]" : 0.9999999997368165,
    "[1.0,1.0,1.0,-1.0,-1.0,0.0,-1.0,0.0,1.0]" : 0.9999999997368165,
    "[1.0,1.0,1.0,-1.0,0.0,0.0,-1.0,0.0,-1.0]" : 0.9999999996992189,
    "[1.0,-1.0,-1.0,1.0,-1.0,1.0,1.0,0.0,0.0]" : 0.9999999994868807,
    "[0.0,-1.0,1.0,1.0,1.0,1.0,-1.0,-1.0,0.0]" : 0.9999999993298034,
    "[-1.0,-1.0,0.0,-1.0,1.0,-1.0,1.0,1.0,1.0]" : 0.9999999993298034,
    "[1.0,0.0,1.0,0.0,-1.0,1.0,-1.0,-1.0,1.0]" : 0.9999999993298034,
    "[1.0,1.0,1.0,-1.0,1.0,-1.0,-1.0,-1.0,0.0]" : 0.9999999991246413,
    "[1.0,-1.0,-1.0,0.0,1.0,1.0,1.0,-1.0,0.0]" : 0.9999999988566745,
    "[1.0,-1.0,-1.0,0.0,1.0,-1.0,1.0,0.0,1.0]" : 0.999999998293345,
    "[0.0,-1.0,1.0,-1.0,1.0,-1.0,1.0,-1.0,1.0]" : 0.9999999980495371,
    "[0.0,1.0,-1.0,0.0,1.0,1.0,-1.0,1.0,-1.0]" : 0.9999999966725963,
    "[-1.0,1.0,0.0,1.0,1.0,0.0,-1.0,1.0,-1.0]" : 0.999999996197253,
    "[-1.0,1.0,-1.0,1.0,1.0,0.0,-1.0,1.0,0.0]" : 0.9999999950331467,
    "[1.0,-1.0,1.0,-1.0,1.0,1.0,0.0,-1.0,0.0]" : 0.9999999943235963,
    "[-1.0,0.0,-1.0,-1.0,0.0,0.0,1.0,1.0,1.0]" : 0.9999999943235963,
    "[0.0,-1.0,-1.0,1.0,1.0,1.0,-1.0,-1.0,1.0]" : 0.9999999943235963,
    "[-1.0,1.0,1.0,-1.0,0.0,0.0,1.0,-1.0,1.0]" : 0.9999999943235963,
    "[1.0,-1.0,0.0,0.0,1.0,1.0,1.0,-1.0,-1.0]" : 0.9999999889329212,
    "[-1.0,-1.0,1.0,0.0,-1.0,1.0,0.0,1.0,1.0]" : 0.99999998735191,
    "[0.0,-1.0,-1.0,1.0,1.0,1.0,-1.0,1.0,0.0]" : 0.99999998735191,
    "[1.0,0.0,1.0,-1.0,1.0,-1.0,0.0,1.0,-1.0]" : 0.99999998735191,
    "[1.0,-1.0,1.0,-1.0,1.0,-1.0,0.0,0.0,1.0]" : 0.99999998554504,
    "[-1.0,1.0,-1.0,0.0,1.0,1.0,0.0,1.0,-1.0]" : 0.9999999784229168,
    "[1.0,0.0,1.0,-1.0,1.0,0.0,-1.0,-1.0,1.0]" : 0.9999999753404762,
    "[1.0,-1.0,0.0,0.0,1.0,-1.0,1.0,-1.0,1.0]" : 0.9999999718176872,
    "[-1.0,-1.0,1.0,-1.0,0.0,1.0,0.0,0.0,1.0]" : 0.9999999718176872,
    "[-1.0,-1.0,1.0,-1.0,1.0,0.0,1.0,0.0,1.0]" : 0.9999999519222186,
    "[1.0,-1.0,0.0,-1.0,1.0,0.0,1.0,-1.0,1.0]" : 0.9999999450539641,
    "[1.0,-1.0,1.0,-1.0,1.0,0.0,1.0,-1.0,0.0]" : 0.9999999450539641,
    "[1.0,0.0,0.0,-1.0,1.0,-1.0,1.0,-1.0,1.0]" : 0.9999999372045303,
    "[1.0,-1.0,0.0,0.0,1.0,1.0,-1.0,-1.0,1.0]" : 0.9999999179814272,
    "[1.0,1.0,1.0,0.0,0.0,-1.0,0.0,-1.0,-1.0]" : 0.9999999062644882,
    "[0.0,1.0,0.0,-1.0,1.0,-1.0,1.0,1.0,-1.0]" : 0.9999998928737008,
    "[1.0,1.0,1.0,-1.0,0.0,0.0,-1.0,-1.0,0.0]" : 0.9999998775699438,
    "[1.0,-1.0,1.0,-1.0,1.0,-1.0,1.0,0.0,0.0]" : 0.9999998775699438,
    "[-1.0,1.0,0.0,-1.0,1.0,1.0,0.0,1.0,-1.0]" : 0.9999998775699438,
    "[1.0,0.0,1.0,-1.0,1.0,-1.0,1.0,-1.0,0.0]" : 0.9999998600799358,
    "[-1.0,-1.0,1.0,1.0,0.0,-1.0,1.0,0.0,1.0]" : 0.9999998172472631,
    "[0.0,0.0,1.0,-1.0,0.0,1.0,-1.0,-1.0,1.0]" : 0.9999997911397291,
    "[1.0,0.0,-1.0,-1.0,1.0,0.0,-1.0,1.0,1.0]" : 0.9999997613025476,
    "[1.0,-1.0,-1.0,1.0,0.0,0.0,1.0,-1.0,0.0]" : 0.9999997272029116,
    "[1.0,1.0,-1.0,0.0,0.0,-1.0,1.0,-1.0,1.0]" : 0.999999688231899,
    "[0.0,-1.0,-1.0,0.0,0.0,-1.0,1.0,1.0,1.0]" : 0.9999995927926844,
    "[0.0,-1.0,1.0,-1.0,0.0,1.0,-1.0,0.0,1.0]" : 0.9999995346202106,
    "[-1.0,1.0,1.0,0.0,0.0,1.0,-1.0,-1.0,1.0]" : 0.9999994681373836,
    "[-1.0,0.0,1.0,1.0,1.0,0.0,1.0,-1.0,-1.0]" : 0.9999994681373836,
    "[-1.0,0.0,1.0,-1.0,1.0,-1.0,1.0,1.0,0.0]" : 0.9999994681373836,
    "[1.0,-1.0,1.0,-1.0,0.0,0.0,-1.0,1.0,1.0]" : 0.9999993921570098,
    "[1.0,-1.0,-1.0,1.0,0.0,-1.0,1.0,0.0,0.0]" : 0.9999993921570098,
    "[1.0,-1.0,-1.0,1.0,1.0,0.0,-1.0,0.0,1.0]" : 0.9999993921570098,
    "[-1.0,-1.0,0.0,0.0,0.0,-1.0,1.0,1.0,1.0]" : 0.999999305322297,
    "[1.0,1.0,1.0,-1.0,0.0,-1.0,1.0,0.0,-1.0]" : 0.999999305322297,
    "[-1.0,-1.0,0.0,-1.0,0.0,0.0,1.0,1.0,1.0]" : 0.9999992060826252,
    "[1.0,0.0,0.0,1.0,0.0,-1.0,1.0,-1.0,-1.0]" : 0.9999992060826252,
    "[-1.0,1.0,-1.0,1.0,1.0,0.0,-1.0,1.0,-1.0]" : 0.9999992060826252,
    "[1.0,1.0,1.0,0.0,0.0,-1.0,-1.0,-1.0,0.0]" : 0.9999990926658573,
    "[-1.0,1.0,0.0,0.0,1.0,-1.0,1.0,1.0,-1.0]" : 0.9999989630466941,
    "[1.0,-1.0,-1.0,-1.0,0.0,1.0,1.0,0.0,1.0]" : 0.9999989630466941,
    "[0.0,1.0,-1.0,1.0,1.0,-1.0,-1.0,1.0,0.0]" : 0.9999989630466941,
    "[-1.0,0.0,0.0,-1.0,1.0,-1.0,1.0,1.0,1.0]" : 0.9999986456120087,
    "[1.0,-1.0,-1.0,1.0,1.0,0.0,0.0,-1.0,1.0]" : 0.9999984521280099,
    "[1.0,-1.0,0.0,1.0,0.0,0.0,1.0,-1.0,-1.0]" : 0.9999982310034399,
    "[0.0,-1.0,1.0,1.0,1.0,0.0,-1.0,-1.0,1.0]" : 0.9999979782896455,
    "[0.0,-1.0,-1.0,-1.0,0.0,0.0,1.0,1.0,1.0]" : 0.9999976894738806,
    "[1.0,0.0,1.0,-1.0,0.0,1.0,1.0,-1.0,-1.0]" : 0.9999976894738806,
    "[1.0,-1.0,-1.0,0.0,1.0,1.0,-1.0,0.0,1.0]" : 0.9999976894738806,
    "[0.0,-1.0,0.0,-1.0,1.0,1.0,1.0,-1.0,1.0]" : 0.9999969821699665,
    "[1.0,1.0,-1.0,-1.0,1.0,-1.0,-1.0,0.0,1.0]" : 0.9999965510513903,
    "[-1.0,-1.0,1.0,0.0,0.0,1.0,1.0,-1.0,1.0]" : 0.999996058344446,
    "[-1.0,1.0,1.0,-1.0,1.0,0.0,0.0,1.0,-1.0]" : 0.9999954952507955,
    "[1.0,1.0,1.0,-1.0,0.0,-1.0,0.0,0.0,-1.0]" : 0.9999954952507955,
    "[-1.0,1.0,-1.0,0.0,1.0,1.0,-1.0,1.0,-1.0]" : 0.9999954952507955,
    "[1.0,1.0,1.0,1.0,-1.0,-1.0,0.0,0.0,-1.0]" : 0.9999954952507955,
    "[1.0,1.0,-1.0,0.0,1.0,-1.0,-1.0,1.0,0.0]" : 0.9999948517151949,
    "[-1.0,0.0,1.0,0.0,1.0,1.0,1.0,-1.0,-1.0]" : 0.9999948517151949,
    "[0.0,-1.0,1.0,-1.0,1.0,-1.0,1.0,1.0,0.0]" : 0.9999948517151949,
    "[1.0,-1.0,-1.0,1.0,-1.0,0.0,1.0,1.0,0.0]" : 0.9999941162459369,
    "[1.0,-1.0,1.0,0.0,0.0,-1.0,1.0,1.0,-1.0]" : 0.9999941162459369,
    "[-1.0,-1.0,1.0,0.0,0.0,1.0,0.0,-1.0,1.0]" : 0.9999932757096421,
    "[-1.0,0.0,0.0,1.0,1.0,1.0,1.0,-1.0,-1.0]" : 0.9999932757096421,
    "[1.0,0.0,-1.0,1.0,1.0,1.0,-1.0,-1.0,0.0]" : 0.9999932757096421,
    "[0.0,1.0,1.0,0.0,-1.0,1.0,-1.0,-1.0,1.0]" : 0.9999932757096421,
    "[0.0,-1.0,1.0,1.0,1.0,0.0,1.0,-1.0,-1.0]" : 0.9999923150967338,
    "[-1.0,-1.0,1.0,0.0,0.0,1.0,-1.0,1.0,1.0]" : 0.9999923150967338,
    "[1.0,0.0,1.0,-1.0,1.0,-1.0,0.0,-1.0,1.0]" : 0.9999923150967338,
    "[-1.0,1.0,0.0,-1.0,1.0,0.0,1.0,1.0,-1.0]" : 0.9999923150967338,
    "[-1.0,1.0,1.0,-1.0,1.0,-1.0,1.0,0.0,-1.0]" : 0.99999121725341,
    "[0.0,-1.0,1.0,0.0,1.0,1.0,-1.0,-1.0,1.0]" : 0.9999899625753257,
    "[1.0,1.0,0.0,1.0,-1.0,0.0,1.0,-1.0,-1.0]" : 0.9999899625753257,
    "[0.0,-1.0,1.0,-1.0,0.0,1.0,0.0,-1.0,1.0]" : 0.9999885286575151,
    "[1.0,1.0,1.0,-1.0,-1.0,1.0,-1.0,0.0,0.0]" : 0.9999885286575151,
    "[-1.0,0.0,-1.0,-1.0,0.0,1.0,1.0,1.0,1.0]" : 0.999986889894303,
    "[0.0,0.0,-1.0,1.0,1.0,1.0,-1.0,-1.0,1.0]" : 0.999986889894303,
    "[-1.0,0.0,0.0,-1.0,-1.0,1.0,1.0,1.0,1.0]" : 0.9999850170220606,
    "[0.0,1.0,1.0,1.0,0.0,-1.0,-1.0,1.0,-1.0]" : 0.9999828765966406,
    "[1.0,-1.0,-1.0,1.0,1.0,1.0,-1.0,0.0,0.0]" : 0.9999828765966406,
    "[-1.0,0.0,1.0,-1.0,0.0,-1.0,1.0,1.0,1.0]" : 0.9999828765966406,
    "[0.0,1.0,-1.0,1.0,0.0,1.0,1.0,-1.0,-1.0]" : 0.9999828765966406,
    "[1.0,-1.0,0.0,1.0,1.0,-1.0,0.0,-1.0,1.0]" : 0.9999828765966406,
    "[-1.0,1.0,0.0,-1.0,1.0,-1.0,1.0,0.0,1.0]" : 0.9999804303961607,
    "[1.0,-1.0,1.0,1.0,0.0,-1.0,1.0,-1.0,0.0]" : 0.9999776347384693,
    "[1.0,1.0,1.0,-1.0,0.0,1.0,-1.0,0.0,-1.0]" : 0.9999744397011078,
    "[-1.0,1.0,-1.0,1.0,0.0,-1.0,0.0,1.0,1.0]" : 0.9999707882298374,
    "[-1.0,-1.0,1.0,1.0,1.0,1.0,0.0,0.0,-1.0]" : 0.9999707882298374,
    "[1.0,-1.0,-1.0,1.0,0.0,0.0,1.0,1.0,-1.0]" : 0.9999666151198142,
    "[-1.0,-1.0,0.0,1.0,1.0,1.0,0.0,-1.0,1.0]" : 0.9999666151198142,
    "[0.0,1.0,-1.0,0.0,1.0,-1.0,-1.0,1.0,1.0]" : 0.9999666151198142,
    "[-1.0,0.0,0.0,-1.0,0.0,-1.0,1.0,1.0,1.0]" : 0.9999666151198142,
    "[-1.0,0.0,1.0,-1.0,0.0,1.0,1.0,-1.0,1.0]" : 0.9999618458512163,
    "[0.0,0.0,-1.0,1.0,-1.0,-1.0,1.0,1.0,1.0]" : 0.9999618458512163,
    "[0.0,-1.0,-1.0,1.0,1.0,1.0,1.0,-1.0,0.0]" : 0.9999563952585329,
    "[1.0,1.0,1.0,-1.0,0.0,-1.0,-1.0,0.0,0.0]" : 0.9999501660097518,
    "[1.0,-1.0,-1.0,1.0,0.0,0.0,1.0,-1.0,1.0]" : 0.9999501660097518,
    "[1.0,1.0,1.0,-1.0,1.0,-1.0,0.0,-1.0,0.0]" : 0.9999430468682878,
    "[0.0,-1.0,-1.0,1.0,1.0,1.0,0.0,-1.0,1.0]" : 0.9999430468682878,
    "[1.0,0.0,-1.0,1.0,0.0,-1.0,1.0,-1.0,0.0]" : 0.9999430468682878,
    "[1.0,-1.0,0.0,1.0,0.0,-1.0,1.0,0.0,-1.0]" : 0.9999430468682878,
    "[1.0,1.0,-1.0,-1.0,1.0,0.0,-1.0,1.0,0.0]" : 0.9999349107066147,
    "[1.0,-1.0,0.0,1.0,1.0,-1.0,1.0,-1.0,0.0]" : 0.9999349107066147,
    "[-1.0,-1.0,1.0,1.0,1.0,0.0,1.0,-1.0,-1.0]" : 0.9999256122361311,
    "[1.0,0.0,0.0,-1.0,1.0,-1.0,-1.0,1.0,1.0]" : 0.9999256122361311,
    "[-1.0,-1.0,1.0,0.0,1.0,1.0,1.0,-1.0,-1.0]" : 0.9999256122361311,
    "[-1.0,0.0,1.0,-1.0,1.0,-1.0,1.0,1.0,-1.0]" : 0.9999256122361311,
    "[-1.0,0.0,1.0,-1.0,0.0,1.0,0.0,-1.0,1.0]" : 0.9999256122361311,
    "[-1.0,1.0,1.0,0.0,1.0,-1.0,0.0,1.0,-1.0]" : 0.9999256122361311,
    "[1.0,-1.0,0.0,1.0,1.0,1.0,0.0,-1.0,-1.0]" : 0.9999149854127212,
    "[1.0,1.0,1.0,1.0,0.0,-1.0,-1.0,-1.0,0.0]" : 0.9999028404716813,
    "[1.0,-1.0,-1.0,1.0,1.0,0.0,-1.0,-1.0,1.0]" : 0.9999028404716813,
    "[-1.0,-1.0,1.0,1.0,1.0,0.0,1.0,-1.0,0.0]" : 0.9999028404716813,
    "[1.0,1.0,-1.0,1.0,0.0,0.0,1.0,-1.0,-1.0]" : 0.9999028404716813,
    "[0.0,1.0,1.0,-1.0,1.0,-1.0,1.0,-1.0,0.0]" : 0.9998889605390644,
    "[1.0,-1.0,1.0,0.0,0.0,1.0,-1.0,-1.0,1.0]" : 0.9998730977589307,
    "[1.0,1.0,-1.0,-1.0,1.0,-1.0,0.0,0.0,1.0]" : 0.9998730977589307,
    "[1.0,1.0,0.0,-1.0,1.0,-1.0,0.0,1.0,-1.0]" : 0.9998730977589307,
    "[1.0,0.0,-1.0,-1.0,0.0,-1.0,1.0,1.0,1.0]" : 0.9998730977589307,
    "[-1.0,-1.0,0.0,1.0,1.0,1.0,1.0,0.0,-1.0]" : 0.9998730977589307,
    "[0.0,-1.0,1.0,-1.0,1.0,1.0,0.0,-1.0,1.0]" : 0.9998730977589307,
    "[-1.0,-1.0,1.0,1.0,0.0,1.0,-1.0,-1.0,1.0]" : 0.9998549688673495,
    "[0.0,-1.0,1.0,1.0,1.0,1.0,0.0,-1.0,-1.0]" : 0.9998549688673495,
    "[0.0,-1.0,1.0,-1.0,1.0,-1.0,0.0,1.0,1.0]" : 0.9998342501341138,
    "[0.0,1.0,-1.0,1.0,1.0,1.0,-1.0,0.0,-1.0]" : 0.9998342501341138,
    "[1.0,1.0,1.0,-1.0,0.0,0.0,0.0,-1.0,-1.0]" : 0.9998342501341138,
    "[-1.0,-1.0,1.0,0.0,0.0,-1.0,1.0,1.0,1.0]" : 0.9998105715818443,
    "[-1.0,-1.0,1.0,1.0,0.0,-1.0,1.0,1.0,0.0]" : 0.9998105715818443,
    "[1.0,1.0,0.0,-1.0,1.0,-1.0,0.0,-1.0,1.0]" : 0.9998105715818443,
    "[1.0,0.0,-1.0,-1.0,1.0,-1.0,-1.0,1.0,1.0]" : 0.9998105715818443,
    "[1.0,-1.0,-1.0,1.0,0.0,-1.0,0.0,1.0,1.0]" : 0.9997835103792506,
    "[1.0,-1.0,0.0,1.0,0.0,-1.0,1.0,-1.0,0.0]" : 0.9997835103792506,
    "[0.0,-1.0,0.0,-1.0,0.0,-1.0,1.0,1.0,1.0]" : 0.9997525832905721,
    "[1.0,-1.0,1.0,-1.0,0.0,1.0,-1.0,0.0,1.0]" : 0.9997172380463681,
    "[1.0,1.0,1.0,-1.0,0.0,-1.0,0.0,-1.0,0.0]" : 0.9997172380463681,
    "[1.0,-1.0,-1.0,1.0,0.0,1.0,1.0,-1.0,-1.0]" : 0.9996768434815636,
    "[1.0,-1.0,0.0,-1.0,1.0,-1.0,1.0,-1.0,1.0]" : 0.9996768434815636,
    "[1.0,1.0,0.0,-1.0,1.0,-1.0,-1.0,0.0,1.0]" : 0.9996768434815636,
    "[0.0,1.0,0.0,-1.0,1.0,-1.0,1.0,-1.0,1.0]" : 0.9996306782646441,
    "[1.0,-1.0,0.0,-1.0,1.0,-1.0,1.0,0.0,1.0]" : 0.9996306782646441,
    "[0.0,-1.0,1.0,0.0,0.0,1.0,-1.0,-1.0,1.0]" : 0.9996306782646441,
    "[1.0,1.0,-1.0,1.0,0.0,-1.0,0.0,-1.0,1.0]" : 0.9995779180167361,
    "[1.0,0.0,1.0,1.0,0.0,-1.0,-1.0,-1.0,1.0]" : 0.9995779180167361,
    "[1.0,1.0,1.0,-1.0,0.0,-1.0,-1.0,1.0,-1.0]" : 0.9995176205905556,
    "[1.0,1.0,1.0,1.0,0.0,-1.0,-1.0,0.0,-1.0]" : 0.9995176205905556,
    "[1.0,-1.0,0.0,1.0,0.0,-1.0,1.0,1.0,-1.0]" : 0.9994487092463493,
    "[-1.0,1.0,-1.0,-1.0,0.0,-1.0,1.0,1.0,1.0]" : 0.9994487092463493,
    "[-1.0,0.0,-1.0,1.0,1.0,1.0,0.0,1.0,-1.0]" : 0.9993699534243992,
    "[1.0,0.0,-1.0,1.0,0.0,-1.0,1.0,-1.0,1.0]" : 0.9993699534243992,
    "[1.0,-1.0,1.0,1.0,0.0,-1.0,1.0,0.0,-1.0]" : 0.999279946770742,
    "[0.0,0.0,-1.0,-1.0,0.0,-1.0,1.0,1.0,1.0]" : 0.999279946770742,
    "[1.0,-1.0,0.0,1.0,1.0,1.0,-1.0,-1.0,0.0]" : 0.999177082023705,
    "[-1.0,0.0,-1.0,1.0,0.0,-1.0,1.0,1.0,1.0]" : 0.999177082023705,
    "[1.0,1.0,1.0,-1.0,0.0,0.0,1.0,-1.0,-1.0]" : 0.999177082023705,
    "[1.0,1.0,1.0,-1.0,0.0,-1.0,-1.0,0.0,1.0]" : 0.9990595223128057,
    "[-1.0,0.0,0.0,1.0,1.0,1.0,-1.0,1.0,-1.0]" : 0.9990595223128057,
    "[-1.0,1.0,0.0,1.0,1.0,1.0,-1.0,0.0,-1.0]" : 0.9990595223128057,
    "[0.0,-1.0,1.0,-1.0,0.0,1.0,1.0,-1.0,1.0]" : 0.9990595223128057,
    "[1.0,-1.0,1.0,1.0,0.0,0.0,1.0,-1.0,-1.0]" : 0.9989251683574922,
    "[1.0,-1.0,1.0,0.0,1.0,-1.0,1.0,-1.0,0.0]" : 0.9989251683574922,
    "[1.0,1.0,1.0,0.0,0.0,-1.0,-1.0,-1.0,1.0]" : 0.9989251683574922,
    "[0.0,-1.0,-1.0,1.0,0.0,-1.0,1.0,1.0,1.0]" : 0.9987716209799911,
    "[-1.0,1.0,0.0,1.0,0.0,1.0,-1.0,-1.0,1.0]" : 0.9987716209799911,
    "[0.0,1.0,1.0,-1.0,1.0,-1.0,-1.0,1.0,0.0]" : 0.9987716209799911,
    "[1.0,1.0,0.0,-1.0,0.0,1.0,-1.0,1.0,-1.0]" : 0.9985961382628469,
    "[-1.0,-1.0,1.0,1.0,0.0,1.0,-1.0,1.0,0.0]" : 0.9985961382628469,
    "[1.0,1.0,1.0,1.0,0.0,-1.0,0.0,-1.0,-1.0]" : 0.9983955865861107,
    "[0.0,1.0,1.0,-1.0,0.0,1.0,1.0,-1.0,-1.0]" : 0.9983955865861107,
    "[0.0,1.0,-1.0,-1.0,1.0,-1.0,1.0,1.0,0.0]" : 0.9983955865861107,
    "[1.0,-1.0,-1.0,-1.0,0.0,0.0,1.0,1.0,1.0]" : 0.9983955865861107,
    "[1.0,1.0,0.0,1.0,0.0,-1.0,-1.0,-1.0,1.0]" : 0.9981663846698409,
    "[1.0,-1.0,1.0,-1.0,1.0,-1.0,0.0,-1.0,1.0]" : 0.9981663846698409,
    "[0.0,0.0,-1.0,1.0,1.0,1.0,-1.0,1.0,-1.0]" : 0.9981663846698409,
    "[-1.0,1.0,-1.0,-1.0,0.0,1.0,1.0,1.0,0.0]" : 0.9981663846698409,
    "[-1.0,-1.0,1.0,-1.0,0.0,1.0,1.0,1.0,0.0]" : 0.9979044396226753,
    "[-1.0,1.0,-1.0,1.0,1.0,1.0,0.0,0.0,-1.0]" : 0.997605073854486,
    "[-1.0,1.0,1.0,-1.0,0.0,1.0,1.0,-1.0,0.0]" : 0.997262941547984,
    "[1.0,-1.0,-1.0,1.0,0.0,1.0,0.0,1.0,-1.0]" : 0.996871933197696,
    "[1.0,1.0,1.0,-1.0,0.0,0.0,-1.0,1.0,-1.0]" : 0.996871933197696,
    "[1.0,-1.0,0.0,-1.0,0.0,1.0,-1.0,1.0,1.0]" : 0.9964250665116525,
    "[-1.0,1.0,1.0,-1.0,1.0,-1.0,0.0,1.0,0.0]" : 0.9964250665116525,
    "[0.0,-1.0,-1.0,-1.0,0.0,1.0,1.0,1.0,1.0]" : 0.9959143617276028,
    "[-1.0,-1.0,1.0,1.0,0.0,1.0,-1.0,0.0,1.0]" : 0.9953306991172604,
    "[1.0,1.0,0.0,-1.0,1.0,-1.0,-1.0,1.0,0.0]" : 0.9953306991172604,
    "[-1.0,0.0,-1.0,1.0,1.0,1.0,-1.0,1.0,0.0]" : 0.9953306991172604,
    "[0.0,-1.0,1.0,-1.0,1.0,1.0,1.0,-1.0,0.0]" : 0.9953306991172604,
    "[-1.0,-1.0,1.0,-1.0,0.0,0.0,1.0,1.0,1.0]" : 0.9946636561340119,
    "[1.0,0.0,-1.0,1.0,0.0,1.0,1.0,-1.0,-1.0]" : 0.9946636561340119,
    "[1.0,1.0,0.0,-1.0,0.0,1.0,-1.0,-1.0,1.0]" : 0.9946636561340119,
    "[1.0,-1.0,0.0,-1.0,1.0,-1.0,0.0,1.0,1.0]" : 0.9946636561340119,
    "[1.0,-1.0,1.0,1.0,0.0,-1.0,1.0,-1.0,-1.0]" : 0.9939013212960136,
    "[0.0,-1.0,1.0,1.0,0.0,-1.0,1.0,1.0,-1.0]" : 0.9939013212960136,
    "[-1.0,-1.0,1.0,-1.0,0.0,1.0,1.0,0.0,1.0]" : 0.9939013212960136,
    "[-1.0,-1.0,1.0,-1.0,0.0,1.0,1.0,-1.0,1.0]" : 0.9930300814811585,
    "[-1.0,1.0,-1.0,1.0,1.0,1.0,-1.0,0.0,0.0]" : 0.9930300814811585,
    "[1.0,1.0,1.0,0.0,0.0,-1.0,1.0,-1.0,-1.0]" : 0.9930300814811585,
    "[1.0,-1.0,-1.0,-1.0,0.0,-1.0,1.0,1.0,1.0]" : 0.9920343788356096,
    "[1.0,1.0,1.0,-1.0,0.0,0.0,-1.0,-1.0,1.0]" : 0.9920343788356096,
    "[-1.0,-1.0,1.0,-1.0,0.0,-1.0,1.0,1.0,1.0]" : 0.9920343788356096,
    "[1.0,-1.0,1.0,-1.0,0.0,1.0,-1.0,-1.0,1.0]" : 0.9908964329549824,
    "[1.0,1.0,1.0,-1.0,0.0,-1.0,1.0,-1.0,-1.0]" : 0.9895959233771228,
    "[-1.0,1.0,0.0,-1.0,1.0,-1.0,1.0,1.0,0.0]" : 0.9895959233771228,
    "[1.0,1.0,1.0,-1.0,0.0,-1.0,-1.0,-1.0,1.0]" : 0.9881096267167118,
    "[0.0,1.0,1.0,1.0,0.0,-1.0,1.0,-1.0,-1.0]" : 0.9881096267167118,
    "[0.0,-1.0,1.0,-1.0,0.0,1.0,-1.0,1.0,1.0]" : 0.9881096267167118,
    "[-1.0,1.0,-1.0,0.0,0.0,-1.0,1.0,1.0,1.0]" : 0.9881096267167118,
    "[0.0,-1.0,0.0,1.0,1.0,1.0,-1.0,-1.0,1.0]" : 0.9881096267167118,
    "[1.0,-1.0,-1.0,1.0,0.0,1.0,1.0,0.0,-1.0]" : 0.9864110019619563,
    "[1.0,1.0,1.0,0.0,0.0,-1.0,-1.0,1.0,-1.0]" : 0.9844697165279501,
    "[1.0,-1.0,-1.0,-1.0,0.0,1.0,0.0,1.0,1.0]" : 0.9844697165279501,
    "[1.0,-1.0,-1.0,1.0,1.0,1.0,0.0,-1.0,0.0]" : 0.9822511046033715,
    "[1.0,1.0,1.0,-1.0,0.0,-1.0,0.0,1.0,-1.0]" : 0.976817769277873,
    "[1.0,1.0,1.0,-1.0,0.0,1.0,-1.0,-1.0,0.0]" : 0.976817769277873,
    "[0.0,1.0,-1.0,-1.0,1.0,-1.0,0.0,1.0,1.0]" : 0.976817769277873,
    "[0.0,-1.0,0.0,1.0,1.0,1.0,1.0,-1.0,-1.0]" : 0.976817769277873,
    "[-1.0,1.0,1.0,-1.0,0.0,1.0,0.0,-1.0,1.0]" : 0.9735060220318549,
    "[-1.0,1.0,-1.0,-1.0,0.0,0.0,1.0,1.0,1.0]" : 0.9735060220318549,
    "[1.0,-1.0,-1.0,1.0,0.0,-1.0,1.0,-1.0,1.0]" : 0.9735060220318549,
    "[0.0,1.0,1.0,-1.0,1.0,-1.0,1.0,0.0,-1.0]" : 0.9735060220318549,
    "[1.0,1.0,1.0,-1.0,0.0,1.0,0.0,-1.0,-1.0]" : 0.9697211680364056,
    "[1.0,0.0,1.0,-1.0,0.0,1.0,-1.0,-1.0,1.0]" : 0.9697211680364056,
    "[1.0,-1.0,-1.0,0.0,0.0,-1.0,1.0,1.0,1.0]" : 0.9697211680364056,
    "[-1.0,-1.0,0.0,-1.0,0.0,1.0,1.0,1.0,1.0]" : 0.965395620613035,
    "[1.0,-1.0,0.0,1.0,0.0,-1.0,1.0,-1.0,1.0]" : 0.9548024432496782,
    "[1.0,1.0,1.0,-1.0,0.0,-1.0,0.0,-1.0,1.0]" : 0.9548024432496782,
    "[-1.0,0.0,1.0,1.0,0.0,1.0,-1.0,-1.0,1.0]" : 0.9548024432496782,
    "[1.0,-1.0,1.0,-1.0,0.0,1.0,0.0,-1.0,1.0]" : 0.9548024432496782,
    "[-1.0,-1.0,1.0,1.0,0.0,1.0,0.0,-1.0,1.0]" : 0.9483456494282037,
    "[0.0,1.0,1.0,-1.0,1.0,-1.0,0.0,1.0,-1.0]" : 0.9483456494282037,
    "[-1.0,-1.0,0.0,1.0,0.0,-1.0,1.0,1.0,1.0]" : 0.9483456494282037,
    "[1.0,1.0,1.0,-1.0,0.0,-1.0,1.0,-1.0,0.0]" : 0.932533093130715,
    "[0.0,-1.0,1.0,-1.0,0.0,-1.0,1.0,1.0,1.0]" : 0.932533093130715,
    "[1.0,-1.0,0.0,-1.0,0.0,-1.0,1.0,1.0,1.0]" : 0.932533093130715,
    "[1.0,1.0,0.0,1.0,0.0,-1.0,1.0,-1.0,-1.0]" : 0.92289496357796,
    "[1.0,1.0,-1.0,1.0,0.0,-1.0,1.0,-1.0,0.0]" : 0.92289496357796,
    "[-1.0,-1.0,1.0,0.0,1.0,1.0,1.0,-1.0,0.0]" : 0.92289496357796,
    "[1.0,0.0,-1.0,-1.0,1.0,-1.0,0.0,1.0,1.0]" : 0.92289496357796,
    "[0.0,-1.0,1.0,1.0,1.0,-1.0,1.0,-1.0,0.0]" : 0.9118799583748114,
    "[1.0,-1.0,-1.0,1.0,0.0,1.0,1.0,-1.0,0.0]" : 0.9118799583748114,
    "[1.0,-1.0,0.0,1.0,0.0,1.0,1.0,-1.0,-1.0]" : 0.9118799583748114,
    "[-1.0,-1.0,1.0,1.0,1.0,1.0,0.0,-1.0,0.0]" : 0.8992913809997845,
    "[1.0,-1.0,-1.0,1.0,0.0,-1.0,1.0,0.0,1.0]" : 0.8849044354283251,
    "[1.0,0.0,1.0,1.0,0.0,-1.0,1.0,-1.0,-1.0]" : 0.8849044354283251,
    "[1.0,0.0,1.0,-1.0,1.0,-1.0,0.0,0.0,-1.0]" : 0.8751999735832205,
    "[1.0,0.0,1.0,-1.0,-1.0,1.0,0.0,0.0,0.0]" : 0.8751999735832205,
    "[-1.0,0.0,0.0,0.0,-1.0,1.0,0.0,1.0,1.0]" : 0.8751999735832205,
    "[1.0,0.0,0.0,1.0,1.0,-1.0,0.0,-1.0,0.0]" : 0.8751999735832205,
    "[1.0,-1.0,1.0,0.0,0.0,0.0,1.0,0.0,-1.0]" : 0.8751999735832205,
    "[1.0,0.0,1.0,0.0,-1.0,1.0,-1.0,0.0,0.0]" : 0.8751999735832205,
    "[1.0,-1.0,0.0,0.0,-1.0,0.0,1.0,1.0,0.0]" : 0.8751999735832205,
    "[1.0,1.0,-1.0,0.0,1.0,0.0,-1.0,0.0,0.0]" : 0.8751999735832205,
    "[0.0,-1.0,0.0,-1.0,1.0,0.0,1.0,1.0,0.0]" : 0.8751999735832205,
    "[-1.0,0.0,0.0,0.0,-1.0,1.0,1.0,0.0,1.0]" : 0.8751999735832205,
    "[1.0,0.0,1.0,1.0,-1.0,-1.0,0.0,0.0,0.0]" : 0.8751999735832205,
    "[1.0,-1.0,0.0,0.0,1.0,0.0,1.0,-1.0,-1.0]" : 0.8751999735832205,
    "[1.0,0.0,-1.0,0.0,-1.0,0.0,1.0,0.0,1.0]" : 0.8751999735832205,
    "[0.0,0.0,0.0,0.0,1.0,-1.0,1.0,-1.0,1.0]" : 0.8751999735832205,
    "[0.0,1.0,1.0,0.0,1.0,-1.0,0.0,-1.0,0.0]" : 0.8751999735832205,
    "[-1.0,1.0,1.0,0.0,1.0,-1.0,0.0,0.0,0.0]" : 0.8751999735832205,
    "[0.0,-1.0,0.0,1.0,-1.0,0.0,1.0,1.0,0.0]" : 0.8751999735832205,
    "[0.0,1.0,1.0,0.0,-1.0,0.0,-1.0,-1.0,1.0]" : 0.8751999735832205,
    "[1.0,0.0,0.0,-1.0,1.0,-1.0,1.0,0.0,0.0]" : 0.8751999735832205,
    "[-1.0,0.0,0.0,0.0,1.0,1.0,0.0,-1.0,1.0]" : 0.8751999735832205,
    "[0.0,0.0,1.0,0.0,1.0,0.0,-1.0,-1.0,1.0]" : 0.8751999735832205,
    "[-1.0,0.0,1.0,0.0,-1.0,0.0,0.0,1.0,1.0]" : 0.8751999735832205,
    "[0.0,0.0,-1.0,1.0,-1.0,0.0,1.0,1.0,0.0]" : 0.8751999735832205,
    "[0.0,-1.0,0.0,0.0,1.0,-1.0,0.0,1.0,1.0]" : 0.8751999735832205,
    "[0.0,0.0,0.0,1.0,-1.0,-1.0,1.0,0.0,1.0]" : 0.8751999735832205,
    "[1.0,-1.0,1.0,0.0,0.0,0.0,-1.0,0.0,1.0]" : 0.8751999735832205,
    "[1.0,1.0,0.0,0.0,-1.0,0.0,1.0,-1.0,0.0]" : 0.8751999735832205,
    "[0.0,1.0,1.0,0.0,-1.0,0.0,-1.0,0.0,1.0]" : 0.8751999735832205,
    "[0.0,0.0,-1.0,0.0,1.0,1.0,-1.0,1.0,-1.0]" : 0.8751999735832205,
    "[0.0,0.0,0.0,-1.0,1.0,1.0,0.0,-1.0,1.0]" : 0.8751999735832205,
    "[1.0,-1.0,0.0,1.0,1.0,0.0,0.0,0.0,-1.0]" : 0.8751999735832205,
    "[1.0,-1.0,0.0,1.0,1.0,-1.0,0.0,0.0,0.0]" : 0.8751999735832205,
    "[1.0,0.0,0.0,0.0,1.0,0.0,1.0,-1.0,-1.0]" : 0.8751999735832205,
    "[1.0,-1.0,0.0,1.0,1.0,0.0,-1.0,0.0,0.0]" : 0.8751999735832205,
    "[1.0,0.0,1.0,-1.0,1.0,0.0,0.0,0.0,-1.0]" : 0.8751999735832205,
    "[-1.0,-1.0,1.0,0.0,1.0,0.0,0.0,-1.0,1.0]" : 0.8751999735832205,
    "[1.0,1.0,0.0,-1.0,1.0,0.0,0.0,-1.0,0.0]" : 0.8751999735832205,
    "[1.0,0.0,1.0,-1.0,-1.0,1.0,-1.0,0.0,0.0]" : 0.8751999735832205,
    "[0.0,-1.0,1.0,0.0,1.0,1.0,0.0,0.0,-1.0]" : 0.8751999735832205,
    "[-1.0,0.0,1.0,0.0,1.0,0.0,0.0,-1.0,1.0]" : 0.8751999735832205,
    "[0.0,0.0,-1.0,1.0,-1.0,-1.0,1.0,0.0,1.0]" : 0.8751999735832205,
    "[0.0,0.0,-1.0,1.0,1.0,0.0,-1.0,0.0,1.0]" : 0.8751999735832205,
    "[0.0,0.0,-1.0,-1.0,1.0,0.0,1.0,0.0,1.0]" : 0.8751999735832205,
    "[1.0,0.0,1.0,0.0,1.0,-1.0,-1.0,0.0,0.0]" : 0.8751999735832205,
    "[-1.0,0.0,0.0,0.0,1.0,0.0,1.0,1.0,-1.0]" : 0.8751999735832205,
    "[1.0,0.0,0.0,-1.0,1.0,0.0,1.0,-1.0,0.0]" : 0.8751999735832205,
    "[0.0,0.0,-1.0,0.0,1.0,1.0,-1.0,0.0,1.0]" : 0.8751999735832205,
    "[1.0,0.0,-1.0,0.0,1.0,0.0,1.0,-1.0,0.0]" : 0.8751999735832205,
    "[1.0,-1.0,0.0,0.0,1.0,0.0,1.0,0.0,-1.0]" : 0.8751999735832205,
    "[0.0,0.0,1.0,0.0,1.0,-1.0,0.0,-1.0,1.0]" : 0.8751999735832205,
    "[-1.0,-1.0,1.0,0.0,-1.0,0.0,0.0,1.0,1.0]" : 0.8751999735832205,
    "[1.0,0.0,1.0,0.0,-1.0,0.0,1.0,0.0,-1.0]" : 0.8751999735832205,
    "[-1.0,1.0,-1.0,0.0,1.0,1.0,0.0,0.0,-1.0]" : 0.8751999735832205,
    "[1.0,0.0,1.0,0.0,1.0,-1.0,0.0,0.0,-1.0]" : 0.8751999735832205,
    "[1.0,0.0,-1.0,-1.0,1.0,0.0,-1.0,1.0,0.0]" : 0.8751999735832205,
    "[1.0,1.0,0.0,0.0,-1.0,0.0,1.0,0.0,-1.0]" : 0.8751999735832205,
    "[0.0,-1.0,0.0,0.0,1.0,-1.0,1.0,1.0,0.0]" : 0.8751999735832205,
    "[-1.0,0.0,1.0,0.0,0.0,0.0,1.0,-1.0,1.0]" : 0.8751999735832205,
    "[1.0,1.0,0.0,1.0,-1.0,0.0,0.0,0.0,-1.0]" : 0.8751999735832205,
    "[0.0,0.0,-1.0,1.0,1.0,0.0,1.0,-1.0,0.0]" : 0.8751999735832205,
    "[1.0,0.0,1.0,1.0,-1.0,-1.0,0.0,0.0,-1.0]" : 0.8751999735832205,
    "[1.0,1.0,0.0,1.0,-1.0,0.0,0.0,-1.0,0.0]" : 0.8751999735832205,
    "[-1.0,0.0,1.0,0.0,-1.0,0.0,1.0,0.0,1.0]" : 0.8751999735832205,
    "[1.0,1.0,0.0,0.0,-1.0,0.0,1.0,-1.0,-1.0]" : 0.8751999735832205,
    "[0.0,1.0,1.0,0.0,-1.0,1.0,0.0,-1.0,0.0]" : 0.8751999735832205,
    "[0.0,0.0,0.0,-1.0,1.0,0.0,1.0,1.0,-1.0]" : 0.8751999735832205,
    "[1.0,0.0,1.0,0.0,0.0,-1.0,-1.0,0.0,1.0]" : 0.8751999735832205,
    "[0.0,-1.0,1.0,0.0,1.0,0.0,-1.0,0.0,1.0]" : 0.8751999735832205,
    "[1.0,1.0,-1.0,-1.0,1.0,0.0,0.0,0.0,0.0]" : 0.8751999735832205,
    "[1.0,-1.0,-1.0,0.0,1.0,0.0,1.0,-1.0,0.0]" : 0.8751999735832205,
    "[1.0,0.0,-1.0,-1.0,0.0,0.0,1.0,0.0,1.0]" : 0.8751999735832205,
    "[1.0,1.0,0.0,-1.0,1.0,0.0,0.0,0.0,-1.0]" : 0.8751999735832205,
    "[0.0,1.0,1.0,0.0,-1.0,0.0,0.0,-1.0,1.0]" : 0.8751999735832205,
    "[1.0,1.0,0.0,-1.0,1.0,-1.0,0.0,-1.0,0.0]" : 0.8751999735832205,
    "[0.0,1.0,1.0,-1.0,-1.0,1.0,0.0,-1.0,0.0]" : 0.8751999735832205,
    "[-1.0,-1.0,1.0,0.0,1.0,1.0,0.0,0.0,-1.0]" : 0.8751999735832205,
    "[1.0,1.0,0.0,1.0,-1.0,-1.0,0.0,0.0,0.0]" : 0.8751999735832205,
    "[1.0,0.0,1.0,1.0,-1.0,0.0,0.0,0.0,-1.0]" : 0.8751999735832205,
    "[1.0,0.0,1.0,-1.0,0.0,0.0,1.0,0.0,-1.0]" : 0.8751999735832205,
    "[0.0,-1.0,0.0,1.0,-1.0,-1.0,1.0,1.0,0.0]" : 0.8751999735832205,
    "[1.0,-1.0,-1.0,0.0,1.0,1.0,-1.0,0.0,0.0]" : 0.8751999735832205,
    "[-1.0,-1.0,1.0,1.0,1.0,0.0,0.0,0.0,-1.0]" : 0.8751999735832205,
    "[0.0,-1.0,1.0,0.0,1.0,0.0,-1.0,-1.0,1.0]" : 0.8751999735832205,
    "[-1.0,0.0,0.0,-1.0,1.0,0.0,1.0,0.0,1.0]" : 0.8751999735832205,
    "[1.0,0.0,1.0,-1.0,1.0,0.0,-1.0,0.0,0.0]" : 0.8751999735832205,
    "[-1.0,1.0,-1.0,1.0,1.0,0.0,-1.0,0.0,0.0]" : 0.8751999735832205,
    "[-1.0,0.0,0.0,0.0,1.0,-1.0,0.0,1.0,1.0]" : 0.8751999735832205,
    "[1.0,-1.0,1.0,0.0,1.0,-1.0,0.0,0.0,0.0]" : 0.8751999735832205,
    "[0.0,1.0,1.0,-1.0,-1.0,1.0,0.0,0.0,0.0]" : 0.8751999735832205,
    "[-1.0,0.0,0.0,1.0,1.0,0.0,1.0,0.0,-1.0]" : 0.8751999735832205,
    "[0.0,0.0,-1.0,0.0,1.0,-1.0,1.0,0.0,1.0]" : 0.8751999735832205,
    "[1.0,-1.0,-1.0,0.0,1.0,0.0,1.0,0.0,0.0]" : 0.8751999735832205,
    "[-1.0,0.0,0.0,-1.0,-1.0,1.0,1.0,0.0,1.0]" : 0.8751999735832205,
    "[0.0,0.0,0.0,-1.0,-1.0,1.0,1.0,0.0,1.0]" : 0.8751999735832205,
    "[-1.0,-1.0,1.0,0.0,1.0,0.0,0.0,0.0,1.0]" : 0.8751999735832205,
    "[1.0,-1.0,-1.0,0.0,-1.0,0.0,1.0,1.0,0.0]" : 0.8751999735832205,
    "[-1.0,0.0,0.0,0.0,1.0,-1.0,1.0,0.0,1.0]" : 0.8751999735832205,
    "[1.0,1.0,0.0,1.0,-1.0,-1.0,0.0,-1.0,0.0]" : 0.8751999735832205,
    "[1.0,0.0,-1.0,1.0,1.0,0.0,-1.0,0.0,0.0]" : 0.8751999735832205,
    "[0.0,0.0,0.0,1.0,-1.0,-1.0,1.0,1.0,0.0]" : 0.8751999735832205,
    "[-1.0,0.0,1.0,0.0,0.0,-1.0,1.0,0.0,1.0]" : 0.8751999735832205,
    "[0.0,-1.0,0.0,-1.0,-1.0,1.0,0.0,1.0,1.0]" : 0.8751999735832205,
    "[0.0,0.0,-1.0,-1.0,1.0,-1.0,1.0,0.0,1.0]" : 0.8751999735832205,
    "[0.0,-1.0,0.0,0.0,1.0,0.0,1.0,-1.0,1.0]" : 0.8751999735832205,
    "[-1.0,0.0,0.0,-1.0,1.0,-1.0,1.0,0.0,1.0]" : 0.8751999735832205,
    "[1.0,0.0,1.0,-1.0,1.0,-1.0,-1.0,0.0,0.0]" : 0.8751999735832205,
    "[1.0,-1.0,1.0,0.0,0.0,-1.0,1.0,0.0,-1.0]" : 0.8751999735832205,
    "[0.0,0.0,-1.0,0.0,1.0,0.0,-1.0,1.0,1.0]" : 0.8751999735832205,
    "[-1.0,1.0,1.0,0.0,1.0,0.0,0.0,0.0,-1.0]" : 0.8751999735832205,
    "[0.0,-1.0,0.0,-1.0,1.0,1.0,0.0,0.0,1.0]" : 0.8751999735832205,
    "[0.0,-1.0,1.0,0.0,-1.0,0.0,0.0,1.0,1.0]" : 0.8751999735832205,
    "[0.0,1.0,-1.0,0.0,1.0,0.0,-1.0,0.0,1.0]" : 0.8751999735832205,
    "[0.0,-1.0,0.0,-1.0,1.0,-1.0,1.0,1.0,0.0]" : 0.8751999735832205,
    "[-1.0,0.0,1.0,0.0,1.0,1.0,0.0,0.0,-1.0]" : 0.8751999735832205,
    "[1.0,0.0,-1.0,0.0,-1.0,0.0,1.0,1.0,0.0]" : 0.8751999735832205,
    "[0.0,-1.0,1.0,0.0,1.0,-1.0,0.0,0.0,1.0]" : 0.8751999735832205,
    "[-1.0,0.0,0.0,0.0,1.0,1.0,1.0,0.0,-1.0]" : 0.8751999735832205,
    "[-1.0,0.0,0.0,1.0,1.0,0.0,-1.0,1.0,-1.0]" : 0.8751999735832205,
    "[1.0,0.0,1.0,0.0,-1.0,0.0,-1.0,0.0,1.0]" : 0.8751999735832205,
    "[0.0,0.0,1.0,-1.0,0.0,0.0,1.0,-1.0,1.0]" : 0.8751999735832205,
    "[1.0,1.0,-1.0,-1.0,1.0,0.0,-1.0,0.0,0.0]" : 0.8751999735832205,
    "[0.0,1.0,1.0,0.0,-1.0,1.0,-1.0,0.0,0.0]" : 0.8751999735832205,
    "[0.0,-1.0,0.0,-1.0,1.0,1.0,0.0,-1.0,1.0]" : 0.8751999735832205,
    "[0.0,0.0,-1.0,1.0,-1.0,0.0,1.0,0.0,1.0]" : 0.8751999735832205,
    "[0.0,0.0,-1.0,0.0,1.0,1.0,-1.0,-1.0,1.0]" : 0.8751999735832205,
    "[1.0,0.0,-1.0,0.0,0.0,0.0,1.0,-1.0,1.0]" : 0.8751999735832205,
    "[0.0,0.0,-1.0,0.0,1.0,1.0,0.0,-1.0,1.0]" : 0.8751999735832205,
    "[1.0,-1.0,-1.0,0.0,1.0,1.0,0.0,-1.0,0.0]" : 0.8751999735832205,
    "[1.0,0.0,-1.0,0.0,1.0,1.0,-1.0,0.0,0.0]" : 0.8751999735832205,
    "[1.0,-1.0,0.0,-1.0,1.0,0.0,1.0,0.0,0.0]" : 0.8751999735832205,
    "[0.0,-1.0,0.0,0.0,-1.0,1.0,0.0,1.0,1.0]" : 0.8751999735832205,
    "[0.0,0.0,0.0,-1.0,-1.0,1.0,0.0,1.0,1.0]" : 0.8751999735832205,
    "[1.0,0.0,0.0,-1.0,1.0,0.0,-1.0,1.0,0.0]" : 0.8751999735832202,
    "[1.0,-1.0,1.0,0.0,1.0,0.0,0.0,-1.0,0.0]" : 0.8751999735832201,
    "[0.0,0.0,0.0,0.0,1.0,-1.0,-1.0,1.0,1.0]" : 0.87519997358322,
    "[0.0,-1.0,0.0,-1.0,1.0,0.0,0.0,1.0,1.0]" : 0.8751999735832199,
    "[-1.0,0.0,1.0,1.0,1.0,0.0,0.0,0.0,-1.0]" : 0.8751999735832199,
    "[1.0,-1.0,1.0,-1.0,1.0,0.0,0.0,0.0,0.0]" : 0.8751999735832199,
    "[0.0,0.0,1.0,-1.0,1.0,-1.0,0.0,0.0,1.0]" : 0.8751999735832195,
    "[-1.0,1.0,1.0,0.0,1.0,-1.0,0.0,0.0,-1.0]" : 0.8751999735832194,
    "[-1.0,0.0,0.0,0.0,1.0,1.0,1.0,-1.0,-1.0]" : 0.8751999735832193,
    "[-1.0,0.0,0.0,1.0,1.0,0.0,1.0,-1.0,0.0]" : 0.8751999735832192,
    "[-1.0,0.0,1.0,0.0,1.0,-1.0,0.0,1.0,-1.0]" : 0.8751999735832188,
    "[1.0,0.0,0.0,-1.0,1.0,-1.0,-1.0,1.0,0.0]" : 0.8751999735832183,
    "[0.0,0.0,0.0,1.0,1.0,-1.0,1.0,-1.0,0.0]" : 0.8751999735832174,
    "[0.0,0.0,0.0,1.0,1.0,0.0,-1.0,-1.0,1.0]" : 0.8751999735832174,
    "[0.0,0.0,1.0,0.0,1.0,-1.0,0.0,1.0,-1.0]" : 0.8751999735832168,
    "[-1.0,1.0,0.0,-1.0,1.0,0.0,1.0,0.0,-1.0]" : 0.8751999735832153,
    "[-1.0,1.0,-1.0,-1.0,0.0,0.0,1.0,1.0,0.0]" : 0.8751999735832149,
    "[0.0,0.0,1.0,-1.0,1.0,-1.0,0.0,1.0,-1.0]" : 0.8751999735832148,
    "[-1.0,0.0,0.0,-1.0,1.0,0.0,1.0,1.0,-1.0]" : 0.8751999735832146,
    "[1.0,-1.0,0.0,1.0,1.0,-1.0,0.0,-1.0,0.0]" : 0.875199973583214,
    "[-1.0,0.0,0.0,1.0,1.0,0.0,1.0,-1.0,-1.0]" : 0.8751999735832119,
    "[-1.0,1.0,0.0,-1.0,1.0,-1.0,1.0,0.0,0.0]" : 0.8751999735832109,
    "[1.0,0.0,-1.0,0.0,0.0,-1.0,1.0,-1.0,1.0]" : 0.8751999735832107,
    "[0.0,1.0,1.0,-1.0,1.0,0.0,0.0,-1.0,0.0]" : 0.8751999735832099,
    "[0.0,-1.0,0.0,0.0,1.0,1.0,1.0,-1.0,-1.0]" : 0.8751999735832058,
    "[-1.0,-1.0,1.0,1.0,1.0,0.0,0.0,-1.0,0.0]" : 0.875199973583205,
    "[-1.0,1.0,0.0,-1.0,1.0,0.0,1.0,0.0,0.0]" : 0.8751999735832012,
    "[0.0,-1.0,0.0,0.0,1.0,1.0,1.0,0.0,-1.0]" : 0.8751999735831886,
    "[1.0,1.0,0.0,0.0,1.0,-1.0,0.0,-1.0,0.0]" : 0.8751999735831663,
    "[1.0,0.0,1.0,-1.0,0.0,0.0,1.0,-1.0,-1.0]" : 0.8751999735831547,
    "[0.0,-1.0,0.0,1.0,1.0,-1.0,1.0,0.0,0.0]" : 0.8751999735831277,
    "[0.0,0.0,-1.0,0.0,1.0,-1.0,-1.0,1.0,1.0]" : 0.8751999735831255,
    "[0.0,-1.0,0.0,1.0,1.0,0.0,-1.0,0.0,1.0]" : 0.8751999735831031,
    "[0.0,1.0,-1.0,0.0,1.0,-1.0,0.0,0.0,1.0]" : 0.8751999735830982,
    "[-1.0,1.0,-1.0,1.0,1.0,0.0,0.0,0.0,0.0]" : 0.8751999735830847,
    "[0.0,1.0,-1.0,0.0,1.0,-1.0,-1.0,0.0,1.0]" : 0.8751999735830586,
    "[1.0,-1.0,-1.0,1.0,1.0,0.0,-1.0,0.0,0.0]" : 0.8751999735830522,
    "[-1.0,-1.0,1.0,1.0,1.0,0.0,0.0,0.0,0.0]" : 0.8751999735829852,
    "[-1.0,1.0,-1.0,0.0,1.0,1.0,0.0,0.0,0.0]" : 0.8751999735829704,
    "[-1.0,0.0,1.0,0.0,1.0,0.0,0.0,1.0,-1.0]" : 0.8751999735829658,
    "[-1.0,1.0,0.0,0.0,1.0,1.0,0.0,0.0,-1.0]" : 0.8751999735829457,
    "[-1.0,0.0,1.0,-1.0,0.0,0.0,1.0,-1.0,1.0]" : 0.8751999735829424,
    "[0.0,0.0,1.0,-1.0,1.0,0.0,0.0,1.0,-1.0]" : 0.8751999735829286,
    "[0.0,0.0,0.0,1.0,1.0,0.0,1.0,-1.0,-1.0]" : 0.875199973582752,
    "[0.0,0.0,-1.0,0.0,1.0,1.0,-1.0,1.0,0.0]" : 0.8751999735826471,
    "[0.0,0.0,0.0,0.0,1.0,1.0,-1.0,1.0,-1.0]" : 0.8751999735826348,
    "[1.0,-1.0,1.0,-1.0,0.0,0.0,-1.0,0.0,1.0]" : 0.8751999735826226,
    "[-1.0,0.0,1.0,1.0,1.0,0.0,0.0,-1.0,0.0]" : 0.8751999735825725,
    "[1.0,1.0,0.0,-1.0,1.0,-1.0,-1.0,0.0,0.0]" : 0.8751999735825422,
    "[0.0,1.0,-1.0,-1.0,1.0,-1.0,0.0,0.0,1.0]" : 0.8751999735824653,
    "[-1.0,0.0,0.0,1.0,0.0,1.0,-1.0,-1.0,1.0]" : 0.875199973582465,
    "[0.0,0.0,0.0,1.0,1.0,0.0,-1.0,1.0,-1.0]" : 0.8751999735824549,
    "[1.0,0.0,-1.0,0.0,1.0,1.0,0.0,-1.0,0.0]" : 0.875199973582361,
    "[1.0,0.0,1.0,0.0,0.0,-1.0,-1.0,-1.0,1.0]" : 0.8751999735823384,
    "[-1.0,0.0,0.0,1.0,1.0,0.0,0.0,1.0,-1.0]" : 0.8751999735822924,
    "[1.0,-1.0,-1.0,1.0,0.0,1.0,0.0,0.0,-1.0]" : 0.8751999735822888,
    "[-1.0,-1.0,1.0,0.0,1.0,1.0,0.0,0.0,0.0]" : 0.8751999735822292,
    "[1.0,-1.0,-1.0,0.0,1.0,1.0,0.0,0.0,0.0]" : 0.8751999735821693,
    "[0.0,1.0,-1.0,-1.0,1.0,0.0,0.0,0.0,1.0]" : 0.875199973582135,
    "[-1.0,-1.0,1.0,1.0,0.0,1.0,-1.0,0.0,0.0]" : 0.8751999735820963,
    "[1.0,-1.0,-1.0,-1.0,0.0,0.0,1.0,0.0,1.0]" : 0.8751999735816889,
    "[-1.0,-1.0,1.0,0.0,1.0,1.0,0.0,-1.0,0.0]" : 0.8751999735816337,
    "[0.0,0.0,0.0,0.0,1.0,1.0,1.0,-1.0,-1.0]" : 0.8751999735814219,
    "[0.0,1.0,1.0,0.0,1.0,-1.0,0.0,0.0,-1.0]" : 0.8751999735812602,
    "[0.0,0.0,-1.0,-1.0,1.0,0.0,1.0,1.0,0.0]" : 0.8751999735801129,
    "[1.0,1.0,0.0,-1.0,0.0,0.0,-1.0,1.0,-1.0]" : 0.8751999735792669,
    "[0.0,1.0,1.0,0.0,0.0,-1.0,-1.0,1.0,-1.0]" : 0.8751999735780628,
    "[0.0,0.0,-1.0,1.0,0.0,1.0,1.0,-1.0,-1.0]" : 0.8751999735773808,
    "[1.0,-1.0,1.0,0.0,1.0,-1.0,0.0,-1.0,0.0]" : 0.875199973577064,
    "[1.0,-1.0,0.0,-1.0,1.0,-1.0,1.0,0.0,0.0]" : 0.8751999735753502,
    "[0.0,0.0,0.0,-1.0,1.0,0.0,1.0,-1.0,1.0]" : 0.8751999735741488,
    "[0.0,1.0,-1.0,1.0,1.0,0.0,-1.0,0.0,0.0]" : 0.8751999735730286,
    "[-1.0,-1.0,1.0,0.0,0.0,-1.0,1.0,0.0,1.0]" : 0.8751999735719405,
    "[0.0,1.0,1.0,0.0,1.0,-1.0,-1.0,0.0,0.0]" : 0.8751999735711692,
    "[0.0,0.0,-1.0,-1.0,1.0,-1.0,0.0,1.0,1.0]" : 0.8751999735695399,
    "[1.0,-1.0,-1.0,1.0,1.0,0.0,0.0,0.0,0.0]" : 0.8751999735672376,
    "[0.0,-1.0,0.0,0.0,1.0,1.0,-1.0,-1.0,1.0]" : 0.8751999735541394,
    "[1.0,0.0,-1.0,1.0,1.0,0.0,0.0,-1.0,0.0]" : 0.87519997355208,
    "[1.0,1.0,0.0,-1.0,1.0,0.0,-1.0,0.0,0.0]" : 0.8751999735503337,
    "[-1.0,0.0,1.0,0.0,1.0,1.0,0.0,-1.0,0.0]" : 0.8751999735499163,
    "[0.0,1.0,0.0,0.0,1.0,-1.0,-1.0,0.0,1.0]" : 0.8751999735471405,
    "[1.0,-1.0,1.0,-1.0,1.0,0.0,0.0,-1.0,0.0]" : 0.8751999735435214,
    "[1.0,0.0,-1.0,0.0,1.0,0.0,-1.0,1.0,0.0]" : 0.8751999735421676,
    "[0.0,1.0,1.0,-1.0,1.0,0.0,0.0,0.0,-1.0]" : 0.8751999735388487,
    "[-1.0,0.0,0.0,0.0,1.0,1.0,1.0,-1.0,0.0]" : 0.8751999735356827,
    "[1.0,0.0,0.0,-1.0,1.0,-1.0,1.0,-1.0,0.0]" : 0.8751999735340217,
    "[1.0,0.0,0.0,0.0,1.0,-1.0,-1.0,1.0,0.0]" : 0.8751999735068874,
    "[-1.0,1.0,-1.0,0.0,0.0,-1.0,0.0,1.0,1.0]" : 0.8751999735003476,
    "[-1.0,0.0,0.0,1.0,1.0,0.0,-1.0,1.0,0.0]" : 0.875199973489512,
    "[1.0,-1.0,-1.0,1.0,1.0,0.0,0.0,-1.0,0.0]" : 0.8751999734764146,
    "[0.0,-1.0,0.0,1.0,1.0,0.0,1.0,-1.0,-1.0]" : 0.8751999734546149,
    "[1.0,1.0,0.0,0.0,1.0,-1.0,-1.0,0.0,0.0]" : 0.8751999734441174,
    "[0.0,-1.0,1.0,0.0,1.0,1.0,-1.0,0.0,0.0]" : 0.8751999734038298,
    "[0.0,1.0,1.0,-1.0,1.0,-1.0,0.0,0.0,-1.0]" : 0.8751999733558897,
    "[0.0,1.0,-1.0,0.0,1.0,1.0,-1.0,0.0,0.0]" : 0.8751999732377013,
    "[0.0,0.0,-1.0,-1.0,1.0,0.0,0.0,1.0,1.0]" : 0.875199973197632,
    "[0.0,1.0,-1.0,0.0,1.0,1.0,0.0,0.0,-1.0]" : 0.8751999731060196,
    "[0.0,-1.0,1.0,-1.0,1.0,1.0,0.0,0.0,0.0]" : 0.8751999730860092,
    "[0.0,0.0,1.0,-1.0,1.0,-1.0,0.0,-1.0,1.0]" : 0.8751999730446063,
    "[1.0,0.0,-1.0,-1.0,1.0,0.0,0.0,1.0,0.0]" : 0.8751999729833794,
    "[0.0,0.0,1.0,-1.0,1.0,1.0,0.0,-1.0,0.0]" : 0.875199972929999,
    "[-1.0,1.0,0.0,1.0,1.0,0.0,0.0,0.0,-1.0]" : 0.875199972905503,
    "[0.0,0.0,-1.0,1.0,1.0,0.0,-1.0,1.0,0.0]" : 0.8751999728981926,
    "[-1.0,1.0,0.0,1.0,1.0,0.0,-1.0,0.0,0.0]" : 0.8751999728775155,
    "[-1.0,1.0,0.0,0.0,1.0,0.0,1.0,0.0,-1.0]" : 0.8751999728106138,
    "[0.0,0.0,-1.0,0.0,1.0,-1.0,0.0,1.0,1.0]" : 0.8751999726859299,
    "[0.0,0.0,-1.0,1.0,1.0,0.0,-1.0,-1.0,1.0]" : 0.8751999726625579,
    "[-1.0,0.0,0.0,-1.0,1.0,-1.0,1.0,1.0,0.0]" : 0.8751999725289206,
    "[-1.0,1.0,0.0,0.0,1.0,-1.0,1.0,0.0,0.0]" : 0.8751999723162974,
    "[0.0,-1.0,0.0,1.0,1.0,0.0,-1.0,-1.0,1.0]" : 0.8751999722651105,
    "[0.0,-1.0,1.0,-1.0,1.0,-1.0,0.0,0.0,1.0]" : 0.8751999721425723,
    "[0.0,-1.0,0.0,-1.0,1.0,0.0,1.0,-1.0,1.0]" : 0.8751999720701886,
    "[0.0,-1.0,0.0,1.0,1.0,0.0,1.0,0.0,-1.0]" : 0.8751999719669412,
    "[0.0,-1.0,1.0,0.0,0.0,-1.0,1.0,0.0,1.0]" : 0.8751999717703765,
    "[0.0,-1.0,0.0,0.0,1.0,-1.0,1.0,-1.0,1.0]" : 0.8751999710267124,
    "[0.0,0.0,0.0,0.0,1.0,1.0,-1.0,-1.0,1.0]" : 0.8751999676926003,
    "[-1.0,0.0,0.0,0.0,1.0,1.0,0.0,1.0,-1.0]" : 0.8751999671913259,
    "[0.0,0.0,-1.0,0.0,1.0,1.0,0.0,1.0,-1.0]" : 0.8751999660075676,
    "[1.0,-1.0,0.0,0.0,1.0,1.0,-1.0,0.0,0.0]" : 0.8751999607958021,
    "[0.0,-1.0,0.0,0.0,1.0,1.0,-1.0,0.0,1.0]" : 0.8751999595122893,
    "[1.0,-1.0,1.0,-1.0,0.0,0.0,0.0,0.0,1.0]" : 0.8751999585051446,
    "[1.0,-1.0,-1.0,0.0,0.0,-1.0,0.0,1.0,1.0]" : 0.8751999449430016,
    "[0.0,1.0,0.0,-1.0,1.0,0.0,1.0,0.0,-1.0]" : 0.8751999420277706,
    "[-1.0,0.0,1.0,0.0,1.0,-1.0,0.0,1.0,0.0]" : 0.8751999211291384,
    "[0.0,-1.0,1.0,0.0,1.0,0.0,0.0,-1.0,1.0]" : 0.8751999141490139,
    "[1.0,0.0,0.0,-1.0,1.0,-1.0,0.0,1.0,0.0]" : 0.8751999065004888,
    "[1.0,0.0,0.0,0.0,0.0,-1.0,1.0,-1.0,1.0]" : 0.8751999025011357,
    "[-1.0,0.0,0.0,-1.0,1.0,0.0,1.0,1.0,0.0]" : 0.8751998671706214,
    "[1.0,0.0,0.0,-1.0,0.0,1.0,-1.0,-1.0,1.0]" : 0.8751998345559998,
    "[1.0,-1.0,0.0,0.0,1.0,0.0,1.0,-1.0,0.0]" : 0.8751998272909791,
    "[-1.0,0.0,0.0,0.0,1.0,-1.0,1.0,1.0,0.0]" : 0.8751998142653985,
    "[0.0,-1.0,0.0,0.0,1.0,1.0,1.0,-1.0,0.0]" : 0.8751997961348205,
    "[1.0,0.0,1.0,-1.0,0.0,0.0,1.0,-1.0,0.0]" : 0.8751997716533243,
    "[1.0,-1.0,-1.0,1.0,0.0,-1.0,0.0,0.0,1.0]" : 0.875199697365132,
    "[1.0,1.0,0.0,-1.0,0.0,0.0,-1.0,-1.0,1.0]" : 0.875199644809683,
    "[1.0,-1.0,0.0,0.0,1.0,-1.0,1.0,0.0,0.0]" : 0.875199622698694,
    "[1.0,0.0,1.0,0.0,0.0,-1.0,0.0,-1.0,1.0]" : 0.8751996157692746,
    "[0.0,0.0,1.0,1.0,0.0,-1.0,1.0,-1.0,-1.0]" : 0.8751995464178488,
    "[1.0,0.0,1.0,-1.0,1.0,-1.0,0.0,0.0,0.0]" : 0.87519946703932,
    "[0.0,1.0,0.0,-1.0,1.0,-1.0,0.0,0.0,1.0]" : 0.8751993776723901,
    "[1.0,0.0,0.0,0.0,1.0,-1.0,1.0,-1.0,0.0]" : 0.8751992663455053,
    "[0.0,0.0,-1.0,1.0,1.0,0.0,0.0,-1.0,1.0]" : 0.875199187385979,
    "[0.0,-1.0,1.0,1.0,1.0,0.0,0.0,0.0,-1.0]" : 0.8751990610958006,
    "[0.0,-1.0,1.0,-1.0,1.0,0.0,0.0,0.0,1.0]" : 0.8751989925948449,
    "[0.0,0.0,0.0,-1.0,1.0,-1.0,0.0,1.0,1.0]" : 0.8751988749450985,
    "[0.0,0.0,1.0,-1.0,1.0,0.0,0.0,-1.0,1.0]" : 0.8751987500985596,
    "[0.0,0.0,1.0,-1.0,1.0,-1.0,0.0,1.0,0.0]" : 0.875198673452399,
    "[0.0,-1.0,0.0,0.0,1.0,1.0,0.0,-1.0,1.0]" : 0.8751984273258204,
    "[-1.0,-1.0,1.0,-1.0,0.0,1.0,1.0,0.0,0.0]" : 0.8751983953141795,
    "[0.0,-1.0,0.0,1.0,1.0,0.0,0.0,-1.0,1.0]" : 0.8751982521903336,
    "[0.0,-1.0,1.0,0.0,1.0,1.0,0.0,-1.0,0.0]" : 0.8751978037309514,
    "[0.0,0.0,0.0,-1.0,1.0,-1.0,1.0,0.0,1.0]" : 0.8751977079555848,
    "[1.0,-1.0,0.0,0.0,1.0,1.0,0.0,-1.0,0.0]" : 0.8751976805196283,
    "[-1.0,-1.0,1.0,-1.0,0.0,0.0,1.0,1.0,0.0]" : 0.8751975425449168,
    "[0.0,-1.0,0.0,1.0,1.0,-1.0,1.0,-1.0,0.0]" : 0.8751972875120045,
    "[0.0,1.0,1.0,-1.0,1.0,-1.0,0.0,0.0,0.0]" : 0.875197244117626,
    "[0.0,1.0,0.0,-1.0,1.0,-1.0,1.0,0.0,0.0]" : 0.8751968456444931,
    "[1.0,-1.0,1.0,0.0,0.0,-1.0,1.0,0.0,0.0]" : 0.8751959362559386,
    "[1.0,-1.0,1.0,-1.0,1.0,-1.0,0.0,0.0,0.0]" : 0.8751959095340025,
    "[-1.0,0.0,1.0,1.0,0.0,1.0,-1.0,0.0,0.0]" : 0.8751949874251153,
    "[1.0,0.0,1.0,0.0,0.0,-1.0,1.0,0.0,-1.0]" : 0.8751926734719765,
    "[0.0,0.0,0.0,-1.0,1.0,-1.0,1.0,1.0,0.0]" : 0.8751913535722345,
    "[-1.0,1.0,-1.0,0.0,0.0,0.0,1.0,1.0,0.0]" : 0.8751913520494268,
    "[1.0,-1.0,0.0,-1.0,1.0,0.0,1.0,-1.0,0.0]" : 0.8751910246958982,
    "[0.0,-1.0,0.0,0.0,1.0,-1.0,1.0,0.0,1.0]" : 0.875189552833952,
    "[0.0,-1.0,0.0,1.0,1.0,0.0,1.0,-1.0,0.0]" : 0.875189436169336,
    "[0.0,-1.0,1.0,1.0,1.0,0.0,0.0,-1.0,0.0]" : 0.8751887113197265,
    "[-1.0,-1.0,1.0,0.0,0.0,0.0,1.0,1.0,0.0]" : 0.8751883301723086,
    "[1.0,0.0,1.0,0.0,1.0,-1.0,0.0,-1.0,0.0]" : 0.8751882106203198,
    "[1.0,0.0,-1.0,0.0,0.0,-1.0,1.0,0.0,1.0]" : 0.8751880043331203,
    "[0.0,1.0,1.0,0.0,0.0,-1.0,1.0,-1.0,-1.0]" : 0.875186550800877,
    "[1.0,0.0,1.0,0.0,0.0,0.0,1.0,-1.0,-1.0]" : 0.8751854811349559,
    "[1.0,1.0,0.0,0.0,0.0,0.0,-1.0,1.0,-1.0]" : 0.8751846227769542,
    "[1.0,-1.0,0.0,1.0,1.0,0.0,0.0,-1.0,0.0]" : 0.8751827508476571,
    "[0.0,1.0,1.0,-1.0,0.0,0.0,1.0,-1.0,-1.0]" : 0.8751814020950416,
    "[0.0,0.0,0.0,-1.0,1.0,-1.0,1.0,-1.0,1.0]" : 0.8751811913936647,
    "[1.0,0.0,1.0,-1.0,1.0,0.0,0.0,-1.0,0.0]" : 0.8751806874404808,
    "[0.0,-1.0,0.0,-1.0,1.0,0.0,1.0,0.0,1.0]" : 0.8751805978741345,
    "[1.0,0.0,-1.0,1.0,0.0,1.0,0.0,0.0,-1.0]" : 0.8751805896811026,
    "[-1.0,-1.0,1.0,0.0,0.0,1.0,1.0,0.0,0.0]" : 0.8751801767478901,
    "[1.0,1.0,0.0,-1.0,1.0,-1.0,0.0,0.0,0.0]" : 0.8751782171995873,
    "[1.0,0.0,1.0,0.0,0.0,0.0,-1.0,-1.0,1.0]" : 0.8751775953468647,
    "[-1.0,1.0,-1.0,0.0,0.0,0.0,0.0,1.0,1.0]" : 0.8751768003666683,
    "[0.0,-1.0,1.0,1.0,0.0,-1.0,1.0,0.0,-1.0]" : 0.8751760624470024,
    "[1.0,0.0,1.0,-1.0,0.0,0.0,-1.0,0.0,1.0]" : 0.8751736979967184,
    "[0.0,1.0,0.0,0.0,0.0,1.0,-1.0,-1.0,1.0]" : 0.8751654433993283,
    "[-1.0,0.0,1.0,-1.0,0.0,0.0,1.0,1.0,0.0]" : 0.8751650696373718,
    "[-1.0,0.0,1.0,-1.0,0.0,0.0,1.0,0.0,1.0]" : 0.8751644801594297,
    "[1.0,0.0,0.0,0.0,0.0,1.0,-1.0,-1.0,1.0]" : 0.8751634110596296,
    "[0.0,1.0,1.0,0.0,0.0,0.0,-1.0,1.0,-1.0]" : 0.8751628733912322,
    "[-1.0,-1.0,1.0,0.0,0.0,-1.0,1.0,1.0,0.0]" : 0.8751627082818637,
    "[-1.0,0.0,1.0,-1.0,0.0,1.0,1.0,0.0,0.0]" : 0.8751625366099263,
    "[0.0,1.0,1.0,0.0,0.0,0.0,1.0,-1.0,-1.0]" : 0.8751497671642003,
    "[0.0,-1.0,1.0,-1.0,1.0,1.0,0.0,-1.0,0.0]" : 0.8751486783108351,
    "[0.0,-1.0,1.0,0.0,1.0,-1.0,0.0,-1.0,1.0]" : 0.8751485575518279,
    "[1.0,0.0,-1.0,1.0,0.0,-1.0,0.0,-1.0,1.0]" : 0.875146997416194,
    "[1.0,-1.0,-1.0,1.0,0.0,0.0,0.0,0.0,1.0]" : 0.8751387042210408,
    "[0.0,0.0,1.0,1.0,0.0,0.0,1.0,-1.0,-1.0]" : 0.8751362502896106,
    "[1.0,0.0,0.0,-1.0,0.0,1.0,-1.0,0.0,1.0]" : 0.875119009793452,
    "[1.0,-1.0,0.0,1.0,0.0,-1.0,0.0,0.0,1.0]" : 0.875115874468352,
    "[-1.0,0.0,0.0,1.0,0.0,1.0,-1.0,0.0,1.0]" : 0.8750954944627444,
    "[1.0,-1.0,0.0,-1.0,0.0,0.0,1.0,0.0,1.0]" : 0.8750914028240754,
    "[0.0,1.0,1.0,0.0,0.0,-1.0,1.0,0.0,-1.0]" : 0.8750895146091632,
    "[1.0,-1.0,-1.0,1.0,0.0,0.0,0.0,1.0,0.0]" : 0.8750803306112137,
    "[0.0,0.0,1.0,1.0,0.0,-1.0,1.0,-1.0,0.0]" : 0.8750782759947652,
    "[1.0,0.0,-1.0,0.0,0.0,-1.0,0.0,1.0,1.0]" : 0.8750759580689123,
    "[1.0,0.0,0.0,-1.0,0.0,1.0,0.0,-1.0,1.0]" : 0.8750627096203866,
    "[-1.0,-1.0,1.0,0.0,0.0,0.0,1.0,0.0,1.0]" : 0.8750626170625259,
    "[0.0,0.0,-1.0,1.0,0.0,-1.0,0.0,1.0,1.0]" : 0.875060219103362,
    "[0.0,0.0,-1.0,1.0,0.0,1.0,1.0,0.0,-1.0]" : 0.8750582160637987,
    "[1.0,-1.0,-1.0,-1.0,0.0,0.0,0.0,1.0,1.0]" : 0.8750440700173712,
    "[0.0,1.0,1.0,1.0,0.0,-1.0,0.0,0.0,-1.0]" : 0.8750292797405758,
    "[1.0,1.0,0.0,-1.0,0.0,0.0,-1.0,0.0,1.0]" : 0.8750247302135965,
    "[0.0,-1.0,1.0,-1.0,1.0,0.0,0.0,-1.0,1.0]" : 0.8749990886065739,
    "[-1.0,0.0,1.0,-1.0,0.0,1.0,1.0,-1.0,0.0]" : 0.8749948452181787,
    "[1.0,-1.0,-1.0,0.0,0.0,0.0,1.0,0.0,1.0]" : 0.8749819306102576,
    "[0.0,-1.0,0.0,-1.0,1.0,-1.0,0.0,1.0,1.0]" : 0.8749643446820767,
    "[1.0,-1.0,0.0,-1.0,0.0,1.0,-1.0,0.0,1.0]" : 0.8749380406675026,
    "[0.0,-1.0,1.0,-1.0,0.0,0.0,1.0,0.0,1.0]" : 0.8749133994611077,
    "[0.0,1.0,1.0,-1.0,1.0,-1.0,0.0,-1.0,0.0]" : 0.8749046934452119,
    "[1.0,-1.0,-1.0,0.0,0.0,-1.0,1.0,0.0,1.0]" : 0.8748990636881304,
    "[1.0,0.0,1.0,0.0,0.0,-1.0,1.0,-1.0,0.0]" : 0.8748941390071319,
    "[1.0,0.0,1.0,-1.0,1.0,-1.0,0.0,-1.0,0.0]" : 0.8748869249763012,
    "[0.0,0.0,-1.0,1.0,0.0,1.0,1.0,-1.0,0.0]" : 0.8748800300418609,
    "[0.0,-1.0,1.0,1.0,0.0,-1.0,1.0,0.0,0.0]" : 0.8748503450248332,
    "[0.0,-1.0,1.0,1.0,0.0,1.0,-1.0,0.0,0.0]" : 0.874772146044403,
    "[0.0,-1.0,1.0,-1.0,0.0,1.0,1.0,0.0,0.0]" : 0.8747676719494314,
    "[1.0,-1.0,0.0,0.0,1.0,-1.0,1.0,-1.0,0.0]" : 0.874763035553004,
    "[1.0,0.0,1.0,-1.0,0.0,0.0,0.0,-1.0,1.0]" : 0.8747361912370601,
    "[-1.0,1.0,0.0,0.0,0.0,-1.0,0.0,1.0,1.0]" : 0.8747195058333903,
    "[-1.0,0.0,1.0,0.0,0.0,1.0,1.0,-1.0,0.0]" : 0.8747161574278274,
    "[1.0,1.0,0.0,0.0,0.0,-1.0,-1.0,-1.0,1.0]" : 0.8747129055983311,
    "[0.0,-1.0,1.0,-1.0,0.0,0.0,1.0,1.0,0.0]" : 0.8745758482450159,
    "[0.0,0.0,1.0,1.0,0.0,-1.0,1.0,0.0,-1.0]" : 0.8745745738003134,
    "[0.0,-1.0,1.0,0.0,0.0,-1.0,1.0,1.0,0.0]" : 0.8745651594030465,
    "[-1.0,-1.0,1.0,-1.0,0.0,0.0,1.0,0.0,1.0]" : 0.8745460921284058,
    "[0.0,1.0,-1.0,0.0,0.0,-1.0,1.0,0.0,1.0]" : 0.8745211240349764,
    "[1.0,0.0,1.0,-1.0,0.0,0.0,-1.0,-1.0,1.0]" : 0.8744381384605099,
    "[1.0,1.0,0.0,0.0,0.0,-1.0,1.0,-1.0,0.0]" : 0.8743392829389884,
    "[1.0,0.0,-1.0,1.0,0.0,0.0,0.0,-1.0,1.0]" : 0.8742573418807551,
    "[0.0,1.0,1.0,-1.0,0.0,0.0,1.0,-1.0,0.0]" : 0.8742512339148245,
    "[1.0,1.0,0.0,-1.0,0.0,0.0,0.0,1.0,-1.0]" : 0.8742439585157415,
    "[1.0,-1.0,0.0,0.0,0.0,-1.0,1.0,0.0,1.0]" : 0.8741644997034966,
    "[0.0,0.0,1.0,-1.0,0.0,1.0,1.0,-1.0,0.0]" : 0.8741485371997312,
    "[1.0,-1.0,0.0,-1.0,0.0,1.0,0.0,0.0,1.0]" : 0.8740286976489999,
    "[-1.0,0.0,0.0,-1.0,0.0,1.0,1.0,1.0,0.0]" : 0.8740182122616093,
    "[0.0,1.0,1.0,-1.0,0.0,0.0,0.0,-1.0,1.0]" : 0.8739810514667705,
    "[1.0,-1.0,0.0,1.0,0.0,1.0,0.0,0.0,-1.0]" : 0.8739433359306039,
    "[0.0,1.0,-1.0,-1.0,0.0,0.0,1.0,1.0,0.0]" : 0.8739285668151018,
    "[-1.0,-1.0,1.0,0.0,0.0,1.0,0.0,1.0,0.0]" : 0.8736877540896635,
    "[-1.0,-1.0,1.0,1.0,0.0,0.0,0.0,0.0,1.0]" : 0.8736599720303869,
    "[1.0,-1.0,-1.0,0.0,0.0,0.0,0.0,1.0,1.0]" : 0.8735092281009089,
    "[1.0,0.0,0.0,0.0,0.0,1.0,1.0,-1.0,-1.0]" : 0.8733463730229679,
    "[0.0,1.0,0.0,0.0,0.0,1.0,1.0,-1.0,-1.0]" : 0.8730911462453883,
    "[1.0,1.0,0.0,0.0,0.0,-1.0,0.0,-1.0,1.0]" : 0.8728241195007631,
    "[1.0,0.0,1.0,0.0,0.0,-1.0,1.0,-1.0,-1.0]" : 0.8725790667667025,
    "[1.0,1.0,0.0,0.0,0.0,-1.0,-1.0,0.0,1.0]" : 0.8725771185425768,
    "[1.0,1.0,0.0,1.0,0.0,-1.0,0.0,-1.0,0.0]" : 0.8725150319312657,
    "[0.0,-1.0,0.0,-1.0,1.0,-1.0,1.0,0.0,1.0]" : 0.8722814339788478,
    "[1.0,0.0,0.0,1.0,0.0,-1.0,0.0,-1.0,1.0]" : 0.8721294311727201,
    "[1.0,-1.0,-1.0,0.0,0.0,1.0,1.0,0.0,0.0]" : 0.8719978466253804,
    "[0.0,0.0,1.0,1.0,0.0,-1.0,0.0,1.0,-1.0]" : 0.8719303984038346,
    "[0.0,1.0,-1.0,1.0,0.0,-1.0,0.0,0.0,1.0]" : 0.8719269871287826,
    "[-1.0,0.0,0.0,1.0,0.0,1.0,0.0,-1.0,1.0]" : 0.8716808022792353,
    "[1.0,1.0,0.0,0.0,0.0,0.0,-1.0,-1.0,1.0]" : 0.871608267875253,
    "[0.0,1.0,1.0,0.0,0.0,-1.0,-1.0,1.0,0.0]" : 0.8714888038737829,
    "[1.0,-1.0,0.0,0.0,0.0,-1.0,1.0,1.0,0.0]" : 0.8714803994756263,
    "[-1.0,1.0,0.0,-1.0,0.0,0.0,1.0,0.0,1.0]" : 0.871259990217267,
    "[1.0,1.0,0.0,-1.0,0.0,1.0,-1.0,0.0,0.0]" : 0.8711228736888,
    "[1.0,0.0,1.0,-1.0,0.0,0.0,-1.0,1.0,0.0]" : 0.8708714810617306,
    "[0.0,-1.0,0.0,1.0,0.0,-1.0,1.0,1.0,0.0]" : 0.8706714601583981,
    "[-1.0,0.0,0.0,-1.0,0.0,1.0,1.0,0.0,1.0]" : 0.8706292682782557,
    "[1.0,0.0,1.0,-1.0,0.0,1.0,-1.0,0.0,0.0]" : 0.8705727995295769,
    "[0.0,1.0,0.0,1.0,0.0,0.0,-1.0,-1.0,1.0]" : 0.8702834404747289,
    "[-1.0,-1.0,1.0,1.0,0.0,0.0,0.0,1.0,0.0]" : 0.8699456394862218,
    "[1.0,0.0,1.0,0.0,0.0,-1.0,0.0,1.0,-1.0]" : 0.8699390993457019,
    "[1.0,0.0,-1.0,1.0,0.0,-1.0,0.0,0.0,1.0]" : 0.8699157315491488,
    "[1.0,0.0,-1.0,-1.0,0.0,0.0,0.0,1.0,1.0]" : 0.8692664182323377,
    "[0.0,-1.0,0.0,1.0,0.0,-1.0,1.0,0.0,1.0]" : 0.8692126219901665,
    "[1.0,-1.0,0.0,0.0,0.0,1.0,-1.0,0.0,1.0]" : 0.8689583521187736,
    "[0.0,1.0,0.0,1.0,0.0,0.0,1.0,-1.0,-1.0]" : 0.8687703566502657,
    "[0.0,-1.0,1.0,1.0,0.0,1.0,-1.0,-1.0,1.0]" : 0.8684622119180858,
    "[1.0,0.0,0.0,-1.0,0.0,1.0,-1.0,1.0,0.0]" : 0.8676821422392648,
    "[1.0,-1.0,-1.0,0.0,0.0,0.0,1.0,1.0,0.0]" : 0.8675999872089346,
    "[1.0,-1.0,-1.0,0.0,0.0,1.0,0.0,1.0,0.0]" : 0.8674979580550605,
    "[0.0,-1.0,0.0,0.0,0.0,-1.0,1.0,0.0,1.0]" : 0.8672709982695324,
    "[0.0,1.0,1.0,-1.0,0.0,0.0,1.0,0.0,-1.0]" : 0.8668871482645665,
    "[0.0,1.0,1.0,0.0,0.0,-1.0,1.0,-1.0,0.0]" : 0.8658318777628629,
    "[1.0,0.0,1.0,-1.0,0.0,1.0,0.0,-1.0,0.0]" : 0.8657289886850542,
    "[0.0,1.0,1.0,0.0,0.0,0.0,-1.0,-1.0,1.0]" : 0.8656627060519039,
    "[0.0,-1.0,0.0,-1.0,0.0,1.0,1.0,0.0,1.0]" : 0.8655701110240854,
    "[0.0,0.0,-1.0,1.0,0.0,-1.0,1.0,0.0,1.0]" : 0.8653484320460314,
    "[1.0,1.0,0.0,0.0,0.0,0.0,1.0,-1.0,-1.0]" : 0.8650859710334049,
    "[1.0,-1.0,-1.0,1.0,0.0,1.0,0.0,0.0,0.0]" : 0.8649751692094758,
    "[1.0,0.0,1.0,1.0,0.0,-1.0,0.0,-1.0,0.0]" : 0.8637871848999972,
    "[-1.0,1.0,0.0,-1.0,0.0,0.0,1.0,1.0,0.0]" : 0.863631056107026,
    "[0.0,-1.0,1.0,-1.0,0.0,0.0,0.0,1.0,1.0]" : 0.8629926953582241,
    "[1.0,-1.0,0.0,-1.0,0.0,0.0,0.0,1.0,1.0]" : 0.8625494102872688,
    "[-1.0,0.0,1.0,0.0,0.0,-1.0,1.0,1.0,0.0]" : 0.8619040183172318,
    "[0.0,0.0,0.0,1.0,0.0,1.0,-1.0,-1.0,1.0]" : 0.8614872609852909,
    "[1.0,0.0,1.0,1.0,0.0,-1.0,0.0,0.0,-1.0]" : 0.8609881279682843,
    "[-1.0,-1.0,1.0,1.0,0.0,1.0,0.0,0.0,0.0]" : 0.8607200811162433,
    "[0.0,1.0,1.0,0.0,0.0,-1.0,0.0,1.0,-1.0]" : 0.859526146397073,
    "[0.0,0.0,0.0,1.0,0.0,1.0,1.0,-1.0,-1.0]" : 0.8593303482921208,
    "[0.0,1.0,1.0,-1.0,0.0,0.0,0.0,1.0,-1.0]" : 0.8561109013194204,
    "[0.0,1.0,1.0,-1.0,0.0,1.0,0.0,-1.0,0.0]" : 0.8553460626948988,
    "[-1.0,-1.0,1.0,0.0,0.0,0.0,0.0,1.0,1.0]" : 0.8547025033805765,
    "[1.0,1.0,0.0,-1.0,0.0,0.0,-1.0,1.0,0.0]" : 0.8545089200601574,
    "[0.0,-1.0,1.0,1.0,0.0,0.0,1.0,0.0,-1.0]" : 0.8530312520171127,
    "[0.0,1.0,-1.0,-1.0,0.0,0.0,0.0,1.0,1.0]" : 0.8523452016733006,
    "[-1.0,0.0,1.0,1.0,0.0,1.0,0.0,-1.0,0.0]" : 0.8522233560991863,
    "[0.0,-1.0,0.0,1.0,0.0,1.0,-1.0,0.0,1.0]" : 0.8513661681581253,
    "[-1.0,1.0,0.0,0.0,0.0,-1.0,1.0,1.0,0.0]" : 0.8502512061692868,
    "[0.0,1.0,-1.0,0.0,0.0,-1.0,0.0,1.0,1.0]" : 0.8500916578042481,
    "[-1.0,1.0,0.0,-1.0,0.0,1.0,1.0,0.0,0.0]" : 0.849506624258303,
    "[1.0,1.0,0.0,-1.0,0.0,0.0,0.0,-1.0,1.0]" : 0.8426491075285406,
    "[0.0,0.0,1.0,1.0,0.0,0.0,-1.0,-1.0,1.0]" : 0.8416986654013356,
    "[1.0,-1.0,0.0,0.0,0.0,-1.0,0.0,1.0,1.0]" : 0.8410862002105202,
    "[1.0,-1.0,0.0,1.0,0.0,0.0,0.0,0.0,0.0]" : 0.8398612091808325,
    "[0.0,-1.0,0.0,1.0,1.0,0.0,0.0,0.0,0.0]" : 0.8386996531555928,
    "[1.0,0.0,1.0,-1.0,0.0,0.0,-1.0,0.0,0.0]" : 0.8376345867385803,
    "[1.0,0.0,-1.0,1.0,0.0,1.0,0.0,-1.0,0.0]" : 0.836905316465929,
    "[1.0,0.0,1.0,-1.0,0.0,0.0,0.0,-1.0,0.0]" : 0.8357847067102426,
    "[1.0,0.0,1.0,0.0,0.0,-1.0,0.0,0.0,-1.0]" : 0.8352081651383495,
    "[0.0,-1.0,0.0,1.0,0.0,1.0,1.0,0.0,-1.0]" : 0.8352056241030482,
    "[0.0,-1.0,0.0,-1.0,0.0,1.0,0.0,1.0,1.0]" : 0.8328857389155541,
    "[1.0,0.0,0.0,0.0,0.0,0.0,-1.0,0.0,1.0]" : 0.831493201811708,
    "[1.0,1.0,0.0,0.0,0.0,-1.0,-1.0,1.0,0.0]" : 0.8290463657319926,
    "[0.0,1.0,-1.0,-1.0,0.0,-1.0,1.0,1.0,1.0]" : 0.8281955420970917,
    "[1.0,1.0,1.0,-1.0,0.0,-1.0,-1.0,1.0,0.0]" : 0.8281955420970917,
    "[0.0,0.0,0.0,1.0,1.0,0.0,0.0,-1.0,0.0]" : 0.8275690501188189,
    "[-1.0,0.0,0.0,0.0,0.0,0.0,1.0,1.0,0.0]" : 0.8238043294405366,
    "[0.0,1.0,1.0,0.0,0.0,0.0,0.0,0.0,-1.0]" : 0.8222052693599363,
    "[1.0,1.0,0.0,-1.0,0.0,0.0,-1.0,0.0,0.0]" : 0.821899431806405,
    "[1.0,0.0,1.0,0.0,0.0,0.0,0.0,-1.0,0.0]" : 0.8192853610201589,
    "[1.0,0.0,0.0,0.0,0.0,0.0,1.0,0.0,-1.0]" : 0.8184753353580088,
    "[1.0,0.0,0.0,-1.0,1.0,0.0,0.0,0.0,0.0]" : 0.8183441590958309,
    "[-1.0,0.0,0.0,-1.0,0.0,0.0,1.0,0.0,1.0]" : 0.8179470383506169,
    "[0.0,0.0,1.0,0.0,1.0,-1.0,0.0,0.0,0.0]" : 0.8150821509206868,
    "[0.0,1.0,1.0,0.0,0.0,-1.0,0.0,0.0,-1.0]" : 0.8144816164867237,
    "[0.0,0.0,0.0,-1.0,1.0,-1.0,0.0,0.0,1.0]" : 0.8140121233822626,
    "[1.0,0.0,-1.0,0.0,0.0,0.0,0.0,0.0,1.0]" : 0.8119175735034847,
    "[0.0,0.0,-1.0,0.0,0.0,-1.0,0.0,1.0,1.0]" : 0.8110742131983694,
    "[0.0,0.0,-1.0,0.0,0.0,0.0,1.0,0.0,1.0]" : 0.809734468679969,
    "[-1.0,0.0,1.0,0.0,0.0,1.0,0.0,0.0,0.0]" : 0.8096249093641293,
    "[0.0,-1.0,1.0,0.0,0.0,0.0,0.0,0.0,1.0]" : 0.8085411587891509,
    "[0.0,0.0,0.0,0.0,0.0,1.0,0.0,-1.0,1.0]" : 0.8083613363811651,
    "[-1.0,0.0,1.0,0.0,0.0,0.0,1.0,0.0,0.0]" : 0.8048194530975961,
    "[0.0,1.0,1.0,0.0,0.0,-1.0,0.0,0.0,0.0]" : 0.8038648889350694,
    "[-1.0,1.0,0.0,-1.0,0.0,-1.0,1.0,1.0,1.0]" : 0.8036520481109619,
    "[0.0,0.0,0.0,0.0,1.0,1.0,0.0,-1.0,0.0]" : 0.8030999707367767,
    "[0.0,-1.0,0.0,0.0,1.0,0.0,1.0,0.0,0.0]" : 0.8025775678240609,
    "[0.0,0.0,0.0,-1.0,1.0,-1.0,0.0,1.0,0.0]" : 0.8021601224142917,
    "[1.0,0.0,-1.0,1.0,0.0,0.0,0.0,0.0,0.0]" : 0.8020139376318822,
    "[1.0,0.0,0.0,0.0,1.0,-1.0,0.0,0.0,0.0]" : 0.8015171096529466,
    "[0.0,-1.0,0.0,-1.0,0.0,0.0,1.0,0.0,1.0]" : 0.8013989996041239,
    "[1.0,0.0,1.0,0.0,0.0,-1.0,0.0,-1.0,0.0]" : 0.801030669559627,
    "[0.0,-1.0,1.0,-1.0,0.0,0.0,0.0,0.0,1.0]" : 0.8008960445576229,
    "[1.0,-1.0,-1.0,1.0,0.0,0.0,0.0,0.0,0.0]" : 0.8005008013359193,
    "[0.0,1.0,0.0,-1.0,1.0,-1.0,0.0,0.0,0.0]" : 0.8004814325567514,
    "[0.0,0.0,0.0,-1.0,1.0,0.0,0.0,0.0,1.0]" : 0.800284107146241,
    "[0.0,0.0,1.0,-1.0,1.0,-1.0,0.0,0.0,0.0]" : 0.7999872895862304,
    "[1.0,-1.0,-1.0,0.0,0.0,0.0,1.0,0.0,0.0]" : 0.7997729060598762,
