{
  "Metadata" : {
    "Seed" : 1688053556164,
    "Alpha" : 0.25,
    "Gamma" : 0.25,
    "Epsilon" : 0.3499999940395355,
    "Solver" : "Q_LEARNING",
    "Heuristic" : "players.heuristics.WinOnlyHeuristic",
    "QWeightsDataStructure" : "players.rl.QWDSTabular",
    "RLFeatureVector" : "games.tictactoe.TicTacToeStateVector",
    "NGamesTotal" : 4788,
    "NGamesWithTheseSettings" : 2394,
    "ContinuedFrom" : {
      "Seed" : 1688053524535,
      "NGamesTotal" : 2394,
      "NGamesWithTheseSettings" : 2394,
      "ContinuedFrom" : null
    }
  },
  "Weights" : {
    "[1.0,0.0,1.0,-1.0,-1.0,1.0,-1.0,0.0,0.0]" : 1.225364269441343,
    "[1.0,1.0,0.0,0.0,1.0,-1.0,-1.0,0.0,0.0]" : 1.2107179729500785,
    "[0.0,-1.0,0.0,0.0,1.0,1.0,0.0,-1.0,1.0]" : 1.1961554293520749,
    "[1.0,0.0,1.0,-1.0,0.0,0.0,-1.0,0.0,1.0]" : 1.184028571471572,
    "[1.0,0.0,-1.0,-1.0,0.0,0.0,1.0,0.0,1.0]" : 1.1811461187899113,
    "[1.0,0.0,1.0,-1.0,0.0,0.0,1.0,-1.0,0.0]" : 1.1808125358074903,
    "[1.0,0.0,0.0,1.0,0.0,-1.0,0.0,-1.0,1.0]" : 1.1807405687868595,
    "[1.0,0.0,1.0,0.0,0.0,-1.0,1.0,-1.0,0.0]" : 1.1764196809381247,
    "[0.0,-1.0,1.0,0.0,1.0,0.0,-1.0,-1.0,1.0]" : 1.1719421720646324,
    "[1.0,-1.0,-1.0,1.0,1.0,0.0,0.0,-1.0,0.0]" : 1.1705592721700668,
    "[0.0,0.0,-1.0,1.0,-1.0,0.0,1.0,1.0,0.0]" : 1.1654862761497498,
    "[1.0,0.0,1.0,-1.0,0.0,0.0,-1.0,-1.0,1.0]" : 1.1636935505084693,
    "[1.0,0.0,1.0,0.0,0.0,-1.0,1.0,-1.0,-1.0]" : 1.1624696585349739,
    "[0.0,0.0,1.0,-1.0,1.0,0.0,0.0,-1.0,1.0]" : 1.159202665090561,
    "[1.0,-1.0,0.0,1.0,0.0,1.0,0.0,0.0,-1.0]" : 1.1585681772153293,
    "[1.0,1.0,0.0,-1.0,0.0,0.0,-1.0,0.0,1.0]" : 1.1582658113911748,
    "[1.0,0.0,0.0,-1.0,1.0,-1.0,1.0,0.0,0.0]" : 1.1575909374805828,
    "[1.0,0.0,1.0,0.0,0.0,-1.0,-1.0,-1.0,1.0]" : 1.1554108932614326,
    "[-1.0,0.0,0.0,0.0,1.0,-1.0,1.0,0.0,1.0]" : 1.1552977375686169,
    "[0.0,1.0,-1.0,-1.0,1.0,-1.0,0.0,0.0,1.0]" : 1.1506957709789276,
    "[0.0,1.0,1.0,0.0,0.0,-1.0,-1.0,1.0,-1.0]" : 1.1492864545434713,
    "[1.0,1.0,0.0,1.0,-1.0,0.0,0.0,0.0,-1.0]" : 1.1488997638225555,
    "[1.0,-1.0,1.0,-1.0,1.0,-1.0,0.0,0.0,0.0]" : 1.142281211912632,
    "[0.0,-1.0,0.0,-1.0,0.0,1.0,1.0,0.0,1.0]" : 1.1332788467407227,
    "[-1.0,0.0,0.0,-1.0,-1.0,1.0,1.0,0.0,1.0]" : 1.129835735890083,
    "[-1.0,-1.0,1.0,0.0,1.0,1.0,0.0,-1.0,0.0]" : 1.1288346946239471,
    "[1.0,-1.0,-1.0,1.0,1.0,0.0,-1.0,0.0,0.0]" : 1.1286150217056274,
    "[1.0,0.0,-1.0,1.0,1.0,0.0,0.0,-1.0,0.0]" : 1.1281376697006635,
    "[1.0,0.0,1.0,0.0,-1.0,0.0,-1.0,0.0,1.0]" : 1.113995909690857,
    "[-1.0,0.0,0.0,0.0,1.0,0.0,1.0,1.0,-1.0]" : 1.1139451227705877,
    "[0.0,0.0,-1.0,0.0,1.0,1.0,-1.0,0.0,1.0]" : 1.1110315322875977,
    "[1.0,1.0,-1.0,0.0,1.0,0.0,-1.0,0.0,0.0]" : 1.1077412609458541,
    "[-1.0,0.0,0.0,-1.0,1.0,-1.0,1.0,0.0,1.0]" : 1.1032749885052908,
    "[1.0,-1.0,0.0,1.0,1.0,0.0,0.0,-1.0,0.0]" : 1.0982320475873166,
    "[0.0,0.0,1.0,-1.0,1.0,-1.0,0.0,-1.0,1.0]" : 1.09271901845932,
    "[-1.0,-1.0,1.0,0.0,1.0,0.0,0.0,-1.0,1.0]" : 1.0926176309585571,
    "[0.0,1.0,1.0,0.0,1.0,-1.0,-1.0,0.0,0.0]" : 1.0889387130737305,
    "[0.0,0.0,-1.0,0.0,1.0,1.0,-1.0,-1.0,1.0]" : 1.0873165130615234,
    "[1.0,-1.0,-1.0,0.0,1.0,0.0,1.0,-1.0,0.0]" : 1.0826526880264282,
    "[-1.0,0.0,0.0,1.0,1.0,0.0,-1.0,1.0,-1.0]" : 1.0824963194318116,
    "[0.0,1.0,1.0,-1.0,1.0,0.0,0.0,0.0,-1.0]" : 1.0803642272949219,
    "[1.0,0.0,1.0,-1.0,0.0,1.0,-1.0,0.0,0.0]" : 1.080270660109818,
    "[-1.0,-1.0,1.0,1.0,1.0,0.0,0.0,0.0,-1.0]" : 1.0764318406581879,
    "[1.0,0.0,1.0,0.0,1.0,-1.0,0.0,0.0,-1.0]" : 1.074345010012621,
    "[0.0,-1.0,0.0,-1.0,1.0,1.0,0.0,-1.0,1.0]" : 1.0721759796142578,
    "[0.0,-1.0,0.0,1.0,1.0,0.0,-1.0,0.0,1.0]" : 1.0627903938293457,
    "[1.0,-1.0,1.0,-1.0,0.0,0.0,-1.0,0.0,1.0]" : 1.0529026985168457,
    "[0.0,1.0,-1.0,0.0,1.0,-1.0,-1.0,0.0,1.0]" : 1.0488182306289673,
    "[0.0,-1.0,1.0,-1.0,1.0,1.0,0.0,0.0,0.0]" : 1.047623222693801,
    "[-1.0,0.0,1.0,0.0,-1.0,0.0,0.0,1.0,1.0]" : 1.0442123413085938,
    "[0.0,1.0,0.0,-1.0,1.0,0.0,1.0,0.0,-1.0]" : 1.0423583984375,
    "[0.0,0.0,-1.0,-1.0,1.0,0.0,0.0,1.0,1.0]" : 1.0406203269958496,
    "[0.0,-1.0,0.0,-1.0,1.0,-1.0,1.0,0.0,1.0]" : 1.0405044555664062,
    "[0.0,-1.0,1.0,1.0,0.0,-1.0,1.0,0.0,-1.0]" : 1.038187026977539,
    "[-1.0,0.0,0.0,1.0,0.0,1.0,0.0,-1.0,1.0]" : 1.0371987503021955,
    "[-1.0,0.0,0.0,-1.0,1.0,0.0,1.0,1.0,-1.0]" : 1.0355026721954346,
    "[1.0,-1.0,0.0,0.0,1.0,-1.0,1.0,-1.0,0.0]" : 1.029998779296875,
    "[-1.0,1.0,-1.0,-1.0,0.0,0.0,1.0,1.0,0.0]" : 1.0285568237304688,
    "[0.0,-1.0,0.0,0.0,1.0,0.0,1.0,-1.0,1.0]" : 1.0282608953749937,
    "[0.0,0.0,1.0,-1.0,1.0,1.0,0.0,-1.0,0.0]" : 1.0215997099876404,
    "[0.0,0.0,1.0,0.0,-1.0,1.0,0.0,-1.0,1.0]" : 0.9991080966421748,
    "[-1.0,0.0,1.0,0.0,1.0,-1.0,0.0,1.0,-1.0]" : 0.9974871873855591,
    "[-1.0,-1.0,1.0,0.0,1.0,1.0,0.0,0.0,-1.0]" : 0.9964443445205688,
    "[1.0,0.0,1.0,-1.0,-1.0,1.0,-1.0,-1.0,1.0]" : 0.993318269494921,
    "[0.0,0.0,1.0,0.0,-1.0,1.0,-1.0,0.0,1.0]" : 0.993318269494921,
    "[1.0,0.0,0.0,1.0,-1.0,-1.0,1.0,0.0,0.0]" : 0.993318269494921,
    "[1.0,1.0,1.0,0.0,0.0,0.0,-1.0,0.0,-1.0]" : 0.9881213679909706,
    "[0.0,-1.0,1.0,0.0,-1.0,1.0,0.0,0.0,1.0]" : 0.9881213679909706,
    "[0.0,1.0,-1.0,0.0,1.0,0.0,0.0,1.0,-1.0]" : 0.9881213679909706,
    "[0.0,0.0,0.0,1.0,1.0,1.0,-1.0,0.0,-1.0]" : 0.9881213679909706,
    "[1.0,0.0,-1.0,1.0,1.0,0.0,-1.0,-1.0,1.0]" : 0.9881213679909706,
    "[1.0,0.0,0.0,1.0,1.0,-1.0,1.0,-1.0,-1.0]" : 0.9881213679909706,
    "[1.0,1.0,1.0,-1.0,-1.0,0.0,0.0,0.0,0.0]" : 0.9881213679909706,
    "[1.0,-1.0,1.0,0.0,1.0,-1.0,-1.0,-1.0,1.0]" : 0.9881213679909706,
    "[0.0,-1.0,0.0,0.0,1.0,1.0,-1.0,-1.0,1.0]" : 0.9880404472351074,
    "[0.0,-1.0,0.0,1.0,-1.0,-1.0,1.0,1.0,0.0]" : 0.9862766265869141,
    "[1.0,0.0,1.0,1.0,-1.0,-1.0,0.0,0.0,-1.0]" : 0.9848861694335938,
    "[1.0,0.0,0.0,-1.0,0.0,1.0,-1.0,-1.0,1.0]" : 0.9848475456237793,
    "[1.0,0.0,1.0,-1.0,1.0,-1.0,1.0,-1.0,-1.0]" : 0.9841618239879608,
    "[0.0,0.0,1.0,-1.0,1.0,-1.0,1.0,0.0,-1.0]" : 0.9841618239879608,
    "[-1.0,0.0,0.0,1.0,1.0,1.0,0.0,0.0,-1.0]" : 0.9841618239879608,
    "[0.0,0.0,-1.0,1.0,1.0,-1.0,-1.0,1.0,1.0]" : 0.9841618239879608,
    "[0.0,0.0,1.0,-1.0,-1.0,1.0,0.0,0.0,1.0]" : 0.9841618239879608,
    "[-1.0,-1.0,0.0,-1.0,-1.0,1.0,1.0,1.0,1.0]" : 0.9841618239879608,
    "[1.0,1.0,1.0,0.0,-1.0,0.0,-1.0,0.0,0.0]" : 0.9841618239879608,
    "[-1.0,-1.0,1.0,-1.0,0.0,0.0,1.0,0.0,1.0]" : 0.9838047027587891,
    "[0.0,-1.0,0.0,0.0,1.0,-1.0,1.0,-1.0,1.0]" : 0.9813327789306641,
    "[0.0,-1.0,-1.0,0.0,0.0,0.0,1.0,1.0,1.0]" : 0.9788824319839478,
    "[0.0,0.0,0.0,1.0,1.0,1.0,0.0,-1.0,-1.0]" : 0.9788824319839478,
    "[-1.0,-1.0,1.0,1.0,0.0,-1.0,1.0,0.0,1.0]" : 0.9788824319839478,
    "[-1.0,-1.0,1.0,0.0,1.0,0.0,1.0,-1.0,1.0]" : 0.9788824319839478,
    "[-1.0,1.0,0.0,0.0,1.0,0.0,-1.0,1.0,0.0]" : 0.9788824319839478,
    "[1.0,-1.0,0.0,0.0,1.0,1.0,1.0,-1.0,-1.0]" : 0.9788824319839478,
    "[-1.0,0.0,1.0,0.0,-1.0,1.0,0.0,0.0,1.0]" : 0.9788824319839478,
    "[1.0,1.0,1.0,0.0,0.0,0.0,0.0,-1.0,-1.0]" : 0.9788824319839478,
    "[1.0,-1.0,1.0,-1.0,-1.0,1.0,-1.0,0.0,1.0]" : 0.9788824319839478,
    "[1.0,-1.0,1.0,-1.0,1.0,-1.0,-1.0,0.0,1.0]" : 0.9788824319839478,
    "[1.0,1.0,-1.0,0.0,1.0,0.0,-1.0,-1.0,1.0]" : 0.9788824319839478,
    "[1.0,0.0,0.0,1.0,-1.0,0.0,1.0,-1.0,0.0]" : 0.9788824319839478,
    "[1.0,0.0,-1.0,1.0,0.0,0.0,1.0,0.0,-1.0]" : 0.9788824319839478,
    "[1.0,0.0,0.0,1.0,0.0,-1.0,1.0,0.0,-1.0]" : 0.9788824319839478,
    "[1.0,0.0,1.0,-1.0,1.0,-1.0,1.0,0.0,-1.0]" : 0.9788824319839478,
    "[0.0,0.0,-1.0,1.0,1.0,0.0,0.0,-1.0,1.0]" : 0.9764274433255196,
    "[-1.0,0.0,1.0,-1.0,0.0,1.0,1.0,0.0,0.0]" : 0.9753895401954651,
    "[0.0,0.0,-1.0,0.0,-1.0,0.0,1.0,1.0,1.0]" : 0.9718432426452637,
    "[0.0,-1.0,-1.0,1.0,1.0,1.0,0.0,0.0,0.0]" : 0.9718432426452637,
    "[1.0,1.0,0.0,1.0,-1.0,-1.0,1.0,-1.0,-1.0]" : 0.9718432426452637,
    "[0.0,0.0,0.0,1.0,1.0,1.0,-1.0,-1.0,0.0]" : 0.9718432426452637,
    "[-1.0,0.0,-1.0,0.0,0.0,0.0,1.0,1.0,1.0]" : 0.9718432426452637,
    "[1.0,-1.0,0.0,0.0,1.0,-1.0,0.0,0.0,1.0]" : 0.9718432426452637,
    "[1.0,1.0,-1.0,0.0,0.0,-1.0,1.0,-1.0,1.0]" : 0.9718432426452637,
    "[-1.0,0.0,0.0,1.0,1.0,1.0,0.0,-1.0,0.0]" : 0.9718432426452637,
    "[-1.0,0.0,1.0,0.0,0.0,1.0,-1.0,-1.0,1.0]" : 0.9718432426452637,
    "[1.0,-1.0,-1.0,0.0,1.0,0.0,1.0,-1.0,1.0]" : 0.9718432426452637,
    "[-1.0,-1.0,1.0,0.0,1.0,1.0,-1.0,-1.0,1.0]" : 0.9718432426452637,
    "[-1.0,1.0,0.0,1.0,1.0,-1.0,-1.0,1.0,-1.0]" : 0.9718432426452637,
    "[1.0,0.0,0.0,1.0,-1.0,0.0,1.0,0.0,-1.0]" : 0.9718432426452637,
    "[0.0,1.0,1.0,-1.0,1.0,-1.0,-1.0,1.0,-1.0]" : 0.9718432426452637,
    "[-1.0,0.0,1.0,-1.0,1.0,-1.0,1.0,-1.0,1.0]" : 0.9718432426452637,
    "[1.0,1.0,1.0,0.0,1.0,-1.0,-1.0,0.0,-1.0]" : 0.9718432426452637,
    "[1.0,1.0,1.0,0.0,0.0,0.0,-1.0,-1.0,0.0]" : 0.9718432426452637,
    "[1.0,0.0,1.0,-1.0,1.0,-1.0,-1.0,-1.0,1.0]" : 0.9718432426452637,
    "[-1.0,0.0,-1.0,1.0,1.0,1.0,0.0,0.0,-1.0]" : 0.9718432426452637,
    "[-1.0,0.0,0.0,1.0,1.0,1.0,-1.0,0.0,-1.0]" : 0.9718432426452637,
    "[1.0,0.0,1.0,-1.0,1.0,-1.0,1.0,-1.0,0.0]" : 0.9718432426452637,
    "[1.0,0.0,0.0,-1.0,1.0,0.0,-1.0,-1.0,1.0]" : 0.9718432426452637,
    "[1.0,0.0,-1.0,1.0,-1.0,0.0,1.0,0.0,0.0]" : 0.9718432426452637,
    "[0.0,1.0,1.0,-1.0,1.0,-1.0,0.0,-1.0,0.0]" : 0.97149658203125,
    "[1.0,-1.0,0.0,0.0,0.0,1.0,-1.0,0.0,1.0]" : 0.9711704254150391,
    "[0.0,1.0,1.0,-1.0,1.0,-1.0,0.0,0.0,0.0]" : 0.9698486328125,
    "[1.0,1.0,0.0,0.0,0.0,-1.0,-1.0,0.0,1.0]" : 0.9683208465576172,
    "[1.0,0.0,1.0,-1.0,1.0,0.0,-1.0,0.0,0.0]" : 0.968274712562561,
    "[0.0,-1.0,1.0,0.0,1.0,-1.0,1.0,0.0,0.0]" : 0.9624576568603516,
    "[0.0,0.0,1.0,0.0,1.0,-1.0,1.0,-1.0,0.0]" : 0.9624576568603516,
    "[1.0,1.0,1.0,0.0,-1.0,0.0,-1.0,0.0,-1.0]" : 0.9624576568603516,
    "[-1.0,0.0,-1.0,1.0,1.0,1.0,0.0,0.0,0.0]" : 0.9624576568603516,
    "[1.0,-1.0,0.0,1.0,1.0,1.0,-1.0,-1.0,0.0]" : 0.9624576568603516,
    "[1.0,0.0,0.0,0.0,1.0,0.0,-1.0,-1.0,1.0]" : 0.9624576568603516,
    "[1.0,-1.0,-1.0,1.0,0.0,0.0,1.0,0.0,-1.0]" : 0.9624576568603516,
    "[0.0,1.0,0.0,1.0,1.0,-1.0,-1.0,1.0,-1.0]" : 0.9624576568603516,
    "[1.0,-1.0,0.0,1.0,1.0,1.0,-1.0,0.0,-1.0]" : 0.9624576568603516,
    "[0.0,-1.0,0.0,-1.0,1.0,-1.0,1.0,1.0,1.0]" : 0.9624576568603516,
    "[-1.0,-1.0,1.0,0.0,1.0,0.0,1.0,1.0,-1.0]" : 0.9624576568603516,
    "[1.0,1.0,1.0,-1.0,-1.0,1.0,-1.0,0.0,-1.0]" : 0.9624576568603516,
    "[-1.0,1.0,-1.0,-1.0,1.0,0.0,1.0,1.0,-1.0]" : 0.9624576568603516,
    "[1.0,0.0,-1.0,-1.0,1.0,1.0,-1.0,1.0,0.0]" : 0.9624576568603516,
    "[0.0,1.0,0.0,-1.0,1.0,0.0,-1.0,1.0,0.0]" : 0.9624576568603516,
    "[1.0,-1.0,1.0,0.0,0.0,-1.0,1.0,1.0,-1.0]" : 0.9624576568603516,
    "[1.0,-1.0,0.0,1.0,0.0,-1.0,1.0,0.0,0.0]" : 0.9624576568603516,
    "[-1.0,0.0,1.0,-1.0,1.0,1.0,1.0,-1.0,-1.0]" : 0.9624576568603516,
    "[1.0,1.0,1.0,0.0,-1.0,-1.0,-1.0,0.0,0.0]" : 0.9624576568603516,
    "[0.0,1.0,0.0,-1.0,1.0,-1.0,0.0,1.0,-1.0]" : 0.9624576568603516,
    "[1.0,1.0,1.0,0.0,-1.0,1.0,-1.0,-1.0,0.0]" : 0.9624576568603516,
    "[0.0,1.0,-1.0,-1.0,1.0,-1.0,1.0,0.0,1.0]" : 0.9624576568603516,
    "[1.0,-1.0,-1.0,1.0,1.0,0.0,1.0,-1.0,-1.0]" : 0.9624576568603516,
    "[1.0,1.0,-1.0,0.0,1.0,-1.0,-1.0,0.0,1.0]" : 0.9624576568603516,
    "[1.0,1.0,1.0,-1.0,-1.0,0.0,-1.0,0.0,1.0]" : 0.9624576568603516,
    "[1.0,0.0,0.0,1.0,1.0,-1.0,-1.0,-1.0,1.0]" : 0.9624576568603516,
    "[1.0,-1.0,0.0,1.0,1.0,-1.0,0.0,-1.0,1.0]" : 0.9624576568603516,
    "[1.0,-1.0,0.0,1.0,-1.0,0.0,1.0,0.0,0.0]" : 0.9624576568603516,
    "[-1.0,-1.0,0.0,1.0,1.0,1.0,-1.0,0.0,0.0]" : 0.9624576568603516,
    "[-1.0,-1.0,1.0,0.0,1.0,-1.0,1.0,1.0,-1.0]" : 0.9624576568603516,
    "[-1.0,1.0,-1.0,0.0,1.0,-1.0,-1.0,1.0,1.0]" : 0.9624576568603516,
    "[1.0,1.0,-1.0,0.0,1.0,0.0,-1.0,1.0,-1.0]" : 0.9624576568603516,
    "[1.0,0.0,-1.0,1.0,0.0,-1.0,1.0,0.0,0.0]" : 0.9624576568603516,
    "[-1.0,1.0,0.0,0.0,1.0,0.0,0.0,1.0,-1.0]" : 0.9624576568603516,
    "[1.0,1.0,1.0,0.0,-1.0,0.0,0.0,-1.0,-1.0]" : 0.9624576568603516,
    "[1.0,-1.0,-1.0,0.0,1.0,-1.0,0.0,0.0,1.0]" : 0.9624576568603516,
    "[1.0,0.0,-1.0,-1.0,1.0,-1.0,1.0,0.0,1.0]" : 0.9624576568603516,
    "[-1.0,1.0,-1.0,0.0,1.0,1.0,1.0,0.0,-1.0]" : 0.9624576568603516,
    "[1.0,-1.0,1.0,-1.0,1.0,0.0,1.0,-1.0,0.0]" : 0.9624576568603516,
    "[1.0,-1.0,1.0,0.0,0.0,0.0,1.0,0.0,-1.0]" : 0.9623018217971548,
    "[-1.0,0.0,0.0,-1.0,0.0,0.0,1.0,1.0,0.0]" : 0.9604207205120474,
    "[0.0,0.0,1.0,0.0,1.0,-1.0,1.0,0.0,-1.0]" : 0.9499435424804688,
    "[0.0,-1.0,0.0,0.0,0.0,-1.0,1.0,1.0,1.0]" : 0.9499435424804688,
    "[-1.0,1.0,0.0,-1.0,1.0,0.0,0.0,1.0,0.0]" : 0.9499435424804688,
    "[-1.0,-1.0,0.0,1.0,1.0,1.0,-1.0,1.0,-1.0]" : 0.9499435424804688,
    "[0.0,1.0,0.0,-1.0,1.0,0.0,0.0,1.0,-1.0]" : 0.9499435424804688,
    "[1.0,-1.0,0.0,1.0,1.0,-1.0,-1.0,0.0,1.0]" : 0.9499435424804688,
    "[1.0,0.0,-1.0,-1.0,1.0,-1.0,0.0,1.0,1.0]" : 0.9499435424804688,
    "[-1.0,0.0,0.0,-1.0,0.0,0.0,1.0,1.0,1.0]" : 0.9499435424804688,
    "[0.0,-1.0,1.0,-1.0,1.0,1.0,1.0,0.0,-1.0]" : 0.9499435424804688,
    "[-1.0,0.0,0.0,0.0,-1.0,0.0,1.0,1.0,1.0]" : 0.9499435424804688,
    "[0.0,1.0,0.0,0.0,1.0,0.0,-1.0,1.0,-1.0]" : 0.9499435424804688,
    "[0.0,-1.0,1.0,0.0,1.0,0.0,1.0,-1.0,-1.0]" : 0.9499435424804688,
    "[1.0,-1.0,0.0,-1.0,1.0,1.0,-1.0,-1.0,1.0]" : 0.9499435424804688,
    "[1.0,-1.0,1.0,-1.0,1.0,0.0,-1.0,-1.0,1.0]" : 0.9499435424804688,
    "[-1.0,-1.0,1.0,-1.0,-1.0,1.0,0.0,1.0,1.0]" : 0.9499435424804688,
    "[-1.0,0.0,1.0,-1.0,-1.0,1.0,1.0,-1.0,1.0]" : 0.9499435424804688,
    "[-1.0,-1.0,0.0,1.0,1.0,1.0,0.0,0.0,0.0]" : 0.9499435424804688,
    "[-1.0,-1.0,0.0,1.0,1.0,1.0,0.0,-1.0,1.0]" : 0.9499435424804688,
    "[1.0,1.0,-1.0,-1.0,1.0,0.0,-1.0,0.0,1.0]" : 0.9499435424804688,
    "[1.0,-1.0,-1.0,1.0,-1.0,0.0,1.0,1.0,-1.0]" : 0.9499435424804688,
    "[-1.0,0.0,1.0,0.0,1.0,-1.0,1.0,0.0,-1.0]" : 0.9499435424804688,
    "[1.0,0.0,-1.0,-1.0,1.0,0.0,-1.0,0.0,1.0]" : 0.9499435424804688,
    "[-1.0,1.0,0.0,0.0,1.0,-1.0,1.0,1.0,-1.0]" : 0.9499435424804688,
    "[0.0,-1.0,0.0,1.0,1.0,-1.0,1.0,-1.0,1.0]" : 0.9499435424804688,
    "[-1.0,0.0,1.0,-1.0,1.0,0.0,1.0,0.0,0.0]" : 0.9499435424804688,
    "[-1.0,1.0,1.0,0.0,1.0,-1.0,-1.0,1.0,-1.0]" : 0.9499435424804688,
    "[-1.0,-1.0,1.0,-1.0,1.0,1.0,0.0,-1.0,1.0]" : 0.9499435424804688,
    "[-1.0,0.0,0.0,1.0,1.0,1.0,-1.0,0.0,0.0]" : 0.9499435424804688,
    "[1.0,-1.0,0.0,1.0,1.0,1.0,0.0,-1.0,-1.0]" : 0.9499435424804688,
    "[-1.0,0.0,1.0,-1.0,1.0,1.0,1.0,0.0,-1.0]" : 0.9499435424804688,
    "[-1.0,1.0,-1.0,1.0,1.0,1.0,-1.0,-1.0,0.0]" : 0.9499435424804688,
    "[-1.0,-1.0,1.0,1.0,-1.0,1.0,-1.0,0.0,1.0]" : 0.9499435424804688,
    "[0.0,1.0,-1.0,0.0,1.0,-1.0,0.0,1.0,0.0]" : 0.9499435424804688,
    "[1.0,1.0,0.0,0.0,-1.0,1.0,1.0,-1.0,-1.0]" : 0.9499435424804688,
    "[-1.0,-1.0,1.0,-1.0,1.0,0.0,1.0,0.0,0.0]" : 0.9499435424804688,
    "[1.0,0.0,-1.0,1.0,1.0,1.0,-1.0,0.0,-1.0]" : 0.9499435424804688,
    "[-1.0,1.0,-1.0,0.0,1.0,0.0,0.0,1.0,0.0]" : 0.9499435424804688,
    "[-1.0,-1.0,1.0,1.0,1.0,1.0,-1.0,0.0,-1.0]" : 0.9499435424804688,
    "[1.0,1.0,1.0,0.0,-1.0,1.0,-1.0,0.0,-1.0]" : 0.9499435424804688,
    "[0.0,-1.0,-1.0,0.0,-1.0,1.0,1.0,1.0,1.0]" : 0.9499435424804688,
    "[1.0,1.0,0.0,0.0,-1.0,0.0,1.0,-1.0,-1.0]" : 0.9473669603466988,
    "[1.0,-1.0,1.0,0.0,1.0,0.0,0.0,-1.0,0.0]" : 0.9418031871318817,
    "[0.0,1.0,0.0,1.0,0.0,-1.0,1.0,-1.0,-1.0]" : 0.9387693405151367,
    "[-1.0,-1.0,1.0,-1.0,0.0,0.0,1.0,1.0,0.0]" : 0.9385890960693359,
    "[1.0,-1.0,0.0,0.0,1.0,1.0,-1.0,0.0,0.0]" : 0.9383232202671934,
    "[1.0,-1.0,-1.0,0.0,1.0,1.0,-1.0,1.0,0.0]" : 0.933258056640625,
    "[0.0,0.0,-1.0,1.0,1.0,1.0,-1.0,0.0,0.0]" : 0.933258056640625,
    "[-1.0,0.0,1.0,-1.0,1.0,1.0,1.0,-1.0,0.0]" : 0.933258056640625,
    "[0.0,0.0,0.0,0.0,-1.0,-1.0,1.0,1.0,1.0]" : 0.933258056640625,
    "[-1.0,-1.0,1.0,-1.0,1.0,1.0,1.0,0.0,-1.0]" : 0.933258056640625,
    "[1.0,-1.0,1.0,-1.0,1.0,-1.0,0.0,-1.0,1.0]" : 0.933258056640625,
    "[-1.0,-1.0,1.0,0.0,-1.0,-1.0,1.0,1.0,1.0]" : 0.933258056640625,
    "[1.0,1.0,0.0,0.0,1.0,-1.0,-1.0,-1.0,1.0]" : 0.933258056640625,
    "[-1.0,-1.0,0.0,-1.0,1.0,-1.0,1.0,1.0,1.0]" : 0.933258056640625,
    "[0.0,1.0,1.0,-1.0,-1.0,1.0,-1.0,-1.0,1.0]" : 0.933258056640625,
    "[1.0,-1.0,1.0,0.0,1.0,0.0,-1.0,-1.0,1.0]" : 0.933258056640625,
    "[-1.0,-1.0,0.0,-1.0,0.0,0.0,1.0,1.0,1.0]" : 0.933258056640625,
    "[-1.0,-1.0,0.0,1.0,1.0,1.0,-1.0,0.0,1.0]" : 0.933258056640625,
    "[0.0,-1.0,0.0,0.0,-1.0,0.0,1.0,1.0,1.0]" : 0.933258056640625,
    "[0.0,0.0,-1.0,0.0,0.0,-1.0,1.0,1.0,1.0]" : 0.933258056640625,
    "[-1.0,-1.0,1.0,0.0,1.0,1.0,0.0,1.0,-1.0]" : 0.933258056640625,
    "[1.0,1.0,0.0,-1.0,1.0,-1.0,-1.0,0.0,1.0]" : 0.933258056640625,
    "[-1.0,1.0,-1.0,-1.0,1.0,-1.0,0.0,1.0,1.0]" : 0.933258056640625,
    "[0.0,0.0,1.0,0.0,1.0,0.0,1.0,-1.0,-1.0]" : 0.933258056640625,
    "[1.0,-1.0,1.0,-1.0,1.0,-1.0,0.0,1.0,0.0]" : 0.933258056640625,
    "[1.0,1.0,-1.0,-1.0,1.0,-1.0,0.0,-1.0,1.0]" : 0.933258056640625,
    "[0.0,-1.0,-1.0,0.0,-1.0,0.0,1.0,1.0,1.0]" : 0.933258056640625,
    "[-1.0,-1.0,1.0,0.0,1.0,1.0,1.0,-1.0,-1.0]" : 0.933258056640625,
    "[-1.0,-1.0,0.0,0.0,-1.0,0.0,1.0,1.0,1.0]" : 0.933258056640625,
    "[0.0,-1.0,1.0,-1.0,1.0,1.0,0.0,-1.0,1.0]" : 0.933258056640625,
    "[0.0,0.0,-1.0,1.0,1.0,1.0,0.0,0.0,-1.0]" : 0.933258056640625,
    "[-1.0,-1.0,0.0,0.0,1.0,-1.0,1.0,1.0,1.0]" : 0.933258056640625,
    "[0.0,-1.0,1.0,0.0,1.0,-1.0,1.0,-1.0,0.0]" : 0.933258056640625,
    "[-1.0,0.0,1.0,0.0,0.0,1.0,-1.0,0.0,1.0]" : 0.933258056640625,
    "[0.0,0.0,-1.0,0.0,-1.0,-1.0,1.0,1.0,1.0]" : 0.933258056640625,
    "[-1.0,1.0,-1.0,0.0,1.0,0.0,0.0,1.0,-1.0]" : 0.933258056640625,
    "[-1.0,1.0,-1.0,1.0,1.0,1.0,0.0,-1.0,-1.0]" : 0.933258056640625,
    "[0.0,0.0,0.0,-1.0,-1.0,0.0,1.0,1.0,1.0]" : 0.933258056640625,
    "[-1.0,1.0,-1.0,-1.0,1.0,0.0,0.0,1.0,0.0]" : 0.933258056640625,
    "[-1.0,0.0,0.0,1.0,1.0,1.0,-1.0,-1.0,0.0]" : 0.933258056640625,
    "[1.0,1.0,1.0,0.0,-1.0,-1.0,0.0,0.0,0.0]" : 0.933258056640625,
    "[0.0,-1.0,1.0,-1.0,1.0,1.0,1.0,-1.0,-1.0]" : 0.933258056640625,
    "[1.0,1.0,1.0,1.0,-1.0,-1.0,-1.0,-1.0,0.0]" : 0.933258056640625,
    "[-1.0,0.0,-1.0,1.0,1.0,1.0,0.0,-1.0,1.0]" : 0.933258056640625,
    "[-1.0,0.0,1.0,0.0,-1.0,1.0,-1.0,0.0,1.0]" : 0.933258056640625,
    "[-1.0,0.0,1.0,-1.0,-1.0,1.0,0.0,0.0,1.0]" : 0.933258056640625,
    "[0.0,-1.0,-1.0,0.0,1.0,-1.0,1.0,1.0,1.0]" : 0.933258056640625,
    "[-1.0,0.0,-1.0,0.0,-1.0,0.0,1.0,1.0,1.0]" : 0.933258056640625,
    "[-1.0,0.0,-1.0,-1.0,1.0,-1.0,1.0,1.0,1.0]" : 0.933258056640625,
    "[1.0,0.0,1.0,1.0,-1.0,-1.0,1.0,-1.0,-1.0]" : 0.933258056640625,
    "[-1.0,0.0,1.0,1.0,1.0,-1.0,0.0,1.0,-1.0]" : 0.933258056640625,
    "[-1.0,0.0,1.0,0.0,1.0,-1.0,1.0,-1.0,1.0]" : 0.933258056640625,
    "[1.0,0.0,-1.0,0.0,1.0,-1.0,0.0,-1.0,1.0]" : 0.933258056640625,
    "[1.0,0.0,-1.0,1.0,-1.0,0.0,1.0,-1.0,1.0]" : 0.933258056640625,
    "[1.0,-1.0,1.0,0.0,-1.0,1.0,-1.0,0.0,1.0]" : 0.933258056640625,
    "[1.0,1.0,1.0,0.0,0.0,-1.0,1.0,-1.0,-1.0]" : 0.933258056640625,
    "[-1.0,0.0,-1.0,1.0,-1.0,0.0,1.0,1.0,1.0]" : 0.933258056640625,
    "[1.0,-1.0,-1.0,-1.0,1.0,0.0,0.0,1.0,1.0]" : 0.933258056640625,
    "[1.0,-1.0,0.0,1.0,-1.0,0.0,1.0,1.0,-1.0]" : 0.933258056640625,
    "[-1.0,0.0,-1.0,-1.0,0.0,0.0,1.0,1.0,1.0]" : 0.933258056640625,
    "[-1.0,-1.0,1.0,-1.0,1.0,0.0,1.0,1.0,-1.0]" : 0.933258056640625,
    "[1.0,-1.0,0.0,1.0,-1.0,1.0,1.0,0.0,-1.0]" : 0.933258056640625,
    "[-1.0,-1.0,1.0,-1.0,-1.0,1.0,1.0,0.0,1.0]" : 0.933258056640625,
    "[-1.0,-1.0,1.0,-1.0,1.0,1.0,1.0,0.0,0.0]" : 0.933258056640625,
    "[0.0,0.0,1.0,0.0,0.0,1.0,-1.0,-1.0,1.0]" : 0.933258056640625,
    "[-1.0,1.0,-1.0,1.0,1.0,1.0,0.0,-1.0,0.0]" : 0.933258056640625,
    "[-1.0,0.0,-1.0,1.0,1.0,1.0,-1.0,0.0,0.0]" : 0.933258056640625,
    "[1.0,0.0,0.0,-1.0,1.0,-1.0,0.0,0.0,1.0]" : 0.933258056640625,
    "[1.0,1.0,1.0,1.0,-1.0,0.0,-1.0,0.0,-1.0]" : 0.933258056640625,
    "[1.0,-1.0,0.0,-1.0,1.0,-1.0,1.0,0.0,1.0]" : 0.933258056640625,
    "[1.0,0.0,0.0,1.0,1.0,-1.0,0.0,-1.0,0.0]" : 0.9311095538919474,
    "[0.0,-1.0,0.0,1.0,1.0,0.0,1.0,0.0,-1.0]" : 0.9267638623714447,
    "[1.0,0.0,1.0,-1.0,1.0,-1.0,0.0,0.0,-1.0]" : 0.924223708017962,
    "[0.0,0.0,-1.0,-1.0,1.0,0.0,1.0,1.0,0.0]" : 0.9231853485107422,
    "[1.0,0.0,-1.0,1.0,0.0,0.0,0.0,-1.0,1.0]" : 0.9215141534805298,
    "[1.0,-1.0,0.0,-1.0,1.0,-1.0,1.0,0.0,0.0]" : 0.9164447784423828,
    "[-1.0,-1.0,1.0,1.0,1.0,0.0,0.0,-1.0,0.0]" : 0.916390061378479,
    "[-1.0,1.0,0.0,0.0,1.0,-1.0,1.0,0.0,0.0]" : 0.9150529652833939,
    "[0.0,-1.0,0.0,-1.0,1.0,1.0,0.0,0.0,1.0]" : 0.9132003784179688,
    "[1.0,-1.0,1.0,-1.0,1.0,0.0,0.0,0.0,0.0]" : 0.9115197062492371,
    "[1.0,-1.0,0.0,-1.0,1.0,0.0,0.0,0.0,1.0]" : 0.9110107421875,
    "[1.0,-1.0,-1.0,0.0,1.0,1.0,1.0,-1.0,0.0]" : 0.9110107421875,
    "[1.0,-1.0,1.0,-1.0,0.0,1.0,-1.0,0.0,1.0]" : 0.9110107421875,
    "[1.0,-1.0,-1.0,1.0,1.0,0.0,-1.0,1.0,0.0]" : 0.9110107421875,
    "[1.0,-1.0,0.0,1.0,1.0,0.0,1.0,-1.0,-1.0]" : 0.9110107421875,
    "[1.0,0.0,-1.0,1.0,1.0,-1.0,0.0,-1.0,1.0]" : 0.9110107421875,
    "[0.0,1.0,-1.0,0.0,1.0,1.0,-1.0,1.0,-1.0]" : 0.9110107421875,
    "[1.0,1.0,1.0,-1.0,1.0,0.0,-1.0,0.0,-1.0]" : 0.9110107421875,
    "[-1.0,1.0,1.0,-1.0,-1.0,1.0,0.0,-1.0,1.0]" : 0.9110107421875,
    "[-1.0,0.0,0.0,-1.0,1.0,-1.0,1.0,1.0,1.0]" : 0.9110107421875,
    "[1.0,1.0,1.0,0.0,-1.0,-1.0,-1.0,0.0,1.0]" : 0.9110107421875,
    "[1.0,-1.0,-1.0,1.0,1.0,-1.0,0.0,-1.0,1.0]" : 0.9110107421875,
    "[1.0,0.0,-1.0,-1.0,-1.0,0.0,1.0,1.0,1.0]" : 0.9110107421875,
    "[1.0,0.0,-1.0,0.0,-1.0,-1.0,1.0,1.0,1.0]" : 0.9110107421875,
    "[-1.0,0.0,0.0,1.0,1.0,1.0,0.0,-1.0,-1.0]" : 0.9110107421875,
    "[-1.0,0.0,-1.0,-1.0,0.0,1.0,1.0,1.0,1.0]" : 0.9110107421875,
    "[1.0,1.0,1.0,-1.0,1.0,0.0,-1.0,-1.0,0.0]" : 0.9110107421875,
    "[-1.0,0.0,1.0,1.0,1.0,0.0,1.0,-1.0,-1.0]" : 0.9110107421875,
    "[1.0,0.0,-1.0,1.0,1.0,-1.0,-1.0,0.0,1.0]" : 0.9110107421875,
    "[-1.0,0.0,-1.0,1.0,1.0,1.0,-1.0,-1.0,1.0]" : 0.9110107421875,
    "[0.0,-1.0,0.0,-1.0,-1.0,1.0,1.0,1.0,1.0]" : 0.9110107421875,
    "[1.0,1.0,1.0,-1.0,1.0,-1.0,-1.0,0.0,-1.0]" : 0.9110107421875,
    "[0.0,-1.0,1.0,-1.0,1.0,1.0,-1.0,0.0,1.0]" : 0.9110107421875,
    "[1.0,-1.0,-1.0,-1.0,1.0,0.0,1.0,0.0,1.0]" : 0.9110107421875,
    "[-1.0,1.0,1.0,0.0,1.0,0.0,1.0,-1.0,-1.0]" : 0.9110107421875,
    "[-1.0,0.0,-1.0,1.0,1.0,1.0,-1.0,0.0,1.0]" : 0.9110107421875,
    "[1.0,0.0,-1.0,0.0,1.0,-1.0,1.0,-1.0,1.0]" : 0.9110107421875,
    "[0.0,1.0,-1.0,0.0,1.0,0.0,-1.0,1.0,-1.0]" : 0.9110107421875,
    "[1.0,1.0,1.0,-1.0,-1.0,0.0,0.0,-1.0,0.0]" : 0.9110107421875,
    "[-1.0,0.0,1.0,0.0,-1.0,-1.0,1.0,1.0,1.0]" : 0.9110107421875,
    "[1.0,-1.0,1.0,-1.0,1.0,0.0,1.0,-1.0,-1.0]" : 0.9110107421875,
    "[0.0,-1.0,1.0,0.0,1.0,-1.0,1.0,0.0,-1.0]" : 0.9110107421875,
    "[0.0,1.0,1.0,-1.0,1.0,0.0,1.0,-1.0,-1.0]" : 0.9110107421875,
    "[0.0,-1.0,1.0,1.0,-1.0,-1.0,1.0,1.0,0.0]" : 0.9110107421875,
    "[0.0,-1.0,-1.0,1.0,1.0,1.0,0.0,-1.0,1.0]" : 0.9110107421875,
    "[1.0,0.0,1.0,0.0,-1.0,1.0,-1.0,-1.0,1.0]" : 0.9110107421875,
    "[1.0,0.0,0.0,-1.0,1.0,0.0,0.0,-1.0,1.0]" : 0.9110107421875,
    "[-1.0,-1.0,1.0,0.0,1.0,1.0,-1.0,0.0,1.0]" : 0.9110107421875,
    "[1.0,0.0,-1.0,-1.0,1.0,1.0,-1.0,-1.0,1.0]" : 0.9110107421875,
    "[1.0,-1.0,1.0,-1.0,1.0,-1.0,1.0,0.0,-1.0]" : 0.9110107421875,
    "[-1.0,-1.0,0.0,-1.0,1.0,0.0,1.0,1.0,1.0]" : 0.9110107421875,
    "[1.0,-1.0,-1.0,-1.0,1.0,-1.0,1.0,0.0,1.0]" : 0.9110107421875,
    "[-1.0,-1.0,1.0,0.0,1.0,-1.0,1.0,-1.0,1.0]" : 0.9110107421875,
    "[1.0,1.0,1.0,-1.0,-1.0,0.0,1.0,-1.0,0.0]" : 0.9110107421875,
    "[0.0,-1.0,0.0,-1.0,-1.0,0.0,1.0,1.0,1.0]" : 0.9110107421875,
    "[-1.0,0.0,1.0,0.0,0.0,1.0,0.0,-1.0,1.0]" : 0.9110107421875,
    "[1.0,-1.0,0.0,-1.0,1.0,-1.0,1.0,-1.0,1.0]" : 0.9110107421875,
    "[1.0,-1.0,1.0,1.0,-1.0,0.0,1.0,0.0,-1.0]" : 0.9110107421875,
    "[-1.0,1.0,0.0,-1.0,1.0,-1.0,0.0,1.0,0.0]" : 0.9110107421875,
    "[0.0,1.0,0.0,0.0,1.0,-1.0,0.0,1.0,-1.0]" : 0.9110107421875,
    "[1.0,1.0,1.0,0.0,1.0,-1.0,0.0,-1.0,-1.0]" : 0.9110107421875,
    "[-1.0,-1.0,0.0,1.0,-1.0,-1.0,1.0,1.0,1.0]" : 0.9110107421875,
    "[1.0,0.0,-1.0,1.0,-1.0,-1.0,1.0,0.0,0.0]" : 0.9110107421875,
    "[1.0,-1.0,1.0,0.0,1.0,0.0,1.0,-1.0,-1.0]" : 0.9110107421875,
    "[1.0,-1.0,0.0,1.0,-1.0,-1.0,1.0,0.0,0.0]" : 0.9110107421875,
    "[1.0,-1.0,1.0,0.0,1.0,-1.0,1.0,-1.0,-1.0]" : 0.9110107421875,
    "[-1.0,0.0,0.0,-1.0,-1.0,0.0,1.0,1.0,1.0]" : 0.9110107421875,
    "[-1.0,0.0,1.0,1.0,1.0,1.0,-1.0,0.0,-1.0]" : 0.9110107421875,
    "[0.0,0.0,1.0,-1.0,1.0,-1.0,1.0,-1.0,1.0]" : 0.9110107421875,
    "[-1.0,0.0,-1.0,-1.0,-1.0,1.0,1.0,1.0,1.0]" : 0.9110107421875,
    "[-1.0,0.0,-1.0,1.0,1.0,1.0,1.0,-1.0,-1.0]" : 0.9110107421875,
    "[1.0,0.0,1.0,-1.0,1.0,0.0,1.0,-1.0,-1.0]" : 0.9110107421875,
    "[0.0,0.0,-1.0,1.0,1.0,1.0,-1.0,0.0,-1.0]" : 0.9110107421875,
    "[-1.0,1.0,1.0,0.0,-1.0,1.0,-1.0,-1.0,1.0]" : 0.9110107421875,
    "[1.0,0.0,-1.0,1.0,-1.0,-1.0,1.0,1.0,0.0]" : 0.9110107421875,
    "[1.0,-1.0,1.0,-1.0,1.0,0.0,1.0,0.0,-1.0]" : 0.9110107421875,
    "[-1.0,1.0,-1.0,0.0,1.0,0.0,1.0,1.0,-1.0]" : 0.9110107421875,
    "[1.0,1.0,1.0,1.0,-1.0,0.0,-1.0,-1.0,0.0]" : 0.9110107421875,
    "[1.0,1.0,1.0,0.0,0.0,-1.0,0.0,-1.0,0.0]" : 0.9110107421875,
    "[1.0,1.0,1.0,-1.0,0.0,-1.0,0.0,0.0,0.0]" : 0.9110107421875,
    "[1.0,0.0,0.0,1.0,0.0,0.0,1.0,-1.0,-1.0]" : 0.9110107421875,
    "[-1.0,1.0,0.0,1.0,1.0,1.0,-1.0,-1.0,0.0]" : 0.9110107421875,
    "[-1.0,-1.0,1.0,-1.0,0.0,1.0,1.0,0.0,0.0]" : 0.906402587890625,
    "[-1.0,0.0,1.0,0.0,0.0,-1.0,1.0,1.0,0.0]" : 0.9062423706054688,
    "[0.0,-1.0,0.0,1.0,-1.0,0.0,1.0,1.0,0.0]" : 0.9059047698974609,
    "[1.0,-1.0,-1.0,0.0,0.0,-1.0,0.0,1.0,1.0]" : 0.903106689453125,
    "[0.0,0.0,-1.0,1.0,-1.0,-1.0,1.0,0.0,1.0]" : 0.903106689453125,
    "[0.0,1.0,-1.0,0.0,1.0,1.0,0.0,0.0,-1.0]" : 0.9007892608642578,
    "[0.0,-1.0,1.0,1.0,0.0,0.0,1.0,0.0,-1.0]" : 0.899810791015625,
    "[0.0,0.0,1.0,1.0,0.0,1.0,-1.0,-1.0,0.0]" : 0.89532470703125,
    "[1.0,0.0,0.0,-1.0,1.0,-1.0,1.0,-1.0,0.0]" : 0.8947181701660156,
    "[0.0,-1.0,0.0,-1.0,-1.0,1.0,0.0,1.0,1.0]" : 0.8933277130126953,
    "[0.0,1.0,1.0,-1.0,-1.0,1.0,0.0,-1.0,0.0]" : 0.8933277130126953,
    "[1.0,1.0,0.0,-1.0,0.0,-1.0,0.0,-1.0,1.0]" : 0.8896484375,
    "[1.0,0.0,0.0,0.0,1.0,0.0,1.0,-1.0,-1.0]" : 0.8872061711590504,
    "[-1.0,-1.0,0.0,1.0,0.0,1.0,0.0,0.0,1.0]" : 0.8836660385131836,
    "[0.0,0.0,0.0,-1.0,1.0,-1.0,1.0,1.0,0.0]" : 0.883121132850647,
    "[0.0,0.0,-1.0,0.0,1.0,-1.0,1.0,0.0,1.0]" : 0.88269514485728,
    "[0.0,-1.0,0.0,0.0,1.0,-1.0,1.0,1.0,0.0]" : 0.8814537581056356,
    "[0.0,-1.0,1.0,-1.0,1.0,0.0,1.0,0.0,0.0]" : 0.88134765625,
    "[0.0,0.0,1.0,-1.0,0.0,1.0,0.0,-1.0,1.0]" : 0.88134765625,
    "[0.0,0.0,1.0,-1.0,-1.0,1.0,1.0,-1.0,1.0]" : 0.88134765625,
    "[1.0,1.0,0.0,-1.0,0.0,1.0,-1.0,-1.0,1.0]" : 0.88134765625,
    "[1.0,-1.0,-1.0,1.0,1.0,0.0,1.0,0.0,-1.0]" : 0.88134765625,
    "[1.0,-1.0,0.0,0.0,1.0,-1.0,-1.0,0.0,1.0]" : 0.88134765625,
    "[-1.0,0.0,1.0,1.0,1.0,0.0,-1.0,1.0,-1.0]" : 0.88134765625,
    "[-1.0,0.0,1.0,-1.0,1.0,0.0,1.0,0.0,-1.0]" : 0.88134765625,
    "[-1.0,1.0,0.0,-1.0,-1.0,1.0,1.0,0.0,1.0]" : 0.88134765625,
    "[0.0,-1.0,-1.0,1.0,1.0,1.0,-1.0,0.0,0.0]" : 0.88134765625,
    "[0.0,-1.0,-1.0,1.0,1.0,1.0,-1.0,1.0,-1.0]" : 0.88134765625,
    "[1.0,-1.0,-1.0,1.0,1.0,1.0,-1.0,-1.0,0.0]" : 0.88134765625,
    "[1.0,-1.0,-1.0,0.0,1.0,0.0,0.0,0.0,1.0]" : 0.88134765625,
    "[1.0,-1.0,-1.0,-1.0,1.0,1.0,0.0,-1.0,1.0]" : 0.88134765625,
    "[-1.0,0.0,1.0,-1.0,-1.0,0.0,1.0,1.0,1.0]" : 0.88134765625,
    "[1.0,0.0,0.0,1.0,-1.0,-1.0,1.0,0.0,-1.0]" : 0.88134765625,
    "[0.0,-1.0,0.0,-1.0,0.0,0.0,1.0,1.0,1.0]" : 0.88134765625,
    "[1.0,1.0,1.0,0.0,-1.0,-1.0,-1.0,-1.0,1.0]" : 0.88134765625,
    "[1.0,-1.0,-1.0,1.0,1.0,0.0,0.0,-1.0,1.0]" : 0.88134765625,
    "[1.0,1.0,1.0,-1.0,1.0,-1.0,0.0,0.0,-1.0]" : 0.88134765625,
    "[1.0,-1.0,0.0,1.0,-1.0,-1.0,1.0,1.0,-1.0]" : 0.88134765625,
    "[1.0,1.0,1.0,-1.0,-1.0,1.0,0.0,-1.0,-1.0]" : 0.88134765625,
    "[0.0,-1.0,0.0,1.0,1.0,1.0,-1.0,-1.0,1.0]" : 0.88134765625,
    "[-1.0,-1.0,1.0,-1.0,0.0,0.0,1.0,1.0,1.0]" : 0.88134765625,
    "[0.0,0.0,1.0,-1.0,-1.0,1.0,0.0,-1.0,1.0]" : 0.88134765625,
    "[1.0,1.0,1.0,-1.0,-1.0,0.0,-1.0,0.0,0.0]" : 0.88134765625,
    "[1.0,1.0,1.0,0.0,-1.0,-1.0,0.0,1.0,-1.0]" : 0.88134765625,
    "[0.0,0.0,-1.0,-1.0,-1.0,0.0,1.0,1.0,1.0]" : 0.88134765625,
    "[0.0,0.0,1.0,-1.0,1.0,-1.0,1.0,0.0,0.0]" : 0.88134765625,
    "[1.0,1.0,1.0,0.0,1.0,-1.0,-1.0,-1.0,0.0]" : 0.88134765625,
    "[1.0,0.0,-1.0,0.0,1.0,-1.0,-1.0,0.0,1.0]" : 0.88134765625,
    "[-1.0,1.0,1.0,-1.0,1.0,-1.0,0.0,1.0,-1.0]" : 0.88134765625,
    "[-1.0,1.0,1.0,-1.0,0.0,1.0,0.0,-1.0,1.0]" : 0.88134765625,
    "[1.0,-1.0,-1.0,-1.0,-1.0,0.0,1.0,1.0,1.0]" : 0.88134765625,
    "[1.0,-1.0,0.0,-1.0,1.0,-1.0,-1.0,1.0,1.0]" : 0.88134765625,
    "[1.0,0.0,1.0,1.0,-1.0,-1.0,1.0,0.0,-1.0]" : 0.88134765625,
    "[1.0,1.0,1.0,0.0,-1.0,-1.0,0.0,-1.0,0.0]" : 0.88134765625,
    "[1.0,-1.0,-1.0,1.0,-1.0,0.0,1.0,1.0,0.0]" : 0.88134765625,
    "[1.0,-1.0,1.0,-1.0,1.0,-1.0,0.0,0.0,1.0]" : 0.88134765625,
    "[1.0,0.0,-1.0,-1.0,1.0,-1.0,1.0,-1.0,1.0]" : 0.88134765625,
    "[1.0,-1.0,1.0,1.0,0.0,-1.0,1.0,-1.0,-1.0]" : 0.88134765625,
    "[0.0,1.0,-1.0,-1.0,1.0,0.0,0.0,1.0,0.0]" : 0.88134765625,
    "[-1.0,-1.0,1.0,0.0,-1.0,0.0,1.0,1.0,1.0]" : 0.88134765625,
    "[0.0,-1.0,-1.0,1.0,1.0,1.0,1.0,0.0,-1.0]" : 0.88134765625,
    "[0.0,-1.0,1.0,-1.0,-1.0,1.0,-1.0,1.0,1.0]" : 0.88134765625,
    "[1.0,1.0,1.0,0.0,-1.0,-1.0,-1.0,1.0,-1.0]" : 0.88134765625,
    "[-1.0,-1.0,0.0,1.0,1.0,1.0,1.0,-1.0,-1.0]" : 0.88134765625,
    "[-1.0,-1.0,1.0,1.0,1.0,-1.0,1.0,0.0,-1.0]" : 0.88134765625,
    "[-1.0,0.0,0.0,0.0,0.0,-1.0,1.0,1.0,1.0]" : 0.88134765625,
    "[1.0,0.0,-1.0,1.0,-1.0,-1.0,1.0,-1.0,1.0]" : 0.88134765625,
    "[1.0,1.0,1.0,0.0,0.0,-1.0,-1.0,1.0,-1.0]" : 0.88134765625,
    "[1.0,-1.0,-1.0,1.0,-1.0,-1.0,1.0,1.0,0.0]" : 0.88134765625,
    "[0.0,1.0,-1.0,-1.0,1.0,1.0,-1.0,1.0,-1.0]" : 0.88134765625,
    "[1.0,-1.0,0.0,-1.0,1.0,1.0,-1.0,0.0,1.0]" : 0.88134765625,
    "[1.0,0.0,-1.0,-1.0,1.0,0.0,1.0,-1.0,1.0]" : 0.88134765625,
    "[1.0,-1.0,-1.0,-1.0,1.0,0.0,1.0,-1.0,1.0]" : 0.88134765625,
    "[1.0,0.0,-1.0,1.0,-1.0,0.0,1.0,1.0,-1.0]" : 0.88134765625,
    "[0.0,-1.0,0.0,1.0,1.0,1.0,-1.0,-1.0,0.0]" : 0.88134765625,
    "[1.0,1.0,1.0,-1.0,-1.0,0.0,1.0,0.0,-1.0]" : 0.88134765625,
    "[1.0,1.0,1.0,0.0,-1.0,0.0,-1.0,-1.0,0.0]" : 0.88134765625,
    "[-1.0,1.0,-1.0,0.0,-1.0,0.0,1.0,1.0,1.0]" : 0.88134765625,
    "[0.0,-1.0,1.0,-1.0,-1.0,1.0,0.0,0.0,1.0]" : 0.88134765625,
    "[1.0,0.0,-1.0,1.0,1.0,1.0,0.0,-1.0,-1.0]" : 0.88134765625,
    "[-1.0,-1.0,0.0,0.0,0.0,0.0,1.0,1.0,1.0]" : 0.88134765625,
    "[1.0,-1.0,0.0,-1.0,1.0,0.0,-1.0,1.0,1.0]" : 0.88134765625,
    "[1.0,-1.0,1.0,1.0,-1.0,-1.0,1.0,0.0,-1.0]" : 0.88134765625,
    "[1.0,1.0,-1.0,-1.0,1.0,0.0,-1.0,1.0,-1.0]" : 0.88134765625,
    "[1.0,1.0,1.0,1.0,-1.0,-1.0,-1.0,0.0,0.0]" : 0.88134765625,
    "[-1.0,0.0,-1.0,0.0,-1.0,1.0,1.0,1.0,1.0]" : 0.88134765625,
    "[1.0,-1.0,-1.0,1.0,1.0,-1.0,-1.0,0.0,1.0]" : 0.88134765625,
    "[1.0,1.0,-1.0,1.0,-1.0,0.0,1.0,0.0,-1.0]" : 0.88134765625,
    "[0.0,0.0,-1.0,-1.0,0.0,0.0,1.0,1.0,1.0]" : 0.88134765625,
    "[-1.0,-1.0,1.0,0.0,1.0,0.0,1.0,-1.0,0.0]" : 0.88134765625,
    "[0.0,1.0,-1.0,0.0,1.0,0.0,-1.0,1.0,0.0]" : 0.88134765625,
    "[-1.0,1.0,-1.0,0.0,1.0,0.0,-1.0,1.0,1.0]" : 0.88134765625,
    "[0.0,1.0,0.0,0.0,1.0,-1.0,-1.0,1.0,0.0]" : 0.88134765625,
    "[1.0,1.0,1.0,-1.0,0.0,0.0,0.0,0.0,-1.0]" : 0.88134765625,
    "[0.0,1.0,-1.0,-1.0,1.0,0.0,1.0,1.0,-1.0]" : 0.88134765625,
    "[-1.0,0.0,1.0,0.0,-1.0,1.0,0.0,-1.0,1.0]" : 0.88134765625,
    "[1.0,0.0,0.0,1.0,-1.0,-1.0,1.0,-1.0,1.0]" : 0.88134765625,
    "[1.0,1.0,1.0,0.0,-1.0,-1.0,1.0,-1.0,0.0]" : 0.88134765625,
    "[1.0,1.0,1.0,1.0,-1.0,0.0,0.0,-1.0,-1.0]" : 0.88134765625,
    "[-1.0,1.0,-1.0,0.0,-1.0,-1.0,1.0,1.0,1.0]" : 0.88134765625,
    "[-1.0,1.0,-1.0,-1.0,-1.0,0.0,1.0,1.0,1.0]" : 0.88134765625,
    "[-1.0,0.0,1.0,-1.0,0.0,1.0,0.0,0.0,1.0]" : 0.88134765625,
    "[-1.0,1.0,-1.0,-1.0,1.0,-1.0,1.0,1.0,0.0]" : 0.88134765625,
    "[-1.0,0.0,-1.0,1.0,1.0,1.0,0.0,-1.0,0.0]" : 0.88134765625,
    "[0.0,1.0,-1.0,1.0,1.0,1.0,0.0,-1.0,-1.0]" : 0.88134765625,
    "[1.0,0.0,1.0,-1.0,-1.0,1.0,-1.0,1.0,0.0]" : 0.88134765625,
    "[0.0,-1.0,0.0,1.0,1.0,1.0,0.0,-1.0,-1.0]" : 0.88134765625,
    "[1.0,-1.0,-1.0,0.0,1.0,-1.0,1.0,-1.0,1.0]" : 0.88134765625,
    "[0.0,-1.0,1.0,0.0,0.0,1.0,-1.0,0.0,1.0]" : 0.88134765625,
    "[1.0,1.0,-1.0,0.0,1.0,-1.0,-1.0,-1.0,1.0]" : 0.88134765625,
    "[0.0,-1.0,0.0,1.0,0.0,1.0,-1.0,0.0,1.0]" : 0.8795613050460815,
    "[0.0,-1.0,0.0,0.0,-1.0,1.0,0.0,1.0,1.0]" : 0.872169017791748,
    "[1.0,0.0,1.0,-1.0,1.0,-1.0,-1.0,0.0,0.0]" : 0.8707943414337933,
    "[0.0,-1.0,0.0,-1.0,1.0,0.0,1.0,1.0,0.0]" : 0.8690935969352722,
    "[0.0,0.0,1.0,-1.0,0.0,1.0,1.0,-1.0,-1.0]" : 0.8628349304199219,
    "[1.0,-1.0,-1.0,0.0,1.0,1.0,0.0,-1.0,0.0]" : 0.861083984375,
    "[0.0,0.0,-1.0,1.0,-1.0,0.0,1.0,0.0,1.0]" : 0.861083984375,
    "[0.0,-1.0,1.0,0.0,1.0,1.0,0.0,0.0,-1.0]" : 0.860934853553772,
    "[0.0,0.0,0.0,-1.0,1.0,-1.0,0.0,1.0,1.0]" : 0.8558574440248776,
    "[-1.0,0.0,0.0,1.0,0.0,1.0,-1.0,0.0,1.0]" : 0.8538475036621094,
    "[-1.0,0.0,1.0,0.0,-1.0,0.0,1.0,0.0,1.0]" : 0.8465839624404907,
    "[1.0,1.0,-1.0,0.0,0.0,0.0,0.0,-1.0,1.0]" : 0.8419308494776487,
    "[-1.0,0.0,1.0,1.0,0.0,1.0,-1.0,-1.0,1.0]" : 0.841796875,
    "[1.0,-1.0,-1.0,1.0,0.0,1.0,1.0,-1.0,-1.0]" : 0.841796875,
    "[1.0,1.0,1.0,-1.0,0.0,1.0,-1.0,-1.0,0.0]" : 0.841796875,
    "[0.0,1.0,0.0,-1.0,1.0,-1.0,-1.0,1.0,1.0]" : 0.841796875,
    "[-1.0,0.0,-1.0,0.0,1.0,-1.0,1.0,1.0,1.0]" : 0.841796875,
    "[1.0,1.0,0.0,1.0,-1.0,-1.0,1.0,-1.0,0.0]" : 0.841796875,
    "[0.0,-1.0,-1.0,-1.0,-1.0,1.0,1.0,1.0,1.0]" : 0.841796875,
    "[0.0,-1.0,1.0,0.0,1.0,0.0,1.0,-1.0,0.0]" : 0.841796875,
    "[0.0,0.0,-1.0,1.0,1.0,1.0,0.0,-1.0,0.0]" : 0.841796875,
    "[1.0,0.0,-1.0,1.0,0.0,-1.0,1.0,-1.0,0.0]" : 0.841796875,
    "[0.0,1.0,-1.0,-1.0,1.0,-1.0,0.0,1.0,0.0]" : 0.841796875,
    "[-1.0,1.0,0.0,-1.0,1.0,-1.0,1.0,1.0,0.0]" : 0.841796875,
    "[1.0,0.0,1.0,-1.0,1.0,0.0,-1.0,-1.0,1.0]" : 0.841796875,
    "[0.0,-1.0,1.0,-1.0,0.0,1.0,-1.0,0.0,1.0]" : 0.841796875,
    "[-1.0,-1.0,1.0,0.0,1.0,0.0,1.0,0.0,0.0]" : 0.841796875,
    "[1.0,-1.0,-1.0,1.0,1.0,-1.0,1.0,0.0,0.0]" : 0.841796875,
    "[0.0,-1.0,1.0,-1.0,1.0,-1.0,1.0,1.0,-1.0]" : 0.841796875,
    "[1.0,1.0,1.0,-1.0,-1.0,1.0,-1.0,0.0,0.0]" : 0.841796875,
    "[-1.0,1.0,-1.0,-1.0,1.0,0.0,0.0,1.0,1.0]" : 0.841796875,
    "[0.0,-1.0,1.0,-1.0,1.0,1.0,-1.0,-1.0,1.0]" : 0.841796875,
    "[-1.0,1.0,0.0,-1.0,1.0,-1.0,0.0,1.0,1.0]" : 0.841796875,
    "[1.0,-1.0,-1.0,1.0,0.0,0.0,1.0,0.0,0.0]" : 0.841796875,
    "[1.0,1.0,1.0,-1.0,0.0,1.0,-1.0,0.0,-1.0]" : 0.841796875,
    "[1.0,-1.0,-1.0,-1.0,1.0,0.0,0.0,0.0,1.0]" : 0.841796875,
    "[1.0,-1.0,-1.0,1.0,1.0,0.0,-1.0,-1.0,1.0]" : 0.841796875,
    "[1.0,1.0,-1.0,1.0,-1.0,-1.0,1.0,0.0,0.0]" : 0.841796875,
    "[-1.0,-1.0,1.0,0.0,0.0,1.0,-1.0,0.0,1.0]" : 0.841796875,
    "[-1.0,1.0,-1.0,0.0,1.0,-1.0,0.0,1.0,0.0]" : 0.841796875,
    "[-1.0,-1.0,1.0,0.0,1.0,-1.0,1.0,0.0,0.0]" : 0.841796875,
    "[-1.0,-1.0,1.0,1.0,1.0,0.0,1.0,0.0,-1.0]" : 0.841796875,
    "[0.0,0.0,-1.0,1.0,1.0,1.0,1.0,-1.0,-1.0]" : 0.841796875,
    "[0.0,1.0,0.0,-1.0,1.0,1.0,-1.0,1.0,-1.0]" : 0.841796875,
    "[1.0,-1.0,-1.0,-1.0,1.0,0.0,-1.0,1.0,1.0]" : 0.841796875,
    "[-1.0,1.0,0.0,-1.0,1.0,-1.0,1.0,1.0,-1.0]" : 0.841796875,
    "[-1.0,-1.0,1.0,1.0,1.0,-1.0,1.0,0.0,0.0]" : 0.841796875,
    "[1.0,-1.0,-1.0,-1.0,1.0,-1.0,0.0,1.0,1.0]" : 0.841796875,
    "[1.0,1.0,-1.0,0.0,1.0,-1.0,0.0,-1.0,1.0]" : 0.841796875,
    "[0.0,-1.0,1.0,1.0,1.0,-1.0,0.0,-1.0,1.0]" : 0.841796875,
    "[1.0,1.0,-1.0,1.0,-1.0,0.0,1.0,-1.0,-1.0]" : 0.841796875,
    "[-1.0,1.0,0.0,1.0,1.0,1.0,-1.0,0.0,-1.0]" : 0.841796875,
    "[1.0,1.0,-1.0,1.0,-1.0,0.0,1.0,-1.0,0.0]" : 0.841796875,
    "[0.0,-1.0,1.0,-1.0,0.0,1.0,1.0,-1.0,1.0]" : 0.841796875,
    "[1.0,1.0,1.0,0.0,-1.0,0.0,1.0,-1.0,-1.0]" : 0.841796875,
    "[0.0,1.0,-1.0,-1.0,1.0,-1.0,-1.0,1.0,1.0]" : 0.841796875,
    "[-1.0,-1.0,1.0,1.0,1.0,0.0,1.0,-1.0,-1.0]" : 0.841796875,
    "[1.0,-1.0,-1.0,-1.0,1.0,1.0,0.0,0.0,1.0]" : 0.841796875,
    "[-1.0,-1.0,0.0,0.0,-1.0,1.0,1.0,1.0,1.0]" : 0.841796875,
    "[-1.0,-1.0,1.0,-1.0,0.0,1.0,1.0,0.0,1.0]" : 0.841796875,
    "[1.0,0.0,-1.0,-1.0,0.0,-1.0,1.0,1.0,1.0]" : 0.841796875,
    "[0.0,1.0,0.0,-1.0,1.0,-1.0,0.0,1.0,0.0]" : 0.841796875,
    "[-1.0,1.0,1.0,-1.0,1.0,0.0,1.0,0.0,-1.0]" : 0.841796875,
    "[1.0,-1.0,-1.0,-1.0,1.0,1.0,-1.0,0.0,1.0]" : 0.841796875,
    "[0.0,0.0,-1.0,1.0,1.0,1.0,-1.0,-1.0,1.0]" : 0.841796875,
    "[-1.0,-1.0,1.0,0.0,1.0,0.0,1.0,0.0,-1.0]" : 0.841796875,
    "[1.0,1.0,1.0,-1.0,-1.0,0.0,1.0,-1.0,-1.0]" : 0.841796875,
    "[0.0,-1.0,0.0,1.0,1.0,1.0,-1.0,1.0,-1.0]" : 0.841796875,
    "[-1.0,0.0,1.0,-1.0,1.0,-1.0,1.0,0.0,1.0]" : 0.841796875,
    "[-1.0,0.0,1.0,1.0,1.0,-1.0,1.0,-1.0,-1.0]" : 0.841796875,
    "[-1.0,1.0,-1.0,1.0,1.0,0.0,-1.0,1.0,0.0]" : 0.841796875,
    "[-1.0,1.0,1.0,0.0,1.0,-1.0,-1.0,1.0,0.0]" : 0.841796875,
    "[0.0,-1.0,1.0,-1.0,1.0,1.0,1.0,-1.0,0.0]" : 0.841796875,
    "[-1.0,-1.0,1.0,0.0,1.0,-1.0,1.0,1.0,0.0]" : 0.841796875,
    "[1.0,1.0,1.0,-1.0,0.0,-1.0,0.0,-1.0,1.0]" : 0.841796875,
    "[-1.0,1.0,-1.0,0.0,1.0,-1.0,1.0,1.0,0.0]" : 0.841796875,
    "[-1.0,1.0,1.0,0.0,1.0,-1.0,1.0,-1.0,0.0]" : 0.841796875,
    "[-1.0,0.0,-1.0,-1.0,1.0,0.0,1.0,1.0,1.0]" : 0.841796875,
    "[1.0,1.0,1.0,-1.0,0.0,0.0,0.0,-1.0,0.0]" : 0.841796875,
    "[0.0,1.0,-1.0,-1.0,1.0,0.0,-1.0,1.0,1.0]" : 0.841796875,
    "[1.0,1.0,-1.0,-1.0,1.0,0.0,0.0,1.0,-1.0]" : 0.841796875,
    "[-1.0,0.0,-1.0,1.0,1.0,1.0,-1.0,1.0,-1.0]" : 0.841796875,
    "[-1.0,0.0,1.0,1.0,-1.0,1.0,-1.0,0.0,1.0]" : 0.841796875,
    "[0.0,-1.0,1.0,-1.0,0.0,-1.0,1.0,1.0,1.0]" : 0.841796875,
    "[1.0,1.0,0.0,-1.0,1.0,-1.0,-1.0,1.0,-1.0]" : 0.841796875,
    "[1.0,-1.0,-1.0,1.0,1.0,1.0,-1.0,0.0,-1.0]" : 0.841796875,
    "[-1.0,1.0,-1.0,1.0,1.0,0.0,-1.0,0.0,1.0]" : 0.841796875,
    "[1.0,-1.0,-1.0,0.0,1.0,0.0,0.0,-1.0,1.0]" : 0.841796875,
    "[1.0,1.0,1.0,1.0,0.0,-1.0,-1.0,0.0,-1.0]" : 0.841796875,
    "[0.0,0.0,-1.0,-1.0,1.0,-1.0,1.0,1.0,1.0]" : 0.841796875,
    "[0.0,0.0,1.0,-1.0,1.0,1.0,1.0,-1.0,-1.0]" : 0.841796875,
    "[-1.0,-1.0,1.0,0.0,-1.0,1.0,0.0,0.0,1.0]" : 0.841796875,
    "[0.0,0.0,1.0,0.0,-1.0,1.0,-1.0,-1.0,1.0]" : 0.841796875,
    "[0.0,-1.0,1.0,1.0,1.0,-1.0,1.0,0.0,-1.0]" : 0.841796875,
    "[1.0,1.0,1.0,-1.0,0.0,0.0,1.0,-1.0,-1.0]" : 0.841796875,
    "[1.0,1.0,1.0,0.0,0.0,-1.0,-1.0,0.0,-1.0]" : 0.841796875,
    "[-1.0,1.0,-1.0,1.0,1.0,-1.0,-1.0,1.0,0.0]" : 0.841796875,
    "[1.0,1.0,1.0,-1.0,-1.0,0.0,-1.0,1.0,-1.0]" : 0.841796875,
    "[-1.0,0.0,1.0,0.0,-1.0,1.0,-1.0,1.0,1.0]" : 0.841796875,
    "[0.0,1.0,1.0,-1.0,1.0,-1.0,-1.0,1.0,0.0]" : 0.841796875,
    "[-1.0,1.0,-1.0,1.0,1.0,0.0,-1.0,1.0,-1.0]" : 0.841796875,
    "[1.0,1.0,1.0,0.0,-1.0,0.0,-1.0,1.0,-1.0]" : 0.841796875,
    "[1.0,1.0,-1.0,-1.0,1.0,0.0,-1.0,-1.0,1.0]" : 0.841796875,
    "[1.0,0.0,-1.0,-1.0,1.0,1.0,-1.0,0.0,1.0]" : 0.841796875,
    "[0.0,1.0,-1.0,1.0,1.0,0.0,-1.0,-1.0,1.0]" : 0.841796875,
    "[-1.0,-1.0,0.0,1.0,-1.0,0.0,1.0,1.0,1.0]" : 0.841796875,
    "[1.0,-1.0,-1.0,0.0,1.0,0.0,-1.0,1.0,1.0]" : 0.841796875,
    "[1.0,-1.0,1.0,-1.0,1.0,0.0,-1.0,0.0,1.0]" : 0.841796875,
    "[1.0,0.0,-1.0,1.0,-1.0,0.0,1.0,0.0,-1.0]" : 0.841796875,
    "[1.0,0.0,-1.0,1.0,0.0,-1.0,1.0,-1.0,1.0]" : 0.841796875,
    "[-1.0,1.0,0.0,1.0,1.0,0.0,1.0,-1.0,-1.0]" : 0.841796875,
    "[0.0,-1.0,-1.0,1.0,1.0,1.0,-1.0,0.0,1.0]" : 0.841796875,
    "[1.0,1.0,-1.0,-1.0,1.0,0.0,0.0,-1.0,1.0]" : 0.841796875,
    "[1.0,-1.0,1.0,0.0,0.0,1.0,-1.0,-1.0,1.0]" : 0.841796875,
    "[0.0,-1.0,0.0,0.0,-1.0,-1.0,1.0,1.0,1.0]" : 0.841796875,
    "[1.0,-1.0,0.0,-1.0,1.0,0.0,-1.0,0.0,1.0]" : 0.841796875,
    "[0.0,-1.0,-1.0,-1.0,0.0,1.0,1.0,1.0,1.0]" : 0.841796875,
    "[1.0,0.0,0.0,1.0,-1.0,-1.0,1.0,-1.0,0.0]" : 0.841796875,
    "[1.0,-1.0,-1.0,0.0,-1.0,-1.0,1.0,1.0,1.0]" : 0.841796875,
    "[-1.0,0.0,1.0,1.0,-1.0,1.0,0.0,-1.0,1.0]" : 0.841796875,
    "[0.0,1.0,0.0,-1.0,1.0,-1.0,1.0,-1.0,1.0]" : 0.841796875,
    "[1.0,0.0,1.0,-1.0,1.0,-1.0,-1.0,0.0,1.0]" : 0.841796875,
    "[-1.0,-1.0,1.0,1.0,1.0,1.0,-1.0,-1.0,0.0]" : 0.841796875,
    "[1.0,1.0,1.0,-1.0,1.0,-1.0,0.0,-1.0,0.0]" : 0.841796875,
    "[1.0,0.0,-1.0,1.0,1.0,0.0,1.0,-1.0,-1.0]" : 0.841796875,
    "[-1.0,1.0,1.0,0.0,-1.0,1.0,0.0,-1.0,1.0]" : 0.841796875,
    "[1.0,0.0,0.0,-1.0,1.0,-1.0,-1.0,0.0,1.0]" : 0.841796875,
    "[1.0,-1.0,1.0,0.0,1.0,-1.0,1.0,-1.0,0.0]" : 0.841796875,
    "[-1.0,0.0,1.0,-1.0,0.0,1.0,0.0,-1.0,1.0]" : 0.841796875,
    "[-1.0,-1.0,1.0,-1.0,1.0,1.0,1.0,-1.0,0.0]" : 0.841796875,
    "[0.0,-1.0,1.0,0.0,1.0,-1.0,1.0,1.0,-1.0]" : 0.841796875,
    "[1.0,0.0,-1.0,1.0,0.0,0.0,1.0,-1.0,0.0]" : 0.841796875,
    "[0.0,-1.0,1.0,-1.0,1.0,0.0,1.0,-1.0,0.0]" : 0.841796875,
    "[1.0,1.0,1.0,0.0,-1.0,-1.0,0.0,-1.0,1.0]" : 0.841796875,
    "[-1.0,-1.0,1.0,-1.0,1.0,-1.0,1.0,1.0,0.0]" : 0.841796875,
    "[1.0,-1.0,1.0,0.0,1.0,-1.0,1.0,0.0,-1.0]" : 0.841796875,
    "[1.0,0.0,0.0,0.0,1.0,-1.0,-1.0,0.0,1.0]" : 0.841796875,
    "[1.0,-1.0,-1.0,1.0,0.0,-1.0,1.0,0.0,0.0]" : 0.841796875,
    "[1.0,1.0,-1.0,1.0,0.0,0.0,1.0,-1.0,-1.0]" : 0.841796875,
    "[0.0,1.0,0.0,0.0,1.0,-1.0,-1.0,1.0,-1.0]" : 0.841796875,
    "[0.0,0.0,1.0,0.0,1.0,-1.0,1.0,-1.0,-1.0]" : 0.841796875,
    "[-1.0,-1.0,1.0,-1.0,-1.0,0.0,1.0,1.0,1.0]" : 0.841796875,
    "[1.0,1.0,1.0,0.0,-1.0,0.0,0.0,0.0,-1.0]" : 0.841796875,
    "[0.0,-1.0,1.0,0.0,0.0,1.0,0.0,-1.0,1.0]" : 0.841796875,
    "[-1.0,-1.0,0.0,1.0,1.0,1.0,-1.0,-1.0,1.0]" : 0.841796875,
    "[0.0,0.0,1.0,-1.0,1.0,1.0,-1.0,-1.0,1.0]" : 0.841796875,
    "[0.0,1.0,0.0,-1.0,1.0,0.0,-1.0,1.0,-1.0]" : 0.841796875,
    "[0.0,1.0,-1.0,1.0,1.0,-1.0,-1.0,1.0,0.0]" : 0.841796875,
    "[-1.0,-1.0,1.0,-1.0,0.0,1.0,1.0,-1.0,1.0]" : 0.841796875,
    "[0.0,-1.0,0.0,1.0,-1.0,-1.0,1.0,1.0,1.0]" : 0.841796875,
    "[1.0,0.0,1.0,-1.0,-1.0,1.0,0.0,-1.0,1.0]" : 0.841796875,
    "[1.0,1.0,1.0,0.0,-1.0,0.0,0.0,-1.0,0.0]" : 0.841796875,
    "[1.0,0.0,-1.0,0.0,0.0,0.0,1.0,-1.0,1.0]" : 0.839794285595417,
    "[1.0,-1.0,-1.0,0.0,1.0,0.0,1.0,0.0,0.0]" : 0.838786669075489,
    "[1.0,0.0,-1.0,0.0,-1.0,0.0,1.0,0.0,1.0]" : 0.8371107578277588,
    "[0.0,1.0,-1.0,0.0,1.0,-1.0,0.0,-1.0,1.0]" : 0.8362617492675781,
    "[-1.0,0.0,1.0,-1.0,0.0,0.0,1.0,-1.0,1.0]" : 0.8330581374466419,
    "[-1.0,1.0,-1.0,-1.0,1.0,0.0,1.0,0.0,0.0]" : 0.8292776785383467,
    "[0.0,1.0,-1.0,0.0,1.0,0.0,-1.0,0.0,1.0]" : 0.8262624740600586,
    "[-1.0,0.0,1.0,0.0,1.0,0.0,0.0,-1.0,1.0]" : 0.823676623404026,
    "[1.0,0.0,1.0,0.0,0.0,-1.0,0.0,-1.0,1.0]" : 0.8233413696289062,
    "[0.0,0.0,0.0,-1.0,1.0,-1.0,1.0,0.0,1.0]" : 0.8205507652601227,
    "[-1.0,-1.0,1.0,0.0,0.0,-1.0,1.0,1.0,0.0]" : 0.818362832069397,
    "[0.0,1.0,1.0,0.0,-1.0,0.0,0.0,-1.0,0.0]" : 0.8180666028271776,
    "[0.0,-1.0,0.0,1.0,1.0,0.0,0.0,-1.0,1.0]" : 0.8151473999023438,
    "[-1.0,1.0,0.0,0.0,0.0,1.0,-1.0,-1.0,1.0]" : 0.8151473999023438,
    "[1.0,-1.0,-1.0,0.0,0.0,0.0,0.0,1.0,1.0]" : 0.8140659332275391,
    "[1.0,-1.0,0.0,-1.0,1.0,-1.0,0.0,1.0,0.0]" : 0.8126754760742188,
    "[1.0,0.0,1.0,-1.0,1.0,-1.0,0.0,-1.0,0.0]" : 0.810821533203125,
    "[1.0,0.0,1.0,-1.0,1.0,0.0,0.0,-1.0,0.0]" : 0.8093795776367188,
    "[0.0,1.0,1.0,0.0,0.0,-1.0,1.0,-1.0,0.0]" : 0.8093795776367188,
    "[0.0,0.0,1.0,-1.0,1.0,-1.0,0.0,1.0,-1.0]" : 0.808349609375,
    "[-1.0,1.0,0.0,-1.0,0.0,0.0,1.0,1.0,0.0]" : 0.8079833984375,
    "[1.0,0.0,1.0,0.0,1.0,-1.0,-1.0,-1.0,0.0]" : 0.8074183464050293,
    "[0.0,0.0,0.0,1.0,1.0,0.0,1.0,-1.0,-1.0]" : 0.8072929382324219,
    "[0.0,0.0,0.0,0.0,1.0,1.0,1.0,-1.0,-1.0]" : 0.8052768707275391,
    "[1.0,-1.0,-1.0,1.0,0.0,0.0,0.0,0.0,1.0]" : 0.8050537109375,
    "[1.0,-1.0,0.0,-1.0,0.0,0.0,0.0,1.0,1.0]" : 0.8050537109375,
    "[0.0,0.0,1.0,-1.0,0.0,1.0,1.0,-1.0,0.0]" : 0.803131103515625,
    "[1.0,-1.0,-1.0,1.0,0.0,1.0,0.0,0.0,-1.0]" : 0.8017578125,
    "[0.0,-1.0,1.0,1.0,1.0,0.0,0.0,-1.0,0.0]" : 0.8017578125,
    "[-1.0,0.0,1.0,1.0,-1.0,0.0,0.0,0.0,1.0]" : 0.8017578125,
    "[1.0,0.0,1.0,0.0,0.0,0.0,1.0,-1.0,-1.0]" : 0.8017578125,
    "[-1.0,1.0,-1.0,1.0,0.0,1.0,-1.0,0.0,0.0]" : 0.8017578125,
    "[0.0,0.0,-1.0,1.0,1.0,0.0,1.0,-1.0,0.0]" : 0.8017578125,
    "[-1.0,-1.0,1.0,0.0,-1.0,0.0,0.0,1.0,1.0]" : 0.8007663190364838,
    "[1.0,1.0,0.0,-1.0,1.0,0.0,-1.0,0.0,0.0]" : 0.8006591796875,
    "[-1.0,0.0,1.0,1.0,0.0,1.0,0.0,-1.0,0.0]" : 0.8006591796875,
    "[-1.0,0.0,0.0,1.0,0.0,1.0,-1.0,-1.0,1.0]" : 0.8006591796875,
    "[0.0,-1.0,0.0,-1.0,0.0,1.0,1.0,1.0,0.0]" : 0.7991256713867188,
    "[0.0,1.0,1.0,0.0,0.0,0.0,-1.0,1.0,-1.0]" : 0.7991256713867188,
    "[0.0,0.0,-1.0,1.0,1.0,0.0,-1.0,-1.0,1.0]" : 0.79736328125,
    "[-1.0,1.0,0.0,0.0,1.0,1.0,0.0,0.0,-1.0]" : 0.79736328125,
    "[1.0,-1.0,-1.0,1.0,0.0,1.0,0.0,0.0,0.0]" : 0.79736328125,
    "[1.0,0.0,1.0,-1.0,0.0,1.0,0.0,-1.0,0.0]" : 0.79736328125,
    "[0.0,-1.0,0.0,-1.0,1.0,-1.0,0.0,1.0,1.0]" : 0.7942962646484375,
    "[-1.0,0.0,1.0,1.0,0.0,1.0,-1.0,0.0,0.0]" : 0.79296875,
    "[0.0,0.0,-1.0,0.0,1.0,1.0,-1.0,1.0,0.0]" : 0.79296875,
    "[1.0,-1.0,0.0,1.0,1.0,-1.0,0.0,-1.0,0.0]" : 0.79296875,
    "[0.0,0.0,-1.0,0.0,1.0,1.0,1.0,-1.0,-1.0]" : 0.7917799949645996,
    "[1.0,1.0,0.0,0.0,-1.0,0.0,1.0,0.0,-1.0]" : 0.79058837890625,
    "[1.0,-1.0,-1.0,1.0,-1.0,1.0,1.0,0.0,0.0]" : 0.7890625,
    "[0.0,1.0,-1.0,1.0,1.0,0.0,-1.0,1.0,-1.0]" : 0.7890625,
    "[-1.0,0.0,1.0,0.0,1.0,-1.0,1.0,1.0,-1.0]" : 0.7890625,
    "[-1.0,1.0,-1.0,0.0,1.0,1.0,-1.0,1.0,-1.0]" : 0.7890625,
    "[0.0,-1.0,1.0,1.0,1.0,0.0,-1.0,-1.0,1.0]" : 0.7890625,
    "[-1.0,1.0,1.0,0.0,0.0,1.0,-1.0,-1.0,1.0]" : 0.7890625,
    "[0.0,1.0,0.0,-1.0,1.0,-1.0,1.0,1.0,-1.0]" : 0.7890625,
    "[0.0,-1.0,1.0,1.0,-1.0,1.0,-1.0,0.0,1.0]" : 0.7890625,
    "[1.0,0.0,0.0,1.0,-1.0,-1.0,1.0,1.0,-1.0]" : 0.7890625,
    "[0.0,1.0,1.0,-1.0,1.0,-1.0,1.0,-1.0,-1.0]" : 0.7890625,
    "[-1.0,1.0,0.0,1.0,1.0,-1.0,0.0,1.0,-1.0]" : 0.7890625,
    "[1.0,0.0,-1.0,1.0,0.0,0.0,1.0,-1.0,-1.0]" : 0.7890625,
    "[0.0,-1.0,1.0,1.0,1.0,1.0,0.0,-1.0,-1.0]" : 0.7890625,
    "[0.0,-1.0,-1.0,0.0,0.0,-1.0,1.0,1.0,1.0]" : 0.7890625,
    "[1.0,-1.0,0.0,-1.0,0.0,1.0,-1.0,1.0,1.0]" : 0.7890625,
    "[-1.0,-1.0,1.0,0.0,1.0,1.0,1.0,-1.0,0.0]" : 0.7890625,
    "[1.0,-1.0,1.0,-1.0,1.0,-1.0,1.0,-1.0,0.0]" : 0.7890625,
    "[0.0,-1.0,1.0,0.0,-1.0,1.0,-1.0,0.0,1.0]" : 0.7890625,
    "[-1.0,1.0,1.0,1.0,1.0,-1.0,0.0,0.0,-1.0]" : 0.7890625,
    "[1.0,-1.0,-1.0,0.0,-1.0,0.0,1.0,1.0,1.0]" : 0.7890625,
    "[-1.0,-1.0,1.0,1.0,0.0,-1.0,1.0,1.0,0.0]" : 0.7890625,
    "[1.0,1.0,1.0,0.0,-1.0,-1.0,0.0,0.0,-1.0]" : 0.7890625,
    "[1.0,1.0,0.0,-1.0,1.0,0.0,-1.0,-1.0,1.0]" : 0.7890625,
    "[1.0,-1.0,-1.0,1.0,0.0,0.0,1.0,1.0,-1.0]" : 0.7890625,
    "[1.0,-1.0,0.0,-1.0,-1.0,0.0,1.0,1.0,1.0]" : 0.7890625,
    "[1.0,1.0,1.0,-1.0,0.0,-1.0,-1.0,1.0,0.0]" : 0.7890625,
    "[-1.0,1.0,1.0,-1.0,1.0,-1.0,1.0,-1.0,0.0]" : 0.7890625,
    "[-1.0,1.0,-1.0,-1.0,0.0,-1.0,1.0,1.0,1.0]" : 0.7890625,
    "[-1.0,-1.0,1.0,0.0,-1.0,1.0,-1.0,1.0,1.0]" : 0.7890625,
    "[0.0,-1.0,1.0,1.0,1.0,-1.0,1.0,-1.0,-1.0]" : 0.7890625,
    "[-1.0,1.0,1.0,0.0,1.0,-1.0,1.0,-1.0,-1.0]" : 0.7890625,
    "[-1.0,-1.0,1.0,-1.0,0.0,1.0,0.0,0.0,1.0]" : 0.7890625,
    "[0.0,0.0,-1.0,-1.0,-1.0,1.0,1.0,1.0,1.0]" : 0.7890625,
    "[1.0,0.0,1.0,-1.0,1.0,-1.0,-1.0,1.0,0.0]" : 0.7890625,
    "[0.0,-1.0,-1.0,1.0,-1.0,-1.0,1.0,1.0,1.0]" : 0.7890625,
    "[-1.0,-1.0,1.0,1.0,1.0,1.0,0.0,0.0,-1.0]" : 0.7890625,
    "[-1.0,-1.0,1.0,-1.0,1.0,1.0,0.0,0.0,1.0]" : 0.7890625,
    "[-1.0,0.0,1.0,-1.0,1.0,0.0,1.0,-1.0,1.0]" : 0.7890625,
    "[-1.0,0.0,-1.0,0.0,0.0,-1.0,1.0,1.0,1.0]" : 0.7890625,
    "[-1.0,-1.0,1.0,1.0,1.0,-1.0,1.0,-1.0,0.0]" : 0.7890625,
    "[0.0,1.0,1.0,1.0,0.0,-1.0,1.0,-1.0,-1.0]" : 0.7890625,
    "[1.0,1.0,1.0,-1.0,1.0,-1.0,-1.0,-1.0,0.0]" : 0.7890625,
    "[0.0,0.0,1.0,-1.0,-1.0,1.0,-1.0,0.0,1.0]" : 0.7890625,
    "[0.0,-1.0,1.0,-1.0,1.0,-1.0,1.0,1.0,0.0]" : 0.7890625,
    "[0.0,1.0,-1.0,-1.0,1.0,1.0,0.0,1.0,-1.0]" : 0.7890625,
    "[0.0,1.0,1.0,-1.0,1.0,0.0,-1.0,1.0,-1.0]" : 0.7890625,
    "[1.0,1.0,1.0,-1.0,0.0,0.0,-1.0,0.0,-1.0]" : 0.7890625,
    "[0.0,-1.0,1.0,-1.0,0.0,1.0,-1.0,1.0,1.0]" : 0.7890625,
    "[-1.0,-1.0,1.0,1.0,-1.0,1.0,0.0,0.0,1.0]" : 0.7890625,
    "[1.0,0.0,0.0,-1.0,1.0,-1.0,0.0,-1.0,1.0]" : 0.7890625,
    "[1.0,1.0,0.0,-1.0,1.0,-1.0,1.0,-1.0,0.0]" : 0.7890625,
    "[1.0,-1.0,-1.0,1.0,1.0,0.0,1.0,-1.0,0.0]" : 0.7890625,
    "[1.0,1.0,1.0,0.0,-1.0,-1.0,-1.0,1.0,0.0]" : 0.7890625,
    "[-1.0,0.0,1.0,1.0,1.0,-1.0,1.0,-1.0,0.0]" : 0.7890625,
    "[1.0,-1.0,-1.0,1.0,1.0,1.0,0.0,0.0,-1.0]" : 0.7890625,
    "[1.0,0.0,-1.0,1.0,-1.0,1.0,1.0,-1.0,-1.0]" : 0.7890625,
    "[1.0,-1.0,-1.0,1.0,1.0,1.0,-1.0,0.0,0.0]" : 0.7890625,
    "[-1.0,1.0,0.0,0.0,1.0,1.0,1.0,-1.0,-1.0]" : 0.7890625,
    "[0.0,0.0,1.0,1.0,1.0,-1.0,1.0,-1.0,-1.0]" : 0.7890625,
    "[1.0,-1.0,-1.0,1.0,-1.0,0.0,1.0,0.0,1.0]" : 0.7890625,
    "[1.0,1.0,1.0,1.0,-1.0,-1.0,-1.0,0.0,-1.0]" : 0.7890625,
    "[-1.0,1.0,0.0,0.0,1.0,-1.0,0.0,1.0,0.0]" : 0.7890625,
    "[1.0,-1.0,-1.0,0.0,1.0,1.0,-1.0,0.0,1.0]" : 0.7890625,
    "[1.0,1.0,0.0,-1.0,1.0,0.0,-1.0,1.0,-1.0]" : 0.7890625,
    "[1.0,-1.0,-1.0,0.0,1.0,1.0,-1.0,-1.0,1.0]" : 0.7890625,
    "[0.0,0.0,1.0,-1.0,1.0,0.0,1.0,-1.0,-1.0]" : 0.7890625,
    "[0.0,1.0,-1.0,0.0,1.0,1.0,-1.0,-1.0,1.0]" : 0.7890625,
    "[1.0,1.0,0.0,1.0,-1.0,-1.0,1.0,0.0,-1.0]" : 0.7890625,
    "[1.0,1.0,1.0,0.0,-1.0,-1.0,1.0,0.0,-1.0]" : 0.7890625,
    "[0.0,-1.0,1.0,-1.0,-1.0,0.0,1.0,1.0,1.0]" : 0.7890625,
    "[1.0,-1.0,-1.0,1.0,1.0,0.0,-1.0,0.0,1.0]" : 0.7890625,
    "[1.0,1.0,-1.0,1.0,-1.0,-1.0,1.0,-1.0,0.0]" : 0.7890625,
    "[-1.0,1.0,-1.0,-1.0,1.0,1.0,0.0,1.0,0.0]" : 0.7890625,
    "[-1.0,-1.0,0.0,1.0,1.0,1.0,0.0,-1.0,0.0]" : 0.7890625,
    "[-1.0,1.0,-1.0,1.0,1.0,1.0,-1.0,0.0,-1.0]" : 0.7890625,
    "[-1.0,-1.0,0.0,1.0,1.0,1.0,0.0,0.0,-1.0]" : 0.7890625,
    "[-1.0,0.0,0.0,-1.0,0.0,-1.0,1.0,1.0,1.0]" : 0.7890625,
    "[0.0,-1.0,0.0,1.0,1.0,1.0,0.0,0.0,-1.0]" : 0.7890625,
    "[1.0,0.0,0.0,0.0,1.0,-1.0,-1.0,-1.0,1.0]" : 0.7890625,
    "[-1.0,-1.0,0.0,1.0,1.0,1.0,1.0,0.0,-1.0]" : 0.7890625,
    "[1.0,1.0,1.0,1.0,-1.0,-1.0,0.0,-1.0,-1.0]" : 0.7890625,
    "[-1.0,0.0,1.0,1.0,1.0,1.0,0.0,-1.0,-1.0]" : 0.7890625,
    "[-1.0,1.0,-1.0,1.0,1.0,-1.0,0.0,1.0,0.0]" : 0.7890625,
    "[-1.0,0.0,1.0,-1.0,1.0,0.0,1.0,-1.0,0.0]" : 0.7890625,
    "[1.0,1.0,1.0,0.0,-1.0,1.0,0.0,-1.0,-1.0]" : 0.7890625,
    "[-1.0,-1.0,0.0,0.0,0.0,-1.0,1.0,1.0,1.0]" : 0.7890625,
    "[0.0,1.0,1.0,0.0,1.0,-1.0,1.0,-1.0,-1.0]" : 0.7890625,
    "[-1.0,0.0,-1.0,1.0,1.0,1.0,1.0,-1.0,0.0]" : 0.7890625,
    "[-1.0,0.0,1.0,-1.0,1.0,-1.0,1.0,1.0,-1.0]" : 0.7890625,
    "[0.0,-1.0,-1.0,1.0,1.0,1.0,1.0,-1.0,-1.0]" : 0.7890625,
    "[-1.0,1.0,0.0,-1.0,1.0,-1.0,1.0,0.0,1.0]" : 0.7890625,
    "[-1.0,1.0,-1.0,0.0,1.0,1.0,0.0,1.0,-1.0]" : 0.7890625,
    "[-1.0,-1.0,1.0,-1.0,1.0,-1.0,1.0,0.0,1.0]" : 0.7890625,
    "[0.0,-1.0,-1.0,1.0,1.0,1.0,-1.0,-1.0,1.0]" : 0.7890625,
    "[0.0,-1.0,1.0,-1.0,1.0,0.0,1.0,-1.0,1.0]" : 0.7890625,
    "[0.0,-1.0,-1.0,1.0,0.0,-1.0,1.0,1.0,1.0]" : 0.7890625,
    "[-1.0,0.0,0.0,0.0,-1.0,-1.0,1.0,1.0,1.0]" : 0.7890625,
    "[-1.0,1.0,0.0,1.0,1.0,-1.0,-1.0,1.0,0.0]" : 0.7890625,
    "[-1.0,0.0,-1.0,1.0,-1.0,-1.0,1.0,1.0,1.0]" : 0.7890625,
    "[1.0,0.0,-1.0,1.0,-1.0,-1.0,1.0,0.0,1.0]" : 0.7890625,
    "[1.0,-1.0,-1.0,0.0,1.0,0.0,-1.0,0.0,1.0]" : 0.7890625,
    "[-1.0,1.0,-1.0,-1.0,1.0,1.0,0.0,1.0,-1.0]" : 0.7890625,
    "[1.0,-1.0,0.0,-1.0,-1.0,1.0,0.0,1.0,1.0]" : 0.7890625,
    "[1.0,1.0,1.0,-1.0,0.0,0.0,-1.0,0.0,0.0]" : 0.7890625,
    "[-1.0,0.0,1.0,-1.0,1.0,0.0,1.0,1.0,-1.0]" : 0.7890625,
    "[-1.0,0.0,1.0,-1.0,1.0,1.0,0.0,-1.0,1.0]" : 0.7890625,
    "[-1.0,1.0,1.0,0.0,-1.0,1.0,-1.0,0.0,1.0]" : 0.7890625,
    "[0.0,0.0,-1.0,1.0,1.0,1.0,0.0,-1.0,-1.0]" : 0.7890625,
    "[-1.0,-1.0,1.0,1.0,-1.0,0.0,0.0,1.0,1.0]" : 0.7890625,
    "[1.0,1.0,1.0,-1.0,-1.0,0.0,0.0,1.0,-1.0]" : 0.7890625,
    "[1.0,-1.0,0.0,0.0,1.0,0.0,-1.0,-1.0,1.0]" : 0.7890625,
    "[1.0,-1.0,0.0,1.0,0.0,-1.0,1.0,0.0,-1.0]" : 0.7890625,
    "[-1.0,0.0,1.0,1.0,1.0,-1.0,1.0,0.0,-1.0]" : 0.7890625,
    "[1.0,-1.0,-1.0,-1.0,0.0,1.0,0.0,1.0,1.0]" : 0.7890625,
    "[1.0,0.0,-1.0,0.0,1.0,-1.0,0.0,0.0,1.0]" : 0.7890625,
    "[1.0,0.0,-1.0,1.0,0.0,-1.0,0.0,-1.0,1.0]" : 0.787109375,
    "[1.0,0.0,-1.0,0.0,1.0,-1.0,-1.0,1.0,0.0]" : 0.787109375,
    "[1.0,0.0,1.0,-1.0,-1.0,0.0,-1.0,0.0,1.0]" : 0.7846429167839233,
    "[0.0,-1.0,0.0,1.0,0.0,1.0,1.0,0.0,-1.0]" : 0.77752685546875,
    "[0.0,-1.0,0.0,0.0,1.0,1.0,1.0,-1.0,-1.0]" : 0.7757568359375,
    "[0.0,0.0,0.0,-1.0,-1.0,1.0,1.0,0.0,1.0]" : 0.775054931640625,
    "[0.0,0.0,0.0,1.0,1.0,0.0,-1.0,1.0,-1.0]" : 0.7739658355712891,
    "[0.0,-1.0,1.0,0.0,0.0,-1.0,1.0,0.0,0.0]" : 0.7727882564067841,
    "[-1.0,0.0,0.0,-1.0,1.0,0.0,1.0,0.0,1.0]" : 0.772369384765625,
    "[0.0,0.0,1.0,-1.0,0.0,1.0,1.0,0.0,-1.0]" : 0.7714424133300781,
    "[1.0,0.0,1.0,0.0,-1.0,1.0,-1.0,0.0,0.0]" : 0.7713866233825684,
    "[-1.0,0.0,1.0,0.0,0.0,-1.0,1.0,0.0,1.0]" : 0.7705389633774757,
    "[1.0,0.0,0.0,-1.0,1.0,0.0,1.0,-1.0,0.0]" : 0.769996166229248,
    "[1.0,-1.0,1.0,0.0,0.0,-1.0,-1.0,1.0,1.0]" : 0.769936203956604,
    "[-1.0,0.0,0.0,1.0,1.0,0.0,1.0,-1.0,0.0]" : 0.7697216272354126,
    "[1.0,0.0,1.0,-1.0,1.0,0.0,0.0,0.0,-1.0]" : 0.7690219879150391,
    "[0.0,0.0,0.0,1.0,-1.0,-1.0,0.0,1.0,1.0]" : 0.764404296875,
    "[-1.0,-1.0,1.0,0.0,1.0,1.0,0.0,0.0,0.0]" : 0.7642627954483032,
    "[1.0,0.0,1.0,-1.0,0.0,0.0,1.0,-1.0,-1.0]" : 0.762481689453125,
    "[1.0,0.0,1.0,1.0,0.0,-1.0,0.0,0.0,-1.0]" : 0.7611083984375,
    "[0.0,-1.0,1.0,-1.0,1.0,0.0,0.0,0.0,1.0]" : 0.76092529296875,
    "[-1.0,-1.0,1.0,0.0,0.0,0.0,1.0,1.0,0.0]" : 0.76068115234375,
    "[1.0,0.0,-1.0,0.0,1.0,0.0,-1.0,1.0,0.0]" : 0.7590785026550293,
    "[0.0,1.0,1.0,0.0,0.0,-1.0,1.0,0.0,-1.0]" : 0.7584433555603027,
    "[0.0,-1.0,0.0,0.0,1.0,1.0,0.0,0.0,-1.0]" : 0.7554954066872597,
    "[1.0,0.0,1.0,1.0,0.0,-1.0,-1.0,0.0,0.0]" : 0.754241943359375,
    "[1.0,0.0,-1.0,0.0,-1.0,0.0,1.0,0.0,0.0]" : 0.7534700668184087,
    "[1.0,0.0,1.0,1.0,-1.0,0.0,0.0,0.0,-1.0]" : 0.7498408630490303,
    "[-1.0,0.0,0.0,0.0,-1.0,1.0,0.0,1.0,1.0]" : 0.7479248046875,
    "[1.0,1.0,-1.0,-1.0,1.0,0.0,0.0,0.0,0.0]" : 0.7473742663860321,
    "[0.0,1.0,1.0,1.0,-1.0,-1.0,0.0,-1.0,0.0]" : 0.7467575073242188,
    "[1.0,1.0,0.0,0.0,1.0,-1.0,0.0,-1.0,0.0]" : 0.74665567278862,
    "[0.0,1.0,0.0,-1.0,1.0,-1.0,0.0,0.0,0.0]" : 0.7463401556015015,
    "[1.0,0.0,0.0,-1.0,1.0,0.0,-1.0,0.0,0.0]" : 0.7406123497032999,
    "[0.0,0.0,1.0,0.0,0.0,0.0,0.0,-1.0,1.0]" : 0.7370100917622224,
    "[1.0,0.0,0.0,-1.0,1.0,1.0,1.0,-1.0,-1.0]" : 0.73486328125,
    "[1.0,0.0,1.0,-1.0,0.0,0.0,1.0,0.0,-1.0]" : 0.7337027788162231,
    "[-1.0,0.0,0.0,1.0,1.0,0.0,1.0,-1.0,-1.0]" : 0.7274746894836426,
    "[-1.0,0.0,1.0,0.0,0.0,0.0,0.0,-1.0,1.0]" : 0.7258360143750906,
    "[0.0,-1.0,1.0,-1.0,0.0,0.0,0.0,1.0,1.0]" : 0.7247238159179688,
    "[0.0,1.0,1.0,-1.0,0.0,0.0,1.0,-1.0,0.0]" : 0.7196578979492188,
    "[1.0,0.0,-1.0,1.0,1.0,-1.0,-1.0,-1.0,1.0]" : 0.71875,
    "[1.0,-1.0,0.0,-1.0,1.0,1.0,1.0,-1.0,0.0]" : 0.71875,
    "[0.0,1.0,0.0,-1.0,1.0,-1.0,-1.0,1.0,0.0]" : 0.71875,
    "[1.0,-1.0,-1.0,0.0,1.0,-1.0,-1.0,1.0,1.0]" : 0.71875,
    "[1.0,-1.0,0.0,-1.0,1.0,-1.0,0.0,0.0,1.0]" : 0.71875,
    "[1.0,-1.0,-1.0,1.0,0.0,0.0,1.0,-1.0,0.0]" : 0.71875,
    "[-1.0,1.0,-1.0,1.0,1.0,0.0,0.0,1.0,-1.0]" : 0.71875,
    "[1.0,-1.0,0.0,1.0,0.0,-1.0,1.0,-1.0,1.0]" : 0.71875,
    "[-1.0,-1.0,1.0,1.0,1.0,0.0,1.0,-1.0,0.0]" : 0.71875,
    "[1.0,-1.0,0.0,1.0,0.0,0.0,1.0,-1.0,-1.0]" : 0.71875,
    "[-1.0,-1.0,1.0,-1.0,1.0,0.0,1.0,-1.0,1.0]" : 0.71875,
    "[1.0,0.0,0.0,-1.0,1.0,0.0,-1.0,0.0,1.0]" : 0.71875,
    "[1.0,-1.0,-1.0,1.0,1.0,1.0,0.0,-1.0,0.0]" : 0.71875,
    "[-1.0,0.0,-1.0,1.0,1.0,1.0,0.0,1.0,-1.0]" : 0.71875,
    "[1.0,1.0,0.0,1.0,-1.0,-1.0,0.0,-1.0,1.0]" : 0.71875,
    "[-1.0,0.0,1.0,0.0,1.0,1.0,-1.0,-1.0,1.0]" : 0.71875,
    "[-1.0,-1.0,0.0,1.0,1.0,1.0,1.0,-1.0,0.0]" : 0.71875,
    "[1.0,0.0,1.0,-1.0,1.0,-1.0,0.0,-1.0,1.0]" : 0.71875,
    "[0.0,-1.0,1.0,1.0,1.0,0.0,1.0,-1.0,-1.0]" : 0.71875,
    "[1.0,-1.0,-1.0,-1.0,0.0,-1.0,1.0,1.0,1.0]" : 0.71875,
    "[-1.0,0.0,1.0,0.0,1.0,0.0,1.0,0.0,-1.0]" : 0.71875,
    "[0.0,1.0,-1.0,-1.0,1.0,0.0,-1.0,1.0,0.0]" : 0.71875,
    "[-1.0,-1.0,0.0,1.0,1.0,1.0,-1.0,1.0,0.0]" : 0.71875,
    "[-1.0,0.0,0.0,1.0,1.0,1.0,1.0,-1.0,-1.0]" : 0.71875,
    "[1.0,0.0,0.0,1.0,-1.0,0.0,1.0,-1.0,-1.0]" : 0.71875,
    "[0.0,-1.0,1.0,-1.0,-1.0,1.0,0.0,1.0,1.0]" : 0.71875,
    "[1.0,-1.0,0.0,-1.0,0.0,-1.0,1.0,1.0,1.0]" : 0.71875,
    "[0.0,-1.0,-1.0,1.0,1.0,1.0,0.0,1.0,-1.0]" : 0.71875,
    "[0.0,-1.0,1.0,0.0,1.0,0.0,1.0,0.0,-1.0]" : 0.71875,
    "[0.0,-1.0,1.0,1.0,0.0,-1.0,1.0,1.0,-1.0]" : 0.71875,
    "[1.0,1.0,1.0,0.0,0.0,-1.0,-1.0,-1.0,1.0]" : 0.71875,
    "[-1.0,1.0,-1.0,0.0,1.0,1.0,-1.0,1.0,0.0]" : 0.71875,
    "[1.0,1.0,0.0,-1.0,1.0,-1.0,0.0,1.0,-1.0]" : 0.71875,
    "[1.0,1.0,1.0,-1.0,-1.0,0.0,0.0,0.0,-1.0]" : 0.71875,
    "[-1.0,-1.0,1.0,0.0,1.0,1.0,1.0,0.0,-1.0]" : 0.71875,
    "[1.0,1.0,1.0,-1.0,0.0,-1.0,0.0,-1.0,0.0]" : 0.71875,
    "[0.0,1.0,-1.0,-1.0,1.0,1.0,-1.0,1.0,0.0]" : 0.71875,
    "[1.0,-1.0,0.0,1.0,-1.0,-1.0,1.0,0.0,1.0]" : 0.71875,
    "[1.0,1.0,1.0,0.0,0.0,-1.0,0.0,-1.0,-1.0]" : 0.71875,
    "[1.0,1.0,1.0,0.0,0.0,-1.0,-1.0,0.0,0.0]" : 0.71875,
    "[0.0,1.0,-1.0,1.0,1.0,1.0,-1.0,-1.0,0.0]" : 0.71875,
    "[0.0,0.0,1.0,-1.0,1.0,0.0,1.0,-1.0,0.0]" : 0.71875,
    "[-1.0,-1.0,1.0,-1.0,1.0,0.0,1.0,1.0,0.0]" : 0.71875,
    "[0.0,1.0,-1.0,1.0,-1.0,-1.0,1.0,0.0,1.0]" : 0.71875,
    "[0.0,1.0,-1.0,1.0,0.0,1.0,1.0,-1.0,-1.0]" : 0.71875,
    "[1.0,-1.0,0.0,1.0,1.0,-1.0,1.0,-1.0,0.0]" : 0.71875,
    "[1.0,1.0,1.0,-1.0,1.0,-1.0,-1.0,0.0,0.0]" : 0.71875,
    "[-1.0,1.0,-1.0,1.0,1.0,1.0,0.0,0.0,-1.0]" : 0.71875,
    "[1.0,0.0,1.0,1.0,-1.0,0.0,1.0,-1.0,-1.0]" : 0.71875,
    "[1.0,0.0,-1.0,-1.0,1.0,-1.0,0.0,0.0,1.0]" : 0.71875,
    "[1.0,0.0,-1.0,0.0,1.0,0.0,-1.0,-1.0,1.0]" : 0.71875,
    "[1.0,-1.0,1.0,0.0,1.0,-1.0,0.0,-1.0,1.0]" : 0.71875,
    "[1.0,-1.0,0.0,1.0,0.0,-1.0,1.0,-1.0,0.0]" : 0.71875,
    "[-1.0,1.0,-1.0,-1.0,0.0,1.0,1.0,1.0,0.0]" : 0.71875,
    "[0.0,-1.0,1.0,-1.0,1.0,-1.0,0.0,1.0,1.0]" : 0.71875,
    "[0.0,0.0,-1.0,1.0,1.0,1.0,-1.0,-1.0,0.0]" : 0.71875,
    "[-1.0,0.0,1.0,1.0,1.0,1.0,-1.0,-1.0,0.0]" : 0.71875,
    "[1.0,0.0,-1.0,-1.0,1.0,-1.0,-1.0,1.0,1.0]" : 0.71875,
    "[-1.0,-1.0,1.0,1.0,1.0,1.0,-1.0,0.0,0.0]" : 0.71875,
    "[1.0,1.0,1.0,-1.0,0.0,0.0,-1.0,-1.0,0.0]" : 0.71875,
    "[-1.0,-1.0,1.0,0.0,0.0,-1.0,1.0,1.0,1.0]" : 0.71875,
    "[1.0,-1.0,0.0,-1.0,1.0,0.0,0.0,-1.0,1.0]" : 0.71875,
    "[1.0,1.0,1.0,-1.0,-1.0,0.0,0.0,-1.0,1.0]" : 0.71875,
    "[-1.0,-1.0,1.0,1.0,0.0,1.0,-1.0,1.0,0.0]" : 0.71875,
    "[-1.0,1.0,0.0,-1.0,1.0,1.0,0.0,1.0,-1.0]" : 0.71875,
    "[1.0,1.0,1.0,-1.0,0.0,-1.0,0.0,1.0,-1.0]" : 0.71875,
    "[1.0,-1.0,0.0,1.0,1.0,-1.0,1.0,-1.0,-1.0]" : 0.71875,
    "[1.0,-1.0,0.0,0.0,-1.0,1.0,1.0,1.0,-1.0]" : 0.71875,
    "[-1.0,0.0,1.0,0.0,1.0,1.0,1.0,-1.0,-1.0]" : 0.71875,
    "[-1.0,1.0,1.0,-1.0,1.0,0.0,1.0,-1.0,0.0]" : 0.71875,
    "[-1.0,1.0,0.0,0.0,1.0,0.0,-1.0,1.0,-1.0]" : 0.71875,
    "[-1.0,0.0,1.0,-1.0,-1.0,1.0,1.0,0.0,1.0]" : 0.71875,
    "[1.0,-1.0,1.0,1.0,1.0,-1.0,0.0,-1.0,0.0]" : 0.71875,
    "[-1.0,1.0,0.0,-1.0,1.0,0.0,1.0,1.0,-1.0]" : 0.71875,
    "[1.0,0.0,-1.0,1.0,1.0,-1.0,1.0,-1.0,0.0]" : 0.71875,
    "[-1.0,1.0,1.0,-1.0,1.0,-1.0,1.0,0.0,0.0]" : 0.71875,
    "[0.0,-1.0,-1.0,-1.0,1.0,-1.0,1.0,1.0,1.0]" : 0.71875,
    "[1.0,1.0,1.0,1.0,0.0,-1.0,-1.0,-1.0,0.0]" : 0.71875,
    "[0.0,0.0,-1.0,1.0,-1.0,-1.0,1.0,1.0,1.0]" : 0.71875,
    "[1.0,-1.0,-1.0,1.0,1.0,-1.0,0.0,0.0,1.0]" : 0.71875,
    "[0.0,0.0,-1.0,-1.0,0.0,-1.0,1.0,1.0,1.0]" : 0.71875,
    "[-1.0,-1.0,1.0,1.0,1.0,1.0,0.0,-1.0,-1.0]" : 0.71875,
    "[-1.0,-1.0,1.0,1.0,1.0,0.0,0.0,1.0,-1.0]" : 0.71875,
    "[1.0,1.0,0.0,0.0,1.0,-1.0,-1.0,1.0,-1.0]" : 0.71875,
    "[1.0,1.0,-1.0,0.0,1.0,-1.0,-1.0,1.0,0.0]" : 0.71875,
    "[1.0,1.0,1.0,-1.0,0.0,0.0,-1.0,-1.0,1.0]" : 0.71875,
    "[1.0,0.0,-1.0,-1.0,1.0,0.0,0.0,-1.0,1.0]" : 0.71875,
    "[0.0,-1.0,1.0,0.0,-1.0,-1.0,1.0,1.0,1.0]" : 0.71875,
    "[0.0,1.0,-1.0,-1.0,1.0,0.0,0.0,1.0,-1.0]" : 0.71875,
    "[1.0,1.0,-1.0,-1.0,1.0,0.0,-1.0,1.0,0.0]" : 0.71875,
    "[-1.0,-1.0,1.0,1.0,1.0,-1.0,0.0,1.0,0.0]" : 0.71875,
    "[0.0,0.0,1.0,-1.0,0.0,1.0,-1.0,0.0,1.0]" : 0.71875,
    "[1.0,-1.0,0.0,0.0,1.0,-1.0,1.0,-1.0,1.0]" : 0.71875,
    "[1.0,-1.0,-1.0,1.0,1.0,-1.0,1.0,-1.0,0.0]" : 0.71875,
    "[0.0,-1.0,-1.0,1.0,1.0,1.0,0.0,0.0,-1.0]" : 0.71875,
    "[0.0,1.0,1.0,-1.0,1.0,-1.0,1.0,0.0,-1.0]" : 0.71875,
    "[0.0,1.0,-1.0,0.0,-1.0,-1.0,1.0,1.0,1.0]" : 0.71875,
    "[1.0,1.0,1.0,-1.0,0.0,-1.0,-1.0,-1.0,1.0]" : 0.71875,
    "[-1.0,1.0,-1.0,0.0,1.0,0.0,-1.0,1.0,0.0]" : 0.71875,
    "[1.0,-1.0,-1.0,1.0,-1.0,0.0,1.0,0.0,0.0]" : 0.71875,
    "[-1.0,1.0,0.0,0.0,1.0,-1.0,-1.0,1.0,0.0]" : 0.71875,
    "[1.0,-1.0,0.0,0.0,1.0,-1.0,0.0,-1.0,1.0]" : 0.71875,
    "[1.0,-1.0,1.0,-1.0,1.0,1.0,0.0,-1.0,0.0]" : 0.71875,
    "[1.0,-1.0,0.0,1.0,0.0,0.0,1.0,-1.0,0.0]" : 0.71875,
    "[1.0,-1.0,0.0,1.0,-1.0,0.0,1.0,0.0,-1.0]" : 0.71875,
    "[0.0,1.0,-1.0,-1.0,-1.0,1.0,1.0,0.0,1.0]" : 0.71875,
    "[-1.0,0.0,1.0,1.0,-1.0,1.0,-1.0,-1.0,1.0]" : 0.71875,
    "[-1.0,0.0,-1.0,1.0,0.0,-1.0,1.0,1.0,1.0]" : 0.71875,
    "[-1.0,0.0,0.0,-1.0,-1.0,1.0,1.0,1.0,1.0]" : 0.71875,
    "[1.0,-1.0,0.0,0.0,-1.0,-1.0,1.0,1.0,1.0]" : 0.71875,
    "[0.0,1.0,1.0,1.0,-1.0,0.0,-1.0,-1.0,1.0]" : 0.71875,
    "[1.0,1.0,-1.0,-1.0,1.0,-1.0,0.0,1.0,0.0]" : 0.71875,
    "[1.0,-1.0,0.0,0.0,1.0,0.0,0.0,-1.0,1.0]" : 0.71875,
    "[0.0,-1.0,0.0,1.0,1.0,1.0,-1.0,0.0,-1.0]" : 0.71875,
    "[-1.0,1.0,0.0,0.0,-1.0,-1.0,1.0,1.0,1.0]" : 0.71875,
    "[1.0,0.0,-1.0,0.0,1.0,1.0,-1.0,1.0,-1.0]" : 0.71875,
    "[1.0,0.0,-1.0,1.0,-1.0,1.0,1.0,-1.0,0.0]" : 0.71875,
    "[0.0,-1.0,1.0,0.0,0.0,1.0,-1.0,-1.0,1.0]" : 0.71875,
    "[1.0,-1.0,1.0,1.0,0.0,-1.0,1.0,0.0,-1.0]" : 0.71875,
    "[-1.0,1.0,1.0,0.0,1.0,0.0,-1.0,1.0,-1.0]" : 0.71875,
    "[1.0,0.0,-1.0,1.0,-1.0,0.0,1.0,-1.0,0.0]" : 0.71875,
    "[-1.0,1.0,0.0,-1.0,1.0,0.0,0.0,1.0,-1.0]" : 0.71875,
    "[1.0,0.0,1.0,-1.0,0.0,1.0,-1.0,-1.0,1.0]" : 0.71875,
    "[0.0,0.0,1.0,-1.0,-1.0,1.0,-1.0,1.0,1.0]" : 0.71875,
    "[1.0,0.0,-1.0,0.0,1.0,-1.0,-1.0,1.0,1.0]" : 0.71875,
    "[1.0,0.0,0.0,1.0,0.0,-1.0,1.0,-1.0,0.0]" : 0.71875,
    "[1.0,-1.0,-1.0,1.0,-1.0,-1.0,1.0,0.0,1.0]" : 0.71875,
    "[0.0,-1.0,1.0,1.0,1.0,1.0,-1.0,0.0,-1.0]" : 0.71875,
    "[0.0,0.0,-1.0,0.0,1.0,1.0,0.0,1.0,-1.0]" : 0.7177784144878387,
    "[-1.0,0.0,1.0,0.0,1.0,1.0,0.0,0.0,-1.0]" : 0.71511221351102,
    "[-1.0,1.0,-1.0,0.0,1.0,1.0,0.0,0.0,-1.0]" : 0.7138671875,
    "[0.0,-1.0,0.0,-1.0,1.0,0.0,1.0,-1.0,1.0]" : 0.712158203125,
    "[-1.0,0.0,0.0,0.0,1.0,-1.0,0.0,1.0,1.0]" : 0.7085800170898438,
    "[-1.0,0.0,0.0,-1.0,0.0,1.0,1.0,0.0,1.0]" : 0.707916259765625,
    "[1.0,0.0,-1.0,1.0,1.0,0.0,-1.0,0.0,0.0]" : 0.7055158444177323,
    "[1.0,-1.0,0.0,-1.0,-1.0,1.0,1.0,1.0,0.0]" : 0.7027206420898438,
    "[-1.0,1.0,0.0,1.0,0.0,1.0,0.0,-1.0,0.0]" : 0.7021484375,
    "[-1.0,1.0,-1.0,0.0,0.0,1.0,0.0,1.0,0.0]" : 0.7021484375,
    "[0.0,1.0,1.0,1.0,-1.0,0.0,0.0,-1.0,0.0]" : 0.6986083984375,
    "[-1.0,1.0,1.0,0.0,1.0,0.0,0.0,0.0,-1.0]" : 0.69775390625,
    "[1.0,-1.0,1.0,-1.0,1.0,1.0,0.0,0.0,-1.0]" : 0.6953125,
    "[-1.0,1.0,0.0,1.0,0.0,1.0,-1.0,0.0,0.0]" : 0.692169189453125,
    "[1.0,-1.0,0.0,1.0,0.0,0.0,0.0,1.0,-1.0]" : 0.69189453125,
    "[0.0,-1.0,0.0,-1.0,1.0,-1.0,1.0,1.0,0.0]" : 0.69189453125,
    "[0.0,-1.0,1.0,0.0,0.0,1.0,-1.0,0.0,0.0]" : 0.691802978515625,
    "[1.0,-1.0,-1.0,1.0,0.0,0.0,0.0,0.0,0.0]" : 0.691341122461381,
    "[0.0,0.0,-1.0,0.0,1.0,0.0,-1.0,1.0,1.0]" : 0.6911133050689386,
    "[-1.0,0.0,0.0,0.0,0.0,0.0,1.0,1.0,0.0]" : 0.6885844510277036,
    "[-1.0,1.0,1.0,0.0,1.0,-1.0,0.0,0.0,0.0]" : 0.6876621246337891,
    "[1.0,-1.0,1.0,0.0,1.0,-1.0,-1.0,0.0,0.0]" : 0.685153603553772,
    "[1.0,0.0,1.0,-1.0,0.0,-1.0,1.0,-1.0,0.0]" : 0.6843714714050293,
    "[1.0,-1.0,0.0,1.0,1.0,0.0,0.0,-1.0,-1.0]" : 0.6843714714050293,
    "[1.0,0.0,-1.0,-1.0,0.0,0.0,0.0,1.0,1.0]" : 0.6843714714050293,
    "[0.0,0.0,1.0,1.0,0.0,-1.0,1.0,-1.0,-1.0]" : 0.6833286285400391,
    "[0.0,-1.0,1.0,-1.0,1.0,-1.0,0.0,0.0,1.0]" : 0.6819381713867188,
    "[1.0,0.0,-1.0,0.0,-1.0,0.0,0.0,1.0,1.0]" : 0.6819381713867188,
    "[1.0,-1.0,0.0,-1.0,1.0,0.0,1.0,0.0,0.0]" : 0.6819381713867188,
    "[1.0,-1.0,0.0,-1.0,1.0,0.0,1.0,-1.0,0.0]" : 0.6819381713867188,
    "[0.0,0.0,1.0,1.0,1.0,-1.0,-1.0,1.0,-1.0]" : 0.6812362670898438,
    "[-1.0,-1.0,1.0,0.0,1.0,0.0,0.0,1.0,0.0]" : 0.6807594578713179,
    "[1.0,0.0,0.0,-1.0,1.0,1.0,-1.0,1.0,-1.0]" : 0.6807479858398438,
    "[0.0,0.0,-1.0,0.0,0.0,-1.0,1.0,0.0,1.0]" : 0.6802902221679688,
    "[1.0,1.0,0.0,0.0,0.0,-1.0,-1.0,-1.0,1.0]" : 0.680084228515625,
    "[1.0,1.0,0.0,0.0,-1.0,0.0,1.0,-1.0,0.0]" : 0.680084228515625,
    "[0.0,-1.0,-1.0,1.0,1.0,-1.0,0.0,0.0,1.0]" : 0.680084228515625,
    "[1.0,-1.0,1.0,0.0,1.0,-1.0,0.0,-1.0,0.0]" : 0.680084228515625,
    "[1.0,0.0,1.0,1.0,-1.0,0.0,0.0,-1.0,0.0]" : 0.680084228515625,
    "[-1.0,1.0,-1.0,0.0,0.0,-1.0,1.0,0.0,1.0]" : 0.6799640655517578,
    "[-1.0,1.0,-1.0,1.0,1.0,0.0,-1.0,0.0,0.0]" : 0.6793003082275391,
    "[-1.0,1.0,0.0,1.0,1.0,-1.0,-1.0,0.0,1.0]" : 0.677734375,
    "[1.0,0.0,1.0,0.0,-1.0,1.0,-1.0,-1.0,0.0]" : 0.6776123046875,
    "[0.0,-1.0,-1.0,1.0,1.0,0.0,0.0,-1.0,1.0]" : 0.6776123046875,
    "[1.0,0.0,-1.0,0.0,0.0,-1.0,1.0,1.0,0.0]" : 0.6776123046875,
    "[1.0,0.0,-1.0,-1.0,0.0,0.0,1.0,1.0,0.0]" : 0.6776123046875,
    "[1.0,-1.0,-1.0,0.0,0.0,1.0,1.0,0.0,-1.0]" : 0.6776123046875,
    "[0.0,0.0,0.0,1.0,1.0,0.0,-1.0,-1.0,1.0]" : 0.6776123046875,
    "[0.0,0.0,0.0,-1.0,-1.0,1.0,0.0,1.0,1.0]" : 0.6776123046875,
    "[0.0,1.0,0.0,-1.0,0.0,1.0,-1.0,1.0,-1.0]" : 0.6776123046875,
    "[0.0,1.0,1.0,0.0,-1.0,0.0,0.0,-1.0,1.0]" : 0.6776123046875,
    "[-1.0,1.0,1.0,0.0,1.0,-1.0,0.0,0.0,-1.0]" : 0.6776123046875,
    "[-1.0,1.0,0.0,0.0,1.0,-1.0,0.0,0.0,1.0]" : 0.6776123046875,
    "[0.0,1.0,1.0,0.0,0.0,-1.0,-1.0,1.0,0.0]" : 0.6776123046875,
    "[0.0,0.0,1.0,-1.0,1.0,-1.0,0.0,0.0,1.0]" : 0.6776123046875,
    "[-1.0,0.0,0.0,0.0,-1.0,0.0,1.0,0.0,1.0]" : 0.6770064482731186,
    "[1.0,-1.0,0.0,1.0,1.0,0.0,-1.0,0.0,0.0]" : 0.6760978297097608,
    "[1.0,0.0,-1.0,-1.0,1.0,0.0,-1.0,1.0,0.0]" : 0.67431640625,
    "[-1.0,0.0,0.0,1.0,1.0,0.0,0.0,1.0,-1.0]" : 0.67431640625,
    "[-1.0,1.0,-1.0,0.0,0.0,-1.0,0.0,1.0,1.0]" : 0.67431640625,
    "[1.0,1.0,-1.0,-1.0,0.0,0.0,0.0,1.0,-1.0]" : 0.67431640625,
    "[-1.0,-1.0,0.0,-1.0,1.0,0.0,1.0,1.0,0.0]" : 0.67431640625,
    "[-1.0,0.0,0.0,1.0,1.0,0.0,-1.0,1.0,0.0]" : 0.67431640625,
    "[1.0,0.0,1.0,-1.0,0.0,0.0,-1.0,1.0,-1.0]" : 0.67431640625,
    "[-1.0,1.0,1.0,0.0,-1.0,1.0,0.0,-1.0,0.0]" : 0.67431640625,
    "[-1.0,0.0,1.0,0.0,0.0,0.0,1.0,-1.0,1.0]" : 0.67431640625,
    "[-1.0,1.0,1.0,0.0,0.0,-1.0,1.0,-1.0,0.0]" : 0.67431640625,
    "[0.0,0.0,-1.0,1.0,0.0,1.0,1.0,-1.0,0.0]" : 0.67431640625,
    "[1.0,1.0,0.0,-1.0,0.0,0.0,-1.0,1.0,0.0]" : 0.67431640625,
    "[0.0,-1.0,1.0,-1.0,0.0,0.0,1.0,0.0,1.0]" : 0.67431640625,
    "[-1.0,0.0,0.0,0.0,-1.0,1.0,1.0,0.0,1.0]" : 0.67266845703125,
    "[1.0,-1.0,-1.0,-1.0,0.0,0.0,1.0,0.0,1.0]" : 0.669921875,
    "[0.0,-1.0,1.0,-1.0,1.0,0.0,-1.0,0.0,1.0]" : 0.669921875,
    "[1.0,0.0,-1.0,0.0,0.0,-1.0,-1.0,1.0,1.0]" : 0.669921875,
    "[0.0,1.0,1.0,0.0,-1.0,1.0,0.0,-1.0,0.0]" : 0.669921875,
    "[1.0,-1.0,1.0,1.0,0.0,-1.0,0.0,-1.0,0.0]" : 0.669921875,
    "[0.0,0.0,0.0,-1.0,1.0,-1.0,-1.0,1.0,1.0]" : 0.669921875,
    "[0.0,-1.0,0.0,1.0,1.0,0.0,1.0,-1.0,0.0]" : 0.669921875,
    "[0.0,-1.0,1.0,1.0,1.0,-1.0,0.0,0.0,-1.0]" : 0.669921875,
    "[0.0,-1.0,1.0,0.0,0.0,1.0,-1.0,1.0,0.0]" : 0.669921875,
    "[1.0,-1.0,0.0,-1.0,0.0,0.0,1.0,0.0,1.0]" : 0.669921875,
    "[1.0,1.0,0.0,1.0,-1.0,-1.0,0.0,-1.0,0.0]" : 0.669921875,
    "[1.0,1.0,-1.0,0.0,1.0,-1.0,-1.0,0.0,0.0]" : 0.669921875,
    "[0.0,0.0,1.0,1.0,0.0,0.0,1.0,-1.0,-1.0]" : 0.669921875,
    "[1.0,1.0,0.0,0.0,0.0,0.0,1.0,-1.0,-1.0]" : 0.6696305274963379,
    "[0.0,1.0,-1.0,-1.0,1.0,1.0,0.0,0.0,0.0]" : 0.6684380769729614,
    "[0.0,-1.0,0.0,1.0,-1.0,0.0,0.0,1.0,1.0]" : 0.667724609375,
    "[0.0,-1.0,0.0,0.0,1.0,-1.0,0.0,1.0,1.0]" : 0.66650390625,
    "[-1.0,1.0,0.0,1.0,0.0,-1.0,-1.0,1.0,1.0]" : 0.6640625,
    "[0.0,0.0,1.0,-1.0,1.0,-1.0,0.0,1.0,0.0]" : 0.6640625,
    "[0.0,0.0,-1.0,1.0,0.0,1.0,-1.0,-1.0,1.0]" : 0.6640625,
    "[0.0,1.0,1.0,1.0,-1.0,-1.0,-1.0,0.0,0.0]" : 0.6640625,
    "[-1.0,1.0,-1.0,1.0,1.0,0.0,0.0,0.0,-1.0]" : 0.6640625,
    "[0.0,-1.0,0.0,1.0,1.0,-1.0,-1.0,1.0,1.0]" : 0.6640625,
    "[1.0,0.0,1.0,-1.0,0.0,0.0,0.0,-1.0,1.0]" : 0.6640625,
    "[0.0,1.0,1.0,-1.0,0.0,-1.0,0.0,1.0,0.0]" : 0.6640625,
    "[1.0,0.0,1.0,0.0,1.0,-1.0,0.0,-1.0,0.0]" : 0.6640625,
    "[-1.0,1.0,0.0,-1.0,1.0,-1.0,1.0,0.0,0.0]" : 0.6640625,
    "[1.0,1.0,0.0,0.0,0.0,0.0,-1.0,1.0,-1.0]" : 0.6640625,
    "[1.0,-1.0,-1.0,0.0,0.0,1.0,0.0,-1.0,1.0]" : 0.6640625,
    "[-1.0,1.0,1.0,0.0,1.0,-1.0,0.0,-1.0,1.0]" : 0.6640625,
    "[1.0,1.0,-1.0,0.0,-1.0,1.0,1.0,-1.0,0.0]" : 0.6640625,
    "[-1.0,0.0,0.0,-1.0,0.0,1.0,0.0,1.0,1.0]" : 0.6640625,
    "[1.0,-1.0,0.0,0.0,0.0,-1.0,1.0,1.0,0.0]" : 0.6640625,
    "[1.0,-1.0,0.0,1.0,0.0,-1.0,0.0,1.0,0.0]" : 0.6640625,
    "[0.0,1.0,0.0,1.0,1.0,-1.0,-1.0,0.0,0.0]" : 0.6630028676890116,
    "[-1.0,-1.0,1.0,1.0,0.0,0.0,1.0,0.0,0.0]" : 0.662058562040329,
    "[1.0,-1.0,0.0,0.0,0.0,-1.0,1.0,0.0,0.0]" : 0.6618109254050069,
    "[1.0,0.0,-1.0,1.0,0.0,-1.0,0.0,0.0,1.0]" : 0.6606383323669434,
    "[-1.0,1.0,1.0,0.0,0.0,0.0,0.0,-1.0,1.0]" : 0.6573276519775391,
    "[1.0,0.0,0.0,-1.0,1.0,-1.0,-1.0,1.0,0.0]" : 0.6549606323242188,
    "[1.0,0.0,1.0,-1.0,1.0,-1.0,0.0,0.0,0.0]" : 0.6526539325714111,
    "[0.0,1.0,1.0,-1.0,1.0,0.0,0.0,-1.0,0.0]" : 0.650634765625,
    "[1.0,0.0,1.0,0.0,0.0,-1.0,1.0,0.0,-1.0]" : 0.649760365486145,
    "[1.0,-1.0,0.0,0.0,1.0,0.0,1.0,-1.0,-1.0]" : 0.6485214233398438,
    "[0.0,0.0,0.0,-1.0,1.0,-1.0,0.0,1.0,0.0]" : 0.6483043432235718,
    "[1.0,0.0,0.0,-1.0,0.0,0.0,-1.0,0.0,1.0]" : 0.6478202219934701,
    "[0.0,0.0,-1.0,-1.0,1.0,1.0,1.0,-1.0,1.0]" : 0.6468997001647949,
    "[1.0,-1.0,0.0,0.0,1.0,-1.0,0.0,0.0,0.0]" : 0.6466159820556641,
    "[0.0,0.0,0.0,0.0,0.0,1.0,-1.0,0.0,1.0]" : 0.6455822529350694,
    "[0.0,0.0,-1.0,0.0,1.0,1.0,0.0,-1.0,1.0]" : 0.6435252800583839,
    "[1.0,-1.0,0.0,-1.0,0.0,1.0,0.0,0.0,1.0]" : 0.6414108276367188,
    "[-1.0,1.0,-1.0,1.0,1.0,-1.0,0.0,0.0,1.0]" : 0.6397323608398438,
    "[1.0,-1.0,0.0,0.0,0.0,1.0,1.0,0.0,-1.0]" : 0.639556884765625,
    "[-1.0,-1.0,1.0,0.0,0.0,1.0,1.0,0.0,0.0]" : 0.6368942260742188,
    "[1.0,1.0,-1.0,0.0,-1.0,1.0,1.0,0.0,-1.0]" : 0.6359272003173828,
    "[1.0,0.0,1.0,1.0,-1.0,0.0,-1.0,0.0,0.0]" : 0.6349363747653213,
    "[0.0,0.0,-1.0,0.0,0.0,-1.0,0.0,1.0,1.0]" : 0.6339530944824219,
    "[1.0,1.0,0.0,-1.0,-1.0,1.0,1.0,0.0,-1.0]" : 0.63330078125,
    "[-1.0,0.0,1.0,1.0,1.0,-1.0,0.0,-1.0,0.0]" : 0.631744384765625,
    "[-1.0,1.0,0.0,1.0,1.0,0.0,-1.0,-1.0,1.0]" : 0.6285114288330078,
    "[0.0,0.0,-1.0,-1.0,1.0,0.0,1.0,0.0,1.0]" : 0.6276473999023438,
    "[1.0,0.0,-1.0,1.0,-1.0,0.0,0.0,1.0,0.0]" : 0.626251220703125,
    "[-1.0,1.0,0.0,1.0,1.0,0.0,-1.0,1.0,-1.0]" : 0.625,
    "[-1.0,1.0,1.0,-1.0,1.0,0.0,1.0,-1.0,-1.0]" : 0.625,
    "[1.0,1.0,1.0,-1.0,-1.0,1.0,0.0,-1.0,0.0]" : 0.625,
    "[-1.0,1.0,1.0,-1.0,1.0,-1.0,0.0,1.0,0.0]" : 0.625,
    "[0.0,-1.0,0.0,1.0,1.0,1.0,1.0,-1.0,-1.0]" : 0.625,
    "[1.0,1.0,1.0,-1.0,0.0,-1.0,-1.0,1.0,-1.0]" : 0.625,
    "[1.0,0.0,1.0,1.0,-1.0,-1.0,0.0,1.0,-1.0]" : 0.625,
    "[1.0,0.0,1.0,-1.0,1.0,-1.0,0.0,1.0,-1.0]" : 0.625,
    "[1.0,0.0,1.0,1.0,0.0,-1.0,1.0,-1.0,-1.0]" : 0.625,
    "[-1.0,1.0,-1.0,1.0,1.0,1.0,-1.0,0.0,0.0]" : 0.625,
    "[0.0,1.0,1.0,-1.0,-1.0,1.0,-1.0,1.0,0.0]" : 0.625,
    "[-1.0,-1.0,1.0,-1.0,0.0,-1.0,1.0,1.0,1.0]" : 0.625,
    "[1.0,-1.0,-1.0,1.0,0.0,-1.0,1.0,0.0,1.0]" : 0.625,
    "[-1.0,-1.0,1.0,0.0,0.0,1.0,1.0,-1.0,1.0]" : 0.625,
    "[-1.0,1.0,1.0,-1.0,0.0,0.0,1.0,-1.0,1.0]" : 0.625,
    "[1.0,1.0,1.0,-1.0,1.0,-1.0,0.0,-1.0,-1.0]" : 0.625,
    "[-1.0,1.0,0.0,1.0,0.0,1.0,-1.0,1.0,-1.0]" : 0.625,
    "[1.0,0.0,1.0,-1.0,-1.0,1.0,-1.0,0.0,1.0]" : 0.625,
    "[1.0,-1.0,-1.0,0.0,0.0,-1.0,1.0,1.0,1.0]" : 0.625,
    "[-1.0,-1.0,1.0,1.0,1.0,1.0,0.0,-1.0,0.0]" : 0.625,
    "[1.0,-1.0,1.0,-1.0,1.0,0.0,0.0,-1.0,1.0]" : 0.625,
    "[0.0,1.0,-1.0,1.0,0.0,1.0,-1.0,1.0,-1.0]" : 0.625,
    "[1.0,1.0,1.0,-1.0,-1.0,0.0,-1.0,1.0,0.0]" : 0.625,
    "[0.0,-1.0,0.0,-1.0,1.0,1.0,1.0,-1.0,1.0]" : 0.625,
    "[1.0,1.0,0.0,-1.0,1.0,-1.0,-1.0,1.0,0.0]" : 0.625,
    "[-1.0,0.0,1.0,-1.0,0.0,-1.0,1.0,1.0,1.0]" : 0.625,
    "[1.0,1.0,1.0,-1.0,1.0,0.0,0.0,-1.0,-1.0]" : 0.625,
    "[0.0,0.0,-1.0,1.0,1.0,1.0,-1.0,1.0,-1.0]" : 0.625,
    "[1.0,1.0,-1.0,-1.0,1.0,-1.0,0.0,0.0,1.0]" : 0.625,
    "[-1.0,-1.0,1.0,0.0,0.0,1.0,-1.0,1.0,1.0]" : 0.625,
    "[1.0,1.0,1.0,-1.0,0.0,-1.0,1.0,-1.0,0.0]" : 0.625,
    "[1.0,-1.0,-1.0,1.0,1.0,1.0,0.0,-1.0,-1.0]" : 0.625,
    "[-1.0,1.0,0.0,0.0,1.0,1.0,-1.0,1.0,-1.0]" : 0.625,
    "[-1.0,0.0,-1.0,1.0,1.0,1.0,1.0,0.0,-1.0]" : 0.625,
    "[-1.0,0.0,1.0,0.0,1.0,0.0,1.0,-1.0,-1.0]" : 0.625,
    "[-1.0,1.0,1.0,-1.0,0.0,1.0,1.0,-1.0,0.0]" : 0.625,
    "[1.0,1.0,-1.0,-1.0,1.0,-1.0,-1.0,1.0,0.0]" : 0.625,
    "[1.0,1.0,-1.0,1.0,0.0,-1.0,1.0,-1.0,0.0]" : 0.625,
    "[-1.0,0.0,-1.0,1.0,1.0,1.0,-1.0,1.0,0.0]" : 0.625,
    "[1.0,-1.0,0.0,1.0,0.0,-1.0,1.0,1.0,-1.0]" : 0.625,
    "[1.0,1.0,1.0,-1.0,0.0,0.0,0.0,-1.0,-1.0]" : 0.625,
    "[1.0,1.0,1.0,1.0,0.0,-1.0,0.0,-1.0,-1.0]" : 0.625,
    "[0.0,-1.0,1.0,1.0,0.0,1.0,-1.0,-1.0,1.0]" : 0.625,
    "[1.0,1.0,1.0,0.0,-1.0,0.0,-1.0,-1.0,1.0]" : 0.625,
    "[1.0,0.0,0.0,-1.0,1.0,-1.0,-1.0,1.0,1.0]" : 0.625,
    "[-1.0,-1.0,1.0,0.0,1.0,1.0,0.0,-1.0,1.0]" : 0.625,
    "[0.0,0.0,0.0,-1.0,0.0,-1.0,1.0,1.0,1.0]" : 0.625,
    "[0.0,1.0,1.0,-1.0,-1.0,1.0,-1.0,0.0,1.0]" : 0.625,
    "[1.0,-1.0,0.0,-1.0,1.0,1.0,0.0,-1.0,1.0]" : 0.625,
    "[1.0,-1.0,1.0,1.0,-1.0,-1.0,1.0,0.0,0.0]" : 0.625,
    "[0.0,-1.0,0.0,1.0,1.0,1.0,-1.0,0.0,0.0]" : 0.625,
    "[1.0,0.0,-1.0,0.0,1.0,0.0,-1.0,0.0,1.0]" : 0.625,
    "[1.0,0.0,-1.0,-1.0,1.0,0.0,-1.0,1.0,1.0]" : 0.625,
    "[1.0,0.0,0.0,-1.0,1.0,1.0,-1.0,-1.0,1.0]" : 0.625,
    "[-1.0,0.0,1.0,-1.0,1.0,-1.0,1.0,1.0,0.0]" : 0.625,
    "[1.0,1.0,-1.0,-1.0,1.0,-1.0,-1.0,0.0,1.0]" : 0.625,
    "[0.0,-1.0,-1.0,-1.0,0.0,0.0,1.0,1.0,1.0]" : 0.625,
    "[1.0,0.0,0.0,1.0,-1.0,1.0,1.0,-1.0,-1.0]" : 0.625,
    "[-1.0,-1.0,1.0,0.0,0.0,1.0,0.0,-1.0,1.0]" : 0.625,
    "[0.0,1.0,-1.0,-1.0,-1.0,0.0,1.0,1.0,1.0]" : 0.625,
    "[0.0,-1.0,1.0,0.0,1.0,1.0,1.0,-1.0,-1.0]" : 0.625,
    "[1.0,1.0,1.0,0.0,0.0,-1.0,-1.0,-1.0,0.0]" : 0.625,
    "[0.0,-1.0,1.0,-1.0,0.0,1.0,0.0,0.0,1.0]" : 0.625,
    "[1.0,0.0,-1.0,1.0,1.0,1.0,-1.0,-1.0,0.0]" : 0.625,
    "[-1.0,1.0,1.0,-1.0,-1.0,1.0,0.0,0.0,1.0]" : 0.625,
    "[1.0,-1.0,1.0,-1.0,0.0,1.0,1.0,0.0,-1.0]" : 0.625,
    "[-1.0,0.0,1.0,1.0,1.0,-1.0,-1.0,1.0,0.0]" : 0.625,
    "[1.0,1.0,-1.0,-1.0,1.0,1.0,-1.0,0.0,0.0]" : 0.625,
    "[-1.0,1.0,0.0,0.0,1.0,-1.0,0.0,1.0,-1.0]" : 0.625,
    "[-1.0,-1.0,1.0,0.0,-1.0,1.0,0.0,1.0,1.0]" : 0.625,
    "[0.0,1.0,-1.0,-1.0,0.0,-1.0,1.0,1.0,1.0]" : 0.625,
    "[1.0,0.0,0.0,-1.0,1.0,-1.0,1.0,-1.0,1.0]" : 0.625,
    "[1.0,1.0,1.0,1.0,-1.0,-1.0,0.0,-1.0,0.0]" : 0.625,
    "[-1.0,0.0,1.0,0.0,-1.0,1.0,1.0,-1.0,1.0]" : 0.625,
    "[1.0,-1.0,1.0,-1.0,0.0,1.0,0.0,-1.0,1.0]" : 0.625,
    "[0.0,1.0,1.0,-1.0,-1.0,1.0,1.0,-1.0,0.0]" : 0.625,
    "[1.0,1.0,1.0,1.0,-1.0,-1.0,0.0,0.0,-1.0]" : 0.625,
    "[1.0,-1.0,-1.0,-1.0,1.0,1.0,1.0,0.0,0.0]" : 0.625,
    "[0.0,0.0,1.0,-1.0,0.0,1.0,-1.0,-1.0,1.0]" : 0.625,
    "[1.0,1.0,1.0,-1.0,-1.0,1.0,-1.0,-1.0,0.0]" : 0.625,
    "[1.0,0.0,1.0,-1.0,0.0,1.0,1.0,-1.0,-1.0]" : 0.625,
    "[1.0,0.0,-1.0,1.0,0.0,1.0,1.0,-1.0,-1.0]" : 0.625,
    "[1.0,-1.0,-1.0,1.0,0.0,1.0,1.0,0.0,-1.0]" : 0.625,
    "[1.0,-1.0,0.0,-1.0,1.0,1.0,1.0,0.0,-1.0]" : 0.625,
    "[1.0,0.0,-1.0,1.0,-1.0,1.0,1.0,0.0,-1.0]" : 0.625,
    "[1.0,-1.0,0.0,1.0,-1.0,-1.0,1.0,1.0,0.0]" : 0.625,
    "[1.0,-1.0,-1.0,1.0,0.0,-1.0,1.0,1.0,0.0]" : 0.625,
    "[0.0,-1.0,1.0,0.0,-1.0,1.0,-1.0,1.0,1.0]" : 0.625,
    "[-1.0,1.0,1.0,-1.0,1.0,0.0,0.0,1.0,-1.0]" : 0.625,
    "[1.0,-1.0,0.0,-1.0,1.0,0.0,1.0,-1.0,1.0]" : 0.625,
    "[0.0,1.0,1.0,0.0,-1.0,1.0,-1.0,-1.0,1.0]" : 0.625,
    "[1.0,-1.0,0.0,1.0,1.0,-1.0,-1.0,-1.0,1.0]" : 0.625,
    "[1.0,0.0,0.0,1.0,0.0,-1.0,1.0,-1.0,-1.0]" : 0.625,
    "[0.0,1.0,-1.0,-1.0,1.0,-1.0,1.0,1.0,0.0]" : 0.625,
    "[-1.0,1.0,-1.0,1.0,0.0,1.0,-1.0,0.0,1.0]" : 0.625,
    "[-1.0,-1.0,0.0,-1.0,0.0,1.0,1.0,1.0,1.0]" : 0.625,
    "[0.0,-1.0,1.0,-1.0,0.0,1.0,0.0,-1.0,1.0]" : 0.625,
    "[-1.0,0.0,0.0,-1.0,1.0,1.0,1.0,1.0,-1.0]" : 0.625,
    "[1.0,-1.0,-1.0,0.0,-1.0,1.0,1.0,1.0,0.0]" : 0.625,
    "[-1.0,0.0,1.0,-1.0,1.0,-1.0,1.0,0.0,0.0]" : 0.625,
    "[1.0,1.0,1.0,0.0,0.0,-1.0,0.0,0.0,-1.0]" : 0.625,
    "[0.0,-1.0,0.0,1.0,-1.0,1.0,1.0,1.0,-1.0]" : 0.625,
    "[1.0,0.0,-1.0,0.0,1.0,1.0,-1.0,-1.0,1.0]" : 0.625,
    "[1.0,1.0,0.0,1.0,-1.0,0.0,1.0,-1.0,-1.0]" : 0.625,
    "[1.0,1.0,0.0,-1.0,-1.0,1.0,1.0,-1.0,0.0]" : 0.625,
    "[-1.0,0.0,0.0,1.0,1.0,1.0,-1.0,1.0,-1.0]" : 0.625,
    "[1.0,-1.0,1.0,-1.0,0.0,1.0,-1.0,-1.0,1.0]" : 0.625,
    "[1.0,-1.0,-1.0,-1.0,0.0,1.0,1.0,0.0,1.0]" : 0.625,
    "[1.0,-1.0,1.0,-1.0,-1.0,1.0,0.0,0.0,1.0]" : 0.625,
    "[-1.0,0.0,1.0,-1.0,-1.0,1.0,0.0,1.0,1.0]" : 0.625,
    "[1.0,1.0,0.0,-1.0,1.0,-1.0,0.0,-1.0,1.0]" : 0.625,
    "[0.0,-1.0,0.0,1.0,1.0,1.0,0.0,-1.0,0.0]" : 0.625,
    "[-1.0,1.0,0.0,-1.0,-1.0,0.0,1.0,1.0,1.0]" : 0.625,
    "[0.0,-1.0,1.0,-1.0,1.0,-1.0,1.0,0.0,1.0]" : 0.625,
    "[0.0,1.0,-1.0,0.0,1.0,-1.0,-1.0,1.0,0.0]" : 0.625,
    "[0.0,-1.0,1.0,-1.0,1.0,-1.0,1.0,0.0,0.0]" : 0.625,
    "[1.0,-1.0,0.0,-1.0,1.0,-1.0,0.0,1.0,1.0]" : 0.625,
    "[1.0,-1.0,1.0,1.0,0.0,0.0,1.0,-1.0,-1.0]" : 0.625,
    "[-1.0,-1.0,1.0,1.0,0.0,1.0,-1.0,-1.0,1.0]" : 0.625,
    "[1.0,0.0,-1.0,0.0,1.0,0.0,0.0,-1.0,1.0]" : 0.625,
    "[-1.0,0.0,0.0,1.0,-1.0,-1.0,1.0,1.0,1.0]" : 0.625,
    "[1.0,1.0,0.0,1.0,0.0,-1.0,1.0,-1.0,-1.0]" : 0.625,
    "[-1.0,0.0,0.0,1.0,1.0,1.0,-1.0,-1.0,1.0]" : 0.625,
    "[0.0,0.0,1.0,-1.0,1.0,0.0,1.0,0.0,-1.0]" : 0.625,
    "[1.0,0.0,1.0,-1.0,-1.0,1.0,1.0,0.0,-1.0]" : 0.625,
    "[0.0,1.0,-1.0,1.0,1.0,-1.0,-1.0,0.0,1.0]" : 0.625,
    "[1.0,-1.0,0.0,0.0,1.0,-1.0,-1.0,1.0,1.0]" : 0.625,
    "[0.0,-1.0,-1.0,-1.0,1.0,0.0,1.0,1.0,1.0]" : 0.625,
    "[1.0,0.0,0.0,0.0,1.0,1.0,0.0,-1.0,-1.0]" : 0.6232142448425293,
    "[1.0,-1.0,0.0,1.0,1.0,-1.0,-1.0,1.0,0.0]" : 0.623046875,
    "[1.0,0.0,-1.0,-1.0,-1.0,1.0,1.0,0.0,1.0]" : 0.6219482421875,
    "[-1.0,0.0,0.0,0.0,1.0,1.0,1.0,-1.0,-1.0]" : 0.620849609375,
    "[-1.0,1.0,0.0,-1.0,0.0,1.0,0.0,0.0,1.0]" : 0.620025634765625,
    "[0.0,1.0,1.0,-1.0,0.0,0.0,1.0,0.0,-1.0]" : 0.6194076538085938,
    "[1.0,-1.0,0.0,0.0,1.0,0.0,1.0,-1.0,0.0]" : 0.6188755035400391,
    "[0.0,0.0,-1.0,-1.0,0.0,0.0,0.0,1.0,1.0]" : 0.61865234375,
    "[-1.0,0.0,0.0,1.0,1.0,0.0,0.0,-1.0,0.0]" : 0.614592507481575,
    "[0.0,-1.0,1.0,0.0,1.0,-1.0,-1.0,1.0,1.0]" : 0.614532470703125,
    "[0.0,0.0,1.0,0.0,0.0,-1.0,1.0,-1.0,1.0]" : 0.6131591796875,
    "[0.0,1.0,1.0,1.0,0.0,0.0,-1.0,0.0,-1.0]" : 0.6130161285400391,
    "[0.0,0.0,1.0,-1.0,-1.0,1.0,0.0,0.0,0.0]" : 0.6111553496784836,
    "[1.0,0.0,1.0,-1.0,-1.0,1.0,0.0,1.0,-1.0]" : 0.6104354858398438,
    "[-1.0,0.0,1.0,1.0,1.0,-1.0,0.0,-1.0,1.0]" : 0.60986328125,
    "[-1.0,1.0,0.0,-1.0,1.0,0.0,1.0,-1.0,1.0]" : 0.60986328125,
    "[1.0,-1.0,1.0,-1.0,1.0,0.0,0.0,-1.0,0.0]" : 0.60986328125,
    "[1.0,1.0,0.0,-1.0,0.0,0.0,0.0,1.0,-1.0]" : 0.60986328125,
    "[1.0,0.0,0.0,0.0,0.0,-1.0,1.0,-1.0,0.0]" : 0.6098516583442688,
    "[0.0,1.0,1.0,0.0,-1.0,0.0,-1.0,0.0,1.0]" : 0.609771728515625,
    "[1.0,-1.0,1.0,-1.0,0.0,0.0,0.0,0.0,1.0]" : 0.609771728515625,
    "[0.0,0.0,-1.0,0.0,1.0,1.0,0.0,-1.0,0.0]" : 0.609771728515625,
    "[1.0,1.0,0.0,0.0,0.0,0.0,-1.0,-1.0,1.0]" : 0.609771728515625,
    "[1.0,-1.0,0.0,1.0,-1.0,-1.0,0.0,1.0,0.0]" : 0.609771728515625,
    "[0.0,0.0,-1.0,1.0,0.0,-1.0,1.0,0.0,1.0]" : 0.6083984375,
    "[0.0,1.0,-1.0,1.0,1.0,-1.0,-1.0,0.0,0.0]" : 0.6072998046875,
    "[-1.0,0.0,1.0,1.0,0.0,0.0,1.0,-1.0,0.0]" : 0.6057662963867188,
    "[-1.0,-1.0,0.0,0.0,1.0,1.0,1.0,0.0,-1.0]" : 0.6042098999023438,
    "[0.0,-1.0,0.0,0.0,1.0,1.0,-1.0,0.0,1.0]" : 0.60400390625,
    "[0.0,0.0,-1.0,0.0,1.0,1.0,-1.0,1.0,-1.0]" : 0.60400390625,
    "[1.0,-1.0,-1.0,1.0,0.0,0.0,-1.0,0.0,1.0]" : 0.60400390625,
    "[1.0,0.0,1.0,0.0,1.0,-1.0,-1.0,0.0,0.0]" : 0.60400390625,
    "[1.0,-1.0,-1.0,0.0,0.0,1.0,-1.0,0.0,1.0]" : 0.60400390625,
    "[0.0,-1.0,0.0,-1.0,1.0,1.0,1.0,0.0,0.0]" : 0.60400390625,
    "[-1.0,0.0,1.0,1.0,1.0,0.0,0.0,0.0,-1.0]" : 0.6033935546875,
    "[0.0,-1.0,1.0,-1.0,1.0,1.0,0.0,0.0,-1.0]" : 0.6015949249267578,
    "[0.0,0.0,-1.0,-1.0,0.0,1.0,1.0,0.0,1.0]" : 0.6006747484207153,
    "[-1.0,-1.0,1.0,1.0,1.0,-1.0,0.0,0.0,1.0]" : 0.5999755859375,
    "[1.0,-1.0,1.0,1.0,-1.0,-1.0,0.0,1.0,0.0]" : 0.5999755859375,
    "[0.0,-1.0,1.0,0.0,0.0,-1.0,1.0,1.0,-1.0]" : 0.5997409820556641,
    "[-1.0,1.0,-1.0,0.0,0.0,0.0,0.0,1.0,1.0]" : 0.599609375,
    "[0.0,-1.0,1.0,0.0,-1.0,0.0,0.0,1.0,1.0]" : 0.599609375,
    "[0.0,1.0,1.0,0.0,-1.0,1.0,-1.0,0.0,0.0]" : 0.599609375,
    "[-1.0,0.0,0.0,1.0,-1.0,0.0,0.0,1.0,1.0]" : 0.5995407104492188,
    "[1.0,0.0,1.0,-1.0,0.0,0.0,0.0,0.0,-1.0]" : 0.5967056306471932,
    "[-1.0,1.0,0.0,1.0,1.0,0.0,0.0,-1.0,0.0]" : 0.5964970253407955,
    "[0.0,-1.0,0.0,0.0,1.0,1.0,1.0,0.0,-1.0]" : 0.594970703125,
    "[1.0,1.0,-1.0,-1.0,0.0,1.0,0.0,1.0,-1.0]" : 0.59375,
    "[0.0,-1.0,1.0,1.0,-1.0,0.0,-1.0,1.0,1.0]" : 0.59375,
    "[-1.0,1.0,-1.0,1.0,-1.0,0.0,1.0,0.0,1.0]" : 0.59375,
    "[1.0,-1.0,0.0,-1.0,1.0,0.0,1.0,1.0,-1.0]" : 0.59375,
    "[0.0,-1.0,0.0,-1.0,1.0,1.0,1.0,-1.0,0.0]" : 0.59375,
    "[1.0,-1.0,1.0,0.0,1.0,-1.0,-1.0,1.0,0.0]" : 0.59375,
    "[1.0,1.0,0.0,-1.0,0.0,0.0,-1.0,-1.0,1.0]" : 0.59375,
    "[1.0,-1.0,1.0,1.0,1.0,-1.0,-1.0,0.0,0.0]" : 0.59375,
    "[-1.0,1.0,0.0,-1.0,0.0,1.0,1.0,-1.0,1.0]" : 0.59375,
    "[0.0,0.0,-1.0,0.0,1.0,-1.0,1.0,-1.0,1.0]" : 0.59375,
    "[-1.0,1.0,1.0,1.0,0.0,-1.0,-1.0,1.0,0.0]" : 0.59375,
    "[1.0,1.0,-1.0,0.0,0.0,1.0,1.0,-1.0,-1.0]" : 0.59375,
    "[1.0,-1.0,1.0,-1.0,1.0,0.0,-1.0,1.0,0.0]" : 0.59375,
    "[-1.0,1.0,0.0,1.0,1.0,-1.0,1.0,-1.0,0.0]" : 0.59375,
    "[1.0,-1.0,0.0,1.0,1.0,0.0,-1.0,1.0,-1.0]" : 0.59375,
    "[1.0,-1.0,1.0,1.0,1.0,-1.0,0.0,0.0,-1.0]" : 0.59375,
    "[1.0,0.0,-1.0,0.0,0.0,1.0,1.0,-1.0,0.0]" : 0.59375,
    "[-1.0,1.0,1.0,1.0,-1.0,0.0,0.0,-1.0,1.0]" : 0.59375,
    "[0.0,1.0,-1.0,1.0,1.0,-1.0,0.0,-1.0,1.0]" : 0.59375,
    "[1.0,-1.0,1.0,0.0,1.0,-1.0,0.0,1.0,-1.0]" : 0.59228515625,
    "[-1.0,1.0,-1.0,-1.0,1.0,0.0,1.0,0.0,1.0]" : 0.59228515625,
    "[0.0,-1.0,1.0,1.0,1.0,-1.0,0.0,1.0,-1.0]" : 0.59228515625,
    "[1.0,-1.0,1.0,0.0,0.0,1.0,-1.0,0.0,0.0]" : 0.5884219147264957,
    "[1.0,0.0,-1.0,1.0,0.0,0.0,0.0,0.0,0.0]" : 0.5877283869873806,
    "[0.0,-1.0,0.0,0.0,1.0,1.0,-1.0,0.0,0.0]" : 0.5856820717453957,
    "[0.0,1.0,-1.0,1.0,1.0,0.0,0.0,-1.0,0.0]" : 0.5844623068114743,
    "[0.0,1.0,0.0,1.0,1.0,-1.0,-1.0,-1.0,1.0]" : 0.5819339752197266,
    "[1.0,0.0,0.0,-1.0,1.0,-1.0,0.0,1.0,0.0]" : 0.5782260894775391,
    "[1.0,0.0,-1.0,0.0,0.0,-1.0,1.0,0.0,1.0]" : 0.5772495269775391,
    "[1.0,0.0,1.0,1.0,-1.0,-1.0,-1.0,0.0,0.0]" : 0.5760866701602936,
    "[-1.0,1.0,0.0,0.0,-1.0,1.0,1.0,-1.0,1.0]" : 0.574981689453125,
    "[0.0,1.0,0.0,-1.0,0.0,-1.0,1.0,0.0,1.0]" : 0.571685791015625,
    "[0.0,1.0,1.0,-1.0,-1.0,1.0,0.0,0.0,-1.0]" : 0.5711994171142578,
    "[0.0,0.0,1.0,0.0,0.0,0.0,-1.0,-1.0,1.0]" : 0.5707200637136897,
    "[-1.0,1.0,0.0,1.0,-1.0,-1.0,0.0,1.0,1.0]" : 0.5703125,
    "[-1.0,1.0,0.0,1.0,-1.0,-1.0,1.0,0.0,1.0]" : 0.5703125,
    "[0.0,0.0,-1.0,-1.0,1.0,1.0,1.0,1.0,-1.0]" : 0.5703125,
    "[-1.0,-1.0,1.0,0.0,1.0,-1.0,0.0,1.0,1.0]" : 0.5703125,
    "[1.0,-1.0,1.0,-1.0,1.0,0.0,0.0,1.0,-1.0]" : 0.5703125,
    "[1.0,-1.0,0.0,1.0,0.0,-1.0,-1.0,1.0,1.0]" : 0.5703125,
    "[-1.0,0.0,1.0,1.0,-1.0,0.0,-1.0,1.0,1.0]" : 0.5703125,
    "[1.0,-1.0,1.0,1.0,-1.0,0.0,0.0,1.0,-1.0]" : 0.5703125,
    "[1.0,-1.0,1.0,0.0,-1.0,1.0,-1.0,1.0,0.0]" : 0.5703125,
    "[0.0,1.0,0.0,0.0,1.0,0.0,1.0,-1.0,-1.0]" : 0.5701136589050293,
    "[1.0,0.0,0.0,0.0,0.0,-1.0,1.0,-1.0,1.0]" : 0.566925048828125,
    "[-1.0,1.0,-1.0,1.0,1.0,0.0,0.0,-1.0,0.0]" : 0.5665201023221016,
    "[1.0,0.0,0.0,0.0,0.0,1.0,-1.0,-1.0,1.0]" : 0.5660953521728516,
    "[0.0,1.0,-1.0,0.0,1.0,1.0,-1.0,-1.0,0.0]" : 0.565826416015625,
    "[0.0,-1.0,1.0,-1.0,0.0,0.0,1.0,1.0,-1.0]" : 0.565185546875,
    "[0.0,0.0,-1.0,1.0,1.0,0.0,-1.0,1.0,0.0]" : 0.5637626647949219,
    "[-1.0,0.0,0.0,1.0,0.0,1.0,0.0,-1.0,0.0]" : 0.563480019569397,
    "[0.0,0.0,1.0,1.0,1.0,-1.0,0.0,0.0,-1.0]" : 0.5628219246864319,
    "[0.0,0.0,0.0,0.0,0.0,1.0,-1.0,-1.0,1.0]" : 0.5619055712595582,
    "[0.0,-1.0,0.0,-1.0,1.0,1.0,1.0,1.0,-1.0]" : 0.561798095703125,
    "[0.0,-1.0,0.0,1.0,1.0,-1.0,0.0,0.0,1.0]" : 0.5612106323242188,
    "[-1.0,1.0,0.0,0.0,-1.0,0.0,1.0,0.0,1.0]" : 0.5605521202087402,
    "[0.0,0.0,-1.0,-1.0,0.0,1.0,1.0,1.0,0.0]" : 0.560455322265625,
    "[0.0,1.0,-1.0,-1.0,1.0,0.0,0.0,0.0,0.0]" : 0.5604113042354584,
    "[0.0,0.0,0.0,-1.0,1.0,1.0,1.0,-1.0,-1.0]" : 0.5602817535400391,
    "[1.0,-1.0,0.0,1.0,-1.0,0.0,0.0,1.0,-1.0]" : 0.5588912963867188,
    "[0.0,1.0,0.0,-1.0,1.0,-1.0,1.0,0.0,0.0]" : 0.558349609375,
    "[1.0,-1.0,-1.0,0.0,-1.0,0.0,1.0,1.0,0.0]" : 0.5580216646194458,
    "[1.0,0.0,-1.0,0.0,1.0,1.0,-1.0,0.0,0.0]" : 0.5574183464050293,
    "[1.0,0.0,-1.0,0.0,1.0,1.0,0.0,0.0,-1.0]" : 0.5574183464050293,
    "[0.0,0.0,-1.0,-1.0,1.0,1.0,0.0,1.0,-1.0]" : 0.557037353515625,
    "[0.0,1.0,1.0,-1.0,0.0,1.0,0.0,-1.0,0.0]" : 0.5550537109375,
    "[0.0,-1.0,0.0,1.0,1.0,-1.0,1.0,0.0,0.0]" : 0.5549850463867188,
    "[0.0,1.0,0.0,1.0,-1.0,0.0,1.0,-1.0,0.0]" : 0.553466796875,
    "[1.0,1.0,0.0,1.0,-1.0,-1.0,0.0,0.0,0.0]" : 0.553131103515625,
    "[1.0,0.0,0.0,-1.0,0.0,1.0,-1.0,0.0,1.0]" : 0.553131103515625,
    "[-1.0,1.0,0.0,1.0,1.0,0.0,0.0,0.0,-1.0]" : 0.553131103515625,
    "[-1.0,1.0,-1.0,1.0,0.0,-1.0,1.0,0.0,1.0]" : 0.552734375,
    "[1.0,1.0,0.0,-1.0,1.0,0.0,1.0,-1.0,-1.0]" : 0.552734375,
    "[-1.0,1.0,1.0,1.0,0.0,0.0,-1.0,-1.0,1.0]" : 0.552734375,
    "[0.0,1.0,-1.0,-1.0,1.0,1.0,1.0,0.0,-1.0]" : 0.552734375,
    "[0.0,1.0,1.0,0.0,-1.0,0.0,1.0,-1.0,0.0]" : 0.552734375,
    "[1.0,0.0,1.0,1.0,-1.0,-1.0,-1.0,0.0,1.0]" : 0.552734375,
    "[0.0,-1.0,0.0,1.0,0.0,1.0,-1.0,0.0,0.0]" : 0.5520219802856445,
    "[0.0,-1.0,0.0,-1.0,1.0,0.0,1.0,0.0,1.0]" : 0.5517578125,
    "[-1.0,1.0,0.0,0.0,0.0,-1.0,0.0,1.0,0.0]" : 0.5513114929199219,
    "[-1.0,1.0,1.0,0.0,-1.0,0.0,0.0,0.0,1.0]" : 0.55126953125,
    "[1.0,0.0,0.0,0.0,-1.0,1.0,1.0,-1.0,-1.0]" : 0.55126953125,
    "[1.0,-1.0,-1.0,1.0,0.0,-1.0,0.0,0.0,1.0]" : 0.5506591796875,
    "[0.0,0.0,-1.0,1.0,1.0,0.0,-1.0,0.0,1.0]" : 0.5506591796875,
    "[0.0,0.0,-1.0,-1.0,1.0,-1.0,1.0,0.0,1.0]" : 0.5506591796875,
    "[0.0,1.0,-1.0,1.0,0.0,1.0,0.0,0.0,-1.0]" : 0.5501708984375,
    "[1.0,-1.0,-1.0,-1.0,0.0,0.0,1.0,1.0,0.0]" : 0.5501708984375,
    "[0.0,-1.0,0.0,0.0,1.0,1.0,0.0,-1.0,0.0]" : 0.5488419532775879,
    "[0.0,0.0,1.0,-1.0,0.0,1.0,0.0,-1.0,0.0]" : 0.5485816253349185,
    "[1.0,-1.0,0.0,0.0,1.0,0.0,1.0,0.0,-1.0]" : 0.5483943643048406,
    "[0.0,0.0,1.0,-1.0,-1.0,1.0,0.0,1.0,0.0]" : 0.547637939453125,
    "[0.0,0.0,1.0,-1.0,0.0,-1.0,1.0,1.0,0.0]" : 0.54736328125,
    "[1.0,1.0,0.0,1.0,-1.0,0.0,0.0,-1.0,0.0]" : 0.547271728515625,
    "[1.0,1.0,0.0,0.0,-1.0,1.0,0.0,-1.0,0.0]" : 0.5469580888748169,
    "[0.0,-1.0,1.0,-1.0,0.0,0.0,1.0,0.0,0.0]" : 0.546875,
    "[1.0,1.0,-1.0,0.0,-1.0,0.0,1.0,-1.0,1.0]" : 0.5463485717773438,
    "[0.0,1.0,-1.0,0.0,-1.0,0.0,1.0,0.0,1.0]" : 0.5447998046875,
    "[0.0,-1.0,1.0,0.0,1.0,-1.0,0.0,1.0,0.0]" : 0.5439453125,
    "[0.0,0.0,0.0,-1.0,1.0,0.0,1.0,1.0,-1.0]" : 0.543853759765625,
    "[0.0,1.0,0.0,1.0,0.0,0.0,-1.0,1.0,-1.0]" : 0.5437464714050293,
    "[1.0,1.0,0.0,-1.0,0.0,0.0,-1.0,1.0,-1.0]" : 0.54296875,
    "[1.0,0.0,-1.0,0.0,1.0,1.0,0.0,-1.0,0.0]" : 0.5416736602783203,
    "[1.0,1.0,0.0,-1.0,0.0,1.0,-1.0,0.0,0.0]" : 0.54150390625,
    "[1.0,-1.0,0.0,-1.0,1.0,0.0,0.0,1.0,0.0]" : 0.54150390625,
    "[-1.0,1.0,-1.0,0.0,1.0,1.0,1.0,-1.0,0.0]" : 0.53955078125,
    "[1.0,0.0,1.0,0.0,-1.0,1.0,-1.0,1.0,-1.0]" : 0.53955078125,
    "[-1.0,0.0,1.0,1.0,-1.0,0.0,-1.0,0.0,1.0]" : 0.539459228515625,
    "[-1.0,1.0,-1.0,1.0,1.0,0.0,0.0,-1.0,1.0]" : 0.5389328002929688,
    "[0.0,1.0,-1.0,1.0,1.0,0.0,-1.0,0.0,0.0]" : 0.537109375,
    "[0.0,1.0,0.0,-1.0,1.0,0.0,0.0,-1.0,1.0]" : 0.537109375,
    "[-1.0,0.0,-1.0,0.0,0.0,1.0,0.0,1.0,1.0]" : 0.5369873046875,
    "[-1.0,1.0,1.0,0.0,0.0,0.0,1.0,-1.0,0.0]" : 0.5369873046875,
    "[1.0,0.0,-1.0,-1.0,1.0,0.0,0.0,1.0,0.0]" : 0.5366744995117188,
    "[0.0,0.0,0.0,0.0,1.0,-1.0,0.0,1.0,0.0]" : 0.535037145662988,
    "[0.0,0.0,0.0,-1.0,1.0,-1.0,1.0,0.0,0.0]" : 0.5345817506313324,
    "[1.0,0.0,-1.0,1.0,0.0,1.0,0.0,0.0,-1.0]" : 0.53369140625,
    "[0.0,0.0,1.0,1.0,-1.0,0.0,-1.0,0.0,1.0]" : 0.53369140625,
    "[1.0,-1.0,0.0,1.0,1.0,-1.0,0.0,0.0,0.0]" : 0.53369140625,
    "[1.0,1.0,-1.0,-1.0,1.0,1.0,0.0,-1.0,0.0]" : 0.5316329002380371,
    "[0.0,0.0,0.0,0.0,1.0,1.0,-1.0,1.0,-1.0]" : 0.5299911499023438,
    "[0.0,0.0,1.0,1.0,1.0,-1.0,-1.0,-1.0,1.0]" : 0.5296630859375,
    "[0.0,-1.0,1.0,0.0,1.0,-1.0,0.0,1.0,-1.0]" : 0.529296875,
    "[1.0,1.0,0.0,-1.0,0.0,1.0,0.0,-1.0,0.0]" : 0.529296875,
    "[-1.0,1.0,0.0,0.0,0.0,-1.0,1.0,1.0,0.0]" : 0.529296875,
    "[-1.0,-1.0,0.0,1.0,0.0,-1.0,0.0,1.0,1.0]" : 0.529296875,
    "[1.0,-1.0,-1.0,0.0,0.0,1.0,0.0,0.0,1.0]" : 0.5272216796875,
    "[0.0,-1.0,1.0,0.0,1.0,0.0,0.0,-1.0,1.0]" : 0.5257568359375,
    "[0.0,-1.0,1.0,1.0,1.0,0.0,0.0,0.0,-1.0]" : 0.52520751953125,
    "[1.0,0.0,-1.0,-1.0,0.0,0.0,0.0,0.0,1.0]" : 0.5251998901367188,
    "[0.0,-1.0,0.0,0.0,1.0,1.0,-1.0,1.0,0.0]" : 0.5243701934814453,
    "[-1.0,1.0,-1.0,1.0,1.0,0.0,0.0,0.0,0.0]" : 0.522918701171875,
    "[1.0,-1.0,1.0,0.0,-1.0,0.0,-1.0,1.0,1.0]" : 0.522247314453125,
    "[-1.0,0.0,1.0,1.0,-1.0,-1.0,1.0,0.0,1.0]" : 0.522247314453125,
    "[0.0,0.0,-1.0,1.0,0.0,-1.0,0.0,1.0,1.0]" : 0.521650642156601,
    "[1.0,0.0,0.0,-1.0,1.0,-1.0,0.0,0.0,0.0]" : 0.5212151831947267,
    "[1.0,0.0,1.0,0.0,-1.0,0.0,1.0,0.0,-1.0]" : 0.519864559173584,
    "[-1.0,-1.0,0.0,0.0,0.0,1.0,0.0,0.0,1.0]" : 0.5193405151367188,
    "[-1.0,1.0,-1.0,-1.0,1.0,1.0,1.0,0.0,0.0]" : 0.5166854858398438,
    "[0.0,-1.0,0.0,1.0,0.0,-1.0,1.0,0.0,0.0]" : 0.5107989311218262,
    "[0.0,0.0,1.0,0.0,0.0,0.0,-1.0,0.0,1.0]" : 0.5103124306601603,
    "[1.0,0.0,1.0,1.0,-1.0,0.0,-1.0,1.0,-1.0]" : 0.5093855857849121,
    "[1.0,0.0,-1.0,0.0,-1.0,1.0,1.0,0.0,0.0]" : 0.509246826171875,
    "[1.0,1.0,0.0,-1.0,1.0,0.0,0.0,0.0,-1.0]" : 0.508544921875,
    "[-1.0,1.0,1.0,1.0,1.0,0.0,0.0,-1.0,-1.0]" : 0.5078125,
    "[0.0,-1.0,1.0,0.0,1.0,0.0,0.0,-1.0,0.0]" : 0.5075675552428063,
    "[0.0,0.0,-1.0,-1.0,-1.0,1.0,1.0,1.0,0.0]" : 0.5075302124023438,
    "[-1.0,-1.0,1.0,0.0,1.0,0.0,0.0,0.0,1.0]" : 0.5067405700683594,
    "[1.0,0.0,-1.0,0.0,-1.0,0.0,1.0,1.0,0.0]" : 0.5065937042236328,
    "[1.0,0.0,0.0,0.0,1.0,-1.0,0.0,0.0,0.0]" : 0.5056844300399003,
    "[0.0,0.0,0.0,1.0,1.0,-1.0,0.0,-1.0,1.0]" : 0.5047450065612793,
    "[0.0,1.0,0.0,0.0,0.0,1.0,-1.0,1.0,-1.0]" : 0.5032958984375,
    "[-1.0,0.0,1.0,0.0,1.0,1.0,0.0,-1.0,0.0]" : 0.5032958984375,
    "[1.0,-1.0,0.0,0.0,1.0,0.0,0.0,-1.0,0.0]" : 0.5024340185714209,
    "[0.0,1.0,0.0,-1.0,0.0,0.0,1.0,1.0,-1.0]" : 0.5023193359375,
    "[1.0,-1.0,1.0,1.0,0.0,0.0,0.0,0.0,-1.0]" : 0.50146484375,
    "[0.0,-1.0,1.0,0.0,0.0,-1.0,0.0,1.0,1.0]" : 0.5012946128845215,
    "[0.0,-1.0,0.0,1.0,1.0,0.0,0.0,-1.0,0.0]" : 0.5000875218278374,
    "[1.0,-1.0,1.0,1.0,-1.0,-1.0,-1.0,1.0,0.0]" : 0.5,
    "[0.0,1.0,-1.0,1.0,-1.0,-1.0,1.0,-1.0,1.0]" : 0.5,
    "[1.0,-1.0,-1.0,-1.0,1.0,1.0,-1.0,1.0,0.0]" : 0.5,
    "[1.0,1.0,-1.0,0.0,-1.0,1.0,1.0,-1.0,-1.0]" : 0.5,
    "[0.0,-1.0,1.0,1.0,0.0,-1.0,-1.0,1.0,1.0]" : 0.5,
    "[0.0,1.0,-1.0,-1.0,1.0,1.0,1.0,-1.0,-1.0]" : 0.5,
    "[-1.0,1.0,-1.0,1.0,1.0,-1.0,-1.0,0.0,1.0]" : 0.5,
    "[-1.0,1.0,-1.0,-1.0,1.0,1.0,1.0,-1.0,0.0]" : 0.5,
    "[1.0,-1.0,-1.0,-1.0,1.0,0.0,1.0,1.0,0.0]" : 0.5,
    "[-1.0,1.0,1.0,1.0,-1.0,0.0,-1.0,-1.0,1.0]" : 0.5,
    "[1.0,-1.0,1.0,1.0,0.0,-1.0,-1.0,0.0,1.0]" : 0.5,
    "[-1.0,1.0,-1.0,-1.0,1.0,1.0,1.0,0.0,-1.0]" : 0.5,
    "[1.0,-1.0,-1.0,-1.0,1.0,1.0,1.0,-1.0,0.0]" : 0.5,
    "[1.0,-1.0,1.0,1.0,0.0,-1.0,-1.0,1.0,0.0]" : 0.5,
    "[-1.0,1.0,-1.0,-1.0,0.0,1.0,1.0,-1.0,1.0]" : 0.5,
    "[1.0,-1.0,0.0,-1.0,0.0,1.0,1.0,1.0,-1.0]" : 0.5,
    "[-1.0,1.0,1.0,1.0,0.0,-1.0,-1.0,-1.0,1.0]" : 0.5,
    "[-1.0,1.0,1.0,0.0,1.0,-1.0,-1.0,0.0,1.0]" : 0.5,
    "[1.0,-1.0,-1.0,0.0,-1.0,1.0,1.0,1.0,-1.0]" : 0.5,
    "[-1.0,1.0,-1.0,0.0,-1.0,1.0,1.0,-1.0,1.0]" : 0.5,
    "[1.0,-1.0,0.0,-1.0,-1.0,1.0,1.0,1.0,-1.0]" : 0.5,
    "[-1.0,1.0,-1.0,0.0,1.0,1.0,1.0,-1.0,-1.0]" : 0.5,
    "[1.0,0.0,-1.0,-1.0,0.0,1.0,1.0,-1.0,1.0]" : 0.5,
    "[-1.0,0.0,1.0,1.0,1.0,-1.0,-1.0,1.0,-1.0]" : 0.5,
    "[1.0,0.0,0.0,-1.0,-1.0,1.0,1.0,1.0,-1.0]" : 0.5,
    "[-1.0,1.0,0.0,1.0,1.0,-1.0,-1.0,-1.0,1.0]" : 0.5,
    "[1.0,-1.0,1.0,-1.0,-1.0,1.0,-1.0,1.0,0.0]" : 0.5,
    "[1.0,0.0,-1.0,-1.0,1.0,1.0,1.0,-1.0,0.0]" : 0.5,
    "[-1.0,0.0,1.0,1.0,-1.0,-1.0,-1.0,1.0,1.0]" : 0.5,
    "[-1.0,1.0,1.0,1.0,1.0,-1.0,-1.0,0.0,0.0]" : 0.5,
    "[1.0,-1.0,-1.0,-1.0,-1.0,1.0,1.0,1.0,0.0]" : 0.5,
    "[-1.0,-1.0,1.0,1.0,1.0,-1.0,-1.0,0.0,1.0]" : 0.5,
    "[0.0,1.0,-1.0,0.0,-1.0,1.0,1.0,-1.0,1.0]" : 0.5,
    "[1.0,-1.0,1.0,0.0,1.0,-1.0,-1.0,1.0,-1.0]" : 0.5,
    "[-1.0,-1.0,1.0,1.0,-1.0,-1.0,0.0,1.0,1.0]" : 0.5,
    "[1.0,-1.0,1.0,-1.0,0.0,0.0,1.0,1.0,-1.0]" : 0.5,
    "[-1.0,1.0,-1.0,1.0,1.0,0.0,-1.0,-1.0,1.0]" : 0.5,
    "[1.0,0.0,-1.0,-1.0,-1.0,1.0,1.0,1.0,-1.0]" : 0.5,
    "[-1.0,1.0,-1.0,0.0,1.0,-1.0,1.0,-1.0,1.0]" : 0.5,
    "[1.0,1.0,0.0,-1.0,-1.0,1.0,0.0,-1.0,1.0]" : 0.5,
    "[-1.0,-1.0,1.0,1.0,1.0,-1.0,0.0,1.0,-1.0]" : 0.5,
    "[1.0,-1.0,1.0,-1.0,-1.0,1.0,0.0,1.0,-1.0]" : 0.5,
    "[0.0,1.0,0.0,-1.0,-1.0,1.0,1.0,-1.0,1.0]" : 0.5,
    "[0.0,-1.0,1.0,1.0,1.0,-1.0,-1.0,1.0,-1.0]" : 0.5,
    "[0.0,1.0,1.0,1.0,-1.0,-1.0,-1.0,-1.0,1.0]" : 0.5,
    "[-1.0,1.0,0.0,0.0,1.0,-1.0,1.0,-1.0,1.0]" : 0.5,
    "[1.0,-1.0,1.0,0.0,-1.0,1.0,-1.0,1.0,-1.0]" : 0.5,
    "[-1.0,0.0,1.0,1.0,0.0,-1.0,-1.0,1.0,1.0]" : 0.5,
    "[1.0,1.0,-1.0,-1.0,0.0,1.0,1.0,-1.0,-1.0]" : 0.5,
    "[0.0,1.0,-1.0,1.0,0.0,-1.0,1.0,-1.0,1.0]" : 0.5,
    "[1.0,-1.0,1.0,-1.0,0.0,1.0,-1.0,1.0,-1.0]" : 0.5,
    "[1.0,0.0,-1.0,-1.0,1.0,1.0,-1.0,1.0,-1.0]" : 0.5,
    "[0.0,1.0,-1.0,-1.0,-1.0,1.0,1.0,-1.0,1.0]" : 0.5,
    "[-1.0,1.0,0.0,-1.0,-1.0,1.0,1.0,-1.0,1.0]" : 0.5,
    "[-1.0,1.0,0.0,-1.0,1.0,1.0,1.0,-1.0,0.0]" : 0.5,
    "[1.0,-1.0,-1.0,-1.0,0.0,1.0,1.0,1.0,0.0]" : 0.5,
    "[0.0,0.0,1.0,1.0,-1.0,-1.0,-1.0,1.0,1.0]" : 0.5,
    "[1.0,1.0,-1.0,-1.0,-1.0,1.0,1.0,0.0,0.0]" : 0.5,
    "[-1.0,1.0,1.0,1.0,-1.0,0.0,-1.0,0.0,1.0]" : 0.5,
    "[1.0,-1.0,-1.0,-1.0,1.0,1.0,1.0,0.0,-1.0]" : 0.5,
    "[1.0,-1.0,1.0,1.0,0.0,0.0,-1.0,1.0,-1.0]" : 0.5,
    "[-1.0,1.0,-1.0,-1.0,1.0,0.0,1.0,-1.0,1.0]" : 0.5,
    "[-1.0,0.0,1.0,1.0,1.0,-1.0,-1.0,0.0,1.0]" : 0.5,
    "[1.0,1.0,-1.0,-1.0,-1.0,1.0,1.0,0.0,-1.0]" : 0.5,
    "[-1.0,-1.0,1.0,1.0,1.0,0.0,-1.0,-1.0,1.0]" : 0.5,
    "[1.0,-1.0,-1.0,0.0,1.0,1.0,1.0,-1.0,-1.0]" : 0.5,
    "[-1.0,1.0,0.0,-1.0,1.0,1.0,1.0,-1.0,-1.0]" : 0.5,
    "[1.0,-1.0,1.0,0.0,1.0,0.0,-1.0,1.0,-1.0]" : 0.5,
    "[-1.0,1.0,-1.0,1.0,-1.0,0.0,1.0,-1.0,1.0]" : 0.5,
    "[1.0,-1.0,1.0,1.0,-1.0,0.0,-1.0,1.0,-1.0]" : 0.5,
    "[0.0,1.0,-1.0,0.0,1.0,1.0,1.0,-1.0,-1.0]" : 0.5,
    "[0.0,-1.0,1.0,1.0,-1.0,-1.0,-1.0,1.0,1.0]" : 0.5,
    "[1.0,-1.0,-1.0,-1.0,1.0,1.0,0.0,1.0,0.0]" : 0.5,
    "[-1.0,1.0,1.0,1.0,-1.0,-1.0,0.0,-1.0,1.0]" : 0.5,
    "[-1.0,1.0,0.0,1.0,-1.0,0.0,1.0,-1.0,1.0]" : 0.5,
    "[1.0,-1.0,0.0,-1.0,1.0,1.0,-1.0,1.0,-1.0]" : 0.5,
    "[1.0,0.0,1.0,1.0,0.0,-1.0,-1.0,1.0,-1.0]" : 0.5,
    "[-1.0,-1.0,1.0,1.0,1.0,0.0,-1.0,1.0,0.0]" : 0.5,
    "[1.0,1.0,-1.0,-1.0,-1.0,1.0,1.0,-1.0,0.0]" : 0.5,
    "[1.0,1.0,-1.0,-1.0,0.0,1.0,1.0,0.0,-1.0]" : 0.5,
    "[-1.0,-1.0,1.0,1.0,0.0,-1.0,-1.0,1.0,1.0]" : 0.5,
    "[1.0,0.0,-1.0,-1.0,1.0,1.0,1.0,-1.0,-1.0]" : 0.5,
    "[1.0,-1.0,-1.0,0.0,0.0,1.0,1.0,1.0,-1.0]" : 0.5,
    "[-1.0,1.0,1.0,0.0,-1.0,-1.0,1.0,0.0,1.0]" : 0.5,
    "[1.0,-1.0,-1.0,0.0,1.0,1.0,-1.0,1.0,-1.0]" : 0.5,
    "[0.0,1.0,-1.0,-1.0,0.0,1.0,1.0,1.0,-1.0]" : 0.5,
    "[0.0,-1.0,1.0,1.0,1.0,-1.0,-1.0,-1.0,1.0]" : 0.5,
    "[1.0,0.0,1.0,1.0,-1.0,-1.0,-1.0,1.0,-1.0]" : 0.5,
    "[-1.0,-1.0,1.0,1.0,1.0,-1.0,-1.0,1.0,0.0]" : 0.5,
    "[1.0,-1.0,1.0,0.0,-1.0,1.0,0.0,1.0,-1.0]" : 0.5,
    "[1.0,0.0,-1.0,0.0,-1.0,1.0,1.0,1.0,-1.0]" : 0.5,
    "[-1.0,0.0,1.0,1.0,1.0,-1.0,-1.0,-1.0,1.0]" : 0.5,
    "[-1.0,-1.0,1.0,1.0,-1.0,0.0,-1.0,1.0,1.0]" : 0.5,
    "[1.0,-1.0,1.0,1.0,-1.0,0.0,-1.0,1.0,0.0]" : 0.5,
    "[0.0,-1.0,1.0,1.0,1.0,0.0,-1.0,1.0,-1.0]" : 0.5,
    "[0.0,-1.0,1.0,1.0,0.0,1.0,-1.0,1.0,-1.0]" : 0.5,
    "[0.0,1.0,-1.0,-1.0,1.0,-1.0,1.0,-1.0,1.0]" : 0.5,
    "[-1.0,1.0,-1.0,1.0,0.0,0.0,1.0,-1.0,1.0]" : 0.5,
    "[1.0,-1.0,1.0,-1.0,1.0,0.0,-1.0,1.0,-1.0]" : 0.5,
    "[1.0,-1.0,0.0,0.0,1.0,1.0,-1.0,1.0,-1.0]" : 0.5,
    "[-1.0,1.0,0.0,1.0,-1.0,-1.0,1.0,-1.0,1.0]" : 0.5,
    "[1.0,0.0,-1.0,0.0,1.0,1.0,1.0,-1.0,-1.0]" : 0.5,
    "[-1.0,0.0,1.0,1.0,-1.0,-1.0,0.0,1.0,1.0]" : 0.5,
    "[1.0,0.0,-1.0,-1.0,1.0,0.0,1.0,1.0,-1.0]" : 0.5,
    "[-1.0,-1.0,1.0,1.0,0.0,0.0,-1.0,1.0,1.0]" : 0.5,
    "[1.0,1.0,-1.0,-1.0,0.0,1.0,0.0,-1.0,1.0]" : 0.5,
    "[1.0,-1.0,-1.0,-1.0,0.0,1.0,1.0,1.0,-1.0]" : 0.5,
    "[-1.0,0.0,0.0,1.0,1.0,-1.0,-1.0,1.0,1.0]" : 0.5,
    "[1.0,1.0,0.0,-1.0,-1.0,1.0,1.0,-1.0,-1.0]" : 0.5,
    "[1.0,1.0,0.0,-1.0,0.0,1.0,1.0,-1.0,-1.0]" : 0.5,
    "[0.0,1.0,-1.0,0.0,1.0,-1.0,1.0,-1.0,1.0]" : 0.5,
    "[0.0,-1.0,1.0,-1.0,-1.0,1.0,1.0,1.0,0.0]" : 0.5,
    "[0.0,1.0,-1.0,1.0,1.0,-1.0,-1.0,-1.0,1.0]" : 0.5,
    "[1.0,0.0,-1.0,-1.0,1.0,1.0,0.0,1.0,-1.0]" : 0.5,
    "[-1.0,1.0,-1.0,0.0,0.0,1.0,1.0,-1.0,1.0]" : 0.5,
    "[1.0,-1.0,1.0,1.0,0.0,-1.0,-1.0,1.0,-1.0]" : 0.5,
    "[0.0,-1.0,1.0,-1.0,0.0,1.0,1.0,1.0,-1.0]" : 0.5,
    "[0.0,1.0,1.0,1.0,0.0,-1.0,-1.0,-1.0,1.0]" : 0.5,
    "[0.0,-1.0,1.0,1.0,-1.0,-1.0,0.0,1.0,1.0]" : 0.5,
    "[-1.0,1.0,-1.0,-1.0,-1.0,1.0,1.0,0.0,1.0]" : 0.5,
    "[1.0,0.0,1.0,-1.0,1.0,-1.0,-1.0,1.0,-1.0]" : 0.5,
    "[1.0,-1.0,1.0,-1.0,1.0,1.0,-1.0,0.0,0.0]" : 0.5,
    "[-1.0,1.0,-1.0,1.0,-1.0,-1.0,1.0,0.0,1.0]" : 0.5,
    "[1.0,-1.0,1.0,0.0,-1.0,0.0,1.0,1.0,-1.0]" : 0.5,
    "[1.0,0.0,-1.0,-1.0,1.0,1.0,1.0,0.0,-1.0]" : 0.5,
    "[-1.0,-1.0,1.0,1.0,1.0,-1.0,0.0,-1.0,1.0]" : 0.5,
    "[1.0,0.0,1.0,-1.0,1.0,0.0,-1.0,1.0,-1.0]" : 0.5,
    "[-1.0,-1.0,1.0,1.0,1.0,0.0,-1.0,1.0,-1.0]" : 0.5,
    "[0.0,1.0,0.0,-1.0,1.0,1.0,1.0,-1.0,-1.0]" : 0.5,
    "[-1.0,1.0,1.0,1.0,-1.0,-1.0,-1.0,0.0,1.0]" : 0.5,
    "[1.0,-1.0,1.0,-1.0,-1.0,1.0,0.0,1.0,0.0]" : 0.5,
    "[-1.0,1.0,-1.0,1.0,1.0,-1.0,0.0,-1.0,1.0]" : 0.5,
    "[1.0,-1.0,0.0,-1.0,1.0,1.0,1.0,-1.0,-1.0]" : 0.5,
    "[1.0,-1.0,-1.0,0.0,1.0,1.0,1.0,0.0,-1.0]" : 0.5,
    "[1.0,1.0,-1.0,-1.0,0.0,0.0,1.0,-1.0,1.0]" : 0.5,
    "[-1.0,1.0,-1.0,0.0,1.0,0.0,1.0,-1.0,1.0]" : 0.5,
    "[0.0,0.0,-1.0,1.0,1.0,-1.0,1.0,-1.0,1.0]" : 0.5,
    "[1.0,0.0,1.0,-1.0,-1.0,1.0,-1.0,1.0,-1.0]" : 0.5,
    "[1.0,0.0,1.0,-1.0,0.0,1.0,-1.0,1.0,-1.0]" : 0.5,
    "[-1.0,1.0,-1.0,1.0,0.0,-1.0,1.0,-1.0,1.0]" : 0.5,
    "[0.0,1.0,0.0,1.0,-1.0,-1.0,1.0,-1.0,1.0]" : 0.5,
    "[0.0,1.0,-1.0,-1.0,1.0,1.0,1.0,-1.0,0.0]" : 0.5,
    "[0.0,1.0,1.0,0.0,1.0,-1.0,-1.0,-1.0,1.0]" : 0.5,
    "[-1.0,1.0,1.0,1.0,0.0,-1.0,0.0,-1.0,1.0]" : 0.5,
    "[-1.0,1.0,0.0,1.0,1.0,-1.0,0.0,-1.0,1.0]" : 0.5,
    "[0.0,1.0,0.0,-1.0,-1.0,1.0,1.0,1.0,-1.0]" : 0.5,
    "[1.0,0.0,-1.0,-1.0,0.0,1.0,1.0,1.0,-1.0]" : 0.5,
    "[-1.0,1.0,-1.0,0.0,1.0,1.0,0.0,-1.0,1.0]" : 0.5,
    "[1.0,-1.0,1.0,1.0,-1.0,-1.0,0.0,1.0,-1.0]" : 0.5,
    "[0.0,1.0,-1.0,-1.0,-1.0,1.0,1.0,1.0,0.0]" : 0.5,
    "[1.0,-1.0,1.0,-1.0,1.0,-1.0,-1.0,1.0,0.0]" : 0.5,
    "[0.0,1.0,-1.0,-1.0,0.0,1.0,1.0,-1.0,1.0]" : 0.5,
    "[0.0,-1.0,1.0,0.0,1.0,1.0,-1.0,1.0,-1.0]" : 0.5,
    "[0.0,1.0,1.0,1.0,-1.0,-1.0,0.0,-1.0,1.0]" : 0.5,
    "[1.0,-1.0,-1.0,-1.0,1.0,1.0,0.0,1.0,-1.0]" : 0.5,
    "[-1.0,1.0,0.0,1.0,-1.0,1.0,0.0,-1.0,1.0]" : 0.5,
    "[1.0,-1.0,1.0,-1.0,1.0,-1.0,0.0,1.0,-1.0]" : 0.5,
