{
  "Metadata" : {
    "Seed" : 1688053622043,
    "Alpha" : 0.25,
    "Gamma" : 0.5,
    "Epsilon" : 0.3499999940395355,
    "Solver" : "Q_LEARNING",
    "Heuristic" : "players.heuristics.WinOnlyHeuristic",
    "QWeightsDataStructure" : "players.rl.QWDSTabular",
    "RLFeatureVector" : "games.tictactoe.TicTacToeStateVector",
    "NGamesTotal" : 20625,
    "NGamesWithTheseSettings" : 15837,
    "ContinuedFrom" : {
      "Seed" : 1688053556164,
      "Gamma" : 0.25,
      "NGamesTotal" : 4788,
      "NGamesWithTheseSettings" : 2394,
      "ContinuedFrom" : {
        "Seed" : 1688053524535,
        "NGamesTotal" : 2394,
        "NGamesWithTheseSettings" : 2394,
        "ContinuedFrom" : null
      }
    }
  },
  "Weights" : {
    "[-1.0,1.0,-1.0,1.0,1.0,0.0,-1.0,0.0,0.0]" : 1.4999396736232813,
    "[1.0,-1.0,-1.0,1.0,1.0,0.0,0.0,-1.0,0.0]" : 1.499891488193359,
    "[0.0,-1.0,0.0,0.0,1.0,1.0,-1.0,-1.0,1.0]" : 1.499153965965989,
    "[1.0,0.0,1.0,-1.0,-1.0,1.0,-1.0,0.0,0.0]" : 1.4990715360531415,
    "[1.0,1.0,0.0,-1.0,1.0,-1.0,-1.0,0.0,0.0]" : 1.4972655038467628,
    "[0.0,0.0,1.0,-1.0,1.0,0.0,0.0,-1.0,1.0]" : 1.4972654816227657,
    "[1.0,0.0,1.0,0.0,0.0,-1.0,1.0,-1.0,-1.0]" : 1.4968943152629353,
    "[1.0,1.0,0.0,1.0,-1.0,0.0,0.0,0.0,-1.0]" : 1.4958543902912569,
    "[0.0,0.0,-1.0,-1.0,1.0,-1.0,0.0,1.0,1.0]" : 1.4953749540547032,
    "[0.0,0.0,0.0,-1.0,1.0,-1.0,1.0,1.0,0.0]" : 1.4953056058092802,
    "[1.0,0.0,-1.0,1.0,1.0,0.0,0.0,-1.0,0.0]" : 1.492937288953523,
    "[1.0,-1.0,0.0,0.0,1.0,-1.0,1.0,-1.0,0.0]" : 1.4919777389329034,
    "[0.0,-1.0,1.0,-1.0,1.0,1.0,0.0,0.0,0.0]" : 1.4907203975714953,
    "[0.0,-1.0,0.0,-1.0,1.0,-1.0,1.0,0.0,1.0]" : 1.4906512546130966,
    "[1.0,0.0,1.0,0.0,1.0,-1.0,0.0,0.0,-1.0]" : 1.4905828806992778,
    "[-1.0,-1.0,1.0,0.0,1.0,1.0,0.0,-1.0,0.0]" : 1.4903084186965432,
    "[1.0,-1.0,0.0,0.0,0.0,1.0,-1.0,0.0,1.0]" : 1.4895048695298592,
    "[0.0,0.0,-1.0,0.0,1.0,1.0,-1.0,-1.0,1.0]" : 1.4889078711030392,
    "[0.0,1.0,1.0,-1.0,1.0,0.0,0.0,-1.0,0.0]" : 1.487361184625285,
    "[1.0,-1.0,-1.0,0.0,1.0,0.0,1.0,-1.0,0.0]" : 1.4872106975460124,
    "[0.0,-1.0,1.0,-1.0,0.0,0.0,1.0,0.0,1.0]" : 1.4866198178135983,
    "[-1.0,-1.0,1.0,-1.0,0.0,0.0,1.0,0.0,1.0]" : 1.4849718328426071,
    "[1.0,-1.0,1.0,-1.0,0.0,0.0,-1.0,0.0,1.0]" : 1.4848819539862934,
    "[1.0,-1.0,0.0,0.0,1.0,0.0,1.0,-1.0,-1.0]" : 1.4838878132417184,
    "[0.0,-1.0,0.0,-1.0,1.0,0.0,1.0,1.0,0.0]" : 1.4825463645455035,
    "[0.0,1.0,1.0,-1.0,1.0,0.0,0.0,0.0,-1.0]" : 1.4825086123862978,
    "[0.0,-1.0,0.0,0.0,1.0,1.0,0.0,-1.0,1.0]" : 1.4824807616492137,
    "[0.0,-1.0,0.0,1.0,1.0,0.0,1.0,0.0,-1.0]" : 1.4813891384077587,
    "[0.0,-1.0,0.0,-1.0,1.0,1.0,0.0,-1.0,1.0]" : 1.4802897000561905,
    "[-1.0,0.0,0.0,-1.0,-1.0,1.0,1.0,0.0,1.0]" : 1.4782384218954476,
    "[1.0,0.0,1.0,-1.0,1.0,0.0,-1.0,0.0,0.0]" : 1.475485911624995,
    "[1.0,0.0,1.0,-1.0,0.0,0.0,-1.0,0.0,1.0]" : 1.4747929424665243,
    "[1.0,1.0,0.0,0.0,0.0,-1.0,-1.0,1.0,0.0]" : 1.4745933627979895,
    "[1.0,0.0,1.0,-1.0,0.0,0.0,-1.0,-1.0,1.0]" : 1.474049222598958,
    "[1.0,-1.0,0.0,1.0,0.0,1.0,0.0,0.0,-1.0]" : 1.4716961601855565,
    "[1.0,-1.0,-1.0,1.0,1.0,0.0,-1.0,0.0,0.0]" : 1.4709755579998598,
    "[0.0,1.0,1.0,-1.0,1.0,-1.0,0.0,0.0,0.0]" : 1.4620103330633432,
    "[1.0,0.0,1.0,-1.0,1.0,0.0,0.0,-1.0,0.0]" : 1.4587098013491717,
    "[-1.0,1.0,0.0,-1.0,1.0,0.0,1.0,0.0,-1.0]" : 1.4555248861460939,
    "[0.0,0.0,0.0,1.0,1.0,0.0,1.0,-1.0,-1.0]" : 1.4545873212422733,
    "[1.0,-1.0,-1.0,1.0,0.0,1.0,0.0,0.0,-1.0]" : 1.4545313428993305,
    "[0.0,0.0,-1.0,0.0,1.0,1.0,-1.0,1.0,-1.0]" : 1.4533539238550097,
    "[1.0,0.0,1.0,0.0,-1.0,0.0,1.0,0.0,-1.0]" : 1.452832479457388,
    "[0.0,0.0,-1.0,-1.0,1.0,0.0,1.0,1.0,0.0]" : 1.4491306014499463,
    "[-1.0,0.0,1.0,-1.0,0.0,0.0,1.0,-1.0,1.0]" : 1.449068687767781,
    "[1.0,0.0,0.0,-1.0,0.0,1.0,-1.0,-1.0,1.0]" : 1.443986310221888,
    "[-1.0,-1.0,1.0,1.0,1.0,0.0,0.0,0.0,0.0]" : 1.4406261101400446,
    "[0.0,-1.0,1.0,0.0,-1.0,0.0,0.0,1.0,1.0]" : 1.4378118780454616,
    "[0.0,0.0,0.0,-1.0,1.0,0.0,1.0,1.0,-1.0]" : 1.4312187324177623,
    "[-1.0,-1.0,1.0,0.0,0.0,-1.0,1.0,0.0,1.0]" : 1.4299114340053634,
    "[0.0,-1.0,0.0,-1.0,1.0,-1.0,0.0,1.0,1.0]" : 1.4207821590858332,
    "[1.0,-1.0,-1.0,1.0,0.0,1.0,0.0,0.0,0.0]" : 1.420177267466911,
    "[0.0,0.0,-1.0,1.0,1.0,0.0,-1.0,-1.0,1.0]" : 1.4201305511196172,
    "[0.0,0.0,1.0,1.0,0.0,0.0,1.0,-1.0,-1.0]" : 1.418927802339251,
    "[1.0,-1.0,0.0,-1.0,1.0,-1.0,1.0,0.0,0.0]" : 1.4181810756714628,
    "[-1.0,0.0,0.0,0.0,1.0,0.0,1.0,1.0,-1.0]" : 1.4152016458123815,
    "[1.0,0.0,1.0,-1.0,1.0,-1.0,0.0,0.0,-1.0]" : 1.4139223850385654,
    "[-1.0,0.0,1.0,1.0,0.0,1.0,-1.0,0.0,0.0]" : 1.4132542468364095,
    "[0.0,1.0,1.0,-1.0,1.0,-1.0,0.0,-1.0,0.0]" : 1.4131141261716067,
    "[1.0,0.0,-1.0,1.0,0.0,-1.0,0.0,-1.0,1.0]" : 1.4092650710921162,
    "[1.0,1.0,0.0,1.0,-1.0,0.0,0.0,-1.0,0.0]" : 1.4080299568041776,
    "[1.0,0.0,-1.0,1.0,1.0,0.0,-1.0,0.0,0.0]" : 1.3994360581226717,
    "[1.0,0.0,0.0,1.0,0.0,-1.0,0.0,-1.0,1.0]" : 1.3961628940012858,
    "[1.0,1.0,0.0,0.0,-1.0,0.0,1.0,0.0,-1.0]" : 1.3906265987108775,
    "[1.0,-1.0,0.0,-1.0,1.0,0.0,1.0,-1.0,0.0]" : 1.389451149095323,
    "[0.0,0.0,1.0,-1.0,1.0,-1.0,0.0,0.0,1.0]" : 1.3848406241846671,
    "[1.0,0.0,1.0,1.0,-1.0,-1.0,0.0,0.0,-1.0]" : 1.3840582816346532,
    "[0.0,-1.0,0.0,-1.0,1.0,1.0,0.0,0.0,1.0]" : 1.382145251831389,
    "[0.0,-1.0,0.0,0.0,1.0,-1.0,1.0,1.0,0.0]" : 1.3807029931647121,
    "[-1.0,0.0,0.0,1.0,1.0,0.0,-1.0,1.0,-1.0]" : 1.3765732639775525,
    "[1.0,-1.0,0.0,1.0,1.0,0.0,0.0,-1.0,0.0]" : 1.3724696639046212,
    "[1.0,-1.0,-1.0,0.0,0.0,-1.0,0.0,1.0,1.0]" : 1.371558165601249,
    "[1.0,0.0,1.0,-1.0,0.0,1.0,-1.0,0.0,0.0]" : 1.3701538170780623,
    "[0.0,0.0,-1.0,1.0,-1.0,0.0,1.0,1.0,0.0]" : 1.3698006353122127,
    "[-1.0,-1.0,1.0,1.0,1.0,0.0,0.0,0.0,-1.0]" : 1.3687422741904778,
    "[0.0,-1.0,0.0,1.0,-1.0,-1.0,1.0,1.0,0.0]" : 1.364136503187094,
    "[1.0,0.0,1.0,-1.0,0.0,0.0,1.0,-1.0,-1.0]" : 1.3590377293140838,
    "[1.0,-1.0,-1.0,0.0,-1.0,0.0,1.0,1.0,0.0]" : 1.3574887888962837,
    "[0.0,0.0,0.0,0.0,1.0,-1.0,1.0,-1.0,1.0]" : 1.356529151504997,
    "[0.0,1.0,-1.0,0.0,1.0,-1.0,-1.0,0.0,1.0]" : 1.3555388735467175,
    "[-1.0,-1.0,1.0,0.0,1.0,0.0,0.0,0.0,1.0]" : 1.3554295847173279,
    "[0.0,0.0,-1.0,-1.0,1.0,-1.0,1.0,0.0,1.0]" : 1.3548233998434789,
    "[-1.0,0.0,0.0,0.0,1.0,-1.0,1.0,0.0,1.0]" : 1.3530088234434599,
    "[1.0,1.0,0.0,1.0,-1.0,-1.0,0.0,0.0,0.0]" : 1.352216484498226,
    "[0.0,0.0,-1.0,1.0,-1.0,-1.0,1.0,0.0,1.0]" : 1.351622088818074,
    "[1.0,-1.0,0.0,0.0,-1.0,0.0,1.0,1.0,0.0]" : 1.350655230409021,
    "[-1.0,0.0,1.0,0.0,1.0,-1.0,0.0,1.0,-1.0]" : 1.3485171063530432,
    "[1.0,1.0,0.0,0.0,-1.0,0.0,1.0,-1.0,0.0]" : 1.3473113104653394,
    "[-1.0,-1.0,1.0,-1.0,0.0,1.0,1.0,0.0,0.0]" : 1.34671714855358,
    "[-1.0,1.0,0.0,-1.0,1.0,-1.0,1.0,0.0,0.0]" : 1.3462649986597965,
    "[-1.0,0.0,0.0,1.0,1.0,0.0,1.0,-1.0,0.0]" : 1.3440442202028877,
    "[0.0,1.0,1.0,0.0,1.0,-1.0,-1.0,0.0,0.0]" : 1.340040178693411,
    "[-1.0,1.0,-1.0,-1.0,0.0,0.0,1.0,1.0,0.0]" : 1.334563377298764,
    "[1.0,0.0,1.0,-1.0,0.0,0.0,1.0,0.0,-1.0]" : 1.3334730697576678,
    "[-1.0,0.0,0.0,1.0,0.0,1.0,-1.0,-1.0,1.0]" : 1.3308070341570555,
    "[-1.0,0.0,1.0,1.0,0.0,1.0,0.0,-1.0,0.0]" : 1.3295458853244781,
    "[0.0,1.0,-1.0,-1.0,1.0,-1.0,0.0,0.0,1.0]" : 1.3256807610295134,
    "[0.0,0.0,1.0,-1.0,1.0,-1.0,0.0,1.0,-1.0]" : 1.324464599376281,
    "[1.0,1.0,-1.0,-1.0,1.0,0.0,-1.0,0.0,0.0]" : 1.3187259309503514,
    "[0.0,1.0,1.0,0.0,-1.0,0.0,0.0,-1.0,1.0]" : 1.3159579582312715,
    "[-1.0,0.0,0.0,-1.0,1.0,0.0,1.0,1.0,-1.0]" : 1.312947402610349,
    "[1.0,0.0,0.0,-1.0,1.0,-1.0,1.0,0.0,0.0]" : 1.3124203792614082,
    "[-1.0,1.0,-1.0,0.0,1.0,1.0,0.0,0.0,-1.0]" : 1.3099252768761307,
    "[-1.0,-1.0,1.0,1.0,1.0,0.0,0.0,-1.0,0.0]" : 1.3057316285298968,
    "[0.0,0.0,0.0,-1.0,1.0,0.0,1.0,-1.0,1.0]" : 1.3050638817437203,
    "[-1.0,0.0,1.0,0.0,0.0,-1.0,1.0,1.0,0.0]" : 1.3018033446349615,
    "[-1.0,-1.0,1.0,0.0,0.0,1.0,1.0,0.0,0.0]" : 1.3010242474192637,
    "[1.0,0.0,-1.0,0.0,-1.0,0.0,1.0,1.0,0.0]" : 1.2990893443297016,
    "[1.0,0.0,-1.0,0.0,0.0,-1.0,0.0,1.0,1.0]" : 1.2969195268359686,
    "[1.0,0.0,1.0,0.0,-1.0,1.0,-1.0,0.0,0.0]" : 1.295036181188522,
    "[0.0,-1.0,1.0,1.0,0.0,-1.0,1.0,0.0,-1.0]" : 1.2906787656247616,
    "[0.0,0.0,-1.0,0.0,1.0,1.0,-1.0,0.0,1.0]" : 1.2886791197453866,
    "[0.0,-1.0,1.0,1.0,0.0,0.0,1.0,0.0,-1.0]" : 1.286328000731828,
    "[1.0,0.0,1.0,0.0,0.0,-1.0,-1.0,-1.0,1.0]" : 1.2844231527578813,
    "[-1.0,0.0,0.0,1.0,0.0,1.0,0.0,-1.0,1.0]" : 1.2838554136978928,
    "[0.0,1.0,1.0,-1.0,0.0,0.0,0.0,1.0,-1.0]" : 1.2826509906917636,
    "[-1.0,0.0,1.0,0.0,1.0,0.0,0.0,-1.0,1.0]" : 1.2807873304447872,
    "[1.0,0.0,1.0,-1.0,1.0,-1.0,-1.0,0.0,0.0]" : 1.276445095105393,
    "[1.0,-1.0,1.0,-1.0,1.0,-1.0,0.0,0.0,0.0]" : 1.2746334062904399,
    "[0.0,0.0,0.0,0.0,1.0,1.0,-1.0,1.0,-1.0]" : 1.274587262305431,
    "[-1.0,1.0,1.0,0.0,1.0,0.0,0.0,0.0,-1.0]" : 1.2745414505518406,
    "[1.0,0.0,1.0,-1.0,-1.0,1.0,0.0,0.0,0.0]" : 1.2738904912363664,
    "[0.0,-1.0,0.0,1.0,1.0,0.0,-1.0,-1.0,1.0]" : 1.272303956312382,
    "[-1.0,0.0,1.0,0.0,0.0,-1.0,1.0,0.0,1.0]" : 1.2568417340116866,
    "[1.0,1.0,0.0,0.0,1.0,-1.0,-1.0,0.0,0.0]" : 1.255344206667185,
    "[0.0,-1.0,0.0,1.0,0.0,1.0,-1.0,0.0,1.0]" : 1.2545972978405189,
    "[1.0,-1.0,1.0,0.0,0.0,-1.0,1.0,0.0,-1.0]" : 1.2511752190138736,
    "[1.0,1.0,-1.0,0.0,1.0,0.0,-1.0,0.0,0.0]" : 1.2499997067391933,
    "[0.0,0.0,1.0,0.0,1.0,-1.0,0.0,-1.0,1.0]" : 1.2491586838634277,
    "[1.0,-1.0,1.0,0.0,1.0,0.0,0.0,-1.0,0.0]" : 1.24091740210969,
    "[0.0,0.0,1.0,-1.0,1.0,1.0,0.0,-1.0,0.0]" : 1.240198105503977,
    "[1.0,1.0,0.0,0.0,-1.0,0.0,1.0,-1.0,-1.0]" : 1.2393965693240934,
    "[1.0,0.0,0.0,-1.0,1.0,-1.0,1.0,-1.0,0.0]" : 1.2366720562246662,
    "[1.0,1.0,0.0,0.0,0.0,-1.0,-1.0,-1.0,1.0]" : 1.236517245162693,
    "[0.0,1.0,1.0,0.0,0.0,-1.0,1.0,-1.0,-1.0]" : 1.2335946927292034,
    "[1.0,0.0,1.0,0.0,0.0,-1.0,-1.0,0.0,1.0]" : 1.230562571306558,
    "[-1.0,0.0,0.0,-1.0,1.0,-1.0,1.0,0.0,1.0]" : 1.2277775431506948,
    "[0.0,1.0,1.0,0.0,0.0,0.0,-1.0,1.0,-1.0]" : 1.2266946057724453,
    "[-1.0,0.0,0.0,0.0,-1.0,1.0,0.0,1.0,1.0]" : 1.226397479577248,
    "[0.0,-1.0,1.0,0.0,1.0,0.0,-1.0,-1.0,1.0]" : 1.223044768966598,
    "[-1.0,0.0,0.0,1.0,0.0,1.0,-1.0,0.0,1.0]" : 1.222900954065338,
    "[-1.0,-1.0,1.0,0.0,0.0,0.0,1.0,1.0,0.0]" : 1.2228814803752286,
    "[0.0,-1.0,0.0,0.0,-1.0,1.0,0.0,1.0,1.0]" : 1.2215656155443484,
    "[1.0,-1.0,-1.0,0.0,1.0,1.0,0.0,-1.0,0.0]" : 1.2214722509114941,
    "[0.0,1.0,1.0,0.0,0.0,-1.0,1.0,-1.0,0.0]" : 1.2185217100458674,
    "[0.0,1.0,1.0,0.0,-1.0,0.0,-1.0,-1.0,1.0]" : 1.2172678482936383,
    "[-1.0,-1.0,1.0,0.0,-1.0,0.0,0.0,1.0,1.0]" : 1.212475679730422,
    "[1.0,1.0,-1.0,-1.0,1.0,0.0,0.0,0.0,0.0]" : 1.2115919057136137,
    "[0.0,1.0,1.0,0.0,0.0,-1.0,-1.0,1.0,-1.0]" : 1.2078491078890918,
    "[0.0,0.0,-1.0,-1.0,1.0,0.0,1.0,0.0,1.0]" : 1.2015767045563734,
    "[1.0,0.0,1.0,-1.0,0.0,0.0,0.0,-1.0,1.0]" : 1.1927376352250576,
    "[1.0,0.0,1.0,0.0,-1.0,0.0,-1.0,0.0,1.0]" : 1.1909088072714022,
    "[1.0,-1.0,1.0,0.0,0.0,0.0,1.0,0.0,-1.0]" : 1.1903018006656123,
    "[1.0,-1.0,0.0,-1.0,1.0,0.0,1.0,0.0,0.0]" : 1.1891347860432675,
    "[-1.0,1.0,1.0,0.0,1.0,-1.0,0.0,0.0,-1.0]" : 1.188718108662475,
    "[-1.0,0.0,0.0,1.0,1.0,0.0,1.0,0.0,-1.0]" : 1.1872423162533552,
    "[1.0,-1.0,1.0,-1.0,1.0,0.0,0.0,0.0,0.0]" : 1.1872244767873044,
    "[1.0,0.0,-1.0,0.0,0.0,-1.0,1.0,-1.0,1.0]" : 1.1827245194712293,
    "[1.0,-1.0,0.0,1.0,1.0,-1.0,0.0,-1.0,0.0]" : 1.1816502080764621,
    "[1.0,1.0,0.0,-1.0,0.0,0.0,-1.0,-1.0,1.0]" : 1.1808404609703267,
    "[1.0,0.0,0.0,0.0,0.0,1.0,-1.0,-1.0,1.0]" : 1.1803266948918463,
    "[1.0,-1.0,-1.0,0.0,1.0,0.0,1.0,0.0,0.0]" : 1.1795853260242146,
    "[1.0,1.0,0.0,-1.0,0.0,0.0,-1.0,0.0,1.0]" : 1.175488146918756,
    "[-1.0,0.0,0.0,1.0,1.0,0.0,1.0,-1.0,-1.0]" : 1.170604282101857,
    "[-1.0,0.0,0.0,0.0,1.0,1.0,0.0,-1.0,1.0]" : 1.169674849509918,
    "[1.0,0.0,1.0,-1.0,0.0,0.0,1.0,-1.0,0.0]" : 1.1660825460818458,
    "[0.0,1.0,1.0,0.0,0.0,-1.0,0.0,1.0,-1.0]" : 1.164212390379305,
    "[-1.0,1.0,0.0,0.0,1.0,-1.0,1.0,0.0,0.0]" : 1.1640838235471165,
    "[0.0,-1.0,0.0,-1.0,1.0,0.0,1.0,-1.0,1.0]" : 1.1635290303917616,
    "[-1.0,0.0,0.0,0.0,1.0,1.0,1.0,-1.0,-1.0]" : 1.1559784966014321,
    "[0.0,-1.0,0.0,-1.0,-1.0,1.0,0.0,1.0,1.0]" : 1.1557771805673838,
    "[0.0,1.0,0.0,-1.0,1.0,0.0,1.0,0.0,-1.0]" : 1.1552708470842667,
    "[0.0,0.0,0.0,1.0,-1.0,-1.0,1.0,1.0,0.0]" : 1.1491987725468953,
    "[-1.0,0.0,1.0,0.0,-1.0,0.0,1.0,0.0,1.0]" : 1.143183800394802,
    "[0.0,-1.0,1.0,-1.0,1.0,-1.0,0.0,0.0,1.0]" : 1.1330619199532548,
    "[0.0,1.0,1.0,-1.0,-1.0,1.0,0.0,-1.0,0.0]" : 1.1326335296039858,
    "[1.0,-1.0,0.0,1.0,1.0,0.0,-1.0,0.0,0.0]" : 1.1269096001952417,
    "[-1.0,0.0,1.0,1.0,1.0,-1.0,0.0,0.0,-1.0]" : 1.1230080820549126,
    "[1.0,-1.0,-1.0,0.0,1.0,1.0,-1.0,0.0,0.0]" : 1.12161299502207,
    "[1.0,0.0,0.0,1.0,1.0,-1.0,0.0,-1.0,0.0]" : 1.1192404753466025,
    "[1.0,0.0,1.0,1.0,-1.0,-1.0,0.0,0.0,0.0]" : 1.1172416504838056,
    "[0.0,0.0,0.0,-1.0,1.0,-1.0,1.0,0.0,1.0]" : 1.1162622645028433,
    "[1.0,-1.0,1.0,-1.0,1.0,0.0,0.0,-1.0,0.0]" : 1.1150317346478205,
    "[1.0,0.0,-1.0,-1.0,0.0,0.0,1.0,0.0,1.0]" : 1.1123504621041012,
    "[1.0,0.0,1.0,-1.0,1.0,-1.0,0.0,-1.0,0.0]" : 1.1121864753811623,
    "[0.0,0.0,0.0,1.0,-1.0,-1.0,1.0,0.0,1.0]" : 1.1104742284394717,
    "[1.0,0.0,1.0,0.0,0.0,-1.0,1.0,-1.0,0.0]" : 1.108340443762804,
    "[1.0,0.0,1.0,0.0,0.0,0.0,1.0,-1.0,-1.0]" : 1.1066853444153155,
    "[1.0,1.0,0.0,0.0,0.0,-1.0,-1.0,0.0,1.0]" : 1.099260862916708,
    "[1.0,-1.0,-1.0,1.0,0.0,0.0,0.0,0.0,1.0]" : 1.0988765340007376,
    "[1.0,0.0,-1.0,-1.0,1.0,0.0,-1.0,1.0,0.0]" : 1.0979113417338928,
    "[1.0,0.0,1.0,0.0,0.0,-1.0,0.0,-1.0,1.0]" : 1.0918897389475686,
    "[1.0,-1.0,1.0,0.0,1.0,-1.0,0.0,-1.0,0.0]" : 1.0918406677942483,
    "[1.0,0.0,-1.0,0.0,1.0,0.0,-1.0,1.0,0.0]" : 1.0909973427790327,
    "[0.0,0.0,1.0,-1.0,0.0,1.0,1.0,-1.0,0.0]" : 1.0885448455810547,
    "[1.0,0.0,1.0,1.0,-1.0,0.0,0.0,0.0,-1.0]" : 1.0856327807487605,
    "[1.0,-1.0,-1.0,-1.0,0.0,0.0,1.0,0.0,1.0]" : 1.0834068331818119,
    "[1.0,0.0,-1.0,0.0,1.0,0.0,1.0,-1.0,0.0]" : 1.082256054304846,
    "[0.0,0.0,-1.0,0.0,1.0,0.0,-1.0,1.0,1.0]" : 1.0797597397899252,
    "[-1.0,0.0,1.0,0.0,1.0,1.0,0.0,-1.0,0.0]" : 1.077302351427761,
    "[-1.0,-1.0,1.0,1.0,0.0,1.0,-1.0,0.0,0.0]" : 1.0753080251994023,
    "[1.0,0.0,0.0,0.0,1.0,0.0,1.0,-1.0,-1.0]" : 1.0723813015189163,
    "[0.0,-1.0,1.0,1.0,1.0,0.0,0.0,0.0,-1.0]" : 1.0709632001817226,
    "[0.0,-1.0,1.0,-1.0,1.0,1.0,0.0,-1.0,0.0]" : 1.0620912909507751,
    "[-1.0,-1.0,1.0,-1.0,0.0,0.0,1.0,1.0,0.0]" : 1.059166431427002,
    "[0.0,-1.0,0.0,0.0,1.0,-1.0,0.0,1.0,1.0]" : 1.0567955492453263,
    "[0.0,1.0,-1.0,0.0,1.0,0.0,-1.0,0.0,1.0]" : 1.0524007018344292,
    "[0.0,0.0,1.0,-1.0,1.0,-1.0,0.0,-1.0,1.0]" : 1.0498725153499866,
    "[1.0,1.0,0.0,0.0,1.0,-1.0,0.0,-1.0,0.0]" : 1.0456276313925628,
    "[1.0,0.0,1.0,0.0,0.0,-1.0,0.0,0.0,-1.0]" : 1.0453344157251196,
    "[1.0,1.0,0.0,1.0,-1.0,-1.0,0.0,-1.0,0.0]" : 1.0437847301946022,
    "[0.0,-1.0,0.0,-1.0,1.0,-1.0,1.0,1.0,0.0]" : 1.0402780717595306,
    "[-1.0,0.0,0.0,1.0,1.0,0.0,-1.0,1.0,0.0]" : 1.0396648524329066,
    "[1.0,1.0,0.0,0.0,0.0,0.0,-1.0,1.0,-1.0]" : 1.0383735858452814,
    "[0.0,0.0,0.0,-1.0,-1.0,1.0,0.0,1.0,1.0]" : 1.0370392086565081,
    "[0.0,1.0,1.0,0.0,-1.0,0.0,-1.0,0.0,1.0]" : 1.0338011394106386,
    "[1.0,-1.0,0.0,0.0,0.0,-1.0,0.0,1.0,1.0]" : 1.03363037109375,
    "[0.0,1.0,1.0,0.0,0.0,-1.0,-1.0,1.0,0.0]" : 1.0332609144825255,
    "[1.0,0.0,1.0,0.0,1.0,-1.0,0.0,-1.0,0.0]" : 1.0281147236237302,
    "[-1.0,-1.0,1.0,0.0,1.0,0.0,0.0,-1.0,1.0]" : 1.0243272786667181,
    "[0.0,-1.0,1.0,-1.0,0.0,0.0,0.0,1.0,1.0]" : 1.0226081432774663,
    "[0.0,0.0,-1.0,1.0,0.0,1.0,1.0,0.0,-1.0]" : 1.0203115971689272,
    "[-1.0,-1.0,1.0,0.0,0.0,-1.0,1.0,1.0,0.0]" : 1.0180606380456538,
    "[0.0,1.0,0.0,-1.0,0.0,1.0,0.0,1.0,-1.0]" : 1.0154311805963516,
    "[0.0,1.0,-1.0,-1.0,1.0,0.0,0.0,0.0,1.0]" : 1.0134646350688188,
    "[-1.0,0.0,0.0,0.0,1.0,1.0,0.0,1.0,-1.0]" : 1.0127096730883105,
    "[1.0,1.0,0.0,-1.0,0.0,0.0,-1.0,1.0,0.0]" : 1.0046539306640625,
    "[0.0,0.0,0.0,-1.0,1.0,0.0,1.0,0.0,-1.0]" : 1.0046196769858156,
    "[0.0,1.0,1.0,0.0,0.0,-1.0,1.0,0.0,-1.0]" : 1.0044455043079168,
    "[0.0,0.0,0.0,-1.0,1.0,-1.0,0.0,1.0,1.0]" : 1.0020615400499082,
    "[1.0,-1.0,-1.0,0.0,1.0,-1.0,0.0,0.0,1.0]" : 0.9999999993265277,
    "[1.0,0.0,0.0,1.0,-1.0,-1.0,1.0,0.0,0.0]" : 0.9999999978714951,
    "[1.0,1.0,1.0,-1.0,-1.0,0.0,0.0,0.0,0.0]" : 0.9999999962159913,
    "[0.0,0.0,1.0,0.0,1.0,-1.0,1.0,-1.0,-1.0]" : 0.9999999962159913,
    "[1.0,1.0,1.0,0.0,-1.0,-1.0,0.0,0.0,0.0]" : 0.9999999949546551,
    "[1.0,-1.0,-1.0,1.0,1.0,1.0,-1.0,0.0,-1.0]" : 0.9999999932728735,
    "[0.0,0.0,1.0,0.0,-1.0,1.0,0.0,-1.0,1.0]" : 0.999999991030498,
    "[0.0,0.0,0.0,-1.0,-1.0,0.0,1.0,1.0,1.0]" : 0.9999999880406639,
    "[-1.0,0.0,-1.0,1.0,1.0,1.0,1.0,-1.0,-1.0]" : 0.9999999787389581,
    "[0.0,0.0,0.0,0.0,-1.0,-1.0,1.0,1.0,1.0]" : 0.9999999716519441,
    "[-1.0,1.0,-1.0,0.0,1.0,-1.0,-1.0,1.0,1.0]" : 0.9999999622025921,
    "[0.0,0.0,1.0,-1.0,-1.0,1.0,-1.0,1.0,1.0]" : 0.9999999622025921,
    "[-1.0,0.0,1.0,0.0,-1.0,1.0,0.0,0.0,1.0]" : 0.9999999496034562,
    "[-1.0,-1.0,1.0,0.0,1.0,1.0,-1.0,-1.0,1.0]" : 0.9999999496034562,
    "[1.0,0.0,-1.0,1.0,-1.0,0.0,1.0,1.0,-1.0]" : 0.9999999496034562,
    "[0.0,-1.0,1.0,0.0,-1.0,1.0,0.0,0.0,1.0]" : 0.9999999328046082,
    "[1.0,1.0,1.0,0.0,-1.0,1.0,-1.0,0.0,-1.0]" : 0.9999999328046082,
    "[-1.0,0.0,1.0,0.0,-1.0,1.0,-1.0,1.0,1.0]" : 0.9999999104061442,
    "[1.0,0.0,0.0,1.0,-1.0,0.0,1.0,-1.0,0.0]" : 0.9999998805415257,
    "[0.0,0.0,-1.0,0.0,-1.0,0.0,1.0,1.0,1.0]" : 0.9999998805415257,
    "[1.0,-1.0,0.0,1.0,-1.0,0.0,1.0,0.0,0.0]" : 0.9999998805415257,
    "[-1.0,0.0,-1.0,1.0,1.0,1.0,-1.0,-1.0,1.0]" : 0.9999998805415257,
    "[0.0,0.0,1.0,-1.0,-1.0,1.0,0.0,0.0,1.0]" : 0.9999998407220342,
    "[1.0,0.0,0.0,-1.0,1.0,0.0,-1.0,-1.0,1.0]" : 0.9999998407220342,
    "[1.0,1.0,1.0,1.0,-1.0,0.0,-1.0,0.0,-1.0]" : 0.9999998407220342,
    "[-1.0,0.0,0.0,0.0,-1.0,0.0,1.0,1.0,1.0]" : 0.9999997876293789,
    "[1.0,-1.0,0.0,1.0,-1.0,0.0,1.0,1.0,-1.0]" : 0.9999997876293789,
    "[-1.0,1.0,1.0,0.0,-1.0,1.0,0.0,-1.0,1.0]" : 0.9999997876293789,
    "[-1.0,1.0,1.0,0.0,-1.0,1.0,-1.0,0.0,1.0]" : 0.9999997168391719,
    "[-1.0,1.0,-1.0,-1.0,1.0,-1.0,0.0,1.0,1.0]" : 0.9999996224522292,
    "[1.0,-1.0,-1.0,1.0,1.0,1.0,0.0,-1.0,-1.0]" : 0.9999996224522292,
    "[-1.0,0.0,1.0,-1.0,1.0,-1.0,1.0,-1.0,1.0]" : 0.9999994966029722,
    "[-1.0,-1.0,1.0,0.0,1.0,1.0,0.0,1.0,-1.0]" : 0.9999994966029722,
    "[-1.0,0.0,-1.0,0.0,-1.0,1.0,1.0,1.0,1.0]" : 0.9999994966029722,
    "[0.0,0.0,1.0,0.0,-1.0,1.0,-1.0,0.0,1.0]" : 0.9999993288039628,
    "[-1.0,-1.0,1.0,-1.0,1.0,0.0,1.0,0.0,0.0]" : 0.9999993288039628,
    "[1.0,1.0,1.0,0.0,-1.0,0.0,0.0,0.0,-1.0]" : 0.9999993288039628,
    "[-1.0,0.0,0.0,1.0,1.0,1.0,-1.0,-1.0,0.0]" : 0.9999991050719503,
    "[1.0,1.0,1.0,-1.0,-1.0,0.0,1.0,0.0,-1.0]" : 0.9999991050719503,
    "[1.0,1.0,1.0,0.0,-1.0,0.0,-1.0,0.0,0.0]" : 0.9999988067626004,
    "[1.0,0.0,1.0,-1.0,1.0,-1.0,1.0,0.0,-1.0]" : 0.9999984090168006,
    "[0.0,-1.0,-1.0,0.0,-1.0,1.0,1.0,1.0,1.0]" : 0.9999984090168006,
    "[0.0,0.0,0.0,1.0,1.0,1.0,-1.0,0.0,-1.0]" : 0.9999978786890674,
    "[1.0,0.0,-1.0,1.0,-1.0,0.0,1.0,0.0,0.0]" : 0.9999978786890674,
    "[1.0,-1.0,-1.0,1.0,1.0,0.0,1.0,-1.0,-1.0]" : 0.9999978786890674,
    "[1.0,0.0,-1.0,-1.0,1.0,-1.0,1.0,0.0,1.0]" : 0.9999978786890674,
    "[-1.0,0.0,-1.0,-1.0,1.0,-1.0,1.0,1.0,1.0]" : 0.9999978786890674,
    "[0.0,-1.0,1.0,0.0,-1.0,1.0,-1.0,1.0,1.0]" : 0.9999978786890674,
    "[0.0,-1.0,0.0,0.0,-1.0,0.0,1.0,1.0,1.0]" : 0.9999971715854232,
    "[1.0,0.0,-1.0,-1.0,-1.0,0.0,1.0,1.0,1.0]" : 0.9999971715854232,
    "[1.0,1.0,1.0,-1.0,1.0,-1.0,-1.0,0.0,-1.0]" : 0.9999971715854232,
    "[1.0,1.0,-1.0,-1.0,1.0,0.0,-1.0,1.0,-1.0]" : 0.9999971715854232,
    "[0.0,1.0,-1.0,-1.0,1.0,0.0,1.0,1.0,-1.0]" : 0.9999962287805644,
    "[-1.0,1.0,-1.0,-1.0,1.0,0.0,1.0,1.0,-1.0]" : 0.9999949717074192,
    "[-1.0,-1.0,1.0,1.0,1.0,1.0,-1.0,0.0,-1.0]" : 0.9999949717074192,
    "[1.0,1.0,-1.0,1.0,-1.0,-1.0,1.0,0.0,0.0]" : 0.9999949717074192,
    "[1.0,0.0,1.0,-1.0,1.0,-1.0,1.0,-1.0,-1.0]" : 0.9999932956098923,
    "[0.0,0.0,-1.0,1.0,1.0,-1.0,-1.0,1.0,1.0]" : 0.9999932956098923,
    "[-1.0,1.0,1.0,0.0,1.0,-1.0,-1.0,1.0,-1.0]" : 0.9999932956098923,
    "[-1.0,1.0,-1.0,1.0,1.0,1.0,-1.0,-1.0,0.0]" : 0.9999932956098923,
    "[1.0,-1.0,1.0,-1.0,1.0,-1.0,1.0,0.0,-1.0]" : 0.9999932956098923,
    "[1.0,1.0,1.0,0.0,-1.0,1.0,0.0,-1.0,-1.0]" : 0.9999932956098923,
    "[-1.0,1.0,0.0,1.0,1.0,-1.0,-1.0,1.0,-1.0]" : 0.9999910608131897,
    "[1.0,0.0,1.0,-1.0,1.0,-1.0,-1.0,-1.0,1.0]" : 0.9999910608131897,
    "[1.0,-1.0,-1.0,-1.0,1.0,0.0,0.0,0.0,1.0]" : 0.9999910608131897,
    "[-1.0,0.0,1.0,1.0,1.0,-1.0,1.0,-1.0,-1.0]" : 0.9999910608131897,
    "[1.0,0.0,-1.0,1.0,-1.0,0.0,1.0,-1.0,1.0]" : 0.9999880810842529,
    "[-1.0,1.0,1.0,1.0,1.0,-1.0,0.0,0.0,-1.0]" : 0.9999880810842529,
    "[0.0,1.0,-1.0,0.0,1.0,0.0,0.0,1.0,-1.0]" : 0.9999841081123372,
    "[1.0,0.0,0.0,1.0,0.0,-1.0,1.0,0.0,-1.0]" : 0.9999841081123372,
    "[1.0,0.0,0.0,1.0,-1.0,0.0,1.0,0.0,-1.0]" : 0.9999841081123372,
    "[1.0,0.0,1.0,-1.0,1.0,-1.0,1.0,-1.0,0.0]" : 0.9999841081123372,
    "[-1.0,0.0,-1.0,1.0,1.0,1.0,0.0,0.0,0.0]" : 0.9999841081123372,
    "[1.0,1.0,1.0,-1.0,-1.0,0.0,-1.0,0.0,1.0]" : 0.9999841081123372,
    "[-1.0,0.0,1.0,0.0,1.0,-1.0,1.0,-1.0,1.0]" : 0.9999841081123372,
    "[1.0,-1.0,1.0,0.0,-1.0,1.0,-1.0,0.0,1.0]" : 0.9999841081123372,
    "[1.0,0.0,-1.0,-1.0,1.0,1.0,-1.0,-1.0,1.0]" : 0.9999841081123372,
    "[-1.0,-1.0,0.0,1.0,1.0,1.0,-1.0,-1.0,1.0]" : 0.9999841081123372,
    "[-1.0,1.0,-1.0,-1.0,1.0,1.0,0.0,1.0,-1.0]" : 0.9999841081123372,
    "[1.0,1.0,-1.0,0.0,1.0,0.0,-1.0,1.0,-1.0]" : 0.9999788108164496,
    "[-1.0,0.0,-1.0,1.0,-1.0,0.0,1.0,1.0,1.0]" : 0.9999788108164496,
    "[1.0,-1.0,1.0,-1.0,1.0,0.0,1.0,-1.0,-1.0]" : 0.9999788108164496,
    "[1.0,1.0,1.0,-1.0,-1.0,0.0,1.0,-1.0,0.0]" : 0.9999788108164496,
    "[1.0,1.0,-1.0,1.0,-1.0,0.0,1.0,0.0,-1.0]" : 0.9999788108164496,
    "[1.0,1.0,1.0,0.0,-1.0,0.0,0.0,-1.0,0.0]" : 0.9999788108164496,
    "[0.0,-1.0,-1.0,1.0,1.0,1.0,0.0,0.0,0.0]" : 0.9999717477552661,
    "[1.0,-1.0,-1.0,1.0,1.0,0.0,-1.0,1.0,0.0]" : 0.9999717477552661,
    "[1.0,-1.0,-1.0,-1.0,1.0,0.0,-1.0,1.0,1.0]" : 0.9999717477552661,
    "[1.0,0.0,0.0,1.0,-1.0,-1.0,1.0,1.0,-1.0]" : 0.9999717477552661,
    "[1.0,0.0,-1.0,1.0,1.0,-1.0,-1.0,-1.0,1.0]" : 0.9999717477552661,
    "[0.0,0.0,0.0,1.0,1.0,1.0,-1.0,-1.0,0.0]" : 0.9999623303403548,
    "[-1.0,1.0,-1.0,0.0,1.0,0.0,0.0,1.0,0.0]" : 0.9999623303403548,
    "[1.0,0.0,-1.0,0.0,1.0,-1.0,0.0,-1.0,1.0]" : 0.9999623303403548,
    "[1.0,-1.0,1.0,1.0,-1.0,0.0,1.0,0.0,-1.0]" : 0.9999623303403548,
    "[1.0,-1.0,-1.0,0.0,1.0,-1.0,-1.0,1.0,1.0]" : 0.9999623303403548,
    "[1.0,1.0,1.0,-1.0,-1.0,1.0,0.0,0.0,-1.0]" : 0.9999623303403548,
    "[1.0,0.0,1.0,-1.0,-1.0,1.0,-1.0,-1.0,1.0]" : 0.9999497737871397,
    "[-1.0,-1.0,0.0,1.0,1.0,1.0,-1.0,1.0,-1.0]" : 0.9999497737871397,
    "[-1.0,0.0,1.0,-1.0,1.0,1.0,1.0,0.0,-1.0]" : 0.9999497737871397,
    "[-1.0,1.0,-1.0,1.0,1.0,1.0,0.0,-1.0,-1.0]" : 0.9999497737871397,
    "[-1.0,-1.0,1.0,1.0,1.0,-1.0,1.0,0.0,-1.0]" : 0.9999497737871397,
    "[1.0,1.0,1.0,1.0,-1.0,-1.0,-1.0,0.0,0.0]" : 0.9999497737871397,
    "[1.0,1.0,-1.0,1.0,-1.0,0.0,1.0,-1.0,0.0]" : 0.9999497737871397,
    "[-1.0,1.0,-1.0,1.0,1.0,-1.0,-1.0,1.0,0.0]" : 0.9999497737871397,
    "[1.0,0.0,0.0,0.0,1.0,-1.0,-1.0,-1.0,1.0]" : 0.9999497737871397,
    "[-1.0,1.0,1.0,-1.0,-1.0,1.0,0.0,0.0,1.0]" : 0.9999497737871397,
    "[1.0,-1.0,1.0,0.0,1.0,-1.0,1.0,-1.0,-1.0]" : 0.9999330317161863,
    "[1.0,-1.0,-1.0,-1.0,1.0,0.0,1.0,-1.0,1.0]" : 0.9999330317161863,
    "[1.0,-1.0,0.0,-1.0,1.0,0.0,-1.0,0.0,1.0]" : 0.9999330317161863,
    "[0.0,1.0,-1.0,0.0,1.0,1.0,-1.0,-1.0,1.0]" : 0.9999330317161863,
    "[1.0,-1.0,1.0,-1.0,1.0,-1.0,-1.0,0.0,1.0]" : 0.9999107089549151,
    "[1.0,1.0,1.0,0.0,1.0,-1.0,-1.0,0.0,-1.0]" : 0.9999107089549151,
    "[-1.0,-1.0,0.0,1.0,1.0,1.0,-1.0,0.0,0.0]" : 0.9999107089549151,
    "[-1.0,1.0,-1.0,0.0,1.0,1.0,1.0,0.0,-1.0]" : 0.9999107089549151,
    "[1.0,1.0,1.0,0.0,-1.0,-1.0,-1.0,0.0,1.0]" : 0.9999107089549151,
    "[1.0,-1.0,1.0,-1.0,1.0,0.0,1.0,0.0,-1.0]" : 0.9999107089549151,
    "[0.0,-1.0,-1.0,1.0,1.0,1.0,-1.0,1.0,-1.0]" : 0.9999107089549151,
    "[1.0,0.0,1.0,1.0,-1.0,-1.0,1.0,0.0,-1.0]" : 0.9999107089549151,
    "[1.0,0.0,-1.0,-1.0,1.0,-1.0,1.0,-1.0,1.0]" : 0.9999107089549151,
    "[-1.0,0.0,1.0,-1.0,1.0,-1.0,1.0,0.0,1.0]" : 0.9999107089549151,
    "[1.0,-1.0,1.0,0.0,1.0,-1.0,-1.0,-1.0,1.0]" : 0.99988094527322,
    "[1.0,1.0,1.0,-1.0,-1.0,1.0,-1.0,0.0,-1.0]" : 0.99988094527322,
    "[-1.0,-1.0,1.0,0.0,1.0,-1.0,1.0,1.0,-1.0]" : 0.99988094527322,
    "[1.0,0.0,-1.0,1.0,0.0,-1.0,1.0,0.0,0.0]" : 0.99988094527322,
    "[-1.0,-1.0,0.0,0.0,1.0,-1.0,1.0,1.0,1.0]" : 0.99988094527322,
    "[1.0,-1.0,-1.0,1.0,1.0,-1.0,0.0,-1.0,1.0]" : 0.99988094527322,
    "[1.0,-1.0,-1.0,-1.0,1.0,-1.0,1.0,0.0,1.0]" : 0.99988094527322,
    "[1.0,1.0,1.0,1.0,-1.0,0.0,0.0,-1.0,-1.0]" : 0.99988094527322,
    "[1.0,1.0,-1.0,0.0,1.0,-1.0,-1.0,-1.0,1.0]" : 0.99988094527322,
    "[0.0,1.0,-1.0,-1.0,1.0,-1.0,-1.0,1.0,1.0]" : 0.99988094527322,
    "[-1.0,-1.0,0.0,1.0,-1.0,0.0,1.0,1.0,1.0]" : 0.99988094527322,
    "[1.0,0.0,1.0,-1.0,1.0,-1.0,-1.0,0.0,1.0]" : 0.99988094527322,
    "[1.0,-1.0,1.0,-1.0,-1.0,1.0,-1.0,0.0,1.0]" : 0.9998412603642933,
    "[1.0,0.0,-1.0,1.0,0.0,0.0,1.0,0.0,-1.0]" : 0.9998412603642933,
    "[-1.0,0.0,-1.0,1.0,1.0,1.0,0.0,0.0,-1.0]" : 0.9998412603642933,
    "[0.0,-1.0,1.0,0.0,1.0,0.0,1.0,-1.0,-1.0]" : 0.9998412603642933,
    "[-1.0,-1.0,1.0,-1.0,1.0,1.0,0.0,-1.0,1.0]" : 0.9998412603642933,
    "[-1.0,0.0,0.0,1.0,1.0,1.0,-1.0,0.0,0.0]" : 0.9998412603642933,
    "[-1.0,1.0,1.0,0.0,1.0,-1.0,1.0,-1.0,-1.0]" : 0.9998412603642933,
    "[-1.0,0.0,1.0,-1.0,1.0,0.0,1.0,-1.0,0.0]" : 0.9998412603642933,
    "[1.0,-1.0,1.0,-1.0,-1.0,1.0,0.0,0.0,1.0]" : 0.9998412603642933,
    "[-1.0,0.0,0.0,1.0,-1.0,-1.0,1.0,1.0,1.0]" : 0.9998412603642933,
    "[1.0,0.0,0.0,1.0,1.0,-1.0,1.0,-1.0,-1.0]" : 0.9997883471523911,
    "[0.0,-1.0,-1.0,0.0,0.0,0.0,1.0,1.0,1.0]" : 0.9997883471523911,
    "[-1.0,1.0,0.0,0.0,1.0,0.0,-1.0,1.0,0.0]" : 0.9997883471523911,
    "[1.0,1.0,1.0,0.0,-1.0,0.0,-1.0,0.0,-1.0]" : 0.9997883471523911,
    "[-1.0,-1.0,1.0,0.0,1.0,0.0,1.0,1.0,-1.0]" : 0.9997883471523911,
    "[-1.0,0.0,1.0,-1.0,-1.0,1.0,1.0,-1.0,1.0]" : 0.9997883471523911,
    "[0.0,-1.0,0.0,1.0,1.0,-1.0,1.0,-1.0,1.0]" : 0.9997883471523911,
    "[0.0,-1.0,1.0,0.0,1.0,-1.0,1.0,0.0,-1.0]" : 0.9997883471523911,
    "[-1.0,-1.0,1.0,0.0,1.0,-1.0,1.0,-1.0,1.0]" : 0.9997883471523911,
    "[-1.0,1.0,-1.0,0.0,1.0,0.0,-1.0,1.0,1.0]" : 0.9997883471523911,
    "[-1.0,1.0,-1.0,0.0,1.0,-1.0,0.0,1.0,0.0]" : 0.9997883471523911,
    "[1.0,1.0,1.0,0.0,-1.0,0.0,1.0,-1.0,-1.0]" : 0.9997883471523911,
    "[1.0,1.0,0.0,-1.0,1.0,-1.0,-1.0,1.0,-1.0]" : 0.9997883471523911,
    "[1.0,1.0,1.0,0.0,-1.0,-1.0,0.0,-1.0,1.0]" : 0.9997883471523911,
    "[1.0,-1.0,0.0,-1.0,-1.0,0.0,1.0,1.0,1.0]" : 0.9997883471523911,
    "[0.0,0.0,1.0,-1.0,1.0,-1.0,1.0,0.0,-1.0]" : 0.9997177962031881,
    "[1.0,1.0,-1.0,0.0,1.0,0.0,-1.0,-1.0,1.0]" : 0.9997177962031881,
    "[-1.0,0.0,-1.0,0.0,0.0,0.0,1.0,1.0,1.0]" : 0.9997177962031881,
    "[-1.0,0.0,1.0,-1.0,1.0,1.0,1.0,-1.0,-1.0]" : 0.9997177962031881,
    "[1.0,-1.0,1.0,-1.0,1.0,0.0,-1.0,-1.0,1.0]" : 0.9997177962031881,
    "[1.0,0.0,-1.0,0.0,-1.0,-1.0,1.0,1.0,1.0]" : 0.9997177962031881,
    "[-1.0,0.0,1.0,0.0,-1.0,-1.0,1.0,1.0,1.0]" : 0.9997177962031881,
    "[1.0,1.0,1.0,0.0,-1.0,-1.0,1.0,-1.0,0.0]" : 0.9997177962031881,
    "[-1.0,1.0,-1.0,-1.0,1.0,-1.0,1.0,1.0,0.0]" : 0.9997177962031881,
    "[1.0,1.0,-1.0,-1.0,1.0,0.0,-1.0,-1.0,1.0]" : 0.9997177962031881,
    "[0.0,0.0,1.0,-1.0,1.0,0.0,1.0,-1.0,-1.0]" : 0.9997177962031881,
    "[-1.0,1.0,-1.0,1.0,1.0,1.0,-1.0,0.0,-1.0]" : 0.9997177962031881,
    "[1.0,0.0,-1.0,-1.0,1.0,-1.0,0.0,0.0,1.0]" : 0.9997177962031881,
    "[-1.0,1.0,1.0,0.0,1.0,0.0,-1.0,1.0,-1.0]" : 0.9997177962031881,
    "[-1.0,-1.0,1.0,1.0,0.0,-1.0,1.0,0.0,1.0]" : 0.9996237282709175,
    "[1.0,0.0,-1.0,-1.0,1.0,0.0,-1.0,0.0,1.0]" : 0.9996237282709175,
    "[-1.0,1.0,1.0,0.0,1.0,0.0,1.0,-1.0,-1.0]" : 0.9996237282709175,
    "[1.0,-1.0,0.0,-1.0,1.0,-1.0,1.0,-1.0,1.0]" : 0.9996237282709175,
    "[1.0,-1.0,-1.0,1.0,1.0,1.0,-1.0,-1.0,0.0]" : 0.9996237282709175,
    "[-1.0,-1.0,1.0,0.0,-1.0,0.0,1.0,1.0,1.0]" : 0.9996237282709175,
    "[0.0,1.0,-1.0,-1.0,1.0,1.0,-1.0,1.0,-1.0]" : 0.9996237282709175,
    "[1.0,0.0,-1.0,-1.0,1.0,0.0,1.0,-1.0,1.0]" : 0.9996237282709175,
    "[1.0,-1.0,-1.0,0.0,1.0,-1.0,1.0,-1.0,1.0]" : 0.9996237282709175,
    "[1.0,-1.0,-1.0,-1.0,1.0,-1.0,0.0,1.0,1.0]" : 0.9996237282709175,
    "[-1.0,-1.0,1.0,1.0,1.0,1.0,-1.0,-1.0,0.0]" : 0.9996237282709175,
    "[1.0,-1.0,0.0,0.0,1.0,1.0,1.0,-1.0,-1.0]" : 0.9994983043612233,
    "[-1.0,1.0,0.0,0.0,1.0,0.0,0.0,1.0,-1.0]" : 0.9994983043612233,
    "[-1.0,1.0,0.0,-1.0,1.0,0.0,0.0,1.0,0.0]" : 0.9994983043612233,
    "[-1.0,0.0,0.0,-1.0,0.0,0.0,1.0,1.0,1.0]" : 0.9994983043612233,
    "[1.0,1.0,-1.0,-1.0,1.0,0.0,-1.0,0.0,1.0]" : 0.9994983043612233,
    "[0.0,-1.0,-1.0,0.0,1.0,-1.0,1.0,1.0,1.0]" : 0.9994983043612233,
    "[1.0,0.0,1.0,1.0,-1.0,-1.0,1.0,-1.0,-1.0]" : 0.9994983043612233,
    "[1.0,1.0,1.0,1.0,-1.0,0.0,-1.0,-1.0,0.0]" : 0.9994983043612233,
    "[1.0,1.0,1.0,-1.0,-1.0,1.0,0.0,-1.0,-1.0]" : 0.9994983043612233,
    "[-1.0,0.0,-1.0,1.0,1.0,1.0,-1.0,1.0,-1.0]" : 0.9994983043612233,
    "[0.0,-1.0,-1.0,1.0,1.0,1.0,0.0,0.0,-1.0]" : 0.9994983043612233,
    "[0.0,0.0,0.0,1.0,1.0,1.0,0.0,-1.0,-1.0]" : 0.9993310724816311,
    "[0.0,1.0,1.0,-1.0,1.0,-1.0,-1.0,1.0,-1.0]" : 0.9993310724816311,
    "[1.0,1.0,1.0,0.0,0.0,0.0,-1.0,-1.0,0.0]" : 0.9993310724816311,
    "[0.0,-1.0,1.0,-1.0,1.0,1.0,1.0,0.0,-1.0]" : 0.9993310724816311,
    "[-1.0,-1.0,1.0,0.0,-1.0,-1.0,1.0,1.0,1.0]" : 0.9993310724816311,
    "[-1.0,0.0,-1.0,1.0,1.0,1.0,-1.0,0.0,0.0]" : 0.9993310724816311,
    "[1.0,-1.0,-1.0,-1.0,1.0,0.0,1.0,0.0,1.0]" : 0.9993310724816311,
    "[1.0,-1.0,-1.0,-1.0,-1.0,0.0,1.0,1.0,1.0]" : 0.9993310724816311,
    "[1.0,-1.0,-1.0,1.0,-1.0,-1.0,1.0,1.0,0.0]" : 0.9993310724816311,
    "[1.0,-1.0,1.0,1.0,-1.0,-1.0,1.0,0.0,-1.0]" : 0.9993310724816311,
    "[1.0,1.0,1.0,-1.0,-1.0,1.0,-1.0,0.0,0.0]" : 0.9993310724816311,
    "[0.0,1.0,0.0,-1.0,1.0,0.0,-1.0,1.0,-1.0]" : 0.9993310724816311,
    "[1.0,0.0,1.0,-1.0,-1.0,1.0,0.0,-1.0,1.0]" : 0.9993310724816311,
    "[0.0,0.0,-1.0,1.0,1.0,1.0,0.0,-1.0,-1.0]" : 0.9993310724816311,
    "[0.0,-1.0,1.0,1.0,1.0,1.0,-1.0,0.0,-1.0]" : 0.9993310724816311,
    "[-1.0,1.0,1.0,-1.0,1.0,0.0,1.0,-1.0,-1.0]" : 0.9993310724816311,
    "[-1.0,0.0,1.0,0.0,-1.0,1.0,1.0,-1.0,1.0]" : 0.9993310724816311,
    "[1.0,0.0,-1.0,1.0,1.0,0.0,-1.0,-1.0,1.0]" : 0.9991080966421748,
    "[1.0,1.0,1.0,0.0,0.0,0.0,0.0,-1.0,-1.0]" : 0.9991080966421748,
    "[1.0,-1.0,1.0,0.0,0.0,-1.0,1.0,1.0,-1.0]" : 0.9991080966421748,
    "[1.0,0.0,0.0,1.0,1.0,-1.0,-1.0,-1.0,1.0]" : 0.9991080966421748,
    "[1.0,1.0,1.0,0.0,-1.0,0.0,0.0,-1.0,-1.0]" : 0.9991080966421748,
    "[1.0,-1.0,0.0,1.0,1.0,-1.0,-1.0,0.0,1.0]" : 0.9991080966421748,
    "[1.0,-1.0,0.0,-1.0,1.0,1.0,-1.0,-1.0,1.0]" : 0.9991080966421748,
    "[-1.0,-1.0,1.0,1.0,-1.0,1.0,-1.0,0.0,1.0]" : 0.9991080966421748,
    "[0.0,-1.0,1.0,-1.0,1.0,1.0,0.0,-1.0,1.0]" : 0.9991080966421748,
    "[-1.0,0.0,1.0,0.0,-1.0,1.0,-1.0,0.0,1.0]" : 0.9991080966421748,
    "[-1.0,-1.0,1.0,-1.0,1.0,0.0,1.0,1.0,-1.0]" : 0.9991080966421748,
    "[1.0,-1.0,0.0,1.0,-1.0,1.0,1.0,0.0,-1.0]" : 0.9991080966421748,
    "[0.0,-1.0,1.0,1.0,-1.0,-1.0,1.0,1.0,0.0]" : 0.9991080966421748,
    "[-1.0,1.0,1.0,0.0,-1.0,1.0,-1.0,-1.0,1.0]" : 0.9991080966421748,
    "[1.0,-1.0,-1.0,-1.0,1.0,1.0,0.0,-1.0,1.0]" : 0.9991080966421748,
    "[1.0,-1.0,-1.0,1.0,1.0,-1.0,-1.0,0.0,1.0]" : 0.9991080966421748,
    "[0.0,1.0,0.0,0.0,1.0,-1.0,-1.0,1.0,-1.0]" : 0.9991080966421748,
    "[0.0,1.0,0.0,-1.0,1.0,-1.0,1.0,1.0,-1.0]" : 0.9991080966421748,
    "[-1.0,-1.0,1.0,-1.0,1.0,-1.0,1.0,0.0,1.0]" : 0.9991080966421748,
    "[1.0,-1.0,-1.0,0.0,1.0,0.0,-1.0,0.0,1.0]" : 0.9991080966421748,
    "[1.0,-1.0,0.0,0.0,-1.0,-1.0,1.0,1.0,1.0]" : 0.9991080966421748,
    "[-1.0,0.0,0.0,1.0,1.0,1.0,0.0,0.0,-1.0]" : 0.9988107955228998,
    "[-1.0,-1.0,1.0,0.0,1.0,0.0,1.0,-1.0,1.0]" : 0.9988107955228998,
    "[1.0,-1.0,-1.0,0.0,1.0,0.0,1.0,-1.0,1.0]" : 0.9988107955228998,
    "[-1.0,0.0,0.0,1.0,1.0,1.0,-1.0,0.0,-1.0]" : 0.9988107955228998,
    "[1.0,1.0,1.0,0.0,-1.0,1.0,-1.0,-1.0,0.0]" : 0.9988107955228998,
    "[1.0,-1.0,-1.0,0.0,1.0,1.0,-1.0,1.0,0.0]" : 0.9988107955228998,
    "[-1.0,0.0,1.0,-1.0,1.0,1.0,1.0,-1.0,0.0]" : 0.9988107955228998,
    "[0.0,1.0,1.0,-1.0,-1.0,1.0,-1.0,-1.0,1.0]" : 0.9988107955228998,
    "[-1.0,-1.0,0.0,0.0,-1.0,0.0,1.0,1.0,1.0]" : 0.9988107955228998,
    "[0.0,0.0,-1.0,1.0,1.0,1.0,0.0,0.0,-1.0]" : 0.9988107955228998,
    "[-1.0,0.0,1.0,0.0,0.0,1.0,-1.0,0.0,1.0]" : 0.9988107955228998,
    "[-1.0,-1.0,1.0,-1.0,1.0,1.0,1.0,0.0,0.0]" : 0.9988107955228998,
    "[-1.0,0.0,1.0,1.0,1.0,0.0,1.0,-1.0,-1.0]" : 0.9988107955228998,
    "[-1.0,0.0,-1.0,1.0,1.0,1.0,-1.0,0.0,1.0]" : 0.9988107955228998,
    "[-1.0,0.0,1.0,1.0,1.0,1.0,-1.0,0.0,-1.0]" : 0.9988107955228998,
    "[0.0,0.0,1.0,-1.0,1.0,-1.0,1.0,-1.0,1.0]" : 0.9988107955228998,
    "[1.0,-1.0,-1.0,1.0,1.0,0.0,1.0,0.0,-1.0]" : 0.9988107955228998,
    "[0.0,-1.0,-1.0,1.0,1.0,1.0,-1.0,0.0,0.0]" : 0.9988107955228998,
    "[-1.0,0.0,1.0,-1.0,-1.0,0.0,1.0,1.0,1.0]" : 0.9988107955228998,
    "[1.0,0.0,-1.0,1.0,-1.0,-1.0,1.0,-1.0,1.0]" : 0.9988107955228998,
    "[1.0,1.0,1.0,0.0,-1.0,0.0,-1.0,-1.0,0.0]" : 0.9988107955228998,
    "[-1.0,0.0,-1.0,-1.0,1.0,0.0,1.0,1.0,1.0]" : 0.9988107955228998,
    "[1.0,1.0,1.0,0.0,-1.0,0.0,-1.0,1.0,-1.0]" : 0.9988107955228998,
    "[1.0,-1.0,1.0,0.0,1.0,-1.0,1.0,-1.0,0.0]" : 0.9988107955228998,
    "[0.0,-1.0,1.0,0.0,1.0,-1.0,1.0,1.0,-1.0]" : 0.9988107955228998,
    "[1.0,1.0,1.0,1.0,-1.0,-1.0,-1.0,0.0,-1.0]" : 0.9988107955228998,
    "[-1.0,0.0,-1.0,1.0,1.0,1.0,1.0,-1.0,0.0]" : 0.9988107955228998,
    "[0.0,-1.0,-1.0,1.0,1.0,1.0,1.0,-1.0,-1.0]" : 0.9988107955228998,
    "[1.0,-1.0,0.0,1.0,1.0,1.0,-1.0,0.0,-1.0]" : 0.998414394030533,
    "[0.0,-1.0,0.0,-1.0,1.0,-1.0,1.0,1.0,1.0]" : 0.998414394030533,
    "[1.0,0.0,-1.0,-1.0,1.0,1.0,-1.0,1.0,0.0]" : 0.998414394030533,
    "[1.0,-1.0,1.0,-1.0,1.0,0.0,1.0,-1.0,0.0]" : 0.998414394030533,
    "[-1.0,-1.0,0.0,-1.0,1.0,-1.0,1.0,1.0,1.0]" : 0.998414394030533,
    "[1.0,-1.0,1.0,-1.0,0.0,1.0,-1.0,0.0,1.0]" : 0.998414394030533,
    "[1.0,0.0,-1.0,1.0,1.0,-1.0,0.0,-1.0,1.0]" : 0.998414394030533,
    "[1.0,0.0,-1.0,1.0,1.0,-1.0,-1.0,0.0,1.0]" : 0.998414394030533,
    "[0.0,1.0,-1.0,0.0,1.0,0.0,-1.0,1.0,-1.0]" : 0.998414394030533,
    "[0.0,1.0,1.0,-1.0,1.0,0.0,1.0,-1.0,-1.0]" : 0.998414394030533,
    "[1.0,0.0,-1.0,1.0,-1.0,-1.0,1.0,1.0,0.0]" : 0.998414394030533,
    "[0.0,0.0,1.0,-1.0,-1.0,1.0,1.0,-1.0,1.0]" : 0.998414394030533,
    "[1.0,1.0,1.0,0.0,-1.0,-1.0,0.0,1.0,-1.0]" : 0.998414394030533,
    "[1.0,0.0,-1.0,1.0,1.0,1.0,0.0,-1.0,-1.0]" : 0.998414394030533,
    "[-1.0,0.0,-1.0,0.0,1.0,-1.0,1.0,1.0,1.0]" : 0.998414394030533,
    "[-1.0,-1.0,1.0,1.0,1.0,0.0,1.0,-1.0,-1.0]" : 0.998414394030533,
    "[-1.0,1.0,1.0,-1.0,1.0,0.0,1.0,0.0,-1.0]" : 0.998414394030533,
    "[1.0,-1.0,-1.0,0.0,1.0,0.0,0.0,-1.0,1.0]" : 0.998414394030533,
    "[-1.0,1.0,1.0,-1.0,1.0,-1.0,1.0,-1.0,0.0]" : 0.998414394030533,
    "[0.0,0.0,-1.0,-1.0,-1.0,1.0,1.0,1.0,1.0]" : 0.998414394030533,
    "[-1.0,0.0,1.0,-1.0,1.0,0.0,1.0,-1.0,1.0]" : 0.998414394030533,
    "[1.0,1.0,0.0,1.0,-1.0,-1.0,1.0,0.0,-1.0]" : 0.998414394030533,
    "[1.0,0.0,-1.0,0.0,1.0,-1.0,0.0,0.0,1.0]" : 0.998414394030533,
    "[0.0,1.0,-1.0,1.0,-1.0,-1.0,1.0,0.0,1.0]" : 0.998414394030533,
    "[-1.0,1.0,1.0,-1.0,1.0,0.0,1.0,-1.0,0.0]" : 0.998414394030533,
    "[0.0,-1.0,0.0,1.0,1.0,1.0,-1.0,0.0,-1.0]" : 0.998414394030533,
    "[-1.0,-1.0,0.0,-1.0,-1.0,1.0,1.0,1.0,1.0]" : 0.9978858587073773,
    "[0.0,1.0,-1.0,0.0,1.0,-1.0,0.0,1.0,0.0]" : 0.9978858587073773,
    "[1.0,0.0,-1.0,1.0,1.0,1.0,-1.0,0.0,-1.0]" : 0.9978858587073773,
    "[1.0,-1.0,1.0,-1.0,1.0,-1.0,0.0,-1.0,1.0]" : 0.9978858587073773,
    "[1.0,1.0,0.0,0.0,1.0,-1.0,-1.0,-1.0,1.0]" : 0.9978858587073773,
    "[1.0,1.0,-1.0,-1.0,1.0,-1.0,0.0,-1.0,1.0]" : 0.9978858587073773,
    "[-1.0,-1.0,1.0,0.0,1.0,1.0,1.0,-1.0,-1.0]" : 0.9978858587073773,
    "[-1.0,1.0,-1.0,0.0,1.0,0.0,0.0,1.0,-1.0]" : 0.9978858587073773,
    "[-1.0,1.0,-1.0,-1.0,1.0,0.0,0.0,1.0,0.0]" : 0.9978858587073773,
    "[-1.0,-1.0,1.0,-1.0,-1.0,1.0,1.0,0.0,1.0]" : 0.9978858587073773,
    "[1.0,1.0,1.0,-1.0,1.0,0.0,-1.0,0.0,-1.0]" : 0.9978858587073773,
    "[-1.0,1.0,1.0,-1.0,-1.0,1.0,0.0,-1.0,1.0]" : 0.9978858587073773,
    "[0.0,1.0,0.0,0.0,1.0,-1.0,0.0,1.0,-1.0]" : 0.9978858587073773,
    "[1.0,0.0,0.0,1.0,-1.0,-1.0,1.0,0.0,-1.0]" : 0.9978858587073773,
    "[0.0,-1.0,1.0,-1.0,-1.0,1.0,0.0,0.0,1.0]" : 0.9978858587073773,
    "[-1.0,0.0,-1.0,1.0,1.0,1.0,0.0,-1.0,0.0]" : 0.9978858587073773,
    "[-1.0,-1.0,1.0,0.0,1.0,-1.0,1.0,0.0,0.0]" : 0.9978858587073773,
    "[-1.0,0.0,1.0,1.0,-1.0,1.0,-1.0,0.0,1.0]" : 0.9978858587073773,
    "[1.0,-1.0,0.0,-1.0,-1.0,1.0,0.0,1.0,1.0]" : 0.9978858587073773,
    "[-1.0,0.0,1.0,1.0,1.0,-1.0,1.0,0.0,-1.0]" : 0.9978858587073773,
    "[1.0,1.0,0.0,-1.0,1.0,-1.0,-1.0,-1.0,1.0]" : 0.9978858587073773,
    "[1.0,1.0,1.0,0.0,0.0,0.0,-1.0,0.0,-1.0]" : 0.9971811449431698,
    "[1.0,1.0,-1.0,0.0,0.0,-1.0,1.0,-1.0,1.0]" : 0.9971811449431698,
    "[1.0,-1.0,0.0,1.0,1.0,1.0,-1.0,-1.0,0.0]" : 0.9971811449431698,
    "[1.0,-1.0,0.0,1.0,0.0,-1.0,1.0,0.0,0.0]" : 0.9971811449431698,
    "[1.0,1.0,1.0,0.0,-1.0,-1.0,-1.0,0.0,0.0]" : 0.9971811449431698,
    "[0.0,1.0,0.0,-1.0,1.0,-1.0,0.0,1.0,-1.0]" : 0.9971811449431698,
    "[1.0,1.0,-1.0,0.0,1.0,-1.0,-1.0,0.0,1.0]" : 0.9971811449431698,
    "[1.0,1.0,0.0,0.0,-1.0,1.0,1.0,-1.0,-1.0]" : 0.9971811449431698,
    "[0.0,0.0,-1.0,1.0,1.0,1.0,-1.0,0.0,0.0]" : 0.9971811449431698,
    "[1.0,-1.0,1.0,0.0,1.0,0.0,-1.0,-1.0,1.0]" : 0.9971811449431698,
    "[-1.0,1.0,-1.0,1.0,1.0,1.0,0.0,-1.0,0.0]" : 0.9971811449431698,
    "[1.0,0.0,-1.0,0.0,1.0,-1.0,1.0,-1.0,1.0]" : 0.9971811449431698,
    "[-1.0,-1.0,0.0,-1.0,1.0,0.0,1.0,1.0,1.0]" : 0.9971811449431698,
    "[1.0,-1.0,0.0,1.0,-1.0,-1.0,1.0,0.0,0.0]" : 0.9971811449431698,
    "[1.0,0.0,1.0,-1.0,1.0,0.0,1.0,-1.0,-1.0]" : 0.9971811449431698,
    "[0.0,0.0,-1.0,1.0,1.0,1.0,-1.0,0.0,-1.0]" : 0.9971811449431698,
    "[1.0,0.0,0.0,1.0,0.0,0.0,1.0,-1.0,-1.0]" : 0.9971811449431698,
    "[1.0,1.0,1.0,0.0,-1.0,-1.0,-1.0,-1.0,1.0]" : 0.9971811449431698,
    "[-1.0,-1.0,0.0,0.0,0.0,0.0,1.0,1.0,1.0]" : 0.9971811449431698,
    "[1.0,0.0,0.0,1.0,-1.0,-1.0,1.0,-1.0,1.0]" : 0.9971811449431698,
    "[1.0,0.0,1.0,-1.0,1.0,0.0,-1.0,-1.0,1.0]" : 0.9971811449431698,
    "[1.0,1.0,-1.0,-1.0,1.0,0.0,0.0,1.0,-1.0]" : 0.9971811449431698,
    "[1.0,-1.0,-1.0,0.0,1.0,1.0,-1.0,0.0,1.0]" : 0.9971811449431698,
    "[0.0,-1.0,1.0,-1.0,-1.0,0.0,1.0,1.0,1.0]" : 0.9971811449431698,
    "[-1.0,1.0,1.0,-1.0,1.0,-1.0,1.0,0.0,0.0]" : 0.9971811449431698,
    "[0.0,1.0,1.0,-1.0,-1.0,1.0,1.0,-1.0,0.0]" : 0.9971811449431698,
    "[0.0,-1.0,1.0,-1.0,1.0,0.0,1.0,1.0,-1.0]" : 0.9971811449431698,
    "[1.0,0.0,0.0,0.0,1.0,0.0,-1.0,-1.0,1.0]" : 0.996241526590893,
    "[0.0,-1.0,0.0,0.0,0.0,-1.0,1.0,1.0,1.0]" : 0.996241526590893,
    "[-1.0,-1.0,1.0,-1.0,-1.0,1.0,0.0,1.0,1.0]" : 0.996241526590893,
    "[1.0,-1.0,-1.0,1.0,-1.0,0.0,1.0,1.0,-1.0]" : 0.996241526590893,
    "[0.0,0.0,1.0,0.0,1.0,0.0,1.0,-1.0,-1.0]" : 0.996241526590893,
    "[1.0,-1.0,1.0,0.0,1.0,0.0,1.0,-1.0,-1.0]" : 0.996241526590893,
    "[-1.0,0.0,-1.0,-1.0,-1.0,1.0,1.0,1.0,1.0]" : 0.996241526590893,
    "[-1.0,1.0,0.0,-1.0,-1.0,1.0,1.0,0.0,1.0]" : 0.996241526590893,
    "[1.0,-1.0,0.0,1.0,-1.0,-1.0,1.0,1.0,-1.0]" : 0.996241526590893,
    "[-1.0,1.0,1.0,-1.0,1.0,-1.0,0.0,1.0,-1.0]" : 0.996241526590893,
    "[1.0,-1.0,-1.0,1.0,-1.0,0.0,1.0,1.0,0.0]" : 0.996241526590893,
    "[1.0,-1.0,1.0,-1.0,1.0,-1.0,0.0,0.0,1.0]" : 0.996241526590893,
    "[0.0,-1.0,-1.0,1.0,1.0,1.0,1.0,0.0,-1.0]" : 0.996241526590893,
    "[1.0,1.0,0.0,1.0,-1.0,-1.0,1.0,-1.0,0.0]" : 0.996241526590893,
    "[1.0,1.0,1.0,-1.0,-1.0,0.0,1.0,-1.0,-1.0]" : 0.996241526590893,
    "[-1.0,1.0,1.0,0.0,1.0,-1.0,-1.0,1.0,0.0]" : 0.996241526590893,
    "[-1.0,1.0,1.0,0.0,1.0,-1.0,1.0,-1.0,0.0]" : 0.996241526590893,
    "[1.0,0.0,0.0,1.0,-1.0,-1.0,1.0,-1.0,0.0]" : 0.996241526590893,
    "[1.0,-1.0,-1.0,1.0,-1.0,1.0,1.0,0.0,0.0]" : 0.996241526590893,
    "[-1.0,-1.0,1.0,0.0,-1.0,1.0,-1.0,1.0,1.0]" : 0.996241526590893,
    "[-1.0,-1.0,1.0,1.0,1.0,-1.0,1.0,-1.0,0.0]" : 0.996241526590893,
    "[-1.0,0.0,-1.0,1.0,-1.0,-1.0,1.0,1.0,1.0]" : 0.996241526590893,
    "[-1.0,0.0,1.0,0.0,1.0,1.0,-1.0,-1.0,1.0]" : 0.996241526590893,
    "[-1.0,1.0,0.0,0.0,1.0,0.0,-1.0,1.0,-1.0]" : 0.996241526590893,
    "[0.0,-1.0,0.0,1.0,1.0,1.0,-1.0,0.0,0.0]" : 0.996241526590893,
    "[1.0,1.0,0.0,1.0,-1.0,-1.0,1.0,-1.0,-1.0]" : 0.9949887021211907,
    "[1.0,-1.0,0.0,0.0,1.0,-1.0,0.0,0.0,1.0]" : 0.9949887021211907,
    "[0.0,1.0,0.0,-1.0,1.0,0.0,-1.0,1.0,0.0]" : 0.9949887021211907,
    "[-1.0,1.0,0.0,0.0,1.0,-1.0,1.0,1.0,-1.0]" : 0.9949887021211907,
    "[0.0,-1.0,1.0,0.0,1.0,-1.0,1.0,-1.0,0.0]" : 0.9949887021211907,
    "[-1.0,0.0,-1.0,1.0,1.0,1.0,0.0,-1.0,1.0]" : 0.9949887021211907,
    "[0.0,0.0,1.0,0.0,0.0,1.0,-1.0,-1.0,1.0]" : 0.9949887021211907,
    "[0.0,-1.0,1.0,-1.0,1.0,1.0,-1.0,0.0,1.0]" : 0.9949887021211907,
    "[-1.0,1.0,-1.0,0.0,1.0,0.0,1.0,1.0,-1.0]" : 0.9949887021211907,
    "[0.0,-1.0,0.0,1.0,1.0,1.0,-1.0,-1.0,1.0]" : 0.9949887021211907,
    "[0.0,0.0,-1.0,-1.0,-1.0,0.0,1.0,1.0,1.0]" : 0.9949887021211907,
    "[1.0,1.0,1.0,0.0,0.0,-1.0,-1.0,1.0,-1.0]" : 0.9949887021211907,
    "[-1.0,0.0,1.0,-1.0,0.0,1.0,0.0,0.0,1.0]" : 0.9949887021211907,
    "[1.0,0.0,1.0,-1.0,-1.0,1.0,-1.0,1.0,0.0]" : 0.9949887021211907,
    "[0.0,0.0,1.0,-1.0,1.0,1.0,1.0,-1.0,-1.0]" : 0.9949887021211907,
    "[1.0,1.0,1.0,-1.0,-1.0,0.0,0.0,-1.0,1.0]" : 0.9949887021211907,
    "[0.0,-1.0,1.0,0.0,-1.0,-1.0,1.0,1.0,1.0]" : 0.9949887021211907,
    "[0.0,1.0,1.0,1.0,-1.0,0.0,-1.0,-1.0,1.0]" : 0.9949887021211907,
    "[1.0,-1.0,-1.0,1.0,-1.0,-1.0,1.0,0.0,1.0]" : 0.9949887021211907,
    "[1.0,1.0,-1.0,-1.0,1.0,-1.0,-1.0,0.0,1.0]" : 0.9949887021211907,
    "[1.0,-1.0,1.0,-1.0,1.0,-1.0,0.0,1.0,0.0]" : 0.993318269494921,
    "[-1.0,0.0,1.0,-1.0,-1.0,1.0,0.0,0.0,1.0]" : 0.993318269494921,
    "[-1.0,0.0,1.0,1.0,1.0,-1.0,0.0,1.0,-1.0]" : 0.993318269494921,
    "[1.0,1.0,1.0,0.0,0.0,-1.0,1.0,-1.0,-1.0]" : 0.993318269494921,
    "[1.0,-1.0,-1.0,-1.0,1.0,0.0,0.0,1.0,1.0]" : 0.993318269494921,
    "[1.0,-1.0,0.0,1.0,1.0,0.0,1.0,-1.0,-1.0]" : 0.993318269494921,
    "[-1.0,0.0,0.0,-1.0,1.0,-1.0,1.0,1.0,1.0]" : 0.993318269494921,
    "[1.0,1.0,1.0,-1.0,-1.0,0.0,0.0,-1.0,0.0]" : 0.993318269494921,
    "[0.0,-1.0,0.0,-1.0,-1.0,0.0,1.0,1.0,1.0]" : 0.993318269494921,
    "[-1.0,1.0,0.0,-1.0,1.0,-1.0,0.0,1.0,0.0]" : 0.993318269494921,
    "[-1.0,-1.0,0.0,1.0,-1.0,-1.0,1.0,1.0,1.0]" : 0.993318269494921,
    "[1.0,0.0,-1.0,1.0,-1.0,-1.0,1.0,0.0,0.0]" : 0.993318269494921,
    "[-1.0,1.0,0.0,1.0,1.0,1.0,-1.0,-1.0,0.0]" : 0.993318269494921,
    "[1.0,1.0,1.0,0.0,1.0,-1.0,-1.0,-1.0,0.0]" : 0.993318269494921,
    "[1.0,0.0,-1.0,0.0,1.0,-1.0,-1.0,0.0,1.0]" : 0.993318269494921,
    "[0.0,-1.0,1.0,0.0,0.0,1.0,-1.0,0.0,1.0]" : 0.993318269494921,
    "[1.0,-1.0,-1.0,1.0,1.0,0.0,-1.0,-1.0,1.0]" : 0.993318269494921,
    "[-1.0,1.0,0.0,-1.0,1.0,-1.0,1.0,1.0,-1.0]" : 0.993318269494921,
    "[-1.0,-1.0,0.0,0.0,-1.0,1.0,1.0,1.0,1.0]" : 0.993318269494921,
    "[1.0,-1.0,-1.0,0.0,1.0,0.0,-1.0,1.0,1.0]" : 0.993318269494921,
    "[1.0,0.0,-1.0,1.0,-1.0,0.0,1.0,0.0,-1.0]" : 0.993318269494921,
    "[1.0,0.0,0.0,-1.0,1.0,-1.0,-1.0,0.0,1.0]" : 0.993318269494921,
    "[1.0,-1.0,1.0,0.0,1.0,-1.0,1.0,0.0,-1.0]" : 0.993318269494921,
    "[1.0,-1.0,-1.0,0.0,1.0,1.0,-1.0,-1.0,1.0]" : 0.993318269494921,
    "[1.0,1.0,-1.0,1.0,-1.0,-1.0,1.0,-1.0,0.0]" : 0.993318269494921,
    "[0.0,-1.0,1.0,-1.0,1.0,0.0,1.0,-1.0,1.0]" : 0.993318269494921,
    "[-1.0,-1.0,1.0,0.0,1.0,1.0,1.0,0.0,-1.0]" : 0.993318269494921,
    "[1.0,-1.0,0.0,1.0,-1.0,-1.0,1.0,0.0,1.0]" : 0.993318269494921,
    "[-1.0,0.0,1.0,0.0,0.0,1.0,-1.0,-1.0,1.0]" : 0.991091025993228,
    "[0.0,-1.0,1.0,0.0,1.0,-1.0,1.0,0.0,0.0]" : 0.991091025993228,
    "[0.0,1.0,0.0,1.0,1.0,-1.0,-1.0,1.0,-1.0]" : 0.991091025993228,
    "[0.0,1.0,0.0,0.0,1.0,0.0,-1.0,1.0,-1.0]" : 0.991091025993228,
    "[-1.0,-1.0,0.0,1.0,1.0,1.0,0.0,0.0,0.0]" : 0.991091025993228,
    "[-1.0,0.0,1.0,-1.0,1.0,0.0,1.0,0.0,0.0]" : 0.991091025993228,
    "[0.0,-1.0,-1.0,0.0,-1.0,0.0,1.0,1.0,1.0]" : 0.991091025993228,
    "[1.0,1.0,1.0,1.0,-1.0,-1.0,-1.0,-1.0,0.0]" : 0.991091025993228,
    "[-1.0,0.0,-1.0,0.0,-1.0,0.0,1.0,1.0,1.0]" : 0.991091025993228,
    "[1.0,-1.0,0.0,-1.0,1.0,-1.0,1.0,0.0,1.0]" : 0.991091025993228,
    "[0.0,1.0,-1.0,0.0,1.0,1.0,-1.0,1.0,-1.0]" : 0.991091025993228,
    "[1.0,1.0,1.0,0.0,1.0,-1.0,0.0,-1.0,-1.0]" : 0.991091025993228,
    "[-1.0,0.0,1.0,1.0,1.0,0.0,-1.0,1.0,-1.0]" : 0.991091025993228,
    "[1.0,-1.0,0.0,-1.0,1.0,-1.0,-1.0,1.0,1.0]" : 0.991091025993228,
    "[0.0,-1.0,1.0,-1.0,-1.0,1.0,-1.0,1.0,1.0]" : 0.991091025993228,
    "[0.0,-1.0,0.0,1.0,1.0,1.0,0.0,-1.0,-1.0]" : 0.991091025993228,
    "[-1.0,0.0,1.0,1.0,0.0,1.0,-1.0,-1.0,1.0]" : 0.991091025993228,
    "[0.0,0.0,-1.0,1.0,1.0,1.0,0.0,-1.0,0.0]" : 0.991091025993228,
    "[-1.0,-1.0,1.0,0.0,1.0,0.0,1.0,0.0,0.0]" : 0.991091025993228,
    "[1.0,-1.0,-1.0,1.0,1.0,-1.0,1.0,0.0,0.0]" : 0.991091025993228,
    "[1.0,-1.0,-1.0,-1.0,1.0,1.0,0.0,0.0,1.0]" : 0.991091025993228,
    "[0.0,0.0,-1.0,-1.0,1.0,-1.0,1.0,1.0,1.0]" : 0.991091025993228,
    "[-1.0,1.0,0.0,1.0,1.0,0.0,1.0,-1.0,-1.0]" : 0.991091025993228,
    "[1.0,1.0,-1.0,-1.0,1.0,0.0,0.0,-1.0,1.0]" : 0.991091025993228,
    "[1.0,-1.0,1.0,0.0,0.0,1.0,-1.0,-1.0,1.0]" : 0.991091025993228,
    "[0.0,-1.0,1.0,0.0,0.0,1.0,0.0,-1.0,1.0]" : 0.991091025993228,
    "[0.0,0.0,1.0,-1.0,1.0,1.0,-1.0,-1.0,1.0]" : 0.991091025993228,
    "[1.0,-1.0,-1.0,0.0,-1.0,0.0,1.0,1.0,1.0]" : 0.991091025993228,
    "[0.0,1.0,1.0,-1.0,1.0,0.0,-1.0,1.0,-1.0]" : 0.991091025993228,
    "[-1.0,0.0,1.0,-1.0,1.0,0.0,1.0,1.0,-1.0]" : 0.991091025993228,
    "[-1.0,-1.0,1.0,-1.0,1.0,0.0,1.0,-1.0,1.0]" : 0.991091025993228,
    "[1.0,0.0,-1.0,-1.0,1.0,-1.0,-1.0,1.0,1.0]" : 0.991091025993228,
    "[-1.0,0.0,1.0,-1.0,-1.0,1.0,1.0,0.0,1.0]" : 0.991091025993228,
    "[-1.0,1.0,0.0,0.0,1.0,-1.0,-1.0,1.0,0.0]" : 0.991091025993228,
    "[-1.0,0.0,1.0,1.0,-1.0,1.0,-1.0,-1.0,1.0]" : 0.991091025993228,
    "[1.0,1.0,-1.0,-1.0,1.0,-1.0,0.0,1.0,0.0]" : 0.991091025993228,
    "[1.0,-1.0,0.0,1.0,1.0,-1.0,-1.0,-1.0,1.0]" : 0.991091025993228,
    "[0.0,-1.0,0.0,0.0,1.0,-1.0,1.0,-1.0,1.0]" : 0.9908828160223169,
    "[1.0,1.0,0.0,-1.0,0.0,0.0,0.0,1.0,-1.0]" : 0.9894705237820745,
    "[-1.0,0.0,1.0,0.0,0.0,0.0,1.0,-1.0,1.0]" : 0.9882697106785578,
    "[-1.0,0.0,0.0,1.0,1.0,1.0,0.0,-1.0,0.0]" : 0.9881213679909706,
    "[1.0,-1.0,-1.0,1.0,0.0,0.0,1.0,0.0,-1.0]" : 0.9881213679909706,
    "[0.0,1.0,-1.0,-1.0,1.0,-1.0,1.0,0.0,1.0]" : 0.9881213679909706,
    "[1.0,-1.0,0.0,1.0,1.0,-1.0,0.0,-1.0,1.0]" : 0.9881213679909706,
    "[1.0,0.0,-1.0,-1.0,1.0,-1.0,0.0,1.0,1.0]" : 0.9881213679909706,
    "[-1.0,-1.0,0.0,1.0,1.0,1.0,0.0,-1.0,1.0]" : 0.9881213679909706,
    "[-1.0,0.0,1.0,0.0,1.0,-1.0,1.0,0.0,-1.0]" : 0.9881213679909706,
    "[1.0,1.0,1.0,-1.0,1.0,0.0,-1.0,-1.0,0.0]" : 0.9881213679909706,
    "[1.0,0.0,1.0,0.0,-1.0,1.0,-1.0,-1.0,1.0]" : 0.9881213679909706,
    "[1.0,-1.0,0.0,0.0,1.0,-1.0,-1.0,0.0,1.0]" : 0.9881213679909706,
    "[-1.0,-1.0,1.0,-1.0,0.0,0.0,1.0,1.0,1.0]" : 0.9881213679909706,
    "[0.0,0.0,1.0,-1.0,-1.0,1.0,0.0,-1.0,1.0]" : 0.9881213679909706,
    "[1.0,1.0,1.0,0.0,-1.0,-1.0,0.0,-1.0,0.0]" : 0.9881213679909706,
    "[-1.0,1.0,-1.0,0.0,-1.0,0.0,1.0,1.0,1.0]" : 0.9881213679909706,
    "[0.0,1.0,-1.0,1.0,1.0,1.0,0.0,-1.0,-1.0]" : 0.9881213679909706,
    "[0.0,-1.0,-1.0,-1.0,-1.0,1.0,1.0,1.0,1.0]" : 0.9881213679909706,
    "[0.0,-1.0,1.0,-1.0,1.0,-1.0,1.0,1.0,-1.0]" : 0.9881213679909706,
    "[-1.0,-1.0,1.0,0.0,1.0,0.0,1.0,0.0,-1.0]" : 0.9881213679909706,
    "[0.0,-1.0,0.0,1.0,1.0,1.0,-1.0,1.0,-1.0]" : 0.9881213679909706,
    "[-1.0,-1.0,1.0,0.0,1.0,-1.0,1.0,1.0,0.0]" : 0.9881213679909706,
    "[0.0,0.0,1.0,0.0,-1.0,1.0,-1.0,-1.0,1.0]" : 0.9881213679909706,
    "[1.0,0.0,-1.0,-1.0,1.0,1.0,-1.0,0.0,1.0]" : 0.9881213679909706,
    "[-1.0,0.0,1.0,1.0,-1.0,1.0,0.0,-1.0,1.0]" : 0.9881213679909706,
    "[-1.0,-1.0,1.0,-1.0,1.0,-1.0,1.0,1.0,0.0]" : 0.9881213679909706,
    "[0.0,-1.0,1.0,1.0,1.0,0.0,-1.0,-1.0,1.0]" : 0.9881213679909706,
    "[1.0,1.0,1.0,0.0,-1.0,-1.0,-1.0,1.0,0.0]" : 0.9881213679909706,
    "[-1.0,0.0,1.0,1.0,1.0,-1.0,1.0,-1.0,0.0]" : 0.9881213679909706,
    "[1.0,-1.0,-1.0,1.0,1.0,1.0,-1.0,0.0,0.0]" : 0.9881213679909706,
    "[-1.0,1.0,0.0,0.0,1.0,1.0,1.0,-1.0,-1.0]" : 0.9881213679909706,
    "[1.0,1.0,1.0,-1.0,-1.0,0.0,0.0,1.0,-1.0]" : 0.9881213679909706,
    "[-1.0,-1.0,1.0,1.0,1.0,0.0,1.0,-1.0,0.0]" : 0.9881213679909706,
    "[1.0,1.0,0.0,1.0,-1.0,-1.0,0.0,-1.0,1.0]" : 0.9881213679909706,
    "[1.0,1.0,1.0,0.0,0.0,-1.0,-1.0,-1.0,1.0]" : 0.9881213679909706,
    "[1.0,0.0,-1.0,-1.0,1.0,0.0,0.0,-1.0,1.0]" : 0.9881213679909706,
    "[1.0,-1.0,0.0,1.0,0.0,0.0,1.0,-1.0,0.0]" : 0.9881213679909706,
    "[1.0,0.0,-1.0,0.0,1.0,-1.0,-1.0,1.0,1.0]" : 0.9881213679909706,
    "[0.0,-1.0,-1.0,-1.0,1.0,0.0,1.0,1.0,1.0]" : 0.9881213679909706,
    "[-1.0,-1.0,1.0,0.0,0.0,1.0,0.0,0.0,1.0]" : 0.9881213679909706,
    "[1.0,0.0,-1.0,0.0,0.0,0.0,1.0,-1.0,1.0]" : 0.9880540188197509,
    "[1.0,0.0,-1.0,1.0,0.0,0.0,0.0,-1.0,1.0]" : 0.9875428091726904,
    "[0.0,0.0,1.0,0.0,1.0,-1.0,1.0,-1.0,0.0]" : 0.9841618239879608,
    "[0.0,1.0,0.0,-1.0,1.0,0.0,0.0,1.0,-1.0]" : 0.9841618239879608,
    "[0.0,-1.0,1.0,-1.0,1.0,1.0,1.0,-1.0,-1.0]" : 0.9841618239879608,
    "[-1.0,0.0,0.0,1.0,1.0,1.0,0.0,-1.0,-1.0]" : 0.9841618239879608,
    "[0.0,-1.0,0.0,-1.0,-1.0,1.0,1.0,1.0,1.0]" : 0.9841618239879608,
    "[1.0,-1.0,0.0,-1.0,1.0,1.0,-1.0,0.0,1.0]" : 0.9841618239879608,
    "[-1.0,0.0,1.0,0.0,-1.0,1.0,0.0,-1.0,1.0]" : 0.9841618239879608,
    "[0.0,1.0,-1.0,-1.0,1.0,-1.0,0.0,1.0,0.0]" : 0.9841618239879608,
    "[0.0,-1.0,1.0,-1.0,1.0,1.0,-1.0,-1.0,1.0]" : 0.9841618239879608,
    "[-1.0,-1.0,1.0,1.0,1.0,0.0,1.0,0.0,-1.0]" : 0.9841618239879608,
    "[1.0,1.0,-1.0,1.0,-1.0,0.0,1.0,-1.0,-1.0]" : 0.9841618239879608,
    "[1.0,1.0,1.0,-1.0,0.0,-1.0,0.0,-1.0,1.0]" : 0.9841618239879608,
    "[0.0,-1.0,1.0,1.0,1.0,-1.0,1.0,0.0,-1.0]" : 0.9841618239879608,
    "[0.0,1.0,1.0,-1.0,1.0,-1.0,-1.0,1.0,0.0]" : 0.9841618239879608,
    "[1.0,-1.0,1.0,-1.0,1.0,0.0,-1.0,0.0,1.0]" : 0.9841618239879608,
    "[-1.0,0.0,1.0,0.0,1.0,-1.0,1.0,1.0,-1.0]" : 0.9841618239879608,
    "[-1.0,-1.0,1.0,-1.0,1.0,1.0,0.0,0.0,1.0]" : 0.9841618239879608,
    "[0.0,1.0,-1.0,-1.0,1.0,1.0,0.0,1.0,-1.0]" : 0.9841618239879608,
    "[1.0,-1.0,-1.0,1.0,1.0,0.0,1.0,-1.0,0.0]" : 0.9841618239879608,
    "[1.0,-1.0,-1.0,1.0,-1.0,0.0,1.0,0.0,1.0]" : 0.9841618239879608,
    "[-1.0,0.0,1.0,1.0,1.0,1.0,0.0,-1.0,-1.0]" : 0.9841618239879608,
    "[-1.0,1.0,-1.0,1.0,1.0,-1.0,0.0,1.0,0.0]" : 0.9841618239879608,
    "[0.0,1.0,-1.0,-1.0,1.0,0.0,0.0,1.0,-1.0]" : 0.9841618239879608,
    "[1.0,-1.0,-1.0,1.0,1.0,-1.0,1.0,-1.0,0.0]" : 0.9841618239879608,
    "[1.0,0.0,1.0,-1.0,-1.0,1.0,-1.0,0.0,1.0]" : 0.9841618239879608,
    "[-1.0,0.0,-1.0,1.0,1.0,1.0,1.0,0.0,-1.0]" : 0.9841618239879608,
    "[1.0,0.0,-1.0,1.0,-1.0,1.0,1.0,0.0,-1.0]" : 0.9841618239879608,
    "[1.0,-1.0,-1.0,0.0,-1.0,1.0,1.0,1.0,0.0]" : 0.9841618239879608,
    "[1.0,0.0,-1.0,-1.0,1.0,1.0,0.0,-1.0,1.0]" : 0.9841618239879608,
    "[0.0,0.0,1.0,0.0,1.0,-1.0,1.0,0.0,-1.0]" : 0.9788824319839478,
    "[-1.0,-1.0,0.0,1.0,1.0,1.0,-1.0,0.0,1.0]" : 0.9788824319839478,
    "[0.0,0.0,-1.0,0.0,-1.0,-1.0,1.0,1.0,1.0]" : 0.9788824319839478,
    "[1.0,0.0,0.0,-1.0,1.0,-1.0,0.0,0.0,1.0]" : 0.9788824319839478,
    "[1.0,-1.0,-1.0,0.0,1.0,1.0,1.0,-1.0,0.0]" : 0.9788824319839478,
    "[-1.0,0.0,1.0,0.0,0.0,1.0,0.0,-1.0,1.0]" : 0.9788824319839478,
    "[1.0,1.0,1.0,-1.0,0.0,-1.0,0.0,0.0,0.0]" : 0.9788824319839478,
    "[1.0,-1.0,-1.0,0.0,1.0,0.0,0.0,0.0,1.0]" : 0.9788824319839478,
    "[0.0,-1.0,0.0,-1.0,0.0,0.0,1.0,1.0,1.0]" : 0.9788824319839478,
    "[1.0,1.0,1.0,-1.0,1.0,-1.0,0.0,0.0,-1.0]" : 0.9788824319839478,
    "[1.0,1.0,1.0,-1.0,-1.0,0.0,-1.0,0.0,0.0]" : 0.9788824319839478,
    "[-1.0,-1.0,1.0,0.0,1.0,0.0,1.0,-1.0,0.0]" : 0.9788824319839478,
    "[0.0,1.0,-1.0,0.0,1.0,0.0,-1.0,1.0,0.0]" : 0.9788824319839478,
    "[-1.0,1.0,-1.0,0.0,-1.0,-1.0,1.0,1.0,1.0]" : 0.9788824319839478,
    "[0.0,0.0,-1.0,1.0,1.0,1.0,1.0,-1.0,-1.0]" : 0.9788824319839478,
    "[0.0,1.0,0.0,-1.0,1.0,1.0,-1.0,1.0,-1.0]" : 0.9788824319839478,
    "[1.0,-1.0,-1.0,-1.0,1.0,1.0,-1.0,0.0,1.0]" : 0.9788824319839478,
    "[1.0,1.0,1.0,-1.0,-1.0,0.0,-1.0,1.0,-1.0]" : 0.9788824319839478,
    "[1.0,1.0,1.0,-1.0,1.0,-1.0,0.0,-1.0,0.0]" : 0.9788824319839478,
    "[1.0,0.0,-1.0,1.0,1.0,0.0,1.0,-1.0,-1.0]" : 0.9788824319839478,
    "[1.0,0.0,0.0,0.0,1.0,-1.0,-1.0,0.0,1.0]" : 0.9788824319839478,
    "[0.0,1.0,1.0,-1.0,1.0,-1.0,1.0,-1.0,-1.0]" : 0.9788824319839478,
    "[1.0,1.0,1.0,0.0,-1.0,-1.0,0.0,0.0,-1.0]" : 0.9788824319839478,
    "[1.0,0.0,-1.0,1.0,-1.0,1.0,1.0,-1.0,-1.0]" : 0.9788824319839478,
    "[1.0,-1.0,-1.0,1.0,1.0,0.0,-1.0,0.0,1.0]" : 0.9788824319839478,
    "[-1.0,1.0,0.0,1.0,1.0,-1.0,-1.0,1.0,0.0]" : 0.9788824319839478,
    "[-1.0,-1.0,1.0,1.0,-1.0,0.0,0.0,1.0,1.0]" : 0.9788824319839478,
    "[1.0,-1.0,0.0,0.0,1.0,0.0,-1.0,-1.0,1.0]" : 0.9788824319839478,
    "[1.0,1.0,1.0,-1.0,-1.0,0.0,0.0,0.0,-1.0]" : 0.9788824319839478,
    "[1.0,0.0,1.0,1.0,-1.0,0.0,1.0,-1.0,-1.0]" : 0.9788824319839478,
    "[1.0,0.0,-1.0,0.0,1.0,0.0,-1.0,-1.0,1.0]" : 0.9788824319839478,
    "[1.0,-1.0,-1.0,1.0,1.0,-1.0,0.0,0.0,1.0]" : 0.9788824319839478,
    "[-1.0,1.0,-1.0,0.0,1.0,0.0,-1.0,1.0,0.0]" : 0.9788824319839478,
    "[-1.0,0.0,1.0,0.0,1.0,0.0,1.0,-1.0,-1.0]" : 0.9788824319839478,
    "[1.0,1.0,1.0,0.0,-1.0,0.0,-1.0,-1.0,1.0]" : 0.9788824319839478,
    "[1.0,-1.0,-1.0,1.0,-1.0,1.0,1.0,0.0,-1.0]" : 0.9788824319839478,
    "[1.0,-1.0,1.0,0.0,1.0,-1.0,-1.0,0.0,1.0]" : 0.9788824319839478,
    "[-1.0,0.0,1.0,0.0,1.0,-1.0,1.0,-1.0,0.0]" : 0.9788824319839478,
    "[-1.0,1.0,-1.0,0.0,1.0,-1.0,0.0,1.0,1.0]" : 0.9788824319839478,
    "[0.0,-1.0,0.0,1.0,-1.0,0.0,1.0,1.0,0.0]" : 0.9782968819054028,
    "[1.0,0.0,-1.0,0.0,-1.0,0.0,1.0,0.0,1.0]" : 0.9780924400501219,
    "[1.0,-1.0,-1.0,0.0,0.0,0.0,0.0,1.0,1.0]" : 0.9761437711422332,
    "[1.0,1.0,0.0,-1.0,0.0,0.0,0.0,0.0,0.0]" : 0.9760339257779154,
    "[1.0,1.0,0.0,-1.0,1.0,0.0,-1.0,0.0,0.0]" : 0.9743807630147785,
    "[0.0,0.0,-1.0,1.0,1.0,0.0,0.0,-1.0,1.0]" : 0.9729561319032287,
    "[-1.0,-1.0,1.0,-1.0,1.0,1.0,1.0,0.0,-1.0]" : 0.9718432426452637,
    "[0.0,0.0,-1.0,0.0,0.0,-1.0,1.0,1.0,1.0]" : 0.9718432426452637,
    "[1.0,1.0,0.0,-1.0,1.0,-1.0,-1.0,0.0,1.0]" : 0.9718432426452637,
    "[-1.0,-1.0,1.0,0.0,1.0,1.0,-1.0,0.0,1.0]" : 0.9718432426452637,
    "[-1.0,0.0,0.0,-1.0,-1.0,0.0,1.0,1.0,1.0]" : 0.9718432426452637,
    "[-1.0,0.0,1.0,-1.0,1.0,0.0,1.0,0.0,-1.0]" : 0.9718432426452637,
    "[1.0,1.0,1.0,0.0,-1.0,-1.0,-1.0,1.0,-1.0]" : 0.9718432426452637,
    "[-1.0,-1.0,0.0,1.0,1.0,1.0,1.0,-1.0,-1.0]" : 0.9718432426452637,
    "[1.0,-1.0,0.0,-1.0,1.0,0.0,-1.0,1.0,1.0]" : 0.9718432426452637,
    "[0.0,1.0,0.0,0.0,1.0,-1.0,-1.0,1.0,0.0]" : 0.9718432426452637,
    "[-1.0,1.0,-1.0,-1.0,-1.0,0.0,1.0,1.0,1.0]" : 0.9718432426452637,
    "[-1.0,-1.0,1.0,1.0,1.0,-1.0,1.0,0.0,0.0]" : 0.9718432426452637,
    "[-1.0,1.0,-1.0,1.0,1.0,0.0,-1.0,1.0,0.0]" : 0.9718432426452637,
    "[1.0,1.0,1.0,1.0,0.0,-1.0,-1.0,0.0,-1.0]" : 0.9718432426452637,
    "[0.0,-1.0,-1.0,1.0,1.0,1.0,-1.0,0.0,1.0]" : 0.9718432426452637,
    "[1.0,-1.0,-1.0,1.0,0.0,-1.0,1.0,0.0,0.0]" : 0.9718432426452637,
    "[0.0,1.0,-1.0,1.0,1.0,-1.0,-1.0,1.0,0.0]" : 0.9718432426452637,
    "[1.0,0.0,-1.0,1.0,0.0,0.0,1.0,-1.0,-1.0]" : 0.9718432426452637,
    "[0.0,-1.0,1.0,1.0,1.0,1.0,0.0,-1.0,-1.0]" : 0.9718432426452637,
    "[0.0,0.0,1.0,-1.0,-1.0,1.0,-1.0,0.0,1.0]" : 0.9718432426452637,
    "[1.0,-1.0,-1.0,1.0,1.0,1.0,0.0,0.0,-1.0]" : 0.9718432426452637,
    "[-1.0,1.0,0.0,0.0,1.0,-1.0,0.0,1.0,0.0]" : 0.9718432426452637,
    "[-1.0,1.0,-1.0,-1.0,1.0,1.0,0.0,1.0,0.0]" : 0.9718432426452637,
    "[1.0,0.0,-1.0,1.0,-1.0,-1.0,1.0,0.0,1.0]" : 0.9718432426452637,
    "[-1.0,0.0,1.0,-1.0,1.0,1.0,0.0,-1.0,1.0]" : 0.9718432426452637,
    "[-1.0,-1.0,1.0,1.0,1.0,1.0,-1.0,0.0,0.0]" : 0.9718432426452637,
    "[1.0,-1.0,0.0,1.0,1.0,-1.0,1.0,-1.0,-1.0]" : 0.9718432426452637,
    "[-1.0,0.0,0.0,-1.0,-1.0,1.0,1.0,1.0,1.0]" : 0.9718432426452637,
    "[1.0,0.0,1.0,1.0,-1.0,-1.0,0.0,1.0,-1.0]" : 0.9718432426452637,
    "[1.0,0.0,1.0,-1.0,1.0,-1.0,0.0,1.0,-1.0]" : 0.9718432426452637,
    "[1.0,0.0,0.0,-1.0,1.0,1.0,-1.0,-1.0,1.0]" : 0.9718432426452637,
    "[0.0,1.0,-1.0,-1.0,-1.0,0.0,1.0,1.0,1.0]" : 0.9718432426452637,
    "[1.0,1.0,1.0,1.0,-1.0,-1.0,0.0,-1.0,0.0]" : 0.9718432426452637,
    "[1.0,-1.0,0.0,0.0,1.0,-1.0,-1.0,1.0,1.0]" : 0.9718432426452637,
    "[1.0,0.0,1.0,1.0,0.0,-1.0,-1.0,-1.0,1.0]" : 0.9718432426452637,
    "[0.0,0.0,-1.0,1.0,1.0,0.0,1.0,-1.0,0.0]" : 0.9683270458039857,
    "[1.0,0.0,1.0,-1.0,1.0,0.0,0.0,0.0,-1.0]" : 0.9676936981852987,
    "[-1.0,1.0,0.0,0.0,1.0,1.0,0.0,0.0,-1.0]" : 0.9651062128250487,
    "[1.0,-1.0,0.0,1.0,1.0,1.0,0.0,-1.0,-1.0]" : 0.9624576568603516,
    "[-1.0,0.0,-1.0,-1.0,0.0,0.0,1.0,1.0,1.0]" : 0.9624576568603516,
    "[0.0,-1.0,-1.0,1.0,1.0,1.0,0.0,-1.0,1.0]" : 0.9624576568603516,
    "[1.0,1.0,1.0,0.0,0.0,-1.0,0.0,-1.0,0.0]" : 0.9624576568603516,
    "[1.0,-1.0,-1.0,1.0,1.0,0.0,0.0,-1.0,1.0]" : 0.9624576568603516,
    "[-1.0,0.0,0.0,0.0,0.0,-1.0,1.0,1.0,1.0]" : 0.9624576568603516,
    "[0.0,-1.0,0.0,1.0,1.0,1.0,-1.0,-1.0,0.0]" : 0.9624576568603516,
    "[0.0,0.0,-1.0,-1.0,0.0,0.0,1.0,1.0,1.0]" : 0.9624576568603516,
    "[-1.0,1.0,-1.0,-1.0,1.0,0.0,0.0,1.0,1.0]" : 0.9624576568603516,
    "[-1.0,1.0,0.0,1.0,1.0,1.0,-1.0,0.0,-1.0]" : 0.9624576568603516,
    "[0.0,1.0,-1.0,-1.0,1.0,0.0,-1.0,1.0,1.0]" : 0.9624576568603516,
    "[0.0,-1.0,1.0,-1.0,0.0,-1.0,1.0,1.0,1.0]" : 0.9624576568603516,
    "[-1.0,-1.0,1.0,0.0,-1.0,1.0,0.0,0.0,1.0]" : 0.9624576568603516,
    "[1.0,0.0,-1.0,1.0,0.0,0.0,1.0,-1.0,0.0]" : 0.9624576568603516,
    "[-1.0,-1.0,1.0,0.0,1.0,1.0,1.0,-1.0,0.0]" : 0.9624576568603516,
    "[-1.0,-1.0,1.0,1.0,0.0,-1.0,1.0,1.0,0.0]" : 0.9624576568603516,
    "[0.0,0.0,1.0,1.0,1.0,-1.0,1.0,-1.0,-1.0]" : 0.9624576568603516,
    "[0.0,-1.0,0.0,1.0,1.0,1.0,0.0,0.0,-1.0]" : 0.9624576568603516,
    "[-1.0,0.0,1.0,-1.0,1.0,-1.0,1.0,1.0,-1.0]" : 0.9624576568603516,
    "[0.0,1.0,0.0,-1.0,1.0,-1.0,-1.0,1.0,0.0]" : 0.9624576568603516,
    "[1.0,-1.0,-1.0,1.0,1.0,1.0,0.0,-1.0,0.0]" : 0.9624576568603516,
    "[1.0,-1.0,1.0,0.0,1.0,-1.0,0.0,-1.0,1.0]" : 0.9624576568603516,
    "[0.0,-1.0,-1.0,-1.0,1.0,-1.0,1.0,1.0,1.0]" : 0.9624576568603516,
    "[-1.0,-1.0,1.0,1.0,1.0,0.0,0.0,1.0,-1.0]" : 0.9624576568603516,
    "[1.0,1.0,0.0,0.0,1.0,-1.0,-1.0,1.0,-1.0]" : 0.9624576568603516,
    "[0.0,0.0,1.0,-1.0,0.0,1.0,-1.0,0.0,1.0]" : 0.9624576568603516,
    "[1.0,0.0,-1.0,1.0,-1.0,0.0,1.0,-1.0,0.0]" : 0.9624576568603516,
    "[1.0,-1.0,1.0,1.0,-1.0,-1.0,1.0,0.0,0.0]" : 0.9624576568603516,
    "[0.0,-1.0,-1.0,-1.0,0.0,0.0,1.0,1.0,1.0]" : 0.9624576568603516,
    "[0.0,1.0,1.0,0.0,-1.0,1.0,-1.0,-1.0,1.0]" : 0.9624576568603516,
    "[-1.0,0.0,1.0,-1.0,1.0,-1.0,1.0,0.0,0.0]" : 0.9624576568603516,
    "[-1.0,1.0,1.0,0.0,1.0,-1.0,0.0,1.0,-1.0]" : 0.9624576568603516,
    "[1.0,1.0,1.0,-1.0,-1.0,0.0,-1.0,-1.0,1.0]" : 0.9624576568603516,
    "[0.0,0.0,-1.0,-1.0,1.0,0.0,0.0,1.0,1.0]" : 0.9621231289693242,
    "[1.0,0.0,-1.0,0.0,0.0,-1.0,1.0,0.0,1.0]" : 0.960825111417762,
    "[0.0,0.0,-1.0,0.0,1.0,-1.0,-1.0,1.0,1.0]" : 0.9599908450809047,
    "[0.0,1.0,1.0,0.0,-1.0,1.0,-1.0,0.0,0.0]" : 0.9585805151231159,
    "[1.0,1.0,0.0,0.0,-1.0,0.0,0.0,-1.0,0.0]" : 0.9582173143322626,
    "[1.0,-1.0,1.0,-1.0,0.0,0.0,0.0,0.0,1.0]" : 0.9567965057782148,
    "[-1.0,1.0,0.0,-1.0,0.0,0.0,1.0,1.0,0.0]" : 0.954620361328125,
    "[1.0,-1.0,1.0,1.0,0.0,-1.0,0.0,0.0,0.0]" : 0.954230546951294,
    "[0.0,-1.0,0.0,0.0,1.0,1.0,1.0,-1.0,-1.0]" : 0.9541779309511185,
    "[0.0,-1.0,1.0,0.0,1.0,0.0,0.0,-1.0,1.0]" : 0.9515753019936284,
    "[0.0,1.0,0.0,1.0,-1.0,-1.0,1.0,0.0,0.0]" : 0.9515534888795938,
    "[1.0,0.0,-1.0,0.0,1.0,1.0,0.0,-1.0,0.0]" : 0.9511466652511444,
    "[-1.0,-1.0,0.0,-1.0,0.0,0.0,1.0,1.0,1.0]" : 0.9499435424804688,
    "[0.0,0.0,1.0,-1.0,0.0,1.0,0.0,-1.0,1.0]" : 0.9499435424804688,
    "[-1.0,1.0,1.0,-1.0,0.0,1.0,0.0,-1.0,1.0]" : 0.9499435424804688,
    "[1.0,-1.0,1.0,1.0,0.0,-1.0,1.0,-1.0,-1.0]" : 0.9499435424804688,
    "[1.0,1.0,1.0,-1.0,0.0,1.0,-1.0,0.0,-1.0]" : 0.9499435424804688,
    "[-1.0,1.0,-1.0,0.0,1.0,-1.0,1.0,1.0,0.0]" : 0.9499435424804688,
    "[-1.0,1.0,-1.0,1.0,1.0,0.0,-1.0,1.0,-1.0]" : 0.9499435424804688,
    "[0.0,1.0,-1.0,1.0,1.0,0.0,-1.0,-1.0,1.0]" : 0.9499435424804688,
    "[0.0,-1.0,-1.0,-1.0,0.0,1.0,1.0,1.0,1.0]" : 0.9499435424804688,
    "[1.0,-1.0,-1.0,0.0,-1.0,-1.0,1.0,1.0,1.0]" : 0.9499435424804688,
    "[-1.0,-1.0,1.0,-1.0,1.0,1.0,1.0,-1.0,0.0]" : 0.9499435424804688,
    "[-1.0,-1.0,1.0,-1.0,-1.0,0.0,1.0,1.0,1.0]" : 0.9499435424804688,
    "[-1.0,-1.0,1.0,-1.0,0.0,1.0,1.0,-1.0,1.0]" : 0.9499435424804688,
    "[0.0,-1.0,1.0,1.0,-1.0,1.0,-1.0,0.0,1.0]" : 0.9499435424804688,
    "[0.0,-1.0,1.0,0.0,-1.0,1.0,-1.0,0.0,1.0]" : 0.9499435424804688,
    "[1.0,-1.0,-1.0,1.0,0.0,0.0,1.0,1.0,-1.0]" : 0.9499435424804688,
    "[1.0,1.0,1.0,-1.0,0.0,-1.0,-1.0,1.0,0.0]" : 0.9499435424804688,
    "[-1.0,-1.0,1.0,-1.0,0.0,1.0,0.0,0.0,1.0]" : 0.9499435424804688,
    "[1.0,1.0,1.0,-1.0,1.0,-1.0,-1.0,-1.0,0.0]" : 0.9499435424804688,
    "[1.0,1.0,0.0,-1.0,1.0,-1.0,1.0,-1.0,0.0]" : 0.9499435424804688,
    "[1.0,1.0,0.0,-1.0,1.0,0.0,-1.0,1.0,-1.0]" : 0.9499435424804688,
    "[-1.0,-1.0,0.0,1.0,1.0,1.0,0.0,-1.0,0.0]" : 0.9499435424804688,
    "[0.0,-1.0,-1.0,1.0,1.0,1.0,-1.0,-1.0,1.0]" : 0.9499435424804688,
    "[-1.0,0.0,0.0,0.0,-1.0,-1.0,1.0,1.0,1.0]" : 0.9499435424804688,
    "[1.0,1.0,1.0,-1.0,0.0,0.0,-1.0,0.0,0.0]" : 0.9499435424804688,
    "[0.0,-1.0,1.0,1.0,1.0,0.0,1.0,-1.0,-1.0]" : 0.9499435424804688,
    "[1.0,0.0,0.0,1.0,-1.0,0.0,1.0,-1.0,-1.0]" : 0.9499435424804688,
    "[1.0,1.0,-1.0,0.0,1.0,-1.0,-1.0,1.0,0.0]" : 0.9499435424804688,
    "[1.0,-1.0,0.0,1.0,-1.0,0.0,1.0,0.0,-1.0]" : 0.9499435424804688,
    "[-1.0,0.0,1.0,-1.0,0.0,-1.0,1.0,1.0,1.0]" : 0.9499435424804688,
    "[1.0,1.0,-1.0,-1.0,1.0,1.0,-1.0,0.0,0.0]" : 0.9499435424804688,
    "[-1.0,0.0,1.0,-1.0,-1.0,1.0,0.0,1.0,1.0]" : 0.9499435424804688,
    "[0.0,0.0,1.0,1.0,-1.0,1.0,-1.0,-1.0,1.0]" : 0.9499435424804688,
    "[0.0,-1.0,1.0,-1.0,-1.0,1.0,1.0,0.0,1.0]" : 0.9499435424804688,
    "[1.0,-1.0,-1.0,0.0,1.0,-1.0,0.0,1.0,1.0]" : 0.9499435424804688,
    "[0.0,1.0,1.0,0.0,1.0,-1.0,-1.0,1.0,-1.0]" : 0.9499435424804688,
    "[-1.0,-1.0,1.0,0.0,1.0,-1.0,1.0,0.0,1.0]" : 0.9499435424804688,
    "[0.0,0.0,1.0,0.0,1.0,0.0,-1.0,-1.0,1.0]" : 0.9487342072875151,
    "[0.0,-1.0,0.0,1.0,1.0,0.0,-1.0,0.0,1.0]" : 0.9480990024849234,
    "[-1.0,0.0,1.0,0.0,-1.0,0.0,0.0,1.0,1.0]" : 0.9443856839968756,
    "[-1.0,0.0,0.0,0.0,-1.0,1.0,1.0,0.0,1.0]" : 0.942796008287022,
    "[0.0,-1.0,0.0,1.0,1.0,0.0,1.0,-1.0,-1.0]" : 0.937476626014945,
    "[-1.0,1.0,-1.0,0.0,0.0,0.0,0.0,1.0,1.0]" : 0.9367745239188354,
    "[0.0,0.0,-1.0,0.0,1.0,-1.0,0.0,1.0,1.0]" : 0.936237727689516,
    "[1.0,0.0,1.0,0.0,0.0,0.0,-1.0,-1.0,1.0]" : 0.9361949745107268,
    "[-1.0,0.0,0.0,-1.0,1.0,-1.0,1.0,1.0,0.0]" : 0.9357509033372935,
    "[0.0,-1.0,1.0,-1.0,1.0,0.0,0.0,-1.0,1.0]" : 0.9351799546857364,
    "[1.0,-1.0,-1.0,0.0,0.0,-1.0,1.0,0.0,1.0]" : 0.9346621032518101,
    "[0.0,1.0,-1.0,0.0,1.0,1.0,-1.0,0.0,0.0]" : 0.93359905718939,
    "[1.0,-1.0,0.0,-1.0,1.0,0.0,0.0,0.0,1.0]" : 0.933258056640625,
    "[-1.0,0.0,-1.0,-1.0,0.0,1.0,1.0,1.0,1.0]" : 0.933258056640625,
    "[1.0,0.0,0.0,-1.0,1.0,0.0,0.0,-1.0,1.0]" : 0.933258056640625,
    "[1.0,1.0,0.0,-1.0,0.0,1.0,-1.0,-1.0,1.0]" : 0.933258056640625,
    "[0.0,0.0,1.0,-1.0,1.0,-1.0,1.0,0.0,0.0]" : 0.933258056640625,
    "[1.0,0.0,-1.0,1.0,0.0,-1.0,1.0,-1.0,0.0]" : 0.933258056640625,
    "[1.0,-1.0,-1.0,1.0,0.0,0.0,1.0,0.0,0.0]" : 0.933258056640625,
    "[-1.0,-1.0,1.0,0.0,0.0,1.0,-1.0,0.0,1.0]" : 0.933258056640625,
    "[0.0,-1.0,0.0,1.0,-1.0,-1.0,1.0,1.0,1.0]" : 0.933258056640625,
    "[0.0,1.0,-1.0,1.0,1.0,0.0,-1.0,1.0,-1.0]" : 0.933258056640625,
    "[-1.0,1.0,-1.0,0.0,1.0,1.0,-1.0,1.0,-1.0]" : 0.933258056640625,
    "[0.0,-1.0,1.0,1.0,1.0,-1.0,1.0,-1.0,-1.0]" : 0.933258056640625,
    "[1.0,0.0,1.0,-1.0,1.0,-1.0,-1.0,1.0,0.0]" : 0.933258056640625,
    "[1.0,1.0,1.0,-1.0,0.0,0.0,-1.0,0.0,-1.0]" : 0.933258056640625,
    "[-1.0,-1.0,1.0,1.0,-1.0,1.0,0.0,0.0,1.0]" : 0.933258056640625,
    "[1.0,1.0,1.0,0.0,-1.0,-1.0,1.0,0.0,-1.0]" : 0.933258056640625,
    "[-1.0,-1.0,0.0,1.0,1.0,1.0,0.0,0.0,-1.0]" : 0.933258056640625,
    "[-1.0,1.0,0.0,-1.0,1.0,-1.0,1.0,0.0,1.0]" : 0.933258056640625,
    "[1.0,-1.0,0.0,-1.0,1.0,1.0,1.0,-1.0,0.0]" : 0.933258056640625,
    "[-1.0,0.0,1.0,0.0,1.0,0.0,1.0,0.0,-1.0]" : 0.933258056640625,
    "[-1.0,1.0,0.0,-1.0,1.0,1.0,0.0,1.0,-1.0]" : 0.933258056640625,
    "[1.0,0.0,-1.0,1.0,1.0,-1.0,1.0,-1.0,0.0]" : 0.933258056640625,
    "[0.0,0.0,-1.0,-1.0,0.0,-1.0,1.0,1.0,1.0]" : 0.933258056640625,
    "[0.0,1.0,1.0,-1.0,1.0,-1.0,1.0,0.0,-1.0]" : 0.933258056640625,
    "[1.0,0.0,0.0,1.0,0.0,-1.0,1.0,-1.0,0.0]" : 0.933258056640625,
    "[1.0,0.0,0.0,1.0,-1.0,1.0,1.0,-1.0,-1.0]" : 0.933258056640625,
    "[-1.0,-1.0,1.0,0.0,-1.0,1.0,0.0,1.0,1.0]" : 0.933258056640625,
    "[1.0,1.0,1.0,0.0,0.0,-1.0,0.0,0.0,-1.0]" : 0.933258056640625,
    "[0.0,-1.0,0.0,1.0,1.0,1.0,0.0,-1.0,0.0]" : 0.933258056640625,
    "[0.0,1.0,-1.0,0.0,1.0,-1.0,-1.0,1.0,0.0]" : 0.933258056640625,
    "[-1.0,1.0,1.0,-1.0,1.0,-1.0,1.0,0.0,-1.0]" : 0.933258056640625,
    "[-1.0,1.0,1.0,0.0,1.0,-1.0,1.0,0.0,-1.0]" : 0.933258056640625,
    "[1.0,-1.0,1.0,-1.0,1.0,-1.0,1.0,0.0,0.0]" : 0.933258056640625,
    "[0.0,-1.0,-1.0,1.0,-1.0,0.0,1.0,1.0,1.0]" : 0.933258056640625,
    "[1.0,-1.0,-1.0,0.0,1.0,0.0,-1.0,1.0,0.0]" : 0.9331037511767921,
    "[1.0,-1.0,-1.0,1.0,1.0,0.0,0.0,0.0,0.0]" : 0.9319719907944091,
    "[-1.0,0.0,1.0,-1.0,0.0,1.0,1.0,0.0,0.0]" : 0.9316783336263497,
    "[0.0,0.0,-1.0,0.0,1.0,1.0,0.0,1.0,-1.0]" : 0.9315741570826503,
    "[1.0,0.0,0.0,0.0,1.0,-1.0,1.0,-1.0,0.0]" : 0.9265501499176025,
    "[-1.0,1.0,-1.0,1.0,1.0,0.0,0.0,0.0,0.0]" : 0.9241248965263367,
    "[0.0,0.0,0.0,-1.0,1.0,-1.0,0.0,1.0,0.0]" : 0.923212282352653,
    "[-1.0,0.0,1.0,0.0,1.0,0.0,0.0,1.0,-1.0]" : 0.9231186950499701,
    "[0.0,0.0,0.0,0.0,1.0,1.0,-1.0,-1.0,1.0]" : 0.9229001998901367,
    "[1.0,-1.0,0.0,0.0,1.0,-1.0,1.0,0.0,0.0]" : 0.9200287610292435,
    "[0.0,-1.0,1.0,0.0,1.0,0.0,0.0,-1.0,0.0]" : 0.9176483040198528,
    "[-1.0,0.0,1.0,0.0,1.0,1.0,0.0,0.0,-1.0]" : 0.9134115273165373,
    "[0.0,-1.0,1.0,-1.0,1.0,0.0,1.0,0.0,0.0]" : 0.9110107421875,
    "[0.0,1.0,-1.0,-1.0,1.0,0.0,0.0,1.0,0.0]" : 0.9110107421875,
    "[1.0,1.0,1.0,-1.0,0.0,0.0,0.0,0.0,-1.0]" : 0.9110107421875,
    "[1.0,-1.0,-1.0,1.0,0.0,1.0,1.0,-1.0,-1.0]" : 0.9110107421875,
    "[0.0,-1.0,1.0,0.0,1.0,0.0,1.0,-1.0,0.0]" : 0.9110107421875,
    "[-1.0,1.0,0.0,-1.0,1.0,-1.0,1.0,1.0,0.0]" : 0.9110107421875,
    "[0.0,-1.0,1.0,-1.0,0.0,1.0,-1.0,0.0,1.0]" : 0.9110107421875,
    "[1.0,1.0,-1.0,0.0,1.0,-1.0,0.0,-1.0,1.0]" : 0.9110107421875,
    "[0.0,-1.0,1.0,1.0,1.0,-1.0,0.0,-1.0,1.0]" : 0.9110107421875,
    "[0.0,-1.0,1.0,-1.0,0.0,1.0,1.0,-1.0,1.0]" : 0.9110107421875,
    "[-1.0,-1.0,1.0,-1.0,0.0,1.0,1.0,0.0,1.0]" : 0.9110107421875,
    "[0.0,0.0,-1.0,1.0,1.0,1.0,-1.0,-1.0,1.0]" : 0.9110107421875,
    "[0.0,-1.0,1.0,-1.0,1.0,1.0,1.0,-1.0,0.0]" : 0.9110107421875,
    "[1.0,1.0,1.0,-1.0,0.0,0.0,0.0,-1.0,0.0]" : 0.9110107421875,
    "[-1.0,1.0,-1.0,1.0,1.0,0.0,-1.0,0.0,1.0]" : 0.9110107421875,
    "[1.0,1.0,1.0,0.0,0.0,-1.0,-1.0,0.0,-1.0]" : 0.9110107421875,
    "[0.0,-1.0,0.0,0.0,-1.0,-1.0,1.0,1.0,1.0]" : 0.9110107421875,
    "[-1.0,0.0,1.0,-1.0,0.0,1.0,0.0,-1.0,1.0]" : 0.9110107421875,
    "[0.0,-1.0,1.0,-1.0,1.0,0.0,1.0,-1.0,0.0]" : 0.9110107421875,
    "[-1.0,1.0,1.0,0.0,0.0,1.0,-1.0,-1.0,1.0]" : 0.9110107421875,
    "[0.0,-1.0,-1.0,1.0,-1.0,-1.0,1.0,1.0,1.0]" : 0.9110107421875,
    "[-1.0,0.0,-1.0,0.0,0.0,-1.0,1.0,1.0,1.0]" : 0.9110107421875,
    "[1.0,0.0,0.0,-1.0,1.0,-1.0,0.0,-1.0,1.0]" : 0.9110107421875,
    "[0.0,1.0,1.0,0.0,1.0,-1.0,1.0,-1.0,-1.0]" : 0.9110107421875,
    "[0.0,-1.0,-1.0,1.0,0.0,-1.0,1.0,1.0,1.0]" : 0.9110107421875,
    "[-1.0,-1.0,0.0,1.0,1.0,1.0,-1.0,1.0,0.0]" : 0.9110107421875,
    "[-1.0,0.0,0.0,1.0,1.0,1.0,1.0,-1.0,-1.0]" : 0.9110107421875,
    "[0.0,-1.0,1.0,-1.0,-1.0,1.0,0.0,1.0,1.0]" : 0.9110107421875,
    "[0.0,-1.0,-1.0,1.0,1.0,1.0,0.0,1.0,-1.0]" : 0.9110107421875,
    "[0.0,-1.0,1.0,0.0,1.0,0.0,1.0,0.0,-1.0]" : 0.9110107421875,
    "[0.0,1.0,-1.0,-1.0,1.0,1.0,-1.0,1.0,0.0]" : 0.9110107421875,
    "[-1.0,1.0,-1.0,-1.0,0.0,1.0,1.0,1.0,0.0]" : 0.9110107421875,
    "[0.0,0.0,-1.0,1.0,1.0,1.0,-1.0,-1.0,0.0]" : 0.9110107421875,
    "[-1.0,0.0,1.0,1.0,1.0,1.0,-1.0,-1.0,0.0]" : 0.9110107421875,
    "[-1.0,0.0,1.0,0.0,1.0,1.0,1.0,-1.0,-1.0]" : 0.9110107421875,
    "[1.0,-1.0,0.0,0.0,1.0,-1.0,1.0,-1.0,1.0]" : 0.9110107421875,
    "[1.0,-1.0,-1.0,1.0,-1.0,0.0,1.0,0.0,0.0]" : 0.9110107421875,
    "[1.0,0.0,-1.0,1.0,-1.0,1.0,1.0,-1.0,0.0]" : 0.9110107421875,
    "[1.0,1.0,1.0,-1.0,1.0,-1.0,0.0,-1.0,-1.0]" : 0.9110107421875,
    "[-1.0,1.0,0.0,0.0,1.0,1.0,-1.0,1.0,-1.0]" : 0.9110107421875,
    "[0.0,-1.0,1.0,0.0,1.0,1.0,1.0,-1.0,-1.0]" : 0.9110107421875,
    "[-1.0,1.0,0.0,0.0,1.0,-1.0,0.0,1.0,-1.0]" : 0.9110107421875,
    "[1.0,-1.0,0.0,-1.0,1.0,0.0,1.0,-1.0,1.0]" : 0.9110107421875,
    "[1.0,0.0,-1.0,0.0,1.0,1.0,-1.0,-1.0,1.0]" : 0.9110107421875,
    "[0.0,-1.0,1.0,-1.0,1.0,-1.0,1.0,0.0,1.0]" : 0.9110107421875,
    "[1.0,1.0,1.0,0.0,-1.0,-1.0,1.0,-1.0,-1.0]" : 0.9110107421875,
    "[-1.0,-1.0,1.0,0.0,-1.0,1.0,1.0,0.0,1.0]" : 0.9110107421875,
    "[1.0,0.0,1.0,1.0,-1.0,-1.0,1.0,-1.0,0.0]" : 0.9110107421875,
    "[0.0,1.0,1.0,-1.0,-1.0,1.0,0.0,-1.0,1.0]" : 0.9110107421875,
    "[0.0,-1.0,0.0,0.0,1.0,1.0,1.0,0.0,-1.0]" : 0.9107268775672559,
    "[1.0,0.0,1.0,1.0,0.0,-1.0,0.0,0.0,-1.0]" : 0.910675048828125,
    "[0.0,0.0,1.0,-1.0,0.0,0.0,0.0,-1.0,1.0]" : 0.9101128107924952,
    "[-1.0,0.0,0.0,1.0,1.0,0.0,0.0,-1.0,1.0]" : 0.9070302992913639,
    "[1.0,1.0,0.0,0.0,0.0,0.0,-1.0,-1.0,1.0]" : 0.9058041572570801,
    "[0.0,-1.0,1.0,0.0,1.0,1.0,0.0,0.0,-1.0]" : 0.9027856781806499,
    "[-1.0,1.0,-1.0,0.0,1.0,1.0,0.0,0.0,0.0]" : 0.9012825037997914,
    "[0.0,-1.0,0.0,1.0,1.0,-1.0,1.0,0.0,0.0]" : 0.8991228039376438,
    "[0.0,1.0,1.0,0.0,0.0,0.0,1.0,-1.0,-1.0]" : 0.8974041666979957,
    "[-1.0,0.0,0.0,-1.0,0.0,1.0,1.0,0.0,1.0]" : 0.8939288109540939,
    "[0.0,0.0,0.0,0.0,1.0,1.0,1.0,-1.0,-1.0]" : 0.8939053651430551,
    "[0.0,-1.0,0.0,1.0,0.0,1.0,0.0,0.0,-1.0]" : 0.8910842227903693,
    "[1.0,0.0,0.0,0.0,0.0,-1.0,1.0,0.0,0.0]" : 0.8898177181648124,
    "[0.0,0.0,0.0,1.0,1.0,0.0,-1.0,1.0,-1.0]" : 0.8890252797573339,
    "[0.0,0.0,0.0,1.0,0.0,0.0,1.0,-1.0,0.0]" : 0.8881721394580343,
    "[0.0,0.0,0.0,-1.0,1.0,1.0,0.0,-1.0,1.0]" : 0.8857942605391145,
    "[0.0,-1.0,0.0,0.0,1.0,1.0,0.0,0.0,0.0]" : 0.8856569666883196,
    "[0.0,-1.0,1.0,0.0,1.0,1.0,0.0,-1.0,0.0]" : 0.884765625,
    "[0.0,-1.0,0.0,0.0,1.0,1.0,1.0,-1.0,0.0]" : 0.8830704689025879,
    "[0.0,1.0,1.0,-1.0,0.0,0.0,1.0,-1.0,0.0]" : 0.8828325217946258,
    "[1.0,-1.0,0.0,0.0,1.0,1.0,0.0,-1.0,0.0]" : 0.8828203385928646,
    "[1.0,1.0,1.0,-1.0,0.0,1.0,-1.0,-1.0,0.0]" : 0.88134765625,
    "[0.0,1.0,0.0,-1.0,1.0,-1.0,-1.0,1.0,1.0]" : 0.88134765625,
    "[-1.0,1.0,0.0,-1.0,1.0,-1.0,0.0,1.0,1.0]" : 0.88134765625,
    "[1.0,0.0,-1.0,-1.0,0.0,-1.0,1.0,1.0,1.0]" : 0.88134765625,
    "[0.0,1.0,0.0,-1.0,1.0,-1.0,0.0,1.0,0.0]" : 0.88134765625,
    "[1.0,1.0,1.0,-1.0,0.0,0.0,1.0,-1.0,-1.0]" : 0.88134765625,
    "[1.0,0.0,-1.0,1.0,0.0,-1.0,1.0,-1.0,1.0]" : 0.88134765625,
    "[1.0,-1.0,1.0,-1.0,1.0,-1.0,1.0,-1.0,0.0]" : 0.88134765625,
    "[1.0,1.0,0.0,-1.0,1.0,0.0,-1.0,-1.0,1.0]" : 0.88134765625,
    "[-1.0,1.0,-1.0,-1.0,0.0,-1.0,1.0,1.0,1.0]" : 0.88134765625,
    "[-1.0,-1.0,1.0,1.0,1.0,1.0,0.0,0.0,-1.0]" : 0.88134765625,
    "[1.0,1.0,1.0,1.0,-1.0,-1.0,0.0,-1.0,-1.0]" : 0.88134765625,
    "[-1.0,1.0,-1.0,0.0,1.0,1.0,0.0,1.0,-1.0]" : 0.88134765625,
    "[1.0,-1.0,0.0,1.0,0.0,-1.0,1.0,0.0,-1.0]" : 0.88134765625,
    "[1.0,-1.0,0.0,-1.0,1.0,-1.0,0.0,0.0,1.0]" : 0.88134765625,
    "[1.0,0.0,0.0,-1.0,1.0,0.0,-1.0,0.0,1.0]" : 0.88134765625,
    "[-1.0,-1.0,0.0,1.0,1.0,1.0,1.0,-1.0,0.0]" : 0.88134765625,
    "[1.0,-1.0,0.0,-1.0,0.0,-1.0,1.0,1.0,1.0]" : 0.88134765625,
    "[-1.0,1.0,-1.0,0.0,1.0,1.0,-1.0,1.0,0.0]" : 0.88134765625,
    "[1.0,-1.0,0.0,1.0,1.0,-1.0,1.0,-1.0,0.0]" : 0.88134765625,
    "[1.0,1.0,1.0,-1.0,1.0,-1.0,-1.0,0.0,0.0]" : 0.88134765625,
    "[-1.0,-1.0,1.0,1.0,0.0,1.0,-1.0,1.0,0.0]" : 0.88134765625,
    "[1.0,1.0,1.0,1.0,0.0,-1.0,-1.0,-1.0,0.0]" : 0.88134765625,
    "[-1.0,-1.0,1.0,1.0,1.0,1.0,0.0,-1.0,-1.0]" : 0.88134765625,
    "[1.0,1.0,-1.0,-1.0,1.0,0.0,-1.0,1.0,0.0]" : 0.88134765625,
    "[1.0,-1.0,0.0,0.0,1.0,0.0,0.0,-1.0,1.0]" : 0.88134765625,
    "[-1.0,1.0,0.0,-1.0,1.0,0.0,0.0,1.0,-1.0]" : 0.88134765625,
    "[1.0,0.0,1.0,-1.0,0.0,1.0,-1.0,-1.0,1.0]" : 0.88134765625,
    "[-1.0,1.0,1.0,-1.0,1.0,-1.0,0.0,1.0,0.0]" : 0.88134765625,
    "[-1.0,1.0,1.0,-1.0,0.0,0.0,1.0,-1.0,1.0]" : 0.88134765625,
    "[1.0,-1.0,1.0,-1.0,1.0,0.0,0.0,-1.0,1.0]" : 0.88134765625,
    "[0.0,-1.0,0.0,-1.0,1.0,1.0,1.0,-1.0,1.0]" : 0.88134765625,
    "[0.0,1.0,1.0,-1.0,-1.0,1.0,-1.0,0.0,1.0]" : 0.88134765625,
    "[1.0,0.0,-1.0,0.0,1.0,0.0,-1.0,0.0,1.0]" : 0.88134765625,
    "[1.0,0.0,0.0,-1.0,1.0,-1.0,1.0,-1.0,1.0]" : 0.88134765625,
    "[1.0,1.0,1.0,-1.0,-1.0,1.0,-1.0,-1.0,0.0]" : 0.88134765625,
    "[1.0,0.0,1.0,-1.0,0.0,1.0,1.0,-1.0,-1.0]" : 0.88134765625,
    "[1.0,-1.0,0.0,1.0,-1.0,-1.0,1.0,1.0,0.0]" : 0.88134765625,
    "[-1.0,1.0,1.0,-1.0,1.0,0.0,0.0,1.0,-1.0]" : 0.88134765625,
    "[1.0,0.0,0.0,1.0,0.0,-1.0,1.0,-1.0,-1.0]" : 0.88134765625,
    "[0.0,-1.0,1.0,-1.0,0.0,1.0,0.0,-1.0,1.0]" : 0.88134765625,
    "[-1.0,0.0,0.0,-1.0,1.0,1.0,1.0,1.0,-1.0]" : 0.88134765625,
    "[1.0,1.0,0.0,1.0,-1.0,0.0,1.0,-1.0,-1.0]" : 0.88134765625,
    "[1.0,1.0,1.0,-1.0,0.0,-1.0,0.0,0.0,-1.0]" : 0.88134765625,
    "[1.0,0.0,0.0,0.0,1.0,-1.0,0.0,-1.0,1.0]" : 0.88134765625,
    "[0.0,1.0,1.0,-1.0,1.0,-1.0,0.0,1.0,-1.0]" : 0.88134765625,
    "[1.0,0.0,1.0,0.0,1.0,-1.0,-1.0,-1.0,1.0]" : 0.88134765625,
    "[0.0,-1.0,1.0,-1.0,1.0,0.0,1.0,0.0,-1.0]" : 0.88134765625,
    "[0.0,-1.0,0.0,0.0,1.0,0.0,1.0,-1.0,0.0]" : 0.8812433401124722,
    "[1.0,0.0,1.0,0.0,-1.0,0.0,-1.0,1.0,-1.0]" : 0.8762366473674774,
    "[0.0,0.0,-1.0,1.0,0.0,1.0,1.0,-1.0,-1.0]" : 0.8758688718080521,
    "[1.0,-1.0,0.0,0.0,0.0,-1.0,1.0,0.0,0.0]" : 0.8739471311139377,
    "[1.0,1.0,0.0,-1.0,1.0,-1.0,0.0,0.0,0.0]" : 0.8737831860780716,
    "[0.0,-1.0,0.0,1.0,0.0,1.0,-1.0,1.0,0.0]" : 0.8728437842801213,
    "[1.0,0.0,0.0,-1.0,1.0,0.0,-1.0,1.0,0.0]" : 0.8680455237627029,
    "[0.0,-1.0,1.0,1.0,0.0,-1.0,1.0,0.0,0.0]" : 0.8671875,
    "[0.0,1.0,0.0,-1.0,1.0,0.0,1.0,-1.0,0.0]" : 0.8656552203356114,
    "[1.0,0.0,1.0,0.0,0.0,0.0,0.0,-1.0,0.0]" : 0.8648201360809518,
    "[1.0,0.0,0.0,0.0,0.0,0.0,1.0,0.0,-1.0]" : 0.8616359876814804,
    "[0.0,0.0,-1.0,-1.0,0.0,1.0,1.0,0.0,1.0]" : 0.8616206193310063,
    "[0.0,0.0,0.0,-1.0,1.0,1.0,1.0,-1.0,0.0]" : 0.8607668328931481,
    "[0.0,0.0,1.0,-1.0,1.0,-1.0,0.0,1.0,0.0]" : 0.8602937904590817,
    "[0.0,-1.0,0.0,1.0,1.0,0.0,0.0,-1.0,0.0]" : 0.8574766667150789,
    "[-1.0,0.0,0.0,-1.0,1.0,0.0,1.0,0.0,1.0]" : 0.8570536223298291,
    "[-1.0,1.0,1.0,0.0,1.0,-1.0,0.0,0.0,0.0]" : 0.855358523852319,
    "[1.0,0.0,1.0,0.0,0.0,-1.0,1.0,0.0,-1.0]" : 0.8539775311946869,
    "[1.0,0.0,-1.0,0.0,1.0,1.0,-1.0,0.0,0.0]" : 0.8524367990758037,
    "[-1.0,-1.0,1.0,0.0,1.0,1.0,0.0,0.0,0.0]" : 0.8507381890128558,
    "[-1.0,0.0,1.0,-1.0,0.0,0.0,0.0,1.0,1.0]" : 0.8491938591433978,
    "[1.0,0.0,-1.0,1.0,0.0,0.0,0.0,0.0,0.0]" : 0.8487957374925337,
    "[0.0,1.0,1.0,-1.0,-1.0,1.0,0.0,0.0,0.0]" : 0.8473330956452543,
    "[0.0,1.0,1.0,0.0,0.0,-1.0,0.0,0.0,-1.0]" : 0.8470167012259164,
    "[0.0,-1.0,1.0,0.0,1.0,0.0,-1.0,0.0,1.0]" : 0.8445014838862335,
    "[0.0,-1.0,1.0,1.0,1.0,0.0,0.0,-1.0,0.0]" : 0.8441353403031826,
    "[1.0,0.0,0.0,-1.0,1.0,0.0,-1.0,0.0,0.0]" : 0.8438789872189233,
    "[0.0,1.0,0.0,-1.0,1.0,-1.0,1.0,-1.0,1.0]" : 0.841796875,
    "[1.0,1.0,-1.0,1.0,0.0,0.0,1.0,-1.0,-1.0]" : 0.841796875,
    "[-1.0,1.0,0.0,1.0,1.0,-1.0,0.0,1.0,-1.0]" : 0.841796875,
    "[1.0,-1.0,0.0,-1.0,0.0,1.0,-1.0,1.0,1.0]" : 0.841796875,
    "[0.0,1.0,1.0,1.0,0.0,-1.0,1.0,-1.0,-1.0]" : 0.841796875,
    "[0.0,-1.0,1.0,-1.0,0.0,1.0,-1.0,1.0,1.0]" : 0.841796875,
    "[-1.0,1.0,-1.0,1.0,1.0,0.0,0.0,1.0,-1.0]" : 0.841796875,
    "[0.0,1.0,-1.0,-1.0,1.0,0.0,-1.0,1.0,0.0]" : 0.841796875,
    "[0.0,-1.0,1.0,1.0,0.0,-1.0,1.0,1.0,-1.0]" : 0.841796875,
    "[1.0,1.0,1.0,0.0,0.0,-1.0,0.0,-1.0,-1.0]" : 0.841796875,
    "[0.0,1.0,-1.0,1.0,1.0,1.0,-1.0,-1.0,0.0]" : 0.841796875,
    "[0.0,0.0,1.0,-1.0,1.0,0.0,1.0,-1.0,0.0]" : 0.841796875,
    "[-1.0,-1.0,1.0,-1.0,1.0,0.0,1.0,1.0,0.0]" : 0.841796875,
    "[0.0,-1.0,1.0,-1.0,1.0,-1.0,0.0,1.0,1.0]" : 0.841796875,
    "[-1.0,-1.0,1.0,0.0,0.0,-1.0,1.0,1.0,1.0]" : 0.841796875,
    "[1.0,-1.0,1.0,1.0,1.0,-1.0,0.0,-1.0,0.0]" : 0.841796875,
    "[-1.0,1.0,0.0,-1.0,1.0,0.0,1.0,1.0,-1.0]" : 0.841796875,
    "[0.0,0.0,-1.0,1.0,-1.0,-1.0,1.0,1.0,1.0]" : 0.841796875,
    "[1.0,1.0,1.0,-1.0,0.0,0.0,-1.0,-1.0,1.0]" : 0.841796875,
    "[0.0,1.0,-1.0,0.0,-1.0,-1.0,1.0,1.0,1.0]" : 0.841796875,
    "[1.0,-1.0,0.0,0.0,1.0,-1.0,0.0,-1.0,1.0]" : 0.841796875,
    "[-1.0,1.0,0.0,0.0,-1.0,-1.0,1.0,1.0,1.0]" : 0.841796875,
    "[1.0,0.0,-1.0,0.0,1.0,1.0,-1.0,1.0,-1.0]" : 0.841796875,
    "[0.0,-1.0,1.0,0.0,0.0,1.0,-1.0,-1.0,1.0]" : 0.841796875,
    "[1.0,-1.0,1.0,1.0,0.0,-1.0,1.0,0.0,-1.0]" : 0.841796875,
    "[-1.0,1.0,0.0,1.0,1.0,0.0,-1.0,1.0,-1.0]" : 0.841796875,
    "[1.0,0.0,1.0,1.0,0.0,-1.0,1.0,-1.0,-1.0]" : 0.841796875,
    "[1.0,-1.0,-1.0,0.0,0.0,-1.0,1.0,1.0,1.0]" : 0.841796875,
    "[-1.0,-1.0,1.0,1.0,1.0,1.0,0.0,-1.0,0.0]" : 0.841796875,
    "[1.0,1.0,1.0,-1.0,-1.0,0.0,-1.0,1.0,0.0]" : 0.841796875,
    "[-1.0,-1.0,1.0,0.0,0.0,1.0,-1.0,1.0,1.0]" : 0.841796875,
    "[1.0,1.0,1.0,1.0,-1.0,-1.0,0.0,0.0,-1.0]" : 0.841796875,
    "[-1.0,0.0,0.0,1.0,1.0,1.0,-1.0,1.0,-1.0]" : 0.841796875,
    "[1.0,0.0,-1.0,0.0,1.0,0.0,0.0,-1.0,1.0]" : 0.841796875,
    "[-1.0,0.0,0.0,1.0,1.0,1.0,-1.0,-1.0,1.0]" : 0.841796875,
    "[0.0,0.0,1.0,-1.0,1.0,0.0,1.0,0.0,-1.0]" : 0.841796875,
    "[1.0,-1.0,0.0,1.0,1.0,0.0,-1.0,-1.0,1.0]" : 0.841796875,
    "[0.0,-1.0,-1.0,1.0,1.0,1.0,0.0,-1.0,0.0]" : 0.841796875,
    "[0.0,-1.0,1.0,0.0,1.0,-1.0,1.0,-1.0,1.0]" : 0.841796875,
    "[0.0,0.0,1.0,0.0,0.0,0.0,0.0,-1.0,1.0]" : 0.8410233894841999,
    "[0.0,1.0,1.0,-1.0,0.0,0.0,1.0,0.0,-1.0]" : 0.8375759683549404,
    "[1.0,-1.0,-1.0,1.0,0.0,0.0,0.0,0.0,0.0]" : 0.8363363159216776,
    "[0.0,0.0,-1.0,1.0,1.0,0.0,-1.0,0.0,1.0]" : 0.8349948078393936,
    "[-1.0,1.0,0.0,1.0,1.0,0.0,-1.0,0.0,0.0]" : 0.8339109420776367,
    "[0.0,0.0,-1.0,1.0,0.0,1.0,1.0,-1.0,0.0]" : 0.8338623046875,
    "[0.0,1.0,1.0,-1.0,0.0,0.0,0.0,-1.0,1.0]" : 0.8312759399414062,
    "[1.0,1.0,0.0,0.0,0.0,0.0,-1.0,0.0,0.0]" : 0.830277642325152,
    "[0.0,-1.0,1.0,-1.0,0.0,1.0,0.0,0.0,0.0]" : 0.8299390850297641,
    "[-1.0,0.0,0.0,1.0,1.0,0.0,-1.0,-1.0,1.0]" : 0.8296390137265761,
    "[1.0,-1.0,0.0,0.0,1.0,0.0,1.0,0.0,-1.0]" : 0.8290156264986154,
    "[1.0,0.0,1.0,0.0,1.0,-1.0,-1.0,0.0,0.0]" : 0.8278914417677719,
    "[1.0,0.0,0.0,-1.0,1.0,-1.0,-1.0,1.0,0.0]" : 0.8275522226467729,
    "[0.0,0.0,-1.0,0.0,1.0,-1.0,1.0,0.0,1.0]" : 0.8273065432803834,
    "[0.0,0.0,-1.0,0.0,0.0,-1.0,0.0,1.0,1.0]" : 0.8236618193143177,
    "[-1.0,0.0,0.0,0.0,0.0,0.0,1.0,1.0,0.0]" : 0.8225925104774015,
    "[-1.0,1.0,-1.0,0.0,1.0,-1.0,0.0,0.0,1.0]" : 0.8222833273907618,
    "[0.0,-1.0,0.0,1.0,0.0,-1.0,0.0,1.0,1.0]" : 0.820031002163887,
    "[1.0,-1.0,0.0,-1.0,0.0,0.0,0.0,1.0,1.0]" : 0.8176794052124023,
    "[1.0,0.0,1.0,-1.0,0.0,0.0,0.0,0.0,-1.0]" : 0.8118620954071059,
    "[0.0,0.0,-1.0,1.0,-1.0,0.0,1.0,0.0,1.0]" : 0.8114524887469476,
    "[0.0,0.0,1.0,0.0,1.0,-1.0,-1.0,-1.0,1.0]" : 0.8112963605291821,
    "[0.0,1.0,0.0,-1.0,1.0,-1.0,1.0,0.0,0.0]" : 0.8044551725470228,
    "[-1.0,1.0,-1.0,0.0,1.0,0.0,0.0,0.0,0.0]" : 0.8026773921256254,
    "[-1.0,1.0,0.0,0.0,1.0,0.0,1.0,0.0,-1.0]" : 0.7986267549321724,
    "[1.0,-1.0,1.0,0.0,1.0,-1.0,0.0,0.0,-1.0]" : 0.7980027450342859,
    "[0.0,0.0,1.0,0.0,0.0,0.0,-1.0,0.0,1.0]" : 0.7968593684864662,
    "[0.0,0.0,0.0,0.0,0.0,1.0,-1.0,-1.0,1.0]" : 0.7937547770506383,
    "[-1.0,1.0,0.0,-1.0,1.0,0.0,1.0,0.0,0.0]" : 0.7914047241210938,
    "[0.0,0.0,1.0,-1.0,-1.0,1.0,1.0,0.0,0.0]" : 0.7905407598551549,
    "[-1.0,0.0,0.0,0.0,1.0,1.0,1.0,0.0,-1.0]" : 0.7900644004391747,
    "[0.0,-1.0,-1.0,0.0,0.0,-1.0,1.0,1.0,1.0]" : 0.7890625,
    "[0.0,-1.0,1.0,-1.0,1.0,-1.0,1.0,1.0,0.0]" : 0.7890625,
    "[-1.0,0.0,0.0,-1.0,0.0,-1.0,1.0,1.0,1.0]" : 0.7890625,
    "[-1.0,-1.0,0.0,1.0,1.0,1.0,1.0,0.0,-1.0]" : 0.7890625,
    "[-1.0,-1.0,0.0,0.0,0.0,-1.0,1.0,1.0,1.0]" : 0.7890625,
    "[1.0,-1.0,-1.0,-1.0,0.0,1.0,0.0,1.0,1.0]" : 0.7890625,
    "[1.0,-1.0,-1.0,1.0,0.0,0.0,1.0,-1.0,0.0]" : 0.7890625,
    "[1.0,-1.0,0.0,1.0,0.0,0.0,1.0,-1.0,-1.0]" : 0.7890625,
    "[1.0,-1.0,-1.0,-1.0,0.0,-1.0,1.0,1.0,1.0]" : 0.7890625,
    "[1.0,1.0,1.0,0.0,0.0,-1.0,-1.0,0.0,0.0]" : 0.7890625,
    "[0.0,1.0,-1.0,1.0,0.0,1.0,1.0,-1.0,-1.0]" : 0.7890625,
    "[1.0,1.0,1.0,-1.0,0.0,0.0,-1.0,-1.0,0.0]" : 0.7890625,
    "[1.0,-1.0,0.0,-1.0,1.0,0.0,0.0,-1.0,1.0]" : 0.7890625,
    "[1.0,1.0,1.0,-1.0,0.0,-1.0,0.0,1.0,-1.0]" : 0.7890625,
    "[1.0,1.0,1.0,-1.0,0.0,-1.0,-1.0,-1.0,1.0]" : 0.7890625,
    "[1.0,-1.0,1.0,-1.0,1.0,1.0,0.0,-1.0,0.0]" : 0.7890625,
    "[1.0,1.0,0.0,-1.0,1.0,-1.0,-1.0,1.0,0.0]" : 0.7890625,
    "[1.0,1.0,1.0,-1.0,1.0,0.0,0.0,-1.0,-1.0]" : 0.7890625,
    "[1.0,1.0,-1.0,-1.0,1.0,-1.0,0.0,0.0,1.0]" : 0.7890625,
    "[1.0,1.0,1.0,-1.0,0.0,-1.0,1.0,-1.0,0.0]" : 0.7890625,
    "[-1.0,1.0,1.0,-1.0,0.0,1.0,1.0,-1.0,0.0]" : 0.7890625,
    "[1.0,1.0,-1.0,-1.0,1.0,-1.0,-1.0,1.0,0.0]" : 0.7890625,
    "[-1.0,0.0,-1.0,1.0,1.0,1.0,-1.0,1.0,0.0]" : 0.7890625,
    "[0.0,0.0,0.0,-1.0,0.0,-1.0,1.0,1.0,1.0]" : 0.7890625,
    "[1.0,0.0,-1.0,-1.0,1.0,0.0,-1.0,1.0,1.0]" : 0.7890625,
    "[-1.0,-1.0,1.0,0.0,0.0,1.0,0.0,-1.0,1.0]" : 0.7890625,
    "[1.0,-1.0,-1.0,1.0,0.0,-1.0,1.0,1.0,0.0]" : 0.7890625,
    "[0.0,1.0,-1.0,-1.0,1.0,-1.0,1.0,1.0,0.0]" : 0.7890625,
    "[1.0,-1.0,-1.0,-1.0,0.0,1.0,1.0,0.0,1.0]" : 0.7890625,
    "[-1.0,1.0,0.0,-1.0,-1.0,0.0,1.0,1.0,1.0]" : 0.7890625,
    "[-1.0,-1.0,1.0,1.0,0.0,1.0,-1.0,-1.0,1.0]" : 0.7890625,
    "[0.0,1.0,-1.0,1.0,1.0,-1.0,-1.0,0.0,1.0]" : 0.7890625,
    "[0.0,0.0,1.0,-1.0,1.0,-1.0,1.0,1.0,-1.0]" : 0.7890625,
    "[1.0,-1.0,-1.0,1.0,0.0,-1.0,0.0,1.0,1.0]" : 0.7890625,
    "[0.0,-1.0,1.0,1.0,1.0,-1.0,1.0,-1.0,0.0]" : 0.7890625,
    "[-1.0,0.0,1.0,0.0,1.0,0.0,1.0,-1.0,0.0]" : 0.7890625,
    "[-1.0,-1.0,0.0,1.0,1.0,1.0,0.0,1.0,-1.0]" : 0.7890625,
    "[0.0,1.0,1.0,-1.0,1.0,-1.0,0.0,-1.0,1.0]" : 0.7890625,
    "[0.0,1.0,-1.0,0.0,1.0,-1.0,-1.0,1.0,1.0]" : 0.7890625,
    "[1.0,1.0,1.0,-1.0,0.0,-1.0,-1.0,0.0,1.0]" : 0.7890625,
    "[1.0,-1.0,0.0,1.0,1.0,-1.0,1.0,0.0,-1.0]" : 0.7890625,
    "[1.0,-1.0,-1.0,1.0,0.0,0.0,1.0,-1.0,1.0]" : 0.7890625,
    "[0.0,-1.0,1.0,0.0,1.0,1.0,-1.0,-1.0,1.0]" : 0.7890625,
    "[-1.0,1.0,0.0,1.0,1.0,1.0,0.0,-1.0,-1.0]" : 0.7890625,
    "[-1.0,0.0,1.0,-1.0,0.0,1.0,1.0,-1.0,1.0]" : 0.7890625,
    "[0.0,-1.0,1.0,-1.0,1.0,-1.0,1.0,-1.0,1.0]" : 0.7890625,
    "[0.0,1.0,1.0,-1.0,0.0,1.0,1.0,-1.0,-1.0]" : 0.7890625,
    "[-1.0,-1.0,1.0,0.0,1.0,-1.0,0.0,1.0,0.0]" : 0.7890596792330752,
    "[1.0,0.0,0.0,0.0,0.0,-1.0,1.0,-1.0,0.0]" : 0.7883034553221979,
    "[1.0,0.0,0.0,0.0,1.0,-1.0,-1.0,1.0,0.0]" : 0.786353349685669,
    "[0.0,-1.0,0.0,-1.0,0.0,1.0,1.0,0.0,1.0]" : 0.7861457245307975,
    "[-1.0,0.0,1.0,1.0,0.0,0.0,-1.0,-1.0,1.0]" : 0.781524928053841,
    "[0.0,0.0,1.0,0.0,1.0,-1.0,-1.0,1.0,-1.0]" : 0.780043154562524,
    "[0.0,-1.0,1.0,0.0,1.0,0.0,0.0,0.0,0.0]" : 0.7791211347762144,
    "[0.0,-1.0,1.0,0.0,-1.0,0.0,-1.0,1.0,1.0]" : 0.7788437015676427,
    "[0.0,-1.0,0.0,1.0,0.0,1.0,1.0,0.0,-1.0]" : 0.77752685546875,
    "[1.0,0.0,1.0,-1.0,0.0,1.0,0.0,-1.0,0.0]" : 0.7775079843704589,
    "[1.0,0.0,0.0,0.0,0.0,-1.0,1.0,-1.0,1.0]" : 0.77625741507768,
    "[1.0,0.0,-1.0,1.0,0.0,-1.0,0.0,0.0,1.0]" : 0.7756150222933229,
    "[0.0,1.0,0.0,-1.0,1.0,0.0,0.0,0.0,0.0]" : 0.7735823735860133,
    "[0.0,0.0,0.0,0.0,1.0,-1.0,0.0,1.0,0.0]" : 0.7725317601059472,
    "[1.0,0.0,-1.0,0.0,-1.0,1.0,1.0,0.0,-1.0]" : 0.770709135569632,
    "[0.0,-1.0,0.0,0.0,1.0,0.0,0.0,-1.0,1.0]" : 0.770430371460143,
    "[-1.0,1.0,1.0,0.0,-1.0,0.0,0.0,0.0,1.0]" : 0.765249711729224,
    "[1.0,0.0,-1.0,-1.0,0.0,0.0,0.0,1.0,1.0]" : 0.7648219227108657,
    "[1.0,-1.0,0.0,-1.0,0.0,0.0,1.0,0.0,1.0]" : 0.7632220481227039,
    "[0.0,1.0,0.0,0.0,0.0,1.0,-1.0,-1.0,1.0]" : 0.7628002561750691,
    "[0.0,0.0,-1.0,1.0,1.0,0.0,-1.0,1.0,0.0]" : 0.7627533426759356,
    "[0.0,-1.0,1.0,-1.0,1.0,0.0,0.0,0.0,1.0]" : 0.76092529296875,
    "[-1.0,-1.0,1.0,0.0,0.0,0.0,1.0,0.0,1.0]" : 0.7607849935245443,
    "[0.0,0.0,0.0,1.0,1.0,0.0,-1.0,-1.0,1.0]" : 0.7599261121358722,
    "[0.0,0.0,1.0,-1.0,1.0,0.0,0.0,0.0,0.0]" : 0.7527768437244071,
    "[1.0,0.0,1.0,1.0,-1.0,-1.0,-1.0,0.0,0.0]" : 0.7523283639371028,
    "[-1.0,1.0,0.0,0.0,0.0,-1.0,1.0,1.0,0.0]" : 0.752197265625,
    "[-1.0,0.0,1.0,1.0,-1.0,0.0,-1.0,0.0,1.0]" : 0.7516330943800682,
    "[0.0,-1.0,1.0,1.0,0.0,1.0,-1.0,0.0,0.0]" : 0.7499163840602039,
    "[1.0,-1.0,1.0,-1.0,0.0,-1.0,1.0,0.0,0.0]" : 0.7498017992538166,
    "[1.0,-1.0,-1.0,-1.0,0.0,0.0,0.0,1.0,1.0]" : 0.7496730203835751,
    "[0.0,0.0,0.0,-1.0,1.0,-1.0,1.0,-1.0,1.0]" : 0.749521819788385,
    "[-1.0,0.0,1.0,-1.0,0.0,1.0,1.0,-1.0,0.0]" : 0.7493735877651488,
    "[-1.0,0.0,1.0,-1.0,0.0,0.0,1.0,0.0,1.0]" : 0.7493735877651488,
    "[1.0,-1.0,0.0,-1.0,0.0,1.0,-1.0,0.0,1.0]" : 0.7488863782491535,
    "[-1.0,0.0,0.0,0.0,1.0,-1.0,1.0,1.0,0.0]" : 0.7488863782491535,
    "[-1.0,0.0,1.0,-1.0,0.0,0.0,1.0,1.0,0.0]" : 0.7488863782491535,
    "[0.0,-1.0,0.0,1.0,0.0,-1.0,1.0,0.0,1.0]" : 0.7481628141167675,
    "[0.0,-1.0,1.0,-1.0,0.0,0.0,1.0,1.0,0.0]" : 0.7473603039979935,
    "[0.0,0.0,1.0,-1.0,0.0,0.0,1.0,-1.0,1.0]" : 0.746480405330658,
    "[0.0,0.0,1.0,1.0,0.0,-1.0,1.0,0.0,-1.0]" : 0.745307207107544,
    "[1.0,1.0,0.0,-1.0,0.0,0.0,-1.0,1.0,-1.0]" : 0.7451414465904236,
    "[0.0,0.0,0.0,1.0,0.0,-1.0,1.0,-1.0,0.0]" : 0.745087306698224,
    "[-1.0,1.0,-1.0,0.0,1.0,0.0,0.0,0.0,1.0]" : 0.7420542401276775,
    "[-1.0,0.0,0.0,-1.0,1.0,0.0,1.0,1.0,0.0]" : 0.7416572570800781,
    "[0.0,1.0,-1.0,-1.0,0.0,0.0,1.0,1.0,0.0]" : 0.7416468995586436,
    "[1.0,-1.0,0.0,-1.0,0.0,1.0,0.0,0.0,1.0]" : 0.7405927871058582,
    "[0.0,0.0,-1.0,0.0,-1.0,1.0,1.0,1.0,0.0]" : 0.737961023560233,
    "[1.0,0.0,0.0,1.0,-1.0,-1.0,0.0,0.0,1.0]" : 0.737815078083791,
    "[0.0,0.0,0.0,1.0,1.0,-1.0,1.0,-1.0,0.0]" : 0.736961394741229,
    "[0.0,0.0,0.0,-1.0,0.0,0.0,1.0,1.0,0.0]" : 0.7367042475085472,
    "[0.0,0.0,1.0,1.0,1.0,-1.0,-1.0,1.0,-1.0]" : 0.7357214832438222,
    "[0.0,1.0,1.0,0.0,1.0,-1.0,0.0,0.0,-1.0]" : 0.7336836280301213,
    "[-1.0,0.0,0.0,1.0,0.0,1.0,1.0,-1.0,-1.0]" : 0.733496904373169,
    "[1.0,0.0,0.0,-1.0,1.0,-1.0,0.0,0.0,0.0]" : 0.7328562452748733,
    "[0.0,1.0,0.0,-1.0,1.0,0.0,0.0,-1.0,1.0]" : 0.7302389144897461,
    "[0.0,0.0,0.0,1.0,0.0,0.0,1.0,-1.0,-1.0]" : 0.7273842464614821,
    "[0.0,1.0,1.0,0.0,-1.0,1.0,0.0,-1.0,0.0]" : 0.7263716487175385,
    "[1.0,1.0,0.0,-1.0,0.0,0.0,-1.0,0.0,0.0]" : 0.7238001584800399,
    "[1.0,0.0,0.0,0.0,0.0,0.0,1.0,-1.0,-1.0]" : 0.7203615659345417,
    "[1.0,-1.0,0.0,1.0,-1.0,0.0,0.0,1.0,0.0]" : 0.7198055946752355,
    "[1.0,-1.0,0.0,1.0,0.0,-1.0,1.0,-1.0,1.0]" : 0.71875,
    "[-1.0,0.0,-1.0,1.0,1.0,1.0,0.0,1.0,-1.0]" : 0.71875,
    "[1.0,0.0,1.0,-1.0,1.0,-1.0,0.0,-1.0,1.0]" : 0.71875,
    "[1.0,1.0,0.0,-1.0,1.0,-1.0,0.0,1.0,-1.0]" : 0.71875,
    "[1.0,1.0,1.0,-1.0,0.0,-1.0,0.0,-1.0,0.0]" : 0.71875,
    "[-1.0,1.0,-1.0,1.0,1.0,1.0,0.0,0.0,-1.0]" : 0.71875,
    "[1.0,-1.0,0.0,1.0,0.0,-1.0,1.0,-1.0,0.0]" : 0.71875,
    "[-1.0,0.0,-1.0,1.0,0.0,-1.0,1.0,1.0,1.0]" : 0.71875,
    "[1.0,1.0,1.0,-1.0,0.0,-1.0,-1.0,1.0,-1.0]" : 0.71875,
    "[-1.0,1.0,-1.0,1.0,1.0,1.0,-1.0,0.0,0.0]" : 0.71875,
    "[-1.0,-1.0,1.0,-1.0,0.0,-1.0,1.0,1.0,1.0]" : 0.71875,
    "[-1.0,-1.0,1.0,0.0,0.0,1.0,1.0,-1.0,1.0]" : 0.71875,
    "[0.0,0.0,-1.0,1.0,1.0,1.0,-1.0,1.0,-1.0]" : 0.71875,
    "[1.0,1.0,-1.0,1.0,0.0,-1.0,1.0,-1.0,0.0]" : 0.71875,
    "[1.0,1.0,1.0,-1.0,0.0,0.0,0.0,-1.0,-1.0]" : 0.71875,
    "[1.0,1.0,1.0,1.0,0.0,-1.0,0.0,-1.0,-1.0]" : 0.71875,
    "[-1.0,-1.0,1.0,0.0,1.0,1.0,0.0,-1.0,1.0]" : 0.71875,
    "[1.0,-1.0,0.0,-1.0,1.0,1.0,0.0,-1.0,1.0]" : 0.71875,
    "[0.0,-1.0,1.0,-1.0,0.0,1.0,0.0,0.0,1.0]" : 0.71875,
    "[1.0,0.0,-1.0,1.0,1.0,1.0,-1.0,-1.0,0.0]" : 0.71875,
    "[0.0,0.0,1.0,-1.0,0.0,1.0,-1.0,-1.0,1.0]" : 0.71875,
    "[1.0,0.0,-1.0,1.0,0.0,1.0,1.0,-1.0,-1.0]" : 0.71875,
    "[1.0,-1.0,1.0,-1.0,0.0,1.0,-1.0,-1.0,1.0]" : 0.71875,
    "[0.0,-1.0,1.0,-1.0,1.0,-1.0,1.0,0.0,0.0]" : 0.71875,
    "[1.0,-1.0,1.0,1.0,0.0,0.0,1.0,-1.0,-1.0]" : 0.71875,
    "[1.0,1.0,1.0,-1.0,0.0,-1.0,1.0,-1.0,-1.0]" : 0.71875,
    "[-1.0,-1.0,1.0,1.0,0.0,1.0,-1.0,0.0,1.0]" : 0.71875,
    "[-1.0,1.0,-1.0,-1.0,1.0,0.0,1.0,1.0,0.0]" : 0.71875,
    "[1.0,0.0,-1.0,-1.0,1.0,0.0,0.0,0.0,1.0]" : 0.71875,
    "[-1.0,-1.0,1.0,1.0,1.0,0.0,0.0,-1.0,1.0]" : 0.71875,
    "[1.0,1.0,1.0,-1.0,0.0,0.0,-1.0,1.0,-1.0]" : 0.71875,
    "[1.0,1.0,-1.0,1.0,0.0,-1.0,0.0,-1.0,1.0]" : 0.71875,
    "[1.0,1.0,0.0,-1.0,0.0,1.0,-1.0,1.0,-1.0]" : 0.71875,
    "[1.0,-1.0,1.0,1.0,0.0,-1.0,1.0,-1.0,0.0]" : 0.71875,
    "[1.0,0.0,1.0,0.0,1.0,-1.0,1.0,-1.0,-1.0]" : 0.71875,
    "[-1.0,1.0,0.0,0.0,1.0,-1.0,-1.0,1.0,1.0]" : 0.71875,
    "[-1.0,-1.0,1.0,1.0,0.0,1.0,0.0,0.0,0.0]" : 0.7172231674194336,
    "[1.0,-1.0,0.0,1.0,-1.0,-1.0,0.0,1.0,0.0]" : 0.7149300127531187,
    "[1.0,0.0,1.0,1.0,0.0,-1.0,0.0,-1.0,0.0]" : 0.71484375,
    "[1.0,1.0,0.0,1.0,0.0,-1.0,0.0,-1.0,0.0]" : 0.71484375,
    "[0.0,-1.0,1.0,0.0,1.0,-1.0,0.0,1.0,0.0]" : 0.7148115392774343,
    "[0.0,1.0,0.0,1.0,0.0,-1.0,1.0,-1.0,-1.0]" : 0.7144441322889179,
    "[0.0,1.0,-1.0,0.0,1.0,1.0,0.0,0.0,-1.0]" : 0.7124933188245838,
    "[0.0,-1.0,0.0,0.0,1.0,1.0,0.0,-1.0,0.0]" : 0.7116866162830289,
    "[1.0,0.0,0.0,-1.0,1.0,1.0,0.0,-1.0,0.0]" : 0.7115992419421673,
    "[1.0,-1.0,0.0,0.0,0.0,0.0,-1.0,1.0,1.0]" : 0.7101824976212006,
    "[-1.0,0.0,0.0,0.0,1.0,0.0,1.0,-1.0,1.0]" : 0.7096633147501414,
    "[0.0,-1.0,1.0,0.0,1.0,-1.0,0.0,1.0,-1.0]" : 0.7064663283526897,
    "[1.0,0.0,-1.0,-1.0,1.0,0.0,0.0,1.0,0.0]" : 0.7056798247976985,
    "[-1.0,0.0,1.0,0.0,0.0,0.0,1.0,0.0,0.0]" : 0.7018312561596921,
    "[0.0,1.0,0.0,-1.0,1.0,1.0,1.0,-1.0,-1.0]" : 0.699981689453125,
    "[-1.0,0.0,1.0,1.0,0.0,0.0,-1.0,0.0,1.0]" : 0.6986122876405716,
    "[0.0,1.0,-1.0,0.0,-1.0,0.0,1.0,0.0,1.0]" : 0.697608901807632,
    "[1.0,-1.0,1.0,1.0,0.0,-1.0,0.0,0.0,-1.0]" : 0.6968679428100586,
    "[1.0,-1.0,1.0,0.0,0.0,1.0,-1.0,0.0,0.0]" : 0.6955250158916471,
    "[0.0,0.0,-1.0,0.0,1.0,-1.0,0.0,0.0,1.0]" : 0.6946213634494507,
    "[1.0,-1.0,0.0,-1.0,1.0,1.0,1.0,0.0,-1.0]" : 0.6942138671875,
    "[-1.0,1.0,1.0,1.0,-1.0,0.0,-1.0,0.0,1.0]" : 0.6939547695455746,
    "[-1.0,-1.0,1.0,0.0,1.0,1.0,0.0,0.0,-1.0]" : 0.6937948148697615,
    "[-1.0,1.0,1.0,0.0,0.0,-1.0,1.0,-1.0,1.0]" : 0.6937255859375,
    "[-1.0,1.0,1.0,0.0,0.0,0.0,1.0,-1.0,0.0]" : 0.6930531592644047,
    "[1.0,0.0,-1.0,1.0,-1.0,0.0,0.0,0.0,1.0]" : 0.6918977259907424,
    "[-1.0,-1.0,1.0,0.0,0.0,0.0,0.0,0.0,1.0]" : 0.6917483440437091,
    "[0.0,0.0,0.0,0.0,1.0,-1.0,1.0,0.0,0.0]" : 0.6904752717449545,
    "[-1.0,1.0,1.0,1.0,1.0,-1.0,0.0,-1.0,0.0]" : 0.6890973773912099,
    "[-1.0,0.0,1.0,0.0,-1.0,0.0,0.0,0.0,1.0]" : 0.6881577672949567,
    "[0.0,0.0,0.0,0.0,1.0,-1.0,1.0,-1.0,0.0]" : 0.6879843091144922,
    "[0.0,0.0,0.0,-1.0,1.0,-1.0,1.0,0.0,0.0]" : 0.6875687319597332,
    "[1.0,0.0,-1.0,0.0,-1.0,1.0,1.0,1.0,-1.0]" : 0.6875053238257915,
    "[1.0,0.0,0.0,0.0,0.0,0.0,1.0,-1.0,0.0]" : 0.6869898085536071,
    "[1.0,-1.0,1.0,-1.0,1.0,0.0,-1.0,1.0,0.0]" : 0.686309814453125,
    "[0.0,-1.0,0.0,-1.0,0.0,1.0,1.0,1.0,0.0]" : 0.686195193943239,
    "[0.0,-1.0,0.0,1.0,0.0,1.0,0.0,1.0,-1.0]" : 0.6859099268913269,
    "[-1.0,0.0,0.0,-1.0,0.0,0.0,1.0,0.0,1.0]" : 0.6844963665807599,
    "[0.0,0.0,1.0,1.0,0.0,-1.0,1.0,-1.0,-1.0]" : 0.6833286285400391,
    "[0.0,1.0,-1.0,0.0,1.0,-1.0,0.0,0.0,1.0]" : 0.6825462596498255,
    "[-1.0,0.0,1.0,1.0,1.0,0.0,0.0,0.0,-1.0]" : 0.6823694929480553,
    "[1.0,0.0,0.0,1.0,0.0,-1.0,0.0,0.0,0.0]" : 0.682218352119019,
    "[1.0,-1.0,1.0,-1.0,1.0,1.0,0.0,0.0,-1.0]" : 0.6816191673278809,
    "[0.0,0.0,-1.0,0.0,1.0,1.0,1.0,-1.0,-1.0]" : 0.6808377550479241,
    "[-1.0,1.0,0.0,1.0,1.0,0.0,0.0,0.0,-1.0]" : 0.6807856109310251,
    "[0.0,0.0,0.0,-1.0,1.0,-1.0,0.0,0.0,1.0]" : 0.6803389751434006,
    "[0.0,-1.0,0.0,-1.0,1.0,0.0,0.0,1.0,1.0]" : 0.6793351431178962,
    "[-1.0,0.0,0.0,-1.0,0.0,1.0,1.0,-1.0,1.0]" : 0.6793351431178962,
    "[0.0,0.0,1.0,-1.0,0.0,-1.0,1.0,1.0,-1.0]" : 0.6792876124382019,
    "[-1.0,1.0,-1.0,-1.0,1.0,0.0,1.0,0.0,1.0]" : 0.6790224313735962,
    "[1.0,1.0,0.0,-1.0,1.0,-1.0,0.0,-1.0,0.0]" : 0.6788522836868651,
    "[0.0,1.0,1.0,0.0,1.0,-1.0,0.0,-1.0,0.0]" : 0.6785738782491535,
    "[0.0,1.0,0.0,0.0,-1.0,1.0,0.0,-1.0,1.0]" : 0.6781050437857956,
    "[-1.0,0.0,0.0,1.0,1.0,-1.0,1.0,-1.0,1.0]" : 0.677734375,
    "[0.0,1.0,1.0,0.0,0.0,-1.0,0.0,-1.0,1.0]" : 0.6768908500671387,
    "[0.0,0.0,1.0,-1.0,0.0,0.0,0.0,0.0,1.0]" : 0.6762542546140308,
    "[1.0,-1.0,1.0,1.0,-1.0,-1.0,0.0,1.0,0.0]" : 0.6755947372019188,
    "[0.0,-1.0,0.0,1.0,1.0,0.0,0.0,-1.0,1.0]" : 0.6751591712090885,
    "[0.0,0.0,0.0,0.0,1.0,-1.0,0.0,0.0,1.0]" : 0.6748631070109277,
    "[0.0,1.0,-1.0,-1.0,0.0,1.0,0.0,1.0,0.0]" : 0.6744232177734375,
    "[0.0,-1.0,0.0,1.0,1.0,-1.0,1.0,-1.0,0.0]" : 0.6734304428100586,
    "[0.0,0.0,1.0,0.0,0.0,0.0,1.0,0.0,-1.0]" : 0.6719955365370447,
    "[0.0,1.0,-1.0,1.0,1.0,0.0,-1.0,0.0,0.0]" : 0.6708831787109375,
    "[0.0,-1.0,0.0,1.0,1.0,0.0,1.0,-1.0,0.0]" : 0.669921875,
    "[1.0,1.0,0.0,0.0,0.0,0.0,1.0,-1.0,-1.0]" : 0.6696305274963379,
    "[1.0,0.0,1.0,0.0,0.0,-1.0,0.0,1.0,-1.0]" : 0.6695801361733231,
    "[1.0,-1.0,0.0,0.0,1.0,-1.0,-1.0,1.0,0.0]" : 0.6693930837921245,
    "[-1.0,0.0,1.0,0.0,0.0,1.0,0.0,0.0,0.0]" : 0.6680767022412453,
    "[0.0,-1.0,0.0,0.0,1.0,0.0,1.0,-1.0,1.0]" : 0.6678827289247227,
    "[1.0,0.0,-1.0,-1.0,1.0,1.0,1.0,-1.0,0.0]" : 0.6678770482540131,
    "[1.0,0.0,0.0,-1.0,1.0,0.0,1.0,0.0,-1.0]" : 0.6678200994403625,
    "[1.0,-1.0,-1.0,0.0,0.0,0.0,0.0,0.0,1.0]" : 0.6668877010108617,
    "[0.0,-1.0,0.0,-1.0,1.0,1.0,1.0,-1.0,0.0]" : 0.6666107177734375,
    "[0.0,0.0,0.0,-1.0,1.0,0.0,1.0,0.0,0.0]" : 0.6665880679585628,
    "[1.0,0.0,-1.0,0.0,0.0,-1.0,-1.0,1.0,1.0]" : 0.6662208770113983,
    "[0.0,1.0,-1.0,-1.0,0.0,1.0,1.0,1.0,-1.0]" : 0.66455078125,
    "[0.0,0.0,-1.0,1.0,0.0,0.0,1.0,-1.0,0.0]" : 0.6644732553859285,
    "[0.0,0.0,-1.0,1.0,1.0,-1.0,-1.0,0.0,1.0]" : 0.6644559306582352,
    "[1.0,-1.0,0.0,0.0,0.0,-1.0,1.0,1.0,0.0]" : 0.6640625,
    "[-1.0,1.0,-1.0,0.0,1.0,-1.0,1.0,0.0,1.0]" : 0.6640625,
    "[-1.0,1.0,0.0,0.0,1.0,-1.0,0.0,0.0,1.0]" : 0.6635455526411533,
    "[-1.0,1.0,-1.0,0.0,0.0,-1.0,1.0,0.0,1.0]" : 0.6618927922099829,
    "[1.0,-1.0,1.0,0.0,1.0,-1.0,0.0,0.0,0.0]" : 0.661885678768158,
    "[0.0,0.0,0.0,0.0,0.0,-1.0,1.0,0.0,1.0]" : 0.6610159550843848,
    "[1.0,-1.0,0.0,1.0,0.0,-1.0,0.0,1.0,0.0]" : 0.6609706552699208,
    "[0.0,0.0,-1.0,-1.0,1.0,1.0,0.0,1.0,-1.0]" : 0.6607394671723765,
    "[0.0,-1.0,0.0,1.0,1.0,-1.0,-1.0,1.0,1.0]" : 0.6598599874414504,
    "[1.0,0.0,-1.0,-1.0,1.0,1.0,-1.0,0.0,0.0]" : 0.6581960960418064,
    "[0.0,-1.0,0.0,-1.0,0.0,0.0,1.0,0.0,1.0]" : 0.6579375859289532,
    "[-1.0,1.0,-1.0,1.0,1.0,-1.0,0.0,0.0,1.0]" : 0.6557229430395961,
    "[0.0,1.0,0.0,-1.0,1.0,-1.0,0.0,0.0,0.0]" : 0.655653320546205,
    "[-1.0,0.0,1.0,0.0,0.0,0.0,0.0,0.0,1.0]" : 0.6551264320693758,
    "[1.0,0.0,0.0,-1.0,1.0,-1.0,0.0,1.0,0.0]" : 0.6548335574916564,
    "[-1.0,0.0,0.0,-1.0,0.0,0.0,1.0,1.0,0.0]" : 0.6541284933633081,
    "[0.0,-1.0,1.0,1.0,-1.0,0.0,-1.0,1.0,1.0]" : 0.6536567507331214,
    "[1.0,0.0,1.0,-1.0,1.0,-1.0,0.0,0.0,0.0]" : 0.6526539325714111,
    "[0.0,0.0,1.0,0.0,0.0,0.0,-1.0,-1.0,1.0]" : 0.651837611464046,
    "[1.0,0.0,-1.0,0.0,1.0,1.0,0.0,0.0,-1.0]" : 0.6515616571298872,
    "[-1.0,0.0,1.0,1.0,-1.0,-1.0,1.0,0.0,1.0]" : 0.6511815783646506,
    "[1.0,0.0,0.0,-1.0,1.0,0.0,1.0,-1.0,0.0]" : 0.65018981375664,
    "[1.0,0.0,0.0,0.0,1.0,-1.0,0.0,0.0,0.0]" : 0.6501166105555933,
    "[1.0,-1.0,-1.0,1.0,0.0,0.0,0.0,1.0,0.0]" : 0.6500765732746088,
    "[-1.0,1.0,0.0,0.0,0.0,1.0,0.0,-1.0,1.0]" : 0.6497383117675781,
    "[0.0,1.0,-1.0,1.0,1.0,0.0,0.0,-1.0,0.0]" : 0.6496166983124194,
    "[0.0,0.0,0.0,1.0,0.0,1.0,-1.0,1.0,-1.0]" : 0.64892578125,
    "[-1.0,0.0,0.0,0.0,1.0,-1.0,0.0,1.0,0.0]" : 0.647737175385323,
    "[0.0,1.0,1.0,0.0,-1.0,0.0,1.0,-1.0,0.0]" : 0.6472535264038228,
    "[0.0,0.0,1.0,-1.0,-1.0,1.0,0.0,0.0,0.0]" : 0.6468005516442782,
    "[1.0,1.0,0.0,0.0,-1.0,1.0,0.0,0.0,-1.0]" : 0.6467868707012627,
    "[-1.0,1.0,0.0,1.0,-1.0,1.0,0.0,-1.0,1.0]" : 0.646484375,
    "[0.0,1.0,1.0,1.0,-1.0,-1.0,-1.0,1.0,0.0]" : 0.646484375,
    "[-1.0,0.0,0.0,0.0,1.0,-1.0,0.0,1.0,1.0]" : 0.6463078486108482,
    "[1.0,0.0,1.0,-1.0,0.0,0.0,-1.0,0.0,0.0]" : 0.6459696740000067,
    "[0.0,0.0,0.0,0.0,0.0,1.0,-1.0,0.0,1.0]" : 0.6448459663689704,
    "[0.0,-1.0,0.0,-1.0,1.0,1.0,1.0,1.0,-1.0]" : 0.6425337091780523,
    "[1.0,0.0,0.0,0.0,1.0,0.0,-1.0,1.0,-1.0]" : 0.6420497489797921,
    "[1.0,0.0,0.0,0.0,0.0,0.0,-1.0,0.0,1.0]" : 0.6411788012462064,
    "[0.0,1.0,1.0,0.0,0.0,0.0,0.0,0.0,-1.0]" : 0.6404629682862195,
    "[0.0,1.0,-1.0,-1.0,-1.0,1.0,1.0,1.0,0.0]" : 0.6395263671875,
    "[1.0,-1.0,0.0,0.0,1.0,0.0,0.0,-1.0,0.0]" : 0.6389171746628826,
    "[1.0,-1.0,0.0,1.0,0.0,0.0,0.0,1.0,-1.0]" : 0.638477421250654,
    "[0.0,1.0,0.0,1.0,0.0,0.0,1.0,-1.0,-1.0]" : 0.6379950360860676,
    "[0.0,0.0,1.0,0.0,1.0,0.0,0.0,-1.0,0.0]" : 0.6372803945842302,
    "[0.0,1.0,-1.0,-1.0,0.0,0.0,0.0,1.0,1.0]" : 0.63555908203125,
    "[1.0,-1.0,1.0,0.0,-1.0,0.0,1.0,1.0,-1.0]" : 0.6352588401725687,
    "[0.0,0.0,1.0,0.0,-1.0,0.0,-1.0,1.0,1.0]" : 0.635036091963138,
    "[1.0,0.0,1.0,-1.0,-1.0,1.0,0.0,0.0,-1.0]" : 0.6347974903330744,
    "[1.0,1.0,-1.0,1.0,-1.0,-1.0,0.0,0.0,1.0]" : 0.6341552734375,
    "[-1.0,1.0,1.0,1.0,0.0,-1.0,-1.0,1.0,0.0]" : 0.63330078125,
    "[-1.0,0.0,1.0,0.0,0.0,-1.0,0.0,1.0,1.0]" : 0.6332588195800781,
    "[0.0,1.0,0.0,-1.0,-1.0,1.0,1.0,-1.0,1.0]" : 0.6324876027811528,
    "[0.0,-1.0,0.0,0.0,-1.0,1.0,1.0,1.0,0.0]" : 0.6322205009293109,
    "[-1.0,0.0,0.0,1.0,-1.0,0.0,0.0,1.0,1.0]" : 0.6317370616486501,
    "[0.0,-1.0,0.0,0.0,-1.0,0.0,1.0,1.0,0.0]" : 0.6312602402884511,
    "[1.0,-1.0,1.0,0.0,-1.0,0.0,-1.0,1.0,1.0]" : 0.6312155054576156,
    "[-1.0,1.0,-1.0,0.0,0.0,-1.0,0.0,1.0,1.0]" : 0.6307371928214938,
    "[0.0,0.0,1.0,-1.0,-1.0,1.0,0.0,1.0,0.0]" : 0.6306389946505915,
    "[1.0,1.0,0.0,-1.0,0.0,1.0,-1.0,0.0,0.0]" : 0.6303253173828125,
    "[0.0,0.0,1.0,1.0,1.0,-1.0,-1.0,-1.0,1.0]" : 0.6300860643386841,
    "[0.0,1.0,0.0,1.0,-1.0,-1.0,1.0,-1.0,1.0]" : 0.6292336625047028,
    "[0.0,-1.0,0.0,1.0,1.0,-1.0,0.0,-1.0,1.0]" : 0.6283826932753985,
    "[1.0,-1.0,0.0,0.0,1.0,1.0,-1.0,0.0,0.0]" : 0.6281294224046405,
    "[0.0,0.0,-1.0,-1.0,-1.0,1.0,1.0,1.0,0.0]" : 0.6272559724748135,
    "[1.0,1.0,-1.0,0.0,-1.0,0.0,1.0,-1.0,0.0]" : 0.6271124120196135,
