{
  "Metadata" : {
    "Game" : "TicTacToe",
    "Seed" : 1692024682116,
    "Type" : "Tabular",
    "Alpha" : 0.0010000000474974513,
    "Gamma" : 0.75,
    "Epsilon" : 0.10000000149011612,
    "Solver" : "Q_LEARNING",
    "Heuristic" : "players.heuristics.WinOnlyHeuristic",
    "FeatureVector" : "players.rl.featureVectors.TicTacToeDim1StateVector",
    "NGamesTotal" : 1433600,
    "NGamesWithTheseSettings" : 614400,
    "TimeTaken" : "00h 17m 32.1s",
    "ContinuedFrom" : {
      "Seed" : 1692024380205,
      "NGamesTotal" : 819200,
      "NGamesWithTheseSettings" : 409600,
      "ContinuedFrom" : {
        "Seed" : 1692024081400,
        "NGamesTotal" : 409600,
        "NGamesWithTheseSettings" : 409600,
        "ContinuedFrom" : null
      }
    }
  },
  "Weights" : {
    "[-1.0,0.0,0.0,-1.0,1.0,1.0,1.0,1.0,-1.0]" : 0.9999806772819121,
    "[1.0,1.0,1.0,1.0,-1.0,-1.0,-1.0,-1.0,0.0]" : 0.9999775485193813,
    "[1.0,1.0,1.0,1.0,-1.0,-1.0,-1.0,0.0,-1.0]" : 0.9999722714617595,
    "[-1.0,0.0,1.0,-1.0,1.0,1.0,1.0,-1.0,0.0]" : 0.9997878104626273,
    "[-1.0,-1.0,1.0,-1.0,1.0,1.0,1.0,0.0,0.0]" : 0.9997250444307697,
    "[1.0,0.0,-1.0,1.0,-1.0,-1.0,1.0,0.0,0.0]" : 0.9995474678963205,
    "[1.0,0.0,0.0,1.0,-1.0,-1.0,1.0,0.0,-1.0]" : 0.9995392444164631,
    "[1.0,0.0,0.0,1.0,-1.0,-1.0,1.0,-1.0,0.0]" : 0.9994752443296853,
    "[1.0,-1.0,0.0,1.0,-1.0,-1.0,1.0,0.0,0.0]" : 0.9994630289012901,
    "[-1.0,0.0,0.0,1.0,1.0,1.0,0.0,-1.0,0.0]" : 0.9994141945099048,
    "[-1.0,0.0,0.0,1.0,1.0,1.0,0.0,0.0,-1.0]" : 0.9993963450150578,
    "[-1.0,0.0,0.0,1.0,1.0,1.0,-1.0,0.0,0.0]" : 0.9993859899327262,
    "[-1.0,0.0,-1.0,1.0,1.0,1.0,0.0,0.0,0.0]" : 0.9993589978310498,
    "[-1.0,-1.0,0.0,1.0,1.0,1.0,0.0,0.0,0.0]" : 0.9992793948211076,
    "[0.0,-1.0,0.0,-1.0,1.0,1.0,1.0,-1.0,1.0]" : 0.994925071938241,
    "[1.0,0.0,1.0,-1.0,1.0,-1.0,-1.0,1.0,0.0]" : 0.9901482992772009,
    "[0.0,1.0,-1.0,-1.0,1.0,-1.0,1.0,0.0,1.0]" : 0.9877349508387229,
    "[1.0,-1.0,0.0,0.0,1.0,1.0,1.0,-1.0,-1.0]" : 0.9826788843081332,
    "[-1.0,-1.0,1.0,0.0,1.0,1.0,0.0,1.0,-1.0]" : 0.9781534632929026,
    "[-1.0,1.0,1.0,1.0,1.0,-1.0,0.0,0.0,-1.0]" : 0.9755140508410148,
    "[0.0,0.0,-1.0,1.0,1.0,-1.0,-1.0,1.0,1.0]" : 0.9708286513773752,
    "[-1.0,1.0,0.0,1.0,1.0,0.0,1.0,-1.0,-1.0]" : 0.9681119430330851,
    "[1.0,-1.0,-1.0,1.0,1.0,0.0,-1.0,1.0,0.0]" : 0.967759060625827,
    "[0.0,1.0,-1.0,0.0,1.0,1.0,-1.0,-1.0,1.0]" : 0.9672060003678995,
    "[1.0,1.0,-1.0,-1.0,1.0,1.0,-1.0,0.0,0.0]" : 0.9672060003678995,
    "[1.0,0.0,1.0,-1.0,0.0,1.0,1.0,-1.0,-1.0]" : 0.9671731735398802,
    "[0.0,-1.0,0.0,1.0,1.0,-1.0,1.0,-1.0,1.0]" : 0.9657986000782067,
    "[1.0,1.0,-1.0,0.0,0.0,-1.0,1.0,-1.0,1.0]" : 0.9654892427409419,
    "[1.0,-1.0,0.0,-1.0,1.0,-1.0,1.0,1.0,0.0]" : 0.9645442801292187,
    "[1.0,-1.0,1.0,-1.0,0.0,0.0,-1.0,1.0,1.0]" : 0.9637552117437878,
    "[1.0,-1.0,1.0,0.0,0.0,-1.0,1.0,1.0,-1.0]" : 0.9634639442501001,
    "[1.0,-1.0,1.0,1.0,1.0,-1.0,0.0,-1.0,0.0]" : 0.9630965661278602,
    "[1.0,1.0,0.0,-1.0,1.0,-1.0,1.0,-1.0,0.0]" : 0.9630226483984996,
    "[0.0,-1.0,1.0,-1.0,1.0,-1.0,0.0,1.0,1.0]" : 0.9627627684451713,
    "[1.0,0.0,1.0,1.0,0.0,-1.0,-1.0,-1.0,1.0]" : 0.9622752788126266,
    "[-1.0,-1.0,1.0,1.0,0.0,-1.0,1.0,0.0,1.0]" : 0.959861071955336,
    "[-1.0,1.0,1.0,-1.0,0.0,0.0,1.0,-1.0,1.0]" : 0.9585551905325977,
    "[1.0,-1.0,-1.0,-1.0,0.0,1.0,1.0,0.0,1.0]" : 0.9499783094957164,
    "[0.0,-1.0,1.0,1.0,1.0,0.0,-1.0,-1.0,1.0]" : 0.949475330333036,
    "[-1.0,0.0,1.0,1.0,1.0,0.0,-1.0,1.0,-1.0]" : 0.942168750596017,
    "[-1.0,1.0,0.0,1.0,0.0,1.0,-1.0,-1.0,1.0]" : 0.9421108614547221,
    "[0.0,1.0,-1.0,1.0,-1.0,-1.0,1.0,0.0,1.0]" : 0.9411767148075915,
    "[-1.0,1.0,-1.0,0.0,1.0,1.0,1.0,0.0,-1.0]" : 0.9408225364890358,
    "[-1.0,1.0,0.0,-1.0,-1.0,1.0,1.0,0.0,1.0]" : 0.9398074077778951,
    "[0.0,1.0,1.0,1.0,-1.0,0.0,-1.0,-1.0,1.0]" : 0.9398074077778951,
    "[1.0,0.0,1.0,-1.0,-1.0,1.0,-1.0,1.0,0.0]" : 0.9387748655745387,
    "[1.0,0.0,1.0,1.0,-1.0,-1.0,0.0,1.0,-1.0]" : 0.9379112505798222,
    "[1.0,-1.0,-1.0,0.0,-1.0,1.0,1.0,1.0,0.0]" : 0.9369724262325738,
    "[1.0,-1.0,-1.0,0.0,1.0,1.0,1.0,-1.0,0.0]" : 0.936338670036817,
    "[1.0,1.0,0.0,0.0,-1.0,1.0,1.0,-1.0,-1.0]" : 0.9358912528275495,
    "[-1.0,1.0,-1.0,1.0,1.0,0.0,-1.0,0.0,1.0]" : 0.9356341754547245,
    "[-1.0,1.0,-1.0,1.0,0.0,-1.0,0.0,1.0,1.0]" : 0.9344645102368555,
    "[1.0,0.0,-1.0,0.0,1.0,1.0,-1.0,1.0,-1.0]" : 0.9319930205790928,
    "[1.0,-1.0,1.0,-1.0,1.0,0.0,1.0,0.0,-1.0]" : 0.9318568023204646,
    "[-1.0,1.0,-1.0,-1.0,0.0,1.0,1.0,1.0,0.0]" : 0.9311027101015389,
    "[1.0,1.0,0.0,-1.0,0.0,1.0,-1.0,1.0,-1.0]" : 0.9311027101015389,
    "[1.0,-1.0,-1.0,1.0,0.0,1.0,0.0,1.0,-1.0]" : 0.9308956041482396,
    "[1.0,-1.0,1.0,0.0,1.0,-1.0,-1.0,0.0,1.0]" : 0.9290034094943979,
    "[0.0,1.0,-1.0,1.0,0.0,1.0,1.0,-1.0,-1.0]" : 0.9289323418328552,
    "[1.0,0.0,-1.0,-1.0,1.0,0.0,1.0,-1.0,1.0]" : 0.927929892498795,
    "[0.0,1.0,1.0,1.0,0.0,-1.0,1.0,-1.0,-1.0]" : 0.9275684583649498,
    "[-1.0,-1.0,1.0,-1.0,0.0,1.0,1.0,1.0,0.0]" : 0.9253614690979597,
    "[1.0,-1.0,-1.0,1.0,0.0,-1.0,0.0,1.0,1.0]" : 0.9235475573323442,
    "[1.0,0.0,-1.0,-1.0,1.0,1.0,0.0,-1.0,1.0]" : 0.9217678732014788,
    "[1.0,1.0,0.0,1.0,-1.0,-1.0,0.0,-1.0,1.0]" : 0.9209812318617895,
    "[1.0,-1.0,0.0,-1.0,-1.0,1.0,0.0,1.0,1.0]" : 0.9198666276446069,
    "[-1.0,-1.0,1.0,1.0,-1.0,0.0,0.0,1.0,1.0]" : 0.9182470079931708,
    "[1.0,1.0,0.0,-1.0,0.0,1.0,-1.0,-1.0,1.0]" : 0.916008473490348,
    "[-1.0,0.0,1.0,-1.0,1.0,1.0,0.0,-1.0,1.0]" : 0.9143965636933316,
    "[0.0,0.0,1.0,-1.0,1.0,1.0,-1.0,-1.0,1.0]" : 0.9035731228404358,
    "[-1.0,1.0,1.0,-1.0,0.0,1.0,1.0,-1.0,0.0]" : 0.8993341629090654,
    "[0.0,1.0,0.0,-1.0,1.0,-1.0,1.0,-1.0,1.0]" : 0.8989304908662636,
    "[-1.0,1.0,0.0,-1.0,1.0,1.0,1.0,0.0,-1.0]" : 0.8965777628795132,
    "[0.0,1.0,1.0,-1.0,0.0,1.0,1.0,-1.0,-1.0]" : 0.8890749192955141,
    "[0.0,-1.0,1.0,1.0,0.0,-1.0,1.0,1.0,-1.0]" : 0.8872849411609847,
    "[-1.0,-1.0,1.0,1.0,0.0,-1.0,1.0,1.0,0.0]" : 0.8869461185491455,
    "[1.0,1.0,0.0,1.0,0.0,-1.0,-1.0,-1.0,1.0]" : 0.8852366665558589,
    "[0.0,1.0,-1.0,1.0,1.0,0.0,-1.0,-1.0,1.0]" : 0.8843144145547367,
    "[0.0,0.0,1.0,-1.0,1.0,-1.0,1.0,0.0,0.0]" : 0.8843144145547367,
    "[1.0,-1.0,0.0,1.0,1.0,-1.0,1.0,0.0,-1.0]" : 0.8840826958527458,
    "[1.0,1.0,1.0,0.0,1.0,-1.0,-1.0,-1.0,0.0]" : 0.8807894744573738,
    "[0.0,-1.0,-1.0,-1.0,1.0,0.0,1.0,1.0,1.0]" : 0.8785016649364036,
    "[1.0,0.0,-1.0,-1.0,1.0,1.0,-1.0,1.0,0.0]" : 0.8755489372123836,
    "[-1.0,1.0,0.0,0.0,1.0,1.0,1.0,-1.0,-1.0]" : 0.8751748360534596,
    "[0.0,-1.0,1.0,1.0,1.0,-1.0,0.0,-1.0,1.0]" : 0.8742975542478227,
    "[1.0,-1.0,1.0,-1.0,1.0,-1.0,0.0,1.0,0.0]" : 0.874171725967814,
    "[1.0,-1.0,1.0,0.0,1.0,-1.0,-1.0,-1.0,1.0]" : 0.8716285415324329,
    "[1.0,-1.0,1.0,-1.0,1.0,-1.0,-1.0,0.0,1.0]" : 0.8704674003901659,
    "[1.0,-1.0,1.0,-1.0,1.0,0.0,-1.0,-1.0,1.0]" : 0.8655824368164463,
    "[1.0,1.0,-1.0,1.0,0.0,-1.0,0.0,-1.0,1.0]" : 0.8653131978862392,
    "[-1.0,0.0,1.0,0.0,1.0,-1.0,1.0,-1.0,1.0]" : 0.8646377388179766,
    "[1.0,-1.0,0.0,-1.0,0.0,1.0,-1.0,1.0,1.0]" : 0.864230838485842,
    "[0.0,0.0,0.0,1.0,1.0,1.0,-1.0,-1.0,0.0]" : 0.8616252465806605,
    "[-1.0,-1.0,1.0,0.0,1.0,-1.0,1.0,-1.0,1.0]" : 0.8614867333073889,
    "[1.0,-1.0,1.0,-1.0,1.0,-1.0,1.0,0.0,-1.0]" : 0.8609312923063823,
    "[1.0,0.0,1.0,-1.0,1.0,-1.0,-1.0,-1.0,1.0]" : 0.8609312923063823,
    "[1.0,-1.0,-1.0,-1.0,0.0,1.0,0.0,1.0,1.0]" : 0.8605132503583836,
    "[-1.0,0.0,1.0,-1.0,1.0,-1.0,1.0,-1.0,1.0]" : 0.8602338578269157,
    "[1.0,-1.0,-1.0,-1.0,1.0,0.0,1.0,-1.0,1.0]" : 0.8600939517720426,
    "[1.0,-1.0,1.0,-1.0,1.0,0.0,1.0,-1.0,-1.0]" : 0.8575515585138525,
    "[1.0,0.0,-1.0,-1.0,1.0,-1.0,1.0,-1.0,1.0]" : 0.8575515585138525,
    "[1.0,-1.0,-1.0,1.0,1.0,0.0,1.0,0.0,-1.0]" : 0.8561192079255073,
    "[1.0,-1.0,1.0,0.0,1.0,-1.0,1.0,-1.0,-1.0]" : 0.8523273301996059,
    "[1.0,1.0,1.0,0.0,1.0,-1.0,-1.0,0.0,-1.0]" : 0.8521795097022872,
    "[-1.0,1.0,0.0,1.0,1.0,-1.0,-1.0,1.0,0.0]" : 0.8520315412364955,
    "[-1.0,0.0,-1.0,-1.0,1.0,0.0,1.0,1.0,1.0]" : 0.8518834246541145,
    "[1.0,-1.0,0.0,-1.0,1.0,1.0,1.0,-1.0,0.0]" : 0.8500944184542985,
    "[0.0,1.0,-1.0,1.0,1.0,-1.0,-1.0,0.0,1.0]" : 0.8478277435565466,
    "[-1.0,-1.0,1.0,-1.0,1.0,-1.0,1.0,0.0,1.0]" : 0.8467582640727647,
    "[-1.0,-1.0,1.0,1.0,1.0,0.0,0.0,1.0,-1.0]" : 0.8455267949843983,
    "[-1.0,0.0,1.0,1.0,1.0,-1.0,0.0,1.0,-1.0]" : 0.839380186466703,
    "[1.0,-1.0,-1.0,0.0,1.0,1.0,-1.0,1.0,0.0]" : 0.8374401615805391,
    "[-1.0,0.0,1.0,-1.0,1.0,0.0,1.0,0.0,0.0]" : 0.8348169626207053,
    "[0.0,0.0,0.0,1.0,1.0,1.0,0.0,-1.0,-1.0]" : 0.8306332154355393,
    "[-1.0,0.0,1.0,0.0,1.0,-1.0,1.0,0.0,0.0]" : 0.8297838350307694,
    "[0.0,0.0,-1.0,1.0,1.0,1.0,0.0,-1.0,0.0]" : 0.8273828401813492,
    "[1.0,0.0,1.0,-1.0,1.0,-1.0,1.0,0.0,-1.0]" : 0.8272100502233655,
    "[0.0,-1.0,0.0,1.0,1.0,1.0,0.0,-1.0,0.0]" : 0.826517159029912,
    "[-1.0,0.0,1.0,-1.0,1.0,-1.0,1.0,0.0,1.0]" : 0.8261696721881195,
    "[1.0,-1.0,-1.0,0.0,1.0,0.0,0.0,0.0,1.0]" : 0.822478770611193,
    "[-1.0,1.0,0.0,0.0,1.0,0.0,0.0,1.0,-1.0]" : 0.8221231948608394,
    "[1.0,-1.0,0.0,0.0,1.0,0.0,0.0,-1.0,1.0]" : 0.8194335759357539,
    "[0.0,0.0,1.0,-1.0,1.0,0.0,1.0,0.0,-1.0]" : 0.8185280289434441,
    "[0.0,0.0,1.0,-1.0,1.0,0.0,1.0,-1.0,0.0]" : 0.8174353759682907,
    "[0.0,-1.0,1.0,-1.0,1.0,0.0,1.0,0.0,0.0]" : 0.8159682646114275,
    "[0.0,0.0,-1.0,1.0,1.0,1.0,-1.0,0.0,0.0]" : 0.8154150633454395,
    "[1.0,-1.0,0.0,0.0,1.0,0.0,-1.0,0.0,1.0]" : 0.808262215417847,
    "[0.0,0.0,1.0,0.0,1.0,-1.0,1.0,0.0,-1.0]" : 0.8074933430235843,
    "[0.0,-1.0,1.0,-1.0,1.0,0.0,1.0,1.0,-1.0]" : 0.8071077514003282,
    "[1.0,-1.0,0.0,-1.0,1.0,0.0,0.0,0.0,1.0]" : 0.8065279153416218,
    "[0.0,0.0,1.0,0.0,1.0,-1.0,1.0,-1.0,0.0]" : 0.8047779282334381,
    "[1.0,-1.0,0.0,0.0,1.0,-1.0,0.0,0.0,1.0]" : 0.8047779282334381,
    "[0.0,-1.0,1.0,0.0,1.0,-1.0,1.0,0.0,0.0]" : 0.8032091000986438,
    "[-1.0,-1.0,1.0,-1.0,1.0,1.0,0.0,0.0,1.0]" : 0.7994324193702825,
    "[-1.0,0.0,1.0,-1.0,1.0,1.0,1.0,0.0,-1.0]" : 0.7992316510117583,
    "[1.0,-1.0,1.0,1.0,-1.0,-1.0,1.0,0.0,-1.0]" : 0.7976182523236961,
    "[-1.0,1.0,-1.0,0.0,1.0,0.0,0.0,1.0,0.0]" : 0.7976182523236961,
    "[-1.0,-1.0,1.0,1.0,0.0,1.0,-1.0,1.0,0.0]" : 0.7966033007131934,
    "[1.0,0.0,1.0,-1.0,1.0,0.0,1.0,-1.0,-1.0]" : 0.7963997004039268,
    "[-1.0,1.0,0.0,0.0,1.0,0.0,-1.0,1.0,0.0]" : 0.7945581019110766,
    "[0.0,1.0,0.0,0.0,1.0,0.0,-1.0,1.0,-1.0]" : 0.7931142388820956,
    "[-1.0,-1.0,1.0,0.0,1.0,-1.0,1.0,0.0,1.0]" : 0.7880863730908648,
    "[0.0,-1.0,1.0,-1.0,1.0,-1.0,1.0,-1.0,1.0]" : 0.7872365951607944,
    "[0.0,0.0,0.0,1.0,1.0,1.0,-1.0,0.0,-1.0]" : 0.7872365951607944,
    "[0.0,0.0,-1.0,1.0,1.0,1.0,0.0,0.0,-1.0]" : 0.786597026204579,
    "[1.0,-1.0,1.0,-1.0,-1.0,1.0,-1.0,0.0,1.0]" : 0.7863834096040369,
    "[0.0,1.0,-1.0,0.0,1.0,0.0,0.0,1.0,-1.0]" : 0.7857412759633712,
    "[1.0,0.0,-1.0,0.0,1.0,-1.0,1.0,-1.0,1.0]" : 0.7829363169938438,
    "[1.0,1.0,1.0,-1.0,1.0,0.0,-1.0,-1.0,0.0]" : 0.7829363169938438,
    "[1.0,-1.0,1.0,-1.0,1.0,-1.0,1.0,-1.0,0.0]" : 0.7825015375467592,
    "[-1.0,1.0,-1.0,1.0,1.0,1.0,0.0,-1.0,0.0]" : 0.7825015375467592,
    "[-1.0,1.0,1.0,0.0,1.0,-1.0,1.0,-1.0,0.0]" : 0.7809729399640962,
    "[-1.0,-1.0,1.0,-1.0,1.0,1.0,0.0,-1.0,1.0]" : 0.7798745115243803,
    "[-1.0,-1.0,0.0,-1.0,1.0,0.0,1.0,1.0,1.0]" : 0.7792128120699692,
    "[-1.0,0.0,1.0,1.0,1.0,-1.0,1.0,-1.0,0.0]" : 0.7783274509807283,
    "[-1.0,1.0,0.0,-1.0,1.0,0.0,0.0,1.0,0.0]" : 0.7769927480578165,
    "[-1.0,0.0,1.0,-1.0,-1.0,1.0,1.0,-1.0,1.0]" : 0.7758743588151537,
    "[0.0,1.0,-1.0,-1.0,1.0,1.0,0.0,1.0,-1.0]" : 0.775425434236881,
    "[1.0,1.0,1.0,-1.0,1.0,-1.0,0.0,-1.0,-1.0]" : 0.7752006348610647,
    "[1.0,1.0,1.0,0.0,1.0,-1.0,0.0,-1.0,-1.0]" : 0.7752006348610647,
    "[0.0,-1.0,-1.0,0.0,1.0,-1.0,1.0,1.0,1.0]" : 0.7749756104608375,
    "[0.0,1.0,1.0,1.0,0.0,-1.0,-1.0,1.0,-1.0]" : 0.7747503608109497,
    "[0.0,-1.0,-1.0,-1.0,1.0,-1.0,1.0,1.0,1.0]" : 0.7738471052019028,
    "[1.0,1.0,1.0,0.0,-1.0,-1.0,-1.0,-1.0,1.0]" : 0.7736207259170674,
    "[1.0,1.0,1.0,0.0,-1.0,-1.0,-1.0,0.0,1.0]" : 0.7731672873028594,
    "[1.0,-1.0,-1.0,1.0,1.0,-1.0,1.0,-1.0,0.0]" : 0.772029713239437,
    "[0.0,-1.0,1.0,-1.0,1.0,1.0,-1.0,0.0,1.0]" : 0.7713444322416934,
    "[0.0,1.0,0.0,-1.0,1.0,0.0,0.0,1.0,-1.0]" : 0.77088643420192,
    "[1.0,0.0,-1.0,1.0,-1.0,0.0,1.0,-1.0,1.0]" : 0.7706570912823092,
    "[1.0,1.0,1.0,-1.0,-1.0,0.0,1.0,0.0,-1.0]" : 0.769737421579662,
    "[1.0,-1.0,-1.0,-1.0,-1.0,0.0,1.0,1.0,1.0]" : 0.7695069284972114,
    "[1.0,-1.0,0.0,0.0,1.0,-1.0,-1.0,1.0,1.0]" : 0.7692762046909435,
    "[-1.0,0.0,1.0,0.0,-1.0,-1.0,1.0,1.0,1.0]" : 0.7690452499299036,
    "[1.0,0.0,0.0,1.0,1.0,-1.0,1.0,-1.0,-1.0]" : 0.7690452499299036,
    "[1.0,-1.0,-1.0,1.0,1.0,-1.0,1.0,0.0,0.0]" : 0.7667229488313961,
    "[1.0,-1.0,0.0,1.0,1.0,-1.0,-1.0,0.0,1.0]" : 0.7662556939414027,
    "[-1.0,1.0,0.0,0.0,1.0,-1.0,0.0,1.0,0.0]" : 0.7662556939414027,
    "[-1.0,0.0,0.0,1.0,-1.0,-1.0,1.0,1.0,1.0]" : 0.7660217156459352,
    "[1.0,1.0,-1.0,-1.0,1.0,0.0,0.0,-1.0,1.0]" : 0.7657875031379487,
    "[0.0,-1.0,-1.0,1.0,1.0,1.0,0.0,0.0,0.0]" : 0.7657875031379487,
    "[1.0,0.0,1.0,-1.0,1.0,-1.0,-1.0,0.0,1.0]" : 0.7650834579932311,
    "[0.0,-1.0,1.0,-1.0,1.0,1.0,1.0,0.0,-1.0]" : 0.7648483062883503,
    "[-1.0,0.0,1.0,0.0,1.0,1.0,-1.0,-1.0,1.0]" : 0.7648483062883503,
    "[1.0,0.0,1.0,-1.0,1.0,-1.0,1.0,-1.0,-1.0]" : 0.7641414379083623,
    "[-1.0,0.0,1.0,1.0,1.0,1.0,0.0,-1.0,-1.0]" : 0.7631956403038999,
    "[1.0,1.0,1.0,0.0,-1.0,-1.0,0.0,-1.0,0.0]" : 0.7629585988915325,
    "[-1.0,1.0,-1.0,-1.0,1.0,1.0,0.0,1.0,0.0]" : 0.7624838039931745,
    "[1.0,-1.0,1.0,1.0,-1.0,0.0,1.0,0.0,-1.0]" : 0.7622460500319137,
    "[0.0,-1.0,1.0,0.0,-1.0,1.0,-1.0,1.0,1.0]" : 0.7615313592431849,
    "[-1.0,-1.0,1.0,-1.0,1.0,1.0,1.0,0.0,-1.0]" : 0.7612926518837306,
    "[-1.0,0.0,1.0,1.0,1.0,-1.0,1.0,-1.0,-1.0]" : 0.7610537055779593,
    "[1.0,-1.0,-1.0,-1.0,1.0,-1.0,1.0,0.0,1.0]" : 0.7608145200866853,
    "[1.0,1.0,1.0,-1.0,-1.0,0.0,1.0,-1.0,-1.0]" : 0.7605750951704837,
    "[-1.0,1.0,1.0,0.0,-1.0,1.0,0.0,-1.0,1.0]" : 0.7600955261043996,
    "[-1.0,-1.0,1.0,0.0,-1.0,-1.0,1.0,1.0,1.0]" : 0.7596149964595096,
    "[1.0,-1.0,0.0,1.0,-1.0,0.0,1.0,1.0,-1.0]" : 0.7596149964595096,
    "[0.0,-1.0,0.0,1.0,1.0,1.0,-1.0,1.0,-1.0]" : 0.7593743708188994,
    "[-1.0,1.0,0.0,0.0,1.0,-1.0,1.0,1.0,-1.0]" : 0.7588923966970157,
    "[-1.0,-1.0,1.0,-1.0,1.0,0.0,1.0,1.0,-1.0]" : 0.7588923966970157,
    "[1.0,-1.0,-1.0,1.0,1.0,-1.0,-1.0,0.0,1.0]" : 0.7581676247922954,
    "[1.0,-1.0,1.0,0.0,-1.0,1.0,-1.0,0.0,1.0]" : 0.7574406742158672,
    "[1.0,-1.0,1.0,0.0,1.0,0.0,1.0,-1.0,-1.0]" : 0.7564680064134683,
    "[0.0,1.0,-1.0,0.0,1.0,0.0,-1.0,1.0,0.0]" : 0.7564680064134683,
    "[-1.0,-1.0,1.0,0.0,1.0,1.0,0.0,-1.0,1.0]" : 0.7559802108317636,
    "[0.0,-1.0,1.0,1.0,1.0,1.0,-1.0,0.0,-1.0]" : 0.7557359467669286,
    "[1.0,0.0,-1.0,-1.0,1.0,1.0,-1.0,-1.0,1.0]" : 0.7557359467669286,
    "[1.0,1.0,1.0,1.0,-1.0,-1.0,-1.0,0.0,0.0]" : 0.7557359467669286,
    "[1.0,-1.0,-1.0,0.0,1.0,-1.0,-1.0,1.0,1.0]" : 0.7554914381935085,
    "[-1.0,1.0,1.0,0.0,1.0,-1.0,-1.0,1.0,0.0]" : 0.7547564429729794,
    "[-1.0,-1.0,1.0,1.0,1.0,1.0,-1.0,0.0,0.0]" : 0.7540192383493513,
    "[1.0,0.0,-1.0,1.0,-1.0,-1.0,1.0,-1.0,1.0]" : 0.7535265378751734,
    "[-1.0,1.0,1.0,0.0,1.0,-1.0,1.0,-1.0,-1.0]" : 0.7532798176811359,
    "[-1.0,0.0,1.0,0.0,-1.0,1.0,-1.0,1.0,1.0]" : 0.7532798176811359,
    "[1.0,0.0,-1.0,1.0,0.0,0.0,1.0,0.0,-1.0]" : 0.7530328505199255,
    "[1.0,1.0,-1.0,-1.0,1.0,0.0,-1.0,-1.0,1.0]" : 0.7527856361443278,
    "[1.0,1.0,1.0,0.0,-1.0,0.0,-1.0,1.0,-1.0]" : 0.7525381743068809,
    "[1.0,-1.0,-1.0,0.0,1.0,-1.0,1.0,-1.0,1.0]" : 0.7517943015451092,
    "[-1.0,0.0,1.0,1.0,-1.0,1.0,-1.0,0.0,1.0]" : 0.751545847380689,
    "[-1.0,0.0,-1.0,1.0,1.0,1.0,1.0,-1.0,-1.0]" : 0.7510481926942593,
    "[-1.0,0.0,-1.0,0.0,0.0,0.0,1.0,1.0,1.0]" : 0.7497996905903708,
    "[1.0,0.0,0.0,1.0,-1.0,0.0,1.0,0.0,-1.0]" : 0.7497996905903708,
    "[1.0,1.0,1.0,-1.0,-1.0,1.0,0.0,0.0,-1.0]" : 0.7490475859187294,
    "[-1.0,0.0,-1.0,1.0,-1.0,0.0,1.0,1.0,1.0]" : 0.7490475859187294,
    "[0.0,0.0,-1.0,0.0,-1.0,0.0,1.0,1.0,1.0]" : 0.748796382289087,
    "[1.0,-1.0,1.0,0.0,1.0,0.0,-1.0,-1.0,1.0]" : 0.7485449272043478,
    "[1.0,0.0,-1.0,1.0,-1.0,0.0,1.0,1.0,-1.0]" : 0.7485449272043478,
    "[0.0,0.0,1.0,0.0,-1.0,1.0,-1.0,0.0,1.0]" : 0.7485449272043478,
    "[1.0,1.0,1.0,0.0,0.0,-1.0,-1.0,1.0,-1.0]" : 0.7475365872765073,
    "[0.0,-1.0,1.0,0.0,-1.0,1.0,0.0,0.0,1.0]" : 0.7475365872765073,
    "[-1.0,0.0,1.0,0.0,1.0,0.0,1.0,-1.0,0.0]" : 0.7475365872765073,
    "[0.0,0.0,-1.0,-1.0,-1.0,1.0,1.0,1.0,1.0]" : 0.7470309020256498,
    "[1.0,1.0,-1.0,1.0,-1.0,0.0,1.0,-1.0,0.0]" : 0.7465242038851615,
    "[-1.0,0.0,1.0,1.0,1.0,1.0,-1.0,0.0,-1.0]" : 0.7465242038851615,
    "[-1.0,1.0,-1.0,-1.0,1.0,0.0,1.0,1.0,-1.0]" : 0.7465242038851615,
    "[-1.0,0.0,1.0,0.0,1.0,0.0,1.0,0.0,-1.0]" : 0.7462704743474574,
    "[-1.0,0.0,-1.0,0.0,-1.0,1.0,1.0,1.0,1.0]" : 0.7452530138176575,
    "[-1.0,1.0,1.0,0.0,-1.0,1.0,-1.0,0.0,1.0]" : 0.7442314732505542,
    "[-1.0,0.0,1.0,0.0,0.0,1.0,-1.0,0.0,1.0]" : 0.7439754486870808,
    "[1.0,1.0,1.0,1.0,-1.0,0.0,-1.0,0.0,-1.0]" : 0.7437191678427508,
    "[0.0,1.0,0.0,0.0,1.0,-1.0,0.0,1.0,-1.0]" : 0.7437191678427508,
    "[1.0,0.0,-1.0,-1.0,-1.0,0.0,1.0,1.0,1.0]" : 0.743462630461027,
    "[1.0,0.0,-1.0,1.0,1.0,1.0,-1.0,-1.0,0.0]" : 0.743462630461027,
    "[-1.0,0.0,1.0,0.0,-1.0,1.0,0.0,0.0,1.0]" : 0.743462630461027,
    "[-1.0,-1.0,0.0,1.0,1.0,1.0,-1.0,0.0,1.0]" : 0.743462630461027,
    "[1.0,-1.0,-1.0,1.0,-1.0,0.0,1.0,0.0,1.0]" : 0.743205836285115,
    "[0.0,-1.0,1.0,0.0,0.0,1.0,-1.0,0.0,1.0]" : 0.743205836285115,
    "[-1.0,1.0,-1.0,0.0,-1.0,0.0,1.0,1.0,1.0]" : 0.7426914765222644,
    "[1.0,-1.0,-1.0,-1.0,1.0,1.0,0.0,0.0,1.0]" : 0.7424339104204511,
    "[1.0,1.0,1.0,0.0,-1.0,1.0,-1.0,0.0,-1.0]" : 0.7416596641387969,
    "[1.0,0.0,-1.0,1.0,1.0,1.0,-1.0,0.0,-1.0]" : 0.7416596641387969,
    "[1.0,0.0,-1.0,0.0,-1.0,-1.0,1.0,1.0,1.0]" : 0.7414010651917058,
    "[1.0,-1.0,0.0,1.0,-1.0,0.0,1.0,0.0,0.0]" : 0.7411422073867975,
    "[1.0,0.0,-1.0,1.0,-1.0,1.0,1.0,0.0,-1.0]" : 0.740883090464955,
    "[-1.0,0.0,-1.0,1.0,1.0,1.0,-1.0,-1.0,1.0]" : 0.740883090464955,
    "[-1.0,1.0,-1.0,0.0,1.0,0.0,1.0,1.0,-1.0]" : 0.7403640782327028,
    "[-1.0,0.0,0.0,0.0,-1.0,0.0,1.0,1.0,1.0]" : 0.7401041824027611,
    "[-1.0,0.0,1.0,0.0,-1.0,1.0,1.0,-1.0,1.0]" : 0.7395836100144666,
    "[-1.0,-1.0,1.0,0.0,1.0,1.0,-1.0,-1.0,1.0]" : 0.7395836100144666,
    "[-1.0,1.0,1.0,0.0,1.0,0.0,-1.0,1.0,-1.0]" : 0.7393229329350202,
    "[0.0,-1.0,0.0,1.0,1.0,1.0,-1.0,0.0,0.0]" : 0.7393229329350202,
    "[-1.0,0.0,1.0,1.0,1.0,1.0,-1.0,-1.0,0.0]" : 0.7388007957008383,
    "[-1.0,1.0,-1.0,0.0,1.0,-1.0,-1.0,1.0,1.0]" : 0.738539335023443,
    "[1.0,1.0,1.0,0.0,-1.0,-1.0,0.0,0.0,0.0]" : 0.7382776126236356,
    "[1.0,-1.0,-1.0,1.0,1.0,1.0,-1.0,0.0,-1.0]" : 0.7369650656097759,
    "[0.0,0.0,0.0,0.0,-1.0,-1.0,1.0,1.0,1.0]" : 0.7367017673646346,
    "[1.0,0.0,-1.0,1.0,-1.0,0.0,1.0,0.0,0.0]" : 0.7367017673646346,
    "[-1.0,1.0,-1.0,1.0,1.0,-1.0,0.0,1.0,0.0]" : 0.7367017673646346,
    "[1.0,1.0,-1.0,1.0,-1.0,0.0,1.0,0.0,-1.0]" : 0.7361743799250677,
    "[-1.0,-1.0,1.0,0.0,1.0,0.0,1.0,0.0,0.0]" : 0.7361743799250677,
    "[0.0,0.0,0.0,-1.0,-1.0,0.0,1.0,1.0,1.0]" : 0.7359102902027269,
    "[-1.0,1.0,-1.0,0.0,1.0,-1.0,1.0,1.0,0.0]" : 0.735645936126297,
    "[1.0,-1.0,-1.0,0.0,1.0,0.0,1.0,-1.0,1.0]" : 0.7351164338524305,
    "[-1.0,1.0,1.0,-1.0,1.0,-1.0,1.0,0.0,0.0]" : 0.7348512851249616,
    "[1.0,1.0,1.0,0.0,0.0,-1.0,-1.0,0.0,0.0]" : 0.7343201911618812,
    "[0.0,-1.0,0.0,1.0,-1.0,-1.0,1.0,1.0,1.0]" : 0.7337880334154151,
    "[1.0,0.0,0.0,1.0,-1.0,0.0,1.0,-1.0,0.0]" : 0.7335215549577158,
    "[1.0,1.0,1.0,-1.0,1.0,-1.0,-1.0,0.0,-1.0]" : 0.7332548097548008,
    "[1.0,1.0,1.0,0.0,-1.0,0.0,0.0,0.0,-1.0]" : 0.7329877975396581,
    "[1.0,0.0,1.0,0.0,-1.0,1.0,-1.0,-1.0,1.0]" : 0.7305726278635862,
    "[1.0,0.0,1.0,1.0,-1.0,0.0,1.0,-1.0,-1.0]" : 0.7305726278635862,
    "[-1.0,0.0,-1.0,1.0,1.0,1.0,-1.0,0.0,1.0]" : 0.7300329637324675,
    "[1.0,1.0,1.0,0.0,0.0,0.0,-1.0,0.0,-1.0]" : 0.729762726446078,
    "[1.0,1.0,1.0,-1.0,-1.0,0.0,-1.0,0.0,1.0]" : 0.729762726446078,
    "[1.0,1.0,-1.0,-1.0,1.0,0.0,-1.0,1.0,-1.0]" : 0.7294922186518814,
    "[0.0,1.0,1.0,-1.0,-1.0,1.0,0.0,-1.0,1.0]" : 0.7292214400790992,
    "[1.0,1.0,1.0,0.0,-1.0,-1.0,1.0,0.0,-1.0]" : 0.7284074769773853,
    "[-1.0,0.0,-1.0,1.0,1.0,1.0,1.0,0.0,-1.0]" : 0.7275910670943194,
    "[1.0,1.0,1.0,0.0,-1.0,0.0,-1.0,-1.0,0.0]" : 0.7273183854668346,
    "[-1.0,-1.0,0.0,0.0,-1.0,1.0,1.0,1.0,1.0]" : 0.7270454308847547,
    "[-1.0,1.0,1.0,0.0,1.0,-1.0,-1.0,1.0,-1.0]" : 0.7267722030748519,
    "[-1.0,0.0,-1.0,1.0,1.0,1.0,1.0,-1.0,0.0]" : 0.7262249266772987,
    "[-1.0,-1.0,1.0,1.0,1.0,1.0,-1.0,0.0,-1.0]" : 0.7256765540828771,
    "[-1.0,1.0,-1.0,0.0,1.0,0.0,-1.0,1.0,1.0]" : 0.7254019560258603,
    "[1.0,0.0,0.0,1.0,0.0,-1.0,1.0,0.0,-1.0]" : 0.7248519350178495,
    "[1.0,1.0,1.0,0.0,-1.0,-1.0,0.0,0.0,-1.0]" : 0.7243008123155044,
    "[1.0,1.0,-1.0,0.0,1.0,0.0,-1.0,1.0,-1.0]" : 0.7240248371395358,
    "[-1.0,0.0,1.0,-1.0,0.0,1.0,0.0,0.0,1.0]" : 0.7240248371395358,
    "[0.0,1.0,-1.0,-1.0,1.0,0.0,0.0,1.0,0.0]" : 0.7240248371395358,
    "[0.0,1.0,0.0,1.0,1.0,-1.0,-1.0,1.0,-1.0]" : 0.7240248371395358,
    "[0.0,1.0,0.0,-1.0,1.0,0.0,-1.0,1.0,0.0]" : 0.7237485857121267,
    "[1.0,0.0,-1.0,1.0,0.0,0.0,1.0,-1.0,0.0]" : 0.7234720577567492,
    "[0.0,0.0,1.0,-1.0,0.0,1.0,-1.0,0.0,1.0]" : 0.7231952529965983,
    "[0.0,-1.0,1.0,-1.0,0.0,1.0,0.0,0.0,1.0]" : 0.7231952529965983,
    "[-1.0,0.0,0.0,0.0,0.0,-1.0,1.0,1.0,1.0]" : 0.7226408119533716,
    "[0.0,-1.0,-1.0,0.0,0.0,0.0,1.0,1.0,1.0]" : 0.7220852603624621,
    "[1.0,1.0,1.0,-1.0,1.0,0.0,-1.0,0.0,-1.0]" : 0.7212498458320302,
    "[1.0,1.0,1.0,0.0,-1.0,0.0,-1.0,0.0,0.0]" : 0.7201320520758165,
    "[0.0,1.0,-1.0,-1.0,1.0,0.0,-1.0,1.0,1.0]" : 0.7198519039664767,
    "[1.0,-1.0,-1.0,1.0,1.0,0.0,1.0,-1.0,-1.0]" : 0.7187285044351074,
    "[1.0,1.0,-1.0,1.0,-1.0,-1.0,1.0,-1.0,0.0]" : 0.7184469513731074,
    "[1.0,1.0,1.0,0.0,-1.0,-1.0,-1.0,0.0,0.0]" : 0.7184469513731074,
    "[1.0,0.0,0.0,1.0,-1.0,-1.0,1.0,0.0,0.0]" : 0.7181651164761972,
    "[1.0,0.0,1.0,1.0,-1.0,-1.0,1.0,-1.0,-1.0]" : 0.7178829994622596,
    "[1.0,0.0,-1.0,0.0,1.0,0.0,-1.0,0.0,1.0]" : 0.7176006000488953,
    "[-1.0,0.0,-1.0,-1.0,1.0,-1.0,1.0,1.0,1.0]" : 0.717317917953422,
    "[0.0,-1.0,0.0,0.0,-1.0,0.0,1.0,1.0,1.0]" : 0.7167517045840052,
    "[0.0,-1.0,1.0,0.0,0.0,1.0,0.0,-1.0,1.0]" : 0.7161843570868878,
    "[0.0,-1.0,1.0,0.0,1.0,0.0,1.0,-1.0,-1.0]" : 0.7161843570868878,
    "[-1.0,0.0,1.0,0.0,0.0,1.0,0.0,-1.0,1.0]" : 0.713617197503758,
    "[1.0,0.0,-1.0,-1.0,1.0,0.0,0.0,0.0,1.0]" : 0.7127563278903536,
    "[1.0,0.0,0.0,-1.0,1.0,0.0,0.0,-1.0,1.0]" : 0.7127563278903536,
    "[1.0,1.0,1.0,0.0,0.0,-1.0,0.0,-1.0,0.0]" : 0.7124687966733699,
    "[1.0,-1.0,0.0,1.0,0.0,0.0,1.0,0.0,-1.0]" : 0.7124687966733699,
    "[1.0,0.0,-1.0,0.0,1.0,0.0,0.0,-1.0,1.0]" : 0.7118928704941464,
    "[0.0,1.0,0.0,0.0,1.0,-1.0,-1.0,1.0,0.0]" : 0.7118928704941464,
    "[1.0,-1.0,-1.0,1.0,0.0,0.0,1.0,0.0,0.0]" : 0.7116044749554038,
    "[-1.0,1.0,0.0,0.0,1.0,-1.0,-1.0,1.0,1.0]" : 0.7110268175362352,
    "[1.0,1.0,1.0,1.0,-1.0,-1.0,0.0,0.0,-1.0]" : 0.7110268175362352,
    "[0.0,0.0,-1.0,-1.0,0.0,0.0,1.0,1.0,1.0]" : 0.7110268175362352,
    "[-1.0,0.0,0.0,-1.0,0.0,0.0,1.0,1.0,1.0]" : 0.7107375550775735,
    "[1.0,-1.0,-1.0,1.0,-1.0,0.0,1.0,1.0,0.0]" : 0.7107375550775735,
    "[0.0,0.0,1.0,-1.0,-1.0,1.0,0.0,0.0,1.0]" : 0.7107375550775735,
    "[1.0,1.0,1.0,-1.0,0.0,0.0,-1.0,1.0,-1.0]" : 0.7104480030668874,
    "[0.0,1.0,-1.0,0.0,1.0,-1.0,0.0,1.0,0.0]" : 0.7104480030668874,
    "[-1.0,-1.0,1.0,0.0,1.0,0.0,1.0,1.0,-1.0]" : 0.7098680292297842,
    "[1.0,-1.0,-1.0,1.0,-1.0,-1.0,1.0,1.0,0.0]" : 0.7092868937027073,
    "[-1.0,0.0,-1.0,1.0,1.0,1.0,0.0,-1.0,1.0]" : 0.7089958895784637,
    "[1.0,0.0,-1.0,1.0,1.0,-1.0,-1.0,0.0,1.0]" : 0.7089958895784637,
    "[-1.0,-1.0,1.0,-1.0,-1.0,1.0,1.0,0.0,1.0]" : 0.7089958895784637,
    "[1.0,1.0,-1.0,-1.0,1.0,0.0,0.0,1.0,-1.0]" : 0.7087045941587867,
    "[0.0,-1.0,0.0,1.0,1.0,1.0,0.0,0.0,-1.0]" : 0.7087045941587867,
    "[0.0,0.0,-1.0,1.0,-1.0,-1.0,1.0,1.0,1.0]" : 0.7084130071520892,
    "[1.0,1.0,1.0,-1.0,-1.0,1.0,-1.0,0.0,0.0]" : 0.7078289572098246,
    "[1.0,-1.0,0.0,1.0,1.0,1.0,-1.0,0.0,-1.0]" : 0.7069506880872991,
    "[1.0,1.0,1.0,0.0,0.0,0.0,0.0,-1.0,-1.0]" : 0.7069506880872991,
    "[1.0,1.0,1.0,-1.0,0.0,-1.0,0.0,0.0,0.0]" : 0.7066573454187849,
    "[-1.0,-1.0,1.0,0.0,0.0,1.0,0.0,0.0,1.0]" : 0.705481035440766,
    "[-1.0,0.0,1.0,-1.0,1.0,-1.0,1.0,0.0,0.0]" : 0.705481035440766,
    "[-1.0,1.0,-1.0,-1.0,1.0,0.0,0.0,1.0,1.0]" : 0.7051862216484115,
    "[-1.0,0.0,0.0,-1.0,-1.0,1.0,1.0,1.0,1.0]" : 0.7051862216484115,
    "[1.0,-1.0,1.0,1.0,-1.0,-1.0,1.0,0.0,0.0]" : 0.7051862216484115,
    "[1.0,1.0,1.0,0.0,0.0,0.0,-1.0,-1.0,0.0]" : 0.7048911127471417,
    "[0.0,0.0,1.0,0.0,0.0,1.0,-1.0,-1.0,1.0]" : 0.7048911127471417,
    "[1.0,0.0,0.0,1.0,0.0,0.0,1.0,-1.0,-1.0]" : 0.7048911127471417,
    "[-1.0,0.0,-1.0,0.0,1.0,-1.0,1.0,1.0,1.0]" : 0.7048911127471417,
    "[1.0,1.0,1.0,-1.0,-1.0,0.0,0.0,-1.0,0.0]" : 0.7045957084415523,
    "[0.0,1.0,-1.0,-1.0,1.0,0.0,1.0,1.0,-1.0]" : 0.7040040124343184,
    "[0.0,0.0,-1.0,0.0,0.0,-1.0,1.0,1.0,1.0]" : 0.7040040124343184,
    "[1.0,0.0,0.0,1.0,0.0,-1.0,1.0,-1.0,0.0]" : 0.7040040124343184,
    "[0.0,0.0,1.0,-1.0,1.0,-1.0,1.0,0.0,-1.0]" : 0.703411131257556,
    "[1.0,1.0,1.0,0.0,-1.0,0.0,0.0,-1.0,0.0]" : 0.703411131257556,
    "[1.0,-1.0,-1.0,1.0,0.0,1.0,1.0,0.0,-1.0]" : 0.7031142454889436,
    "[-1.0,-1.0,1.0,-1.0,1.0,0.0,1.0,-1.0,1.0]" : 0.7031142454889436,
    "[0.0,0.0,0.0,-1.0,1.0,1.0,0.0,-1.0,1.0]" : 0.7030401517840967,
    "[-1.0,1.0,0.0,0.0,1.0,1.0,-1.0,1.0,-1.0]" : 0.7028170625373655,
    "[1.0,0.0,-1.0,1.0,0.0,1.0,1.0,-1.0,-1.0]" : 0.7025195821053413,
    "[0.0,-1.0,1.0,0.0,-1.0,-1.0,1.0,1.0,1.0]" : 0.7025195821053413,
    "[0.0,0.0,1.0,0.0,-1.0,1.0,0.0,-1.0,1.0]" : 0.7019237276085434,
    "[0.0,-1.0,1.0,1.0,1.0,-1.0,1.0,-1.0,-1.0]" : 0.7016253529473186,
    "[-1.0,-1.0,1.0,0.0,1.0,0.0,1.0,-1.0,0.0]" : 0.7016253529473186,
    "[-1.0,-1.0,1.0,1.0,1.0,0.0,1.0,-1.0,0.0]" : 0.7016253529473186,
    "[1.0,1.0,1.0,-1.0,-1.0,0.0,0.0,0.0,0.0]" : 0.7016253529473186,
    "[-1.0,-1.0,0.0,0.0,0.0,0.0,1.0,1.0,1.0]" : 0.7013266796127452,
    "[0.0,0.0,1.0,-1.0,-1.0,1.0,1.0,-1.0,1.0]" : 0.7001289935570261,
    "[1.0,1.0,1.0,-1.0,-1.0,0.0,1.0,-1.0,0.0]" : 0.6998288223651339,
    "[1.0,-1.0,0.0,1.0,0.0,-1.0,1.0,0.0,0.0]" : 0.6995283507015638,
    "[0.0,0.0,1.0,0.0,1.0,0.0,1.0,-1.0,-1.0]" : 0.6995283507015638,
    "[0.0,-1.0,0.0,0.0,0.0,-1.0,1.0,1.0,1.0]" : 0.6989265047559993,
    "[1.0,0.0,0.0,0.0,1.0,0.0,-1.0,-1.0,1.0]" : 0.6986251298715563,
    "[1.0,0.0,-1.0,1.0,-1.0,0.0,1.0,0.0,-1.0]" : 0.6986251298715563,
    "[1.0,1.0,1.0,-1.0,0.0,0.0,0.0,0.0,-1.0]" : 0.698323453310538,
    "[0.0,1.0,1.0,0.0,-1.0,1.0,-1.0,-1.0,1.0]" : 0.6974166105467335,
    "[1.0,1.0,1.0,0.0,0.0,-1.0,0.0,0.0,-1.0]" : 0.6974166105467335,
    "[1.0,-1.0,0.0,1.0,-1.0,-1.0,1.0,1.0,-1.0]" : 0.6974166105467335,
    "[1.0,1.0,0.0,-1.0,1.0,-1.0,-1.0,-1.0,1.0]" : 0.6971137242566038,
    "[1.0,0.0,-1.0,1.0,0.0,-1.0,1.0,0.0,0.0]" : 0.6968105347769801,
    "[1.0,-1.0,1.0,-1.0,1.0,0.0,-1.0,0.0,1.0]" : 0.6968105347769801,
    "[0.0,-1.0,0.0,-1.0,0.0,0.0,1.0,1.0,1.0]" : 0.6965070418043693,
    "[1.0,0.0,0.0,-1.0,1.0,0.0,-1.0,0.0,1.0]" : 0.6965070418043693,
    "[1.0,0.0,-1.0,0.0,1.0,-1.0,0.0,0.0,1.0]" : 0.6962032450349747,
    "[-1.0,-1.0,1.0,-1.0,1.0,-1.0,1.0,1.0,0.0]" : 0.6962032450349747,
    "[-1.0,1.0,1.0,-1.0,1.0,0.0,1.0,-1.0,-1.0]" : 0.6958991441646953,
    "[1.0,0.0,0.0,-1.0,1.0,-1.0,-1.0,0.0,1.0]" : 0.695594738889126,
    "[0.0,0.0,1.0,-1.0,1.0,-1.0,1.0,1.0,-1.0]" : 0.6952900289035566,
    "[0.0,0.0,1.0,0.0,1.0,-1.0,1.0,-1.0,-1.0]" : 0.6952900289035566,
    "[1.0,1.0,1.0,-1.0,-1.0,0.0,-1.0,-1.0,1.0]" : 0.6949850139029722,
    "[1.0,-1.0,-1.0,-1.0,1.0,0.0,1.0,0.0,1.0]" : 0.6946796935820523,
    "[1.0,-1.0,1.0,0.0,1.0,-1.0,1.0,0.0,-1.0]" : 0.6946796935820523,
    "[-1.0,1.0,1.0,0.0,1.0,0.0,1.0,-1.0,-1.0]" : 0.6937618976394904,
    "[0.0,1.0,0.0,-1.0,1.0,-1.0,0.0,1.0,0.0]" : 0.6937618976394904,
    "[1.0,0.0,-1.0,1.0,1.0,-1.0,-1.0,-1.0,1.0]" : 0.6937618976394904,
    "[1.0,1.0,-1.0,0.0,1.0,-1.0,-1.0,-1.0,1.0]" : 0.6934553529779082,
    "[1.0,0.0,0.0,-1.0,1.0,-1.0,0.0,0.0,1.0]" : 0.6934553529779082,
    "[-1.0,0.0,1.0,1.0,1.0,-1.0,1.0,0.0,-1.0]" : 0.6931485014647983,
    "[1.0,-1.0,-1.0,-1.0,1.0,1.0,-1.0,0.0,1.0]" : 0.6931485014647983,
    "[1.0,1.0,1.0,-1.0,-1.0,1.0,-1.0,-1.0,0.0]" : 0.6931485014647983,
    "[1.0,0.0,0.0,0.0,1.0,-1.0,0.0,-1.0,1.0]" : 0.6925338766550533,
    "[1.0,1.0,1.0,-1.0,0.0,-1.0,0.0,-1.0,1.0]" : 0.6919180207492942,
    "[-1.0,0.0,1.0,-1.0,1.0,0.0,1.0,-1.0,1.0]" : 0.6916096303650114,
    "[1.0,-1.0,0.0,0.0,1.0,0.0,-1.0,-1.0,1.0]" : 0.6916096303650114,
    "[1.0,0.0,-1.0,-1.0,1.0,-1.0,0.0,0.0,1.0]" : 0.6916096303650114,
    "[-1.0,-1.0,1.0,1.0,1.0,-1.0,1.0,0.0,-1.0]" : 0.6916096303650114,
    "[0.0,-1.0,1.0,0.0,1.0,0.0,1.0,-1.0,0.0]" : 0.6916096303650114,
    "[0.0,1.0,1.0,-1.0,1.0,-1.0,1.0,-1.0,0.0]" : 0.6913009312816306,
    "[-1.0,0.0,1.0,-1.0,1.0,1.0,1.0,-1.0,-1.0]" : 0.6913009312816306,
    "[1.0,0.0,0.0,-1.0,1.0,0.0,-1.0,-1.0,1.0]" : 0.6909919231901437,
    "[0.0,0.0,1.0,-1.0,-1.0,1.0,-1.0,1.0,1.0]" : 0.6906826057812331,
    "[-1.0,-1.0,1.0,0.0,1.0,1.0,-1.0,0.0,1.0]" : 0.6903729787452718,
    "[1.0,-1.0,1.0,-1.0,0.0,1.0,0.0,-1.0,1.0]" : 0.6897527945521391,
    "[1.0,-1.0,-1.0,0.0,1.0,0.0,0.0,-1.0,1.0]" : 0.6897527945521391,
    "[0.0,-1.0,1.0,-1.0,1.0,0.0,1.0,-1.0,0.0]" : 0.6894422367741626,
    "[1.0,0.0,-1.0,1.0,1.0,0.0,1.0,-1.0,-1.0]" : 0.6894422367741626,
    "[-1.0,1.0,1.0,-1.0,1.0,0.0,1.0,0.0,-1.0]" : 0.6891313681275246,
    "[-1.0,-1.0,1.0,1.0,1.0,-1.0,1.0,-1.0,0.0]" : 0.6888201883010454,
    "[1.0,0.0,1.0,0.0,1.0,-1.0,-1.0,-1.0,1.0]" : 0.6888201883010454,
    "[1.0,1.0,1.0,-1.0,-1.0,0.0,0.0,1.0,-1.0]" : 0.6885086969832336,
    "[1.0,0.0,-1.0,-1.0,1.0,1.0,-1.0,0.0,1.0]" : 0.688196893862286,
    "[1.0,1.0,-1.0,1.0,-1.0,0.0,1.0,-1.0,-1.0]" : 0.6872596105579137,
    "[1.0,1.0,1.0,-1.0,0.0,0.0,-1.0,0.0,0.0]" : 0.6869465571001446,
    "[1.0,-1.0,-1.0,1.0,-1.0,-1.0,1.0,0.0,1.0]" : 0.686633190275536,
    "[1.0,0.0,0.0,-1.0,1.0,-1.0,0.0,-1.0,1.0]" : 0.686633190275536,
    "[0.0,-1.0,1.0,0.0,1.0,-1.0,1.0,-1.0,0.0]" : 0.6863195097704075,
    "[0.0,-1.0,1.0,-1.0,1.0,-1.0,1.0,0.0,0.0]" : 0.6860055152707643,
    "[0.0,-1.0,1.0,1.0,-1.0,1.0,-1.0,0.0,1.0]" : 0.6860055152707643,
    "[1.0,0.0,1.0,0.0,1.0,-1.0,-1.0,0.0,0.0]" : 0.6858894789073959,
    "[-1.0,1.0,0.0,1.0,1.0,1.0,-1.0,-1.0,0.0]" : 0.6853765830303842,
    "[0.0,0.0,1.0,-1.0,1.0,-1.0,1.0,-1.0,0.0]" : 0.6850616446600855,
    "[1.0,1.0,1.0,0.0,-1.0,-1.0,1.0,-1.0,-1.0]" : 0.6850616446600855,
    "[-1.0,-1.0,0.0,1.0,-1.0,0.0,1.0,1.0,1.0]" : 0.6850616446600855,
    "[0.0,-1.0,1.0,1.0,1.0,1.0,0.0,-1.0,-1.0]" : 0.6844308218430022,
    "[-1.0,-1.0,0.0,1.0,1.0,1.0,-1.0,1.0,0.0]" : 0.6844308218430022,
    "[-1.0,0.0,1.0,1.0,-1.0,1.0,0.0,-1.0,1.0]" : 0.6834822176878838,
    "[-1.0,1.0,0.0,0.0,-1.0,-1.0,1.0,1.0,1.0]" : 0.6831653830558908,
    "[1.0,-1.0,-1.0,0.0,1.0,0.0,-1.0,1.0,1.0]" : 0.682848231272099,
    "[1.0,-1.0,-1.0,-1.0,1.0,0.0,-1.0,1.0,1.0]" : 0.6825307620190391,
    "[1.0,1.0,-1.0,-1.0,1.0,-1.0,0.0,-1.0,1.0]" : 0.6825307620190391,
    "[0.0,0.0,-1.0,-1.0,1.0,0.0,1.0,0.0,1.0]" : 0.6822599495161068,
    "[-1.0,-1.0,1.0,0.0,1.0,-1.0,1.0,1.0,-1.0]" : 0.6815764462647889,
    "[0.0,-1.0,-1.0,0.0,-1.0,1.0,1.0,1.0,1.0]" : 0.6815764462647889,
    "[1.0,-1.0,0.0,0.0,1.0,-1.0,0.0,-1.0,1.0]" : 0.681257703953603,
    "[0.0,0.0,0.0,-1.0,0.0,-1.0,1.0,1.0,1.0]" : 0.681257703953603,
    "[-1.0,-1.0,1.0,1.0,1.0,0.0,1.0,0.0,-1.0]" : 0.681257703953603,
    "[1.0,0.0,0.0,1.0,-1.0,-1.0,1.0,1.0,-1.0]" : 0.6806192618276874,
    "[1.0,-1.0,-1.0,1.0,-1.0,0.0,1.0,0.0,0.0]" : 0.6802995613738763,
    "[1.0,-1.0,0.0,1.0,0.0,0.0,1.0,-1.0,0.0]" : 0.6799795408995757,
    "[1.0,-1.0,0.0,-1.0,1.0,0.0,0.0,-1.0,1.0]" : 0.6796592000844448,
    "[1.0,-1.0,0.0,0.0,1.0,0.0,1.0,0.0,-1.0]" : 0.6796134489252693,
    "[1.0,1.0,-1.0,-1.0,1.0,-1.0,-1.0,0.0,1.0]" : 0.679338538607822,
    "[0.0,-1.0,1.0,-1.0,1.0,-1.0,1.0,1.0,-1.0]" : 0.679338538607822,
    "[0.0,-1.0,0.0,0.0,-1.0,-1.0,1.0,1.0,1.0]" : 0.6790175561487248,
    "[-1.0,-1.0,1.0,-1.0,0.0,1.0,1.0,-1.0,1.0]" : 0.6786962523858495,
    "[1.0,-1.0,0.0,-1.0,1.0,-1.0,0.0,0.0,1.0]" : 0.6783746269975707,
    "[0.0,-1.0,1.0,-1.0,1.0,1.0,1.0,-1.0,-1.0]" : 0.6783746269975707,
    "[-1.0,-1.0,1.0,-1.0,1.0,0.0,1.0,0.0,0.0]" : 0.6780526796619409,
    "[-1.0,-1.0,0.0,-1.0,0.0,1.0,1.0,1.0,1.0]" : 0.6770849027466366,
    "[1.0,1.0,1.0,1.0,-1.0,0.0,-1.0,-1.0,0.0]" : 0.6770849027466366,
    "[1.0,1.0,1.0,0.0,-1.0,0.0,0.0,-1.0,-1.0]" : 0.6770849027466366,
    "[0.0,-1.0,1.0,0.0,1.0,0.0,1.0,0.0,-1.0]" : 0.6767616643956793,
    "[1.0,1.0,1.0,0.0,-1.0,1.0,0.0,-1.0,-1.0]" : 0.6767616643956793,
    "[-1.0,1.0,1.0,-1.0,-1.0,1.0,0.0,0.0,1.0]" : 0.6767616643956793,
    "[1.0,-1.0,-1.0,0.0,1.0,1.0,-1.0,0.0,1.0]" : 0.6761142166840941,
    "[1.0,1.0,-1.0,0.0,1.0,0.0,-1.0,-1.0,1.0]" : 0.6761142166840941,
    "[0.0,-1.0,-1.0,1.0,1.0,1.0,-1.0,-1.0,1.0]" : 0.6761142166840941,
    "[1.0,1.0,0.0,1.0,0.0,-1.0,1.0,-1.0,-1.0]" : 0.6757900066753704,
    "[1.0,-1.0,-1.0,0.0,1.0,-1.0,0.0,0.0,1.0]" : 0.6757900066753704,
    "[1.0,0.0,0.0,1.0,-1.0,0.0,1.0,-1.0,-1.0]" : 0.6757900066753704,
    "[1.0,0.0,-1.0,-1.0,1.0,-1.0,-1.0,1.0,1.0]" : 0.6748154281420838,
    "[-1.0,0.0,-1.0,1.0,1.0,1.0,0.0,1.0,-1.0]" : 0.6748154281420838,
    "[1.0,0.0,0.0,0.0,1.0,-1.0,-1.0,0.0,1.0]" : 0.6744899180446676,
    "[0.0,1.0,-1.0,1.0,1.0,1.0,-1.0,0.0,-1.0]" : 0.6741640821113025,
    "[1.0,-1.0,-1.0,1.0,0.0,-1.0,1.0,1.0,0.0]" : 0.6741640821113025,
    "[0.0,0.0,1.0,-1.0,-1.0,1.0,0.0,-1.0,1.0]" : 0.6741640821113025,
    "[-1.0,-1.0,1.0,1.0,1.0,0.0,1.0,-1.0,-1.0]" : 0.6738379200158264,
    "[0.0,-1.0,-1.0,0.0,-1.0,0.0,1.0,1.0,1.0]" : 0.6738379200158264,
    "[-1.0,0.0,-1.0,-1.0,-1.0,1.0,1.0,1.0,1.0]" : 0.6738379200158264,
    "[0.0,-1.0,1.0,-1.0,-1.0,1.0,0.0,0.0,1.0]" : 0.6735114314317509,
    "[1.0,1.0,0.0,-1.0,1.0,-1.0,0.0,1.0,-1.0]" : 0.6731846160322602,
    "[1.0,1.0,-1.0,0.0,1.0,-1.0,-1.0,0.0,1.0]" : 0.672857473490212,
    "[1.0,1.0,1.0,-1.0,-1.0,1.0,-1.0,0.0,-1.0]" : 0.672857473490212,
    "[-1.0,-1.0,1.0,-1.0,-1.0,0.0,1.0,1.0,1.0]" : 0.6725300034781361,
    "[1.0,-1.0,-1.0,-1.0,1.0,1.0,0.0,-1.0,1.0]" : 0.6722022056682347,
    "[-1.0,-1.0,1.0,0.0,1.0,1.0,1.0,-1.0,-1.0]" : 0.671874079732382,
    "[-1.0,1.0,1.0,-1.0,1.0,-1.0,1.0,0.0,-1.0]" : 0.6712168421686757,
    "[-1.0,0.0,-1.0,1.0,1.0,1.0,-1.0,1.0,0.0]" : 0.6708877298829267,
    "[-1.0,0.0,1.0,-1.0,1.0,0.0,1.0,-1.0,0.0]" : 0.6708877298829267,
    "[-1.0,0.0,1.0,-1.0,-1.0,1.0,1.0,0.0,1.0]" : 0.6705582881554345,
    "[0.0,1.0,0.0,-1.0,1.0,1.0,-1.0,1.0,-1.0]" : 0.6705582881554345,
    "[0.0,-1.0,1.0,0.0,1.0,-1.0,1.0,1.0,-1.0]" : 0.6705582881554345,
    "[0.0,-1.0,0.0,-1.0,-1.0,0.0,1.0,1.0,1.0]" : 0.6702285166564276,
    "[1.0,1.0,1.0,0.0,-1.0,-1.0,-1.0,1.0,0.0]" : 0.668242943951738,
    "[1.0,1.0,1.0,-1.0,1.0,0.0,0.0,-1.0,-1.0]" : 0.6679108547907554,
    "[-1.0,-1.0,0.0,0.0,1.0,-1.0,1.0,1.0,1.0]" : 0.6679108547907554,
    "[1.0,1.0,1.0,-1.0,-1.0,0.0,-1.0,0.0,0.0]" : 0.6679108547907554,
    "[1.0,1.0,-1.0,1.0,-1.0,-1.0,1.0,0.0,0.0]" : 0.6675784332081744,
    "[-1.0,-1.0,1.0,0.0,-1.0,0.0,1.0,1.0,1.0]" : 0.6672456788712408,
    "[-1.0,1.0,1.0,0.0,-1.0,1.0,-1.0,-1.0,1.0]" : 0.6672456788712408,
    "[1.0,0.0,-1.0,1.0,-1.0,1.0,1.0,-1.0,0.0]" : 0.6669125914468668,
    "[-1.0,0.0,1.0,-1.0,1.0,0.0,1.0,0.0,-1.0]" : 0.6669125914468668,
    "[-1.0,-1.0,1.0,1.0,1.0,-1.0,1.0,0.0,0.0]" : 0.6669125914468668,
    "[0.0,0.0,1.0,-1.0,1.0,0.0,1.0,-1.0,-1.0]" : 0.6669125914468668,
    "[0.0,1.0,-1.0,-1.0,-1.0,0.0,1.0,1.0,1.0]" : 0.666245416001781,
    "[0.0,-1.0,-1.0,1.0,1.0,1.0,0.0,1.0,-1.0]" : 0.6659113273132259,
    "[1.0,1.0,1.0,0.0,-1.0,0.0,-1.0,0.0,-1.0]" : 0.6659113273132259,
    "[1.0,0.0,-1.0,1.0,1.0,-1.0,1.0,-1.0,0.0]" : 0.6649070533694283,
    "[-1.0,-1.0,1.0,0.0,1.0,1.0,1.0,0.0,-1.0]" : 0.6645716249784749,
    "[-1.0,1.0,0.0,-1.0,1.0,-1.0,0.0,1.0,1.0]" : 0.6642358608233503,
    "[1.0,-1.0,0.0,1.0,-1.0,1.0,1.0,0.0,-1.0]" : 0.6638997605679543,
    "[1.0,0.0,-1.0,0.0,1.0,-1.0,0.0,-1.0,1.0]" : 0.6638997605679543,
    "[1.0,0.0,0.0,0.0,1.0,-1.0,-1.0,-1.0,1.0]" : 0.6628894398340869,
    "[-1.0,0.0,1.0,-1.0,-1.0,1.0,0.0,0.0,1.0]" : 0.6628894398340869,
    "[1.0,-1.0,-1.0,1.0,-1.0,0.0,1.0,1.0,-1.0]" : 0.6625519918098688,
    "[-1.0,-1.0,0.0,1.0,-1.0,-1.0,1.0,1.0,1.0]" : 0.6615376196694237,
    "[0.0,-1.0,1.0,-1.0,-1.0,1.0,-1.0,1.0,1.0]" : 0.6611988184718033,
    "[1.0,1.0,1.0,-1.0,0.0,-1.0,0.0,1.0,-1.0]" : 0.6608596781338288,
    "[-1.0,1.0,0.0,-1.0,0.0,-1.0,1.0,1.0,1.0]" : 0.6605201983160205,
    "[0.0,-1.0,1.0,0.0,1.0,-1.0,1.0,0.0,-1.0]" : 0.6605201983160205,
    "[0.0,1.0,-1.0,1.0,1.0,1.0,0.0,-1.0,-1.0]" : 0.6605201983160205,
    "[-1.0,1.0,1.0,-1.0,1.0,-1.0,1.0,-1.0,0.0]" : 0.6605201983160205,
    "[1.0,-1.0,0.0,-1.0,1.0,0.0,-1.0,0.0,1.0]" : 0.6605201983160205,
    "[-1.0,0.0,1.0,-1.0,1.0,0.0,1.0,1.0,-1.0]" : 0.6601803786785585,
    "[1.0,0.0,-1.0,0.0,1.0,-1.0,-1.0,1.0,1.0]" : 0.6598402188812831,
    "[1.0,0.0,-1.0,1.0,-1.0,0.0,1.0,-1.0,0.0]" : 0.6588176951238683,
    "[1.0,-1.0,0.0,1.0,1.0,-1.0,-1.0,-1.0,1.0]" : 0.6581343055682563,
    "[-1.0,-1.0,1.0,0.0,0.0,1.0,1.0,-1.0,1.0]" : 0.6571066538180936,
    "[1.0,-1.0,0.0,0.0,-1.0,-1.0,1.0,1.0,1.0]" : 0.6571066538180936,
    "[1.0,0.0,1.0,1.0,-1.0,-1.0,1.0,-1.0,0.0]" : 0.6571066538180936,
    "[-1.0,0.0,1.0,0.0,1.0,0.0,1.0,-1.0,-1.0]" : 0.6567634172190098,
    "[1.0,-1.0,0.0,-1.0,1.0,-1.0,-1.0,1.0,1.0]" : 0.6564198370397303,
    "[0.0,0.0,1.0,-1.0,-1.0,1.0,-1.0,0.0,1.0]" : 0.6564198370397303,
    "[1.0,-1.0,-1.0,1.0,1.0,0.0,-1.0,0.0,1.0]" : 0.656075912936331,
    "[0.0,0.0,-1.0,0.0,-1.0,-1.0,1.0,1.0,1.0]" : 0.6557316445645437,
    "[1.0,0.0,1.0,-1.0,-1.0,1.0,0.0,-1.0,1.0]" : 0.6553870315797552,
    "[0.0,-1.0,1.0,-1.0,-1.0,1.0,1.0,0.0,1.0]" : 0.6550420736370076,
    "[-1.0,1.0,1.0,-1.0,-1.0,1.0,0.0,-1.0,1.0]" : 0.6540051266062485,
    "[-1.0,-1.0,1.0,0.0,1.0,-1.0,1.0,0.0,0.0]" : 0.6536587853751734,
    "[0.0,-1.0,1.0,-1.0,-1.0,1.0,0.0,1.0,1.0]" : 0.6536587853751734,
    "[1.0,-1.0,-1.0,-1.0,1.0,0.0,0.0,0.0,1.0]" : 0.6536587853751734,
    "[1.0,1.0,1.0,1.0,-1.0,0.0,0.0,-1.0,-1.0]" : 0.6529650625021817,
    "[1.0,-1.0,1.0,-1.0,1.0,0.0,1.0,-1.0,0.0]" : 0.6522699500994309,
    "[1.0,-1.0,0.0,1.0,-1.0,0.0,1.0,0.0,-1.0]" : 0.6522699500994309,
    "[-1.0,1.0,-1.0,1.0,1.0,1.0,-1.0,0.0,0.0]" : 0.651921871954853,
    "[0.0,0.0,1.0,-1.0,1.0,-1.0,1.0,-1.0,1.0]" : 0.6515734453836872,
    "[-1.0,-1.0,1.0,0.0,-1.0,1.0,-1.0,1.0,1.0]" : 0.6512246700371584,
    "[0.0,-1.0,1.0,-1.0,1.0,0.0,1.0,0.0,-1.0]" : 0.650526071621164,
    "[0.0,-1.0,-1.0,1.0,1.0,1.0,1.0,-1.0,-1.0]" : 0.6501762478524007,
    "[0.0,-1.0,-1.0,-1.0,-1.0,1.0,1.0,1.0,1.0]" : 0.649826073909678,
    "[0.0,0.0,1.0,-1.0,0.0,1.0,0.0,-1.0,1.0]" : 0.6494755494424714,
    "[-1.0,0.0,1.0,0.0,1.0,-1.0,1.0,-1.0,0.0]" : 0.648773447530754,
    "[-1.0,-1.0,0.0,0.0,-1.0,0.0,1.0,1.0,1.0]" : 0.648773447530754,
    "[-1.0,0.0,0.0,1.0,1.0,1.0,-1.0,-1.0,0.0]" : 0.6480699393060286,
    "[-1.0,0.0,-1.0,1.0,-1.0,-1.0,1.0,1.0,1.0]" : 0.6473650219514445,
    "[1.0,1.0,1.0,-1.0,-1.0,1.0,0.0,-1.0,-1.0]" : 0.6473650219514445,
    "[1.0,1.0,1.0,-1.0,0.0,0.0,0.0,-1.0,0.0]" : 0.6459509485570752,
    "[1.0,1.0,-1.0,0.0,1.0,-1.0,0.0,-1.0,1.0]" : 0.6455965450853273,
    "[1.0,0.0,-1.0,-1.0,1.0,0.0,-1.0,0.0,1.0]" : 0.6452417868553325,
    "[1.0,1.0,1.0,0.0,-1.0,-1.0,1.0,-1.0,0.0]" : 0.6448866735119775,
    "[-1.0,-1.0,0.0,1.0,1.0,1.0,-1.0,0.0,0.0]" : 0.6448866735119775,
    "[0.0,-1.0,1.0,-1.0,1.0,1.0,-1.0,-1.0,1.0]" : 0.6441753800629556,
    "[-1.0,0.0,1.0,-1.0,-1.0,0.0,1.0,1.0,1.0]" : 0.6441753800629556,
    "[-1.0,0.0,0.0,-1.0,-1.0,0.0,1.0,1.0,1.0]" : 0.6438191992452832,
    "[-1.0,0.0,1.0,0.0,1.0,-1.0,1.0,0.0,-1.0]" : 0.6438191992452832,
    "[0.0,-1.0,-1.0,1.0,1.0,1.0,0.0,0.0,-1.0]" : 0.6438191992452832,
    "[0.0,0.0,1.0,0.0,-1.0,1.0,-1.0,-1.0,1.0]" : 0.6431057676409282,
    "[-1.0,1.0,-1.0,-1.0,1.0,-1.0,0.0,1.0,1.0]" : 0.6431057676409282,
    "[1.0,0.0,-1.0,0.0,1.0,-1.0,-1.0,0.0,1.0]" : 0.6427485161400998,
    "[1.0,1.0,1.0,1.0,0.0,-1.0,-1.0,0.0,-1.0]" : 0.6423909070301443,
    "[1.0,0.0,-1.0,-1.0,1.0,-1.0,1.0,0.0,1.0]" : 0.6423909070301443,
    "[0.0,0.0,-1.0,1.0,1.0,1.0,-1.0,1.0,-1.0]" : 0.6423909070301443,
    "[1.0,-1.0,0.0,0.0,1.0,-1.0,-1.0,0.0,1.0]" : 0.641674614550626,
    "[0.0,0.0,-1.0,1.0,1.0,1.0,0.0,-1.0,-1.0]" : 0.641674614550626,
    "[1.0,1.0,1.0,0.0,-1.0,-1.0,0.0,-1.0,1.0]" : 0.6413159304640534,
    "[-1.0,1.0,0.0,-1.0,1.0,-1.0,1.0,1.0,-1.0]" : 0.6413159304640534,
    "[1.0,-1.0,0.0,-1.0,-1.0,0.0,1.0,1.0,1.0]" : 0.6413159304640534,
    "[1.0,-1.0,-1.0,1.0,1.0,0.0,-1.0,-1.0,1.0]" : 0.6409568873343341,
    "[-1.0,-1.0,0.0,1.0,1.0,1.0,0.0,-1.0,1.0]" : 0.6409568873343341,
    "[-1.0,-1.0,1.0,0.0,0.0,1.0,-1.0,1.0,1.0]" : 0.6405974848020655,
    "[0.0,-1.0,1.0,1.0,1.0,1.0,-1.0,-1.0,0.0]" : 0.6405974848020655,
    "[-1.0,0.0,-1.0,0.0,-1.0,0.0,1.0,1.0,1.0]" : 0.6402377225074851,
    "[1.0,0.0,0.0,1.0,-1.0,-1.0,1.0,-1.0,1.0]" : 0.6395171171905392,
    "[0.0,1.0,0.0,0.0,1.0,-1.0,-1.0,1.0,-1.0]" : 0.6395171171905392,
    "[-1.0,1.0,-1.0,1.0,1.0,1.0,0.0,0.0,-1.0]" : 0.6391562734468469,
    "[-1.0,-1.0,1.0,0.0,-1.0,1.0,0.0,0.0,1.0]" : 0.6387950684981888,
    "[-1.0,-1.0,1.0,0.0,1.0,0.0,1.0,0.0,-1.0]" : 0.6387950684981888,
    "[0.0,0.0,-1.0,-1.0,0.0,-1.0,1.0,1.0,1.0]" : 0.6387950684981888,
    "[-1.0,1.0,-1.0,0.0,1.0,-1.0,0.0,1.0,0.0]" : 0.6384335019829983,
    "[0.0,1.0,0.0,-1.0,1.0,0.0,-1.0,1.0,-1.0]" : 0.638071573539347,
    "[1.0,0.0,-1.0,0.0,1.0,0.0,-1.0,-1.0,1.0]" : 0.638071573539347,
    "[1.0,0.0,-1.0,-1.0,1.0,0.0,0.0,-1.0,1.0]" : 0.637709282804944,
    "[0.0,-1.0,1.0,-1.0,1.0,1.0,1.0,-1.0,0.0]" : 0.637346629417136,
    "[-1.0,1.0,-1.0,-1.0,1.0,0.0,0.0,1.0,0.0]" : 0.6369836130129066,
    "[0.0,1.0,0.0,-1.0,1.0,-1.0,-1.0,1.0,1.0]" : 0.6366202332288758,
    "[1.0,1.0,1.0,-1.0,0.0,-1.0,0.0,0.0,-1.0]" : 0.6366202332288758,
    "[1.0,0.0,-1.0,-1.0,0.0,-1.0,1.0,1.0,1.0]" : 0.6351630730144049,
    "[1.0,-1.0,1.0,-1.0,-1.0,1.0,0.0,0.0,1.0]" : 0.6351630730144049,
    "[1.0,-1.0,-1.0,0.0,1.0,0.0,-1.0,0.0,1.0]" : 0.6351630730144049,
    "[-1.0,0.0,1.0,0.0,-1.0,1.0,-1.0,0.0,1.0]" : 0.6347978708679266,
    "[-1.0,0.0,0.0,1.0,1.0,1.0,-1.0,0.0,-1.0]" : 0.6347978708679266,
    "[-1.0,1.0,-1.0,-1.0,1.0,-1.0,1.0,1.0,0.0]" : 0.6347978708679266,
    "[-1.0,0.0,-1.0,1.0,1.0,1.0,-1.0,0.0,0.0]" : 0.6344323031537168,
    "[-1.0,-1.0,0.0,-1.0,0.0,0.0,1.0,1.0,1.0]" : 0.6340663695058417,
    "[-1.0,1.0,1.0,-1.0,1.0,0.0,1.0,-1.0,0.0]" : 0.6340663695058417,
    "[-1.0,0.0,0.0,-1.0,0.0,-1.0,1.0,1.0,1.0]" : 0.6337000695580014,
    "[0.0,1.0,-1.0,-1.0,1.0,0.0,0.0,1.0,-1.0]" : 0.6333334029435292,
    "[0.0,-1.0,-1.0,1.0,1.0,1.0,0.0,-1.0,1.0]" : 0.6325989682461871,
    "[-1.0,1.0,-1.0,0.0,1.0,0.0,-1.0,1.0,0.0]" : 0.6325989682461871,
    "[0.0,-1.0,-1.0,1.0,1.0,1.0,1.0,-1.0,0.0]" : 0.6318630624731347,
    "[1.0,-1.0,-1.0,1.0,0.0,0.0,1.0,-1.0,0.0]" : 0.6314945570126443,
    "[-1.0,1.0,0.0,0.0,1.0,0.0,-1.0,1.0,-1.0]" : 0.6314945570126443,
    "[0.0,1.0,1.0,-1.0,1.0,-1.0,-1.0,1.0,0.0]" : 0.6314945570126443,
    "[0.0,-1.0,0.0,1.0,1.0,1.0,-1.0,0.0,-1.0]" : 0.6311256826778016,
    "[1.0,1.0,1.0,-1.0,-1.0,0.0,0.0,0.0,-1.0]" : 0.6307564390993627,
    "[1.0,0.0,-1.0,1.0,1.0,1.0,0.0,-1.0,-1.0]" : 0.6303868259077148,
    "[0.0,-1.0,1.0,1.0,-1.0,-1.0,1.0,1.0,0.0]" : 0.6303868259077148,
    "[-1.0,1.0,-1.0,-1.0,0.0,0.0,1.0,1.0,1.0]" : 0.6300168427328744,
    "[-1.0,1.0,0.0,1.0,1.0,1.0,-1.0,0.0,-1.0]" : 0.6300168427328744,
    "[0.0,0.0,-1.0,1.0,1.0,1.0,-1.0,0.0,-1.0]" : 0.6300168427328744,
    "[0.0,-1.0,-1.0,0.0,0.0,-1.0,1.0,1.0,1.0]" : 0.6296464892044881,
    "[1.0,-1.0,-1.0,1.0,0.0,-1.0,1.0,0.0,0.0]" : 0.6296464892044881,
    "[-1.0,1.0,-1.0,0.0,0.0,-1.0,1.0,1.0,1.0]" : 0.6296464892044881,
    "[-1.0,-1.0,1.0,0.0,0.0,1.0,0.0,-1.0,1.0]" : 0.6296464892044881,
    "[0.0,0.0,1.0,-1.0,0.0,1.0,-1.0,-1.0,1.0]" : 0.6296464892044881,
    "[1.0,0.0,0.0,1.0,0.0,-1.0,1.0,-1.0,-1.0]" : 0.6296464892044881,
    "[1.0,1.0,1.0,-1.0,0.0,0.0,-1.0,-1.0,0.0]" : 0.6289046696038092,
    "[-1.0,0.0,1.0,0.0,0.0,1.0,-1.0,-1.0,1.0]" : 0.6289046696038092,
    "[-1.0,1.0,-1.0,0.0,1.0,0.0,0.0,1.0,-1.0]" : 0.6289046696038092,
    "[-1.0,0.0,-1.0,0.0,0.0,-1.0,1.0,1.0,1.0]" : 0.6285332027889544,
    "[1.0,-1.0,-1.0,1.0,0.0,0.0,1.0,0.0,-1.0]" : 0.6285332027889544,
    "[1.0,1.0,1.0,0.0,0.0,-1.0,0.0,-1.0,-1.0]" : 0.6285332027889544,
    "[0.0,-1.0,1.0,0.0,0.0,1.0,-1.0,-1.0,1.0]" : 0.6281613641354284,
    "[1.0,-1.0,0.0,1.0,1.0,1.0,0.0,-1.0,-1.0]" : 0.6281613641354284,
    "[1.0,1.0,-1.0,-1.0,1.0,-1.0,0.0,1.0,0.0]" : 0.6277891532710204,
    "[1.0,1.0,1.0,0.0,0.0,-1.0,-1.0,0.0,-1.0]" : 0.6277891532710204,
    "[0.0,-1.0,0.0,1.0,1.0,1.0,0.0,-1.0,-1.0]" : 0.6274165698231468,
    "[0.0,0.0,-1.0,-1.0,-1.0,0.0,1.0,1.0,1.0]" : 0.6274165698231468,
    "[0.0,1.0,0.0,1.0,0.0,0.0,-1.0,-1.0,1.0]" : 0.6271913490444273,
    "[-1.0,-1.0,1.0,0.0,0.0,1.0,-1.0,0.0,1.0]" : 0.6270436134188512,
    "[1.0,-1.0,-1.0,1.0,1.0,1.0,0.0,-1.0,-1.0]" : 0.6270436134188512,
    "[-1.0,-1.0,1.0,-1.0,0.0,1.0,0.0,0.0,1.0]" : 0.6266702836848038,
    "[1.0,-1.0,0.0,1.0,0.0,0.0,1.0,-1.0,-1.0]" : 0.6266702836848038,
    "[-1.0,-1.0,1.0,0.0,-1.0,1.0,0.0,1.0,1.0]" : 0.6266702836848038,
    "[1.0,0.0,-1.0,1.0,0.0,0.0,1.0,-1.0,-1.0]" : 0.6266702836848038,
    "[1.0,1.0,1.0,-1.0,0.0,-1.0,-1.0,0.0,0.0]" : 0.6262965802473012,
    "[0.0,1.0,-1.0,-1.0,0.0,-1.0,1.0,1.0,1.0]" : 0.6262965802473012,
    "[0.0,-1.0,-1.0,1.0,1.0,1.0,1.0,0.0,-1.0]" : 0.6262965802473012,
    "[-1.0,1.0,-1.0,-1.0,1.0,1.0,0.0,1.0,-1.0]" : 0.6259225027322657,
    "[0.0,1.0,1.0,-1.0,1.0,0.0,-1.0,1.0,-1.0]" : 0.6255480507652454,
    "[-1.0,1.0,0.0,0.0,1.0,-1.0,-1.0,1.0,0.0]" : 0.6255480507652454,
    "[-1.0,0.0,-1.0,-1.0,0.0,0.0,1.0,1.0,1.0]" : 0.6247980219755679,
    "[1.0,0.0,1.0,-1.0,0.0,0.0,-1.0,1.0,0.0]" : 0.6241050657109795,
    "[1.0,1.0,0.0,0.0,1.0,-1.0,-1.0,1.0,-1.0]" : 0.6240464908751493,
    "[-1.0,0.0,0.0,1.0,1.0,1.0,0.0,-1.0,-1.0]" : 0.6236701610182929,
    "[-1.0,1.0,-1.0,1.0,1.0,1.0,0.0,-1.0,-1.0]" : 0.6229163708077523,
    "[1.0,1.0,0.0,1.0,-1.0,-1.0,1.0,-1.0,-1.0]" : 0.6229163708077523,
    "[1.0,1.0,1.0,-1.0,0.0,0.0,-1.0,0.0,-1.0]" : 0.6225389096995234,
    "[-1.0,1.0,0.0,1.0,1.0,-1.0,-1.0,1.0,-1.0]" : 0.621782853587953,
    "[0.0,1.0,-1.0,0.0,1.0,0.0,-1.0,1.0,-1.0]" : 0.6214042578277985,
    "[0.0,1.0,-1.0,-1.0,1.0,0.0,-1.0,1.0,0.0]" : 0.6210252830928911,
    "[-1.0,-1.0,0.0,1.0,1.0,1.0,0.0,-1.0,0.0]" : 0.6206459290038766,
    "[0.0,1.0,0.0,-1.0,1.0,-1.0,0.0,1.0,-1.0]" : 0.6206459290038766,
    "[0.0,1.0,-1.0,0.0,1.0,-1.0,-1.0,1.0,0.0]" : 0.6206459290038766,
    "[-1.0,-1.0,1.0,0.0,1.0,-1.0,1.0,1.0,0.0]" : 0.6206459290038766,
    "[0.0,-1.0,-1.0,1.0,1.0,1.0,0.0,-1.0,0.0]" : 0.6202661951810212,
    "[0.0,0.0,-1.0,1.0,0.0,-1.0,0.0,1.0,1.0]" : 0.6201655972062368,
    "[0.0,0.0,1.0,-1.0,1.0,1.0,1.0,-1.0,-1.0]" : 0.6195055868129514,
    "[0.0,1.0,-1.0,-1.0,1.0,-1.0,0.0,1.0,0.0]" : 0.6191247115063672,
    "[-1.0,0.0,-1.0,1.0,1.0,1.0,0.0,0.0,-1.0]" : 0.6191247115063672,
    "[-1.0,0.0,0.0,-1.0,0.0,1.0,1.0,1.0,0.0]" : 0.6188357033882963,
    "[0.0,1.0,1.0,0.0,1.0,-1.0,-1.0,1.0,-1.0]" : 0.6187434549432016,
    "[-1.0,1.0,-1.0,-1.0,1.0,0.0,1.0,1.0,0.0]" : 0.6183618167418166,
    "[0.0,-1.0,1.0,-1.0,0.0,1.0,0.0,-1.0,1.0]" : 0.6175973938959245,
    "[1.0,-1.0,1.0,1.0,0.0,-1.0,1.0,-1.0,0.0]" : 0.6175973938959245,
    "[1.0,1.0,0.0,1.0,-1.0,0.0,1.0,-1.0,-1.0]" : 0.6172146084862294,
    "[-1.0,0.0,-1.0,1.0,1.0,1.0,0.0,-1.0,0.0]" : 0.6172146084862294,
    "[0.0,0.0,-1.0,1.0,1.0,1.0,-1.0,-1.0,0.0]" : 0.6172146084862294,
    "[-1.0,1.0,0.0,0.0,1.0,-1.0,0.0,1.0,-1.0]" : 0.6168314399079379,
    "[-1.0,1.0,-1.0,1.0,1.0,1.0,-1.0,-1.0,0.0]" : 0.6168314399079379,
    "[1.0,-1.0,-1.0,1.0,0.0,0.0,0.0,1.0,0.0]" : 0.6168209698892092,
    "[1.0,0.0,1.0,-1.0,0.0,1.0,-1.0,-1.0,1.0]" : 0.6160639517109726,
    "[0.0,-1.0,-1.0,1.0,1.0,1.0,-1.0,0.0,0.0]" : 0.6160639517109726,
    "[1.0,0.0,0.0,0.0,0.0,1.0,1.0,-1.0,-1.0]" : 0.6159906631227371,
    "[1.0,-1.0,0.0,1.0,0.0,-1.0,1.0,-1.0,0.0]" : 0.6156796313240425,
    "[1.0,1.0,1.0,-1.0,0.0,-1.0,0.0,-1.0,0.0]" : 0.6156796313240425,
    "[1.0,-1.0,0.0,-1.0,0.0,-1.0,1.0,1.0,1.0]" : 0.6156796313240425,
    "[0.0,1.0,-1.0,0.0,0.0,-1.0,1.0,0.0,1.0]" : 0.6154047364405496,
    "[-1.0,-1.0,0.0,1.0,1.0,1.0,-1.0,1.0,-1.0]" : 0.615294926232002,
    "[-1.0,0.0,1.0,0.0,-1.0,1.0,0.0,-1.0,1.0]" : 0.615294926232002,
    "[-1.0,0.0,0.0,1.0,1.0,1.0,-1.0,-1.0,1.0]" : 0.615294926232002,
    "[1.0,-1.0,-1.0,1.0,0.0,-1.0,1.0,0.0,1.0]" : 0.6149098360497609,
    "[-1.0,-1.0,1.0,-1.0,0.0,0.0,1.0,1.0,1.0]" : 0.6149098360497609,
    "[-1.0,-1.0,1.0,0.0,1.0,0.0,1.0,-1.0,1.0]" : 0.6145243603918437,
    "[1.0,1.0,0.0,-1.0,0.0,1.0,-1.0,0.0,0.0]" : 0.6144872725324277,
    "[0.0,-1.0,1.0,0.0,1.0,-1.0,0.0,0.0,1.0]" : 0.6139840309387197,
    "[-1.0,1.0,0.0,-1.0,1.0,-1.0,0.0,1.0,0.0]" : 0.613752251105148,
    "[1.0,1.0,1.0,-1.0,0.0,0.0,0.0,-1.0,-1.0]" : 0.613752251105148,
    "[-1.0,1.0,-1.0,1.0,1.0,-1.0,-1.0,1.0,0.0]" : 0.613752251105148,
    "[1.0,0.0,-1.0,1.0,0.0,-1.0,1.0,-1.0,0.0]" : 0.6133656167034873,
    "[1.0,-1.0,-1.0,0.0,0.0,1.0,1.0,0.0,0.0]" : 0.6132475380524653,
    "[0.0,1.0,0.0,-1.0,1.0,-1.0,-1.0,1.0,0.0]" : 0.6129785952803852,
    "[1.0,1.0,1.0,1.0,0.0,-1.0,0.0,-1.0,-1.0]" : 0.6129785952803852,
    "[0.0,-1.0,0.0,-1.0,0.0,-1.0,1.0,1.0,1.0]" : 0.6125911864484327,
    "[-1.0,1.0,0.0,-1.0,1.0,0.0,0.0,1.0,-1.0]" : 0.6122033898198331,
    "[-1.0,-1.0,0.0,1.0,1.0,1.0,0.0,0.0,-1.0]" : 0.6118152050064017,
    "[0.0,1.0,-1.0,-1.0,1.0,1.0,-1.0,1.0,-1.0]" : 0.6118152050064017,
    "[0.0,0.0,0.0,0.0,1.0,-1.0,1.0,-1.0,1.0]" : 0.6117596774483753,
    "[1.0,1.0,1.0,-1.0,0.0,0.0,-1.0,-1.0,1.0]" : 0.6110376692703606,
    "[1.0,-1.0,0.0,1.0,1.0,0.0,-1.0,-1.0,1.0]" : 0.6110376692703606,
    "[0.0,1.0,0.0,1.0,0.0,0.0,1.0,-1.0,-1.0]" : 0.6109875618185882,
    "[0.0,-1.0,0.0,1.0,1.0,1.0,-1.0,-1.0,0.0]" : 0.6106483175694368,
    "[0.0,-1.0,1.0,-1.0,0.0,1.0,-1.0,0.0,1.0]" : 0.609868444553075,
    "[1.0,-1.0,0.0,-1.0,1.0,0.0,-1.0,1.0,1.0]" : 0.609868444553075,
    "[1.0,1.0,1.0,0.0,0.0,-1.0,-1.0,-1.0,0.0]" : 0.6094779224569832,
    "[0.0,-1.0,-1.0,-1.0,0.0,0.0,1.0,1.0,1.0]" : 0.6094779224569832,
    "[-1.0,-1.0,1.0,-1.0,1.0,0.0,1.0,1.0,0.0]" : 0.6094779224569832,
    "[-1.0,0.0,1.0,-1.0,0.0,1.0,0.0,-1.0,1.0]" : 0.6090870094478636,
    "[-1.0,0.0,0.0,0.0,-1.0,-1.0,1.0,1.0,1.0]" : 0.6079119210273366,
    "[0.0,-1.0,1.0,0.0,-1.0,1.0,-1.0,0.0,1.0]" : 0.607519440449144,
    "[0.0,-1.0,1.0,-1.0,1.0,-1.0,1.0,1.0,0.0]" : 0.607519440449144,
    "[1.0,-1.0,0.0,1.0,0.0,-1.0,1.0,0.0,-1.0]" : 0.6071265669974809,
    "[1.0,0.0,0.0,-1.0,1.0,0.0,1.0,-1.0,0.0]" : 0.6065696530084793,
    "[-1.0,-1.0,0.0,0.0,0.0,-1.0,1.0,1.0,1.0]" : 0.6063396399002832,
    "[1.0,-1.0,0.0,1.0,1.0,-1.0,0.0,-1.0,1.0]" : 0.6063396399002832,
    "[-1.0,-1.0,0.0,1.0,1.0,1.0,-1.0,-1.0,1.0]" : 0.6063396399002832,
    "[0.0,0.0,0.0,-1.0,1.0,0.0,1.0,-1.0,1.0]" : 0.6057208466528499,
    "[1.0,1.0,0.0,-1.0,1.0,-1.0,-1.0,1.0,-1.0]" : 0.6043654192946124,
    "[0.0,-1.0,-1.0,1.0,1.0,1.0,-1.0,1.0,-1.0]" : 0.6043654192946124,
    "[1.0,-1.0,1.0,0.0,1.0,-1.0,0.0,0.0,0.0]" : 0.6043145271048165,
    "[1.0,-1.0,-1.0,1.0,0.0,-1.0,1.0,-1.0,1.0]" : 0.6039693886644665,
    "[0.0,1.0,1.0,-1.0,1.0,-1.0,-1.0,1.0,-1.0]" : 0.6039693886644665,
    "[0.0,1.0,0.0,0.0,0.0,1.0,-1.0,-1.0,1.0]" : 0.60324008872486,
    "[-1.0,0.0,0.0,0.0,1.0,1.0,0.0,1.0,-1.0]" : 0.6025103147115353,
    "[0.0,1.0,1.0,-1.0,1.0,-1.0,1.0,0.0,-1.0]" : 0.6019832811651566,
    "[1.0,0.0,0.0,1.0,1.0,-1.0,-1.0,-1.0,1.0]" : 0.6007868388652514,
    "[-1.0,1.0,0.0,-1.0,0.0,1.0,1.0,0.0,0.0]" : 0.6002546886755273,
    "[1.0,0.0,1.0,-1.0,0.0,0.0,1.0,0.0,-1.0]" : 0.5978015255060916,
    "[0.0,0.0,-1.0,1.0,1.0,0.0,-1.0,1.0,0.0]" : 0.5968365710033426,
    "[-1.0,0.0,1.0,-1.0,1.0,-1.0,1.0,1.0,0.0]" : 0.596772662225193,
    "[1.0,1.0,1.0,-1.0,0.0,-1.0,1.0,-1.0,-1.0]" : 0.5963690312372588,
    "[-1.0,0.0,1.0,0.0,0.0,-1.0,1.0,0.0,1.0]" : 0.5959662634187436,
    "[0.0,0.0,-1.0,-1.0,1.0,-1.0,1.0,1.0,1.0]" : 0.5955605567518244,
    "[0.0,1.0,-1.0,0.0,1.0,1.0,-1.0,0.0,0.0]" : 0.5948222531443416,
    "[1.0,-1.0,1.0,-1.0,0.0,1.0,-1.0,-1.0,1.0]" : 0.5947504628886807,
    "[-1.0,1.0,0.0,1.0,1.0,0.0,0.0,0.0,-1.0]" : 0.5946409712371077,
    "[1.0,-1.0,0.0,0.0,1.0,1.0,-1.0,-1.0,1.0]" : 0.5943448076770902,
    "[1.0,0.0,1.0,-1.0,-1.0,1.0,-1.0,-1.0,1.0]" : 0.5939387464042075,
    "[-1.0,0.0,1.0,1.0,0.0,1.0,-1.0,-1.0,1.0]" : 0.593532278663565,
    "[1.0,-1.0,-1.0,0.0,-1.0,-1.0,1.0,1.0,1.0]" : 0.5931254040482877,
    "[1.0,-1.0,-1.0,-1.0,0.0,-1.0,1.0,1.0,1.0]" : 0.592718122151094,
    "[-1.0,-1.0,1.0,1.0,1.0,1.0,-1.0,-1.0,0.0]" : 0.5919023348797903,
    "[1.0,-1.0,0.0,-1.0,1.0,0.0,1.0,0.0,0.0]" : 0.5911338239060316,
    "[1.0,0.0,0.0,-1.0,0.0,1.0,-1.0,1.0,0.0]" : 0.5909891990516681,
    "[0.0,0.0,-1.0,1.0,1.0,1.0,1.0,-1.0,-1.0]" : 0.5906755891529482,
    "[1.0,-1.0,-1.0,1.0,1.0,1.0,0.0,0.0,-1.0]" : 0.5906755891529482,
    "[1.0,0.0,-1.0,0.0,0.0,0.0,1.0,-1.0,1.0]" : 0.5906337235067158,
    "[1.0,0.0,1.0,0.0,0.0,-1.0,-1.0,0.0,1.0]" : 0.5903019398803686,
    "[0.0,1.0,1.0,-1.0,0.0,1.0,-1.0,-1.0,1.0]" : 0.5894451558159898,
    "[-1.0,-1.0,1.0,-1.0,-1.0,1.0,0.0,1.0,1.0]" : 0.5886228127796967,
    "[0.0,1.0,0.0,0.0,0.0,1.0,1.0,-1.0,-1.0]" : 0.5884987281094699,
    "[1.0,0.0,-1.0,1.0,1.0,-1.0,0.0,-1.0,1.0]" : 0.5882110237839218,
    "[-1.0,1.0,-1.0,0.0,1.0,-1.0,0.0,1.0,1.0]" : 0.5882110237839218,
    "[0.0,1.0,-1.0,1.0,0.0,-1.0,0.0,0.0,1.0]" : 0.5873535485088319,
    "[1.0,0.0,1.0,0.0,0.0,-1.0,0.0,1.0,-1.0]" : 0.5865461905892333,
    "[0.0,-1.0,0.0,1.0,0.0,-1.0,1.0,0.0,1.0]" : 0.586485195624705,
    "[-1.0,0.0,0.0,0.0,1.0,1.0,1.0,0.0,-1.0]" : 0.5864322053553341,
    "[1.0,-1.0,0.0,-1.0,1.0,1.0,-1.0,-1.0,1.0]" : 0.5861458875283232,
    "[0.0,0.0,-1.0,1.0,1.0,0.0,-1.0,0.0,1.0]" : 0.5861265114813572,
    "[1.0,-1.0,0.0,0.0,0.0,-1.0,1.0,1.0,0.0]" : 0.5855787049453799,
    "[1.0,1.0,0.0,0.0,0.0,-1.0,1.0,-1.0,0.0]" : 0.5852385478689937,
    "[1.0,0.0,-1.0,0.0,1.0,0.0,-1.0,1.0,0.0]" : 0.5850580823308158,
    "[0.0,-1.0,0.0,-1.0,0.0,1.0,1.0,0.0,1.0]" : 0.5847083686012076,
    "[1.0,-1.0,-1.0,-1.0,1.0,-1.0,0.0,1.0,1.0]" : 0.584070394541485,
    "[-1.0,-1.0,1.0,1.0,0.0,1.0,0.0,-1.0,1.0]" : 0.584070394541485,
    "[1.0,-1.0,-1.0,0.0,0.0,1.0,0.0,1.0,0.0]" : 0.5833685699385228,
    "[0.0,1.0,1.0,1.0,0.0,-1.0,0.0,0.0,-1.0]" : 0.583235964939925,
    "[0.0,-1.0,1.0,-1.0,0.0,0.0,0.0,1.0,1.0]" : 0.5822413252504087,
    "[1.0,0.0,0.0,-1.0,1.0,1.0,-1.0,-1.0,1.0]" : 0.5819844928840341,
    "[1.0,0.0,1.0,1.0,0.0,-1.0,0.0,-1.0,0.0]" : 0.5818409997448358,
    "[1.0,1.0,0.0,-1.0,1.0,0.0,-1.0,1.0,-1.0]" : 0.5811472061092975,
    "[-1.0,0.0,1.0,1.0,1.0,0.0,0.0,0.0,-1.0]" : 0.580973474238962,
    "[0.0,0.0,1.0,1.0,0.0,0.0,-1.0,-1.0,1.0]" : 0.5805269785404477,
    "[1.0,1.0,-1.0,-1.0,1.0,0.0,-1.0,0.0,1.0]" : 0.580308242245718,
    "[1.0,1.0,1.0,-1.0,0.0,-1.0,-1.0,1.0,-1.0]" : 0.5794675979340798,
    "[1.0,-1.0,-1.0,1.0,1.0,-1.0,0.0,-1.0,1.0]" : 0.5790466445586442,
    "[-1.0,-1.0,0.0,1.0,1.0,1.0,1.0,-1.0,0.0]" : 0.5790466445586442,
    "[0.0,-1.0,0.0,-1.0,1.0,0.0,1.0,1.0,0.0]" : 0.5785239131164317,
    "[1.0,-1.0,0.0,1.0,1.0,-1.0,0.0,0.0,0.0]" : 0.5779916258323192,
    "[-1.0,-1.0,1.0,0.0,0.0,1.0,0.0,1.0,0.0]" : 0.5773777943894791,
    "[1.0,-1.0,-1.0,0.0,1.0,1.0,-1.0,-1.0,1.0]" : 0.5773586130891224,
    "[0.0,1.0,-1.0,0.0,1.0,0.0,-1.0,0.0,1.0]" : 0.57731735617711,
    "[0.0,1.0,1.0,-1.0,1.0,0.0,1.0,-1.0,-1.0]" : 0.5769355486176455,
    "[-1.0,1.0,-1.0,1.0,1.0,0.0,-1.0,1.0,-1.0]" : 0.576512060658189,
    "[-1.0,0.0,1.0,0.0,1.0,0.0,0.0,1.0,-1.0]" : 0.5755430230738251,
    "[-1.0,-1.0,1.0,1.0,0.0,1.0,-1.0,-1.0,1.0]" : 0.5752390516107011,
    "[1.0,-1.0,-1.0,-1.0,1.0,0.0,0.0,1.0,1.0]" : 0.5752390516107011,
    "[0.0,-1.0,1.0,1.0,1.0,-1.0,1.0,0.0,-1.0]" : 0.5752390516107011,
    "[-1.0,1.0,0.0,0.0,1.0,0.0,1.0,0.0,-1.0]" : 0.5751597139159882,
    "[-1.0,-1.0,0.0,-1.0,1.0,-1.0,1.0,1.0,1.0]" : 0.5748138654559618,
    "[-1.0,-1.0,1.0,-1.0,1.0,1.0,1.0,-1.0,0.0]" : 0.5748138654559618,
    "[1.0,-1.0,0.0,1.0,1.0,0.0,1.0,-1.0,-1.0]" : 0.5748138654559618,
    "[1.0,1.0,1.0,-1.0,1.0,-1.0,-1.0,0.0,0.0]" : 0.5743882536894358,
    "[1.0,-1.0,-1.0,1.0,1.0,-1.0,0.0,0.0,1.0]" : 0.5739622158850852,
    "[0.0,1.0,1.0,-1.0,1.0,-1.0,1.0,-1.0,-1.0]" : 0.5735357516164457,
    "[1.0,-1.0,1.0,0.0,0.0,0.0,-1.0,0.0,1.0]" : 0.573100699824376,
    "[-1.0,1.0,0.0,-1.0,0.0,0.0,1.0,0.0,1.0]" : 0.5729909205748304,
    "[1.0,0.0,-1.0,0.0,1.0,1.0,-1.0,0.0,0.0]" : 0.5728628551206372,
    "[1.0,1.0,1.0,1.0,-1.0,-1.0,0.0,-1.0,-1.0]" : 0.5726815419783078,
    "[-1.0,-1.0,1.0,1.0,0.0,1.0,-1.0,0.0,1.0]" : 0.5726815419783078,
    "[1.0,-1.0,1.0,0.0,0.0,0.0,1.0,0.0,-1.0]" : 0.5723403871057288,
    "[1.0,1.0,0.0,0.0,1.0,-1.0,-1.0,-1.0,1.0]" : 0.5722537957537447,
    "[-1.0,0.0,1.0,1.0,1.0,0.0,1.0,-1.0,-1.0]" : 0.5709679863186983,
    "[0.0,0.0,1.0,1.0,1.0,-1.0,1.0,-1.0,-1.0]" : 0.5709679863186983,
    "[-1.0,1.0,-1.0,0.0,-1.0,-1.0,1.0,1.0,1.0]" : 0.5701086334361405,
    "[1.0,1.0,0.0,-1.0,1.0,0.0,-1.0,-1.0,1.0]" : 0.5701086334361405,
    "[1.0,-1.0,0.0,-1.0,0.0,1.0,0.0,0.0,1.0]" : 0.5698697316833324,
    "[0.0,1.0,1.0,0.0,1.0,-1.0,1.0,-1.0,-1.0]" : 0.5696783117274288,
    "[1.0,1.0,0.0,0.0,0.0,-1.0,0.0,-1.0,1.0]" : 0.56963115590377,
    "[1.0,1.0,1.0,-1.0,1.0,-1.0,-1.0,-1.0,0.0]" : 0.5692475592662354,
    "[1.0,-1.0,-1.0,0.0,1.0,-1.0,0.0,1.0,1.0]" : 0.5692475592662354,
    "[1.0,-1.0,0.0,1.0,1.0,-1.0,1.0,-1.0,-1.0]" : 0.5679527130537699,
    "[-1.0,1.0,-1.0,-1.0,-1.0,0.0,1.0,1.0,1.0]" : 0.5670873205664989,
    "[0.0,-1.0,1.0,-1.0,1.0,-1.0,1.0,0.0,1.0]" : 0.5657859806545582,
    "[1.0,0.0,0.0,1.0,0.0,-1.0,0.0,-1.0,1.0]" : 0.5655253466437654,
    "[-1.0,1.0,1.0,0.0,1.0,-1.0,1.0,0.0,-1.0]" : 0.5649162481934075,
    "[1.0,-1.0,-1.0,1.0,0.0,0.0,1.0,-1.0,1.0]" : 0.5649162481934075,
    "[1.0,-1.0,0.0,-1.0,0.0,0.0,0.0,1.0,1.0]" : 0.564635757448846,
    "[1.0,-1.0,-1.0,0.0,-1.0,0.0,1.0,1.0,1.0]" : 0.564480728901623,
    "[0.0,0.0,0.0,1.0,1.0,-1.0,1.0,-1.0,0.0]" : 0.5641552491840989,
    "[-1.0,-1.0,1.0,1.0,-1.0,1.0,0.0,0.0,1.0]" : 0.5636083820158592,
    "[1.0,0.0,-1.0,1.0,0.0,-1.0,1.0,-1.0,1.0]" : 0.5636083820158592,
    "[-1.0,-1.0,1.0,1.0,1.0,1.0,0.0,0.0,-1.0]" : 0.5627342878157062,
    "[1.0,-1.0,1.0,0.0,1.0,-1.0,0.0,-1.0,1.0]" : 0.5627342878157062,
    "[1.0,0.0,-1.0,1.0,-1.0,1.0,1.0,-1.0,-1.0]" : 0.5627342878157062,
    "[-1.0,-1.0,1.0,0.0,0.0,-1.0,1.0,1.0,1.0]" : 0.5627342878157062,
    "[0.0,-1.0,0.0,0.0,1.0,-1.0,0.0,1.0,1.0]" : 0.5623212546445229,
    "[-1.0,0.0,-1.0,1.0,0.0,-1.0,1.0,1.0,1.0]" : 0.5622965843792957,
    "[1.0,0.0,-1.0,1.0,-1.0,-1.0,1.0,0.0,1.0]" : 0.5618584428012864,
    "[1.0,1.0,1.0,-1.0,0.0,0.0,1.0,-1.0,-1.0]" : 0.5614198626430981,
    "[1.0,-1.0,0.0,-1.0,1.0,1.0,-1.0,0.0,1.0]" : 0.5614198626430981,
    "[1.0,1.0,1.0,0.0,-1.0,0.0,1.0,-1.0,-1.0]" : 0.5614198626430981,
    "[1.0,1.0,1.0,0.0,-1.0,0.0,-1.0,-1.0,1.0]" : 0.5614198626430981,
    "[1.0,0.0,-1.0,0.0,1.0,1.0,-1.0,-1.0,1.0]" : 0.5609808434657115,
    "[-1.0,0.0,1.0,1.0,-1.0,1.0,-1.0,-1.0,1.0]" : 0.5609808434657115,
    "[1.0,-1.0,0.0,0.0,1.0,-1.0,1.0,-1.0,1.0]" : 0.5609808434657115,
    "[-1.0,0.0,0.0,0.0,1.0,0.0,1.0,1.0,-1.0]" : 0.560905318318409,
    "[1.0,1.0,0.0,-1.0,1.0,0.0,0.0,-1.0,0.0]" : 0.5608991167799703,
    "[-1.0,-1.0,1.0,1.0,-1.0,1.0,-1.0,0.0,1.0]" : 0.5605413848296681,
    "[-1.0,1.0,1.0,-1.0,1.0,0.0,0.0,1.0,-1.0]" : 0.5605413848296681,
    "[1.0,1.0,1.0,0.0,-1.0,-1.0,-1.0,1.0,-1.0]" : 0.5605413848296681,
    "[1.0,-1.0,-1.0,1.0,-1.0,1.0,1.0,0.0,-1.0]" : 0.5605413848296681,
    "[1.0,-1.0,1.0,1.0,0.0,-1.0,1.0,0.0,-1.0]" : 0.5605413848296681,
    "[0.0,-1.0,1.0,-1.0,1.0,0.0,1.0,-1.0,1.0]" : 0.5601014862950691,
    "[1.0,-1.0,0.0,1.0,0.0,-1.0,1.0,1.0,-1.0]" : 0.5601014862950691,
    "[-1.0,0.0,1.0,0.0,1.0,1.0,1.0,-1.0,-1.0]" : 0.5592203677684082,
    "[1.0,0.0,1.0,1.0,-1.0,-1.0,1.0,0.0,-1.0]" : 0.5592203677684082,
    "[1.0,1.0,1.0,1.0,-1.0,-1.0,0.0,-1.0,0.0]" : 0.5592203677684082,
    "[0.0,1.0,1.0,-1.0,-1.0,1.0,1.0,-1.0,0.0]" : 0.5592203677684082,
    "[1.0,1.0,1.0,-1.0,0.0,1.0,-1.0,0.0,-1.0]" : 0.5587791468943457,
    "[0.0,1.0,1.0,-1.0,-1.0,1.0,-1.0,0.0,1.0]" : 0.5587791468943457,
    "[-1.0,0.0,1.0,-1.0,0.0,1.0,1.0,-1.0,1.0]" : 0.5583374843577256,
    "[-1.0,0.0,-1.0,-1.0,0.0,1.0,1.0,1.0,1.0]" : 0.5583374843577256,
    "[1.0,0.0,1.0,-1.0,-1.0,1.0,-1.0,0.0,1.0]" : 0.5583374843577256,
    "[-1.0,1.0,0.0,-1.0,1.0,1.0,0.0,1.0,-1.0]" : 0.5583374843577256,
    "[-1.0,-1.0,0.0,-1.0,-1.0,1.0,1.0,1.0,1.0]" : 0.5583374843577256,
    "[-1.0,1.0,0.0,1.0,1.0,-1.0,0.0,1.0,-1.0]" : 0.5574528325279513,
    "[1.0,1.0,0.0,1.0,-1.0,-1.0,1.0,-1.0,0.0]" : 0.5570098423492597,
    "[-1.0,-1.0,0.0,1.0,0.0,-1.0,1.0,1.0,1.0]" : 0.5570098423492597,
    "[-1.0,0.0,1.0,0.0,1.0,-1.0,1.0,1.0,-1.0]" : 0.5561225312470987,
    "[1.0,0.0,-1.0,1.0,1.0,0.0,-1.0,0.0,0.0]" : 0.5557132214758252,
    "[-1.0,1.0,1.0,-1.0,1.0,-1.0,0.0,1.0,-1.0]" : 0.5556782094354299,
    "[1.0,1.0,1.0,-1.0,-1.0,0.0,-1.0,1.0,-1.0]" : 0.5556782094354299,
    "[1.0,-1.0,1.0,1.0,0.0,0.0,1.0,-1.0,-1.0]" : 0.5556782094354299,
    "[-1.0,0.0,1.0,-1.0,-1.0,1.0,0.0,1.0,1.0]" : 0.5552334428571618,
    "[1.0,-1.0,-1.0,1.0,0.0,0.0,1.0,1.0,-1.0]" : 0.5552334428571618,
    "[0.0,-1.0,1.0,0.0,1.0,-1.0,1.0,-1.0,1.0]" : 0.5547882310670824,
    "[1.0,1.0,-1.0,1.0,0.0,0.0,1.0,-1.0,-1.0]" : 0.5543425736195343,
    "[1.0,1.0,1.0,-1.0,0.0,-1.0,-1.0,0.0,1.0]" : 0.5543425736195343,
    "[0.0,0.0,1.0,1.0,-1.0,1.0,-1.0,-1.0,1.0]" : 0.5543425736195343,
    "[0.0,1.0,-1.0,0.0,-1.0,-1.0,1.0,1.0,1.0]" : 0.5543425736195343,
    "[1.0,1.0,1.0,0.0,-1.0,-1.0,0.0,1.0,-1.0]" : 0.5538964700684139,
    "[-1.0,-1.0,0.0,1.0,1.0,1.0,0.0,1.0,-1.0]" : 0.5538964700684139,
    "[0.0,1.0,-1.0,-1.0,1.0,1.0,-1.0,1.0,0.0]" : 0.5538964700684139,
    "[0.0,0.0,1.0,0.0,1.0,0.0,-1.0,-1.0,1.0]" : 0.55384062213488,
    "[-1.0,1.0,1.0,0.0,0.0,1.0,-1.0,-1.0,1.0]" : 0.5534499199671711,
    "[1.0,1.0,-1.0,1.0,0.0,-1.0,1.0,-1.0,0.0]" : 0.5534499199671711,
    "[-1.0,-1.0,1.0,0.0,-1.0,1.0,1.0,0.0,1.0]" : 0.5534499199671711,
    "[1.0,-1.0,1.0,-1.0,1.0,-1.0,0.0,0.0,1.0]" : 0.5534499199671711,
    "[0.0,1.0,1.0,-1.0,-1.0,1.0,-1.0,-1.0,1.0]" : 0.5534499199671711,
    "[0.0,-1.0,0.0,-1.0,-1.0,1.0,1.0,1.0,1.0]" : 0.5530029228688087,
    "[0.0,-1.0,1.0,-1.0,-1.0,0.0,1.0,1.0,1.0]" : 0.5530029228688087,
    "[0.0,-1.0,-1.0,-1.0,0.0,1.0,1.0,1.0,1.0]" : 0.5525554783258821,
    "[1.0,1.0,1.0,1.0,0.0,-1.0,-1.0,-1.0,0.0]" : 0.5525554783258821,
    "[0.0,-1.0,-1.0,1.0,1.0,1.0,-1.0,1.0,0.0]" : 0.5521075858904989,
    "[0.0,-1.0,-1.0,1.0,-1.0,0.0,1.0,1.0,1.0]" : 0.5516592451143182,
    "[1.0,-1.0,0.0,-1.0,1.0,1.0,0.0,-1.0,1.0]" : 0.5516592451143182,
    "[0.0,0.0,0.0,0.0,1.0,1.0,0.0,-1.0,0.0]" : 0.5516099457864421,
    "[-1.0,1.0,1.0,-1.0,0.0,1.0,0.0,-1.0,1.0]" : 0.5512104555485504,
    "[1.0,1.0,1.0,-1.0,0.0,1.0,0.0,-1.0,-1.0]" : 0.5512104555485504,
    "[1.0,0.0,0.0,-1.0,1.0,-1.0,1.0,-1.0,1.0]" : 0.5507612167439567,
    "[1.0,0.0,-1.0,1.0,-1.0,-1.0,1.0,1.0,0.0]" : 0.5507612167439567,
    "[1.0,-1.0,0.0,1.0,-1.0,-1.0,1.0,1.0,0.0]" : 0.5507612167439567,
    "[0.0,0.0,1.0,-1.0,0.0,1.0,1.0,-1.0,0.0]" : 0.5505863273960016,
    "[0.0,1.0,1.0,-1.0,0.0,0.0,1.0,-1.0,0.0]" : 0.5504996338479363,
    "[-1.0,1.0,0.0,-1.0,-1.0,0.0,1.0,1.0,1.0]" : 0.5503115282508485,
    "[-1.0,1.0,1.0,0.0,1.0,-1.0,0.0,1.0,-1.0]" : 0.5503115282508485,
    "[0.0,1.0,-1.0,1.0,1.0,1.0,-1.0,-1.0,0.0]" : 0.5503115282508485,
    "[1.0,1.0,1.0,-1.0,-1.0,0.0,-1.0,1.0,0.0]" : 0.5503115282508485,
    "[1.0,-1.0,0.0,1.0,-1.0,-1.0,1.0,0.0,1.0]" : 0.5503115282508485,
    "[1.0,0.0,1.0,-1.0,1.0,-1.0,1.0,-1.0,0.0]" : 0.5503115282508485,
    "[0.0,-1.0,1.0,-1.0,1.0,1.0,0.0,-1.0,1.0]" : 0.5503115282508485,
    "[1.0,0.0,-1.0,-1.0,1.0,0.0,-1.0,1.0,1.0]" : 0.5494108003980834,
    "[-1.0,1.0,0.0,1.0,1.0,1.0,0.0,-1.0,-1.0]" : 0.5494108003980834,
    "[1.0,1.0,0.0,1.0,-1.0,-1.0,1.0,0.0,-1.0]" : 0.5494108003980834,
    "[1.0,0.0,0.0,1.0,-1.0,1.0,1.0,-1.0,-1.0]" : 0.5489597601367969,
    "[1.0,-1.0,-1.0,1.0,1.0,1.0,-1.0,0.0,0.0]" : 0.5489597601367969,
    "[1.0,1.0,1.0,0.0,-1.0,1.0,-1.0,-1.0,0.0]" : 0.5489597601367969,
    "[1.0,-1.0,0.0,-1.0,1.0,0.0,1.0,-1.0,1.0]" : 0.548508268383736,
    "[0.0,1.0,-1.0,1.0,1.0,-1.0,-1.0,1.0,0.0]" : 0.548508268383736,
    "[0.0,-1.0,0.0,1.0,0.0,-1.0,1.0,1.0,0.0]" : 0.5482919920039366,
    "[-1.0,1.0,0.0,-1.0,1.0,0.0,1.0,1.0,-1.0]" : 0.5480563246869568,
    "[1.0,-1.0,1.0,-1.0,1.0,-1.0,1.0,0.0,0.0]" : 0.5476039285940631,
    "[1.0,-1.0,-1.0,1.0,-1.0,1.0,1.0,0.0,0.0]" : 0.5476039285940631,
    "[1.0,-1.0,1.0,-1.0,0.0,1.0,-1.0,0.0,1.0]" : 0.5466977774080836,
    "[1.0,0.0,-1.0,1.0,1.0,0.0,-1.0,-1.0,1.0]" : 0.5466977774080836,
    "[-1.0,-1.0,1.0,1.0,1.0,1.0,0.0,-1.0,0.0]" : 0.5462440214079393,
    "[1.0,-1.0,-1.0,-1.0,0.0,0.0,1.0,1.0,1.0]" : 0.5462440214079393,
    "[0.0,-1.0,1.0,-1.0,0.0,1.0,-1.0,1.0,1.0]" : 0.545789811197563,
    "[0.0,-1.0,1.0,1.0,0.0,-1.0,1.0,0.0,0.0]" : 0.5456429710453587,
    "[0.0,-1.0,-1.0,1.0,-1.0,-1.0,1.0,1.0,1.0]" : 0.5453351463222899,
    "[-1.0,1.0,-1.0,1.0,1.0,1.0,-1.0,0.0,-1.0]" : 0.5453351463222899,
    "[0.0,1.0,1.0,-1.0,0.0,1.0,0.0,-1.0,0.0]" : 0.5449306023325976,
    "[1.0,1.0,1.0,0.0,0.0,-1.0,-1.0,-1.0,1.0]" : 0.5448800263269998,
    "[0.0,0.0,-1.0,1.0,1.0,1.0,-1.0,-1.0,1.0]" : 0.5444244507561172,
    "[-1.0,-1.0,1.0,1.0,0.0,0.0,0.0,1.0,0.0]" : 0.5438036842432852,
    "[-1.0,0.0,1.0,0.0,0.0,0.0,1.0,-1.0,1.0]" : 0.5433100963542894,
    "[-1.0,0.0,1.0,0.0,1.0,1.0,0.0,0.0,-1.0]" : 0.5430467277093814,
    "[0.0,-1.0,1.0,0.0,0.0,-1.0,1.0,1.0,0.0]" : 0.5426788323702466,
    "[-1.0,0.0,0.0,1.0,1.0,1.0,1.0,-1.0,-1.0]" : 0.5416814046736269,
    "[0.0,1.0,-1.0,0.0,1.0,-1.0,-1.0,1.0,1.0]" : 0.5407633906479506,
    "[1.0,-1.0,-1.0,1.0,1.0,1.0,0.0,-1.0,0.0]" : 0.5407633906479506,
    "[0.0,0.0,0.0,-1.0,1.0,0.0,1.0,0.0,0.0]" : 0.5403317077830901,
    "[1.0,0.0,0.0,0.0,1.0,-1.0,-1.0,1.0,0.0]" : 0.5400799963867928,
    "[0.0,1.0,-1.0,-1.0,1.0,0.0,0.0,0.0,1.0]" : 0.5399665413612705,
    "[0.0,-1.0,0.0,1.0,1.0,0.0,-1.0,0.0,1.0]" : 0.5396373345889149,
    "[0.0,0.0,-1.0,0.0,1.0,0.0,-1.0,1.0,1.0]" : 0.5396124606180188,
    "[1.0,1.0,-1.0,-1.0,1.0,0.0,-1.0,1.0,0.0]" : 0.5393829207352739,
    "[1.0,1.0,0.0,1.0,0.0,-1.0,0.0,-1.0,0.0]" : 0.538082557912916,
    "[-1.0,0.0,-1.0,1.0,1.0,1.0,-1.0,1.0,-1.0]" : 0.5379983011160168,
    "[1.0,0.0,1.0,-1.0,1.0,0.0,0.0,0.0,-1.0]" : 0.5377124249458485,
    "[-1.0,0.0,0.0,1.0,1.0,0.0,1.0,0.0,-1.0]" : 0.5376169665349841,
    "[0.0,0.0,1.0,0.0,1.0,-1.0,0.0,0.0,0.0]" : 0.5370592681976015,
    "[0.0,0.0,-1.0,0.0,1.0,1.0,-1.0,0.0,1.0]" : 0.5365182355022299,
    "[0.0,0.0,1.0,1.0,0.0,-1.0,0.0,1.0,-1.0]" : 0.5363828641642651,
    "[0.0,-1.0,0.0,-1.0,1.0,-1.0,1.0,1.0,1.0]" : 0.5356813462832756,
    "[0.0,-1.0,0.0,1.0,1.0,1.0,-1.0,-1.0,1.0]" : 0.5352165628240235,
    "[-1.0,1.0,0.0,1.0,1.0,0.0,-1.0,1.0,-1.0]" : 0.5352165628240235,
    "[1.0,-1.0,0.0,0.0,1.0,0.0,0.0,0.0,0.0]" : 0.5352108837188089,
    "[1.0,0.0,1.0,-1.0,0.0,1.0,0.0,-1.0,0.0]" : 0.5342848579398268,
    "[0.0,-1.0,0.0,-1.0,0.0,1.0,0.0,1.0,1.0]" : 0.53379238267426,
    "[-1.0,-1.0,0.0,1.0,1.0,1.0,1.0,0.0,-1.0]" : 0.5333527718402388,
    "[0.0,1.0,1.0,-1.0,0.0,0.0,0.0,-1.0,1.0]" : 0.5331531436000055,
    "[1.0,0.0,-1.0,0.0,1.0,1.0,0.0,-1.0,0.0]" : 0.5329904549670892,
    "[0.0,-1.0,-1.0,1.0,1.0,1.0,-1.0,0.0,1.0]" : 0.5324180755288475,
    "[1.0,1.0,-1.0,0.0,1.0,0.0,-1.0,0.0,0.0]" : 0.5310549608005233,
    "[0.0,-1.0,1.0,0.0,1.0,1.0,1.0,-1.0,-1.0]" : 0.5310125195141503,
    "[1.0,1.0,-1.0,-1.0,1.0,-1.0,0.0,0.0,1.0]" : 0.5310125195141503,
    "[1.0,-1.0,0.0,1.0,1.0,-1.0,1.0,-1.0,0.0]" : 0.5310125195141503,
    "[1.0,-1.0,0.0,1.0,1.0,0.0,-1.0,1.0,-1.0]" : 0.530559056778475,
    "[0.0,-1.0,1.0,0.0,1.0,0.0,-1.0,-1.0,1.0]" : 0.5301359089664202,
    "[-1.0,1.0,1.0,0.0,1.0,-1.0,0.0,0.0,0.0]" : 0.5300489057447104,
    "[0.0,1.0,-1.0,1.0,-1.0,0.0,1.0,-1.0,1.0]" : 0.5297474950211363,
    "[1.0,-1.0,1.0,0.0,1.0,-1.0,0.0,-1.0,0.0]" : 0.5297139618882764,
    "[-1.0,0.0,1.0,0.0,1.0,0.0,0.0,-1.0,1.0]" : 0.5294985122886839,
    "[0.0,-1.0,1.0,1.0,1.0,0.0,-1.0,1.0,-1.0]" : 0.5293051185713459,
    "[-1.0,0.0,0.0,1.0,1.0,-1.0,-1.0,1.0,1.0]" : 0.529147160968207,
    "[1.0,0.0,0.0,-1.0,1.0,-1.0,-1.0,1.0,1.0]" : 0.5286605307400143,
    "[0.0,-1.0,1.0,-1.0,1.0,-1.0,0.0,0.0,1.0]" : 0.5283967260829958,
    "[0.0,-1.0,1.0,-1.0,1.0,1.0,0.0,1.0,-1.0]" : 0.528258239660683,
    "[-1.0,1.0,-1.0,1.0,1.0,0.0,-1.0,1.0,0.0]" : 0.5281887194370415,
    "[-1.0,0.0,0.0,1.0,1.0,1.0,-1.0,1.0,-1.0]" : 0.5281887194370415,
    "[1.0,1.0,0.0,-1.0,-1.0,1.0,1.0,0.0,-1.0]" : 0.5280318973496752,
    "[1.0,0.0,1.0,1.0,-1.0,0.0,-1.0,1.0,-1.0]" : 0.5279368775128173,
    "[1.0,-1.0,0.0,1.0,1.0,-1.0,-1.0,1.0,0.0]" : 0.527859348338099,
    "[1.0,1.0,-1.0,0.0,1.0,-1.0,-1.0,1.0,0.0]" : 0.5277164358504597,
    "[0.0,-1.0,1.0,1.0,1.0,-1.0,1.0,-1.0,0.0]" : 0.5277164358504597,
    "[-1.0,1.0,-1.0,0.0,1.0,1.0,0.0,1.0,-1.0]" : 0.5277164358504597,
    "[0.0,0.0,1.0,-1.0,1.0,-1.0,0.0,-1.0,1.0]" : 0.5277162268261597,
    "[0.0,0.0,1.0,-1.0,1.0,-1.0,0.0,1.0,0.0]" : 0.5273663306152532,
    "[1.0,-1.0,1.0,0.0,0.0,-1.0,-1.0,1.0,1.0]" : 0.5273556126469588,
    "[1.0,0.0,-1.0,-1.0,0.0,0.0,1.0,0.0,1.0]" : 0.5272770451857303,
    "[-1.0,-1.0,1.0,-1.0,0.0,-1.0,1.0,1.0,1.0]" : 0.5272436795075125,
    "[1.0,1.0,1.0,-1.0,0.0,-1.0,1.0,-1.0,0.0]" : 0.5272436795075125,
    "[1.0,0.0,-1.0,-1.0,-1.0,1.0,1.0,0.0,1.0]" : 0.5270165351822115,
    "[1.0,-1.0,1.0,0.0,-1.0,0.0,1.0,1.0,-1.0]" : 0.5268032909835273,
    "[1.0,-1.0,1.0,-1.0,1.0,0.0,0.0,-1.0,0.0]" : 0.52680312038716,
    "[0.0,-1.0,1.0,1.0,1.0,0.0,0.0,-1.0,0.0]" : 0.5267761288116561,
    "[0.0,-1.0,0.0,1.0,1.0,1.0,1.0,-1.0,-1.0]" : 0.5267704499349702,
    "[1.0,1.0,1.0,-1.0,0.0,-1.0,-1.0,-1.0,1.0]" : 0.5267704499349702,
    "[1.0,1.0,1.0,-1.0,0.0,-1.0,-1.0,1.0,0.0]" : 0.5267704499349702,
    "[-1.0,0.0,1.0,1.0,0.0,-1.0,1.0,-1.0,1.0]" : 0.5267562121381112,
    "[0.0,-1.0,1.0,1.0,1.0,-1.0,0.0,1.0,-1.0]" : 0.5266985070457072,
    "[0.0,-1.0,1.0,1.0,-1.0,1.0,-1.0,1.0,0.0]" : 0.5266071626703673,
    "[-1.0,1.0,0.0,0.0,-1.0,1.0,1.0,-1.0,1.0]" : 0.5264783588389379,
    "[-1.0,1.0,-1.0,1.0,1.0,-1.0,0.0,0.0,1.0]" : 0.5264134271429167,
    "[1.0,0.0,1.0,-1.0,1.0,-1.0,-1.0,0.0,0.0]" : 0.5263310654401544,
    "[-1.0,1.0,-1.0,0.0,1.0,1.0,1.0,-1.0,0.0]" : 0.526261579745081,
    "[0.0,-1.0,0.0,0.0,1.0,1.0,1.0,0.0,-1.0]" : 0.5261451630593181,
    "[0.0,1.0,0.0,-1.0,1.0,-1.0,1.0,0.0,0.0]" : 0.5259916430407295,
    "[0.0,-1.0,0.0,0.0,1.0,1.0,1.0,-1.0,0.0]" : 0.5259627799325158,
    "[0.0,1.0,1.0,1.0,-1.0,-1.0,-1.0,1.0,0.0]" : 0.5259620446090304,
    "[-1.0,1.0,-1.0,0.0,1.0,1.0,0.0,-1.0,1.0]" : 0.5259569630909579,
    "[0.0,1.0,-1.0,0.0,1.0,1.0,1.0,-1.0,-1.0]" : 0.5258625830044196,
    "[-1.0,1.0,-1.0,1.0,1.0,0.0,0.0,1.0,-1.0]" : 0.5258225692058132,
    "[0.0,-1.0,1.0,0.0,1.0,1.0,0.0,0.0,-1.0]" : 0.5255597750147524,
    "[1.0,-1.0,1.0,1.0,-1.0,0.0,0.0,1.0,-1.0]" : 0.5254950330548852,
    "[-1.0,1.0,1.0,1.0,-1.0,0.0,0.0,-1.0,1.0]" : 0.52546845149659,
    "[-1.0,1.0,1.0,0.0,1.0,-1.0,0.0,-1.0,1.0]" : 0.5254071561725281,
    "[1.0,-1.0,0.0,-1.0,1.0,-1.0,1.0,0.0,1.0]" : 0.5253479171003688,
    "[-1.0,0.0,0.0,1.0,0.0,1.0,-1.0,0.0,1.0]" : 0.5252158525890037,
    "[-1.0,1.0,0.0,-1.0,1.0,1.0,1.0,-1.0,0.0]" : 0.5251093264298675,
    "[1.0,-1.0,1.0,0.0,-1.0,0.0,-1.0,1.0,1.0]" : 0.5250851585289726,
    "[0.0,1.0,0.0,1.0,-1.0,-1.0,1.0,-1.0,1.0]" : 0.5250787704636609,
    "[1.0,-1.0,1.0,1.0,0.0,-1.0,-1.0,0.0,1.0]" : 0.5250600360873402,
    "[-1.0,1.0,-1.0,-1.0,1.0,1.0,1.0,0.0,0.0]" : 0.524931307292474,
    "[1.0,0.0,1.0,1.0,-1.0,-1.0,-1.0,0.0,1.0]" : 0.5249031907247355,
    "[1.0,-1.0,-1.0,-1.0,1.0,1.0,0.0,1.0,0.0]" : 0.5248714701471209,
    "[1.0,1.0,-1.0,-1.0,1.0,1.0,0.0,-1.0,0.0]" : 0.5246256238053365,
    "[-1.0,1.0,1.0,0.0,-1.0,0.0,1.0,-1.0,1.0]" : 0.5244317897516095,
    "[1.0,1.0,-1.0,-1.0,0.0,1.0,0.0,1.0,-1.0]" : 0.5244159184065609,
    "[-1.0,0.0,1.0,1.0,-1.0,-1.0,1.0,0.0,1.0]" : 0.5244002174550073,
    "[1.0,-1.0,-1.0,0.0,1.0,1.0,0.0,1.0,-1.0]" : 0.5243677537191799,
    "[-1.0,1.0,0.0,1.0,-1.0,-1.0,0.0,1.0,1.0]" : 0.5243187779292391,
    "[1.0,0.0,1.0,-1.0,-1.0,1.0,0.0,1.0,-1.0]" : 0.5241745464974952,
    "[-1.0,1.0,1.0,1.0,0.0,-1.0,-1.0,1.0,0.0]" : 0.5240704385236221,
    "[0.0,1.0,-1.0,1.0,-1.0,1.0,1.0,-1.0,0.0]" : 0.5240659041127392,
    "[0.0,1.0,0.0,-1.0,-1.0,1.0,1.0,-1.0,1.0]" : 0.5237646039386432,
    "[-1.0,1.0,0.0,1.0,1.0,0.0,-1.0,-1.0,1.0]" : 0.5237498438598788,
    "[1.0,0.0,1.0,-1.0,-1.0,1.0,1.0,0.0,-1.0]" : 0.5236380284856227,
    "[0.0,0.0,-1.0,1.0,-1.0,0.0,1.0,0.0,1.0]" : 0.5235977204591891,
    "[1.0,1.0,-1.0,-1.0,1.0,1.0,0.0,0.0,-1.0]" : 0.5235931272528164,
    "[1.0,1.0,1.0,-1.0,1.0,-1.0,0.0,-1.0,0.0]" : 0.5234445526476287,
    "[0.0,0.0,1.0,1.0,1.0,-1.0,-1.0,1.0,-1.0]" : 0.5233761113091964,
    "[0.0,1.0,-1.0,-1.0,-1.0,1.0,1.0,1.0,0.0]" : 0.5233362718208381,
    "[0.0,1.0,1.0,1.0,-1.0,-1.0,-1.0,0.0,1.0]" : 0.5232750289273712,
    "[0.0,1.0,1.0,0.0,-1.0,0.0,-1.0,0.0,1.0]" : 0.5231471475849564,
    "[1.0,0.0,0.0,-1.0,1.0,1.0,-1.0,1.0,-1.0]" : 0.5231437771252669,
    "[-1.0,-1.0,1.0,1.0,1.0,0.0,-1.0,1.0,0.0]" : 0.5231161995875055,
    "[0.0,1.0,1.0,-1.0,1.0,-1.0,0.0,-1.0,1.0]" : 0.5229675201451159,
    "[1.0,-1.0,0.0,-1.0,1.0,1.0,-1.0,1.0,0.0]" : 0.5229369718053261,
    "[0.0,1.0,0.0,1.0,1.0,-1.0,-1.0,-1.0,1.0]" : 0.522840597897885,
    "[-1.0,1.0,0.0,1.0,1.0,-1.0,1.0,-1.0,0.0]" : 0.5226296505651611,
    "[1.0,1.0,-1.0,0.0,-1.0,1.0,1.0,0.0,-1.0]" : 0.5226141458679197,
    "[1.0,0.0,1.0,1.0,-1.0,-1.0,-1.0,1.0,0.0]" : 0.5225527227441068,
    "[1.0,-1.0,-1.0,0.0,1.0,1.0,0.0,-1.0,1.0]" : 0.522490010132568,
    "[1.0,-1.0,1.0,0.0,1.0,-1.0,1.0,-1.0,0.0]" : 0.522490010132568,
    "[1.0,-1.0,-1.0,0.0,1.0,0.0,1.0,0.0,0.0]" : 0.5223859221131874,
    "[-1.0,-1.0,1.0,1.0,1.0,-1.0,0.0,1.0,0.0]" : 0.5222956632877647,
    "[-1.0,1.0,-1.0,1.0,-1.0,0.0,1.0,0.0,1.0]" : 0.5222587934854527,
    "[1.0,1.0,-1.0,0.0,-1.0,0.0,1.0,-1.0,1.0]" : 0.522225063235222,
    "[1.0,1.0,-1.0,0.0,-1.0,1.0,1.0,-1.0,0.0]" : 0.5220616399767907,
    "[1.0,-1.0,1.0,1.0,0.0,-1.0,1.0,-1.0,-1.0]" : 0.5220120221319968,
    "[1.0,1.0,0.0,-1.0,1.0,-1.0,0.0,-1.0,1.0]" : 0.5220120221319968,
    "[0.0,1.0,-1.0,0.0,1.0,1.0,-1.0,1.0,-1.0]" : 0.5220120221319968,
    "[0.0,1.0,1.0,1.0,-1.0,-1.0,0.0,-1.0,1.0]" : 0.5219979367104768,
    "[0.0,-1.0,1.0,1.0,-1.0,0.0,-1.0,1.0,1.0]" : 0.5219776602502172,
    "[1.0,0.0,-1.0,0.0,1.0,0.0,1.0,-1.0,0.0]" : 0.5219435678194058,
    "[1.0,1.0,0.0,-1.0,-1.0,1.0,1.0,-1.0,0.0]" : 0.5219381328951194,
    "[1.0,0.0,-1.0,-1.0,0.0,1.0,1.0,-1.0,1.0]" : 0.5218981742980031,
    "[1.0,1.0,0.0,0.0,0.0,0.0,-1.0,1.0,-1.0]" : 0.521829474437446,
    "[1.0,0.0,-1.0,-1.0,-1.0,1.0,1.0,1.0,0.0]" : 0.5216564995022236,
    "[1.0,-1.0,0.0,0.0,-1.0,1.0,1.0,1.0,-1.0]" : 0.5215743776799645,
    "[0.0,1.0,-1.0,-1.0,0.0,1.0,1.0,1.0,-1.0]" : 0.5215651122323615,
    "[-1.0,1.0,0.0,1.0,-1.0,1.0,0.0,-1.0,1.0]" : 0.5214325647467899,
    "[-1.0,0.0,1.0,1.0,-1.0,0.0,-1.0,1.0,1.0]" : 0.5213398777657006,
    "[1.0,0.0,-1.0,0.0,-1.0,1.0,1.0,1.0,-1.0]" : 0.5212898821911098,
    "[-1.0,1.0,1.0,1.0,-1.0,0.0,-1.0,0.0,1.0]" : 0.521285122509606,
    "[1.0,1.0,-1.0,-1.0,0.0,0.0,1.0,-1.0,1.0]" : 0.5212774610675426,
    "[-1.0,0.0,1.0,1.0,-1.0,-1.0,0.0,1.0,1.0]" : 0.5212757440506989,
    "[1.0,0.0,-1.0,1.0,0.0,1.0,0.0,0.0,-1.0]" : 0.521220625321878,
    "[1.0,0.0,1.0,-1.0,1.0,0.0,-1.0,0.0,0.0]" : 0.5209296579218166,
    "[1.0,1.0,0.0,-1.0,-1.0,1.0,0.0,-1.0,1.0]" : 0.5209203651799389,
    "[-1.0,1.0,-1.0,0.0,-1.0,1.0,1.0,0.0,1.0]" : 0.5207770661420631,
    "[-1.0,1.0,1.0,1.0,1.0,-1.0,-1.0,0.0,0.0]" : 0.5207526872782462,
    "[0.0,-1.0,1.0,1.0,0.0,1.0,-1.0,1.0,-1.0]" : 0.5207120380350272,
    "[1.0,-1.0,0.0,1.0,0.0,1.0,-1.0,1.0,-1.0]" : 0.5206678159594699,
    "[1.0,1.0,1.0,-1.0,0.0,1.0,-1.0,-1.0,0.0]" : 0.5205751854150832,
    "[0.0,-1.0,-1.0,1.0,0.0,-1.0,1.0,1.0,1.0]" : 0.5205751854150832,
    "[1.0,1.0,0.0,-1.0,-1.0,1.0,0.0,1.0,-1.0]" : 0.5205419540588718,
    "[-1.0,1.0,-1.0,1.0,1.0,0.0,1.0,-1.0,0.0]" : 0.5204860294098913,
    "[-1.0,1.0,1.0,1.0,1.0,-1.0,0.0,-1.0,0.0]" : 0.5203222516168818,
    "[0.0,1.0,-1.0,1.0,1.0,-1.0,0.0,-1.0,1.0]" : 0.5203010472161461,
    "[1.0,-1.0,1.0,0.0,-1.0,1.0,-1.0,1.0,0.0]" : 0.5202927426885446,
    "[1.0,-1.0,1.0,-1.0,1.0,1.0,0.0,0.0,-1.0]" : 0.5202812862898007,
    "[1.0,-1.0,1.0,1.0,-1.0,-1.0,0.0,1.0,0.0]" : 0.5201523524741329,
    "[0.0,1.0,-1.0,1.0,1.0,0.0,-1.0,1.0,-1.0]" : 0.5200952806729618,
    "[-1.0,1.0,0.0,1.0,0.0,-1.0,-1.0,1.0,1.0]" : 0.5200551578735422,
    "[0.0,0.0,-1.0,-1.0,1.0,1.0,1.0,-1.0,1.0]" : 0.5200328581020404,
    "[0.0,-1.0,1.0,1.0,-1.0,-1.0,0.0,1.0,1.0]" : 0.5198205859820494,
    "[0.0,0.0,-1.0,1.0,0.0,1.0,1.0,0.0,-1.0]" : 0.519667165553807,
    "[1.0,-1.0,0.0,-1.0,-1.0,1.0,1.0,1.0,0.0]" : 0.5196661629901321,
    "[1.0,-1.0,1.0,-1.0,-1.0,1.0,0.0,1.0,0.0]" : 0.5196169629968383,
    "[1.0,1.0,1.0,-1.0,-1.0,1.0,0.0,-1.0,0.0]" : 0.5196148955456905,
    "[-1.0,-1.0,1.0,-1.0,0.0,1.0,0.0,1.0,1.0]" : 0.5196148955456905,
    "[-1.0,1.0,-1.0,0.0,1.0,1.0,-1.0,1.0,0.0]" : 0.5196148955456905,
    "[0.0,1.0,-1.0,-1.0,-1.0,1.0,1.0,0.0,1.0]" : 0.5195077310029846,
    "[1.0,1.0,0.0,0.0,-1.0,0.0,1.0,0.0,-1.0]" : 0.5194015951741129,
    "[1.0,-1.0,0.0,-1.0,1.0,-1.0,1.0,-1.0,1.0]" : 0.519134029552403,
    "[-1.0,1.0,-1.0,1.0,0.0,1.0,0.0,-1.0,1.0]" : 0.5190430264826985,
    "[1.0,-1.0,1.0,-1.0,1.0,0.0,-1.0,1.0,0.0]" : 0.5190353299981634,
    "[-1.0,1.0,-1.0,0.0,0.0,0.0,1.0,1.0,0.0]" : 0.5189283706389733,
    "[-1.0,-1.0,1.0,1.0,1.0,-1.0,0.0,0.0,1.0]" : 0.5188292240687541,
    "[1.0,0.0,-1.0,0.0,-1.0,0.0,1.0,1.0,0.0]" : 0.5187500927218694,
    "[1.0,-1.0,0.0,1.0,-1.0,1.0,0.0,1.0,-1.0]" : 0.5187423385334047,
    "[0.0,1.0,0.0,-1.0,1.0,1.0,1.0,-1.0,-1.0]" : 0.5184890966181209,
    "[1.0,-1.0,1.0,-1.0,1.0,0.0,0.0,1.0,-1.0]" : 0.5183886847255021,
    "[-1.0,0.0,0.0,0.0,-1.0,1.0,1.0,0.0,1.0]" : 0.5181747083079347,
    "[1.0,-1.0,-1.0,1.0,0.0,1.0,1.0,-1.0,-1.0]" : 0.5181708530419082,
    "[1.0,0.0,1.0,1.0,-1.0,0.0,0.0,0.0,-1.0]" : 0.5181345486177424,
    "[1.0,-1.0,1.0,0.0,1.0,-1.0,0.0,1.0,-1.0]" : 0.518064882087316,
    "[-1.0,1.0,-1.0,0.0,0.0,0.0,0.0,1.0,1.0]" : 0.5180298551217696,
    "[1.0,-1.0,0.0,1.0,0.0,-1.0,-1.0,1.0,1.0]" : 0.5179686923380369,
    "[-1.0,1.0,0.0,1.0,-1.0,-1.0,1.0,0.0,1.0]" : 0.5178803551733328,
    "[0.0,1.0,-1.0,-1.0,1.0,1.0,1.0,0.0,-1.0]" : 0.5177684723954049,
    "[-1.0,-1.0,0.0,1.0,1.0,1.0,1.0,-1.0,-1.0]" : 0.5176885415605602,
    "[1.0,-1.0,0.0,-1.0,1.0,-1.0,0.0,1.0,1.0]" : 0.5176885415605602,
    "[1.0,0.0,1.0,1.0,0.0,-1.0,1.0,-1.0,-1.0]" : 0.5176885415605602,
    "[1.0,0.0,1.0,-1.0,1.0,-1.0,0.0,1.0,-1.0]" : 0.5176885415605602,
    "[1.0,0.0,1.0,1.0,-1.0,-1.0,0.0,0.0,0.0]" : 0.5176844307263521,
    "[1.0,0.0,1.0,0.0,-1.0,1.0,-1.0,1.0,-1.0]" : 0.5176568342837452,
    "[1.0,-1.0,1.0,-1.0,0.0,0.0,1.0,1.0,-1.0]" : 0.5174816277879797,
    "[0.0,-1.0,1.0,0.0,1.0,0.0,-1.0,0.0,1.0]" : 0.5174394184791011,
    "[1.0,0.0,1.0,0.0,-1.0,1.0,-1.0,0.0,0.0]" : 0.517353734089653,
    "[-1.0,1.0,1.0,0.0,1.0,0.0,0.0,0.0,-1.0]" : 0.5172773545101332,
    "[1.0,1.0,-1.0,-1.0,0.0,1.0,0.0,-1.0,1.0]" : 0.517224151055134,
    "[1.0,1.0,1.0,-1.0,-1.0,0.0,0.0,-1.0,1.0]" : 0.5172057472849136,
    "[1.0,0.0,1.0,-1.0,1.0,0.0,-1.0,-1.0,1.0]" : 0.5172057472849136,
    "[0.0,0.0,0.0,1.0,-1.0,-1.0,1.0,0.0,1.0]" : 0.5169629926031457,
    "[0.0,0.0,1.0,1.0,1.0,-1.0,-1.0,-1.0,1.0]" : 0.5167945658482953,
    "[-1.0,1.0,0.0,-1.0,1.0,-1.0,1.0,0.0,1.0]" : 0.5167224697316909,
    "[-1.0,1.0,1.0,-1.0,1.0,-1.0,0.0,1.0,0.0]" : 0.5167224697316909,
    "[1.0,-1.0,-1.0,-1.0,1.0,1.0,1.0,0.0,0.0]" : 0.5164973013487492,
    "[1.0,-1.0,1.0,1.0,1.0,-1.0,-1.0,0.0,0.0]" : 0.5163370588862353,
    "[-1.0,0.0,0.0,-1.0,1.0,-1.0,1.0,0.0,1.0]" : 0.5163297286930317,
    "[1.0,-1.0,1.0,-1.0,1.0,-1.0,0.0,-1.0,1.0]" : 0.5162387084171306,
    "[1.0,1.0,-1.0,-1.0,1.0,-1.0,-1.0,1.0,0.0]" : 0.5162387084171306,
    "[1.0,0.0,0.0,-1.0,1.0,1.0,1.0,-1.0,-1.0]" : 0.5159685351659038,
    "[1.0,-1.0,1.0,-1.0,0.0,1.0,1.0,0.0,-1.0]" : 0.5156013728485472,
    "[1.0,-1.0,0.0,0.0,1.0,0.0,1.0,-1.0,-1.0]" : 0.515512013179004,
    "[1.0,0.0,0.0,-1.0,1.0,-1.0,1.0,-1.0,0.0]" : 0.5153372806879718,
    "[-1.0,-1.0,1.0,1.0,0.0,0.0,-1.0,1.0,1.0]" : 0.5152959410897335,
    "[1.0,-1.0,-1.0,1.0,0.0,1.0,1.0,-1.0,0.0]" : 0.5152697325665302,
    "[0.0,1.0,-1.0,-1.0,1.0,-1.0,-1.0,1.0,1.0]" : 0.5152697325665302,
    "[1.0,-1.0,1.0,-1.0,1.0,1.0,0.0,-1.0,0.0]" : 0.5152697325665302,
    "[-1.0,1.0,-1.0,-1.0,0.0,-1.0,1.0,1.0,1.0]" : 0.5152697325665302,
    "[-1.0,-1.0,1.0,-1.0,1.0,0.0,1.0,0.0,1.0]" : 0.5152697325665302,
    "[1.0,-1.0,1.0,-1.0,0.0,0.0,-1.0,0.0,1.0]" : 0.5152649005409571,
    "[1.0,-1.0,0.0,-1.0,1.0,-1.0,1.0,0.0,0.0]" : 0.515061384116034,
    "[0.0,-1.0,0.0,0.0,1.0,-1.0,1.0,-1.0,1.0]" : 0.5150276867649968,
    "[0.0,-1.0,1.0,-1.0,0.0,1.0,1.0,1.0,-1.0]" : 0.5148575729829531,
    "[0.0,1.0,-1.0,-1.0,1.0,0.0,1.0,-1.0,1.0]" : 0.5148424944935563,
    "[-1.0,1.0,0.0,-1.0,1.0,0.0,1.0,-1.0,1.0]" : 0.514838116714501,
    "[-1.0,0.0,1.0,-1.0,0.0,-1.0,1.0,1.0,1.0]" : 0.5147845170605443,
    "[0.0,-1.0,1.0,-1.0,0.0,1.0,1.0,-1.0,1.0]" : 0.5147845170605443,
    "[1.0,1.0,1.0,-1.0,0.0,-1.0,1.0,0.0,-1.0]" : 0.5147845170605443,
    "[-1.0,-1.0,1.0,1.0,1.0,0.0,0.0,-1.0,1.0]" : 0.5147845170605443,
    "[0.0,-1.0,1.0,0.0,1.0,-1.0,-1.0,1.0,1.0]" : 0.5147146073868448,
    "[-1.0,0.0,0.0,1.0,1.0,-1.0,1.0,-1.0,1.0]" : 0.5144529201222184,
    "[-1.0,1.0,-1.0,0.0,1.0,1.0,0.0,0.0,0.0]" : 0.5135402442054577,
    "[-1.0,0.0,1.0,1.0,1.0,0.0,-1.0,-1.0,1.0]" : 0.5134874362647066,
    "[-1.0,1.0,1.0,0.0,0.0,-1.0,1.0,-1.0,1.0]" : 0.513462788500867,
    "[-1.0,-1.0,1.0,1.0,1.0,1.0,0.0,-1.0,-1.0]" : 0.5133259543899682,
    "[1.0,-1.0,0.0,1.0,0.0,1.0,1.0,-1.0,-1.0]" : 0.5133259543899682,
    "[-1.0,0.0,1.0,-1.0,1.0,-1.0,1.0,1.0,-1.0]" : 0.5133259543899682,
    "[1.0,-1.0,-1.0,0.0,0.0,-1.0,1.0,1.0,1.0]" : 0.5128387931599893,
    "[0.0,-1.0,1.0,-1.0,0.0,-1.0,1.0,1.0,1.0]" : 0.5128387931599893,
    "[1.0,1.0,0.0,0.0,-1.0,0.0,1.0,-1.0,0.0]" : 0.5127161814953719,
    "[-1.0,1.0,0.0,1.0,1.0,-1.0,-1.0,0.0,1.0]" : 0.5125550571718953,
    "[1.0,-1.0,-1.0,1.0,1.0,0.0,1.0,-1.0,0.0]" : 0.5123511442811083,
    "[1.0,-1.0,0.0,1.0,0.0,-1.0,1.0,-1.0,1.0]" : 0.5123511442811083,
    "[1.0,-1.0,-1.0,1.0,1.0,1.0,-1.0,-1.0,0.0]" : 0.5118630072651882,
    "[1.0,-1.0,1.0,0.0,0.0,1.0,-1.0,-1.0,1.0]" : 0.5118630072651882,
    "[1.0,-1.0,-1.0,0.0,1.0,-1.0,1.0,0.0,1.0]" : 0.5118630072651882,
    "[0.0,1.0,-1.0,0.0,1.0,-1.0,1.0,-1.0,1.0]" : 0.5115414970731369,
    "[1.0,0.0,1.0,0.0,1.0,-1.0,1.0,-1.0,-1.0]" : 0.5113743816236033,
    "[0.0,-1.0,1.0,0.0,1.0,1.0,-1.0,-1.0,1.0]" : 0.5113743816236033,
    "[1.0,-1.0,1.0,0.0,0.0,-1.0,1.0,0.0,-1.0]" : 0.5112284863564669,
    "[1.0,-1.0,0.0,1.0,1.0,1.0,-1.0,-1.0,0.0]" : 0.5108852668672388,
    "[-1.0,0.0,0.0,-1.0,1.0,-1.0,1.0,1.0,1.0]" : 0.5108852668672388,
    "[1.0,0.0,-1.0,-1.0,1.0,1.0,0.0,1.0,-1.0]" : 0.5106988951159408,
    "[1.0,0.0,1.0,0.0,0.0,-1.0,-1.0,-1.0,1.0]" : 0.5104320587969585,
    "[-1.0,1.0,0.0,-1.0,1.0,-1.0,1.0,1.0,0.0]" : 0.5103956625064903,
    "[0.0,-1.0,1.0,0.0,1.0,1.0,-1.0,1.0,-1.0]" : 0.5100930801595744,
    "[0.0,-1.0,0.0,1.0,1.0,-1.0,-1.0,1.0,1.0]" : 0.5100544330226954,
    "[0.0,1.0,0.0,-1.0,1.0,-1.0,1.0,1.0,-1.0]" : 0.5099055680512633,
    "[0.0,1.0,1.0,0.0,1.0,-1.0,-1.0,-1.0,1.0]" : 0.5097736955135658,
    "[0.0,0.0,0.0,-1.0,-1.0,1.0,1.0,0.0,1.0]" : 0.5097247215510439,
    "[1.0,-1.0,0.0,0.0,1.0,1.0,0.0,-1.0,0.0]" : 0.5097147544071506,
    "[-1.0,1.0,-1.0,1.0,1.0,0.0,0.0,-1.0,1.0]" : 0.5096113955892395,
    "[-1.0,-1.0,1.0,0.0,1.0,0.0,0.0,-1.0,1.0]" : 0.5095595305670607,
    "[1.0,-1.0,1.0,-1.0,1.0,0.0,0.0,-1.0,1.0]" : 0.5094149830109728,
    "[0.0,1.0,-1.0,-1.0,1.0,-1.0,0.0,1.0,1.0]" : 0.5094149830109728,
    "[0.0,1.0,-1.0,-1.0,1.0,-1.0,1.0,1.0,0.0]" : 0.5094149830109728,
    "[1.0,1.0,1.0,-1.0,1.0,-1.0,0.0,0.0,-1.0]" : 0.5094149830109728,
    "[1.0,-1.0,0.0,0.0,-1.0,0.0,1.0,1.0,0.0]" : 0.5092852055467125,
    "[-1.0,-1.0,1.0,1.0,0.0,0.0,0.0,0.0,1.0]" : 0.5092521008584976,
    "[1.0,0.0,0.0,-1.0,1.0,-1.0,0.0,1.0,0.0]" : 0.5092053558789148,
    "[-1.0,0.0,1.0,0.0,-1.0,0.0,0.0,1.0,1.0]" : 0.5090871269283418,
    "[-1.0,1.0,-1.0,0.0,1.0,1.0,-1.0,1.0,-1.0]" : 0.5089239068945425,
    "[0.0,-1.0,1.0,1.0,0.0,1.0,-1.0,-1.0,1.0]" : 0.5089239068945425,
    "[0.0,-1.0,0.0,-1.0,1.0,0.0,1.0,-1.0,1.0]" : 0.5088008151534165,
    "[0.0,-1.0,1.0,0.0,-1.0,0.0,0.0,1.0,1.0]" : 0.5085437232091178,
    "[1.0,0.0,1.0,1.0,-1.0,-1.0,0.0,0.0,-1.0]" : 0.5085029195288728,
    "[1.0,1.0,1.0,0.0,0.0,-1.0,1.0,-1.0,-1.0]" : 0.5084323392104046,
    "[0.0,-1.0,0.0,0.0,-1.0,1.0,0.0,1.0,1.0]" : 0.5082225604841308,
    "[-1.0,0.0,1.0,0.0,1.0,1.0,0.0,-1.0,0.0]" : 0.5081160329627045,
    "[0.0,0.0,0.0,-1.0,-1.0,1.0,0.0,1.0,1.0]" : 0.5080547473242496,
    "[1.0,-1.0,0.0,0.0,1.0,1.0,-1.0,1.0,-1.0]" : 0.5079702942382148,
    "[1.0,1.0,0.0,-1.0,1.0,-1.0,-1.0,1.0,0.0]" : 0.5079402794664996,
    "[0.0,1.0,1.0,0.0,-1.0,0.0,0.0,-1.0,1.0]" : 0.5077612299280877,
    "[-1.0,0.0,0.0,-1.0,1.0,1.0,1.0,-1.0,1.0]" : 0.5077002707739021,
    "[-1.0,0.0,1.0,1.0,1.0,-1.0,-1.0,1.0,0.0]" : 0.5076786427031945,
    "[1.0,0.0,1.0,-1.0,1.0,-1.0,0.0,0.0,-1.0]" : 0.5076490647406087,
    "[1.0,0.0,1.0,-1.0,-1.0,1.0,0.0,0.0,0.0]" : 0.5076053282333379,
    "[-1.0,-1.0,1.0,-1.0,0.0,1.0,1.0,0.0,1.0]" : 0.5074477271702749,
    "[0.0,-1.0,0.0,-1.0,1.0,1.0,1.0,1.0,-1.0]" : 0.5072607275443111,
    "[0.0,1.0,1.0,-1.0,1.0,-1.0,0.0,1.0,-1.0]" : 0.5069546818286852,
    "[1.0,0.0,1.0,-1.0,1.0,-1.0,0.0,-1.0,1.0]" : 0.5069546818286852,
    "[-1.0,1.0,1.0,1.0,0.0,0.0,-1.0,-1.0,1.0]" : 0.5065883837450236,
    "[0.0,1.0,-1.0,-1.0,1.0,1.0,0.0,-1.0,1.0]" : 0.5065435983783626,
    "[1.0,1.0,0.0,1.0,-1.0,-1.0,0.0,0.0,0.0]" : 0.5063966253894544,
    "[-1.0,-1.0,1.0,0.0,0.0,-1.0,1.0,0.0,1.0]" : 0.5062645448539087,
    "[0.0,0.0,-1.0,-1.0,1.0,-1.0,1.0,0.0,1.0]" : 0.5061815060361531,
    "[0.0,-1.0,0.0,1.0,1.0,0.0,0.0,-1.0,1.0]" : 0.5057646059340554,
    "[-1.0,-1.0,1.0,0.0,1.0,1.0,0.0,0.0,0.0]" : 0.505650774016389,
    "[-1.0,1.0,0.0,0.0,0.0,-1.0,0.0,1.0,1.0]" : 0.5053208843931098,
    "[-1.0,0.0,0.0,0.0,1.0,-1.0,1.0,0.0,1.0]" : 0.505181424788679,
    "[1.0,1.0,-1.0,0.0,0.0,1.0,1.0,-1.0,-1.0]" : 0.5051206047380616,
    "[0.0,0.0,0.0,0.0,1.0,1.0,-1.0,1.0,-1.0]" : 0.5051047518069444,
    "[-1.0,1.0,-1.0,1.0,0.0,1.0,1.0,-1.0,0.0]" : 0.504705427178814,
    "[1.0,-1.0,-1.0,0.0,1.0,0.0,1.0,-1.0,0.0]" : 0.5045626267077492,
    "[1.0,0.0,-1.0,-1.0,1.0,-1.0,0.0,1.0,1.0]" : 0.5044820421490975,
    "[-1.0,-1.0,1.0,0.0,1.0,1.0,1.0,-1.0,0.0]" : 0.5044820421490975,
    "[1.0,0.0,1.0,1.0,0.0,-1.0,-1.0,1.0,-1.0]" : 0.5043134253120306,
    "[0.0,0.0,-1.0,-1.0,1.0,1.0,1.0,1.0,-1.0]" : 0.5042154399985733,
    "[1.0,1.0,0.0,1.0,-1.0,0.0,0.0,-1.0,0.0]" : 0.5041678430240293,
    "[1.0,0.0,1.0,-1.0,0.0,1.0,-1.0,1.0,-1.0]" : 0.5040925948769168,
    "[1.0,-1.0,-1.0,1.0,1.0,0.0,0.0,-1.0,1.0]" : 0.5039860281536919,
    "[1.0,1.0,0.0,-1.0,0.0,0.0,0.0,1.0,-1.0]" : 0.5038327978797926,
    "[1.0,-1.0,-1.0,0.0,0.0,1.0,1.0,1.0,-1.0]" : 0.5035757063677752,
    "[0.0,1.0,1.0,0.0,1.0,-1.0,0.0,-1.0,0.0]" : 0.5034683992938108,
    "[-1.0,1.0,0.0,0.0,1.0,1.0,0.0,0.0,-1.0]" : 0.5034040233544762,
    "[0.0,0.0,-1.0,0.0,1.0,1.0,0.0,1.0,-1.0]" : 0.5033289110803778,
    "[1.0,-1.0,0.0,-1.0,1.0,0.0,1.0,1.0,-1.0]" : 0.5033043384626761,
    "[-1.0,1.0,-1.0,1.0,0.0,-1.0,1.0,0.0,1.0]" : 0.5032479946973993,
    "[0.0,1.0,0.0,-1.0,1.0,-1.0,0.0,0.0,1.0]" : 0.5032277221743007,
    "[0.0,0.0,0.0,1.0,1.0,0.0,-1.0,1.0,-1.0]" : 0.5031957978901535,
    "[1.0,-1.0,-1.0,-1.0,1.0,0.0,1.0,1.0,0.0]" : 0.5028351351304733,
    "[1.0,1.0,-1.0,-1.0,1.0,0.0,1.0,-1.0,0.0]" : 0.5028192452086783,
    "[-1.0,1.0,-1.0,-1.0,0.0,1.0,1.0,0.0,1.0]" : 0.5026995788361314,
    "[1.0,1.0,0.0,-1.0,1.0,-1.0,-1.0,0.0,1.0]" : 0.5024950051157699,
    "[-1.0,1.0,1.0,1.0,0.0,-1.0,1.0,-1.0,0.0]" : 0.5024496596311084,
    "[0.0,0.0,-1.0,1.0,1.0,-1.0,1.0,-1.0,1.0]" : 0.5024442612672394,
    "[1.0,0.0,1.0,0.0,1.0,-1.0,-1.0,1.0,-1.0]" : 0.5024261742596615,
    "[-1.0,1.0,0.0,-1.0,0.0,1.0,1.0,-1.0,1.0]" : 0.5024201303063901,
    "[0.0,-1.0,1.0,1.0,1.0,-1.0,-1.0,0.0,1.0]" : 0.5024085971387255,
    "[1.0,-1.0,0.0,-1.0,1.0,1.0,1.0,0.0,-1.0]" : 0.5023904357404668,
    "[1.0,0.0,-1.0,-1.0,1.0,1.0,1.0,-1.0,0.0]" : 0.5023863170064681,
    "[1.0,-1.0,1.0,0.0,1.0,-1.0,-1.0,1.0,0.0]" : 0.5023505015986135,
    "[1.0,-1.0,1.0,1.0,0.0,-1.0,0.0,1.0,-1.0]" : 0.5019702865109654,
    "[1.0,1.0,0.0,-1.0,1.0,0.0,1.0,-1.0,-1.0]" : 0.501969308105836,
    "[1.0,1.0,0.0,-1.0,0.0,1.0,1.0,-1.0,-1.0]" : 0.5019429277952968,
    "[-1.0,1.0,0.0,0.0,1.0,-1.0,1.0,-1.0,1.0]" : 0.5018907089625768,
    "[-1.0,0.0,0.0,1.0,1.0,0.0,-1.0,1.0,0.0]" : 0.5018715830030496,
    "[0.0,-1.0,1.0,1.0,1.0,0.0,1.0,-1.0,-1.0]" : 0.5014985005711038,
    "[-1.0,-1.0,1.0,0.0,1.0,-1.0,0.0,1.0,1.0]" : 0.5014783082947532,
    "[1.0,-1.0,-1.0,-1.0,0.0,1.0,1.0,1.0,0.0]" : 0.5014728021283511,
    "[-1.0,1.0,-1.0,0.0,1.0,-1.0,1.0,0.0,1.0]" : 0.5014654747093084,
    "[1.0,-1.0,1.0,1.0,1.0,-1.0,0.0,0.0,-1.0]" : 0.5014612229187067,
    "[1.0,0.0,1.0,-1.0,1.0,0.0,-1.0,1.0,-1.0]" : 0.5014595569331514,
    "[-1.0,0.0,1.0,1.0,1.0,-1.0,0.0,-1.0,1.0]" : 0.5014380132564822,
    "[-1.0,-1.0,1.0,1.0,1.0,0.0,-1.0,0.0,1.0]" : 0.5014364923972051,
    "[-1.0,1.0,-1.0,-1.0,1.0,0.0,1.0,0.0,1.0]" : 0.5014262780300425,
    "[1.0,-1.0,-1.0,0.0,1.0,1.0,1.0,0.0,-1.0]" : 0.5009779459361499,
    "[0.0,1.0,1.0,1.0,0.0,-1.0,-1.0,-1.0,1.0]" : 0.5009739240077647,
    "[1.0,-1.0,1.0,-1.0,1.0,1.0,-1.0,0.0,0.0]" : 0.5009636819730469,
    "[1.0,0.0,-1.0,0.0,1.0,1.0,1.0,-1.0,-1.0]" : 0.500960292753147,
    "[1.0,-1.0,0.0,1.0,-1.0,-1.0,0.0,1.0,1.0]" : 0.5004985015231065,
    "[0.0,1.0,-1.0,1.0,0.0,-1.0,1.0,-1.0,1.0]" : 0.5004955179813867,
    "[0.0,1.0,1.0,1.0,-1.0,-1.0,1.0,-1.0,0.0]" : 0.5004852155059858,
    "[1.0,-1.0,0.0,0.0,1.0,-1.0,1.0,-1.0,0.0]" : 0.5002892788688441,
    "[1.0,0.0,1.0,-1.0,0.0,0.0,1.0,-1.0,-1.0]" : 0.5002867393203135,
    "[-1.0,0.0,0.0,0.0,1.0,-1.0,1.0,1.0,0.0]" : 0.5001511920068462,
    "[0.0,-1.0,0.0,-1.0,1.0,1.0,0.0,0.0,1.0]" : 0.5001027180446487,
    "[1.0,0.0,1.0,-1.0,1.0,-1.0,0.0,-1.0,0.0]" : 0.5000758491640324,
    "[-1.0,0.0,1.0,1.0,0.0,-1.0,-1.0,1.0,1.0]" : 0.5,
    "[1.0,1.0,-1.0,-1.0,0.0,1.0,1.0,-1.0,-1.0]" : 0.5,
    "[1.0,-1.0,1.0,0.0,-1.0,1.0,-1.0,1.0,-1.0]" : 0.5,
    "[1.0,-1.0,1.0,-1.0,0.0,1.0,-1.0,1.0,0.0]" : 0.5,
    "[-1.0,1.0,-1.0,1.0,0.0,-1.0,1.0,-1.0,1.0]" : 0.5,
    "[-1.0,-1.0,1.0,1.0,1.0,0.0,-1.0,-1.0,1.0]" : 0.5,
    "[1.0,0.0,0.0,-1.0,-1.0,1.0,1.0,1.0,-1.0]" : 0.5,
    "[-1.0,0.0,1.0,1.0,1.0,-1.0,-1.0,-1.0,1.0]" : 0.5,
    "[0.0,-1.0,1.0,1.0,1.0,-1.0,-1.0,-1.0,1.0]" : 0.5,
    "[1.0,-1.0,1.0,-1.0,1.0,-1.0,0.0,1.0,-1.0]" : 0.5,
    "[0.0,1.0,-1.0,-1.0,1.0,-1.0,1.0,-1.0,1.0]" : 0.5,
    "[-1.0,0.0,1.0,1.0,1.0,-1.0,-1.0,1.0,-1.0]" : 0.5,
    "[-1.0,1.0,-1.0,-1.0,0.0,1.0,1.0,-1.0,1.0]" : 0.5,
    "[1.0,-1.0,-1.0,-1.0,-1.0,1.0,1.0,1.0,0.0]" : 0.5,
    "[-1.0,1.0,1.0,1.0,-1.0,-1.0,0.0,-1.0,1.0]" : 0.5,
    "[-1.0,1.0,0.0,1.0,1.0,-1.0,-1.0,-1.0,1.0]" : 0.5,
    "[1.0,-1.0,1.0,-1.0,1.0,-1.0,-1.0,1.0,0.0]" : 0.5,
    "[0.0,1.0,-1.0,-1.0,-1.0,1.0,1.0,-1.0,1.0]" : 0.5,
    "[-1.0,0.0,1.0,1.0,1.0,-1.0,-1.0,0.0,1.0]" : 0.5,
    "[1.0,1.0,-1.0,-1.0,-1.0,1.0,1.0,0.0,-1.0]" : 0.5,
    "[-1.0,-1.0,1.0,1.0,1.0,-1.0,-1.0,0.0,1.0]" : 0.5,
    "[1.0,0.0,1.0,1.0,-1.0,-1.0,-1.0,1.0,-1.0]" : 0.5,
    "[-1.0,1.0,-1.0,-1.0,1.0,1.0,1.0,-1.0,0.0]" : 0.5,
    "[1.0,0.0,-1.0,-1.0,0.0,1.0,1.0,1.0,-1.0]" : 0.5,
    "[-1.0,1.0,1.0,1.0,0.0,-1.0,-1.0,-1.0,1.0]" : 0.5,
    "[-1.0,1.0,-1.0,1.0,0.0,0.0,1.0,-1.0,1.0]" : 0.5,
    "[1.0,-1.0,1.0,-1.0,1.0,0.0,-1.0,1.0,-1.0]" : 0.5,
    "[-1.0,1.0,-1.0,1.0,1.0,-1.0,0.0,-1.0,1.0]" : 0.5,
    "[1.0,1.0,-1.0,-1.0,0.0,1.0,1.0,-1.0,0.0]" : 0.5,
    "[-1.0,-1.0,1.0,1.0,0.0,-1.0,-1.0,1.0,1.0]" : 0.5,
    "[1.0,1.0,-1.0,-1.0,0.0,1.0,1.0,0.0,-1.0]" : 0.5,
    "[1.0,-1.0,1.0,-1.0,0.0,1.0,0.0,1.0,-1.0]" : 0.5,
    "[1.0,-1.0,0.0,-1.0,0.0,1.0,1.0,1.0,-1.0]" : 0.5,
    "[-1.0,1.0,-1.0,-1.0,-1.0,1.0,1.0,0.0,1.0]" : 0.5,
    "[-1.0,0.0,1.0,1.0,-1.0,-1.0,-1.0,1.0,1.0]" : 0.5,
    "[-1.0,1.0,0.0,-1.0,1.0,-1.0,1.0,-1.0,1.0]" : 0.5,
    "[1.0,-1.0,-1.0,0.0,-1.0,1.0,1.0,1.0,-1.0]" : 0.5,
    "[-1.0,-1.0,1.0,1.0,1.0,-1.0,-1.0,1.0,0.0]" : 0.5,
    "[0.0,0.0,1.0,1.0,-1.0,-1.0,-1.0,1.0,1.0]" : 0.5,
    "[0.0,1.0,-1.0,-1.0,1.0,1.0,1.0,-1.0,-1.0]" : 0.5,
    "[1.0,1.0,-1.0,-1.0,-1.0,1.0,1.0,-1.0,0.0]" : 0.5,
    "[1.0,-1.0,0.0,-1.0,1.0,1.0,1.0,-1.0,-1.0]" : 0.5,
    "[0.0,-1.0,1.0,1.0,-1.0,-1.0,-1.0,1.0,1.0]" : 0.5,
    "[1.0,-1.0,0.0,-1.0,1.0,1.0,0.0,1.0,-1.0]" : 0.5,
    "[-1.0,1.0,0.0,1.0,-1.0,-1.0,1.0,-1.0,1.0]" : 0.5,
    "[-1.0,1.0,-1.0,0.0,1.0,1.0,1.0,-1.0,-1.0]" : 0.5,
    "[-1.0,1.0,1.0,1.0,0.0,-1.0,0.0,-1.0,1.0]" : 0.5,
    "[1.0,-1.0,-1.0,-1.0,1.0,1.0,0.0,1.0,-1.0]" : 0.5,
    "[-1.0,1.0,-1.0,1.0,-1.0,0.0,1.0,-1.0,1.0]" : 0.5,
    "[1.0,-1.0,-1.0,-1.0,0.0,1.0,1.0,1.0,-1.0]" : 0.5,
    "[1.0,1.0,0.0,-1.0,-1.0,1.0,1.0,-1.0,-1.0]" : 0.5,
    "[1.0,-1.0,1.0,0.0,0.0,1.0,-1.0,1.0,-1.0]" : 0.5,
    "[-1.0,1.0,-1.0,0.0,1.0,-1.0,1.0,-1.0,1.0]" : 0.5,
    "[1.0,-1.0,1.0,-1.0,-1.0,1.0,0.0,1.0,-1.0]" : 0.5,
    "[1.0,-1.0,-1.0,-1.0,1.0,1.0,-1.0,1.0,0.0]" : 0.5,
    "[1.0,-1.0,1.0,0.0,1.0,0.0,-1.0,1.0,-1.0]" : 0.5,
    "[1.0,-1.0,1.0,1.0,-1.0,-1.0,0.0,1.0,-1.0]" : 0.5,
    "[0.0,1.0,1.0,1.0,-1.0,-1.0,-1.0,-1.0,1.0]" : 0.5,
    "[1.0,-1.0,1.0,1.0,0.0,-1.0,-1.0,1.0,-1.0]" : 0.5,
    "[-1.0,-1.0,1.0,1.0,1.0,-1.0,0.0,1.0,-1.0]" : 0.5,
    "[1.0,-1.0,-1.0,-1.0,1.0,1.0,1.0,-1.0,0.0]" : 0.5,
    "[-1.0,1.0,-1.0,0.0,0.0,1.0,1.0,-1.0,1.0]" : 0.5,
    "[-1.0,1.0,-1.0,-1.0,1.0,0.0,1.0,-1.0,1.0]" : 0.5,
    "[1.0,-1.0,-1.0,0.0,1.0,1.0,-1.0,1.0,-1.0]" : 0.5,
    "[-1.0,-1.0,1.0,1.0,1.0,-1.0,0.0,-1.0,1.0]" : 0.5,
    "[0.0,1.0,-1.0,-1.0,1.0,1.0,1.0,-1.0,0.0]" : 0.5,
    "[1.0,-1.0,1.0,1.0,-1.0,-1.0,-1.0,1.0,0.0]" : 0.5,
    "[1.0,0.0,-1.0,-1.0,1.0,1.0,-1.0,1.0,-1.0]" : 0.5,
    "[0.0,-1.0,1.0,-1.0,-1.0,1.0,1.0,1.0,0.0]" : 0.5,
    "[0.0,1.0,-1.0,1.0,1.0,-1.0,-1.0,-1.0,1.0]" : 0.5,
    "[-1.0,1.0,-1.0,-1.0,1.0,1.0,1.0,0.0,-1.0]" : 0.5,
    "[-1.0,1.0,-1.0,0.0,-1.0,1.0,1.0,-1.0,1.0]" : 0.5,
    "[-1.0,1.0,1.0,1.0,-1.0,-1.0,-1.0,0.0,1.0]" : 0.5,
    "[-1.0,1.0,1.0,1.0,-1.0,-1.0,0.0,0.0,1.0]" : 0.5,
    "[-1.0,1.0,-1.0,1.0,-1.0,-1.0,1.0,0.0,1.0]" : 0.5,
    "[-1.0,1.0,0.0,1.0,1.0,-1.0,0.0,-1.0,1.0]" : 0.5,
    "[1.0,-1.0,0.0,-1.0,-1.0,1.0,1.0,1.0,-1.0]" : 0.5,
    "[-1.0,1.0,1.0,1.0,-1.0,0.0,-1.0,-1.0,1.0]" : 0.5,
    "[-1.0,1.0,-1.0,1.0,1.0,0.0,-1.0,-1.0,1.0]" : 0.5,
    "[1.0,-1.0,1.0,0.0,1.0,-1.0,-1.0,1.0,-1.0]" : 0.5,
    "[1.0,0.0,-1.0,-1.0,1.0,1.0,1.0,-1.0,-1.0]" : 0.5,
    "[-1.0,-1.0,1.0,1.0,-1.0,-1.0,0.0,1.0,1.0]" : 0.5,
    "[1.0,-1.0,1.0,-1.0,0.0,1.0,-1.0,1.0,-1.0]" : 0.5,
    "[-1.0,1.0,-1.0,1.0,1.0,-1.0,-1.0,0.0,1.0]" : 0.5,
    "[1.0,-1.0,0.0,-1.0,1.0,1.0,-1.0,1.0,-1.0]" : 0.5,
    "[1.0,-1.0,-1.0,0.0,1.0,1.0,1.0,-1.0,-1.0]" : 0.5,
    "[1.0,1.0,-1.0,-1.0,-1.0,1.0,1.0,0.0,0.0]" : 0.5,
    "[-1.0,1.0,0.0,1.0,0.0,-1.0,1.0,-1.0,1.0]" : 0.5,
    "[-1.0,1.0,-1.0,-1.0,1.0,-1.0,1.0,0.0,1.0]" : 0.5,
    "[-1.0,1.0,0.0,-1.0,-1.0,1.0,1.0,-1.0,1.0]" : 0.5,
    "[1.0,0.0,-1.0,-1.0,-1.0,1.0,1.0,1.0,-1.0]" : 0.5,
    "[-1.0,-1.0,1.0,1.0,-1.0,0.0,-1.0,1.0,1.0]" : 0.5,
    "[1.0,-1.0,-1.0,-1.0,1.0,1.0,1.0,0.0,-1.0]" : 0.5,
    "[0.0,-1.0,1.0,1.0,1.0,-1.0,-1.0,1.0,0.0]" : 0.5,
    "[1.0,-1.0,1.0,-1.0,-1.0,1.0,-1.0,1.0,0.0]" : 0.5,
    "[-1.0,1.0,0.0,1.0,-1.0,0.0,1.0,-1.0,1.0]" : 0.5,
    "[0.0,-1.0,1.0,1.0,1.0,-1.0,-1.0,1.0,-1.0]" : 0.5,
    "[-1.0,1.0,-1.0,0.0,1.0,0.0,1.0,-1.0,1.0]" : 0.5,
    "[-1.0,-1.0,1.0,1.0,1.0,0.0,-1.0,1.0,-1.0]" : 0.5,
    "[1.0,-1.0,1.0,1.0,-1.0,0.0,-1.0,1.0,-1.0]" : 0.5,
    "[1.0,-1.0,1.0,1.0,-1.0,0.0,-1.0,1.0,0.0]" : 0.5,
    "[1.0,1.0,-1.0,0.0,-1.0,1.0,1.0,-1.0,-1.0]" : 0.5,
    "[0.0,1.0,-1.0,-1.0,0.0,1.0,1.0,-1.0,1.0]" : 0.5,
    "[-1.0,1.0,1.0,1.0,0.0,-1.0,-1.0,0.0,1.0]" : 0.5,
    "[0.0,1.0,-1.0,0.0,-1.0,1.0,1.0,-1.0,1.0]" : 0.5,
    "[1.0,-1.0,1.0,1.0,0.0,-1.0,-1.0,1.0,0.0]" : 0.5,
    "[1.0,0.0,-1.0,-1.0,1.0,1.0,1.0,0.0,-1.0]" : 0.5,
    "[0.0,1.0,-1.0,1.0,-1.0,-1.0,1.0,-1.0,1.0]" : 0.5,
    "[1.0,-1.0,1.0,0.0,-1.0,1.0,0.0,1.0,-1.0]" : 0.5,
    "[1.0,-1.0,1.0,1.0,0.0,0.0,-1.0,1.0,-1.0]" : 0.5,
    "[0.0,-1.0,1.0,1.0,0.0,-1.0,-1.0,1.0,1.0]" : 0.5,
    "[-1.0,1.0,0.0,-1.0,1.0,1.0,1.0,-1.0,-1.0]" : 0.5,
    "[1.0,0.0,1.0,-1.0,-1.0,1.0,-1.0,1.0,-1.0]" : 0.5,
    "[-1.0,-1.0,1.0,1.0,0.0,-1.0,0.0,1.0,1.0]" : 0.5,
    "[1.0,0.0,1.0,-1.0,1.0,-1.0,-1.0,1.0,-1.0]" : 0.5,
    "[-1.0,0.0,0.0,-1.0,1.0,0.0,1.0,0.0,1.0]" : 0.4999255480787264,
    "[1.0,0.0,1.0,-1.0,0.0,0.0,-1.0,-1.0,1.0]" : 0.4998148395001346,
    "[0.0,1.0,1.0,-1.0,1.0,-1.0,0.0,0.0,-1.0]" : 0.49980552165451697,
    "[0.0,-1.0,0.0,1.0,1.0,0.0,1.0,0.0,-1.0]" : 0.49973608489160154,
    "[0.0,-1.0,0.0,-1.0,1.0,-1.0,1.0,0.0,1.0]" : 0.4996932235424228,
    "[0.0,-1.0,1.0,-1.0,1.0,0.0,0.0,-1.0,1.0]" : 0.4996919680263563,
    "[-1.0,-1.0,1.0,0.0,1.0,1.0,0.0,-1.0,0.0]" : 0.49968089493483164,
    "[1.0,-1.0,-1.0,0.0,0.0,-1.0,1.0,0.0,1.0]" : 0.49966680052129436,
    "[0.0,1.0,1.0,-1.0,1.0,0.0,0.0,0.0,-1.0]" : 0.4996314043547159,
    "[0.0,0.0,-1.0,-1.0,1.0,-1.0,0.0,1.0,1.0]" : 0.4996225840521993,
    "[1.0,0.0,-1.0,1.0,1.0,0.0,0.0,-1.0,0.0]" : 0.499585452377915,
    "[-1.0,0.0,0.0,-1.0,1.0,-1.0,1.0,1.0,0.0]" : 0.49955326077223666,
    "[1.0,1.0,0.0,-1.0,1.0,-1.0,-1.0,0.0,0.0]" : 0.4995419982156571,
    "[0.0,-1.0,0.0,0.0,1.0,1.0,-1.0,0.0,1.0]" : 0.49952746694679684,
    "[0.0,-1.0,0.0,0.0,1.0,1.0,-1.0,-1.0,1.0]" : 0.4994727054957314,
    "[1.0,-1.0,-1.0,1.0,1.0,0.0,0.0,-1.0,0.0]" : 0.49946714130019765,
    "[-1.0,-1.0,1.0,-1.0,0.0,0.0,1.0,0.0,1.0]" : 0.4994377264321952,
    "[1.0,0.0,1.0,-1.0,0.0,0.0,-1.0,0.0,1.0]" : 0.499391478580004,
    "[0.0,-1.0,1.0,0.0,1.0,1.0,0.0,-1.0,0.0]" : 0.4993747958245913,
    "[0.0,-1.0,0.0,1.0,1.0,0.0,1.0,-1.0,0.0]" : 0.4993663187539464,
    "[0.0,-1.0,0.0,1.0,1.0,0.0,1.0,-1.0,-1.0]" : 0.4992484671029997,
    "[1.0,0.0,1.0,-1.0,0.0,0.0,0.0,-1.0,1.0]" : 0.4992461785679602,
    "[1.0,1.0,0.0,-1.0,1.0,-1.0,0.0,0.0,0.0]" : 0.4992236586168953,
    "[1.0,-1.0,0.0,0.0,0.0,-1.0,1.0,0.0,1.0]" : 0.4991574502675771,
    "[1.0,0.0,1.0,0.0,0.0,-1.0,1.0,-1.0,0.0]" : 0.49912786056886355,
    "[0.0,0.0,-1.0,-1.0,1.0,0.0,0.0,1.0,1.0]" : 0.4991090365908695,
    "[0.0,0.0,0.0,-1.0,1.0,-1.0,0.0,1.0,1.0]" : 0.49904988657349647,
    "[0.0,-1.0,1.0,-1.0,0.0,0.0,1.0,0.0,1.0]" : 0.4989494253024274,
    "[1.0,0.0,1.0,0.0,0.0,-1.0,1.0,-1.0,-1.0]" : 0.4988653967129581,
    "[1.0,1.0,0.0,0.0,1.0,-1.0,-1.0,0.0,0.0]" : 0.49886514656131137,
    "[-1.0,-1.0,1.0,0.0,0.0,0.0,1.0,0.0,1.0]" : 0.49882964063661256,
    "[0.0,0.0,1.0,-1.0,1.0,0.0,0.0,-1.0,1.0]" : 0.4988220564766942,
    "[0.0,0.0,0.0,0.0,1.0,1.0,-1.0,-1.0,1.0]" : 0.4988163515125165,
    "[1.0,0.0,1.0,0.0,0.0,0.0,-1.0,-1.0,1.0]" : 0.498805441730437,
    "[1.0,0.0,1.0,-1.0,1.0,0.0,0.0,-1.0,0.0]" : 0.4987918652999102,
    "[1.0,-1.0,-1.0,1.0,1.0,0.0,0.0,0.0,0.0]" : 0.49876336563989204,
    "[1.0,0.0,0.0,0.0,1.0,-1.0,1.0,-1.0,0.0]" : 0.49875825423373543,
    "[-1.0,0.0,0.0,-1.0,1.0,0.0,1.0,1.0,0.0]" : 0.4987574996190266,
    "[0.0,-1.0,0.0,0.0,1.0,1.0,0.0,-1.0,1.0]" : 0.49872262402795287,
    "[1.0,-1.0,-1.0,-1.0,0.0,0.0,1.0,0.0,1.0]" : 0.49872042928577015,
    "[1.0,0.0,1.0,0.0,0.0,0.0,1.0,-1.0,-1.0]" : 0.4987006583546441,
    "[1.0,-1.0,0.0,0.0,1.0,0.0,1.0,-1.0,0.0]" : 0.4986822618361357,
    "[0.0,0.0,0.0,-1.0,1.0,-1.0,1.0,1.0,0.0]" : 0.4986816138089267,
    "[1.0,0.0,1.0,0.0,0.0,-1.0,1.0,0.0,-1.0]" : 0.4986806065795216,
    "[0.0,-1.0,0.0,-1.0,1.0,0.0,1.0,0.0,1.0]" : 0.49867334427836396,
    "[0.0,-1.0,0.0,0.0,1.0,-1.0,1.0,0.0,1.0]" : 0.4986589443029102,
    "[0.0,0.0,-1.0,0.0,1.0,-1.0,0.0,1.0,1.0]" : 0.4986581554419154,
    "[1.0,1.0,0.0,-1.0,1.0,0.0,-1.0,0.0,0.0]" : 0.49859052739921605,
