{
  "Metadata" : {
    "Game" : "TicTacToe",
    "Seed" : 1692024682116,
    "Type" : "Tabular",
    "Alpha" : 0.0010000000474974513,
    "Gamma" : 0.75,
    "Epsilon" : 0.10000000149011612,
    "Solver" : "Q_LEARNING",
    "Heuristic" : "players.heuristics.WinOnlyHeuristic",
    "FeatureVector" : "players.rl.featureVectors.TicTacToeDim1StateVector",
    "NGamesTotal" : 1638400,
    "NGamesWithTheseSettings" : 819200,
    "TimeTaken" : "00h 20m 02.5s",
    "ContinuedFrom" : {
      "Seed" : 1692024380205,
      "NGamesTotal" : 819200,
      "NGamesWithTheseSettings" : 409600,
      "ContinuedFrom" : {
        "Seed" : 1692024081400,
        "NGamesTotal" : 409600,
        "NGamesWithTheseSettings" : 409600,
        "ContinuedFrom" : null
      }
    }
  },
  "Weights" : {
    "[1.0,1.0,1.0,1.0,-1.0,-1.0,-1.0,-1.0,0.0]" : 0.9999995115694045,
    "[1.0,1.0,1.0,1.0,-1.0,-1.0,-1.0,0.0,-1.0]" : 0.9999994204320285,
    "[-1.0,0.0,0.0,-1.0,1.0,1.0,1.0,1.0,-1.0]" : 0.9999991334809418,
    "[-1.0,0.0,1.0,-1.0,1.0,1.0,1.0,-1.0,0.0]" : 0.9999900163250393,
    "[-1.0,-1.0,1.0,-1.0,1.0,1.0,1.0,0.0,0.0]" : 0.9999854420112374,
    "[1.0,0.0,0.0,1.0,-1.0,-1.0,1.0,0.0,-1.0]" : 0.9999686089069613,
    "[1.0,0.0,-1.0,1.0,-1.0,-1.0,1.0,0.0,0.0]" : 0.9999640693122285,
    "[1.0,0.0,0.0,1.0,-1.0,-1.0,1.0,-1.0,0.0]" : 0.9999621883497667,
    "[1.0,-1.0,0.0,1.0,-1.0,-1.0,1.0,0.0,0.0]" : 0.9999596879961548,
    "[-1.0,0.0,0.0,1.0,1.0,1.0,0.0,0.0,-1.0]" : 0.9999505604176977,
    "[-1.0,0.0,0.0,1.0,1.0,1.0,0.0,-1.0,0.0]" : 0.9999491558345645,
    "[-1.0,0.0,-1.0,1.0,1.0,1.0,0.0,0.0,0.0]" : 0.9999477636357496,
    "[-1.0,0.0,0.0,1.0,1.0,1.0,-1.0,0.0,0.0]" : 0.9999437494446624,
    "[-1.0,-1.0,0.0,1.0,1.0,1.0,0.0,0.0,0.0]" : 0.9999398495189894,
    "[0.0,-1.0,0.0,-1.0,1.0,1.0,1.0,-1.0,1.0]" : 0.997776906853478,
    "[1.0,0.0,1.0,-1.0,1.0,-1.0,-1.0,1.0,0.0]" : 0.9948224997766453,
    "[0.0,1.0,-1.0,-1.0,1.0,-1.0,1.0,0.0,1.0]" : 0.9936119603488506,
    "[1.0,-1.0,0.0,0.0,1.0,1.0,1.0,-1.0,-1.0]" : 0.9902170546442661,
    "[-1.0,-1.0,1.0,0.0,1.0,1.0,0.0,1.0,-1.0]" : 0.9811791019836759,
    "[-1.0,1.0,1.0,1.0,1.0,-1.0,0.0,0.0,-1.0]" : 0.9773748997795241,
    "[0.0,0.0,-1.0,1.0,1.0,-1.0,-1.0,1.0,1.0]" : 0.9721128921203781,
    "[-1.0,1.0,0.0,1.0,1.0,0.0,1.0,-1.0,-1.0]" : 0.9699698605080855,
    "[1.0,-1.0,-1.0,1.0,1.0,0.0,-1.0,1.0,0.0]" : 0.9691475847512344,
    "[1.0,1.0,-1.0,-1.0,1.0,1.0,-1.0,0.0,0.0]" : 0.9687749379895167,
    "[1.0,0.0,1.0,-1.0,0.0,1.0,1.0,-1.0,-1.0]" : 0.9683977902638422,
    "[0.0,1.0,-1.0,0.0,1.0,1.0,-1.0,-1.0,1.0]" : 0.9681119430330851,
    "[0.0,-1.0,0.0,1.0,1.0,-1.0,1.0,-1.0,1.0]" : 0.9669093731997822,
    "[1.0,1.0,-1.0,0.0,0.0,-1.0,1.0,-1.0,1.0]" : 0.9664426112766371,
    "[1.0,-1.0,0.0,-1.0,1.0,-1.0,1.0,1.0,0.0]" : 0.9657986000782067,
    "[1.0,-1.0,1.0,-1.0,0.0,0.0,-1.0,1.0,1.0]" : 0.9646151561166051,
    "[0.0,-1.0,1.0,-1.0,1.0,-1.0,0.0,1.0,1.0]" : 0.9646151561166051,
    "[1.0,-1.0,1.0,1.0,1.0,-1.0,0.0,-1.0,0.0]" : 0.9642950943323412,
    "[1.0,1.0,0.0,-1.0,1.0,-1.0,1.0,-1.0,0.0]" : 0.9642593536843279,
    "[1.0,-1.0,1.0,0.0,0.0,-1.0,1.0,1.0,-1.0]" : 0.9641160329697118,
    "[1.0,0.0,1.0,1.0,0.0,-1.0,-1.0,-1.0,1.0]" : 0.9628000056784948,
    "[-1.0,-1.0,1.0,1.0,0.0,-1.0,1.0,0.0,1.0]" : 0.9602606598111669,
    "[-1.0,1.0,1.0,-1.0,0.0,0.0,1.0,-1.0,1.0]" : 0.9592541439164771,
    "[0.0,-1.0,1.0,1.0,1.0,0.0,-1.0,-1.0,1.0]" : 0.9507726818996979,
    "[1.0,-1.0,-1.0,-1.0,0.0,1.0,1.0,0.0,1.0]" : 0.9506740793796968,
    "[-1.0,1.0,-1.0,0.0,1.0,1.0,1.0,0.0,-1.0]" : 0.946830376592311,
    "[-1.0,0.0,1.0,1.0,1.0,0.0,-1.0,1.0,-1.0]" : 0.9464030990802778,
    "[1.0,-1.0,1.0,-1.0,1.0,0.0,1.0,0.0,-1.0]" : 0.9463494485262558,
    "[1.0,-1.0,1.0,0.0,1.0,-1.0,-1.0,0.0,1.0]" : 0.9442146515131798,
    "[1.0,0.0,-1.0,-1.0,1.0,0.0,1.0,-1.0,1.0]" : 0.9432009119665694,
    "[-1.0,1.0,0.0,1.0,0.0,1.0,-1.0,-1.0,1.0]" : 0.9430301733309709,
    "[0.0,1.0,-1.0,1.0,-1.0,-1.0,1.0,0.0,1.0]" : 0.9424573291222457,
    "[1.0,0.0,-1.0,-1.0,1.0,1.0,0.0,-1.0,1.0]" : 0.9419368461162123,
    "[0.0,1.0,1.0,1.0,-1.0,0.0,-1.0,-1.0,1.0]" : 0.940466225642844,
    "[-1.0,1.0,0.0,-1.0,-1.0,1.0,1.0,0.0,1.0]" : 0.940346979248701,
    "[-1.0,1.0,-1.0,1.0,1.0,0.0,-1.0,0.0,1.0]" : 0.9397471549299632,
    "[1.0,0.0,1.0,-1.0,-1.0,1.0,-1.0,1.0,0.0]" : 0.9393236928406969,
    "[1.0,0.0,1.0,1.0,-1.0,-1.0,0.0,1.0,-1.0]" : 0.9387748655745387,
    "[1.0,1.0,0.0,0.0,-1.0,1.0,1.0,-1.0,-1.0]" : 0.9379733393321914,
    "[1.0,-1.0,-1.0,0.0,1.0,1.0,1.0,-1.0,0.0]" : 0.9377246111683624,
    "[1.0,-1.0,-1.0,0.0,-1.0,1.0,1.0,1.0,0.0]" : 0.9375374107169359,
    "[-1.0,0.0,1.0,-1.0,1.0,1.0,0.0,-1.0,1.0]" : 0.935376067196435,
    "[-1.0,1.0,-1.0,1.0,0.0,-1.0,0.0,1.0,1.0]" : 0.9348567414713985,
    "[1.0,0.0,-1.0,0.0,1.0,1.0,-1.0,1.0,-1.0]" : 0.9326700382378131,
    "[1.0,-1.0,-1.0,1.0,0.0,1.0,0.0,1.0,-1.0]" : 0.9326700382378131,
    "[1.0,1.0,0.0,-1.0,0.0,1.0,-1.0,1.0,-1.0]" : 0.9321968375740953,
    "[-1.0,1.0,-1.0,-1.0,0.0,1.0,1.0,1.0,0.0]" : 0.9319930205790928,
    "[0.0,1.0,-1.0,1.0,0.0,1.0,1.0,-1.0,-1.0]" : 0.9306184941231685,
    "[0.0,1.0,1.0,1.0,0.0,-1.0,1.0,-1.0,-1.0]" : 0.9283612335529476,
    "[-1.0,-1.0,1.0,-1.0,0.0,1.0,1.0,1.0,0.0]" : 0.9263259695331619,
    "[0.0,0.0,1.0,-1.0,1.0,1.0,-1.0,-1.0,1.0]" : 0.9252867558502612,
    "[1.0,-1.0,-1.0,1.0,0.0,-1.0,0.0,1.0,1.0]" : 0.9249871542300708,
    "[1.0,1.0,0.0,1.0,-1.0,-1.0,0.0,-1.0,1.0]" : 0.9223138579756488,
    "[1.0,-1.0,0.0,-1.0,-1.0,1.0,0.0,1.0,1.0]" : 0.9215327066336338,
    "[-1.0,-1.0,1.0,1.0,-1.0,0.0,0.0,1.0,1.0]" : 0.9202664939925481,
    "[1.0,1.0,0.0,-1.0,0.0,1.0,-1.0,-1.0,1.0]" : 0.9175075386153533,
    "[-1.0,1.0,0.0,-1.0,1.0,1.0,1.0,0.0,-1.0]" : 0.9168446192376538,
    "[0.0,0.0,1.0,-1.0,1.0,-1.0,1.0,0.0,0.0]" : 0.9106334060843683,
    "[1.0,-1.0,0.0,1.0,1.0,-1.0,1.0,0.0,-1.0]" : 0.9068913158001977,
    "[1.0,1.0,1.0,0.0,1.0,-1.0,-1.0,-1.0,0.0]" : 0.9048191785151872,
    "[0.0,-1.0,-1.0,-1.0,1.0,0.0,1.0,1.0,1.0]" : 0.9019190186304407,
    "[0.0,1.0,0.0,-1.0,1.0,-1.0,1.0,-1.0,1.0]" : 0.9011308280243866,
    "[-1.0,1.0,1.0,-1.0,0.0,1.0,1.0,-1.0,0.0]" : 0.9005355311623913,
    "[0.0,1.0,1.0,-1.0,0.0,1.0,1.0,-1.0,-1.0]" : 0.8912724711665344,
    "[-1.0,-1.0,1.0,1.0,0.0,-1.0,1.0,1.0,0.0]" : 0.8892966585423691,
    "[0.0,-1.0,1.0,1.0,0.0,-1.0,1.0,1.0,-1.0]" : 0.8881835119567393,
    "[1.0,-1.0,-1.0,1.0,1.0,0.0,1.0,0.0,-1.0]" : 0.8876227483210692,
    "[1.0,1.0,0.0,1.0,0.0,-1.0,-1.0,-1.0,1.0]" : 0.8860376039105964,
    "[-1.0,0.0,-1.0,-1.0,1.0,0.0,1.0,1.0,1.0]" : 0.8848916868097502,
    "[0.0,1.0,-1.0,1.0,1.0,0.0,-1.0,-1.0,1.0]" : 0.8847764632675449,
    "[1.0,1.0,1.0,0.0,1.0,-1.0,-1.0,0.0,-1.0]" : 0.8838505130172446,
    "[-1.0,1.0,0.0,0.0,1.0,1.0,1.0,-1.0,-1.0]" : 0.8824476170089325,
    "[0.0,0.0,0.0,1.0,1.0,1.0,-1.0,-1.0,0.0]" : 0.879711195473469,
    "[-1.0,1.0,0.0,1.0,1.0,-1.0,-1.0,1.0,0.0]" : 0.8769110746523829,
    "[0.0,-1.0,1.0,1.0,1.0,-1.0,0.0,-1.0,1.0]" : 0.8762937793456124,
    "[1.0,0.0,-1.0,-1.0,1.0,1.0,-1.0,1.0,0.0]" : 0.8761699492890198,
    "[1.0,-1.0,1.0,-1.0,1.0,-1.0,0.0,1.0,0.0]" : 0.875299661223335,
    "[1.0,-1.0,1.0,0.0,1.0,-1.0,-1.0,-1.0,1.0]" : 0.8729064948395535,
    "[1.0,-1.0,1.0,-1.0,1.0,-1.0,-1.0,0.0,1.0]" : 0.8726519260275973,
    "[-1.0,0.0,1.0,0.0,1.0,-1.0,1.0,-1.0,1.0]" : 0.8695570343286945,
    "[1.0,-1.0,1.0,-1.0,1.0,0.0,-1.0,-1.0,1.0]" : 0.8671866055966876,
    "[1.0,1.0,-1.0,1.0,0.0,-1.0,0.0,-1.0,1.0]" : 0.8665205417342412,
    "[1.0,-1.0,0.0,-1.0,0.0,1.0,-1.0,1.0,1.0]" : 0.8658511375380064,
    "[-1.0,-1.0,1.0,0.0,1.0,-1.0,1.0,-1.0,1.0]" : 0.8638227150071758,
    "[1.0,-1.0,-1.0,-1.0,1.0,0.0,1.0,-1.0,1.0]" : 0.8630027838920321,
    "[-1.0,0.0,1.0,-1.0,1.0,-1.0,1.0,-1.0,1.0]" : 0.8628656495350536,
    "[1.0,-1.0,1.0,-1.0,1.0,-1.0,1.0,0.0,-1.0]" : 0.8619018577258776,
    "[1.0,-1.0,-1.0,-1.0,0.0,1.0,0.0,1.0,1.0]" : 0.8619018577258776,
    "[1.0,0.0,1.0,-1.0,1.0,-1.0,-1.0,-1.0,1.0]" : 0.8617636213406523,
    "[1.0,0.0,-1.0,-1.0,1.0,-1.0,1.0,-1.0,1.0]" : 0.8596733927698919,
    "[1.0,-1.0,1.0,-1.0,1.0,0.0,1.0,-1.0,-1.0]" : 0.858687165510279,
    "[-1.0,0.0,1.0,-1.0,1.0,0.0,1.0,0.0,0.0]" : 0.858687165510279,
    "[-1.0,0.0,1.0,0.0,1.0,-1.0,1.0,0.0,0.0]" : 0.8536510804602362,
    "[1.0,-1.0,1.0,0.0,1.0,-1.0,1.0,-1.0,-1.0]" : 0.8533579429743255,
    "[-1.0,0.0,1.0,1.0,1.0,-1.0,0.0,1.0,-1.0]" : 0.8530642183328287,
    "[1.0,-1.0,0.0,-1.0,1.0,1.0,1.0,-1.0,0.0]" : 0.8524750028764204,
    "[-1.0,-1.0,1.0,-1.0,1.0,-1.0,1.0,0.0,1.0]" : 0.8500944184542985,
    "[0.0,1.0,-1.0,1.0,1.0,-1.0,-1.0,0.0,1.0]" : 0.8500944184542985,
    "[0.0,0.0,0.0,1.0,1.0,1.0,0.0,-1.0,-1.0]" : 0.8499443628099812,
    "[-1.0,-1.0,1.0,1.0,1.0,0.0,0.0,1.0,-1.0]" : 0.8493426366698241,
    "[0.0,0.0,-1.0,1.0,1.0,1.0,0.0,-1.0,0.0]" : 0.8469115058159705,
    "[1.0,-1.0,-1.0,0.0,1.0,0.0,0.0,0.0,1.0]" : 0.8459897513562705,
    "[0.0,-1.0,0.0,1.0,1.0,1.0,0.0,-1.0,0.0]" : 0.845835586935884,
    "[1.0,-1.0,0.0,0.0,1.0,0.0,0.0,-1.0,1.0]" : 0.844752106406944,
    "[-1.0,1.0,0.0,0.0,1.0,0.0,0.0,1.0,-1.0]" : 0.8414557616178041,
    "[0.0,0.0,1.0,-1.0,1.0,0.0,1.0,0.0,-1.0]" : 0.8397012654891989,
    "[0.0,0.0,1.0,-1.0,1.0,0.0,1.0,-1.0,0.0]" : 0.8390584643216086,
    "[1.0,-1.0,-1.0,0.0,1.0,1.0,-1.0,1.0,0.0]" : 0.8385746724305015,
    "[0.0,-1.0,1.0,-1.0,1.0,0.0,1.0,0.0,0.0]" : 0.8372774390118221,
    "[1.0,-1.0,0.0,0.0,1.0,0.0,-1.0,0.0,1.0]" : 0.8351471635281024,
    "[1.0,-1.0,0.0,-1.0,1.0,0.0,0.0,0.0,1.0]" : 0.8338223862341343,
    "[-1.0,0.0,1.0,-1.0,1.0,1.0,1.0,0.0,-1.0]" : 0.8333228546391077,
    "[1.0,-1.0,0.0,0.0,1.0,-1.0,0.0,0.0,1.0]" : 0.8321514335696893,
    "[0.0,0.0,1.0,0.0,1.0,-1.0,1.0,0.0,-1.0]" : 0.8316468790739799,
    "[-1.0,0.0,1.0,-1.0,1.0,-1.0,1.0,0.0,1.0]" : 0.8304636791065934,
    "[1.0,0.0,1.0,-1.0,1.0,-1.0,1.0,0.0,-1.0]" : 0.8302939730716044,
    "[0.0,0.0,-1.0,1.0,1.0,1.0,-1.0,0.0,0.0]" : 0.8299540512038234,
    "[0.0,0.0,1.0,0.0,1.0,-1.0,1.0,-1.0,0.0]" : 0.8296134484711476,
    "[0.0,-1.0,1.0,0.0,1.0,-1.0,1.0,0.0,0.0]" : 0.8273828401813492,
    "[0.0,-1.0,1.0,-1.0,1.0,0.0,1.0,1.0,-1.0]" : 0.8176179406009938,
    "[-1.0,-1.0,1.0,-1.0,1.0,1.0,0.0,0.0,1.0]" : 0.8155996482908613,
    "[-1.0,1.0,-1.0,0.0,1.0,0.0,0.0,1.0,0.0]" : 0.811684315693401,
    "[1.0,-1.0,1.0,1.0,-1.0,-1.0,1.0,0.0,-1.0]" : 0.8092189889246848,
    "[-1.0,1.0,0.0,0.0,1.0,0.0,-1.0,1.0,0.0]" : 0.8076858496897044,
    "[-1.0,-1.0,1.0,1.0,0.0,1.0,-1.0,1.0,0.0]" : 0.803602485126222,
    "[0.0,1.0,0.0,0.0,1.0,0.0,-1.0,1.0,-1.0]" : 0.8022221867871401,
    "[1.0,0.0,1.0,-1.0,1.0,0.0,1.0,-1.0,-1.0]" : 0.8000335206385195,
    "[1.0,-1.0,1.0,-1.0,-1.0,1.0,-1.0,0.0,1.0]" : 0.7970098907343701,
    "[0.0,0.0,-1.0,1.0,1.0,1.0,0.0,0.0,-1.0]" : 0.7955832590845272,
    "[-1.0,-1.0,1.0,0.0,1.0,-1.0,1.0,0.0,1.0]" : 0.7953786377125207,
    "[1.0,1.0,1.0,0.0,-1.0,-1.0,0.0,-1.0,0.0]" : 0.7947635438189234,
    "[0.0,0.0,0.0,1.0,1.0,1.0,-1.0,0.0,-1.0]" : 0.7943524543556645,
    "[0.0,1.0,-1.0,0.0,1.0,0.0,0.0,1.0,-1.0]" : 0.7918685680433086,
    "[-1.0,1.0,0.0,-1.0,1.0,0.0,0.0,1.0,0.0]" : 0.7918685680433086,
    "[-1.0,0.0,1.0,1.0,1.0,-1.0,1.0,-1.0,0.0]" : 0.7914516799317008,
    "[-1.0,1.0,1.0,0.0,1.0,-1.0,1.0,-1.0,0.0]" : 0.7897757604568862,
    "[0.0,-1.0,1.0,-1.0,1.0,-1.0,1.0,-1.0,1.0]" : 0.7893546804431018,
    "[1.0,0.0,-1.0,0.0,1.0,-1.0,1.0,-1.0,1.0]" : 0.7893546804431018,
    "[-1.0,1.0,-1.0,-1.0,1.0,1.0,0.0,1.0,0.0]" : 0.7887214784727608,
    "[1.0,1.0,1.0,-1.0,1.0,0.0,-1.0,-1.0,0.0]" : 0.7885099884511667,
    "[-1.0,-1.0,0.0,-1.0,1.0,0.0,1.0,1.0,1.0]" : 0.7850972120624589,
    "[1.0,-1.0,1.0,-1.0,1.0,-1.0,1.0,-1.0,0.0]" : 0.7842354475362057,
    "[-1.0,1.0,-1.0,1.0,1.0,1.0,0.0,-1.0,0.0]" : 0.7838032702529243,
    "[-1.0,1.0,0.0,0.0,1.0,-1.0,0.0,1.0,0.0]" : 0.7825015375467592,
    "[1.0,1.0,1.0,0.0,1.0,-1.0,0.0,-1.0,-1.0]" : 0.7807536936473299,
    "[-1.0,-1.0,1.0,-1.0,1.0,1.0,0.0,-1.0,1.0]" : 0.7805342278647707,
    "[0.0,-1.0,-1.0,0.0,1.0,-1.0,1.0,1.0,1.0]" : 0.7803145423967329,
    "[-1.0,0.0,1.0,0.0,1.0,1.0,-1.0,-1.0,1.0]" : 0.7800946370233113,
    "[-1.0,0.0,1.0,-1.0,-1.0,1.0,1.0,-1.0,1.0]" : 0.7794335992683861,
    "[0.0,-1.0,1.0,-1.0,1.0,1.0,-1.0,0.0,1.0]" : 0.7787705744272546,
    "[0.0,1.0,0.0,-1.0,1.0,0.0,0.0,1.0,-1.0]" : 0.7785491235402765,
    "[1.0,1.0,1.0,0.0,-1.0,-1.0,-1.0,-1.0,1.0]" : 0.7776611010466078,
    "[1.0,1.0,1.0,-1.0,1.0,-1.0,0.0,-1.0,-1.0]" : 0.7765460636177827,
    "[-1.0,-1.0,1.0,1.0,1.0,1.0,-1.0,0.0,0.0]" : 0.7765460636177827,
    "[0.0,1.0,-1.0,-1.0,1.0,1.0,0.0,1.0,-1.0]" : 0.7763223859931517,
    "[0.0,1.0,1.0,1.0,0.0,-1.0,-1.0,1.0,-1.0]" : 0.7756500088133109,
    "[1.0,1.0,1.0,0.0,-1.0,-1.0,-1.0,0.0,1.0]" : 0.7752006348610647,
    "[0.0,-1.0,-1.0,-1.0,1.0,-1.0,1.0,1.0,1.0]" : 0.774299184860066,
    "[1.0,0.0,0.0,1.0,1.0,-1.0,1.0,-1.0,-1.0]" : 0.7740732581074425,
    "[1.0,-1.0,-1.0,1.0,1.0,-1.0,1.0,-1.0,0.0]" : 0.7738471052019028,
    "[1.0,-1.0,-1.0,-1.0,-1.0,0.0,1.0,1.0,1.0]" : 0.7736207259170674,
    "[1.0,0.0,1.0,-1.0,1.0,-1.0,-1.0,0.0,1.0]" : 0.7733941200263306,
    "[1.0,0.0,-1.0,1.0,-1.0,0.0,1.0,-1.0,1.0]" : 0.7731672873028594,
    "[1.0,-1.0,-1.0,1.0,1.0,-1.0,1.0,0.0,0.0]" : 0.7729402275195942,
    "[0.0,-1.0,-1.0,1.0,1.0,1.0,0.0,0.0,0.0]" : 0.7729402275195942,
    "[1.0,-1.0,0.0,0.0,1.0,-1.0,-1.0,1.0,1.0]" : 0.7724854258643058,
    "[-1.0,-1.0,1.0,0.0,1.0,1.0,0.0,-1.0,1.0]" : 0.7722576835370256,
    "[1.0,1.0,1.0,-1.0,-1.0,0.0,1.0,0.0,-1.0]" : 0.7715730878203122,
    "[0.0,-1.0,1.0,0.0,-1.0,1.0,-1.0,1.0,1.0]" : 0.7713444322416934,
    "[-1.0,0.0,1.0,0.0,-1.0,-1.0,1.0,1.0,1.0]" : 0.7711155477786005,
    "[-1.0,1.0,1.0,0.0,-1.0,1.0,0.0,-1.0,1.0]" : 0.7704275187901953,
    "[-1.0,1.0,-1.0,1.0,1.0,-1.0,0.0,1.0,0.0]" : 0.7704275187901953,
    "[1.0,-1.0,0.0,1.0,-1.0,0.0,1.0,1.0,-1.0]" : 0.7701977164957761,
    "[-1.0,0.0,0.0,1.0,-1.0,-1.0,1.0,1.0,1.0]" : 0.769737421579662,
    "[1.0,1.0,-1.0,-1.0,1.0,0.0,0.0,-1.0,1.0]" : 0.7695069284972114,
    "[1.0,-1.0,0.0,1.0,1.0,-1.0,-1.0,0.0,1.0]" : 0.7695069284972114,
    "[-1.0,0.0,1.0,1.0,1.0,1.0,0.0,-1.0,-1.0]" : 0.7685826466185326,
    "[0.0,-1.0,1.0,-1.0,1.0,1.0,1.0,0.0,-1.0]" : 0.7667229488313961,
    "[1.0,0.0,1.0,-1.0,1.0,-1.0,1.0,-1.0,-1.0]" : 0.7655530561829961,
    "[-1.0,0.0,1.0,1.0,1.0,-1.0,1.0,-1.0,-1.0]" : 0.7648483062883503,
    "[1.0,-1.0,1.0,1.0,-1.0,0.0,1.0,0.0,-1.0]" : 0.7643772964816566,
    "[1.0,1.0,1.0,-1.0,-1.0,0.0,1.0,-1.0,-1.0]" : 0.7641414379083623,
    "[0.0,0.0,-1.0,0.0,-1.0,0.0,1.0,1.0,1.0]" : 0.7639053432403888,
    "[-1.0,0.0,1.0,0.0,-1.0,1.0,-1.0,1.0,1.0]" : 0.7636690122414052,
    "[0.0,-1.0,0.0,1.0,1.0,1.0,-1.0,1.0,-1.0]" : 0.7634324446748436,
    "[-1.0,-1.0,1.0,-1.0,1.0,1.0,1.0,0.0,-1.0]" : 0.7631956403038999,
    "[1.0,-1.0,1.0,0.0,1.0,0.0,1.0,-1.0,-1.0]" : 0.7631956403038999,
    "[1.0,-1.0,-1.0,-1.0,1.0,-1.0,1.0,0.0,1.0]" : 0.7627213202004628,
    "[-1.0,0.0,1.0,0.0,1.0,0.0,1.0,-1.0,0.0]" : 0.7624838039931745,
    "[-1.0,1.0,0.0,0.0,1.0,-1.0,1.0,1.0,-1.0]" : 0.7622460500319137,
    "[-1.0,0.0,-1.0,1.0,1.0,1.0,1.0,-1.0,-1.0]" : 0.7620080580786884,
    "[-1.0,-1.0,1.0,0.0,-1.0,-1.0,1.0,1.0,1.0]" : 0.7615313592431849,
    "[-1.0,0.0,1.0,0.0,1.0,0.0,1.0,0.0,-1.0]" : 0.7615313592431849,
    "[-1.0,-1.0,1.0,-1.0,1.0,0.0,1.0,1.0,-1.0]" : 0.7612926518837306,
    "[1.0,-1.0,-1.0,1.0,1.0,-1.0,-1.0,0.0,1.0]" : 0.76033543058969,
    "[1.0,-1.0,1.0,0.0,-1.0,1.0,-1.0,0.0,1.0]" : 0.7593743708188994,
    "[1.0,1.0,1.0,1.0,-1.0,-1.0,-1.0,0.0,0.0]" : 0.7588923966970157,
    "[1.0,-1.0,-1.0,0.0,1.0,-1.0,-1.0,1.0,1.0]" : 0.7584094571789896,
    "[-1.0,-1.0,0.0,1.0,1.0,1.0,-1.0,0.0,1.0]" : 0.7581676247922954,
    "[-1.0,1.0,1.0,0.0,1.0,-1.0,-1.0,1.0,0.0]" : 0.7579255503311286,
    "[0.0,1.0,-1.0,0.0,1.0,0.0,-1.0,1.0,0.0]" : 0.7571978720764112,
    "[0.0,-1.0,1.0,1.0,1.0,1.0,-1.0,0.0,-1.0]" : 0.756954826891759,
    "[1.0,0.0,-1.0,1.0,-1.0,0.0,1.0,1.0,-1.0]" : 0.756711538418622,
    "[1.0,1.0,1.0,0.0,-1.0,-1.0,-1.0,0.0,0.0]" : 0.756711538418622,
    "[1.0,0.0,-1.0,-1.0,1.0,1.0,-1.0,-1.0,1.0]" : 0.7559802108317636,
    "[1.0,-1.0,-1.0,-1.0,1.0,1.0,0.0,0.0,1.0]" : 0.7559802108317636,
    "[1.0,0.0,-1.0,1.0,-1.0,-1.0,1.0,-1.0,1.0]" : 0.7554914381935085,
    "[-1.0,1.0,1.0,0.0,1.0,-1.0,1.0,-1.0,-1.0]" : 0.7554914381935085,
    "[1.0,0.0,-1.0,1.0,0.0,0.0,1.0,0.0,-1.0]" : 0.7554914381935085,
    "[-1.0,0.0,1.0,1.0,1.0,1.0,-1.0,-1.0,0.0]" : 0.7554914381935085,
    "[1.0,-1.0,-1.0,0.0,1.0,-1.0,1.0,-1.0,1.0]" : 0.7550016865416549,
    "[1.0,1.0,-1.0,-1.0,1.0,0.0,-1.0,-1.0,1.0]" : 0.7545109539152345,
    "[1.0,0.0,0.0,1.0,-1.0,0.0,1.0,0.0,-1.0]" : 0.7540192383493513,
    "[-1.0,1.0,1.0,0.0,-1.0,1.0,-1.0,0.0,1.0]" : 0.7537730113490051,
    "[-1.0,0.0,0.0,0.0,-1.0,0.0,1.0,1.0,1.0]" : 0.7537730113490051,
    "[-1.0,0.0,-1.0,1.0,-1.0,0.0,1.0,1.0,1.0]" : 0.7535265378751734,
    "[-1.0,-1.0,1.0,0.0,1.0,0.0,1.0,0.0,0.0]" : 0.7532798176811359,
    "[-1.0,0.0,-1.0,0.0,0.0,0.0,1.0,1.0,1.0]" : 0.7527856361443278,
    "[1.0,1.0,1.0,0.0,-1.0,0.0,-1.0,1.0,-1.0]" : 0.7525381743068809,
    "[-1.0,0.0,1.0,1.0,-1.0,1.0,-1.0,0.0,1.0]" : 0.7520425072553532,
    "[0.0,1.0,0.0,0.0,1.0,-1.0,0.0,1.0,-1.0]" : 0.7520425072553532,
    "[1.0,1.0,1.0,0.0,-1.0,-1.0,0.0,0.0,-1.0]" : 0.7520425072553532,
    "[-1.0,0.0,1.0,1.0,1.0,1.0,-1.0,0.0,-1.0]" : 0.7517943015451092,
    "[0.0,-1.0,1.0,0.0,-1.0,1.0,0.0,0.0,1.0]" : 0.7517943015451092,
    "[0.0,0.0,0.0,0.0,-1.0,-1.0,1.0,1.0,1.0]" : 0.751545847380689,
    "[1.0,1.0,1.0,-1.0,-1.0,1.0,0.0,0.0,-1.0]" : 0.7512971445133896,
    "[0.0,0.0,1.0,0.0,-1.0,1.0,-1.0,0.0,1.0]" : 0.7512971445133896,
    "[1.0,-1.0,1.0,0.0,1.0,0.0,-1.0,-1.0,1.0]" : 0.7510481926942593,
    "[-1.0,0.0,-1.0,1.0,1.0,1.0,-1.0,-1.0,1.0]" : 0.7505495412034521,
    "[0.0,0.0,-1.0,-1.0,-1.0,1.0,1.0,1.0,1.0]" : 0.7500498909116643,
    "[1.0,-1.0,-1.0,1.0,1.0,1.0,-1.0,0.0,-1.0]" : 0.7500498909116643,
    "[0.0,-1.0,0.0,1.0,1.0,1.0,-1.0,0.0,0.0]" : 0.7497996905903708,
    "[1.0,1.0,-1.0,1.0,-1.0,0.0,1.0,-1.0,0.0]" : 0.7495492398182932,
    "[0.0,0.0,0.0,-1.0,-1.0,0.0,1.0,1.0,1.0]" : 0.7495492398182932,
    "[-1.0,0.0,-1.0,0.0,-1.0,1.0,1.0,1.0,1.0]" : 0.748796382289087,
    "[1.0,1.0,1.0,0.0,-1.0,0.0,-1.0,-1.0,0.0]" : 0.7485449272043478,
    "[1.0,1.0,1.0,0.0,0.0,-1.0,-1.0,1.0,-1.0]" : 0.7477890507012221,
    "[1.0,1.0,1.0,1.0,-1.0,0.0,-1.0,0.0,-1.0]" : 0.7475365872765073,
    "[1.0,1.0,1.0,0.0,-1.0,-1.0,0.0,0.0,0.0]" : 0.7472838711356395,
    "[-1.0,1.0,-1.0,-1.0,1.0,0.0,1.0,1.0,-1.0]" : 0.7467776796933158,
    "[-1.0,0.0,1.0,0.0,-1.0,1.0,0.0,0.0,1.0]" : 0.7462704743474574,
    "[1.0,-1.0,0.0,1.0,-1.0,0.0,1.0,0.0,0.0]" : 0.7462704743474574,
    "[-1.0,1.0,-1.0,0.0,1.0,-1.0,1.0,1.0,0.0]" : 0.74601649082622,
    "[1.0,-1.0,-1.0,1.0,-1.0,0.0,1.0,0.0,1.0]" : 0.7457622530672116,
    "[-1.0,0.0,1.0,0.0,0.0,1.0,-1.0,0.0,1.0]" : 0.7455077608159397,
    "[0.0,-1.0,1.0,0.0,0.0,1.0,-1.0,0.0,1.0]" : 0.7452530138176575,
    "[1.0,0.0,-1.0,1.0,1.0,1.0,-1.0,-1.0,0.0]" : 0.7452530138176575,
    "[-1.0,1.0,-1.0,0.0,-1.0,0.0,1.0,1.0,1.0]" : 0.7449980118173629,
    "[1.0,0.0,-1.0,-1.0,-1.0,0.0,1.0,1.0,1.0]" : 0.7449980118173629,
    "[1.0,0.0,-1.0,1.0,1.0,1.0,-1.0,0.0,-1.0]" : 0.7444872417894519,
    "[1.0,0.0,-1.0,1.0,-1.0,1.0,1.0,0.0,-1.0]" : 0.7439754486870808,
    "[-1.0,1.0,-1.0,0.0,1.0,0.0,1.0,1.0,-1.0]" : 0.743462630461027,
    "[1.0,1.0,1.0,0.0,-1.0,0.0,0.0,0.0,-1.0]" : 0.743462630461027,
    "[1.0,0.0,-1.0,1.0,-1.0,0.0,1.0,0.0,0.0]" : 0.743205836285115,
    "[1.0,0.0,-1.0,0.0,-1.0,-1.0,1.0,1.0,1.0]" : 0.7426914765222644,
    "[1.0,1.0,1.0,0.0,-1.0,1.0,-1.0,0.0,-1.0]" : 0.7424339104204511,
    "[-1.0,-1.0,1.0,0.0,1.0,1.0,-1.0,-1.0,1.0]" : 0.7424339104204511,
    "[1.0,1.0,-1.0,1.0,-1.0,-1.0,1.0,-1.0,0.0]" : 0.7421760864946999,
    "[-1.0,1.0,1.0,0.0,1.0,0.0,-1.0,1.0,-1.0]" : 0.7411422073867975,
    "[-1.0,1.0,-1.0,0.0,1.0,-1.0,-1.0,1.0,1.0]" : 0.7406237141668022,
    "[1.0,1.0,1.0,-1.0,-1.0,1.0,-1.0,-1.0,0.0]" : 0.7403640782327028,
    "[-1.0,0.0,1.0,0.0,-1.0,1.0,1.0,-1.0,1.0]" : 0.7401041824027611,
    "[1.0,1.0,-1.0,1.0,-1.0,0.0,1.0,0.0,-1.0]" : 0.7390619949175438,
    "[0.0,1.0,0.0,1.0,1.0,-1.0,-1.0,1.0,-1.0]" : 0.7380156282394315,
    "[0.0,-1.0,0.0,1.0,-1.0,-1.0,1.0,1.0,1.0]" : 0.737753381608584,
    "[-1.0,1.0,1.0,-1.0,1.0,-1.0,1.0,0.0,0.0]" : 0.737490872468584,
    "[1.0,-1.0,-1.0,0.0,1.0,0.0,1.0,-1.0,1.0]" : 0.7367017673646346,
    "[1.0,1.0,1.0,0.0,0.0,-1.0,-1.0,0.0,0.0]" : 0.7359102902027269,
    "[1.0,0.0,0.0,1.0,-1.0,0.0,1.0,-1.0,0.0]" : 0.7359102902027269,
    "[1.0,1.0,1.0,-1.0,1.0,-1.0,-1.0,0.0,-1.0]" : 0.7348512851249616,
    "[-1.0,0.0,-1.0,1.0,1.0,1.0,1.0,-1.0,0.0]" : 0.7332548097548008,
    "[1.0,0.0,1.0,1.0,-1.0,-1.0,1.0,-1.0,-1.0]" : 0.7329877975396581,
    "[1.0,0.0,1.0,0.0,-1.0,1.0,-1.0,-1.0,1.0]" : 0.732720518045008,
    "[1.0,1.0,-1.0,-1.0,1.0,0.0,-1.0,1.0,-1.0]" : 0.7324529710033035,
    "[1.0,0.0,1.0,1.0,-1.0,0.0,1.0,-1.0,-1.0]" : 0.7319170732072037,
    "[1.0,1.0,1.0,-1.0,-1.0,0.0,-1.0,0.0,1.0]" : 0.731380102005621,
    "[1.0,1.0,1.0,0.0,0.0,0.0,-1.0,0.0,-1.0]" : 0.7308420552485198,
    "[-1.0,0.0,-1.0,1.0,1.0,1.0,-1.0,0.0,1.0]" : 0.7308420552485198,
    "[0.0,1.0,1.0,-1.0,-1.0,1.0,0.0,-1.0,1.0]" : 0.7305726278635862,
    "[-1.0,0.0,-1.0,1.0,1.0,1.0,1.0,0.0,-1.0]" : 0.7305726278635862,
    "[-1.0,1.0,1.0,0.0,1.0,-1.0,-1.0,1.0,-1.0]" : 0.7300329637324675,
    "[1.0,1.0,1.0,0.0,-1.0,0.0,-1.0,0.0,0.0]" : 0.729762726446078,
    "[0.0,-1.0,0.0,0.0,-1.0,0.0,1.0,1.0,1.0]" : 0.729762726446078,
    "[1.0,1.0,1.0,0.0,-1.0,-1.0,1.0,0.0,-1.0]" : 0.7286790695133079,
    "[-1.0,1.0,-1.0,0.0,1.0,0.0,-1.0,1.0,1.0]" : 0.7275910670943194,
    "[-1.0,-1.0,1.0,1.0,1.0,1.0,-1.0,0.0,-1.0]" : 0.7273183854668346,
    "[-1.0,-1.0,0.0,0.0,-1.0,1.0,1.0,1.0,1.0]" : 0.7273183854668346,
    "[-1.0,0.0,1.0,-1.0,0.0,1.0,0.0,0.0,1.0]" : 0.7267722030748519,
    "[0.0,1.0,-1.0,-1.0,1.0,0.0,0.0,1.0,0.0]" : 0.726498701763625,
    "[1.0,0.0,-1.0,1.0,0.0,0.0,1.0,-1.0,0.0]" : 0.7259508775418239,
    "[1.0,0.0,0.0,1.0,-1.0,-1.0,1.0,0.0,0.0]" : 0.7259508775418239,
    "[0.0,0.0,1.0,-1.0,0.0,1.0,-1.0,0.0,1.0]" : 0.7256765540828771,
    "[1.0,0.0,0.0,1.0,0.0,-1.0,1.0,0.0,-1.0]" : 0.7256765540828771,
    "[0.0,-1.0,1.0,-1.0,0.0,1.0,0.0,0.0,1.0]" : 0.7256765540828771,
    "[0.0,1.0,0.0,-1.0,1.0,0.0,-1.0,1.0,0.0]" : 0.7256765540828771,
    "[1.0,1.0,-1.0,0.0,1.0,0.0,-1.0,1.0,-1.0]" : 0.7254019560258603,
    "[-1.0,0.0,0.0,0.0,0.0,-1.0,1.0,1.0,1.0]" : 0.7248519350178495,
    "[1.0,1.0,1.0,-1.0,1.0,0.0,-1.0,0.0,-1.0]" : 0.7245765115162839,
    "[0.0,-1.0,-1.0,0.0,0.0,0.0,1.0,1.0,1.0]" : 0.7240248371395358,
    "[0.0,1.0,-1.0,-1.0,1.0,0.0,-1.0,1.0,1.0]" : 0.7234720577567492,
    "[1.0,0.0,-1.0,1.0,-1.0,0.0,1.0,0.0,-1.0]" : 0.7231952529965983,
    "[1.0,-1.0,-1.0,1.0,1.0,0.0,1.0,-1.0,-1.0]" : 0.7226408119533716,
    "[0.0,-1.0,1.0,0.0,1.0,0.0,1.0,-1.0,-1.0]" : 0.7218070674166653,
    "[0.0,0.0,0.0,-1.0,1.0,1.0,0.0,-1.0,1.0]" : 0.7196168765138147,
    "[1.0,-1.0,-1.0,1.0,-1.0,-1.0,1.0,1.0,0.0]" : 0.7187285044351074,
    "[1.0,0.0,-1.0,0.0,1.0,0.0,-1.0,0.0,1.0]" : 0.7181651164761972,
    "[-1.0,0.0,-1.0,-1.0,1.0,-1.0,1.0,1.0,1.0]" : 0.7181651164761972,
    "[0.0,-1.0,1.0,0.0,0.0,1.0,0.0,-1.0,1.0]" : 0.7178829994622596,
    "[1.0,1.0,1.0,-1.0,-1.0,0.0,0.0,-1.0,0.0]" : 0.7176006000488953,
    "[-1.0,0.0,1.0,0.0,0.0,1.0,0.0,-1.0,1.0]" : 0.7159002573307245,
    "[1.0,0.0,0.0,-1.0,1.0,0.0,0.0,-1.0,1.0]" : 0.7159002573307245,
    "[1.0,0.0,-1.0,0.0,1.0,0.0,0.0,-1.0,1.0]" : 0.7153312043812676,
    "[1.0,1.0,1.0,0.0,0.0,-1.0,0.0,-1.0,0.0]" : 0.7150462506183514,
    "[1.0,0.0,-1.0,-1.0,1.0,0.0,0.0,0.0,1.0]" : 0.7150462506183514,
    "[1.0,-1.0,-1.0,1.0,-1.0,0.0,1.0,1.0,0.0]" : 0.7144754870899479,
    "[0.0,1.0,0.0,0.0,1.0,-1.0,-1.0,1.0,0.0]" : 0.7144754870899479,
    "[1.0,1.0,1.0,-1.0,-1.0,0.0,0.0,0.0,0.0]" : 0.7144754870899479,
    "[1.0,-1.0,0.0,1.0,0.0,0.0,1.0,0.0,-1.0]" : 0.7141896767531257,
    "[1.0,-1.0,-1.0,1.0,0.0,0.0,1.0,0.0,0.0]" : 0.713617197503758,
    "[-1.0,0.0,0.0,-1.0,0.0,0.0,1.0,1.0,1.0]" : 0.7133305280181601,
    "[-1.0,-1.0,1.0,0.0,1.0,0.0,1.0,1.0,-1.0]" : 0.7133305280181601,
    "[0.0,0.0,1.0,-1.0,-1.0,1.0,0.0,0.0,1.0]" : 0.7130435715761065,
    "[1.0,1.0,1.0,0.0,-1.0,0.0,0.0,-1.0,0.0]" : 0.7127563278903536,
    "[0.0,0.0,-1.0,-1.0,0.0,0.0,1.0,1.0,1.0]" : 0.7124687966733699,
    "[0.0,1.0,-1.0,0.0,1.0,-1.0,0.0,1.0,0.0]" : 0.7121809776373366,
    "[-1.0,-1.0,1.0,-1.0,-1.0,1.0,1.0,0.0,1.0]" : 0.7121809776373366,
    "[1.0,1.0,-1.0,1.0,-1.0,0.0,1.0,-1.0,-1.0]" : 0.7121809776373366,
    "[1.0,1.0,1.0,1.0,-1.0,-1.0,0.0,0.0,-1.0]" : 0.7118928704941464,
    "[-1.0,1.0,0.0,0.0,1.0,-1.0,-1.0,1.0,1.0]" : 0.7116044749554038,
    "[-1.0,0.0,-1.0,1.0,1.0,1.0,0.0,-1.0,1.0]" : 0.7113157907324245,
    "[0.0,-1.0,0.0,1.0,1.0,1.0,0.0,0.0,-1.0]" : 0.7113157907324245,
    "[1.0,1.0,1.0,-1.0,0.0,0.0,-1.0,1.0,-1.0]" : 0.7113157907324245,
    "[-1.0,1.0,0.0,0.0,1.0,1.0,-1.0,1.0,-1.0]" : 0.7113157907324245,
    "[1.0,0.0,-1.0,1.0,1.0,-1.0,-1.0,0.0,1.0]" : 0.7110268175362352,
    "[0.0,0.0,-1.0,1.0,-1.0,-1.0,1.0,1.0,1.0]" : 0.710158161214335,
    "[1.0,1.0,1.0,0.0,0.0,0.0,0.0,-1.0,-1.0]" : 0.7098680292297842,
    "[1.0,1.0,1.0,-1.0,-1.0,1.0,-1.0,0.0,0.0]" : 0.7095776068228127,
    "[1.0,1.0,-1.0,-1.0,1.0,0.0,0.0,1.0,-1.0]" : 0.7092868937027073,
    "[1.0,-1.0,0.0,1.0,1.0,1.0,-1.0,0.0,-1.0]" : 0.7092868937027073,
    "[-1.0,0.0,-1.0,0.0,1.0,-1.0,1.0,1.0,1.0]" : 0.7092868937027073,
    "[1.0,1.0,1.0,-1.0,0.0,-1.0,0.0,0.0,0.0]" : 0.7078289572098246,
    "[-1.0,-1.0,1.0,0.0,0.0,1.0,0.0,0.0,1.0]" : 0.707243737413131,
    "[0.0,0.0,1.0,-1.0,1.0,-1.0,1.0,0.0,-1.0]" : 0.707243737413131,
    "[1.0,-1.0,0.0,1.0,-1.0,-1.0,1.0,1.0,-1.0]" : 0.707243737413131,
    "[-1.0,1.0,-1.0,-1.0,1.0,0.0,0.0,1.0,1.0]" : 0.7069506880872991,
    "[1.0,1.0,1.0,0.0,0.0,0.0,-1.0,-1.0,0.0]" : 0.7069506880872991,
    "[0.0,0.0,1.0,0.0,1.0,-1.0,1.0,-1.0,-1.0]" : 0.7069506880872991,
    "[1.0,0.0,0.0,1.0,0.0,0.0,1.0,-1.0,-1.0]" : 0.7066573454187849,
    "[-1.0,0.0,1.0,-1.0,1.0,-1.0,1.0,0.0,0.0]" : 0.7066573454187849,
    "[0.0,0.0,1.0,0.0,0.0,1.0,-1.0,-1.0,1.0]" : 0.7063637091139519,
    "[1.0,-1.0,1.0,1.0,-1.0,-1.0,1.0,0.0,0.0]" : 0.7063637091139519,
    "[-1.0,0.0,0.0,-1.0,-1.0,1.0,1.0,1.0,1.0]" : 0.7060697788788698,
    "[0.0,1.0,-1.0,-1.0,1.0,0.0,1.0,1.0,-1.0]" : 0.7060697788788698,
    "[0.0,0.0,-1.0,0.0,0.0,-1.0,1.0,1.0,1.0]" : 0.7057755544193142,
    "[1.0,0.0,0.0,1.0,0.0,-1.0,1.0,-1.0,0.0]" : 0.7051862216484115,
    "[0.0,-1.0,1.0,0.0,-1.0,-1.0,1.0,1.0,1.0]" : 0.7051862216484115,
    "[1.0,0.0,-1.0,1.0,0.0,1.0,1.0,-1.0,-1.0]" : 0.7048911127471417,
    "[0.0,0.0,1.0,0.0,-1.0,1.0,0.0,-1.0,1.0]" : 0.7048911127471417,
    "[1.0,0.0,1.0,0.0,1.0,-1.0,-1.0,0.0,0.0]" : 0.7047677660464765,
    "[1.0,-1.0,-1.0,1.0,0.0,1.0,1.0,0.0,-1.0]" : 0.7045957084415523,
    "[-1.0,-1.0,1.0,-1.0,1.0,0.0,1.0,-1.0,1.0]" : 0.7043000084359432,
    "[1.0,0.0,0.0,-1.0,1.0,0.0,-1.0,-1.0,1.0]" : 0.7043000084359432,
    "[-1.0,-1.0,1.0,0.0,1.0,0.0,1.0,-1.0,0.0]" : 0.7037077201403857,
    "[-1.0,1.0,1.0,-1.0,1.0,0.0,1.0,-1.0,-1.0]" : 0.7037077201403857,
    "[-1.0,-1.0,0.0,0.0,0.0,0.0,1.0,1.0,1.0]" : 0.703411131257556,
    "[-1.0,-1.0,1.0,1.0,1.0,0.0,1.0,-1.0,0.0]" : 0.703411131257556,
    "[0.0,-1.0,1.0,1.0,1.0,-1.0,1.0,-1.0,-1.0]" : 0.7025195821053413,
    "[0.0,0.0,-1.0,-1.0,1.0,0.0,1.0,0.0,1.0]" : 0.7022803910646465,
    "[0.0,0.0,1.0,-1.0,-1.0,1.0,1.0,-1.0,1.0]" : 0.7022218038950927,
    "[0.0,-1.0,0.0,0.0,0.0,-1.0,1.0,1.0,1.0]" : 0.7022218038950927,
    "[0.0,0.0,1.0,0.0,1.0,0.0,1.0,-1.0,-1.0]" : 0.7019237276085434,
    "[1.0,0.0,0.0,-1.0,1.0,0.0,-1.0,0.0,1.0]" : 0.7019237276085434,
    "[1.0,1.0,1.0,-1.0,-1.0,0.0,1.0,-1.0,0.0]" : 0.7016253529473186,
    "[1.0,0.0,0.0,0.0,1.0,0.0,-1.0,-1.0,1.0]" : 0.7013266796127452,
    "[1.0,-1.0,1.0,0.0,1.0,-1.0,1.0,0.0,-1.0]" : 0.7007284357273633,
    "[1.0,-1.0,-1.0,0.0,1.0,0.0,0.0,-1.0,1.0]" : 0.7007284357273633,
    "[1.0,-1.0,1.0,-1.0,1.0,0.0,-1.0,0.0,1.0]" : 0.7007284357273633,
    "[0.0,0.0,1.0,-1.0,-1.0,1.0,-1.0,1.0,1.0]" : 0.7007284357273633,
    "[1.0,-1.0,0.0,1.0,0.0,-1.0,1.0,0.0,0.0]" : 0.7004288645777121,
    "[1.0,1.0,1.0,-1.0,0.0,0.0,0.0,0.0,-1.0]" : 0.7004288645777121,
    "[1.0,1.0,1.0,-1.0,-1.0,0.0,-1.0,-1.0,1.0]" : 0.7004288645777121,
    "[1.0,-1.0,-1.0,-1.0,1.0,0.0,1.0,0.0,1.0]" : 0.7001289935570261,
    "[1.0,-1.0,0.0,0.0,1.0,0.0,1.0,0.0,-1.0]" : 0.6998103261368482,
    "[1.0,-1.0,0.0,0.0,1.0,0.0,-1.0,-1.0,1.0]" : 0.6995283507015638,
    "[0.0,1.0,1.0,0.0,-1.0,1.0,-1.0,-1.0,1.0]" : 0.6992275782655435,
    "[-1.0,-1.0,1.0,-1.0,1.0,-1.0,1.0,1.0,0.0]" : 0.6989265047559993,
    "[1.0,0.0,0.0,-1.0,1.0,-1.0,-1.0,0.0,1.0]" : 0.6989265047559993,
    "[1.0,1.0,1.0,0.0,0.0,-1.0,0.0,0.0,-1.0]" : 0.6986251298715563,
    "[0.0,-1.0,0.0,-1.0,0.0,0.0,1.0,1.0,1.0]" : 0.6986251298715563,
    "[1.0,1.0,0.0,-1.0,1.0,-1.0,-1.0,-1.0,1.0]" : 0.6986251298715563,
    "[1.0,0.0,0.0,-1.0,1.0,-1.0,0.0,0.0,1.0]" : 0.6986251298715563,
    "[1.0,0.0,-1.0,1.0,0.0,-1.0,1.0,0.0,0.0]" : 0.6980214747709658,
    "[0.0,1.0,0.0,-1.0,1.0,-1.0,0.0,1.0,0.0]" : 0.6980214747709658,
    "[1.0,0.0,0.0,0.0,1.0,-1.0,0.0,-1.0,1.0]" : 0.6974166105467335,
    "[1.0,0.0,-1.0,0.0,1.0,-1.0,0.0,0.0,1.0]" : 0.6971137242566038,
    "[-1.0,-1.0,1.0,0.0,1.0,1.0,-1.0,0.0,1.0]" : 0.6971137242566038,
    "[-1.0,0.0,1.0,-1.0,1.0,0.0,1.0,-1.0,1.0]" : 0.6965070418043693,
    "[0.0,1.0,1.0,-1.0,1.0,-1.0,1.0,-1.0,0.0]" : 0.6965070418043693,
    "[1.0,0.0,-1.0,1.0,1.0,-1.0,-1.0,-1.0,1.0]" : 0.6965070418043693,
    "[-1.0,1.0,1.0,0.0,1.0,0.0,1.0,-1.0,-1.0]" : 0.6958991441646953,
    "[0.0,0.0,1.0,-1.0,1.0,-1.0,1.0,1.0,-1.0]" : 0.6958991441646953,
    "[-1.0,0.0,1.0,1.0,1.0,-1.0,1.0,0.0,-1.0]" : 0.695594738889126,
    "[-1.0,-1.0,1.0,1.0,1.0,-1.0,1.0,0.0,-1.0]" : 0.6952900289035566,
    "[0.0,-1.0,1.0,0.0,1.0,0.0,1.0,-1.0,0.0]" : 0.6949850139029722,
    "[1.0,-1.0,-1.0,1.0,-1.0,0.0,1.0,0.0,0.0]" : 0.6949850139029722,
    "[1.0,1.0,-1.0,0.0,1.0,-1.0,-1.0,-1.0,1.0]" : 0.694374067635171,
    "[1.0,-1.0,-1.0,-1.0,1.0,1.0,-1.0,0.0,1.0]" : 0.694374067635171,
    "[1.0,1.0,1.0,-1.0,0.0,-1.0,0.0,-1.0,1.0]" : 0.6937618976394904,
    "[-1.0,0.0,1.0,-1.0,1.0,1.0,1.0,-1.0,-1.0]" : 0.6934553529779082,
    "[1.0,0.0,-1.0,-1.0,1.0,-1.0,0.0,0.0,1.0]" : 0.6931485014647983,
    "[1.0,0.0,-1.0,1.0,1.0,0.0,1.0,-1.0,-1.0]" : 0.6931485014647983,
    "[1.0,0.0,1.0,0.0,1.0,-1.0,-1.0,-1.0,1.0]" : 0.6928413427930021,
    "[1.0,-1.0,1.0,-1.0,0.0,1.0,0.0,-1.0,1.0]" : 0.6925338766550533,
    "[0.0,-1.0,1.0,-1.0,1.0,0.0,1.0,-1.0,0.0]" : 0.6916096303650114,
    "[-1.0,1.0,1.0,-1.0,1.0,0.0,1.0,0.0,-1.0]" : 0.6909919231901437,
    "[1.0,1.0,1.0,0.0,-1.0,0.0,0.0,-1.0,-1.0]" : 0.6906826057812331,
    "[1.0,0.0,0.0,-1.0,1.0,-1.0,0.0,-1.0,1.0]" : 0.6900630417723229,
    "[-1.0,-1.0,1.0,1.0,1.0,-1.0,1.0,-1.0,0.0]" : 0.6894422367741626,
    "[1.0,0.0,-1.0,-1.0,1.0,1.0,-1.0,0.0,1.0]" : 0.6894422367741626,
    "[1.0,0.0,0.0,1.0,-1.0,-1.0,1.0,1.0,-1.0]" : 0.6894422367741626,
    "[-1.0,-1.0,0.0,1.0,-1.0,0.0,1.0,1.0,1.0]" : 0.6891313681275246,
    "[1.0,-1.0,-1.0,1.0,-1.0,-1.0,1.0,0.0,1.0]" : 0.6888201883010454,
    "[-1.0,-1.0,1.0,0.0,1.0,-1.0,1.0,1.0,-1.0]" : 0.6888201883010454,
    "[-1.0,1.0,1.0,-1.0,-1.0,1.0,0.0,0.0,1.0]" : 0.6888201883010454,
    "[1.0,0.0,0.0,1.0,-1.0,0.0,1.0,-1.0,-1.0]" : 0.6888201883010454,
    "[1.0,1.0,1.0,-1.0,0.0,0.0,-1.0,0.0,0.0]" : 0.6885086969832336,
    "[1.0,1.0,1.0,-1.0,-1.0,0.0,0.0,1.0,-1.0]" : 0.6885086969832336,
    "[-1.0,-1.0,0.0,1.0,1.0,1.0,-1.0,1.0,0.0]" : 0.688196893862286,
    "[0.0,-1.0,1.0,-1.0,1.0,-1.0,1.0,0.0,0.0]" : 0.6878847786260874,
    "[1.0,1.0,1.0,-1.0,-1.0,1.0,-1.0,0.0,-1.0]" : 0.6878847786260874,
    "[1.0,-1.0,-1.0,0.0,1.0,-1.0,0.0,0.0,1.0]" : 0.6875723509622101,
    "[-1.0,1.0,0.0,1.0,1.0,1.0,-1.0,-1.0,0.0]" : 0.6875723509622101,
    "[0.0,-1.0,1.0,0.0,1.0,-1.0,1.0,-1.0,0.0]" : 0.6872596105579137,
    "[1.0,1.0,1.0,0.0,-1.0,-1.0,1.0,-1.0,-1.0]" : 0.6872596105579137,
    "[0.0,-1.0,1.0,1.0,-1.0,1.0,-1.0,0.0,1.0]" : 0.6863195097704075,
    "[0.0,0.0,1.0,-1.0,1.0,-1.0,1.0,-1.0,0.0]" : 0.6860055152707643,
    "[0.0,-1.0,1.0,1.0,1.0,1.0,0.0,-1.0,-1.0]" : 0.6856912064622976,
    "[1.0,1.0,1.0,-1.0,-1.0,0.0,-1.0,0.0,0.0]" : 0.6853765830303842,
    "[1.0,-1.0,-1.0,0.0,1.0,0.0,-1.0,1.0,1.0]" : 0.6850616446600855,
    "[1.0,1.0,1.0,-1.0,-1.0,1.0,0.0,-1.0,-1.0]" : 0.6850616446600855,
    "[0.0,-1.0,1.0,0.0,1.0,-1.0,1.0,1.0,-1.0]" : 0.6850616446600855,
    "[1.0,-1.0,-1.0,-1.0,1.0,0.0,-1.0,1.0,1.0]" : 0.6844308218430022,
    "[1.0,1.0,-1.0,-1.0,1.0,-1.0,0.0,-1.0,1.0]" : 0.6844308218430022,
    "[-1.0,0.0,1.0,1.0,-1.0,1.0,0.0,-1.0,1.0]" : 0.6844308218430022,
    "[0.0,-1.0,-1.0,0.0,-1.0,1.0,1.0,1.0,1.0]" : 0.6834822176878838,
    "[-1.0,1.0,0.0,0.0,-1.0,-1.0,1.0,1.0,1.0]" : 0.6831653830558908,
    "[-1.0,-1.0,1.0,1.0,1.0,-1.0,1.0,0.0,0.0]" : 0.6831653830558908,
    "[1.0,1.0,1.0,0.0,-1.0,0.0,-1.0,0.0,-1.0]" : 0.6831653830558908,
    "[0.0,-1.0,0.0,0.0,-1.0,-1.0,1.0,1.0,1.0]" : 0.682848231272099,
    "[0.0,-1.0,1.0,-1.0,1.0,-1.0,1.0,1.0,-1.0]" : 0.6825307620190391,
    "[-1.0,-1.0,1.0,1.0,1.0,0.0,1.0,0.0,-1.0]" : 0.6825307620190391,
    "[0.0,0.0,0.0,-1.0,0.0,-1.0,1.0,1.0,1.0]" : 0.6822129749789239,
    "[1.0,-1.0,0.0,-1.0,1.0,0.0,0.0,-1.0,1.0]" : 0.6818948698336483,
    "[1.0,-1.0,0.0,0.0,1.0,-1.0,0.0,-1.0,1.0]" : 0.6815764462647889,
    "[1.0,-1.0,0.0,1.0,0.0,0.0,1.0,-1.0,0.0]" : 0.681257703953603,
    "[-1.0,-1.0,1.0,-1.0,1.0,0.0,1.0,0.0,0.0]" : 0.6809386425810294,
    "[-1.0,0.0,-1.0,-1.0,-1.0,1.0,1.0,1.0,1.0]" : 0.6806192618276874,
    "[-1.0,0.0,-1.0,1.0,1.0,1.0,0.0,1.0,-1.0]" : 0.6802995613738763,
    "[1.0,1.0,-1.0,-1.0,1.0,-1.0,-1.0,0.0,1.0]" : 0.6799795408995757,
    "[0.0,-1.0,1.0,-1.0,1.0,1.0,1.0,-1.0,-1.0]" : 0.6796592000844448,
    "[-1.0,-1.0,1.0,-1.0,0.0,1.0,1.0,-1.0,1.0]" : 0.679338538607822,
    "[1.0,-1.0,0.0,-1.0,1.0,-1.0,0.0,0.0,1.0]" : 0.6790175561487248,
    "[1.0,0.0,0.0,0.0,1.0,-1.0,-1.0,0.0,1.0]" : 0.6790175561487248,
    "[-1.0,-1.0,0.0,-1.0,0.0,1.0,1.0,1.0,1.0]" : 0.6786962523858495,
    "[1.0,1.0,1.0,0.0,-1.0,1.0,0.0,-1.0,-1.0]" : 0.6783746269975707,
    "[1.0,1.0,1.0,1.0,-1.0,0.0,-1.0,-1.0,0.0]" : 0.6780526796619409,
    "[1.0,1.0,0.0,1.0,0.0,-1.0,1.0,-1.0,-1.0]" : 0.6777304100566907,
    "[1.0,1.0,-1.0,0.0,1.0,0.0,-1.0,-1.0,1.0]" : 0.6777304100566907,
    "[1.0,-1.0,-1.0,0.0,1.0,1.0,-1.0,0.0,1.0]" : 0.6774078178592275,
    "[0.0,-1.0,1.0,0.0,1.0,0.0,1.0,0.0,-1.0]" : 0.6774078178592275,
    "[-1.0,0.0,-1.0,1.0,1.0,1.0,-1.0,1.0,0.0]" : 0.6774078178592275,
    "[0.0,-1.0,-1.0,1.0,1.0,1.0,-1.0,-1.0,1.0]" : 0.6770849027466366,
    "[1.0,0.0,-1.0,-1.0,1.0,-1.0,-1.0,1.0,1.0]" : 0.6764381024827938,
    "[0.0,1.0,-1.0,1.0,1.0,1.0,-1.0,0.0,-1.0]" : 0.6761142166840941,
    "[-1.0,-1.0,1.0,1.0,1.0,0.0,1.0,-1.0,-1.0]" : 0.6754654721320879,
    "[1.0,-1.0,-1.0,1.0,0.0,-1.0,1.0,1.0,0.0]" : 0.6754654721320879,
    "[0.0,0.0,1.0,-1.0,-1.0,1.0,0.0,-1.0,1.0]" : 0.6754654721320879,
    "[0.0,-1.0,1.0,-1.0,-1.0,1.0,0.0,0.0,1.0]" : 0.6751406127293872,
    "[0.0,0.0,1.0,-1.0,1.0,0.0,1.0,-1.0,-1.0]" : 0.6751406127293872,
    "[1.0,0.0,-1.0,1.0,-1.0,0.0,1.0,-1.0,0.0]" : 0.6751406127293872,
    "[0.0,-1.0,-1.0,0.0,-1.0,0.0,1.0,1.0,1.0]" : 0.6744899180446676,
    "[-1.0,-1.0,1.0,-1.0,-1.0,0.0,1.0,1.0,1.0]" : 0.6741640821113025,
    "[1.0,1.0,-1.0,0.0,1.0,-1.0,-1.0,0.0,1.0]" : 0.6738379200158264,
    "[-1.0,-1.0,1.0,0.0,1.0,1.0,1.0,-1.0,-1.0]" : 0.6738379200158264,
    "[-1.0,0.0,1.0,-1.0,1.0,0.0,1.0,-1.0,0.0]" : 0.6738379200158264,
    "[-1.0,1.0,1.0,0.0,-1.0,1.0,-1.0,-1.0,1.0]" : 0.6735114314317509,
    "[1.0,1.0,0.0,-1.0,1.0,-1.0,0.0,1.0,-1.0]" : 0.6731846160322602,
    "[1.0,1.0,1.0,-1.0,1.0,0.0,0.0,-1.0,-1.0]" : 0.6725300034781361,
    "[1.0,0.0,0.0,0.0,1.0,-1.0,-1.0,-1.0,1.0]" : 0.6725300034781361,
    "[-1.0,1.0,1.0,-1.0,1.0,-1.0,1.0,0.0,-1.0]" : 0.6722022056682347,
    "[1.0,-1.0,-1.0,-1.0,1.0,1.0,0.0,-1.0,1.0]" : 0.6722022056682347,
    "[-1.0,-1.0,0.0,0.0,1.0,-1.0,1.0,1.0,1.0]" : 0.6715456253421234,
    "[-1.0,0.0,1.0,-1.0,-1.0,1.0,1.0,0.0,1.0]" : 0.6712168421686757,
    "[0.0,1.0,0.0,-1.0,1.0,1.0,-1.0,1.0,-1.0]" : 0.6712168421686757,
    "[-1.0,-1.0,1.0,0.0,1.0,1.0,1.0,0.0,-1.0]" : 0.6712168421686757,
    "[0.0,-1.0,0.0,-1.0,-1.0,0.0,1.0,1.0,1.0]" : 0.6705582881554345,
    "[1.0,1.0,-1.0,1.0,-1.0,-1.0,1.0,0.0,0.0]" : 0.6702285166564276,
    "[-1.0,0.0,1.0,0.0,1.0,0.0,1.0,-1.0,-1.0]" : 0.6702285166564276,
    "[1.0,1.0,1.0,0.0,-1.0,-1.0,-1.0,1.0,0.0]" : 0.6698984150558044,
    "[0.0,1.0,-1.0,-1.0,-1.0,0.0,1.0,1.0,1.0]" : 0.6695679830231328,
    "[1.0,-1.0,0.0,1.0,-1.0,0.0,1.0,0.0,-1.0]" : 0.6695679830231328,
    "[1.0,-1.0,-1.0,1.0,-1.0,0.0,1.0,1.0,-1.0]" : 0.6685747010235439,
    "[1.0,0.0,-1.0,1.0,1.0,-1.0,1.0,-1.0,0.0]" : 0.668242943951738,
    "[1.0,0.0,-1.0,1.0,-1.0,1.0,1.0,-1.0,0.0]" : 0.6672456788712408,
    "[-1.0,-1.0,1.0,0.0,-1.0,0.0,1.0,1.0,1.0]" : 0.6672456788712408,
    "[1.0,-1.0,0.0,1.0,-1.0,1.0,1.0,0.0,-1.0]" : 0.6672456788712408,
    "[0.0,-1.0,-1.0,1.0,1.0,1.0,0.0,1.0,-1.0]" : 0.6672456788712408,
    "[-1.0,0.0,1.0,-1.0,1.0,0.0,1.0,0.0,-1.0]" : 0.6672456788712408,
    "[-1.0,-1.0,0.0,1.0,-1.0,-1.0,1.0,1.0,1.0]" : 0.666245416001781,
    "[0.0,-1.0,1.0,0.0,1.0,-1.0,1.0,0.0,-1.0]" : 0.665242146331975,
    "[-1.0,1.0,0.0,-1.0,1.0,-1.0,0.0,1.0,1.0]" : 0.6645716249784749,
    "[-1.0,1.0,1.0,-1.0,1.0,-1.0,1.0,-1.0,0.0]" : 0.6642358608233503,
    "[1.0,0.0,-1.0,0.0,1.0,-1.0,0.0,-1.0,1.0]" : 0.6638997605679543,
    "[-1.0,0.0,1.0,-1.0,-1.0,1.0,0.0,0.0,1.0]" : 0.6638997605679543,
    "[1.0,-1.0,0.0,-1.0,1.0,0.0,-1.0,0.0,1.0]" : 0.6632265504102647,
    "[0.0,-1.0,-1.0,1.0,1.0,1.0,1.0,-1.0,-1.0]" : 0.6625519918098688,
    "[0.0,1.0,-1.0,1.0,1.0,1.0,0.0,-1.0,-1.0]" : 0.6622142059998246,
    "[0.0,-1.0,1.0,-1.0,-1.0,1.0,-1.0,1.0,1.0]" : 0.6615376196694237,
    "[-1.0,1.0,0.0,-1.0,0.0,-1.0,1.0,1.0,1.0]" : 0.6608596781338288,
    "[1.0,1.0,1.0,-1.0,0.0,-1.0,0.0,1.0,-1.0]" : 0.6608596781338288,
    "[-1.0,0.0,1.0,-1.0,1.0,0.0,1.0,1.0,-1.0]" : 0.6605201983160205,
    "[1.0,-1.0,0.0,1.0,1.0,-1.0,-1.0,-1.0,1.0]" : 0.6601803786785585,
    "[1.0,0.0,-1.0,0.0,1.0,-1.0,-1.0,1.0,1.0]" : 0.6601803786785585,
    "[1.0,-1.0,-1.0,-1.0,1.0,0.0,0.0,0.0,1.0]" : 0.6601803786785585,
    "[-1.0,1.0,-1.0,1.0,1.0,1.0,-1.0,0.0,0.0]" : 0.6598402188812831,
    "[1.0,-1.0,0.0,0.0,-1.0,-1.0,1.0,1.0,1.0]" : 0.6591588774449497,
    "[0.0,0.0,-1.0,0.0,-1.0,-1.0,1.0,1.0,1.0]" : 0.6588176951238683,
    "[1.0,0.0,1.0,1.0,-1.0,-1.0,1.0,-1.0,0.0]" : 0.6577920976496519,
    "[0.0,0.0,1.0,-1.0,-1.0,1.0,-1.0,0.0,1.0]" : 0.6574495471805621,
    "[-1.0,-1.0,1.0,0.0,0.0,1.0,1.0,-1.0,1.0]" : 0.6571066538180936,
    "[1.0,-1.0,0.0,-1.0,1.0,-1.0,-1.0,1.0,1.0]" : 0.6571066538180936,
    "[1.0,0.0,1.0,-1.0,-1.0,1.0,0.0,-1.0,1.0]" : 0.6567634172190098,
    "[0.0,-1.0,1.0,-1.0,-1.0,1.0,1.0,0.0,1.0]" : 0.6564198370397303,
    "[-1.0,-1.0,1.0,0.0,1.0,-1.0,1.0,0.0,0.0]" : 0.6564198370397303,
    "[1.0,-1.0,-1.0,1.0,1.0,0.0,-1.0,0.0,1.0]" : 0.6564198370397303,
    "[-1.0,0.0,0.0,1.0,1.0,1.0,-1.0,-1.0,0.0]" : 0.6557316445645437,
    "[0.0,-1.0,1.0,-1.0,-1.0,1.0,0.0,1.0,1.0]" : 0.6550420736370076,
    "[-1.0,1.0,1.0,-1.0,-1.0,1.0,0.0,-1.0,1.0]" : 0.6550420736370076,
    "[1.0,1.0,1.0,1.0,-1.0,0.0,0.0,-1.0,-1.0]" : 0.6540051266062485,
    "[1.0,-1.0,1.0,-1.0,1.0,0.0,1.0,-1.0,0.0]" : 0.6536587853751734,
    "[0.0,-1.0,1.0,-1.0,1.0,0.0,1.0,0.0,-1.0]" : 0.6533120974561628,
    "[0.0,0.0,1.0,-1.0,1.0,-1.0,1.0,-1.0,1.0]" : 0.6529650625021817,
    "[-1.0,-1.0,1.0,0.0,-1.0,1.0,-1.0,1.0,1.0]" : 0.6522699500994309,
    "[0.0,-1.0,-1.0,-1.0,-1.0,1.0,1.0,1.0,1.0]" : 0.650875545566142,
    "[1.0,0.0,-1.0,-1.0,1.0,-1.0,1.0,0.0,1.0]" : 0.650875545566142,
    "[-1.0,1.0,1.0,-1.0,1.0,0.0,1.0,-1.0,0.0]" : 0.650875545566142,
    "[-1.0,-1.0,0.0,0.0,-1.0,0.0,1.0,1.0,1.0]" : 0.650526071621164,
    "[0.0,0.0,1.0,-1.0,0.0,1.0,0.0,-1.0,1.0]" : 0.649826073909678,
    "[-1.0,0.0,-1.0,1.0,-1.0,-1.0,1.0,1.0,1.0]" : 0.6494755494424714,
    "[-1.0,0.0,1.0,0.0,1.0,-1.0,1.0,-1.0,0.0]" : 0.6494755494424714,
    "[1.0,-1.0,-1.0,0.0,1.0,0.0,-1.0,0.0,1.0]" : 0.6491246740999057,
    "[0.0,0.0,-1.0,1.0,1.0,1.0,-1.0,1.0,-1.0]" : 0.6491246740999057,
    "[1.0,0.0,-1.0,-1.0,1.0,0.0,-1.0,0.0,1.0]" : 0.6484218693834384,
    "[-1.0,-1.0,0.0,1.0,1.0,1.0,-1.0,0.0,0.0]" : 0.6480699393060286,
    "[1.0,1.0,1.0,-1.0,0.0,0.0,0.0,-1.0,0.0]" : 0.6473650219514445,
    "[-1.0,0.0,1.0,0.0,1.0,-1.0,1.0,0.0,-1.0]" : 0.6463049976253346,
    "[0.0,-1.0,1.0,-1.0,1.0,1.0,-1.0,-1.0,1.0]" : 0.6455965450853273,
    "[1.0,1.0,1.0,0.0,-1.0,-1.0,1.0,-1.0,0.0]" : 0.6455965450853273,
    "[1.0,1.0,-1.0,0.0,1.0,-1.0,0.0,-1.0,1.0]" : 0.6455965450853273,
    "[0.0,-1.0,-1.0,1.0,1.0,1.0,0.0,0.0,-1.0]" : 0.6452417868553325,
    "[-1.0,0.0,1.0,-1.0,-1.0,0.0,1.0,1.0,1.0]" : 0.6445312046997934,
    "[-1.0,0.0,0.0,-1.0,-1.0,0.0,1.0,1.0,1.0]" : 0.6445312046997934,
    "[0.0,0.0,1.0,0.0,-1.0,1.0,-1.0,-1.0,1.0]" : 0.6441753800629556,
    "[1.0,0.0,-1.0,0.0,1.0,-1.0,-1.0,0.0,1.0]" : 0.6441753800629556,
    "[1.0,-1.0,-1.0,1.0,1.0,1.0,0.0,-1.0,-1.0]" : 0.6438191992452832,
    "[-1.0,1.0,-1.0,-1.0,1.0,-1.0,0.0,1.0,1.0]" : 0.6434626618902388,
    "[1.0,0.0,-1.0,0.0,1.0,0.0,-1.0,-1.0,1.0]" : 0.6434626618902388,
    "[1.0,-1.0,0.0,-1.0,-1.0,0.0,1.0,1.0,1.0]" : 0.6427485161400998,
    "[1.0,1.0,1.0,1.0,0.0,-1.0,-1.0,0.0,-1.0]" : 0.6423909070301443,
    "[0.0,0.0,-1.0,1.0,1.0,1.0,0.0,-1.0,-1.0]" : 0.6423909070301443,
    "[-1.0,0.0,0.0,1.0,1.0,1.0,-1.0,0.0,-1.0]" : 0.6423909070301443,
    "[1.0,-1.0,-1.0,1.0,1.0,0.0,-1.0,-1.0,1.0]" : 0.642032939953095,
    "[1.0,-1.0,0.0,0.0,1.0,-1.0,-1.0,0.0,1.0]" : 0.642032939953095,
    "[-1.0,-1.0,1.0,0.0,1.0,0.0,1.0,0.0,-1.0]" : 0.642032939953095,
    "[0.0,-1.0,1.0,1.0,1.0,1.0,-1.0,-1.0,0.0]" : 0.642032939953095,
    "[1.0,1.0,1.0,0.0,-1.0,-1.0,0.0,-1.0,1.0]" : 0.641674614550626,
    "[-1.0,-1.0,1.0,0.0,0.0,1.0,-1.0,1.0,1.0]" : 0.641674614550626,
    "[-1.0,0.0,-1.0,0.0,-1.0,0.0,1.0,1.0,1.0]" : 0.6413159304640534,
    "[-1.0,1.0,0.0,-1.0,1.0,-1.0,1.0,1.0,-1.0]" : 0.6413159304640534,
    "[-1.0,-1.0,0.0,1.0,1.0,1.0,0.0,-1.0,1.0]" : 0.6413159304640534,
    "[1.0,0.0,0.0,1.0,-1.0,-1.0,1.0,-1.0,1.0]" : 0.6409568873343341,
    "[-1.0,1.0,-1.0,1.0,1.0,1.0,0.0,0.0,-1.0]" : 0.6405974848020655,
    "[-1.0,1.0,-1.0,0.0,1.0,-1.0,0.0,1.0,0.0]" : 0.6405974848020655,
    "[0.0,1.0,0.0,0.0,1.0,-1.0,-1.0,1.0,-1.0]" : 0.6402377225074851,
    "[0.0,0.0,-1.0,-1.0,0.0,-1.0,1.0,1.0,1.0]" : 0.6398776000904707,
    "[0.0,1.0,0.0,-1.0,1.0,0.0,-1.0,1.0,-1.0]" : 0.6398776000904707,
    "[-1.0,-1.0,1.0,0.0,-1.0,1.0,0.0,0.0,1.0]" : 0.6395171171905392,
    "[-1.0,1.0,-1.0,-1.0,1.0,0.0,0.0,1.0,0.0]" : 0.6395171171905392,
    "[0.0,1.0,1.0,-1.0,1.0,-1.0,-1.0,1.0,0.0]" : 0.6395171171905392,
    "[-1.0,1.0,-1.0,-1.0,1.0,0.0,1.0,1.0,0.0]" : 0.6395171171905392,
    "[0.0,1.0,-1.0,-1.0,1.0,0.0,0.0,1.0,-1.0]" : 0.6391562734468469,
    "[0.0,-1.0,1.0,-1.0,1.0,1.0,1.0,-1.0,0.0]" : 0.6387950684981888,
    "[1.0,0.0,-1.0,-1.0,1.0,0.0,0.0,-1.0,1.0]" : 0.6387950684981888,
    "[-1.0,-1.0,1.0,0.0,1.0,-1.0,1.0,1.0,0.0]" : 0.637346629417136,
    "[0.0,1.0,0.0,-1.0,1.0,-1.0,-1.0,1.0,1.0]" : 0.6369836130129066,
    "[-1.0,1.0,-1.0,-1.0,1.0,-1.0,1.0,1.0,0.0]" : 0.6369836130129066,
    "[-1.0,0.0,-1.0,1.0,1.0,1.0,-1.0,0.0,0.0]" : 0.6369836130129066,
    "[1.0,-1.0,1.0,-1.0,-1.0,1.0,0.0,0.0,1.0]" : 0.6366202332288758,
    "[1.0,1.0,1.0,-1.0,0.0,-1.0,0.0,0.0,-1.0]" : 0.6366202332288758,
    "[1.0,1.0,0.0,1.0,-1.0,-1.0,1.0,-1.0,-1.0]" : 0.6358923820660721,
    "[1.0,0.0,-1.0,-1.0,0.0,-1.0,1.0,1.0,1.0]" : 0.6351630730144049,
    "[-1.0,0.0,0.0,-1.0,0.0,-1.0,1.0,1.0,1.0]" : 0.6351630730144049,
    "[-1.0,0.0,1.0,0.0,-1.0,1.0,-1.0,0.0,1.0]" : 0.6347978708679266,
    "[1.0,-1.0,-1.0,1.0,0.0,0.0,1.0,-1.0,0.0]" : 0.6340663695058417,
    "[-1.0,-1.0,0.0,-1.0,0.0,0.0,1.0,1.0,1.0]" : 0.6340663695058417,
    "[0.0,-1.0,-1.0,1.0,1.0,1.0,0.0,-1.0,1.0]" : 0.6337000695580014,
    "[-1.0,1.0,0.0,0.0,1.0,0.0,-1.0,1.0,-1.0]" : 0.6333334029435292,
    "[-1.0,0.0,0.0,1.0,1.0,1.0,-1.0,-1.0,1.0]" : 0.6333334029435292,
    "[-1.0,1.0,-1.0,0.0,1.0,0.0,-1.0,1.0,0.0]" : 0.6329663692953915,
    "[1.0,1.0,1.0,-1.0,-1.0,0.0,0.0,0.0,-1.0]" : 0.6329663692953915,
    "[0.0,-1.0,0.0,1.0,1.0,1.0,-1.0,0.0,-1.0]" : 0.6325989682461871,
    "[1.0,-1.0,0.0,1.0,1.0,1.0,0.0,-1.0,-1.0]" : 0.6325989682461871,
    "[-1.0,1.0,0.0,1.0,1.0,-1.0,-1.0,1.0,-1.0]" : 0.6325989682461871,
    "[0.0,-1.0,1.0,1.0,-1.0,-1.0,1.0,1.0,0.0]" : 0.6322311994281472,
    "[0.0,-1.0,-1.0,1.0,1.0,1.0,1.0,-1.0,0.0]" : 0.6318630624731347,
    "[1.0,0.0,0.0,1.0,0.0,-1.0,1.0,-1.0,-1.0]" : 0.6318630624731347,
    "[-1.0,1.0,-1.0,0.0,0.0,-1.0,1.0,1.0,1.0]" : 0.6314945570126443,
    "[-1.0,1.0,0.0,1.0,1.0,1.0,-1.0,0.0,-1.0]" : 0.6314945570126443,
    "[0.0,-1.0,-1.0,0.0,0.0,-1.0,1.0,1.0,1.0]" : 0.6311256826778016,
    "[1.0,0.0,-1.0,1.0,1.0,1.0,0.0,-1.0,-1.0]" : 0.6311256826778016,
    "[1.0,-1.0,-1.0,1.0,0.0,-1.0,1.0,0.0,0.0]" : 0.6307564390993627,
    "[0.0,0.0,-1.0,1.0,1.0,1.0,-1.0,0.0,-1.0]" : 0.6307564390993627,
    "[-1.0,-1.0,1.0,0.0,0.0,1.0,0.0,-1.0,1.0]" : 0.6303868259077148,
    "[-1.0,1.0,-1.0,0.0,1.0,0.0,0.0,1.0,-1.0]" : 0.6303868259077148,
    "[-1.0,1.0,-1.0,-1.0,0.0,0.0,1.0,1.0,1.0]" : 0.6300168427328744,
    "[0.0,-1.0,1.0,0.0,0.0,1.0,-1.0,-1.0,1.0]" : 0.6300168427328744,
    "[0.0,0.0,1.0,-1.0,0.0,1.0,-1.0,-1.0,1.0]" : 0.6296464892044881,
    "[-1.0,0.0,-1.0,0.0,0.0,-1.0,1.0,1.0,1.0]" : 0.6292757649518315,
    "[1.0,1.0,1.0,-1.0,0.0,0.0,-1.0,-1.0,0.0]" : 0.6292757649518315,
    "[0.0,-1.0,0.0,1.0,1.0,1.0,0.0,-1.0,-1.0]" : 0.6292757649518315,
    "[1.0,1.0,1.0,0.0,0.0,-1.0,0.0,-1.0,-1.0]" : 0.6289046696038092,
    "[-1.0,-1.0,1.0,0.0,0.0,1.0,-1.0,0.0,1.0]" : 0.6289046696038092,
    "[-1.0,0.0,1.0,0.0,0.0,1.0,-1.0,-1.0,1.0]" : 0.6289046696038092,
    "[1.0,-1.0,-1.0,1.0,0.0,0.0,1.0,0.0,-1.0]" : 0.6285332027889544,
    "[-1.0,1.0,0.0,0.0,1.0,-1.0,-1.0,1.0,0.0]" : 0.6285332027889544,
    "[0.0,1.0,0.0,1.0,0.0,0.0,-1.0,-1.0,1.0]" : 0.6281972110331137,
    "[1.0,1.0,-1.0,-1.0,1.0,-1.0,0.0,1.0,0.0]" : 0.6281613641354284,
    "[-1.0,-1.0,1.0,-1.0,0.0,1.0,0.0,0.0,1.0]" : 0.6281613641354284,
    "[-1.0,-1.0,1.0,0.0,-1.0,1.0,0.0,1.0,1.0]" : 0.6281613641354284,
    "[0.0,0.0,-1.0,-1.0,-1.0,0.0,1.0,1.0,1.0]" : 0.6281613641354284,
    "[-1.0,0.0,0.0,1.0,1.0,1.0,0.0,-1.0,-1.0]" : 0.6281613641354284,
    "[1.0,1.0,1.0,0.0,0.0,-1.0,-1.0,0.0,-1.0]" : 0.6277891532710204,
    "[1.0,0.0,-1.0,1.0,0.0,0.0,1.0,-1.0,-1.0]" : 0.6277891532710204,
    "[0.0,0.0,1.0,-1.0,1.0,1.0,1.0,-1.0,-1.0]" : 0.6274165698231468,
    "[0.0,1.0,-1.0,-1.0,0.0,-1.0,1.0,1.0,1.0]" : 0.6270436134188512,
    "[-1.0,1.0,-1.0,-1.0,1.0,1.0,0.0,1.0,-1.0]" : 0.6270436134188512,
    "[1.0,-1.0,0.0,1.0,0.0,0.0,1.0,-1.0,-1.0]" : 0.6266702836848038,
    "[-1.0,-1.0,1.0,-1.0,1.0,0.0,1.0,1.0,0.0]" : 0.6266702836848038,
    "[1.0,1.0,1.0,-1.0,0.0,-1.0,-1.0,0.0,0.0]" : 0.6262965802473012,
    "[0.0,-1.0,-1.0,1.0,1.0,1.0,1.0,0.0,-1.0]" : 0.6262965802473012,
    "[0.0,1.0,1.0,-1.0,1.0,0.0,-1.0,1.0,-1.0]" : 0.6255480507652454,
    "[-1.0,0.0,-1.0,-1.0,0.0,0.0,1.0,1.0,1.0]" : 0.6251732239714135,
    "[1.0,0.0,1.0,-1.0,0.0,0.0,-1.0,1.0,0.0]" : 0.6247394498604716,
    "[1.0,1.0,0.0,0.0,1.0,-1.0,-1.0,1.0,-1.0]" : 0.6240464908751493,
    "[-1.0,-1.0,0.0,1.0,1.0,1.0,0.0,-1.0,0.0]" : 0.6240464908751493,
    "[0.0,1.0,0.0,-1.0,1.0,-1.0,0.0,1.0,-1.0]" : 0.6240464908751493,
    "[-1.0,1.0,-1.0,1.0,1.0,1.0,0.0,-1.0,-1.0]" : 0.6236701610182929,
    "[-1.0,-1.0,0.0,1.0,1.0,1.0,-1.0,-1.0,1.0]" : 0.6236701610182929,
    "[0.0,1.0,-1.0,-1.0,1.0,0.0,-1.0,1.0,0.0]" : 0.6229163708077523,
    "[1.0,1.0,1.0,-1.0,0.0,0.0,-1.0,0.0,-1.0]" : 0.6225389096995234,
    "[0.0,1.0,-1.0,0.0,1.0,0.0,-1.0,1.0,-1.0]" : 0.621782853587953,
    "[0.0,-1.0,-1.0,1.0,1.0,1.0,0.0,-1.0,0.0]" : 0.6214042578277985,
    "[0.0,1.0,-1.0,-1.0,1.0,-1.0,0.0,1.0,0.0]" : 0.6214042578277985,
    "[0.0,1.0,-1.0,0.0,1.0,-1.0,-1.0,1.0,0.0]" : 0.6210252830928911,
    "[-1.0,0.0,-1.0,1.0,1.0,1.0,0.0,0.0,-1.0]" : 0.6210252830928911,
    "[0.0,1.0,1.0,0.0,1.0,-1.0,-1.0,1.0,-1.0]" : 0.6206459290038766,
    "[0.0,0.0,-1.0,1.0,0.0,-1.0,0.0,1.0,1.0]" : 0.6205632490600298,
    "[-1.0,1.0,-1.0,1.0,1.0,-1.0,-1.0,1.0,0.0]" : 0.6202661951810212,
    "[-1.0,0.0,0.0,-1.0,0.0,1.0,1.0,1.0,0.0]" : 0.6199504290451501,
    "[-1.0,1.0,0.0,0.0,1.0,-1.0,0.0,1.0,-1.0]" : 0.6195055868129514,
    "[1.0,0.0,0.0,0.0,0.0,1.0,1.0,-1.0,-1.0]" : 0.6189337863630853,
    "[1.0,1.0,0.0,1.0,-1.0,0.0,1.0,-1.0,-1.0]" : 0.6187434549432016,
    "[0.0,-1.0,1.0,-1.0,0.0,1.0,0.0,-1.0,1.0]" : 0.6187434549432016,
    "[-1.0,1.0,0.0,-1.0,1.0,0.0,0.0,1.0,-1.0]" : 0.6187434549432016,
    "[1.0,-1.0,-1.0,1.0,0.0,0.0,0.0,1.0,0.0]" : 0.6186271186139285,
    "[-1.0,0.0,-1.0,1.0,1.0,1.0,0.0,-1.0,0.0]" : 0.6183618167418166,
    "[-1.0,1.0,-1.0,1.0,1.0,1.0,-1.0,-1.0,0.0]" : 0.6183618167418166,
    "[1.0,0.0,1.0,-1.0,0.0,1.0,-1.0,-1.0,1.0]" : 0.6179797965201917,
    "[0.0,0.0,-1.0,1.0,1.0,1.0,-1.0,-1.0,0.0]" : 0.6179797965201917,
    "[1.0,-1.0,0.0,1.0,0.0,-1.0,1.0,-1.0,0.0]" : 0.6175973938959245,
    "[1.0,-1.0,1.0,1.0,0.0,-1.0,1.0,-1.0,0.0]" : 0.6175973938959245,
    "[0.0,-1.0,-1.0,1.0,1.0,1.0,-1.0,0.0,0.0]" : 0.6175973938959245,
    "[0.0,-1.0,1.0,0.0,1.0,-1.0,0.0,0.0,1.0]" : 0.6168325420958946,
    "[1.0,1.0,1.0,-1.0,0.0,-1.0,0.0,-1.0,0.0]" : 0.6168314399079379,
    "[1.0,-1.0,0.0,-1.0,0.0,-1.0,1.0,1.0,1.0]" : 0.6168314399079379,
    "[0.0,1.0,-1.0,0.0,0.0,-1.0,1.0,0.0,1.0]" : 0.616731595428555,
    "[-1.0,-1.0,1.0,-1.0,0.0,0.0,1.0,1.0,1.0]" : 0.6164478877774976,
    "[-1.0,-1.0,0.0,1.0,1.0,1.0,0.0,0.0,-1.0]" : 0.6164478877774976,
    "[-1.0,-1.0,0.0,1.0,1.0,1.0,-1.0,1.0,-1.0]" : 0.6160639517109726,
    "[1.0,-1.0,-1.0,1.0,0.0,-1.0,1.0,0.0,1.0]" : 0.6160639517109726,
    "[1.0,1.0,0.0,-1.0,0.0,1.0,-1.0,0.0,0.0]" : 0.6158487402721937,
    "[-1.0,1.0,0.0,-1.0,1.0,-1.0,0.0,1.0,0.0]" : 0.615294926232002,
    "[-1.0,0.0,1.0,0.0,-1.0,1.0,0.0,-1.0,1.0]" : 0.615294926232002,
    "[1.0,1.0,1.0,-1.0,0.0,0.0,0.0,-1.0,-1.0]" : 0.615294926232002,
    "[-1.0,-1.0,1.0,0.0,1.0,0.0,1.0,-1.0,1.0]" : 0.6145243603918437,
    "[0.0,0.0,0.0,0.0,1.0,-1.0,1.0,-1.0,1.0]" : 0.6144933513224901,
    "[1.0,0.0,-1.0,1.0,0.0,-1.0,1.0,-1.0,0.0]" : 0.6141384988723886,
    "[0.0,1.0,0.0,-1.0,1.0,-1.0,-1.0,1.0,0.0]" : 0.613752251105148,
    "[0.0,-1.0,0.0,1.0,1.0,1.0,-1.0,-1.0,0.0]" : 0.6133656167034873,
    "[0.0,1.0,-1.0,-1.0,1.0,1.0,-1.0,1.0,-1.0]" : 0.6133656167034873,
    "[1.0,-1.0,-1.0,0.0,0.0,1.0,1.0,0.0,0.0]" : 0.6133412702380886,
    "[1.0,1.0,1.0,1.0,0.0,-1.0,0.0,-1.0,-1.0]" : 0.6129785952803852,
    "[0.0,-1.0,0.0,-1.0,0.0,-1.0,1.0,1.0,1.0]" : 0.6125911864484327,
    "[0.0,1.0,0.0,1.0,0.0,0.0,1.0,-1.0,-1.0]" : 0.6123650297230784,
    "[1.0,1.0,1.0,-1.0,0.0,0.0,-1.0,-1.0,1.0]" : 0.6122033898198331,
    "[0.0,-1.0,1.0,-1.0,0.0,1.0,-1.0,0.0,1.0]" : 0.6122033898198331,
    "[1.0,-1.0,0.0,1.0,1.0,0.0,-1.0,-1.0,1.0]" : 0.6118152050064017,
    "[1.0,1.0,0.0,-1.0,1.0,-1.0,-1.0,1.0,-1.0]" : 0.6106483175694368,
    "[1.0,1.0,1.0,0.0,0.0,-1.0,-1.0,-1.0,0.0]" : 0.6102585761270521,
    "[1.0,-1.0,0.0,-1.0,1.0,0.0,-1.0,1.0,1.0]" : 0.6102585761270521,
    "[-1.0,0.0,0.0,0.0,-1.0,-1.0,1.0,1.0,1.0]" : 0.609868444553075,
    "[0.0,-1.0,-1.0,-1.0,0.0,0.0,1.0,1.0,1.0]" : 0.6094779224569832,
    "[0.0,-1.0,1.0,0.0,-1.0,1.0,-1.0,0.0,1.0]" : 0.6094779224569832,
    "[-1.0,0.0,1.0,-1.0,0.0,1.0,0.0,-1.0,1.0]" : 0.6094779224569832,
    "[0.0,-1.0,1.0,-1.0,1.0,-1.0,1.0,1.0,0.0]" : 0.6090870094478636,
    "[0.0,0.0,-1.0,-1.0,1.0,-1.0,1.0,1.0,1.0]" : 0.6086957051344121,
    "[1.0,0.0,0.0,-1.0,1.0,0.0,1.0,-1.0,0.0]" : 0.6085828302454358,
    "[0.0,1.0,1.0,-1.0,1.0,-1.0,-1.0,1.0,-1.0]" : 0.6083040091249324,
    "[0.0,0.0,0.0,-1.0,1.0,0.0,1.0,-1.0,1.0]" : 0.6081692329353,
    "[1.0,-1.0,0.0,1.0,0.0,-1.0,1.0,0.0,-1.0]" : 0.607519440449144,
    "[-1.0,-1.0,0.0,0.0,0.0,-1.0,1.0,1.0,1.0]" : 0.6071265669974809,
    "[1.0,-1.0,0.0,1.0,1.0,-1.0,0.0,-1.0,1.0]" : 0.6067333002790808,
    "[0.0,1.0,1.0,-1.0,1.0,-1.0,1.0,0.0,-1.0]" : 0.6067333002790808,
    "[1.0,-1.0,1.0,0.0,1.0,-1.0,0.0,0.0,0.0]" : 0.6058328105331674,
    "[0.0,-1.0,-1.0,1.0,1.0,1.0,-1.0,1.0,-1.0]" : 0.6055511365848831,
    "[0.0,1.0,0.0,0.0,0.0,1.0,-1.0,-1.0,1.0]" : 0.6046944465425312,
    "[1.0,-1.0,-1.0,1.0,0.0,-1.0,1.0,-1.0,1.0]" : 0.6039693886644665,
    "[-1.0,0.0,0.0,0.0,1.0,1.0,0.0,1.0,-1.0]" : 0.6037479718673324,
    "[1.0,0.0,0.0,1.0,1.0,-1.0,-1.0,-1.0,1.0]" : 0.6023812979028963,
    "[-1.0,1.0,0.0,-1.0,0.0,1.0,1.0,0.0,0.0]" : 0.602093366041898,
    "[-1.0,0.0,1.0,-1.0,1.0,-1.0,1.0,1.0,0.0]" : 0.6019832811651566,
    "[1.0,0.0,1.0,-1.0,0.0,0.0,1.0,0.0,-1.0]" : 0.5998314334608091,
    "[0.0,0.0,-1.0,1.0,1.0,0.0,-1.0,1.0,0.0]" : 0.5997422496889007,
    "[-1.0,0.0,1.0,0.0,0.0,-1.0,1.0,0.0,1.0]" : 0.5978597224951345,
    "[1.0,1.0,1.0,-1.0,0.0,-1.0,1.0,-1.0,-1.0]" : 0.597578713711671,
    "[1.0,0.0,1.0,-1.0,-1.0,1.0,-1.0,-1.0,1.0]" : 0.5963690312372588,
    "[0.0,1.0,-1.0,0.0,1.0,1.0,-1.0,0.0,0.0]" : 0.5958672192624971,
    "[1.0,-1.0,0.0,0.0,1.0,1.0,-1.0,-1.0,1.0]" : 0.5955605567518244,
    "[-1.0,-1.0,1.0,1.0,1.0,1.0,-1.0,-1.0,0.0]" : 0.5955605567518244,
    "[1.0,-1.0,-1.0,-1.0,0.0,-1.0,1.0,1.0,1.0]" : 0.5947504628886807,
    "[1.0,-1.0,1.0,-1.0,0.0,1.0,-1.0,-1.0,1.0]" : 0.5947504628886807,
    "[1.0,-1.0,-1.0,0.0,-1.0,-1.0,1.0,1.0,1.0]" : 0.5943448076770902,
    "[-1.0,1.0,0.0,1.0,1.0,0.0,0.0,0.0,-1.0]" : 0.5942771684818945,
    "[-1.0,0.0,1.0,1.0,0.0,1.0,-1.0,-1.0,1.0]" : 0.593532278663565,
    "[1.0,-1.0,0.0,-1.0,1.0,0.0,1.0,0.0,0.0]" : 0.5930001281408322,
    "[1.0,-1.0,-1.0,1.0,1.0,1.0,0.0,0.0,-1.0]" : 0.592718122151094,
    "[1.0,0.0,-1.0,0.0,0.0,0.0,1.0,-1.0,1.0]" : 0.5922167500835922,
    "[1.0,0.0,1.0,0.0,0.0,-1.0,-1.0,0.0,1.0]" : 0.5921352321779311,
    "[0.0,1.0,0.0,0.0,0.0,1.0,1.0,-1.0,-1.0]" : 0.5916156724074444,
    "[0.0,0.0,-1.0,1.0,1.0,1.0,1.0,-1.0,-1.0]" : 0.5914938286890763,
    "[1.0,0.0,0.0,-1.0,0.0,1.0,-1.0,1.0,0.0]" : 0.591464161090651,
    "[0.0,1.0,1.0,-1.0,0.0,1.0,-1.0,-1.0,1.0]" : 0.5910849135832371,
    "[-1.0,0.0,0.0,0.0,1.0,1.0,1.0,0.0,-1.0]" : 0.590027322516593,
    "[1.0,-1.0,0.0,1.0,1.0,0.0,1.0,-1.0,-1.0]" : 0.5898557106796741,
    "[-1.0,1.0,-1.0,0.0,1.0,-1.0,0.0,1.0,1.0]" : 0.5890341899864564,
    "[1.0,0.0,-1.0,1.0,1.0,-1.0,0.0,-1.0,1.0]" : 0.5886228127796967,
    "[-1.0,-1.0,1.0,-1.0,-1.0,1.0,0.0,1.0,1.0]" : 0.5886228127796967,
    "[-1.0,-1.0,0.0,1.0,1.0,1.0,1.0,-1.0,0.0]" : 0.5886228127796967,
    "[0.0,1.0,-1.0,1.0,0.0,-1.0,0.0,0.0,1.0]" : 0.5875857280958502,
    "[1.0,-1.0,0.0,-1.0,1.0,1.0,-1.0,-1.0,1.0]" : 0.5869731819384288,
    "[1.0,1.0,0.0,0.0,0.0,-1.0,1.0,-1.0,0.0]" : 0.5867744920214601,
    "[1.0,0.0,1.0,0.0,0.0,-1.0,0.0,1.0,-1.0]" : 0.5865461905892333,
    "[0.0,-1.0,0.0,1.0,0.0,-1.0,1.0,0.0,1.0]" : 0.5865252804566838,
    "[1.0,-1.0,0.0,0.0,0.0,-1.0,1.0,1.0,0.0]" : 0.586517517746834,
    "[0.0,0.0,-1.0,1.0,1.0,0.0,-1.0,0.0,1.0]" : 0.5860326998431998,
    "[1.0,-1.0,-1.0,-1.0,1.0,-1.0,0.0,1.0,1.0]" : 0.5857316191277743,
    "[0.0,-1.0,0.0,-1.0,0.0,1.0,1.0,0.0,1.0]" : 0.5857247138706431,
    "[1.0,0.0,-1.0,0.0,1.0,0.0,-1.0,1.0,0.0]" : 0.5853132359263892,
    "[1.0,0.0,0.0,-1.0,1.0,1.0,-1.0,-1.0,1.0]" : 0.5844863241666991,
    "[1.0,-1.0,-1.0,0.0,0.0,1.0,0.0,1.0,0.0]" : 0.5840872675672178,
    "[-1.0,-1.0,1.0,1.0,0.0,1.0,0.0,-1.0,1.0]" : 0.584070394541485,
    "[1.0,1.0,1.0,-1.0,1.0,-1.0,-1.0,0.0,0.0]" : 0.584070394541485,
    "[0.0,-1.0,1.0,-1.0,0.0,0.0,0.0,1.0,1.0]" : 0.583576690853347,
    "[0.0,1.0,1.0,1.0,0.0,-1.0,0.0,0.0,-1.0]" : 0.5833465116641663,
    "[1.0,-1.0,0.0,1.0,1.0,-1.0,0.0,0.0,0.0]" : 0.5823635030079691,
    "[0.0,-1.0,0.0,-1.0,1.0,0.0,1.0,1.0,0.0]" : 0.582038005127229,
    "[1.0,1.0,0.0,-1.0,1.0,0.0,-1.0,1.0,-1.0]" : 0.5819844928840341,
    "[1.0,0.0,1.0,1.0,0.0,-1.0,0.0,-1.0,0.0]" : 0.5819815917207167,
    "[-1.0,0.0,1.0,1.0,1.0,0.0,0.0,0.0,-1.0]" : 0.5810818401144497,
    "[0.0,0.0,1.0,1.0,0.0,0.0,-1.0,-1.0,1.0]" : 0.5805269785404477,
    "[1.0,1.0,-1.0,-1.0,1.0,0.0,-1.0,0.0,1.0]" : 0.580308242245718,
    "[1.0,1.0,1.0,-1.0,0.0,-1.0,-1.0,1.0,-1.0]" : 0.5794675979340798,
    "[1.0,-1.0,-1.0,0.0,1.0,1.0,-1.0,-1.0,1.0]" : 0.5794675979340798,
    "[1.0,-1.0,-1.0,1.0,1.0,-1.0,0.0,-1.0,1.0]" : 0.5790466445586442,
    "[0.0,1.0,1.0,-1.0,1.0,-1.0,1.0,-1.0,-1.0]" : 0.5790466445586442,
    "[-1.0,-1.0,1.0,0.0,0.0,1.0,0.0,1.0,0.0]" : 0.5781832036119807,
    "[0.0,1.0,-1.0,0.0,1.0,0.0,-1.0,0.0,1.0]" : 0.5780530942263351,
    "[0.0,1.0,1.0,-1.0,1.0,0.0,1.0,-1.0,-1.0]" : 0.5773586130891224,
    "[-1.0,1.0,-1.0,1.0,1.0,0.0,-1.0,1.0,-1.0]" : 0.5769355486176455,
    "[-1.0,-1.0,0.0,-1.0,1.0,-1.0,1.0,1.0,1.0]" : 0.576512060658189,
    "[-1.0,0.0,1.0,0.0,1.0,0.0,0.0,1.0,-1.0]" : 0.5759099151450043,
    "[-1.0,1.0,0.0,0.0,1.0,0.0,1.0,0.0,-1.0]" : 0.5758965243566564,
    "[1.0,-1.0,-1.0,-1.0,1.0,0.0,0.0,1.0,1.0]" : 0.5756638125792655,
    "[0.0,-1.0,1.0,1.0,1.0,-1.0,1.0,0.0,-1.0]" : 0.5756638125792655,
    "[-1.0,-1.0,1.0,1.0,0.0,1.0,-1.0,-1.0,1.0]" : 0.5752390516107011,
    "[-1.0,-1.0,1.0,-1.0,1.0,1.0,1.0,-1.0,0.0]" : 0.5752390516107011,
    "[1.0,-1.0,1.0,0.0,0.0,0.0,-1.0,0.0,1.0]" : 0.5750223862257676,
    "[1.0,-1.0,-1.0,1.0,1.0,-1.0,0.0,0.0,1.0]" : 0.5739622158850852,
    "[1.0,1.0,1.0,1.0,-1.0,-1.0,0.0,-1.0,-1.0]" : 0.5739622158850852,
    "[1.0,-1.0,1.0,0.0,0.0,0.0,1.0,0.0,-1.0]" : 0.5736705278867845,
    "[-1.0,1.0,0.0,-1.0,0.0,0.0,1.0,0.0,1.0]" : 0.5731231002810364,
    "[-1.0,-1.0,1.0,1.0,0.0,1.0,-1.0,0.0,1.0]" : 0.573108860456626,
    "[1.0,0.0,-1.0,0.0,1.0,1.0,-1.0,0.0,0.0]" : 0.5729744505953025,
    "[1.0,1.0,0.0,0.0,1.0,-1.0,-1.0,-1.0,1.0]" : 0.5722537957537447,
    "[0.0,0.0,1.0,1.0,1.0,-1.0,1.0,-1.0,-1.0]" : 0.5718256213547622,
    "[-1.0,0.0,1.0,1.0,1.0,0.0,1.0,-1.0,-1.0]" : 0.5713970183527575,
    "[-1.0,1.0,-1.0,0.0,-1.0,-1.0,1.0,1.0,1.0]" : 0.5713970183527575,
    "[1.0,1.0,0.0,-1.0,1.0,0.0,-1.0,-1.0,1.0]" : 0.5713970183527575,
    "[1.0,-1.0,0.0,-1.0,0.0,1.0,0.0,0.0,1.0]" : 0.5707832500171477,
    "[1.0,1.0,0.0,0.0,0.0,-1.0,0.0,-1.0,1.0]" : 0.5707060169336171,
    "[1.0,-1.0,-1.0,0.0,1.0,-1.0,0.0,1.0,1.0]" : 0.5705385248231231,
    "[0.0,1.0,1.0,0.0,1.0,-1.0,1.0,-1.0,-1.0]" : 0.5701086334361405,
    "[1.0,1.0,1.0,-1.0,1.0,-1.0,-1.0,-1.0,0.0]" : 0.5692475592662354,
    "[0.0,-1.0,1.0,-1.0,1.0,-1.0,1.0,0.0,1.0]" : 0.5692475592662354,
    "[1.0,-1.0,0.0,1.0,1.0,-1.0,1.0,-1.0,-1.0]" : 0.5679527130537699,
    "[-1.0,1.0,-1.0,-1.0,-1.0,0.0,1.0,1.0,1.0]" : 0.5679527130537699,
    "[0.0,0.0,0.0,1.0,1.0,-1.0,1.0,-1.0,0.0]" : 0.5665803480349679,
    "[1.0,0.0,0.0,1.0,0.0,-1.0,0.0,-1.0,1.0]" : 0.56600451045197,
    "[1.0,-1.0,-1.0,0.0,-1.0,0.0,1.0,1.0,1.0]" : 0.5657859806545582,
    "[0.0,-1.0,0.0,0.0,1.0,-1.0,0.0,1.0,1.0]" : 0.5654549283396402,
    "[1.0,-1.0,-1.0,1.0,0.0,0.0,1.0,-1.0,1.0]" : 0.5653513319658794,
    "[1.0,-1.0,0.0,-1.0,0.0,0.0,0.0,1.0,1.0]" : 0.5652677521870569,
    "[-1.0,1.0,1.0,0.0,1.0,-1.0,1.0,0.0,-1.0]" : 0.5649162481934075,
    "[-1.0,-1.0,1.0,0.0,0.0,-1.0,1.0,1.0,1.0]" : 0.5649162481934075,
    "[0.0,-1.0,1.0,-1.0,1.0,1.0,0.0,-1.0,1.0]" : 0.5649162481934075,
    "[-1.0,-1.0,1.0,1.0,1.0,1.0,0.0,0.0,-1.0]" : 0.5640447736545708,
    "[1.0,0.0,-1.0,1.0,0.0,-1.0,1.0,-1.0,1.0]" : 0.5640447736545708,
    "[1.0,-1.0,0.0,0.0,1.0,-1.0,1.0,-1.0,1.0]" : 0.5640447736545708,
    "[-1.0,0.0,-1.0,1.0,0.0,-1.0,1.0,1.0,1.0]" : 0.5640447736545708,
    "[1.0,1.0,0.0,-1.0,1.0,0.0,0.0,-1.0,0.0]" : 0.5640165786700628,
    "[-1.0,-1.0,1.0,1.0,-1.0,1.0,0.0,0.0,1.0]" : 0.5636083820158592,
    "[1.0,-1.0,1.0,0.0,1.0,-1.0,0.0,-1.0,1.0]" : 0.5636083820158592,
    "[1.0,0.0,-1.0,1.0,-1.0,1.0,1.0,-1.0,-1.0]" : 0.5636083820158592,
    "[1.0,1.0,1.0,0.0,-1.0,-1.0,-1.0,1.0,-1.0]" : 0.5627342878157062,
    "[-1.0,0.0,0.0,0.0,1.0,0.0,1.0,1.0,-1.0]" : 0.5626289006453815,
    "[1.0,0.0,-1.0,1.0,-1.0,-1.0,1.0,0.0,1.0]" : 0.5622965843792957,
    "[1.0,1.0,1.0,-1.0,0.0,0.0,1.0,-1.0,-1.0]" : 0.5618584428012864,
    "[1.0,1.0,1.0,0.0,-1.0,0.0,1.0,-1.0,-1.0]" : 0.5618584428012864,
    "[1.0,1.0,1.0,0.0,-1.0,0.0,-1.0,-1.0,1.0]" : 0.5618584428012864,
    "[1.0,-1.0,0.0,1.0,0.0,-1.0,1.0,1.0,-1.0]" : 0.5618584428012864,
    "[1.0,-1.0,0.0,-1.0,1.0,1.0,0.0,-1.0,1.0]" : 0.5618584428012864,
    "[1.0,-1.0,0.0,-1.0,1.0,1.0,-1.0,0.0,1.0]" : 0.5614198626430981,
    "[-1.0,0.0,1.0,1.0,-1.0,1.0,-1.0,-1.0,1.0]" : 0.5614198626430981,
    "[1.0,-1.0,-1.0,1.0,-1.0,1.0,1.0,0.0,-1.0]" : 0.5614198626430981,
    "[1.0,-1.0,1.0,1.0,0.0,-1.0,1.0,0.0,-1.0]" : 0.5614198626430981,
    "[-1.0,1.0,0.0,1.0,1.0,-1.0,0.0,1.0,-1.0]" : 0.5614198626430981,
    "[1.0,0.0,-1.0,0.0,1.0,1.0,-1.0,-1.0,1.0]" : 0.5609808434657115,
    "[-1.0,-1.0,1.0,1.0,-1.0,1.0,-1.0,0.0,1.0]" : 0.5609808434657115,
    "[-1.0,1.0,1.0,-1.0,1.0,0.0,0.0,1.0,-1.0]" : 0.5605413848296681,
    "[1.0,1.0,1.0,1.0,-1.0,-1.0,0.0,-1.0,0.0]" : 0.5605413848296681,
    "[-1.0,1.0,0.0,-1.0,1.0,1.0,0.0,1.0,-1.0]" : 0.5605413848296681,
    "[-1.0,0.0,-1.0,-1.0,0.0,1.0,1.0,1.0,1.0]" : 0.5601014862950691,
    "[0.0,-1.0,1.0,-1.0,1.0,0.0,1.0,-1.0,1.0]" : 0.5601014862950691,
    "[0.0,1.0,1.0,-1.0,-1.0,1.0,1.0,-1.0,0.0]" : 0.5601014862950691,
    "[-1.0,0.0,1.0,0.0,1.0,1.0,1.0,-1.0,-1.0]" : 0.5596611474215757,
    "[1.0,0.0,1.0,-1.0,-1.0,1.0,-1.0,0.0,1.0]" : 0.5596611474215757,
    "[1.0,0.0,1.0,1.0,-1.0,-1.0,1.0,0.0,-1.0]" : 0.5592203677684082,
    "[0.0,1.0,1.0,-1.0,-1.0,1.0,-1.0,0.0,1.0]" : 0.5592203677684082,
    "[-1.0,-1.0,0.0,-1.0,-1.0,1.0,1.0,1.0,1.0]" : 0.5592203677684082,
    "[1.0,1.0,1.0,-1.0,0.0,1.0,-1.0,0.0,-1.0]" : 0.5587791468943457,
    "[0.0,0.0,1.0,0.0,1.0,0.0,-1.0,-1.0,1.0]" : 0.558540688297706,
    "[-1.0,0.0,1.0,-1.0,0.0,1.0,1.0,-1.0,1.0]" : 0.5583374843577256,
    "[0.0,0.0,0.0,0.0,1.0,1.0,0.0,-1.0,0.0]" : 0.558173862956437,
    "[1.0,0.0,-1.0,1.0,1.0,0.0,-1.0,0.0,0.0]" : 0.5574597047198155,
    "[-1.0,-1.0,0.0,1.0,0.0,-1.0,1.0,1.0,1.0]" : 0.5574528325279513,
    "[1.0,1.0,0.0,1.0,-1.0,-1.0,1.0,-1.0,0.0]" : 0.5570098423492597,
    "[1.0,-1.0,1.0,1.0,0.0,0.0,1.0,-1.0,-1.0]" : 0.5561225312470987,
    "[-1.0,0.0,1.0,0.0,1.0,-1.0,1.0,1.0,-1.0]" : 0.5561225312470987,
    "[0.0,-1.0,1.0,0.0,1.0,-1.0,1.0,-1.0,1.0]" : 0.5561225312470987,
    "[-1.0,0.0,1.0,-1.0,-1.0,1.0,0.0,1.0,1.0]" : 0.5561225312470987,
    "[-1.0,1.0,1.0,-1.0,1.0,-1.0,0.0,1.0,-1.0]" : 0.5556782094354299,
    "[1.0,1.0,1.0,-1.0,-1.0,0.0,-1.0,1.0,-1.0]" : 0.5556782094354299,
    "[-1.0,1.0,1.0,-1.0,0.0,1.0,0.0,-1.0,1.0]" : 0.5556782094354299,
    "[0.0,-1.0,-1.0,1.0,-1.0,0.0,1.0,1.0,1.0]" : 0.5556782094354299,
    "[-1.0,1.0,1.0,0.0,0.0,1.0,-1.0,-1.0,1.0]" : 0.5552334428571618,
    "[1.0,-1.0,-1.0,1.0,0.0,0.0,1.0,1.0,-1.0]" : 0.5552334428571618,
    "[0.0,0.0,1.0,0.0,1.0,-1.0,0.0,0.0,0.0]" : 0.5549424463892862,
    "[1.0,1.0,-1.0,1.0,0.0,0.0,1.0,-1.0,-1.0]" : 0.5547882310670824,
    "[0.0,1.0,-1.0,0.0,-1.0,-1.0,1.0,1.0,1.0]" : 0.5547882310670824,
    "[1.0,1.0,-1.0,1.0,0.0,-1.0,1.0,-1.0,0.0]" : 0.5547882310670824,
    "[-1.0,-1.0,0.0,1.0,1.0,1.0,0.0,1.0,-1.0]" : 0.5547882310670824,
    "[1.0,-1.0,0.0,0.0,1.0,0.0,0.0,0.0,0.0]" : 0.5547641073880639,
    "[1.0,1.0,1.0,-1.0,0.0,-1.0,-1.0,0.0,1.0]" : 0.5543425736195343,
    "[0.0,0.0,1.0,1.0,-1.0,1.0,-1.0,-1.0,1.0]" : 0.5543425736195343,
    "[0.0,1.0,-1.0,-1.0,1.0,1.0,-1.0,1.0,0.0]" : 0.5543425736195343,
    "[0.0,1.0,1.0,-1.0,-1.0,1.0,-1.0,-1.0,1.0]" : 0.5543425736195343,
    "[1.0,1.0,1.0,0.0,-1.0,-1.0,0.0,1.0,-1.0]" : 0.5538964700684139,
    "[0.0,-1.0,-1.0,1.0,1.0,1.0,-1.0,1.0,0.0]" : 0.5538964700684139,
    "[-1.0,-1.0,1.0,0.0,-1.0,1.0,1.0,0.0,1.0]" : 0.5534499199671711,
    "[1.0,-1.0,1.0,-1.0,1.0,-1.0,0.0,0.0,1.0]" : 0.5534499199671711,
    "[0.0,-1.0,-1.0,-1.0,0.0,1.0,1.0,1.0,1.0]" : 0.5534499199671711,
    "[1.0,1.0,1.0,-1.0,0.0,1.0,0.0,-1.0,-1.0]" : 0.5534499199671711,
    "[0.0,-1.0,0.0,-1.0,-1.0,1.0,1.0,1.0,1.0]" : 0.5534499199671711,
    "[1.0,0.0,1.0,-1.0,1.0,-1.0,1.0,-1.0,0.0]" : 0.5534499199671711,
    "[0.0,-1.0,1.0,-1.0,-1.0,0.0,1.0,1.0,1.0]" : 0.5530029228688087,
    "[1.0,-1.0,0.0,1.0,-1.0,-1.0,1.0,0.0,1.0]" : 0.5530029228688087,
    "[0.0,0.0,0.0,-1.0,1.0,0.0,1.0,0.0,0.0]" : 0.5528822143229909,
    "[1.0,1.0,1.0,1.0,0.0,-1.0,-1.0,-1.0,0.0]" : 0.5525554783258821,
    "[0.0,1.0,1.0,-1.0,0.0,0.0,1.0,-1.0,0.0]" : 0.5521665749939602,
    "[1.0,0.0,-1.0,1.0,-1.0,-1.0,1.0,1.0,0.0]" : 0.5521075858904989,
    "[0.0,0.0,1.0,-1.0,0.0,1.0,1.0,-1.0,0.0]" : 0.5515653040630677,
    "[-1.0,1.0,0.0,-1.0,-1.0,0.0,1.0,1.0,1.0]" : 0.5512104555485504,
    "[1.0,0.0,0.0,-1.0,1.0,-1.0,1.0,-1.0,1.0]" : 0.5512104555485504,
    "[0.0,1.0,-1.0,1.0,1.0,1.0,-1.0,-1.0,0.0]" : 0.5507612167439567,
    "[1.0,-1.0,0.0,1.0,-1.0,-1.0,1.0,1.0,0.0]" : 0.5507612167439567,
    "[-1.0,1.0,1.0,0.0,1.0,-1.0,0.0,1.0,-1.0]" : 0.5503115282508485,
    "[1.0,1.0,1.0,-1.0,-1.0,0.0,-1.0,1.0,0.0]" : 0.5503115282508485,
    "[-1.0,1.0,0.0,1.0,1.0,1.0,0.0,-1.0,-1.0]" : 0.5503115282508485,
    "[1.0,-1.0,-1.0,1.0,1.0,1.0,-1.0,0.0,0.0]" : 0.5498613896190871,
    "[-1.0,0.0,1.0,0.0,1.0,1.0,0.0,0.0,-1.0]" : 0.5497129859819034,
    "[1.0,0.0,0.0,1.0,-1.0,1.0,1.0,-1.0,-1.0]" : 0.5494108003980834,
    "[1.0,0.0,-1.0,-1.0,1.0,0.0,-1.0,1.0,1.0]" : 0.5494108003980834,
    "[1.0,1.0,0.0,1.0,-1.0,-1.0,1.0,0.0,-1.0]" : 0.5494108003980834,
    "[0.0,1.0,-1.0,1.0,1.0,-1.0,-1.0,1.0,0.0]" : 0.5494108003980834,
    "[1.0,-1.0,0.0,-1.0,1.0,0.0,1.0,-1.0,1.0]" : 0.5489597601367969,
    "[1.0,1.0,1.0,0.0,-1.0,1.0,-1.0,-1.0,0.0]" : 0.5489597601367969,
    "[0.0,-1.0,0.0,1.0,0.0,-1.0,1.0,1.0,0.0]" : 0.5486769577792363,
    "[-1.0,-1.0,1.0,1.0,0.0,0.0,0.0,1.0,0.0]" : 0.5486667975863302,
    "[1.0,-1.0,-1.0,1.0,-1.0,1.0,1.0,0.0,0.0]" : 0.548508268383736,
    "[-1.0,1.0,0.0,-1.0,1.0,0.0,1.0,1.0,-1.0]" : 0.548508268383736,
    "[1.0,-1.0,1.0,-1.0,1.0,-1.0,1.0,0.0,0.0]" : 0.5480563246869568,
    "[1.0,-1.0,1.0,-1.0,0.0,1.0,-1.0,0.0,1.0]" : 0.5476039285940631,
    "[0.0,-1.0,1.0,-1.0,0.0,1.0,-1.0,1.0,1.0]" : 0.5476039285940631,
    "[-1.0,-1.0,1.0,1.0,1.0,1.0,0.0,-1.0,0.0]" : 0.5471510796522062,
    "[1.0,-1.0,-1.0,-1.0,0.0,0.0,1.0,1.0,1.0]" : 0.5471510796522062,
    "[1.0,0.0,-1.0,1.0,1.0,0.0,-1.0,-1.0,1.0]" : 0.5471510796522062,
    "[-1.0,1.0,-1.0,1.0,1.0,1.0,-1.0,0.0,-1.0]" : 0.5462440214079393,
    "[0.0,-1.0,-1.0,1.0,-1.0,-1.0,1.0,1.0,1.0]" : 0.545789811197563,
    "[0.0,-1.0,1.0,1.0,0.0,-1.0,1.0,0.0,0.0]" : 0.5457628763221775,
    "[0.0,1.0,1.0,-1.0,0.0,1.0,0.0,-1.0,0.0]" : 0.5456309248304763,
    "[1.0,-1.0,-1.0,1.0,1.0,1.0,0.0,-1.0,0.0]" : 0.5453351463222899,
    "[0.0,0.0,-1.0,1.0,1.0,1.0,-1.0,-1.0,1.0]" : 0.5448800263269998,
    "[1.0,1.0,1.0,0.0,0.0,-1.0,-1.0,-1.0,1.0]" : 0.5448800263269998,
    "[0.0,-1.0,1.0,0.0,0.0,-1.0,1.0,1.0,0.0]" : 0.5440453078096228,
    "[-1.0,0.0,1.0,0.0,0.0,0.0,1.0,-1.0,1.0]" : 0.5434860428744059,
    "[0.0,1.0,-1.0,-1.0,1.0,0.0,0.0,0.0,1.0]" : 0.5418578540081624,
    "[-1.0,0.0,0.0,1.0,1.0,1.0,1.0,-1.0,-1.0]" : 0.5416814046736269,
    "[1.0,0.0,1.0,-1.0,1.0,0.0,0.0,0.0,-1.0]" : 0.5413758393159639,
    "[0.0,0.0,-1.0,0.0,1.0,0.0,-1.0,1.0,1.0]" : 0.5410315513415922,
    "[0.0,1.0,-1.0,0.0,1.0,-1.0,-1.0,1.0,1.0]" : 0.5407633906479506,
    "[1.0,0.0,0.0,0.0,1.0,-1.0,-1.0,1.0,0.0]" : 0.5400799963867928,
    "[0.0,-1.0,0.0,1.0,1.0,0.0,-1.0,0.0,1.0]" : 0.5399835636610473,
    "[1.0,1.0,-1.0,-1.0,1.0,0.0,-1.0,1.0,0.0]" : 0.5393829207352739,
    "[-1.0,0.0,0.0,1.0,1.0,0.0,1.0,0.0,-1.0]" : 0.5386022588214587,
    "[1.0,1.0,0.0,1.0,0.0,-1.0,0.0,-1.0,0.0]" : 0.5381630397725471,
    "[-1.0,0.0,-1.0,1.0,1.0,1.0,-1.0,1.0,-1.0]" : 0.5379983011160168,
    "[0.0,0.0,-1.0,0.0,1.0,1.0,-1.0,0.0,1.0]" : 0.5378753021727984,
    "[0.0,-1.0,0.0,-1.0,1.0,-1.0,1.0,1.0,1.0]" : 0.5366095193161191,
    "[0.0,0.0,1.0,1.0,0.0,-1.0,0.0,1.0,-1.0]" : 0.5365570865966741,
    "[-1.0,1.0,0.0,1.0,1.0,0.0,-1.0,1.0,-1.0]" : 0.5361456649590463,
    "[1.0,0.0,1.0,-1.0,0.0,1.0,0.0,-1.0,0.0]" : 0.535389378446141,
    "[0.0,-1.0,0.0,1.0,1.0,1.0,-1.0,-1.0,1.0]" : 0.5352165628240235,
    "[-1.0,0.0,1.0,0.0,1.0,0.0,0.0,-1.0,1.0]" : 0.5346262533073219,
    "[-1.0,-1.0,0.0,1.0,1.0,1.0,1.0,0.0,-1.0]" : 0.5342855996936149,
    "[0.0,-1.0,0.0,-1.0,0.0,1.0,0.0,1.0,1.0]" : 0.5342205211802271,
    "[0.0,1.0,1.0,-1.0,0.0,0.0,0.0,-1.0,1.0]" : 0.5340001729327774,
    "[1.0,0.0,-1.0,0.0,1.0,1.0,0.0,-1.0,0.0]" : 0.5329904549670892,
    "[0.0,-1.0,-1.0,1.0,1.0,1.0,-1.0,0.0,1.0]" : 0.5324180755288475,
    "[1.0,1.0,-1.0,0.0,1.0,0.0,-1.0,0.0,0.0]" : 0.5317353182920231,
    "[0.0,-1.0,1.0,0.0,1.0,0.0,-1.0,-1.0,1.0]" : 0.5312934720568825,
    "[-1.0,1.0,1.0,0.0,1.0,-1.0,0.0,0.0,0.0]" : 0.5311459084083741,
    "[0.0,-1.0,1.0,0.0,1.0,1.0,1.0,-1.0,-1.0]" : 0.5310125195141503,
    "[1.0,1.0,-1.0,-1.0,1.0,-1.0,0.0,0.0,1.0]" : 0.5310125195141503,
    "[1.0,-1.0,0.0,1.0,1.0,-1.0,1.0,-1.0,0.0]" : 0.5310125195141503,
    "[1.0,-1.0,1.0,0.0,1.0,-1.0,0.0,-1.0,0.0]" : 0.5301434970813947,
    "[0.0,0.0,1.0,-1.0,1.0,-1.0,0.0,1.0,0.0]" : 0.5300204335207136,
    "[0.0,-1.0,1.0,-1.0,1.0,-1.0,0.0,0.0,1.0]" : 0.5298518334724766,
    "[1.0,1.0,0.0,-1.0,-1.0,1.0,1.0,0.0,-1.0]" : 0.5294003906518137,
    "[0.0,-1.0,0.0,0.0,1.0,1.0,1.0,0.0,-1.0]" : 0.5291499489296493,
    "[-1.0,0.0,0.0,1.0,1.0,1.0,-1.0,1.0,-1.0]" : 0.5291318702316617,
    "[-1.0,0.0,0.0,1.0,1.0,-1.0,-1.0,1.0,1.0]" : 0.5289137014581629,
    "[-1.0,1.0,-1.0,1.0,1.0,0.0,-1.0,1.0,0.0]" : 0.5286605307400143,
    "[1.0,0.0,0.0,-1.0,1.0,-1.0,-1.0,1.0,1.0]" : 0.5286605307400143,
    "[0.0,1.0,-1.0,1.0,-1.0,0.0,1.0,-1.0,1.0]" : 0.5283559214155777,
    "[0.0,0.0,1.0,-1.0,1.0,-1.0,0.0,-1.0,1.0]" : 0.5281917995551134,
    "[1.0,1.0,1.0,-1.0,0.0,-1.0,1.0,-1.0,0.0]" : 0.5281887194370415,
    "[0.0,-1.0,1.0,1.0,1.0,-1.0,1.0,-1.0,0.0]" : 0.5281887194370415,
    "[-1.0,1.0,-1.0,0.0,1.0,1.0,0.0,1.0,-1.0]" : 0.5281887194370415,
    "[1.0,0.0,1.0,1.0,-1.0,0.0,-1.0,1.0,-1.0]" : 0.5281439939671316,
    "[1.0,0.0,-1.0,-1.0,-1.0,1.0,1.0,0.0,1.0]" : 0.528058332105485,
    "[1.0,-1.0,1.0,0.0,-1.0,0.0,1.0,1.0,-1.0]" : 0.5279671697097671,
    "[1.0,-1.0,0.0,1.0,1.0,0.0,-1.0,1.0,-1.0]" : 0.5277990429570848,
    "[-1.0,-1.0,1.0,-1.0,0.0,-1.0,1.0,1.0,1.0]" : 0.5277164358504597,
    "[1.0,1.0,-1.0,0.0,1.0,-1.0,-1.0,1.0,0.0]" : 0.5277164358504597,
    "[0.0,-1.0,1.0,-1.0,1.0,1.0,0.0,1.0,-1.0]" : 0.5274988295007143,
    "[-1.0,1.0,0.0,0.0,-1.0,1.0,1.0,-1.0,1.0]" : 0.5274848511994421,
    "[1.0,0.0,-1.0,-1.0,0.0,0.0,1.0,0.0,1.0]" : 0.5274217056759928,
    "[-1.0,0.0,1.0,1.0,0.0,-1.0,1.0,-1.0,1.0]" : 0.5271197087653255,
    "[-1.0,1.0,-1.0,1.0,1.0,-1.0,0.0,0.0,1.0]" : 0.5270711235389216,
    "[1.0,0.0,1.0,-1.0,1.0,-1.0,-1.0,0.0,0.0]" : 0.5270320392596242,
    "[1.0,-1.0,1.0,-1.0,1.0,0.0,0.0,-1.0,0.0]" : 0.5268638449401447,
    "[0.0,1.0,0.0,-1.0,1.0,-1.0,1.0,0.0,0.0]" : 0.5268184675143125,
    "[0.0,-1.0,1.0,1.0,1.0,0.0,0.0,-1.0,0.0]" : 0.5267761288116561,
    "[0.0,-1.0,0.0,1.0,1.0,1.0,1.0,-1.0,-1.0]" : 0.5267704499349702,
    "[1.0,1.0,1.0,-1.0,0.0,-1.0,-1.0,-1.0,1.0]" : 0.5267704499349702,
    "[1.0,1.0,1.0,-1.0,0.0,-1.0,-1.0,1.0,0.0]" : 0.5267704499349702,
    "[0.0,-1.0,1.0,1.0,1.0,-1.0,0.0,1.0,-1.0]" : 0.5266347851891593,
    "[-1.0,1.0,-1.0,-1.0,1.0,1.0,1.0,0.0,0.0]" : 0.5265307522582555,
    "[-1.0,1.0,1.0,1.0,1.0,-1.0,0.0,-1.0,0.0]" : 0.5264471625390643,
    "[0.0,-1.0,0.0,0.0,1.0,1.0,1.0,-1.0,0.0]" : 0.5263613708797558,
    "[-1.0,1.0,1.0,0.0,-1.0,0.0,1.0,-1.0,1.0]" : 0.5263496243879425,
    "[0.0,1.0,1.0,1.0,-1.0,-1.0,-1.0,1.0,0.0]" : 0.5261542945715191,
    "[1.0,-1.0,1.0,0.0,0.0,-1.0,-1.0,1.0,1.0]" : 0.5260674902260364,
    "[0.0,-1.0,1.0,0.0,1.0,1.0,0.0,0.0,-1.0]" : 0.5259638826811032,
    "[1.0,-1.0,0.0,-1.0,1.0,-1.0,1.0,0.0,1.0]" : 0.5258225692058132,
    "[-1.0,1.0,-1.0,1.0,1.0,0.0,0.0,1.0,-1.0]" : 0.5258225692058132,
    "[-1.0,1.0,0.0,-1.0,1.0,1.0,1.0,-1.0,0.0]" : 0.5257858828849229,
    "[-1.0,1.0,-1.0,0.0,1.0,1.0,1.0,-1.0,0.0]" : 0.5257124168650132,
    "[1.0,0.0,-1.0,0.0,1.0,0.0,1.0,-1.0,0.0]" : 0.5256814487802307,
    "[-1.0,1.0,-1.0,0.0,1.0,1.0,0.0,-1.0,1.0]" : 0.5254139906361543,
    "[0.0,0.0,-1.0,1.0,-1.0,0.0,1.0,0.0,1.0]" : 0.5254041424874449,
    "[0.0,1.0,-1.0,0.0,1.0,1.0,1.0,-1.0,-1.0]" : 0.5252237180160798,
    "[-1.0,0.0,0.0,1.0,0.0,1.0,-1.0,0.0,1.0]" : 0.5252158525890037,
    "[0.0,-1.0,1.0,1.0,-1.0,1.0,-1.0,1.0,0.0]" : 0.5251487729052304,
    "[1.0,-1.0,1.0,1.0,0.0,-1.0,-1.0,0.0,1.0]" : 0.5250600360873402,
    "[1.0,1.0,-1.0,-1.0,1.0,1.0,0.0,-1.0,0.0]" : 0.5250290438608096,
    "[1.0,-1.0,1.0,0.0,-1.0,0.0,-1.0,1.0,1.0]" : 0.5248554162127687,
    "[1.0,-1.0,1.0,1.0,-1.0,0.0,0.0,1.0,-1.0]" : 0.5248268917834652,
    "[-1.0,1.0,0.0,1.0,-1.0,-1.0,0.0,1.0,1.0]" : 0.524781391019193,
    "[0.0,1.0,0.0,1.0,-1.0,-1.0,1.0,-1.0,1.0]" : 0.5247578156621157,
    "[-1.0,1.0,1.0,1.0,0.0,-1.0,-1.0,1.0,0.0]" : 0.5247306520458926,
    "[1.0,-1.0,0.0,1.0,1.0,-1.0,-1.0,1.0,0.0]" : 0.5247032211076982,
    "[-1.0,1.0,1.0,0.0,1.0,-1.0,0.0,-1.0,1.0]" : 0.5247026456216997,
    "[1.0,0.0,1.0,-1.0,-1.0,1.0,0.0,1.0,-1.0]" : 0.5246645751324797,
    "[1.0,-1.0,-1.0,0.0,1.0,0.0,1.0,0.0,0.0]" : 0.5246289130758616,
    "[1.0,-1.0,-1.0,0.0,1.0,1.0,0.0,1.0,-1.0]" : 0.5245099023899114,
    "[1.0,1.0,-1.0,-1.0,0.0,1.0,0.0,1.0,-1.0]" : 0.5244887454085841,
    "[0.0,-1.0,1.0,1.0,1.0,0.0,-1.0,1.0,-1.0]" : 0.524448462166705,
    "[1.0,1.0,1.0,-1.0,1.0,-1.0,0.0,-1.0,0.0]" : 0.5243971870321112,
    "[-1.0,0.0,1.0,1.0,-1.0,-1.0,1.0,0.0,1.0]" : 0.5243348352960481,
    "[1.0,0.0,0.0,-1.0,1.0,1.0,-1.0,1.0,-1.0]" : 0.5242247308290011,
    "[1.0,-1.0,-1.0,-1.0,1.0,1.0,0.0,1.0,0.0]" : 0.5241602050038504,
    "[1.0,1.0,-1.0,-1.0,0.0,0.0,1.0,-1.0,1.0]" : 0.524143720087146,
    "[0.0,0.0,1.0,1.0,1.0,-1.0,-1.0,1.0,-1.0]" : 0.5240863766881217,
    "[0.0,1.0,-1.0,-1.0,-1.0,1.0,1.0,1.0,0.0]" : 0.5240659127467081,
    "[1.0,1.0,-1.0,0.0,-1.0,0.0,1.0,-1.0,1.0]" : 0.5240284748884932,
    "[0.0,1.0,-1.0,1.0,-1.0,1.0,1.0,-1.0,0.0]" : 0.523997630315625,
    "[0.0,0.0,-1.0,-1.0,1.0,1.0,1.0,-1.0,1.0]" : 0.523903650731285,
    "[0.0,1.0,0.0,-1.0,-1.0,1.0,1.0,-1.0,1.0]" : 0.5237868454771821,
    "[1.0,0.0,1.0,1.0,-1.0,-1.0,-1.0,0.0,1.0]" : 0.5237190403023783,
    "[-1.0,1.0,1.0,1.0,-1.0,0.0,0.0,-1.0,1.0]" : 0.5236574622072692,
    "[1.0,1.0,-1.0,-1.0,1.0,1.0,0.0,0.0,-1.0]" : 0.5236369603129344,
    "[-1.0,1.0,1.0,1.0,1.0,-1.0,-1.0,0.0,0.0]" : 0.5235419255439858,
    "[-1.0,1.0,-1.0,1.0,-1.0,0.0,1.0,0.0,1.0]" : 0.52351899167654,
    "[1.0,0.0,1.0,-1.0,-1.0,1.0,1.0,0.0,-1.0]" : 0.5234889296387331,
    "[0.0,1.0,1.0,0.0,-1.0,0.0,-1.0,0.0,1.0]" : 0.523386949453358,
    "[0.0,1.0,1.0,1.0,-1.0,-1.0,-1.0,0.0,1.0]" : 0.5229832710626127,
    "[0.0,1.0,1.0,-1.0,1.0,-1.0,0.0,-1.0,1.0]" : 0.5229675201451159,
    "[-1.0,1.0,0.0,1.0,1.0,0.0,-1.0,-1.0,1.0]" : 0.5229309048236344,
    "[1.0,-1.0,0.0,-1.0,1.0,1.0,-1.0,1.0,0.0]" : 0.5227768938695244,
    "[0.0,1.0,0.0,1.0,1.0,-1.0,-1.0,-1.0,1.0]" : 0.5226090522113781,
    "[0.0,-1.0,1.0,1.0,-1.0,0.0,-1.0,1.0,1.0]" : 0.5225969586106384,
    "[1.0,1.0,-1.0,0.0,-1.0,1.0,1.0,-1.0,0.0]" : 0.522585496524875,
    "[1.0,-1.0,-1.0,0.0,1.0,1.0,0.0,-1.0,1.0]" : 0.522490010132568,
    "[1.0,-1.0,1.0,0.0,1.0,-1.0,1.0,-1.0,0.0]" : 0.522490010132568,
    "[0.0,1.0,-1.0,0.0,1.0,1.0,-1.0,1.0,-1.0]" : 0.522490010132568,
    "[-1.0,-1.0,1.0,1.0,1.0,0.0,-1.0,1.0,0.0]" : 0.5223905108254957,
    "[1.0,0.0,1.0,-1.0,1.0,0.0,-1.0,0.0,0.0]" : 0.5220991052180737,
    "[1.0,1.0,0.0,-1.0,-1.0,1.0,1.0,-1.0,0.0]" : 0.5220969518048705,
    "[1.0,-1.0,1.0,1.0,0.0,-1.0,1.0,-1.0,-1.0]" : 0.5220120221319968,
    "[1.0,1.0,0.0,-1.0,1.0,-1.0,0.0,-1.0,1.0]" : 0.5220120221319968,
    "[0.0,1.0,1.0,1.0,-1.0,-1.0,0.0,-1.0,1.0]" : 0.5218668508396839,
    "[1.0,1.0,0.0,0.0,0.0,0.0,-1.0,1.0,-1.0]" : 0.5218512839153078,
    "[0.0,1.0,-1.0,-1.0,0.0,1.0,1.0,1.0,-1.0]" : 0.5218284803993593,
    "[1.0,0.0,-1.0,-1.0,0.0,1.0,1.0,-1.0,1.0]" : 0.5216990866570873,
    "[-1.0,1.0,-1.0,0.0,-1.0,1.0,1.0,0.0,1.0]" : 0.5216804399731875,
    "[1.0,0.0,-1.0,0.0,-1.0,1.0,1.0,1.0,-1.0]" : 0.5216383068653331,
    "[-1.0,0.0,1.0,1.0,-1.0,-1.0,0.0,1.0,1.0]" : 0.5216247649005452,
    "[1.0,1.0,-1.0,0.0,-1.0,1.0,1.0,0.0,-1.0]" : 0.5216140769963881,
    "[0.0,-1.0,1.0,1.0,0.0,1.0,-1.0,1.0,-1.0]" : 0.5215078656595721,
    "[-1.0,1.0,1.0,1.0,-1.0,0.0,-1.0,0.0,1.0]" : 0.521439003595382,
    "[1.0,0.0,-1.0,1.0,0.0,1.0,0.0,0.0,-1.0]" : 0.5214356477390519,
    "[-1.0,1.0,0.0,1.0,-1.0,1.0,0.0,-1.0,1.0]" : 0.5213698770943266,
    "[1.0,-1.0,0.0,0.0,-1.0,1.0,1.0,1.0,-1.0]" : 0.5213598850177468,
    "[1.0,0.0,-1.0,-1.0,-1.0,1.0,1.0,1.0,0.0]" : 0.5213318734493785,
    "[0.0,0.0,-1.0,1.0,0.0,1.0,1.0,0.0,-1.0]" : 0.521227214013338,
    "[0.0,-1.0,1.0,0.0,1.0,0.0,-1.0,0.0,1.0]" : 0.52122711681243,
    "[-1.0,1.0,-1.0,1.0,1.0,0.0,1.0,-1.0,0.0]" : 0.521212498641933,
    "[-1.0,1.0,0.0,1.0,1.0,-1.0,1.0,-1.0,0.0]" : 0.5211424202886237,
    "[1.0,-1.0,1.0,-1.0,1.0,1.0,0.0,0.0,-1.0]" : 0.5211200644866852,
    "[1.0,1.0,1.0,-1.0,0.0,1.0,-1.0,-1.0,0.0]" : 0.5210546102524396,
    "[1.0,-1.0,0.0,1.0,0.0,1.0,-1.0,1.0,-1.0]" : 0.5210433086881311,
    "[1.0,0.0,1.0,1.0,-1.0,-1.0,-1.0,1.0,0.0]" : 0.5209301319941796,
    "[1.0,0.0,1.0,0.0,-1.0,1.0,-1.0,1.0,-1.0]" : 0.5207705109616951,
    "[1.0,-1.0,1.0,1.0,-1.0,-1.0,0.0,1.0,0.0]" : 0.5206027918782203,
    "[0.0,-1.0,-1.0,1.0,0.0,-1.0,1.0,1.0,1.0]" : 0.5205751854150832,
    "[1.0,-1.0,1.0,0.0,-1.0,1.0,-1.0,1.0,0.0]" : 0.5205458102428914,
    "[-1.0,0.0,1.0,1.0,-1.0,0.0,-1.0,1.0,1.0]" : 0.5205434017371904,
    "[1.0,1.0,0.0,-1.0,-1.0,1.0,0.0,1.0,-1.0]" : 0.5204076591107156,
    "[1.0,1.0,0.0,-1.0,-1.0,1.0,0.0,-1.0,1.0]" : 0.5203220922813542,
    "[0.0,1.0,-1.0,-1.0,-1.0,1.0,1.0,0.0,1.0]" : 0.5203146247482618,
    "[0.0,1.0,-1.0,1.0,1.0,-1.0,0.0,-1.0,1.0]" : 0.5202604654208345,
    "[1.0,-1.0,0.0,-1.0,-1.0,1.0,1.0,1.0,0.0]" : 0.5201669325066084,
    "[1.0,1.0,1.0,-1.0,-1.0,1.0,0.0,-1.0,0.0]" : 0.5200952806729618,
    "[0.0,1.0,-1.0,1.0,1.0,0.0,-1.0,1.0,-1.0]" : 0.5200952806729618,
    "[-1.0,1.0,0.0,1.0,0.0,-1.0,-1.0,1.0,1.0]" : 0.5199550824305581,
    "[-1.0,-1.0,1.0,1.0,1.0,-1.0,0.0,1.0,0.0]" : 0.5197301669052979,
    "[0.0,-1.0,1.0,1.0,-1.0,-1.0,0.0,1.0,1.0]" : 0.5196625751545552,
    "[-1.0,-1.0,1.0,-1.0,0.0,1.0,0.0,1.0,1.0]" : 0.5196148955456905,
    "[-1.0,1.0,-1.0,0.0,1.0,1.0,-1.0,1.0,0.0]" : 0.5196148955456905,
    "[1.0,-1.0,0.0,1.0,-1.0,1.0,0.0,1.0,-1.0]" : 0.519554490285082,
    "[1.0,1.0,0.0,0.0,-1.0,0.0,1.0,0.0,-1.0]" : 0.5194015951741129,
    "[1.0,-1.0,1.0,-1.0,1.0,0.0,-1.0,1.0,0.0]" : 0.5193994892717168,
    "[1.0,0.0,-1.0,0.0,-1.0,0.0,1.0,1.0,0.0]" : 0.5193548727904882,
    "[-1.0,1.0,-1.0,0.0,0.0,0.0,0.0,1.0,1.0]" : 0.5192499429212093,
    "[1.0,-1.0,0.0,-1.0,1.0,-1.0,1.0,-1.0,1.0]" : 0.519134029552403,
    "[-1.0,-1.0,1.0,1.0,1.0,-1.0,0.0,0.0,1.0]" : 0.5191307138679064,
    "[-1.0,1.0,-1.0,0.0,0.0,0.0,1.0,1.0,0.0]" : 0.5191174605456053,
    "[1.0,0.0,1.0,1.0,-1.0,0.0,0.0,0.0,-1.0]" : 0.519068418152525,
    "[-1.0,1.0,-1.0,0.0,1.0,1.0,0.0,0.0,0.0]" : 0.5190478279731037,
    "[1.0,-1.0,1.0,-1.0,-1.0,1.0,0.0,1.0,0.0]" : 0.5189719226922015,
    "[-1.0,1.0,1.0,0.0,1.0,0.0,0.0,0.0,-1.0]" : 0.5188026136941829,
    "[1.0,-1.0,1.0,0.0,1.0,-1.0,0.0,1.0,-1.0]" : 0.5187464172800316,
    "[1.0,-1.0,1.0,-1.0,0.0,0.0,1.0,1.0,-1.0]" : 0.5185033320783448,
    "[0.0,1.0,0.0,-1.0,1.0,1.0,1.0,-1.0,-1.0]" : 0.5184706075206246,
    "[-1.0,0.0,0.0,-1.0,1.0,-1.0,1.0,0.0,1.0]" : 0.5184337137579513,
    "[-1.0,0.0,0.0,0.0,-1.0,1.0,1.0,0.0,1.0]" : 0.5181747083079347,
    "[1.0,-1.0,-1.0,1.0,0.0,1.0,1.0,-1.0,-1.0]" : 0.5181708530419082,
    "[1.0,0.0,1.0,1.0,0.0,-1.0,1.0,-1.0,-1.0]" : 0.5181708530419082,
    "[1.0,0.0,1.0,-1.0,1.0,-1.0,0.0,1.0,-1.0]" : 0.5181708530419082,
    "[1.0,-1.0,1.0,-1.0,1.0,0.0,0.0,1.0,-1.0]" : 0.5178806934678616,
    "[1.0,0.0,1.0,1.0,-1.0,-1.0,0.0,0.0,0.0]" : 0.5178687441123648,
    "[1.0,-1.0,0.0,1.0,0.0,-1.0,-1.0,1.0,1.0]" : 0.517861149350194,
    "[1.0,0.0,1.0,0.0,-1.0,1.0,-1.0,0.0,0.0]" : 0.5178408182962824,
    "[-1.0,1.0,-1.0,1.0,0.0,1.0,0.0,-1.0,1.0]" : 0.5177424804595391,
    "[-1.0,1.0,0.0,1.0,-1.0,-1.0,1.0,0.0,1.0]" : 0.5177378119750949,
    "[0.0,1.0,-1.0,-1.0,1.0,1.0,1.0,0.0,-1.0]" : 0.5176889033294261,
    "[-1.0,-1.0,0.0,1.0,1.0,1.0,1.0,-1.0,-1.0]" : 0.5176885415605602,
    "[1.0,-1.0,0.0,-1.0,1.0,-1.0,0.0,1.0,1.0]" : 0.5176885415605602,
    "[1.0,-1.0,-1.0,-1.0,1.0,1.0,1.0,0.0,0.0]" : 0.517683794646548,
    "[-1.0,0.0,0.0,1.0,1.0,-1.0,1.0,-1.0,1.0]" : 0.5175649387576251,
    "[1.0,1.0,1.0,-1.0,-1.0,0.0,0.0,-1.0,1.0]" : 0.5172057472849136,
    "[-1.0,1.0,1.0,-1.0,1.0,-1.0,0.0,1.0,0.0]" : 0.5172057472849136,
    "[1.0,0.0,1.0,-1.0,1.0,0.0,-1.0,-1.0,1.0]" : 0.5172057472849136,
    "[1.0,1.0,-1.0,-1.0,0.0,1.0,0.0,-1.0,1.0]" : 0.5171764590224329,
    "[0.0,0.0,0.0,1.0,-1.0,-1.0,1.0,0.0,1.0]" : 0.5170710786015946,
    "[-1.0,1.0,0.0,-1.0,1.0,-1.0,1.0,0.0,1.0]" : 0.5167224697316909,
    "[1.0,-1.0,1.0,-1.0,1.0,-1.0,0.0,-1.0,1.0]" : 0.5167224697316909,
    "[1.0,0.0,1.0,1.0,-1.0,-1.0,0.0,0.0,-1.0]" : 0.5165002281975387,
    "[1.0,0.0,0.0,-1.0,1.0,-1.0,1.0,-1.0,0.0]" : 0.5163934887954682,
    "[0.0,0.0,1.0,1.0,1.0,-1.0,-1.0,-1.0,1.0]" : 0.5162979667576781,
    "[1.0,0.0,0.0,-1.0,1.0,1.0,1.0,-1.0,-1.0]" : 0.5162912905391535,
    "[1.0,-1.0,0.0,0.0,1.0,0.0,1.0,-1.0,-1.0]" : 0.5162826961928417,
    "[1.0,-1.0,1.0,1.0,1.0,-1.0,-1.0,0.0,0.0]" : 0.516274428255336,
    "[1.0,1.0,-1.0,-1.0,1.0,-1.0,-1.0,1.0,0.0]" : 0.5162387084171306,
    "[-1.0,-1.0,1.0,-1.0,1.0,0.0,1.0,0.0,1.0]" : 0.5162387084171306,
    "[0.0,1.0,-1.0,-1.0,1.0,0.0,1.0,-1.0,1.0]" : 0.5162094421318059,
    "[0.0,-1.0,0.0,0.0,1.0,-1.0,1.0,-1.0,1.0]" : 0.515829427661758,
    "[1.0,-1.0,1.0,-1.0,0.0,1.0,1.0,0.0,-1.0]" : 0.5156786118241359,
    "[1.0,-1.0,0.0,-1.0,1.0,-1.0,1.0,0.0,0.0]" : 0.5154541522062054,
    "[-1.0,-1.0,1.0,1.0,0.0,0.0,-1.0,1.0,1.0]" : 0.5152806451479173,
    "[1.0,-1.0,-1.0,1.0,0.0,1.0,1.0,-1.0,0.0]" : 0.5152697325665302,
    "[0.0,1.0,-1.0,-1.0,1.0,-1.0,-1.0,1.0,1.0]" : 0.5152697325665302,
    "[1.0,-1.0,1.0,-1.0,1.0,1.0,0.0,-1.0,0.0]" : 0.5152697325665302,
    "[0.0,-1.0,1.0,-1.0,0.0,1.0,1.0,-1.0,1.0]" : 0.5152697325665302,
    "[1.0,1.0,1.0,-1.0,0.0,-1.0,1.0,0.0,-1.0]" : 0.5152697325665302,
    "[-1.0,1.0,-1.0,-1.0,0.0,-1.0,1.0,1.0,1.0]" : 0.5152697325665302,
    "[-1.0,-1.0,1.0,1.0,1.0,0.0,0.0,-1.0,1.0]" : 0.5152697325665302,
    "[1.0,-1.0,1.0,-1.0,0.0,0.0,-1.0,0.0,1.0]" : 0.5152649005409571,
    "[-1.0,0.0,1.0,-1.0,0.0,-1.0,1.0,1.0,1.0]" : 0.5147845170605443,
    "[0.0,-1.0,1.0,-1.0,0.0,1.0,1.0,1.0,-1.0]" : 0.5147686501075084,
    "[0.0,-1.0,1.0,0.0,1.0,-1.0,-1.0,1.0,1.0]" : 0.5146381819903867,
    "[-1.0,1.0,0.0,-1.0,1.0,0.0,1.0,-1.0,1.0]" : 0.5144137817174792,
    "[1.0,-1.0,0.0,1.0,0.0,1.0,1.0,-1.0,-1.0]" : 0.514298815853328,
    "[-1.0,1.0,0.0,1.0,1.0,-1.0,-1.0,0.0,1.0]" : 0.5141947137977204,
    "[-1.0,1.0,1.0,0.0,0.0,-1.0,1.0,-1.0,1.0]" : 0.5139336863721362,
    "[-1.0,0.0,1.0,1.0,1.0,0.0,-1.0,-1.0,1.0]" : 0.5134604748783335,
    "[-1.0,-1.0,1.0,1.0,1.0,1.0,0.0,-1.0,-1.0]" : 0.5133259543899682,
    "[-1.0,0.0,1.0,-1.0,1.0,-1.0,1.0,1.0,-1.0]" : 0.5133259543899682,
    "[1.0,-1.0,-1.0,1.0,1.0,0.0,1.0,-1.0,0.0]" : 0.5133259543899682,
    "[1.0,-1.0,-1.0,0.0,0.0,-1.0,1.0,1.0,1.0]" : 0.5128387931599893,
    "[0.0,-1.0,1.0,-1.0,0.0,-1.0,1.0,1.0,1.0]" : 0.5128387931599893,
    "[1.0,1.0,0.0,0.0,-1.0,0.0,1.0,-1.0,0.0]" : 0.5127446830658093,
    "[1.0,-1.0,1.0,0.0,0.0,1.0,-1.0,-1.0,1.0]" : 0.5123511442811083,
    "[1.0,-1.0,0.0,1.0,0.0,-1.0,1.0,-1.0,1.0]" : 0.5123511442811083,
    "[1.0,0.0,-1.0,-1.0,1.0,1.0,0.0,1.0,-1.0]" : 0.5121685671888265,
    "[1.0,-1.0,-1.0,1.0,1.0,1.0,-1.0,-1.0,0.0]" : 0.5118630072651882,
    "[1.0,-1.0,-1.0,0.0,1.0,-1.0,1.0,0.0,1.0]" : 0.5118630072651882,
    "[1.0,-1.0,1.0,0.0,0.0,-1.0,1.0,0.0,-1.0]" : 0.5114916907697558,
    "[0.0,1.0,-1.0,0.0,1.0,-1.0,1.0,-1.0,1.0]" : 0.5114724209792245,
    "[1.0,0.0,1.0,0.0,1.0,-1.0,1.0,-1.0,-1.0]" : 0.5113743816236033,
    "[-1.0,0.0,0.0,-1.0,1.0,-1.0,1.0,1.0,1.0]" : 0.5113743816236033,
    "[0.0,-1.0,1.0,0.0,1.0,1.0,-1.0,-1.0,1.0]" : 0.5113743816236033,
    "[-1.0,0.0,1.0,0.0,1.0,1.0,0.0,-1.0,0.0]" : 0.511263115231249,
    "[1.0,-1.0,0.0,1.0,1.0,1.0,-1.0,-1.0,0.0]" : 0.5108852668672388,
    "[1.0,0.0,1.0,0.0,0.0,-1.0,-1.0,-1.0,1.0]" : 0.5105763066161426,
    "[0.0,-1.0,0.0,1.0,1.0,-1.0,-1.0,1.0,1.0]" : 0.5104514679245639,
    "[1.0,-1.0,1.0,-1.0,1.0,0.0,0.0,-1.0,1.0]" : 0.5103956625064903,
    "[-1.0,1.0,0.0,-1.0,1.0,-1.0,1.0,1.0,0.0]" : 0.5103956625064903,
    "[0.0,1.0,-1.0,-1.0,1.0,-1.0,1.0,1.0,0.0]" : 0.5103956625064903,
    "[0.0,0.0,0.0,-1.0,-1.0,1.0,1.0,0.0,1.0]" : 0.5101245794183001,
    "[-1.0,-1.0,1.0,0.0,1.0,1.0,0.0,0.0,0.0]" : 0.5100958873476805,
    "[0.0,1.0,0.0,-1.0,1.0,-1.0,1.0,1.0,-1.0]" : 0.5099055680512633,
    "[1.0,-1.0,0.0,0.0,1.0,1.0,0.0,-1.0,0.0]" : 0.5098429474230723,
    "[0.0,-1.0,1.0,0.0,-1.0,0.0,0.0,1.0,1.0]" : 0.5098284582209341,
    "[0.0,1.0,1.0,0.0,1.0,-1.0,-1.0,-1.0,1.0]" : 0.5097541578953066,
    "[1.0,-1.0,0.0,0.0,-1.0,0.0,1.0,1.0,0.0]" : 0.5097173785248724,
    "[-1.0,0.0,0.0,0.0,1.0,-1.0,1.0,0.0,1.0]" : 0.5096638526476177,
    "[-1.0,1.0,-1.0,1.0,1.0,0.0,0.0,-1.0,1.0]" : 0.5095730076349996,
    "[-1.0,-1.0,1.0,0.0,1.0,0.0,0.0,-1.0,1.0]" : 0.5095595305670607,
    "[0.0,-1.0,1.0,0.0,1.0,1.0,-1.0,1.0,-1.0]" : 0.5094860190216859,
    "[0.0,1.0,-1.0,-1.0,1.0,-1.0,0.0,1.0,1.0]" : 0.5094149830109728,
    "[1.0,1.0,1.0,-1.0,1.0,-1.0,0.0,0.0,-1.0]" : 0.5094149830109728,
    "[1.0,0.0,0.0,-1.0,1.0,-1.0,0.0,1.0,0.0]" : 0.5092053558789148,
    "[-1.0,-1.0,1.0,1.0,0.0,0.0,0.0,0.0,1.0]" : 0.5091726803992093,
    "[-1.0,0.0,0.0,-1.0,1.0,1.0,1.0,-1.0,1.0]" : 0.5091664481512569,
    "[-1.0,0.0,1.0,0.0,-1.0,0.0,0.0,1.0,1.0]" : 0.5091555155677885,
    "[-1.0,1.0,-1.0,0.0,1.0,1.0,-1.0,1.0,-1.0]" : 0.5089239068945425,
    "[0.0,-1.0,1.0,1.0,0.0,1.0,-1.0,-1.0,1.0]" : 0.5089239068945425,
    "[0.0,-1.0,0.0,-1.0,1.0,0.0,1.0,-1.0,1.0]" : 0.5088840303525479,
    "[-1.0,0.0,1.0,1.0,1.0,-1.0,-1.0,1.0,0.0]" : 0.5088162968763096,
    "[0.0,0.0,0.0,-1.0,-1.0,1.0,0.0,1.0,1.0]" : 0.508523866067332,
    "[1.0,1.0,1.0,0.0,0.0,-1.0,1.0,-1.0,-1.0]" : 0.5084323392104046,
    "[0.0,-1.0,0.0,0.0,-1.0,1.0,0.0,1.0,1.0]" : 0.508332234852274,
    "[0.0,1.0,1.0,0.0,-1.0,0.0,0.0,-1.0,1.0]" : 0.5080105686595738,
    "[1.0,-1.0,0.0,0.0,1.0,1.0,-1.0,1.0,-1.0]" : 0.5079543616192763,
    "[1.0,0.0,1.0,-1.0,1.0,-1.0,0.0,0.0,-1.0]" : 0.5079458144231307,
    "[1.0,1.0,0.0,-1.0,1.0,-1.0,-1.0,1.0,0.0]" : 0.5079402794664996,
    "[1.0,0.0,1.0,-1.0,-1.0,1.0,0.0,0.0,0.0]" : 0.5078556601585112,
    "[-1.0,-1.0,1.0,-1.0,0.0,1.0,1.0,0.0,1.0]" : 0.5074477271702749,
    "[1.0,0.0,1.0,-1.0,1.0,-1.0,0.0,-1.0,1.0]" : 0.5074477271702749,
    "[-1.0,1.0,0.0,0.0,1.0,1.0,0.0,0.0,-1.0]" : 0.5073109808956405,
    "[0.0,-1.0,0.0,-1.0,1.0,1.0,1.0,1.0,-1.0]" : 0.5072172719427939,
    "[-1.0,-1.0,1.0,0.0,0.0,-1.0,1.0,0.0,1.0]" : 0.5071260347855313,
    "[0.0,1.0,1.0,-1.0,1.0,-1.0,0.0,1.0,-1.0]" : 0.5069546818286852,
    "[1.0,1.0,0.0,1.0,-1.0,-1.0,0.0,0.0,0.0]" : 0.5066345685119485,
    "[-1.0,1.0,1.0,1.0,0.0,0.0,-1.0,-1.0,1.0]" : 0.5065817953609656,
    "[0.0,1.0,-1.0,-1.0,1.0,1.0,0.0,-1.0,1.0]" : 0.5064849410108854,
    "[0.0,1.0,1.0,0.0,1.0,-1.0,0.0,-1.0,0.0]" : 0.5063342072971296,
    "[0.0,0.0,-1.0,-1.0,1.0,-1.0,1.0,0.0,1.0]" : 0.5062878664038043,
    "[0.0,-1.0,0.0,1.0,1.0,0.0,0.0,-1.0,1.0]" : 0.505971920849393,
    "[0.0,0.0,0.0,0.0,1.0,1.0,-1.0,1.0,-1.0]" : 0.5058801657726512,
    "[-1.0,-1.0,1.0,0.0,1.0,1.0,1.0,-1.0,0.0]" : 0.5054725825938661,
    "[1.0,-1.0,-1.0,0.0,1.0,0.0,1.0,-1.0,0.0]" : 0.5054439586713578,
    "[-1.0,1.0,0.0,0.0,0.0,-1.0,0.0,1.0,1.0]" : 0.5053279375463436,
    "[-1.0,1.0,-1.0,1.0,0.0,1.0,1.0,-1.0,0.0]" : 0.5051654202669086,
    "[-1.0,0.0,0.0,1.0,1.0,0.0,-1.0,1.0,0.0]" : 0.5051380345514237,
    "[1.0,1.0,-1.0,0.0,0.0,1.0,1.0,-1.0,-1.0]" : 0.5051206047380616,
    "[0.0,0.0,0.0,1.0,1.0,0.0,-1.0,1.0,-1.0]" : 0.5047732703291656,
    "[1.0,1.0,0.0,1.0,-1.0,0.0,0.0,-1.0,0.0]" : 0.5046531329325229,
    "[1.0,0.0,-1.0,-1.0,1.0,-1.0,0.0,1.0,1.0]" : 0.5044820421490975,
    "[1.0,0.0,1.0,1.0,0.0,-1.0,-1.0,1.0,-1.0]" : 0.5043134253120306,
    "[0.0,0.0,-1.0,-1.0,1.0,1.0,1.0,1.0,-1.0]" : 0.5042028063200827,
    "[1.0,0.0,1.0,-1.0,0.0,1.0,-1.0,1.0,-1.0]" : 0.5040925948769168,
    "[1.0,-1.0,-1.0,1.0,1.0,0.0,0.0,-1.0,1.0]" : 0.5039860281536919,
    "[0.0,0.0,-1.0,0.0,1.0,1.0,0.0,1.0,-1.0]" : 0.5039091747305015,
    "[1.0,0.0,-1.0,-1.0,1.0,1.0,1.0,-1.0,0.0]" : 0.503866543414545,
    "[1.0,1.0,0.0,-1.0,0.0,0.0,0.0,1.0,-1.0]" : 0.5038327978797926,
    "[1.0,-1.0,0.0,-1.0,1.0,0.0,1.0,1.0,-1.0]" : 0.5037709433995985,
    "[1.0,-1.0,-1.0,0.0,0.0,1.0,1.0,1.0,-1.0]" : 0.5035757063677752,
    "[-1.0,0.0,0.0,-1.0,1.0,0.0,1.0,0.0,1.0]" : 0.5033398365861899,
    "[-1.0,1.0,-1.0,1.0,0.0,-1.0,1.0,0.0,1.0]" : 0.5032479946973993,
    "[0.0,1.0,0.0,-1.0,1.0,-1.0,0.0,0.0,1.0]" : 0.5032277221743007,
    "[1.0,-1.0,-1.0,-1.0,1.0,0.0,1.0,1.0,0.0]" : 0.5028351351304733,
    "[1.0,1.0,-1.0,-1.0,1.0,0.0,1.0,-1.0,0.0]" : 0.5028136095372385,
    "[-1.0,1.0,-1.0,-1.0,0.0,1.0,1.0,0.0,1.0]" : 0.5026995788361314,
    "[1.0,1.0,0.0,-1.0,1.0,-1.0,-1.0,0.0,1.0]" : 0.5024950051157699,
    "[-1.0,1.0,1.0,1.0,0.0,-1.0,1.0,-1.0,0.0]" : 0.5024496596311084,
    "[0.0,0.0,-1.0,1.0,1.0,-1.0,1.0,-1.0,1.0]" : 0.5024393751887343,
    "[-1.0,1.0,0.0,-1.0,0.0,1.0,1.0,-1.0,1.0]" : 0.5024177101759688,
    "[0.0,-1.0,1.0,1.0,1.0,-1.0,-1.0,0.0,1.0]" : 0.5024061885414725,
    "[1.0,0.0,1.0,0.0,1.0,-1.0,-1.0,1.0,-1.0]" : 0.5023948225422439,
    "[1.0,-1.0,0.0,-1.0,1.0,1.0,1.0,0.0,-1.0]" : 0.5023737528050624,
    "[0.0,-1.0,0.0,-1.0,1.0,1.0,0.0,0.0,1.0]" : 0.5023510033412727,
    "[1.0,-1.0,1.0,0.0,1.0,-1.0,-1.0,1.0,0.0]" : 0.5023317632675187,
    "[1.0,-1.0,1.0,1.0,0.0,-1.0,0.0,1.0,-1.0]" : 0.5019702865109654,
    "[1.0,1.0,0.0,-1.0,1.0,0.0,1.0,-1.0,-1.0]" : 0.5019673387976366,
    "[1.0,1.0,0.0,-1.0,0.0,1.0,1.0,-1.0,-1.0]" : 0.5019390438824496,
    "[-1.0,1.0,0.0,0.0,1.0,-1.0,1.0,-1.0,1.0]" : 0.5018850425056562,
    "[0.0,-1.0,1.0,1.0,1.0,0.0,1.0,-1.0,-1.0]" : 0.5014985005711038,
    "[-1.0,-1.0,1.0,0.0,1.0,-1.0,0.0,1.0,1.0]" : 0.5014768299863882,
    "[1.0,-1.0,-1.0,-1.0,0.0,1.0,1.0,1.0,0.0]" : 0.5014728021283511,
    "[-1.0,1.0,-1.0,0.0,1.0,-1.0,1.0,0.0,1.0]" : 0.5014640092345295,
    "[1.0,-1.0,1.0,1.0,1.0,-1.0,0.0,0.0,-1.0]" : 0.5014612229187067,
    "[1.0,0.0,1.0,-1.0,1.0,0.0,-1.0,1.0,-1.0]" : 0.5014595569331514,
    "[-1.0,0.0,1.0,1.0,1.0,-1.0,0.0,-1.0,1.0]" : 0.5014337035291101,
    "[-1.0,-1.0,1.0,1.0,1.0,0.0,-1.0,0.0,1.0]" : 0.5014293242854455,
    "[-1.0,1.0,-1.0,-1.0,1.0,0.0,1.0,0.0,1.0]" : 0.5014106671813999,
    "[1.0,0.0,1.0,-1.0,-1.0,1.0,-1.0,0.0,0.0]" : 0.5011205937728177,
    "[0.0,1.0,1.0,1.0,0.0,-1.0,-1.0,-1.0,1.0]" : 0.5009739240077647,
    "[1.0,-1.0,-1.0,0.0,1.0,1.0,1.0,0.0,-1.0]" : 0.5009701496960813,
    "[1.0,-1.0,1.0,-1.0,1.0,1.0,-1.0,0.0,0.0]" : 0.5009636819730469,
    "[1.0,0.0,-1.0,0.0,1.0,1.0,1.0,-1.0,-1.0]" : 0.5009593324603483,
    "[1.0,0.0,1.0,-1.0,0.0,0.0,1.0,-1.0,-1.0]" : 0.5005017943657425,
    "[1.0,-1.0,0.0,1.0,-1.0,-1.0,0.0,1.0,1.0]" : 0.5004980030215597,
    "[0.0,1.0,-1.0,1.0,0.0,-1.0,1.0,-1.0,1.0]" : 0.5004950224633817,
    "[0.0,1.0,1.0,1.0,-1.0,-1.0,1.0,-1.0,0.0]" : 0.5004852155059858,
    "[-1.0,0.0,0.0,0.0,1.0,-1.0,1.0,1.0,0.0]" : 0.5003154071521846,
    "[1.0,-1.0,0.0,0.0,1.0,-1.0,1.0,-1.0,0.0]" : 0.5002892788688441,
    "[1.0,0.0,1.0,-1.0,1.0,-1.0,0.0,-1.0,0.0]" : 0.5000758491640324,
    "[-1.0,0.0,1.0,1.0,0.0,-1.0,-1.0,1.0,1.0]" : 0.5,
    "[1.0,1.0,-1.0,-1.0,0.0,1.0,1.0,-1.0,-1.0]" : 0.5,
    "[1.0,-1.0,1.0,0.0,-1.0,1.0,-1.0,1.0,-1.0]" : 0.5,
    "[1.0,-1.0,1.0,-1.0,0.0,1.0,-1.0,1.0,0.0]" : 0.5,
    "[-1.0,1.0,-1.0,1.0,0.0,-1.0,1.0,-1.0,1.0]" : 0.5,
    "[-1.0,-1.0,1.0,1.0,1.0,0.0,-1.0,-1.0,1.0]" : 0.5,
    "[1.0,0.0,0.0,-1.0,-1.0,1.0,1.0,1.0,-1.0]" : 0.5,
    "[-1.0,0.0,1.0,1.0,1.0,-1.0,-1.0,-1.0,1.0]" : 0.5,
    "[0.0,-1.0,1.0,1.0,1.0,-1.0,-1.0,-1.0,1.0]" : 0.5,
    "[1.0,-1.0,1.0,-1.0,1.0,-1.0,0.0,1.0,-1.0]" : 0.5,
    "[0.0,1.0,-1.0,-1.0,1.0,-1.0,1.0,-1.0,1.0]" : 0.5,
    "[-1.0,0.0,1.0,1.0,1.0,-1.0,-1.0,1.0,-1.0]" : 0.5,
    "[-1.0,1.0,-1.0,-1.0,0.0,1.0,1.0,-1.0,1.0]" : 0.5,
    "[1.0,-1.0,-1.0,-1.0,-1.0,1.0,1.0,1.0,0.0]" : 0.5,
    "[-1.0,1.0,1.0,1.0,-1.0,-1.0,0.0,-1.0,1.0]" : 0.5,
    "[-1.0,1.0,0.0,1.0,1.0,-1.0,-1.0,-1.0,1.0]" : 0.5,
    "[1.0,-1.0,1.0,-1.0,1.0,-1.0,-1.0,1.0,0.0]" : 0.5,
    "[0.0,1.0,-1.0,-1.0,-1.0,1.0,1.0,-1.0,1.0]" : 0.5,
    "[-1.0,0.0,1.0,1.0,1.0,-1.0,-1.0,0.0,1.0]" : 0.5,
    "[1.0,1.0,-1.0,-1.0,-1.0,1.0,1.0,0.0,-1.0]" : 0.5,
    "[-1.0,-1.0,1.0,1.0,1.0,-1.0,-1.0,0.0,1.0]" : 0.5,
    "[1.0,0.0,1.0,1.0,-1.0,-1.0,-1.0,1.0,-1.0]" : 0.5,
    "[-1.0,1.0,-1.0,-1.0,1.0,1.0,1.0,-1.0,0.0]" : 0.5,
    "[1.0,0.0,-1.0,-1.0,0.0,1.0,1.0,1.0,-1.0]" : 0.5,
    "[-1.0,1.0,1.0,1.0,0.0,-1.0,-1.0,-1.0,1.0]" : 0.5,
    "[-1.0,1.0,-1.0,1.0,0.0,0.0,1.0,-1.0,1.0]" : 0.5,
    "[1.0,-1.0,1.0,-1.0,1.0,0.0,-1.0,1.0,-1.0]" : 0.5,
    "[-1.0,1.0,-1.0,1.0,1.0,-1.0,0.0,-1.0,1.0]" : 0.5,
    "[1.0,1.0,-1.0,-1.0,0.0,1.0,1.0,-1.0,0.0]" : 0.5,
    "[-1.0,-1.0,1.0,1.0,0.0,-1.0,-1.0,1.0,1.0]" : 0.5,
    "[1.0,1.0,-1.0,-1.0,0.0,1.0,1.0,0.0,-1.0]" : 0.5,
    "[1.0,-1.0,1.0,-1.0,0.0,1.0,0.0,1.0,-1.0]" : 0.5,
    "[1.0,-1.0,0.0,-1.0,0.0,1.0,1.0,1.0,-1.0]" : 0.5,
    "[-1.0,1.0,-1.0,-1.0,-1.0,1.0,1.0,0.0,1.0]" : 0.5,
    "[-1.0,0.0,1.0,1.0,-1.0,-1.0,-1.0,1.0,1.0]" : 0.5,
    "[-1.0,1.0,0.0,-1.0,1.0,-1.0,1.0,-1.0,1.0]" : 0.5,
    "[1.0,-1.0,-1.0,0.0,-1.0,1.0,1.0,1.0,-1.0]" : 0.5,
    "[-1.0,-1.0,1.0,1.0,1.0,-1.0,-1.0,1.0,0.0]" : 0.5,
    "[0.0,0.0,1.0,1.0,-1.0,-1.0,-1.0,1.0,1.0]" : 0.5,
    "[0.0,1.0,-1.0,-1.0,1.0,1.0,1.0,-1.0,-1.0]" : 0.5,
    "[1.0,1.0,-1.0,-1.0,-1.0,1.0,1.0,-1.0,0.0]" : 0.5,
    "[1.0,-1.0,0.0,-1.0,1.0,1.0,1.0,-1.0,-1.0]" : 0.5,
    "[0.0,-1.0,1.0,1.0,-1.0,-1.0,-1.0,1.0,1.0]" : 0.5,
    "[1.0,-1.0,0.0,-1.0,1.0,1.0,0.0,1.0,-1.0]" : 0.5,
    "[-1.0,1.0,0.0,1.0,-1.0,-1.0,1.0,-1.0,1.0]" : 0.5,
    "[-1.0,1.0,-1.0,0.0,1.0,1.0,1.0,-1.0,-1.0]" : 0.5,
    "[-1.0,1.0,1.0,1.0,0.0,-1.0,0.0,-1.0,1.0]" : 0.5,
    "[1.0,-1.0,-1.0,-1.0,1.0,1.0,0.0,1.0,-1.0]" : 0.5,
    "[-1.0,1.0,-1.0,1.0,-1.0,0.0,1.0,-1.0,1.0]" : 0.5,
    "[1.0,-1.0,-1.0,-1.0,0.0,1.0,1.0,1.0,-1.0]" : 0.5,
    "[1.0,1.0,0.0,-1.0,-1.0,1.0,1.0,-1.0,-1.0]" : 0.5,
    "[1.0,-1.0,1.0,0.0,0.0,1.0,-1.0,1.0,-1.0]" : 0.5,
    "[-1.0,1.0,-1.0,0.0,1.0,-1.0,1.0,-1.0,1.0]" : 0.5,
    "[1.0,-1.0,1.0,-1.0,-1.0,1.0,0.0,1.0,-1.0]" : 0.5,
    "[1.0,-1.0,-1.0,-1.0,1.0,1.0,-1.0,1.0,0.0]" : 0.5,
    "[1.0,-1.0,1.0,0.0,1.0,0.0,-1.0,1.0,-1.0]" : 0.5,
    "[1.0,-1.0,1.0,1.0,-1.0,-1.0,0.0,1.0,-1.0]" : 0.5,
    "[0.0,1.0,1.0,1.0,-1.0,-1.0,-1.0,-1.0,1.0]" : 0.5,
    "[1.0,-1.0,1.0,1.0,0.0,-1.0,-1.0,1.0,-1.0]" : 0.5,
    "[-1.0,-1.0,1.0,1.0,1.0,-1.0,0.0,1.0,-1.0]" : 0.5,
    "[1.0,-1.0,-1.0,-1.0,1.0,1.0,1.0,-1.0,0.0]" : 0.5,
    "[-1.0,1.0,-1.0,0.0,0.0,1.0,1.0,-1.0,1.0]" : 0.5,
    "[-1.0,1.0,-1.0,-1.0,1.0,0.0,1.0,-1.0,1.0]" : 0.5,
    "[1.0,-1.0,-1.0,0.0,1.0,1.0,-1.0,1.0,-1.0]" : 0.5,
    "[-1.0,-1.0,1.0,1.0,1.0,-1.0,0.0,-1.0,1.0]" : 0.5,
    "[0.0,1.0,-1.0,-1.0,1.0,1.0,1.0,-1.0,0.0]" : 0.5,
    "[1.0,-1.0,1.0,1.0,-1.0,-1.0,-1.0,1.0,0.0]" : 0.5,
    "[1.0,0.0,-1.0,-1.0,1.0,1.0,-1.0,1.0,-1.0]" : 0.5,
    "[0.0,-1.0,1.0,-1.0,-1.0,1.0,1.0,1.0,0.0]" : 0.5,
    "[0.0,1.0,-1.0,1.0,1.0,-1.0,-1.0,-1.0,1.0]" : 0.5,
    "[-1.0,1.0,-1.0,-1.0,1.0,1.0,1.0,0.0,-1.0]" : 0.5,
    "[-1.0,1.0,-1.0,0.0,-1.0,1.0,1.0,-1.0,1.0]" : 0.5,
    "[-1.0,1.0,1.0,1.0,-1.0,-1.0,-1.0,0.0,1.0]" : 0.5,
    "[-1.0,1.0,1.0,1.0,-1.0,-1.0,0.0,0.0,1.0]" : 0.5,
    "[-1.0,1.0,-1.0,1.0,-1.0,-1.0,1.0,0.0,1.0]" : 0.5,
    "[-1.0,1.0,0.0,1.0,1.0,-1.0,0.0,-1.0,1.0]" : 0.5,
    "[1.0,-1.0,0.0,-1.0,-1.0,1.0,1.0,1.0,-1.0]" : 0.5,
    "[-1.0,1.0,1.0,1.0,-1.0,0.0,-1.0,-1.0,1.0]" : 0.5,
    "[-1.0,1.0,-1.0,1.0,1.0,0.0,-1.0,-1.0,1.0]" : 0.5,
    "[1.0,-1.0,1.0,0.0,1.0,-1.0,-1.0,1.0,-1.0]" : 0.5,
    "[1.0,0.0,-1.0,-1.0,1.0,1.0,1.0,-1.0,-1.0]" : 0.5,
    "[-1.0,-1.0,1.0,1.0,-1.0,-1.0,0.0,1.0,1.0]" : 0.5,
    "[1.0,-1.0,1.0,-1.0,0.0,1.0,-1.0,1.0,-1.0]" : 0.5,
    "[-1.0,1.0,-1.0,1.0,1.0,-1.0,-1.0,0.0,1.0]" : 0.5,
    "[1.0,-1.0,0.0,-1.0,1.0,1.0,-1.0,1.0,-1.0]" : 0.5,
    "[1.0,-1.0,-1.0,0.0,1.0,1.0,1.0,-1.0,-1.0]" : 0.5,
    "[1.0,1.0,-1.0,-1.0,-1.0,1.0,1.0,0.0,0.0]" : 0.5,
    "[-1.0,1.0,0.0,1.0,0.0,-1.0,1.0,-1.0,1.0]" : 0.5,
    "[-1.0,1.0,-1.0,-1.0,1.0,-1.0,1.0,0.0,1.0]" : 0.5,
    "[-1.0,1.0,0.0,-1.0,-1.0,1.0,1.0,-1.0,1.0]" : 0.5,
    "[1.0,0.0,-1.0,-1.0,-1.0,1.0,1.0,1.0,-1.0]" : 0.5,
    "[-1.0,-1.0,1.0,1.0,-1.0,0.0,-1.0,1.0,1.0]" : 0.5,
    "[1.0,-1.0,-1.0,-1.0,1.0,1.0,1.0,0.0,-1.0]" : 0.5,
    "[0.0,-1.0,1.0,1.0,1.0,-1.0,-1.0,1.0,0.0]" : 0.5,
    "[1.0,-1.0,1.0,-1.0,-1.0,1.0,-1.0,1.0,0.0]" : 0.5,
    "[-1.0,1.0,0.0,1.0,-1.0,0.0,1.0,-1.0,1.0]" : 0.5,
    "[0.0,-1.0,1.0,1.0,1.0,-1.0,-1.0,1.0,-1.0]" : 0.5,
    "[-1.0,1.0,-1.0,0.0,1.0,0.0,1.0,-1.0,1.0]" : 0.5,
    "[-1.0,-1.0,1.0,1.0,1.0,0.0,-1.0,1.0,-1.0]" : 0.5,
    "[1.0,-1.0,1.0,1.0,-1.0,0.0,-1.0,1.0,-1.0]" : 0.5,
    "[1.0,-1.0,1.0,1.0,-1.0,0.0,-1.0,1.0,0.0]" : 0.5,
    "[1.0,1.0,-1.0,0.0,-1.0,1.0,1.0,-1.0,-1.0]" : 0.5,
    "[0.0,1.0,-1.0,-1.0,0.0,1.0,1.0,-1.0,1.0]" : 0.5,
    "[-1.0,1.0,1.0,1.0,0.0,-1.0,-1.0,0.0,1.0]" : 0.5,
    "[0.0,1.0,-1.0,0.0,-1.0,1.0,1.0,-1.0,1.0]" : 0.5,
    "[1.0,-1.0,1.0,1.0,0.0,-1.0,-1.0,1.0,0.0]" : 0.5,
    "[1.0,0.0,-1.0,-1.0,1.0,1.0,1.0,0.0,-1.0]" : 0.5,
    "[0.0,1.0,-1.0,1.0,-1.0,-1.0,1.0,-1.0,1.0]" : 0.5,
    "[1.0,-1.0,1.0,0.0,-1.0,1.0,0.0,1.0,-1.0]" : 0.5,
    "[1.0,-1.0,1.0,1.0,0.0,0.0,-1.0,1.0,-1.0]" : 0.5,
    "[0.0,-1.0,1.0,1.0,0.0,-1.0,-1.0,1.0,1.0]" : 0.5,
    "[-1.0,1.0,0.0,-1.0,1.0,1.0,1.0,-1.0,-1.0]" : 0.5,
    "[1.0,0.0,1.0,-1.0,-1.0,1.0,-1.0,1.0,-1.0]" : 0.5,
    "[-1.0,-1.0,1.0,1.0,0.0,-1.0,0.0,1.0,1.0]" : 0.5,
    "[1.0,0.0,1.0,-1.0,1.0,-1.0,-1.0,1.0,-1.0]" : 0.5,
    "[0.0,0.0,1.0,-1.0,1.0,1.0,0.0,-1.0,0.0]" : 0.4999030456086614,
    "[0.0,1.0,1.0,-1.0,1.0,-1.0,0.0,0.0,-1.0]" : 0.49985605716032433,
    "[1.0,0.0,1.0,-1.0,0.0,0.0,-1.0,-1.0,1.0]" : 0.4998148395001346,
    "[-1.0,-1.0,1.0,0.0,1.0,1.0,0.0,-1.0,0.0]" : 0.4997662850217201,
    "[0.0,-1.0,0.0,1.0,1.0,0.0,1.0,0.0,-1.0]" : 0.49973608489160154,
    "[0.0,-1.0,0.0,-1.0,1.0,-1.0,1.0,0.0,1.0]" : 0.4996932235424228,
    "[0.0,-1.0,1.0,-1.0,1.0,0.0,0.0,-1.0,1.0]" : 0.4996919680263563,
    "[1.0,-1.0,-1.0,0.0,0.0,-1.0,1.0,0.0,1.0]" : 0.49966680052129436,
    "[0.0,1.0,1.0,-1.0,1.0,0.0,0.0,0.0,-1.0]" : 0.4996314043547159,
    "[0.0,0.0,-1.0,-1.0,1.0,-1.0,0.0,1.0,1.0]" : 0.4996225840521993,
    "[0.0,0.0,-1.0,0.0,1.0,-1.0,1.0,0.0,1.0]" : 0.499596859362087,
    "[0.0,-1.0,0.0,0.0,1.0,1.0,-1.0,-1.0,1.0]" : 0.4995859982832258,
    "[1.0,0.0,-1.0,1.0,1.0,0.0,0.0,-1.0,0.0]" : 0.499585452377915,
    "[-1.0,0.0,0.0,-1.0,1.0,-1.0,1.0,1.0,0.0]" : 0.49955326077223666,
    "[1.0,-1.0,-1.0,1.0,1.0,0.0,0.0,-1.0,0.0]" : 0.4995481545666883,
    "[1.0,1.0,0.0,-1.0,1.0,-1.0,-1.0,0.0,0.0]" : 0.4995419982156571,
    "[0.0,-1.0,0.0,0.0,1.0,1.0,-1.0,0.0,1.0]" : 0.49952746694679684,
    "[-1.0,-1.0,1.0,-1.0,0.0,0.0,1.0,0.0,1.0]" : 0.4994377264321952,
    "[1.0,0.0,0.0,0.0,1.0,0.0,1.0,-1.0,-1.0]" : 0.4994247244633944,
    "[1.0,0.0,1.0,-1.0,0.0,0.0,-1.0,0.0,1.0]" : 0.499391478580004,
    "[0.0,-1.0,0.0,1.0,1.0,0.0,1.0,-1.0,0.0]" : 0.4993663187539464,
    "[0.0,-1.0,1.0,0.0,1.0,1.0,0.0,-1.0,0.0]" : 0.49930189270864334,
    "[0.0,-1.0,0.0,1.0,1.0,0.0,1.0,-1.0,-1.0]" : 0.49929057393845916,
    "[1.0,0.0,1.0,-1.0,0.0,0.0,0.0,-1.0,1.0]" : 0.4992461785679602,
    "[1.0,1.0,0.0,-1.0,1.0,-1.0,0.0,0.0,0.0]" : 0.4992236586168953,
    "[1.0,-1.0,0.0,0.0,0.0,-1.0,1.0,0.0,1.0]" : 0.4991574502675771,
    "[1.0,0.0,1.0,0.0,0.0,-1.0,1.0,-1.0,0.0]" : 0.49912786056886355,
    "[0.0,0.0,-1.0,-1.0,1.0,0.0,0.0,1.0,1.0]" : 0.4991090365908695,
    "[0.0,0.0,0.0,-1.0,1.0,-1.0,0.0,1.0,1.0]" : 0.49904988657349647,
    "[-1.0,-1.0,1.0,1.0,1.0,0.0,0.0,0.0,0.0]" : 0.49904776889033053,
    "[1.0,-1.0,-1.0,-1.0,0.0,0.0,1.0,0.0,1.0]" : 0.4990134878513678,
    "[0.0,-1.0,1.0,-1.0,0.0,0.0,1.0,0.0,1.0]" : 0.4989494253024274,
    "[1.0,0.0,1.0,0.0,0.0,-1.0,1.0,-1.0,-1.0]" : 0.4988653967129581,
    "[1.0,1.0,0.0,0.0,1.0,-1.0,-1.0,0.0,0.0]" : 0.49886514656131137,
    "[-1.0,-1.0,1.0,0.0,0.0,0.0,1.0,0.0,1.0]" : 0.49882964063661256,
    "[1.0,0.0,1.0,0.0,0.0,0.0,-1.0,-1.0,1.0]" : 0.498805441730437,
    "[1.0,0.0,1.0,-1.0,1.0,0.0,0.0,-1.0,0.0]" : 0.4987918652999102,
    "[0.0,0.0,0.0,0.0,1.0,1.0,-1.0,-1.0,1.0]" : 0.4987639019428466,
    "[1.0,0.0,0.0,0.0,1.0,-1.0,1.0,-1.0,0.0]" : 0.49875825423373543,
    "[0.0,0.0,1.0,-1.0,1.0,0.0,0.0,-1.0,1.0]" : 0.4987433105311986,
    "[1.0,0.0,1.0,0.0,0.0,0.0,1.0,-1.0,-1.0]" : 0.4987006583546441,
    "[0.0,0.0,-1.0,0.0,1.0,-1.0,0.0,1.0,1.0]" : 0.4986581554419154,
    "[0.0,-1.0,0.0,0.0,1.0,1.0,0.0,-1.0,1.0]" : 0.49861796469943565,
    "[0.0,-1.0,0.0,-1.0,1.0,0.0,1.0,0.0,1.0]" : 0.4985993360765913,
    "[1.0,-1.0,0.0,0.0,1.0,0.0,1.0,-1.0,0.0]" : 0.4985929514259089,
    "[0.0,-1.0,0.0,0.0,1.0,-1.0,1.0,0.0,1.0]" : 0.49858592553008896,
