{
  "Metadata" : {
    "Game" : "TicTacToe",
    "Seed" : 1692024081400,
    "Type" : "Tabular",
    "Alpha" : 0.0010000000474974513,
    "Gamma" : 0.75,
    "Epsilon" : 0.10000000149011612,
    "Solver" : "Q_LEARNING",
    "Heuristic" : "players.heuristics.WinOnlyHeuristic",
    "FeatureVector" : "players.rl.featureVectors.TicTacToeDim1StateVector",
    "NGamesTotal" : 6400,
    "NGamesWithTheseSettings" : 6400,
    "TimeTaken" : "00h 00m 05.1s",
    "ContinuedFrom" : null
  },
  "Weights" : {
    "[0.0,1.0,-1.0,0.0,1.0,1.0,-1.0,-1.0,1.0]" : 0.5157544628569871,
    "[0.0,-1.0,1.0,-1.0,1.0,-1.0,0.0,1.0,1.0]" : 0.514298815853328,
    "[-1.0,1.0,1.0,1.0,1.0,-1.0,0.0,0.0,-1.0]" : 0.514298815853328,
    "[-1.0,0.0,0.0,-1.0,1.0,1.0,1.0,1.0,-1.0]" : 0.5133259543899682,
    "[-1.0,1.0,1.0,-1.0,0.0,0.0,1.0,-1.0,1.0]" : 0.5123511442811083,
    "[-1.0,-1.0,1.0,0.0,1.0,1.0,0.0,1.0,-1.0]" : 0.5123511442811083,
    "[0.0,-1.0,1.0,1.0,1.0,-1.0,0.0,-1.0,1.0]" : 0.5123511442811083,
    "[1.0,0.0,-1.0,-1.0,1.0,1.0,-1.0,1.0,0.0]" : 0.5123511442811083,
    "[1.0,-1.0,-1.0,1.0,1.0,0.0,-1.0,1.0,0.0]" : 0.5118630072651882,
    "[1.0,0.0,1.0,1.0,0.0,-1.0,-1.0,-1.0,1.0]" : 0.5113743816236033,
    "[1.0,0.0,-1.0,0.0,1.0,1.0,-1.0,1.0,-1.0]" : 0.5113743816236033,
    "[0.0,1.0,1.0,1.0,-1.0,0.0,-1.0,-1.0,1.0]" : 0.5103956625064903,
    "[1.0,-1.0,-1.0,-1.0,0.0,1.0,1.0,0.0,1.0]" : 0.5103956625064903,
    "[1.0,-1.0,-1.0,0.0,1.0,1.0,1.0,-1.0,0.0]" : 0.5103956625064903,
    "[1.0,1.0,0.0,-1.0,1.0,-1.0,1.0,-1.0,0.0]" : 0.5099055680512633,
    "[-1.0,-1.0,1.0,1.0,0.0,-1.0,1.0,0.0,1.0]" : 0.5099055680512633,
    "[1.0,-1.0,1.0,1.0,1.0,-1.0,0.0,-1.0,0.0]" : 0.5094149830109728,
    "[1.0,-1.0,1.0,-1.0,0.0,0.0,-1.0,1.0,1.0]" : 0.5089239068945425,
    "[1.0,-1.0,1.0,-1.0,1.0,-1.0,0.0,1.0,0.0]" : 0.5084323392104046,
    "[-1.0,0.0,1.0,1.0,1.0,0.0,-1.0,1.0,-1.0]" : 0.5084323392104046,
    "[0.0,1.0,1.0,1.0,0.0,-1.0,1.0,-1.0,-1.0]" : 0.5079402794664996,
    "[1.0,0.0,1.0,-1.0,0.0,1.0,1.0,-1.0,-1.0]" : 0.5079402794664996,
    "[1.0,1.0,0.0,-1.0,0.0,1.0,-1.0,-1.0,1.0]" : 0.5079402794664996,
    "[0.0,-1.0,0.0,-1.0,1.0,1.0,1.0,-1.0,1.0]" : 0.5079402794664996,
    "[1.0,-1.0,0.0,-1.0,-1.0,1.0,0.0,1.0,1.0]" : 0.5079402794664996,
    "[1.0,1.0,0.0,1.0,-1.0,-1.0,0.0,-1.0,1.0]" : 0.5079402794664996,
    "[0.0,1.0,0.0,-1.0,1.0,-1.0,1.0,-1.0,1.0]" : 0.5079402794664996,
    "[1.0,0.0,1.0,1.0,-1.0,-1.0,0.0,1.0,-1.0]" : 0.5074477271702749,
    "[1.0,-1.0,-1.0,0.0,-1.0,1.0,1.0,1.0,0.0]" : 0.5074477271702749,
    "[-1.0,-1.0,1.0,1.0,0.0,-1.0,1.0,1.0,0.0]" : 0.5074477271702749,
    "[0.0,1.0,-1.0,1.0,-1.0,-1.0,1.0,0.0,1.0]" : 0.5074477271702749,
    "[1.0,0.0,1.0,-1.0,-1.0,1.0,-1.0,1.0,0.0]" : 0.5074477271702749,
    "[0.0,1.0,-1.0,-1.0,1.0,-1.0,1.0,0.0,1.0]" : 0.5069546818286852,
    "[-1.0,1.0,1.0,-1.0,0.0,1.0,1.0,-1.0,0.0]" : 0.5064611429481916,
    "[-1.0,1.0,-1.0,0.0,1.0,1.0,1.0,0.0,-1.0]" : 0.5064611429481916,
    "[-1.0,1.0,-1.0,-1.0,0.0,1.0,1.0,1.0,0.0]" : 0.505967110034761,
    "[1.0,-1.0,1.0,-1.0,1.0,-1.0,1.0,0.0,-1.0]" : 0.505967110034761,
    "[0.0,1.0,-1.0,1.0,1.0,0.0,-1.0,-1.0,1.0]" : 0.505967110034761,
    "[-1.0,1.0,0.0,0.0,1.0,1.0,1.0,-1.0,-1.0]" : 0.505967110034761,
    "[1.0,1.0,-1.0,1.0,0.0,-1.0,0.0,-1.0,1.0]" : 0.505967110034761,
    "[1.0,-1.0,0.0,-1.0,1.0,-1.0,1.0,1.0,0.0]" : 0.5054725825938661,
    "[1.0,-1.0,-1.0,1.0,0.0,1.0,0.0,1.0,-1.0]" : 0.5054725825938661,
    "[-1.0,-1.0,1.0,0.0,-1.0,0.0,1.0,1.0,1.0]" : 0.5054725825938661,
    "[1.0,-1.0,1.0,0.0,0.0,-1.0,1.0,1.0,-1.0]" : 0.5054725825938661,
    "[1.0,0.0,-1.0,-1.0,1.0,-1.0,1.0,-1.0,1.0]" : 0.5054725825938661,
    "[0.0,-1.0,0.0,1.0,1.0,-1.0,1.0,-1.0,1.0]" : 0.5054725825938661,
    "[-1.0,-1.0,1.0,0.0,1.0,-1.0,1.0,-1.0,1.0]" : 0.5049775601304842,
    "[1.0,-1.0,1.0,-1.0,1.0,-1.0,-1.0,0.0,1.0]" : 0.5049775601304842,
    "[0.0,-1.0,1.0,-1.0,1.0,-1.0,1.0,-1.0,1.0]" : 0.5049775601304842,
    "[0.0,-1.0,-1.0,-1.0,1.0,-1.0,1.0,1.0,1.0]" : 0.5049775601304842,
    "[1.0,-1.0,1.0,0.0,1.0,-1.0,-1.0,-1.0,1.0]" : 0.5049775601304842,
    "[1.0,-1.0,0.0,0.0,1.0,1.0,1.0,-1.0,-1.0]" : 0.5049775601304842,
    "[1.0,-1.0,1.0,-1.0,1.0,0.0,-1.0,-1.0,1.0]" : 0.5044820421490975,
    "[1.0,-1.0,0.0,1.0,0.0,0.0,1.0,0.0,-1.0]" : 0.5044820421490975,
    "[1.0,-1.0,1.0,0.0,1.0,-1.0,1.0,-1.0,-1.0]" : 0.5044820421490975,
    "[1.0,0.0,1.0,-1.0,1.0,-1.0,-1.0,-1.0,1.0]" : 0.5044820421490975,
    "[1.0,1.0,1.0,0.0,0.0,0.0,-1.0,0.0,-1.0]" : 0.5044820421490975,
    "[-1.0,0.0,1.0,-1.0,-1.0,1.0,1.0,0.0,1.0]" : 0.5044820421490975,
    "[0.0,-1.0,-1.0,1.0,1.0,1.0,-1.0,-1.0,1.0]" : 0.5044820421490975,
    "[1.0,0.0,0.0,1.0,1.0,-1.0,1.0,-1.0,-1.0]" : 0.5044820421490975,
    "[1.0,-1.0,-1.0,1.0,1.0,-1.0,1.0,-1.0,0.0]" : 0.5044820421490975,
    "[-1.0,1.0,-1.0,1.0,0.0,-1.0,0.0,1.0,1.0]" : 0.5044820421490975,
    "[-1.0,0.0,-1.0,1.0,1.0,1.0,-1.0,-1.0,1.0]" : 0.5044820421490975,
    "[1.0,1.0,1.0,-1.0,0.0,0.0,-1.0,0.0,0.0]" : 0.5044820421490975,
    "[-1.0,-1.0,1.0,0.0,0.0,1.0,0.0,0.0,1.0]" : 0.5044820421490975,
    "[1.0,0.0,-1.0,1.0,0.0,0.0,1.0,0.0,-1.0]" : 0.5044820421490975,
    "[1.0,-1.0,-1.0,-1.0,1.0,1.0,0.0,-1.0,1.0]" : 0.5044820421490975,
    "[0.0,0.0,0.0,1.0,1.0,1.0,-1.0,0.0,-1.0]" : 0.5044820421490975,
    "[-1.0,0.0,1.0,1.0,1.0,-1.0,0.0,1.0,-1.0]" : 0.5044820421490975,
    "[1.0,1.0,0.0,-1.0,0.0,1.0,-1.0,1.0,-1.0]" : 0.5044820421490975,
    "[1.0,1.0,1.0,-1.0,1.0,-1.0,0.0,-1.0,-1.0]" : 0.5044820421490975,
    "[1.0,0.0,-1.0,0.0,1.0,-1.0,-1.0,1.0,1.0]" : 0.5039860281536919,
    "[-1.0,-1.0,1.0,0.0,1.0,1.0,-1.0,-1.0,1.0]" : 0.5039860281536919,
    "[-1.0,0.0,1.0,1.0,-1.0,1.0,-1.0,0.0,1.0]" : 0.5039860281536919,
    "[1.0,-1.0,1.0,-1.0,1.0,-1.0,1.0,-1.0,0.0]" : 0.5039860281536919,
    "[-1.0,0.0,1.0,0.0,-1.0,1.0,1.0,-1.0,1.0]" : 0.5039860281536919,
    "[1.0,0.0,0.0,-1.0,1.0,0.0,-1.0,-1.0,1.0]" : 0.5039860281536919,
    "[0.0,0.0,1.0,-1.0,1.0,-1.0,1.0,-1.0,0.0]" : 0.5039860281536919,
    "[1.0,-1.0,-1.0,1.0,0.0,-1.0,0.0,1.0,1.0]" : 0.5039860281536919,
    "[-1.0,0.0,1.0,0.0,1.0,-1.0,1.0,0.0,-1.0]" : 0.5039860281536919,
    "[0.0,0.0,1.0,-1.0,1.0,0.0,1.0,-1.0,0.0]" : 0.5039860281536919,
    "[1.0,0.0,-1.0,1.0,-1.0,0.0,1.0,-1.0,0.0]" : 0.5039860281536919,
    "[-1.0,-1.0,1.0,-1.0,1.0,1.0,0.0,-1.0,1.0]" : 0.5039860281536919,
    "[1.0,1.0,1.0,-1.0,1.0,-1.0,-1.0,0.0,-1.0]" : 0.5039860281536919,
    "[1.0,1.0,1.0,0.0,-1.0,0.0,0.0,0.0,-1.0]" : 0.5039860281536919,
    "[-1.0,-1.0,1.0,0.0,-1.0,-1.0,1.0,1.0,1.0]" : 0.5039860281536919,
    "[0.0,0.0,0.0,-1.0,-1.0,0.0,1.0,1.0,1.0]" : 0.5039860281536919,
    "[1.0,0.0,0.0,1.0,0.0,-1.0,1.0,0.0,-1.0]" : 0.5039860281536919,
    "[1.0,0.0,0.0,0.0,1.0,0.0,-1.0,-1.0,1.0]" : 0.5039860281536919,
    "[1.0,1.0,1.0,0.0,-1.0,0.0,-1.0,0.0,0.0]" : 0.5039860281536919,
    "[-1.0,-1.0,1.0,-1.0,0.0,1.0,1.0,1.0,0.0]" : 0.5039860281536919,
    "[-1.0,1.0,1.0,0.0,1.0,-1.0,-1.0,1.0,-1.0]" : 0.5039860281536919,
    "[-1.0,1.0,0.0,0.0,1.0,0.0,-1.0,1.0,0.0]" : 0.5039860281536919,
    "[1.0,-1.0,1.0,-1.0,1.0,0.0,1.0,0.0,-1.0]" : 0.5039860281536919,
    "[1.0,0.0,0.0,1.0,-1.0,0.0,1.0,-1.0,0.0]" : 0.5039860281536919,
    "[0.0,1.0,-1.0,1.0,0.0,1.0,1.0,-1.0,-1.0]" : 0.5039860281536919,
    "[0.0,0.0,0.0,1.0,1.0,1.0,-1.0,-1.0,0.0]" : 0.5039860281536919,
    "[-1.0,0.0,-1.0,1.0,1.0,1.0,1.0,0.0,-1.0]" : 0.5039860281536919,
    "[0.0,1.0,-1.0,0.0,1.0,-1.0,0.0,1.0,0.0]" : 0.5039860281536919,
    "[1.0,-1.0,1.0,-1.0,1.0,0.0,1.0,-1.0,-1.0]" : 0.5039860281536919,
    "[0.0,-1.0,1.0,0.0,-1.0,1.0,0.0,0.0,1.0]" : 0.5039860281536919,
    "[0.0,-1.0,1.0,1.0,0.0,-1.0,1.0,1.0,-1.0]" : 0.5039860281536919,
    "[0.0,1.0,0.0,-1.0,1.0,-1.0,0.0,1.0,0.0]" : 0.5039860281536919,
    "[-1.0,0.0,1.0,-1.0,1.0,0.0,1.0,0.0,0.0]" : 0.5039860281536919,
    "[1.0,1.0,1.0,0.0,0.0,-1.0,0.0,-1.0,0.0]" : 0.5039860281536919,
    "[1.0,-1.0,-1.0,0.0,1.0,-1.0,0.0,0.0,1.0]" : 0.5039860281536919,
    "[0.0,0.0,-1.0,1.0,1.0,1.0,0.0,0.0,-1.0]" : 0.5039860281536919,
    "[-1.0,0.0,1.0,-1.0,1.0,-1.0,1.0,-1.0,1.0]" : 0.5039860281536919,
    "[-1.0,-1.0,0.0,1.0,1.0,1.0,0.0,-1.0,0.0]" : 0.5039860281536919,
    "[1.0,1.0,1.0,0.0,-1.0,-1.0,0.0,0.0,0.0]" : 0.5039860281536919,
    "[1.0,1.0,1.0,-1.0,0.0,0.0,0.0,-1.0,0.0]" : 0.5039860281536919,
    "[-1.0,-1.0,0.0,0.0,0.0,0.0,1.0,1.0,1.0]" : 0.5039860281536919,
    "[-1.0,0.0,1.0,0.0,-1.0,1.0,0.0,0.0,1.0]" : 0.5039860281536919,
    "[-1.0,0.0,-1.0,1.0,1.0,1.0,1.0,-1.0,-1.0]" : 0.5039860281536919,
    "[1.0,-1.0,-1.0,-1.0,1.0,0.0,1.0,-1.0,1.0]" : 0.5039860281536919,
    "[-1.0,0.0,0.0,0.0,0.0,-1.0,1.0,1.0,1.0]" : 0.5039860281536919,
    "[-1.0,1.0,-1.0,0.0,1.0,-1.0,-1.0,1.0,1.0]" : 0.5039860281536919,
    "[-1.0,-1.0,1.0,0.0,1.0,-1.0,1.0,0.0,1.0]" : 0.5039860281536919,
    "[1.0,-1.0,0.0,1.0,0.0,0.0,1.0,-1.0,-1.0]" : 0.5039860281536919,
    "[-1.0,1.0,0.0,1.0,0.0,1.0,-1.0,-1.0,1.0]" : 0.5039860281536919,
    "[-1.0,-1.0,1.0,1.0,1.0,0.0,1.0,0.0,-1.0]" : 0.5034895176477566,
    "[1.0,0.0,0.0,-1.0,1.0,0.0,0.0,-1.0,1.0]" : 0.5034895176477566,
    "[1.0,1.0,1.0,0.0,0.0,0.0,-1.0,-1.0,0.0]" : 0.5034895176477566,
    "[0.0,1.0,-1.0,-1.0,1.0,0.0,-1.0,1.0,1.0]" : 0.5034895176477566,
    "[0.0,1.0,0.0,-1.0,1.0,0.0,0.0,1.0,-1.0]" : 0.5034895176477566,
    "[1.0,-1.0,-1.0,1.0,1.0,0.0,1.0,-1.0,-1.0]" : 0.5034895176477566,
    "[-1.0,0.0,-1.0,1.0,1.0,1.0,0.0,0.0,-1.0]" : 0.5034895176477566,
    "[-1.0,0.0,1.0,-1.0,-1.0,1.0,1.0,-1.0,1.0]" : 0.5034895176477566,
    "[1.0,0.0,0.0,1.0,-1.0,-1.0,1.0,0.0,0.0]" : 0.5034895176477566,
    "[-1.0,1.0,0.0,0.0,1.0,-1.0,0.0,1.0,0.0]" : 0.5034895176477566,
    "[0.0,0.0,1.0,-1.0,-1.0,1.0,0.0,0.0,1.0]" : 0.5034895176477566,
    "[1.0,1.0,1.0,0.0,-1.0,0.0,0.0,-1.0,0.0]" : 0.5034895176477566,
    "[1.0,1.0,-1.0,0.0,1.0,-1.0,-1.0,-1.0,1.0]" : 0.5034895176477566,
    "[-1.0,-1.0,1.0,0.0,1.0,0.0,1.0,0.0,0.0]" : 0.5034895176477566,
    "[1.0,1.0,1.0,0.0,-1.0,-1.0,-1.0,-1.0,1.0]" : 0.5034895176477566,
    "[0.0,-1.0,-1.0,1.0,1.0,1.0,0.0,0.0,-1.0]" : 0.5034895176477566,
    "[1.0,0.0,-1.0,-1.0,1.0,0.0,0.0,0.0,1.0]" : 0.5034895176477566,
    "[0.0,0.0,-1.0,0.0,-1.0,0.0,1.0,1.0,1.0]" : 0.5034895176477566,
    "[-1.0,-1.0,1.0,1.0,1.0,-1.0,1.0,-1.0,0.0]" : 0.5034895176477566,
    "[1.0,0.0,0.0,1.0,0.0,-1.0,1.0,-1.0,0.0]" : 0.5034895176477566,
    "[1.0,0.0,1.0,1.0,-1.0,0.0,1.0,-1.0,-1.0]" : 0.5034895176477566,
    "[0.0,0.0,0.0,1.0,1.0,1.0,0.0,-1.0,-1.0]" : 0.5034895176477566,
    "[1.0,0.0,0.0,1.0,-1.0,0.0,1.0,-1.0,-1.0]" : 0.5034895176477566,
    "[-1.0,1.0,-1.0,0.0,1.0,0.0,0.0,1.0,0.0]" : 0.5034895176477566,
    "[1.0,1.0,1.0,0.0,0.0,-1.0,0.0,0.0,-1.0]" : 0.5034895176477566,
    "[-1.0,1.0,1.0,-1.0,1.0,-1.0,1.0,0.0,-1.0]" : 0.5034895176477566,
    "[-1.0,1.0,1.0,-1.0,1.0,0.0,1.0,-1.0,-1.0]" : 0.5034895176477566,
    "[-1.0,0.0,1.0,0.0,-1.0,-1.0,1.0,1.0,1.0]" : 0.5034895176477566,
    "[1.0,-1.0,0.0,0.0,1.0,0.0,-1.0,0.0,1.0]" : 0.5034895176477566,
    "[-1.0,0.0,1.0,0.0,0.0,1.0,-1.0,0.0,1.0]" : 0.5034895176477566,
    "[-1.0,0.0,-1.0,0.0,0.0,0.0,1.0,1.0,1.0]" : 0.5034895176477566,
    "[-1.0,0.0,1.0,0.0,1.0,-1.0,1.0,-1.0,1.0]" : 0.5034895176477566,
    "[1.0,1.0,-1.0,-1.0,1.0,0.0,-1.0,0.0,1.0]" : 0.5034895176477566,
    "[1.0,0.0,0.0,0.0,1.0,-1.0,0.0,-1.0,1.0]" : 0.5034895176477566,
    "[0.0,1.0,-1.0,0.0,1.0,0.0,-1.0,1.0,0.0]" : 0.5034895176477566,
    "[0.0,0.0,0.0,0.0,-1.0,-1.0,1.0,1.0,1.0]" : 0.5034895176477566,
    "[1.0,-1.0,0.0,0.0,1.0,-1.0,0.0,0.0,1.0]" : 0.5034895176477566,
    "[-1.0,0.0,1.0,1.0,1.0,-1.0,1.0,-1.0,-1.0]" : 0.5034895176477566,
    "[0.0,0.0,1.0,0.0,1.0,0.0,1.0,-1.0,-1.0]" : 0.5034895176477566,
    "[1.0,1.0,1.0,-1.0,1.0,-1.0,-1.0,0.0,0.0]" : 0.5034895176477566,
    "[-1.0,-1.0,1.0,-1.0,1.0,-1.0,1.0,0.0,1.0]" : 0.5034895176477566,
    "[1.0,-1.0,-1.0,1.0,1.0,1.0,-1.0,0.0,-1.0]" : 0.5034895176477566,
    "[1.0,0.0,0.0,0.0,1.0,-1.0,-1.0,0.0,1.0]" : 0.5034895176477566,
    "[-1.0,0.0,0.0,0.0,-1.0,0.0,1.0,1.0,1.0]" : 0.5034895176477566,
    "[1.0,-1.0,-1.0,0.0,1.0,0.0,-1.0,0.0,1.0]" : 0.5034895176477566,
    "[1.0,1.0,-1.0,-1.0,1.0,-1.0,-1.0,0.0,1.0]" : 0.5034895176477566,
    "[1.0,1.0,1.0,0.0,0.0,0.0,0.0,-1.0,-1.0]" : 0.5034895176477566,
    "[0.0,-1.0,1.0,0.0,0.0,1.0,0.0,-1.0,1.0]" : 0.5034895176477566,
    "[0.0,0.0,1.0,0.0,0.0,1.0,-1.0,-1.0,1.0]" : 0.5034895176477566,
    "[1.0,1.0,1.0,-1.0,0.0,0.0,0.0,0.0,-1.0]" : 0.5034895176477566,
    "[-1.0,-1.0,1.0,0.0,1.0,0.0,1.0,0.0,-1.0]" : 0.5034895176477566,
    "[1.0,-1.0,1.0,1.0,-1.0,-1.0,1.0,0.0,-1.0]" : 0.5034895176477566,
    "[-1.0,1.0,-1.0,0.0,-1.0,0.0,1.0,1.0,1.0]" : 0.5034895176477566,
    "[1.0,1.0,1.0,-1.0,-1.0,0.0,0.0,1.0,-1.0]" : 0.5034895176477566,
    "[0.0,-1.0,0.0,-1.0,0.0,0.0,1.0,1.0,1.0]" : 0.5034895176477566,
    "[1.0,0.0,0.0,-1.0,1.0,0.0,-1.0,0.0,1.0]" : 0.5034895176477566,
    "[-1.0,0.0,0.0,1.0,1.0,1.0,-1.0,0.0,-1.0]" : 0.5034895176477566,
    "[-1.0,-1.0,1.0,-1.0,1.0,1.0,0.0,0.0,1.0]" : 0.5034895176477566,
    "[-1.0,-1.0,1.0,0.0,1.0,1.0,0.0,-1.0,1.0]" : 0.5034895176477566,
    "[-1.0,0.0,1.0,-1.0,1.0,-1.0,1.0,0.0,1.0]" : 0.5034895176477566,
    "[0.0,-1.0,-1.0,1.0,1.0,1.0,0.0,0.0,0.0]" : 0.5034895176477566,
    "[-1.0,-1.0,1.0,1.0,1.0,1.0,-1.0,0.0,-1.0]" : 0.5034895176477566,
    "[1.0,0.0,-1.0,-1.0,1.0,0.0,-1.0,0.0,1.0]" : 0.5034895176477566,
    "[1.0,0.0,-1.0,1.0,-1.0,0.0,1.0,0.0,0.0]" : 0.5034895176477566,
    "[0.0,1.0,-1.0,-1.0,1.0,0.0,0.0,1.0,0.0]" : 0.5034895176477566,
    "[0.0,-1.0,1.0,0.0,1.0,0.0,1.0,0.0,-1.0]" : 0.5034895176477566,
    "[0.0,0.0,1.0,0.0,-1.0,1.0,-1.0,0.0,1.0]" : 0.5034895176477566,
    "[0.0,1.0,-1.0,0.0,1.0,0.0,0.0,1.0,-1.0]" : 0.5034895176477566,
    "[-1.0,-1.0,1.0,0.0,1.0,1.0,-1.0,0.0,1.0]" : 0.5034895176477566,
    "[0.0,0.0,1.0,0.0,1.0,-1.0,1.0,0.0,-1.0]" : 0.5034895176477566,
    "[1.0,0.0,0.0,1.0,0.0,0.0,1.0,-1.0,-1.0]" : 0.5034895176477566,
    "[-1.0,1.0,-1.0,-1.0,1.0,0.0,0.0,1.0,0.0]" : 0.5034895176477566,
    "[-1.0,1.0,-1.0,0.0,1.0,0.0,-1.0,1.0,1.0]" : 0.5034895176477566,
    "[1.0,1.0,1.0,-1.0,0.0,-1.0,0.0,0.0,0.0]" : 0.5034895176477566,
    "[0.0,0.0,1.0,-1.0,1.0,-1.0,1.0,0.0,0.0]" : 0.5034895176477566,
    "[-1.0,-1.0,1.0,0.0,1.0,0.0,1.0,-1.0,0.0]" : 0.5034895176477566,
    "[0.0,0.0,-1.0,1.0,1.0,1.0,0.0,-1.0,0.0]" : 0.5034895176477566,
    "[0.0,-1.0,-1.0,0.0,0.0,0.0,1.0,1.0,1.0]" : 0.5034895176477566,
    "[1.0,1.0,-1.0,-1.0,1.0,-1.0,0.0,-1.0,1.0]" : 0.5034895176477566,
    "[0.0,-1.0,0.0,1.0,1.0,1.0,0.0,-1.0,0.0]" : 0.5034895176477566,
    "[-1.0,-1.0,1.0,-1.0,1.0,1.0,1.0,0.0,-1.0]" : 0.5034895176477566,
    "[1.0,-1.0,1.0,0.0,1.0,-1.0,-1.0,0.0,1.0]" : 0.5034895176477566,
    "[1.0,-1.0,-1.0,0.0,1.0,0.0,0.0,0.0,1.0]" : 0.5034895176477566,
    "[-1.0,0.0,1.0,-1.0,0.0,1.0,0.0,0.0,1.0]" : 0.5034895176477566,
    "[-1.0,0.0,0.0,1.0,1.0,1.0,0.0,0.0,-1.0]" : 0.5034895176477566,
    "[0.0,-1.0,1.0,-1.0,0.0,1.0,0.0,0.0,1.0]" : 0.5034895176477566,
    "[1.0,1.0,1.0,-1.0,-1.0,0.0,0.0,0.0,0.0]" : 0.5034895176477566,
    "[1.0,1.0,1.0,-1.0,-1.0,0.0,-1.0,1.0,-1.0]" : 0.5034895176477566,
    "[1.0,1.0,1.0,0.0,0.0,-1.0,-1.0,0.0,0.0]" : 0.5034895176477566,
    "[-1.0,1.0,-1.0,-1.0,1.0,0.0,1.0,1.0,-1.0]" : 0.5034895176477566,
    "[1.0,1.0,1.0,0.0,-1.0,0.0,-1.0,0.0,-1.0]" : 0.5034895176477566,
    "[0.0,-1.0,0.0,1.0,1.0,1.0,0.0,0.0,-1.0]" : 0.5034895176477566,
    "[0.0,0.0,1.0,-1.0,-1.0,1.0,-1.0,0.0,1.0]" : 0.5034895176477566,
    "[0.0,-1.0,1.0,-1.0,1.0,-1.0,1.0,1.0,-1.0]" : 0.5034895176477566,
    "[1.0,-1.0,0.0,1.0,-1.0,0.0,1.0,0.0,0.0]" : 0.5034895176477566,
    "[0.0,0.0,1.0,-1.0,1.0,-1.0,1.0,0.0,-1.0]" : 0.5034895176477566,
    "[1.0,1.0,1.0,-1.0,-1.0,0.0,-1.0,0.0,0.0]" : 0.5034895176477566,
    "[1.0,-1.0,0.0,1.0,0.0,-1.0,1.0,0.0,0.0]" : 0.5034895176477566,
    "[1.0,1.0,1.0,-1.0,-1.0,0.0,1.0,-1.0,-1.0]" : 0.5034895176477566,
    "[0.0,0.0,-1.0,-1.0,0.0,0.0,1.0,1.0,1.0]" : 0.5034895176477566,
    "[-1.0,0.0,1.0,0.0,1.0,0.0,1.0,0.0,-1.0]" : 0.5034895176477566,
    "[0.0,-1.0,1.0,0.0,1.0,0.0,1.0,-1.0,0.0]" : 0.5034895176477566,
    "[0.0,1.0,0.0,0.0,1.0,-1.0,-1.0,1.0,0.0]" : 0.5034895176477566,
    "[1.0,1.0,1.0,0.0,-1.0,0.0,0.0,-1.0,-1.0]" : 0.5034895176477566,
    "[-1.0,-1.0,0.0,0.0,-1.0,0.0,1.0,1.0,1.0]" : 0.5034895176477566,
    "[1.0,-1.0,-1.0,1.0,0.0,0.0,1.0,-1.0,0.0]" : 0.5034895176477566,
    "[1.0,-1.0,-1.0,1.0,1.0,-1.0,-1.0,0.0,1.0]" : 0.5034895176477566,
    "[-1.0,1.0,1.0,-1.0,1.0,-1.0,1.0,-1.0,0.0]" : 0.5034895176477566,
    "[1.0,0.0,0.0,-1.0,1.0,-1.0,-1.0,0.0,1.0]" : 0.5034895176477566,
    "[0.0,-1.0,1.0,1.0,1.0,1.0,-1.0,0.0,-1.0]" : 0.5034895176477566,
    "[0.0,0.0,1.0,-1.0,0.0,1.0,-1.0,0.0,1.0]" : 0.5034895176477566,
    "[-1.0,0.0,1.0,0.0,0.0,1.0,0.0,-1.0,1.0]" : 0.5034895176477566,
    "[1.0,-1.0,-1.0,0.0,1.0,0.0,0.0,-1.0,1.0]" : 0.5034895176477566,
    "[1.0,1.0,1.0,0.0,-1.0,0.0,-1.0,1.0,-1.0]" : 0.5034895176477566,
    "[1.0,0.0,1.0,-1.0,1.0,-1.0,-1.0,1.0,0.0]" : 0.5034895176477566,
    "[0.0,-1.0,1.0,-1.0,1.0,1.0,1.0,0.0,-1.0]" : 0.5034895176477566,
    "[1.0,-1.0,-1.0,0.0,1.0,-1.0,-1.0,1.0,1.0]" : 0.5034895176477566,
    "[-1.0,0.0,1.0,-1.0,1.0,1.0,0.0,-1.0,1.0]" : 0.5034895176477566,
    "[1.0,-1.0,1.0,0.0,-1.0,1.0,-1.0,0.0,1.0]" : 0.5034895176477566,
    "[1.0,-1.0,-1.0,-1.0,1.0,1.0,-1.0,0.0,1.0]" : 0.5029925101342844,
    "[1.0,-1.0,-1.0,1.0,1.0,1.0,0.0,-1.0,-1.0]" : 0.5029925101342844,
    "[1.0,-1.0,1.0,-1.0,-1.0,1.0,-1.0,0.0,1.0]" : 0.5029925101342844,
    "[-1.0,-1.0,1.0,1.0,1.0,-1.0,1.0,0.0,-1.0]" : 0.5029925101342844,
    "[0.0,0.0,-1.0,1.0,1.0,1.0,-1.0,0.0,-1.0]" : 0.5029925101342844,
    "[1.0,-1.0,-1.0,1.0,1.0,0.0,1.0,0.0,-1.0]" : 0.5029925101342844,
    "[0.0,0.0,-1.0,1.0,1.0,1.0,0.0,-1.0,-1.0]" : 0.5029925101342844,
    "[0.0,0.0,1.0,0.0,1.0,-1.0,1.0,-1.0,0.0]" : 0.5029925101342844,
    "[1.0,0.0,0.0,1.0,0.0,-1.0,1.0,-1.0,-1.0]" : 0.5029925101342844,
    "[-1.0,0.0,0.0,1.0,1.0,1.0,-1.0,0.0,0.0]" : 0.5029925101342844,
    "[0.0,-1.0,0.0,1.0,1.0,1.0,-1.0,0.0,0.0]" : 0.5029925101342844,
    "[1.0,-1.0,0.0,0.0,1.0,0.0,0.0,-1.0,1.0]" : 0.5029925101342844,
    "[-1.0,0.0,1.0,0.0,-1.0,1.0,-1.0,0.0,1.0]" : 0.5029925101342844,
    "[-1.0,-1.0,1.0,-1.0,0.0,1.0,1.0,-1.0,1.0]" : 0.5029925101342844,
    "[1.0,1.0,-1.0,-1.0,1.0,0.0,-1.0,1.0,-1.0]" : 0.5029925101342844,
    "[-1.0,0.0,-1.0,-1.0,-1.0,1.0,1.0,1.0,1.0]" : 0.5029925101342844,
    "[-1.0,0.0,1.0,1.0,1.0,1.0,-1.0,-1.0,0.0]" : 0.5029925101342844,
    "[1.0,-1.0,0.0,0.0,1.0,-1.0,1.0,-1.0,1.0]" : 0.5029925101342844,
    "[-1.0,1.0,-1.0,1.0,1.0,1.0,0.0,-1.0,0.0]" : 0.5029925101342844,
    "[-1.0,-1.0,1.0,-1.0,1.0,-1.0,1.0,1.0,0.0]" : 0.5029925101342844,
    "[1.0,0.0,-1.0,-1.0,-1.0,0.0,1.0,1.0,1.0]" : 0.5029925101342844,
    "[0.0,-1.0,0.0,1.0,1.0,1.0,0.0,-1.0,-1.0]" : 0.5029925101342844,
    "[0.0,1.0,0.0,-1.0,1.0,0.0,-1.0,1.0,0.0]" : 0.5029925101342844,
    "[0.0,-1.0,0.0,1.0,-1.0,-1.0,1.0,1.0,1.0]" : 0.5029925101342844,
    "[-1.0,-1.0,1.0,1.0,1.0,0.0,1.0,-1.0,0.0]" : 0.5029925101342844,
    "[0.0,0.0,1.0,-1.0,1.0,0.0,1.0,0.0,-1.0]" : 0.5029925101342844,
    "[1.0,0.0,-1.0,1.0,0.0,-1.0,1.0,0.0,0.0]" : 0.5029925101342844,
    "[-1.0,1.0,-1.0,0.0,-1.0,-1.0,1.0,1.0,1.0]" : 0.5029925101342844,
    "[-1.0,0.0,1.0,0.0,1.0,-1.0,1.0,0.0,0.0]" : 0.5029925101342844,
    "[-1.0,0.0,1.0,-1.0,1.0,-1.0,1.0,0.0,0.0]" : 0.5029925101342844,
    "[0.0,-1.0,1.0,-1.0,1.0,1.0,1.0,-1.0,-1.0]" : 0.5029925101342844,
    "[1.0,-1.0,0.0,-1.0,1.0,0.0,0.0,0.0,1.0]" : 0.5029925101342844,
    "[-1.0,0.0,1.0,1.0,1.0,0.0,1.0,-1.0,-1.0]" : 0.5029925101342844,
    "[0.0,-1.0,0.0,1.0,1.0,1.0,-1.0,-1.0,0.0]" : 0.5029925101342844,
    "[-1.0,1.0,-1.0,-1.0,-1.0,0.0,1.0,1.0,1.0]" : 0.5029925101342844,
    "[-1.0,0.0,-1.0,0.0,-1.0,1.0,1.0,1.0,1.0]" : 0.5029925101342844,
    "[-1.0,0.0,-1.0,0.0,-1.0,0.0,1.0,1.0,1.0]" : 0.5029925101342844,
    "[-1.0,1.0,1.0,0.0,1.0,-1.0,1.0,-1.0,-1.0]" : 0.5029925101342844,
    "[0.0,-1.0,1.0,0.0,0.0,1.0,-1.0,0.0,1.0]" : 0.5029925101342844,
    "[1.0,0.0,-1.0,0.0,1.0,-1.0,-1.0,0.0,1.0]" : 0.5029925101342844,
    "[0.0,-1.0,-1.0,0.0,-1.0,0.0,1.0,1.0,1.0]" : 0.5029925101342844,
    "[-1.0,0.0,1.0,0.0,-1.0,1.0,0.0,-1.0,1.0]" : 0.5029925101342844,
    "[0.0,-1.0,1.0,0.0,1.0,-1.0,1.0,0.0,0.0]" : 0.5029925101342844,
    "[1.0,0.0,-1.0,1.0,0.0,0.0,1.0,-1.0,0.0]" : 0.5029925101342844,
    "[1.0,0.0,-1.0,-1.0,1.0,-1.0,-1.0,1.0,1.0]" : 0.5029925101342844,
    "[-1.0,0.0,0.0,1.0,1.0,1.0,0.0,-1.0,0.0]" : 0.5029925101342844,
    "[0.0,-1.0,0.0,0.0,-1.0,0.0,1.0,1.0,1.0]" : 0.5029925101342844,
    "[0.0,0.0,-1.0,-1.0,-1.0,1.0,1.0,1.0,1.0]" : 0.5029925101342844,
    "[1.0,-1.0,0.0,1.0,1.0,0.0,1.0,-1.0,-1.0]" : 0.5029925101342844,
    "[1.0,1.0,1.0,0.0,-1.0,-1.0,0.0,0.0,-1.0]" : 0.5029925101342844,
    "[-1.0,-1.0,0.0,-1.0,0.0,0.0,1.0,1.0,1.0]" : 0.5029925101342844,
    "[0.0,-1.0,1.0,-1.0,1.0,0.0,1.0,0.0,0.0]" : 0.5029925101342844,
    "[1.0,-1.0,-1.0,1.0,-1.0,0.0,1.0,0.0,0.0]" : 0.5029925101342844,
    "[1.0,-1.0,-1.0,1.0,0.0,-1.0,1.0,-1.0,1.0]" : 0.5029925101342844,
    "[1.0,-1.0,-1.0,1.0,0.0,0.0,1.0,0.0,-1.0]" : 0.5029925101342844,
    "[1.0,-1.0,-1.0,1.0,1.0,-1.0,0.0,0.0,1.0]" : 0.5029925101342844,
    "[1.0,0.0,1.0,1.0,-1.0,-1.0,1.0,-1.0,0.0]" : 0.5029925101342844,
    "[0.0,-1.0,1.0,1.0,1.0,1.0,-1.0,-1.0,0.0]" : 0.5029925101342844,
    "[0.0,-1.0,1.0,-1.0,1.0,1.0,-1.0,0.0,1.0]" : 0.5029925101342844,
    "[-1.0,1.0,-1.0,0.0,1.0,0.0,0.0,1.0,-1.0]" : 0.5029925101342844,
    "[-1.0,-1.0,1.0,0.0,-1.0,1.0,0.0,0.0,1.0]" : 0.5029925101342844,
    "[1.0,0.0,-1.0,-1.0,1.0,-1.0,0.0,0.0,1.0]" : 0.5029925101342844,
    "[0.0,0.0,1.0,-1.0,0.0,1.0,0.0,-1.0,1.0]" : 0.5029925101342844,
    "[1.0,1.0,1.0,-1.0,-1.0,0.0,0.0,0.0,-1.0]" : 0.5029925101342844,
    "[1.0,1.0,1.0,0.0,1.0,-1.0,-1.0,-1.0,0.0]" : 0.5029925101342844,
    "[1.0,-1.0,0.0,0.0,1.0,0.0,-1.0,-1.0,1.0]" : 0.5029925101342844,
    "[1.0,0.0,0.0,-1.0,1.0,-1.0,0.0,0.0,1.0]" : 0.5029925101342844,
    "[-1.0,-1.0,1.0,1.0,1.0,0.0,1.0,-1.0,-1.0]" : 0.5029925101342844,
    "[1.0,-1.0,-1.0,1.0,0.0,0.0,1.0,0.0,0.0]" : 0.5029925101342844,
    "[1.0,0.0,1.0,-1.0,1.0,0.0,1.0,-1.0,-1.0]" : 0.5029925101342844,
    "[0.0,-1.0,1.0,0.0,-1.0,-1.0,1.0,1.0,1.0]" : 0.5029925101342844,
    "[1.0,-1.0,0.0,1.0,0.0,0.0,1.0,-1.0,0.0]" : 0.5029925101342844,
    "[1.0,0.0,0.0,1.0,-1.0,-1.0,1.0,0.0,-1.0]" : 0.5029925101342844,
    "[0.0,-1.0,1.0,1.0,1.0,-1.0,1.0,-1.0,-1.0]" : 0.5029925101342844,
    "[-1.0,-1.0,1.0,0.0,0.0,1.0,1.0,-1.0,1.0]" : 0.5029925101342844,
    "[0.0,1.0,-1.0,-1.0,1.0,1.0,0.0,1.0,-1.0]" : 0.5029925101342844,
    "[-1.0,0.0,-1.0,1.0,1.0,1.0,-1.0,0.0,0.0]" : 0.5029925101342844,
    "[1.0,1.0,-1.0,-1.0,1.0,0.0,-1.0,-1.0,1.0]" : 0.5029925101342844,
    "[0.0,0.0,-1.0,0.0,0.0,-1.0,1.0,1.0,1.0]" : 0.5029925101342844,
    "[0.0,0.0,1.0,0.0,-1.0,1.0,0.0,-1.0,1.0]" : 0.5029925101342844,
    "[1.0,-1.0,0.0,1.0,1.0,-1.0,1.0,0.0,-1.0]" : 0.5029925101342844,
    "[1.0,1.0,1.0,0.0,-1.0,0.0,-1.0,-1.0,0.0]" : 0.5029925101342844,
    "[0.0,-1.0,0.0,0.0,0.0,-1.0,1.0,1.0,1.0]" : 0.5029925101342844,
    "[-1.0,0.0,0.0,-1.0,-1.0,0.0,1.0,1.0,1.0]" : 0.5029925101342844,
    "[1.0,0.0,-1.0,-1.0,1.0,1.0,-1.0,-1.0,1.0]" : 0.5029925101342844,
    "[-1.0,0.0,-1.0,-1.0,0.0,0.0,1.0,1.0,1.0]" : 0.5029925101342844,
    "[1.0,-1.0,-1.0,-1.0,1.0,0.0,0.0,0.0,1.0]" : 0.5029925101342844,
    "[-1.0,0.0,0.0,-1.0,0.0,0.0,1.0,1.0,1.0]" : 0.5029925101342844,
    "[-1.0,0.0,-1.0,1.0,1.0,1.0,0.0,0.0,0.0]" : 0.5029925101342844,
    "[1.0,0.0,-1.0,0.0,1.0,-1.0,0.0,0.0,1.0]" : 0.5029925101342844,
    "[1.0,0.0,-1.0,0.0,1.0,0.0,-1.0,-1.0,1.0]" : 0.5029925101342844,
    "[-1.0,1.0,0.0,0.0,1.0,0.0,0.0,1.0,-1.0]" : 0.5029925101342844,
    "[-1.0,-1.0,0.0,1.0,1.0,1.0,-1.0,0.0,0.0]" : 0.5029925101342844,
    "[1.0,0.0,-1.0,0.0,1.0,0.0,-1.0,0.0,1.0]" : 0.5029925101342844,
    "[0.0,1.0,0.0,0.0,1.0,0.0,-1.0,1.0,-1.0]" : 0.5029925101342844,
    "[-1.0,0.0,1.0,0.0,1.0,0.0,1.0,-1.0,0.0]" : 0.5029925101342844,
    "[-1.0,1.0,0.0,-1.0,1.0,0.0,0.0,1.0,0.0]" : 0.5029925101342844,
    "[1.0,0.0,-1.0,1.0,-1.0,-1.0,1.0,-1.0,1.0]" : 0.5029925101342844,
    "[1.0,-1.0,-1.0,0.0,1.0,1.0,-1.0,0.0,1.0]" : 0.5029925101342844,
    "[-1.0,0.0,1.0,-1.0,1.0,0.0,1.0,0.0,-1.0]" : 0.5029925101342844,
    "[1.0,0.0,0.0,1.0,-1.0,0.0,1.0,0.0,-1.0]" : 0.5029925101342844,
    "[0.0,0.0,-1.0,1.0,1.0,1.0,-1.0,0.0,0.0]" : 0.5029925101342844,
    "[-1.0,1.0,0.0,0.0,1.0,0.0,-1.0,1.0,-1.0]" : 0.5029925101342844,
    "[0.0,1.0,0.0,0.0,1.0,-1.0,0.0,1.0,-1.0]" : 0.5029925101342844,
    "[1.0,-1.0,-1.0,1.0,-1.0,0.0,1.0,0.0,1.0]" : 0.5029925101342844,
    "[-1.0,-1.0,1.0,-1.0,1.0,0.0,1.0,0.0,0.0]" : 0.5029925101342844,
    "[-1.0,1.0,-1.0,0.0,1.0,0.0,-1.0,1.0,0.0]" : 0.5029925101342844,
    "[1.0,0.0,-1.0,1.0,-1.0,0.0,1.0,0.0,-1.0]" : 0.5029925101342844,
    "[1.0,1.0,1.0,-1.0,0.0,0.0,-1.0,0.0,-1.0]" : 0.5029925101342844,
    "[-1.0,1.0,-1.0,1.0,1.0,1.0,-1.0,0.0,0.0]" : 0.5029925101342844,
    "[0.0,0.0,0.0,-1.0,0.0,-1.0,1.0,1.0,1.0]" : 0.5029925101342844,
    "[1.0,0.0,-1.0,0.0,1.0,0.0,0.0,-1.0,1.0]" : 0.5029925101342844,
    "[-1.0,0.0,1.0,1.0,1.0,-1.0,1.0,0.0,-1.0]" : 0.5029925101342844,
    "[-1.0,-1.0,1.0,-1.0,1.0,0.0,1.0,1.0,-1.0]" : 0.5029925101342844,
    "[-1.0,-1.0,0.0,1.0,1.0,1.0,0.0,0.0,0.0]" : 0.5029925101342844,
    "[0.0,-1.0,1.0,0.0,1.0,0.0,1.0,-1.0,-1.0]" : 0.5029925101342844,
    "[0.0,0.0,1.0,-1.0,1.0,-1.0,1.0,1.0,-1.0]" : 0.5029925101342844,
    "[-1.0,-1.0,0.0,-1.0,1.0,0.0,1.0,1.0,1.0]" : 0.5029925101342844,
    "[1.0,0.0,0.0,1.0,-1.0,-1.0,1.0,-1.0,0.0]" : 0.5029925101342844,
    "[-1.0,0.0,-1.0,-1.0,1.0,-1.0,1.0,1.0,1.0]" : 0.5029925101342844,
    "[0.0,1.0,0.0,-1.0,1.0,-1.0,-1.0,1.0,0.0]" : 0.5029925101342844,
    "[-1.0,0.0,1.0,-1.0,-1.0,1.0,0.0,0.0,1.0]" : 0.5029925101342844,
    "[1.0,1.0,-1.0,0.0,1.0,0.0,-1.0,1.0,-1.0]" : 0.5029925101342844,
    "[1.0,1.0,1.0,-1.0,-1.0,0.0,-1.0,0.0,1.0]" : 0.5029925101342844,
    "[0.0,1.0,1.0,-1.0,1.0,-1.0,1.0,-1.0,0.0]" : 0.5029925101342844,
    "[-1.0,-1.0,1.0,-1.0,0.0,1.0,0.0,0.0,1.0]" : 0.5029925101342844,
    "[0.0,0.0,-1.0,0.0,-1.0,-1.0,1.0,1.0,1.0]" : 0.5029925101342844,
    "[1.0,1.0,1.0,0.0,-1.0,-1.0,1.0,0.0,-1.0]" : 0.5029925101342844,
    "[0.0,1.0,-1.0,0.0,1.0,0.0,-1.0,1.0,-1.0]" : 0.5029925101342844,
    "[1.0,-1.0,-1.0,-1.0,-1.0,0.0,1.0,1.0,1.0]" : 0.5029925101342844,
    "[1.0,0.0,-1.0,0.0,1.0,-1.0,1.0,-1.0,1.0]" : 0.5029925101342844,
    "[-1.0,1.0,-1.0,-1.0,1.0,-1.0,0.0,1.0,1.0]" : 0.5029925101342844,
    "[1.0,1.0,1.0,0.0,-1.0,-1.0,-1.0,0.0,1.0]" : 0.5029925101342844,
    "[1.0,1.0,-1.0,0.0,1.0,-1.0,-1.0,0.0,1.0]" : 0.5029925101342844,
    "[0.0,-1.0,1.0,1.0,1.0,0.0,-1.0,-1.0,1.0]" : 0.5029925101342844,
    "[1.0,1.0,1.0,-1.0,0.0,0.0,-1.0,1.0,-1.0]" : 0.5024950051157699,
    "[1.0,0.0,-1.0,1.0,1.0,-1.0,-1.0,0.0,1.0]" : 0.5024950051157699,
    "[-1.0,0.0,-1.0,1.0,1.0,1.0,-1.0,1.0,0.0]" : 0.5024950051157699,
    "[1.0,-1.0,0.0,-1.0,1.0,-1.0,-1.0,1.0,1.0]" : 0.5024950051157699,
    "[0.0,1.0,1.0,-1.0,1.0,-1.0,1.0,0.0,-1.0]" : 0.5024950051157699,
    "[-1.0,1.0,0.0,0.0,1.0,-1.0,0.0,1.0,-1.0]" : 0.5024950051157699,
    "[1.0,1.0,1.0,-1.0,-1.0,0.0,0.0,-1.0,0.0]" : 0.5024950051157699,
    "[-1.0,1.0,-1.0,-1.0,1.0,-1.0,1.0,1.0,0.0]" : 0.5024950051157699,
    "[1.0,1.0,1.0,-1.0,0.0,-1.0,-1.0,1.0,-1.0]" : 0.5024950051157699,
    "[-1.0,-1.0,1.0,0.0,0.0,1.0,0.0,-1.0,1.0]" : 0.5024950051157699,
    "[1.0,0.0,-1.0,1.0,1.0,-1.0,0.0,-1.0,1.0]" : 0.5024950051157699,
    "[1.0,1.0,1.0,-1.0,0.0,-1.0,0.0,0.0,-1.0]" : 0.5024950051157699,
    "[1.0,-1.0,-1.0,1.0,-1.0,-1.0,1.0,0.0,1.0]" : 0.5024950051157699,
    "[1.0,-1.0,-1.0,1.0,1.0,0.0,-1.0,0.0,1.0]" : 0.5024950051157699,
    "[-1.0,-1.0,0.0,0.0,-1.0,1.0,1.0,1.0,1.0]" : 0.5024950051157699,
    "[1.0,-1.0,1.0,0.0,1.0,0.0,-1.0,-1.0,1.0]" : 0.5024950051157699,
    "[1.0,-1.0,0.0,1.0,-1.0,0.0,1.0,1.0,-1.0]" : 0.5024950051157699,
    "[-1.0,1.0,0.0,0.0,1.0,-1.0,-1.0,1.0,0.0]" : 0.5024950051157699,
    "[1.0,-1.0,0.0,0.0,-1.0,-1.0,1.0,1.0,1.0]" : 0.5024950051157699,
    "[0.0,-1.0,1.0,-1.0,1.0,0.0,1.0,1.0,-1.0]" : 0.5024950051157699,
    "[-1.0,0.0,1.0,-1.0,1.0,0.0,1.0,-1.0,0.0]" : 0.5024950051157699,
    "[-1.0,1.0,-1.0,1.0,1.0,0.0,-1.0,1.0,-1.0]" : 0.5024950051157699,
    "[0.0,1.0,0.0,-1.0,1.0,-1.0,0.0,1.0,-1.0]" : 0.5024950051157699,
    "[1.0,0.0,-1.0,1.0,-1.0,1.0,1.0,-1.0,-1.0]" : 0.5024950051157699,
    "[1.0,1.0,-1.0,0.0,1.0,0.0,-1.0,-1.0,1.0]" : 0.5024950051157699,
    "[-1.0,1.0,1.0,-1.0,1.0,0.0,1.0,0.0,-1.0]" : 0.5024950051157699,
    "[1.0,1.0,1.0,-1.0,0.0,-1.0,-1.0,0.0,0.0]" : 0.5024950051157699,
    "[-1.0,0.0,1.0,0.0,1.0,-1.0,1.0,-1.0,0.0]" : 0.5024950051157699,
    "[1.0,-1.0,0.0,0.0,1.0,-1.0,-1.0,1.0,1.0]" : 0.5024950051157699,
    "[1.0,1.0,1.0,0.0,-1.0,-1.0,1.0,-1.0,-1.0]" : 0.5024950051157699,
    "[1.0,1.0,1.0,0.0,-1.0,1.0,0.0,-1.0,-1.0]" : 0.5024950051157699,
    "[-1.0,0.0,-1.0,1.0,-1.0,0.0,1.0,1.0,1.0]" : 0.5024950051157699,
    "[1.0,1.0,1.0,1.0,-1.0,-1.0,-1.0,0.0,-1.0]" : 0.5024950051157699,
    "[1.0,0.0,-1.0,0.0,1.0,-1.0,0.0,-1.0,1.0]" : 0.5024950051157699,
    "[1.0,-1.0,0.0,-1.0,-1.0,0.0,1.0,1.0,1.0]" : 0.5024950051157699,
    "[-1.0,1.0,-1.0,0.0,1.0,0.0,1.0,1.0,-1.0]" : 0.5024950051157699,
    "[1.0,-1.0,-1.0,1.0,0.0,0.0,1.0,-1.0,1.0]" : 0.5024950051157699,
    "[1.0,0.0,1.0,-1.0,1.0,-1.0,1.0,0.0,-1.0]" : 0.5024950051157699,
    "[-1.0,0.0,-1.0,1.0,1.0,1.0,1.0,-1.0,0.0]" : 0.5024950051157699,
    "[1.0,1.0,1.0,-1.0,-1.0,1.0,-1.0,0.0,0.0]" : 0.5024950051157699,
    "[0.0,1.0,-1.0,0.0,1.0,-1.0,-1.0,1.0,0.0]" : 0.5024950051157699,
    "[1.0,-1.0,-1.0,1.0,0.0,-1.0,1.0,0.0,0.0]" : 0.5024950051157699,
    "[1.0,-1.0,0.0,1.0,-1.0,-1.0,1.0,1.0,-1.0]" : 0.5024950051157699,
    "[0.0,1.0,-1.0,-1.0,1.0,1.0,-1.0,1.0,-1.0]" : 0.5024950051157699,
    "[0.0,-1.0,0.0,0.0,-1.0,-1.0,1.0,1.0,1.0]" : 0.5024950051157699,
    "[0.0,-1.0,-1.0,0.0,0.0,-1.0,1.0,1.0,1.0]" : 0.5024950051157699,
    "[0.0,-1.0,1.0,1.0,1.0,1.0,0.0,-1.0,-1.0]" : 0.5024950051157699,
    "[0.0,-1.0,-1.0,1.0,1.0,1.0,0.0,-1.0,0.0]" : 0.5024950051157699,
    "[-1.0,0.0,1.0,-1.0,-1.0,0.0,1.0,1.0,1.0]" : 0.5024950051157699,
    "[-1.0,1.0,1.0,-1.0,1.0,-1.0,1.0,0.0,0.0]" : 0.5024950051157699,
    "[-1.0,1.0,0.0,1.0,1.0,-1.0,-1.0,1.0,0.0]" : 0.5024950051157699,
    "[0.0,-1.0,1.0,-1.0,-1.0,1.0,0.0,0.0,1.0]" : 0.5024950051157699,
    "[0.0,1.0,-1.0,1.0,1.0,-1.0,-1.0,1.0,0.0]" : 0.5024950051157699,
    "[0.0,-1.0,1.0,0.0,-1.0,1.0,-1.0,0.0,1.0]" : 0.5024950051157699,
    "[0.0,-1.0,-1.0,0.0,1.0,-1.0,1.0,1.0,1.0]" : 0.5024950051157699,
    "[1.0,0.0,0.0,0.0,1.0,-1.0,-1.0,-1.0,1.0]" : 0.5024950051157699,
    "[1.0,0.0,-1.0,1.0,1.0,-1.0,-1.0,-1.0,1.0]" : 0.5024950051157699,
    "[0.0,0.0,1.0,-1.0,1.0,0.0,1.0,-1.0,-1.0]" : 0.5024950051157699,
    "[0.0,-1.0,1.0,0.0,-1.0,1.0,-1.0,1.0,1.0]" : 0.5024950051157699,
    "[0.0,-1.0,1.0,0.0,1.0,-1.0,1.0,-1.0,0.0]" : 0.5024950051157699,
    "[0.0,0.0,1.0,-1.0,-1.0,1.0,0.0,-1.0,1.0]" : 0.5024950051157699,
    "[1.0,0.0,0.0,-1.0,1.0,-1.0,0.0,-1.0,1.0]" : 0.5024950051157699,
    "[0.0,1.0,0.0,-1.0,1.0,1.0,-1.0,1.0,-1.0]" : 0.5024950051157699,
    "[1.0,1.0,1.0,0.0,-1.0,-1.0,0.0,-1.0,0.0]" : 0.5024950051157699,
    "[1.0,1.0,1.0,0.0,0.0,-1.0,0.0,-1.0,-1.0]" : 0.5024950051157699,
    "[1.0,0.0,-1.0,1.0,0.0,0.0,1.0,-1.0,-1.0]" : 0.5024950051157699,
    "[1.0,1.0,1.0,-1.0,0.0,-1.0,0.0,-1.0,0.0]" : 0.5024950051157699,
    "[1.0,-1.0,0.0,0.0,1.0,-1.0,0.0,-1.0,1.0]" : 0.5024950051157699,
    "[1.0,1.0,1.0,0.0,-1.0,-1.0,-1.0,1.0,-1.0]" : 0.5024950051157699,
    "[0.0,0.0,-1.0,-1.0,-1.0,0.0,1.0,1.0,1.0]" : 0.5024950051157699,
    "[0.0,-1.0,1.0,0.0,1.0,-1.0,1.0,0.0,-1.0]" : 0.5024950051157699,
    "[-1.0,-1.0,0.0,1.0,1.0,1.0,1.0,-1.0,-1.0]" : 0.5024950051157699,
    "[-1.0,-1.0,1.0,-1.0,-1.0,1.0,1.0,0.0,1.0]" : 0.5024950051157699,
    "[-1.0,0.0,1.0,0.0,0.0,1.0,-1.0,-1.0,1.0]" : 0.5024950051157699,
    "[1.0,-1.0,0.0,1.0,1.0,-1.0,-1.0,-1.0,1.0]" : 0.5024950051157699,
    "[0.0,1.0,-1.0,1.0,1.0,-1.0,-1.0,0.0,1.0]" : 0.5024950051157699,
    "[-1.0,-1.0,1.0,0.0,1.0,1.0,1.0,0.0,-1.0]" : 0.5024950051157699,
    "[1.0,-1.0,0.0,-1.0,1.0,-1.0,0.0,0.0,1.0]" : 0.5024950051157699,
    "[0.0,0.0,-1.0,1.0,1.0,1.0,-1.0,-1.0,0.0]" : 0.5024950051157699,
    "[-1.0,0.0,0.0,-1.0,0.0,-1.0,1.0,1.0,1.0]" : 0.5024950051157699,
    "[1.0,-1.0,1.0,1.0,0.0,0.0,1.0,-1.0,-1.0]" : 0.5024950051157699,
    "[-1.0,-1.0,1.0,0.0,1.0,-1.0,1.0,0.0,0.0]" : 0.5024950051157699,
    "[-1.0,1.0,1.0,-1.0,-1.0,1.0,0.0,0.0,1.0]" : 0.5024950051157699,
    "[-1.0,1.0,0.0,-1.0,1.0,-1.0,0.0,1.0,0.0]" : 0.5024950051157699,
    "[-1.0,1.0,0.0,0.0,1.0,-1.0,1.0,1.0,-1.0]" : 0.5024950051157699,
    "[-1.0,-1.0,1.0,0.0,1.0,-1.0,1.0,1.0,-1.0]" : 0.5024950051157699,
    "[-1.0,1.0,-1.0,0.0,1.0,-1.0,0.0,1.0,0.0]" : 0.5024950051157699,
    "[-1.0,0.0,1.0,0.0,1.0,0.0,1.0,-1.0,-1.0]" : 0.5024950051157699,
    "[-1.0,1.0,1.0,0.0,-1.0,1.0,-1.0,0.0,1.0]" : 0.5024950051157699,
    "[0.0,1.0,0.0,-1.0,1.0,0.0,-1.0,1.0,-1.0]" : 0.5024950051157699,
    "[-1.0,1.0,0.0,0.0,1.0,-1.0,-1.0,1.0,1.0]" : 0.5024950051157699,
    "[0.0,0.0,1.0,-1.0,1.0,1.0,-1.0,-1.0,1.0]" : 0.5024950051157699,
    "[1.0,-1.0,0.0,1.0,1.0,1.0,-1.0,0.0,-1.0]" : 0.5024950051157699,
    "[1.0,-1.0,-1.0,1.0,-1.0,1.0,1.0,0.0,-1.0]" : 0.5024950051157699,
    "[-1.0,0.0,-1.0,0.0,0.0,-1.0,1.0,1.0,1.0]" : 0.5024950051157699,
    "[0.0,0.0,1.0,-1.0,0.0,1.0,-1.0,-1.0,1.0]" : 0.5024950051157699,
    "[0.0,-1.0,1.0,-1.0,1.0,-1.0,1.0,0.0,0.0]" : 0.5024950051157699,
    "[0.0,-1.0,0.0,-1.0,-1.0,0.0,1.0,1.0,1.0]" : 0.5024950051157699,
    "[-1.0,0.0,0.0,0.0,-1.0,-1.0,1.0,1.0,1.0]" : 0.5024950051157699,
    "[1.0,-1.0,0.0,1.0,-1.0,0.0,1.0,0.0,-1.0]" : 0.5024950051157699,
    "[1.0,1.0,0.0,0.0,-1.0,1.0,1.0,-1.0,-1.0]" : 0.5024950051157699,
    "[-1.0,0.0,-1.0,1.0,1.0,1.0,0.0,-1.0,0.0]" : 0.5024950051157699,
    "[0.0,1.0,1.0,0.0,1.0,-1.0,-1.0,1.0,-1.0]" : 0.5024950051157699,
    "[1.0,-1.0,-1.0,-1.0,1.0,-1.0,1.0,0.0,1.0]" : 0.5024950051157699,
    "[-1.0,-1.0,1.0,0.0,0.0,1.0,-1.0,0.0,1.0]" : 0.5024950051157699,
    "[0.0,0.0,1.0,0.0,1.0,-1.0,1.0,-1.0,-1.0]" : 0.5024950051157699,
    "[0.0,-1.0,1.0,-1.0,1.0,1.0,-1.0,-1.0,1.0]" : 0.5024950051157699,
    "[-1.0,0.0,0.0,1.0,1.0,1.0,0.0,-1.0,-1.0]" : 0.5024950051157699,
    "[0.0,-1.0,1.0,-1.0,1.0,0.0,1.0,-1.0,0.0]" : 0.5024950051157699,
    "[1.0,0.0,1.0,0.0,-1.0,1.0,-1.0,-1.0,1.0]" : 0.5024950051157699,
    "[1.0,0.0,-1.0,1.0,-1.0,-1.0,1.0,0.0,0.0]" : 0.5024950051157699,
    "[-1.0,1.0,0.0,1.0,1.0,-1.0,-1.0,1.0,-1.0]" : 0.5024950051157699,
    "[1.0,0.0,-1.0,-1.0,1.0,0.0,1.0,-1.0,1.0]" : 0.5024950051157699,
    "[1.0,1.0,1.0,-1.0,1.0,0.0,-1.0,0.0,-1.0]" : 0.5024950051157699,
    "[0.0,0.0,1.0,0.0,-1.0,1.0,-1.0,-1.0,1.0]" : 0.5024950051157699,
    "[-1.0,0.0,0.0,1.0,1.0,1.0,-1.0,-1.0,0.0]" : 0.5024950051157699,
    "[-1.0,1.0,0.0,-1.0,-1.0,0.0,1.0,1.0,1.0]" : 0.5024950051157699,
    "[1.0,1.0,1.0,0.0,-1.0,-1.0,-1.0,0.0,0.0]" : 0.5024950051157699,
    "[-1.0,1.0,-1.0,-1.0,1.0,1.0,0.0,1.0,0.0]" : 0.5024950051157699,
    "[1.0,0.0,-1.0,1.0,-1.0,0.0,1.0,1.0,-1.0]" : 0.5024950051157699,
    "[-1.0,1.0,0.0,-1.0,1.0,0.0,0.0,1.0,-1.0]" : 0.5024950051157699,
    "[-1.0,0.0,1.0,-1.0,1.0,1.0,1.0,-1.0,-1.0]" : 0.5024950051157699,
    "[-1.0,0.0,-1.0,1.0,1.0,1.0,-1.0,0.0,1.0]" : 0.5024950051157699,
    "[0.0,1.0,0.0,-1.0,1.0,-1.0,-1.0,1.0,1.0]" : 0.5024950051157699,
    "[-1.0,0.0,-1.0,-1.0,1.0,0.0,1.0,1.0,1.0]" : 0.5024950051157699,
    "[1.0,-1.0,0.0,-1.0,0.0,1.0,-1.0,1.0,1.0]" : 0.5024950051157699,
    "[1.0,1.0,1.0,1.0,-1.0,0.0,-1.0,0.0,-1.0]" : 0.5024950051157699,
    "[0.0,-1.0,-1.0,1.0,1.0,1.0,0.0,-1.0,1.0]" : 0.5024950051157699,
    "[-1.0,1.0,-1.0,1.0,1.0,-1.0,0.0,1.0,0.0]" : 0.5024950051157699,
    "[-1.0,0.0,1.0,0.0,-1.0,1.0,-1.0,1.0,1.0]" : 0.5024950051157699,
    "[-1.0,1.0,1.0,0.0,1.0,0.0,-1.0,1.0,-1.0]" : 0.5024950051157699,
    "[1.0,1.0,1.0,0.0,-1.0,1.0,-1.0,0.0,-1.0]" : 0.5024950051157699,
    "[1.0,0.0,-1.0,1.0,-1.0,1.0,1.0,-1.0,0.0]" : 0.5024950051157699,
    "[1.0,1.0,-1.0,-1.0,1.0,-1.0,0.0,1.0,0.0]" : 0.5024950051157699,
    "[1.0,-1.0,-1.0,0.0,1.0,0.0,-1.0,1.0,1.0]" : 0.5024950051157699,
    "[0.0,-1.0,-1.0,-1.0,1.0,0.0,1.0,1.0,1.0]" : 0.5024950051157699,
    "[1.0,1.0,1.0,-1.0,-1.0,0.0,1.0,0.0,-1.0]" : 0.5024950051157699,
    "[1.0,0.0,-1.0,1.0,1.0,0.0,1.0,-1.0,-1.0]" : 0.5024950051157699,
    "[1.0,1.0,-1.0,-1.0,0.0,1.0,0.0,-1.0,1.0]" : 0.5024791012935079,
    "[1.0,0.0,-1.0,1.0,-1.0,-1.0,1.0,0.0,1.0]" : 0.5019970020942103,
    "[1.0,-1.0,1.0,-1.0,1.0,0.0,1.0,-1.0,0.0]" : 0.5019970020942103,
    "[0.0,-1.0,-1.0,1.0,1.0,1.0,1.0,-1.0,0.0]" : 0.5019970020942103,
    "[0.0,-1.0,1.0,0.0,1.0,-1.0,1.0,1.0,-1.0]" : 0.5019970020942103,
    "[-1.0,1.0,1.0,-1.0,1.0,-1.0,0.0,1.0,-1.0]" : 0.5019970020942103,
    "[-1.0,1.0,0.0,1.0,1.0,1.0,-1.0,0.0,-1.0]" : 0.5019970020942103,
    "[1.0,1.0,1.0,-1.0,-1.0,1.0,-1.0,-1.0,0.0]" : 0.5019970020942103,
    "[1.0,-1.0,-1.0,-1.0,0.0,-1.0,1.0,1.0,1.0]" : 0.5019970020942103,
    "[-1.0,-1.0,1.0,0.0,-1.0,1.0,-1.0,1.0,1.0]" : 0.5019970020942103,
    "[-1.0,-1.0,1.0,-1.0,-1.0,0.0,1.0,1.0,1.0]" : 0.5019970020942103,
    "[1.0,1.0,1.0,-1.0,0.0,-1.0,0.0,1.0,-1.0]" : 0.5019970020942103,
    "[1.0,1.0,1.0,-1.0,-1.0,1.0,0.0,-1.0,-1.0]" : 0.5019970020942103,
    "[1.0,-1.0,0.0,1.0,0.0,-1.0,1.0,-1.0,0.0]" : 0.5019970020942103,
    "[0.0,0.0,1.0,-1.0,1.0,-1.0,1.0,-1.0,1.0]" : 0.5019970020942103,
    "[-1.0,0.0,1.0,-1.0,1.0,1.0,1.0,0.0,-1.0]" : 0.5019970020942103,
    "[-1.0,1.0,-1.0,-1.0,1.0,0.0,0.0,1.0,1.0]" : 0.5019970020942103,
    "[1.0,-1.0,-1.0,1.0,-1.0,-1.0,1.0,1.0,0.0]" : 0.5019970020942103,
    "[-1.0,0.0,1.0,1.0,-1.0,1.0,-1.0,-1.0,1.0]" : 0.5019970020942103,
    "[1.0,-1.0,1.0,1.0,0.0,-1.0,1.0,-1.0,0.0]" : 0.5019970020942103,
    "[1.0,0.0,-1.0,-1.0,1.0,1.0,0.0,-1.0,1.0]" : 0.5019970020942103,
    "[0.0,1.0,-1.0,-1.0,0.0,-1.0,1.0,1.0,1.0]" : 0.5019970020942103,
    "[-1.0,0.0,1.0,0.0,1.0,-1.0,1.0,1.0,-1.0]" : 0.5019970020942103,
    "[0.0,-1.0,-1.0,-1.0,-1.0,1.0,1.0,1.0,1.0]" : 0.5019970020942103,
    "[-1.0,1.0,-1.0,1.0,1.0,-1.0,-1.0,1.0,0.0]" : 0.5019970020942103,
    "[-1.0,0.0,-1.0,1.0,1.0,1.0,0.0,1.0,-1.0]" : 0.5019970020942103,
    "[-1.0,-1.0,0.0,1.0,-1.0,-1.0,1.0,1.0,1.0]" : 0.5019970020942103,
    "[-1.0,-1.0,1.0,-1.0,1.0,1.0,1.0,0.0,0.0]" : 0.5019970020942103,
    "[-1.0,0.0,1.0,1.0,1.0,1.0,0.0,-1.0,-1.0]" : 0.5019970020942103,
    "[1.0,-1.0,0.0,1.0,1.0,0.0,-1.0,-1.0,1.0]" : 0.5019970020942103,
    "[-1.0,0.0,-1.0,1.0,0.0,-1.0,1.0,1.0,1.0]" : 0.5019970020942103,
    "[0.0,1.0,0.0,0.0,1.0,-1.0,-1.0,1.0,-1.0]" : 0.5019970020942103,
    "[1.0,-1.0,-1.0,1.0,-1.0,0.0,1.0,1.0,0.0]" : 0.5019970020942103,
    "[1.0,1.0,1.0,-1.0,0.0,0.0,1.0,-1.0,-1.0]" : 0.5019970020942103,
    "[1.0,1.0,1.0,1.0,-1.0,-1.0,-1.0,-1.0,0.0]" : 0.5019970020942103,
    "[-1.0,1.0,0.0,-1.0,0.0,-1.0,1.0,1.0,1.0]" : 0.5019970020942103,
    "[0.0,0.0,-1.0,-1.0,0.0,-1.0,1.0,1.0,1.0]" : 0.5019970020942103,
    "[1.0,-1.0,-1.0,-1.0,1.0,0.0,0.0,1.0,1.0]" : 0.5019970020942103,
    "[0.0,0.0,1.0,-1.0,1.0,1.0,1.0,-1.0,-1.0]" : 0.5019970020942103,
    "[-1.0,-1.0,1.0,-1.0,0.0,0.0,1.0,1.0,1.0]" : 0.5019970020942103,
    "[1.0,-1.0,-1.0,0.0,1.0,-1.0,0.0,1.0,1.0]" : 0.5019970020942103,
    "[1.0,1.0,1.0,-1.0,1.0,0.0,-1.0,-1.0,0.0]" : 0.5019970020942103,
    "[1.0,-1.0,0.0,-1.0,1.0,0.0,0.0,-1.0,1.0]" : 0.5019970020942103,
    "[0.0,1.0,-1.0,-1.0,1.0,-1.0,0.0,1.0,0.0]" : 0.5019970020942103,
    "[-1.0,-1.0,1.0,-1.0,-1.0,1.0,0.0,1.0,1.0]" : 0.5019970020942103,
    "[-1.0,-1.0,0.0,-1.0,1.0,-1.0,1.0,1.0,1.0]" : 0.5019970020942103,
    "[0.0,-1.0,0.0,1.0,1.0,1.0,-1.0,0.0,-1.0]" : 0.5019970020942103,
    "[1.0,0.0,-1.0,-1.0,0.0,-1.0,1.0,1.0,1.0]" : 0.5019970020942103,
    "[-1.0,-1.0,0.0,1.0,-1.0,0.0,1.0,1.0,1.0]" : 0.5019970020942103,
    "[1.0,0.0,-1.0,1.0,1.0,1.0,-1.0,-1.0,0.0]" : 0.5019970020942103,
    "[-1.0,-1.0,1.0,1.0,0.0,1.0,-1.0,-1.0,1.0]" : 0.5019970020942103,
    "[1.0,1.0,1.0,-1.0,0.0,0.0,-1.0,-1.0,0.0]" : 0.5019970020942103,
    "[0.0,-1.0,1.0,-1.0,-1.0,1.0,1.0,0.0,1.0]" : 0.5019970020942103,
    "[1.0,1.0,1.0,1.0,-1.0,0.0,0.0,-1.0,-1.0]" : 0.5019970020942103,
    "[-1.0,-1.0,1.0,1.0,-1.0,1.0,0.0,0.0,1.0]" : 0.5019970020942103,
    "[0.0,0.0,-1.0,1.0,1.0,1.0,1.0,-1.0,-1.0]" : 0.5019970020942103,
    "[0.0,1.0,-1.0,1.0,1.0,1.0,-1.0,0.0,-1.0]" : 0.5019970020942103,
    "[1.0,0.0,0.0,1.0,-1.0,-1.0,1.0,1.0,-1.0]" : 0.5019970020942103,
    "[0.0,1.0,-1.0,-1.0,1.0,0.0,-1.0,1.0,0.0]" : 0.5019970020942103,
    "[0.0,-1.0,1.0,-1.0,-1.0,0.0,1.0,1.0,1.0]" : 0.5019970020942103,
    "[1.0,-1.0,0.0,-1.0,1.0,1.0,0.0,-1.0,1.0]" : 0.5019970020942103,
    "[0.0,-1.0,1.0,-1.0,0.0,1.0,-1.0,0.0,1.0]" : 0.5019970020942103,
    "[0.0,-1.0,1.0,0.0,0.0,1.0,-1.0,-1.0,1.0]" : 0.5019970020942103,
    "[-1.0,-1.0,0.0,1.0,1.0,1.0,0.0,-1.0,1.0]" : 0.5019970020942103,
    "[0.0,-1.0,1.0,-1.0,0.0,1.0,0.0,-1.0,1.0]" : 0.5019970020942103,
    "[0.0,-1.0,1.0,1.0,-1.0,1.0,-1.0,0.0,1.0]" : 0.5019970020942103,
    "[0.0,-1.0,1.0,-1.0,1.0,1.0,1.0,-1.0,0.0]" : 0.5019970020942103,
    "[1.0,1.0,1.0,-1.0,0.0,-1.0,1.0,-1.0,-1.0]" : 0.5019970020942103,
    "[1.0,1.0,-1.0,1.0,-1.0,0.0,1.0,-1.0,-1.0]" : 0.5019970020942103,
    "[1.0,-1.0,-1.0,1.0,1.0,0.0,-1.0,-1.0,1.0]" : 0.5019970020942103,
    "[1.0,-1.0,0.0,1.0,-1.0,-1.0,1.0,0.0,0.0]" : 0.5019970020942103,
    "[-1.0,1.0,1.0,0.0,0.0,1.0,-1.0,-1.0,1.0]" : 0.5019970020942103,
    "[-1.0,1.0,0.0,1.0,1.0,1.0,-1.0,-1.0,0.0]" : 0.5019970020942103,
    "[-1.0,1.0,1.0,0.0,-1.0,1.0,-1.0,-1.0,1.0]" : 0.5019970020942103,
    "[1.0,-1.0,0.0,1.0,1.0,-1.0,0.0,-1.0,1.0]" : 0.5019970020942103,
    "[1.0,-1.0,-1.0,1.0,0.0,0.0,1.0,1.0,-1.0]" : 0.5019970020942103,
    "[-1.0,1.0,0.0,-1.0,1.0,1.0,1.0,0.0,-1.0]" : 0.5019970020942103,
    "[1.0,-1.0,1.0,1.0,-1.0,-1.0,1.0,0.0,0.0]" : 0.5019970020942103,
    "[0.0,-1.0,1.0,-1.0,1.0,0.0,1.0,0.0,-1.0]" : 0.5019970020942103,
    "[1.0,1.0,1.0,0.0,0.0,-1.0,-1.0,0.0,-1.0]" : 0.5019970020942103,
    "[-1.0,1.0,0.0,-1.0,1.0,-1.0,1.0,1.0,-1.0]" : 0.5019970020942103,
    "[1.0,1.0,0.0,1.0,-1.0,-1.0,1.0,-1.0,-1.0]" : 0.5019970020942103,
    "[-1.0,1.0,-1.0,1.0,1.0,1.0,-1.0,-1.0,0.0]" : 0.5019970020942103,
    "[-1.0,0.0,1.0,0.0,1.0,1.0,-1.0,-1.0,1.0]" : 0.5019970020942103,
    "[1.0,1.0,1.0,0.0,0.0,-1.0,-1.0,1.0,-1.0]" : 0.5019970020942103,
    "[0.0,-1.0,-1.0,1.0,1.0,1.0,-1.0,0.0,0.0]" : 0.5019970020942103,
    "[-1.0,-1.0,0.0,1.0,1.0,1.0,0.0,0.0,-1.0]" : 0.5019970020942103,
    "[1.0,0.0,1.0,-1.0,-1.0,1.0,0.0,-1.0,1.0]" : 0.5019970020942103,
    "[1.0,0.0,-1.0,-1.0,1.0,1.0,-1.0,0.0,1.0]" : 0.5019970020942103,
    "[1.0,0.0,-1.0,1.0,-1.0,1.0,1.0,0.0,-1.0]" : 0.5019970020942103,
    "[1.0,1.0,1.0,-1.0,0.0,0.0,0.0,-1.0,-1.0]" : 0.5019970020942103,
    "[1.0,-1.0,-1.0,0.0,1.0,1.0,-1.0,-1.0,1.0]" : 0.5019970020942103,
    "[1.0,0.0,-1.0,0.0,-1.0,-1.0,1.0,1.0,1.0]" : 0.5019970020942103,
    "[-1.0,1.0,0.0,0.0,-1.0,-1.0,1.0,1.0,1.0]" : 0.5019970020942103,
    "[1.0,-1.0,1.0,-1.0,0.0,1.0,0.0,-1.0,1.0]" : 0.5019970020942103,
    "[1.0,-1.0,0.0,-1.0,1.0,0.0,-1.0,0.0,1.0]" : 0.5019970020942103,
    "[-1.0,1.0,1.0,0.0,-1.0,1.0,0.0,-1.0,1.0]" : 0.5019970020942103,
    "[-1.0,1.0,1.0,0.0,1.0,-1.0,-1.0,1.0,0.0]" : 0.5019970020942103,
    "[1.0,1.0,1.0,-1.0,-1.0,1.0,-1.0,0.0,-1.0]" : 0.5019970020942103,
    "[-1.0,0.0,-1.0,1.0,1.0,1.0,0.0,-1.0,1.0]" : 0.5019970020942103,
    "[-1.0,-1.0,1.0,0.0,1.0,1.0,1.0,-1.0,-1.0]" : 0.5019970020942103,
    "[1.0,-1.0,-1.0,-1.0,1.0,0.0,-1.0,1.0,1.0]" : 0.5019970020942103,
    "[1.0,-1.0,0.0,1.0,0.0,-1.0,1.0,0.0,-1.0]" : 0.5019970020942103,
    "[1.0,1.0,1.0,1.0,-1.0,-1.0,-1.0,0.0,0.0]" : 0.5019970020942103,
    "[-1.0,0.0,-1.0,0.0,1.0,-1.0,1.0,1.0,1.0]" : 0.5019970020942103,
    "[0.0,1.0,1.0,-1.0,-1.0,1.0,0.0,-1.0,1.0]" : 0.5019970020942103,
    "[1.0,1.0,-1.0,0.0,0.0,-1.0,1.0,-1.0,1.0]" : 0.5019970020942103,
    "[1.0,-1.0,0.0,-1.0,1.0,1.0,1.0,-1.0,0.0]" : 0.5019970020942103,
    "[1.0,1.0,0.0,-1.0,1.0,-1.0,-1.0,-1.0,1.0]" : 0.5019970020942103,
    "[1.0,0.0,1.0,-1.0,1.0,-1.0,1.0,-1.0,-1.0]" : 0.5019970020942103,
    "[-1.0,-1.0,0.0,0.0,1.0,-1.0,1.0,1.0,1.0]" : 0.5019970020942103,
    "[1.0,1.0,1.0,-1.0,-1.0,1.0,0.0,0.0,-1.0]" : 0.5019970020942103,
    "[-1.0,1.0,1.0,-1.0,-1.0,1.0,0.0,-1.0,1.0]" : 0.5019970020942103,
    "[-1.0,0.0,1.0,1.0,1.0,1.0,-1.0,0.0,-1.0]" : 0.5019970020942103,
    "[-1.0,-1.0,1.0,0.0,0.0,1.0,-1.0,1.0,1.0]" : 0.5019970020942103,
    "[1.0,-1.0,0.0,1.0,1.0,-1.0,-1.0,0.0,1.0]" : 0.5019970020942103,
    "[1.0,1.0,1.0,1.0,0.0,-1.0,-1.0,-1.0,0.0]" : 0.5019970020942103,
    "[-1.0,0.0,0.0,1.0,-1.0,-1.0,1.0,1.0,1.0]" : 0.5019970020942103,
    "[1.0,-1.0,1.0,1.0,-1.0,0.0,1.0,0.0,-1.0]" : 0.5019970020942103,
    "[1.0,1.0,-1.0,-1.0,1.0,0.0,0.0,1.0,-1.0]" : 0.5019970020942103,
    "[0.0,1.0,-1.0,-1.0,1.0,0.0,1.0,1.0,-1.0]" : 0.5019970020942103,
    "[0.0,-1.0,1.0,1.0,1.0,0.0,-1.0,1.0,-1.0]" : 0.5019658304567546,
    "[0.0,1.0,1.0,-1.0,1.0,-1.0,-1.0,1.0,0.0]" : 0.5014985005711038,
    "[-1.0,1.0,-1.0,0.0,1.0,-1.0,0.0,1.0,1.0]" : 0.5014985005711038,
    "[1.0,1.0,1.0,0.0,-1.0,-1.0,1.0,-1.0,0.0]" : 0.5014985005711038,
    "[-1.0,-1.0,0.0,1.0,1.0,1.0,-1.0,1.0,-1.0]" : 0.5014985005711038,
    "[1.0,1.0,1.0,-1.0,0.0,-1.0,-1.0,-1.0,1.0]" : 0.5014985005711038,
    "[-1.0,1.0,0.0,1.0,1.0,0.0,-1.0,1.0,-1.0]" : 0.5014985005711038,
    "[1.0,1.0,1.0,-1.0,0.0,1.0,-1.0,0.0,-1.0]" : 0.5014985005711038,
    "[1.0,0.0,0.0,1.0,-1.0,1.0,1.0,-1.0,-1.0]" : 0.5014985005711038,
    "[1.0,1.0,-1.0,1.0,-1.0,0.0,1.0,0.0,-1.0]" : 0.5014985005711038,
    "[0.0,1.0,1.0,-1.0,-1.0,1.0,-1.0,-1.0,1.0]" : 0.5014985005711038,
    "[0.0,-1.0,-1.0,1.0,1.0,1.0,-1.0,1.0,0.0]" : 0.5014985005711038,
    "[-1.0,0.0,-1.0,1.0,-1.0,-1.0,1.0,1.0,1.0]" : 0.5014985005711038,
    "[1.0,-1.0,0.0,-1.0,0.0,-1.0,1.0,1.0,1.0]" : 0.5014985005711038,
    "[-1.0,-1.0,0.0,1.0,1.0,1.0,0.0,1.0,-1.0]" : 0.5014985005711038,
    "[1.0,-1.0,1.0,1.0,0.0,-1.0,1.0,0.0,-1.0]" : 0.5014985005711038,
    "[1.0,1.0,1.0,1.0,0.0,-1.0,-1.0,0.0,-1.0]" : 0.5014985005711038,
    "[-1.0,-1.0,0.0,0.0,0.0,-1.0,1.0,1.0,1.0]" : 0.5014985005711038,
    "[1.0,0.0,-1.0,1.0,0.0,-1.0,1.0,-1.0,0.0]" : 0.5014985005711038,
    "[-1.0,1.0,-1.0,-1.0,1.0,1.0,0.0,1.0,-1.0]" : 0.5014985005711038,
    "[-1.0,1.0,1.0,-1.0,1.0,0.0,1.0,-1.0,0.0]" : 0.5014985005711038,
    "[1.0,1.0,1.0,0.0,0.0,-1.0,-1.0,-1.0,0.0]" : 0.5014985005711038,
    "[-1.0,-1.0,1.0,1.0,-1.0,1.0,-1.0,0.0,1.0]" : 0.5014985005711038,
    "[-1.0,-1.0,0.0,-1.0,0.0,1.0,1.0,1.0,1.0]" : 0.5014985005711038,
    "[0.0,-1.0,-1.0,-1.0,0.0,1.0,1.0,1.0,1.0]" : 0.5014985005711038,
    "[1.0,-1.0,-1.0,1.0,0.0,1.0,1.0,-1.0,-1.0]" : 0.5014985005711038,
    "[-1.0,1.0,0.0,-1.0,1.0,1.0,0.0,1.0,-1.0]" : 0.5014985005711038,
    "[1.0,-1.0,0.0,-1.0,1.0,0.0,-1.0,1.0,1.0]" : 0.5014985005711038,
    "[-1.0,0.0,1.0,-1.0,1.0,-1.0,1.0,1.0,0.0]" : 0.5014985005711038,
    "[1.0,1.0,-1.0,1.0,-1.0,-1.0,1.0,-1.0,0.0]" : 0.5014985005711038,
    "[-1.0,1.0,-1.0,0.0,1.0,-1.0,1.0,1.0,0.0]" : 0.5014985005711038,
    "[0.0,1.0,1.0,-1.0,1.0,0.0,1.0,-1.0,-1.0]" : 0.5014985005711038,
    "[1.0,-1.0,-1.0,1.0,0.0,-1.0,1.0,1.0,0.0]" : 0.5014985005711038,
    "[1.0,1.0,0.0,-1.0,1.0,-1.0,0.0,1.0,-1.0]" : 0.5014985005711038,
    "[1.0,1.0,1.0,0.0,-1.0,-1.0,0.0,-1.0,1.0]" : 0.5014985005711038,
    "[1.0,0.0,-1.0,1.0,1.0,1.0,-1.0,0.0,-1.0]" : 0.5014985005711038,
    "[1.0,-1.0,0.0,0.0,1.0,1.0,-1.0,-1.0,1.0]" : 0.5014985005711038,
    "[1.0,-1.0,1.0,-1.0,-1.0,1.0,0.0,0.0,1.0]" : 0.5014985005711038,
    "[0.0,1.0,-1.0,-1.0,1.0,0.0,0.0,1.0,-1.0]" : 0.5014985005711038,
    "[1.0,0.0,1.0,-1.0,1.0,-1.0,-1.0,0.0,1.0]" : 0.5014985005711038,
    "[1.0,0.0,1.0,-1.0,1.0,0.0,-1.0,-1.0,1.0]" : 0.5014985005711038,
    "[0.0,-1.0,-1.0,-1.0,0.0,0.0,1.0,1.0,1.0]" : 0.5014985005711038,
    "[-1.0,1.0,-1.0,1.0,1.0,0.0,0.0,1.0,-1.0]" : 0.5014985005711038,
    "[0.0,1.0,1.0,-1.0,1.0,-1.0,-1.0,1.0,-1.0]" : 0.5014985005711038,
    "[-1.0,1.0,1.0,0.0,1.0,0.0,1.0,-1.0,-1.0]" : 0.5014985005711038,
    "[0.0,-1.0,0.0,1.0,1.0,1.0,1.0,-1.0,-1.0]" : 0.5014985005711038,
    "[1.0,1.0,1.0,1.0,-1.0,-1.0,0.0,0.0,-1.0]" : 0.5014985005711038,
    "[0.0,0.0,-1.0,1.0,-1.0,-1.0,1.0,1.0,1.0]" : 0.5014985005711038,
    "[1.0,0.0,-1.0,1.0,0.0,1.0,1.0,-1.0,-1.0]" : 0.5014985005711038,
    "[0.0,0.0,-1.0,-1.0,1.0,-1.0,1.0,1.0,1.0]" : 0.5014985005711038,
    "[-1.0,1.0,0.0,-1.0,1.0,-1.0,0.0,1.0,1.0]" : 0.5014985005711038,
    "[0.0,1.0,1.0,-1.0,1.0,-1.0,1.0,-1.0,-1.0]" : 0.5014985005711038,
    "[1.0,1.0,1.0,-1.0,-1.0,0.0,1.0,-1.0,0.0]" : 0.5014985005711038,
    "[-1.0,-1.0,0.0,1.0,1.0,1.0,-1.0,1.0,0.0]" : 0.5014985005711038,
    "[1.0,1.0,1.0,-1.0,1.0,0.0,0.0,-1.0,-1.0]" : 0.5014985005711038,
    "[1.0,1.0,0.0,-1.0,1.0,-1.0,-1.0,1.0,-1.0]" : 0.5014985005711038,
    "[1.0,-1.0,0.0,0.0,1.0,-1.0,-1.0,0.0,1.0]" : 0.5014985005711038,
    "[0.0,-1.0,0.0,-1.0,0.0,-1.0,1.0,1.0,1.0]" : 0.5014985005711038,
    "[0.0,-1.0,-1.0,1.0,1.0,1.0,-1.0,1.0,-1.0]" : 0.5014985005711038,
    "[-1.0,0.0,0.0,-1.0,-1.0,1.0,1.0,1.0,1.0]" : 0.5014985005711038,
    "[1.0,1.0,1.0,1.0,-1.0,-1.0,0.0,-1.0,-1.0]" : 0.5014985005711038,
    "[-1.0,1.0,0.0,0.0,1.0,1.0,-1.0,1.0,-1.0]" : 0.5014985005711038,
    "[1.0,-1.0,0.0,-1.0,1.0,1.0,-1.0,-1.0,1.0]" : 0.5014985005711038,
    "[1.0,1.0,1.0,0.0,-1.0,-1.0,0.0,1.0,-1.0]" : 0.5014985005711038,
    "[0.0,1.0,0.0,1.0,1.0,-1.0,-1.0,1.0,-1.0]" : 0.5014985005711038,
    "[-1.0,-1.0,1.0,1.0,1.0,1.0,-1.0,0.0,0.0]" : 0.5014985005711038,
    "[1.0,0.0,-1.0,-1.0,1.0,0.0,0.0,-1.0,1.0]" : 0.5014985005711038,
    "[0.0,0.0,-1.0,1.0,1.0,1.0,-1.0,1.0,-1.0]" : 0.5014985005711038,
    "[-1.0,-1.0,1.0,1.0,1.0,-1.0,1.0,0.0,0.0]" : 0.5014985005711038,
    "[0.0,0.0,1.0,-1.0,-1.0,1.0,-1.0,1.0,1.0]" : 0.5014985005711038,
    "[-1.0,-1.0,1.0,0.0,1.0,0.0,1.0,1.0,-1.0]" : 0.5014985005711038,
    "[0.0,1.0,-1.0,1.0,1.0,1.0,0.0,-1.0,-1.0]" : 0.5014985005711038,
    "[-1.0,1.0,0.0,1.0,1.0,1.0,0.0,-1.0,-1.0]" : 0.5014985005711038,
    "[-1.0,-1.0,1.0,0.0,-1.0,1.0,1.0,0.0,1.0]" : 0.5014985005711038,
    "[0.0,-1.0,1.0,-1.0,1.0,-1.0,1.0,1.0,0.0]" : 0.5014985005711038,
    "[1.0,1.0,0.0,0.0,1.0,-1.0,-1.0,-1.0,1.0]" : 0.5014985005711038,
    "[1.0,1.0,-1.0,-1.0,1.0,-1.0,0.0,0.0,1.0]" : 0.5014985005711038,
    "[0.0,1.0,-1.0,-1.0,-1.0,0.0,1.0,1.0,1.0]" : 0.5014985005711038,
    "[0.0,0.0,1.0,-1.0,-1.0,1.0,1.0,-1.0,1.0]" : 0.5014985005711038,
    "[-1.0,0.0,1.0,-1.0,1.0,1.0,1.0,-1.0,0.0]" : 0.5014985005711038,
    "[-1.0,0.0,1.0,1.0,1.0,-1.0,1.0,-1.0,0.0]" : 0.5014985005711038,
    "[0.0,1.0,1.0,0.0,-1.0,1.0,-1.0,-1.0,1.0]" : 0.5014985005711038,
    "[-1.0,0.0,1.0,-1.0,0.0,1.0,0.0,-1.0,1.0]" : 0.5014985005711038,
    "[-1.0,0.0,1.0,-1.0,1.0,0.0,1.0,1.0,-1.0]" : 0.5014985005711038,
    "[1.0,-1.0,-1.0,1.0,-1.0,1.0,1.0,0.0,0.0]" : 0.5014985005711038,
    "[1.0,0.0,0.0,-1.0,1.0,-1.0,-1.0,1.0,1.0]" : 0.5014985005711038,
    "[1.0,1.0,1.0,0.0,-1.0,-1.0,-1.0,1.0,0.0]" : 0.5014985005711038,
    "[0.0,-1.0,-1.0,1.0,1.0,1.0,0.0,1.0,-1.0]" : 0.5014985005711038,
    "[-1.0,1.0,0.0,-1.0,-1.0,1.0,1.0,0.0,1.0]" : 0.5014985005711038,
    "[-1.0,-1.0,0.0,1.0,1.0,1.0,1.0,-1.0,0.0]" : 0.5014985005711038,
    "[1.0,1.0,1.0,0.0,1.0,-1.0,-1.0,0.0,-1.0]" : 0.5014985005711038,
    "[1.0,0.0,-1.0,-1.0,1.0,-1.0,1.0,0.0,1.0]" : 0.5014985005711038,
    "[1.0,1.0,0.0,1.0,0.0,-1.0,-1.0,-1.0,1.0]" : 0.5014985005711038,
    "[1.0,-1.0,-1.0,0.0,1.0,1.0,-1.0,1.0,0.0]" : 0.5014985005711038,
    "[-1.0,-1.0,1.0,1.0,-1.0,0.0,0.0,1.0,1.0]" : 0.5014985005711038,
    "[0.0,-1.0,1.0,-1.0,-1.0,1.0,-1.0,1.0,1.0]" : 0.5014985005711038,
    "[1.0,-1.0,0.0,1.0,1.0,-1.0,1.0,-1.0,-1.0]" : 0.5014985005711038,
    "[1.0,1.0,-1.0,-1.0,1.0,0.0,0.0,-1.0,1.0]" : 0.5014985005711038,
    "[1.0,1.0,1.0,-1.0,0.0,-1.0,0.0,-1.0,1.0]" : 0.5014985005711038,
    "[-1.0,1.0,-1.0,1.0,1.0,0.0,-1.0,0.0,1.0]" : 0.5014985005711038,
    "[1.0,1.0,0.0,-1.0,1.0,0.0,-1.0,1.0,-1.0]" : 0.5014985005711038,
    "[-1.0,0.0,1.0,1.0,-1.0,1.0,0.0,-1.0,1.0]" : 0.5014985005711038,
    "[1.0,0.0,0.0,1.0,-1.0,-1.0,1.0,-1.0,1.0]" : 0.5014985005711038,
    "[1.0,-1.0,-1.0,-1.0,1.0,1.0,0.0,0.0,1.0]" : 0.5014985005711038,
    "[0.0,1.0,-1.0,0.0,1.0,1.0,-1.0,1.0,-1.0]" : 0.5014985005711038,
    "[0.0,-1.0,0.0,1.0,1.0,1.0,-1.0,1.0,-1.0]" : 0.5014985005711038,
    "[1.0,1.0,1.0,0.0,1.0,-1.0,0.0,-1.0,-1.0]" : 0.5014985005711038,
    "[-1.0,1.0,0.0,1.0,1.0,0.0,1.0,-1.0,-1.0]" : 0.5014985005711038,
    "[0.0,0.0,-1.0,1.0,1.0,1.0,-1.0,-1.0,1.0]" : 0.5014985005711038,
    "[0.0,-1.0,-1.0,1.0,1.0,1.0,1.0,-1.0,-1.0]" : 0.5014985005711038,
    "[0.0,0.0,-1.0,1.0,1.0,-1.0,-1.0,1.0,1.0]" : 0.5014985005711038,
    "[1.0,-1.0,-1.0,-1.0,0.0,1.0,0.0,1.0,1.0]" : 0.5014985005711038,
    "[-1.0,1.0,-1.0,1.0,1.0,1.0,-1.0,0.0,-1.0]" : 0.5014985005711038,
    "[1.0,1.0,-1.0,-1.0,1.0,1.0,-1.0,0.0,0.0]" : 0.5014985005711038,
    "[-1.0,1.0,1.0,0.0,1.0,-1.0,1.0,-1.0,0.0]" : 0.5014985005711038,
    "[0.0,-1.0,1.0,-1.0,-1.0,1.0,0.0,1.0,1.0]" : 0.5014985005711038,
    "[1.0,-1.0,1.0,-1.0,1.0,-1.0,1.0,0.0,0.0]" : 0.5014985005711038,
    "[-1.0,-1.0,1.0,1.0,0.0,0.0,-1.0,1.0,1.0]" : 0.5014905464177145,
    "[-1.0,0.0,1.0,1.0,-1.0,-1.0,0.0,1.0,1.0]" : 0.5014895598334457,
    "[-1.0,0.0,1.0,1.0,1.0,0.0,-1.0,-1.0,1.0]" : 0.5014880454603026,
    "[-1.0,1.0,1.0,1.0,1.0,-1.0,-1.0,0.0,0.0]" : 0.501483114548834,
    "[1.0,-1.0,0.0,1.0,-1.0,1.0,0.0,1.0,-1.0]" : 0.5014821091303341,
    "[1.0,1.0,-1.0,0.0,-1.0,0.0,1.0,-1.0,1.0]" : 0.5014635056247576,
    "[1.0,-1.0,-1.0,1.0,0.0,-1.0,1.0,0.0,1.0]" : 0.50099950004745,
    "[-1.0,1.0,-1.0,0.0,1.0,1.0,0.0,1.0,-1.0]" : 0.50099950004745,
    "[0.0,1.0,-1.0,-1.0,1.0,1.0,-1.0,1.0,0.0]" : 0.50099950004745,
    "[1.0,-1.0,-1.0,1.0,0.0,1.0,1.0,0.0,-1.0]" : 0.50099950004745,
    "[1.0,1.0,1.0,0.0,-1.0,0.0,1.0,-1.0,-1.0]" : 0.50099950004745,
    "[1.0,1.0,1.0,0.0,-1.0,0.0,-1.0,-1.0,1.0]" : 0.50099950004745,
    "[-1.0,-1.0,0.0,1.0,1.0,1.0,1.0,0.0,-1.0]" : 0.50099950004745,
    "[-1.0,-1.0,1.0,1.0,1.0,1.0,0.0,-1.0,0.0]" : 0.50099950004745,
    "[0.0,-1.0,1.0,-1.0,1.0,-1.0,1.0,0.0,1.0]" : 0.50099950004745,
    "[1.0,-1.0,1.0,1.0,0.0,-1.0,1.0,-1.0,-1.0]" : 0.50099950004745,
    "[1.0,-1.0,0.0,1.0,-1.0,-1.0,1.0,0.0,1.0]" : 0.50099950004745,
    "[1.0,-1.0,-1.0,1.0,1.0,-1.0,1.0,0.0,0.0]" : 0.50099950004745,
    "[1.0,-1.0,0.0,-1.0,1.0,0.0,1.0,-1.0,1.0]" : 0.50099950004745,
    "[1.0,1.0,1.0,-1.0,0.0,0.0,-1.0,-1.0,1.0]" : 0.50099950004745,
    "[-1.0,-1.0,1.0,-1.0,1.0,0.0,1.0,-1.0,1.0]" : 0.50099950004745,
    "[1.0,0.0,0.0,1.0,1.0,-1.0,-1.0,-1.0,1.0]" : 0.50099950004745,
    "[-1.0,1.0,1.0,0.0,1.0,-1.0,0.0,1.0,-1.0]" : 0.50099950004745,
    "[1.0,-1.0,-1.0,1.0,1.0,-1.0,0.0,-1.0,1.0]" : 0.50099950004745,
    "[1.0,0.0,-1.0,1.0,1.0,1.0,0.0,-1.0,-1.0]" : 0.50099950004745,
    "[1.0,1.0,-1.0,1.0,-1.0,-1.0,1.0,0.0,0.0]" : 0.50099950004745,
    "[0.0,-1.0,1.0,-1.0,0.0,1.0,-1.0,1.0,1.0]" : 0.50099950004745,
    "[1.0,-1.0,-1.0,0.0,1.0,-1.0,1.0,-1.0,1.0]" : 0.50099950004745,
    "[-1.0,-1.0,1.0,1.0,1.0,0.0,-1.0,1.0,0.0]" : 0.50099950004745,
    "[1.0,1.0,1.0,1.0,-1.0,0.0,-1.0,-1.0,0.0]" : 0.50099950004745,
    "[1.0,1.0,-1.0,1.0,0.0,-1.0,1.0,-1.0,0.0]" : 0.50099950004745,
    "[0.0,1.0,-1.0,0.0,-1.0,-1.0,1.0,1.0,1.0]" : 0.50099950004745,
    "[1.0,0.0,-1.0,-1.0,1.0,0.0,-1.0,1.0,1.0]" : 0.50099950004745,
    "[1.0,-1.0,-1.0,0.0,1.0,0.0,1.0,-1.0,1.0]" : 0.50099950004745,
    "[1.0,1.0,1.0,1.0,0.0,-1.0,0.0,-1.0,-1.0]" : 0.50099950004745,
    "[-1.0,-1.0,1.0,0.0,0.0,-1.0,1.0,1.0,1.0]" : 0.50099950004745,
    "[0.0,-1.0,1.0,0.0,1.0,-1.0,1.0,-1.0,1.0]" : 0.50099950004745,
    "[1.0,0.0,1.0,-1.0,0.0,1.0,-1.0,-1.0,1.0]" : 0.50099950004745,
    "[-1.0,-1.0,0.0,1.0,1.0,1.0,-1.0,0.0,1.0]" : 0.50099950004745,
    "[1.0,1.0,-1.0,1.0,0.0,0.0,1.0,-1.0,-1.0]" : 0.50099950004745,
    "[1.0,0.0,0.0,-1.0,1.0,-1.0,1.0,-1.0,1.0]" : 0.50099950004745,
    "[0.0,-1.0,-1.0,0.0,-1.0,1.0,1.0,1.0,1.0]" : 0.50099950004745,
    "[1.0,0.0,-1.0,1.0,1.0,-1.0,1.0,-1.0,0.0]" : 0.50099950004745,
    "[1.0,0.0,1.0,1.0,-1.0,-1.0,1.0,0.0,-1.0]" : 0.50099950004745,
    "[0.0,1.0,1.0,0.0,1.0,-1.0,1.0,-1.0,-1.0]" : 0.50099950004745,
    "[-1.0,1.0,1.0,-1.0,1.0,0.0,0.0,1.0,-1.0]" : 0.50099950004745,
    "[1.0,1.0,1.0,-1.0,-1.0,0.0,-1.0,-1.0,1.0]" : 0.50099950004745,
    "[0.0,1.0,1.0,-1.0,1.0,0.0,-1.0,1.0,-1.0]" : 0.50099950004745,
    "[0.0,-1.0,1.0,1.0,1.0,-1.0,1.0,0.0,-1.0]" : 0.50099950004745,
    "[1.0,-1.0,1.0,0.0,1.0,0.0,1.0,-1.0,-1.0]" : 0.50099950004745,
    "[-1.0,0.0,-1.0,-1.0,0.0,1.0,1.0,1.0,1.0]" : 0.50099950004745,
    "[1.0,-1.0,1.0,-1.0,0.0,1.0,-1.0,-1.0,1.0]" : 0.50099950004745,
    "[1.0,0.0,-1.0,0.0,1.0,1.0,-1.0,-1.0,1.0]" : 0.50099950004745,
    "[1.0,1.0,-1.0,-1.0,1.0,0.0,-1.0,1.0,0.0]" : 0.50099950004745,
    "[-1.0,-1.0,0.0,1.0,1.0,1.0,-1.0,-1.0,1.0]" : 0.50099950004745,
    "[0.0,1.0,-1.0,0.0,1.0,-1.0,-1.0,1.0,1.0]" : 0.50099950004745,
    "[-1.0,0.0,1.0,0.0,1.0,1.0,1.0,-1.0,-1.0]" : 0.50099950004745,
    "[1.0,1.0,1.0,-1.0,0.0,-1.0,1.0,-1.0,0.0]" : 0.50099950004745,
    "[1.0,-1.0,-1.0,0.0,-1.0,0.0,1.0,1.0,1.0]" : 0.50099950004745,
    "[-1.0,1.0,1.0,0.0,1.0,-1.0,1.0,0.0,-1.0]" : 0.50099950004745,
    "[-1.0,-1.0,1.0,0.0,1.0,0.0,1.0,-1.0,1.0]" : 0.50099950004745,
    "[1.0,1.0,1.0,-1.0,1.0,-1.0,-1.0,-1.0,0.0]" : 0.50099950004745,
    "[1.0,1.0,1.0,-1.0,-1.0,0.0,-1.0,1.0,0.0]" : 0.50099950004745,
    "[1.0,-1.0,1.0,0.0,1.0,-1.0,1.0,0.0,-1.0]" : 0.50099950004745,
    "[1.0,1.0,-1.0,1.0,-1.0,0.0,1.0,-1.0,0.0]" : 0.50099950004745,
    "[-1.0,0.0,1.0,-1.0,0.0,1.0,1.0,-1.0,1.0]" : 0.50099950004745,
    "[-1.0,0.0,1.0,-1.0,1.0,0.0,1.0,-1.0,1.0]" : 0.50099950004745,
    "[1.0,1.0,1.0,-1.0,0.0,-1.0,-1.0,0.0,1.0]" : 0.50099950004745,
    "[1.0,0.0,1.0,-1.0,-1.0,1.0,-1.0,-1.0,1.0]" : 0.50099950004745,
    "[-1.0,-1.0,1.0,1.0,1.0,0.0,0.0,1.0,-1.0]" : 0.50099950004745,
    "[-1.0,0.0,0.0,1.0,1.0,1.0,1.0,-1.0,-1.0]" : 0.50099950004745,
    "[1.0,-1.0,1.0,-1.0,0.0,1.0,-1.0,0.0,1.0]" : 0.50099950004745,
    "[1.0,-1.0,-1.0,1.0,-1.0,0.0,1.0,1.0,-1.0]" : 0.50099950004745,
    "[1.0,-1.0,0.0,1.0,-1.0,1.0,1.0,0.0,-1.0]" : 0.50099950004745,
    "[-1.0,1.0,-1.0,1.0,1.0,1.0,0.0,-1.0,-1.0]" : 0.50099950004745,
    "[1.0,-1.0,0.0,-1.0,1.0,1.0,-1.0,0.0,1.0]" : 0.50099950004745,
    "[-1.0,-1.0,1.0,1.0,1.0,1.0,-1.0,-1.0,0.0]" : 0.50099950004745,
    "[1.0,-1.0,0.0,-1.0,1.0,-1.0,0.0,1.0,1.0]" : 0.50099950004745,
    "[1.0,0.0,-1.0,-1.0,-1.0,1.0,1.0,0.0,1.0]" : 0.5009985015468552,
    "[1.0,-1.0,0.0,1.0,1.0,-1.0,-1.0,1.0,0.0]" : 0.500994522487083,
    "[0.0,1.0,1.0,0.0,1.0,-1.0,-1.0,-1.0,1.0]" : 0.5009930334370842,
    "[1.0,0.0,1.0,0.0,-1.0,1.0,-1.0,1.0,-1.0]" : 0.5009930289640013,
    "[1.0,-1.0,1.0,-1.0,1.0,1.0,0.0,0.0,-1.0]" : 0.5009930229999011,
    "[-1.0,0.0,1.0,1.0,0.0,-1.0,1.0,-1.0,1.0]" : 0.5009905404447687,
    "[0.0,1.0,-1.0,-1.0,1.0,1.0,1.0,0.0,-1.0]" : 0.5009905404447687,
    "[0.0,1.0,-1.0,0.0,1.0,-1.0,1.0,-1.0,1.0]" : 0.5009895499042768,
    "[-1.0,1.0,-1.0,-1.0,1.0,1.0,1.0,0.0,0.0]" : 0.50098857519761,
    "[1.0,-1.0,1.0,0.0,-1.0,0.0,-1.0,1.0,1.0]" : 0.5009875747596065,
    "[1.0,-1.0,-1.0,-1.0,1.0,0.0,1.0,1.0,0.0]" : 0.5009870782550203,
    "[1.0,1.0,0.0,-1.0,-1.0,1.0,0.0,-1.0,1.0]" : 0.5009865852096552,
    "[-1.0,-1.0,1.0,1.0,1.0,-1.0,0.0,1.0,0.0]" : 0.5009855976378144,
    "[1.0,0.0,1.0,-1.0,-1.0,1.0,1.0,0.0,-1.0]" : 0.5009846120401298,
    "[1.0,0.0,-1.0,-1.0,0.0,1.0,1.0,-1.0,1.0]" : 0.5005000000237487,
    "[-1.0,1.0,-1.0,0.0,0.0,-1.0,1.0,1.0,1.0]" : 0.5005000000237487,
    "[1.0,1.0,1.0,0.0,0.0,-1.0,1.0,-1.0,-1.0]" : 0.5005000000237487,
    "[0.0,-1.0,0.0,1.0,1.0,1.0,-1.0,-1.0,1.0]" : 0.5005000000237487,
    "[0.0,-1.0,-1.0,1.0,-1.0,-1.0,1.0,1.0,1.0]" : 0.5005000000237487,
    "[1.0,1.0,0.0,-1.0,1.0,-1.0,0.0,-1.0,1.0]" : 0.5005000000237487,
    "[0.0,1.0,1.0,-1.0,1.0,-1.0,0.0,1.0,-1.0]" : 0.5005000000237487,
    "[-1.0,1.0,0.0,-1.0,1.0,-1.0,1.0,0.0,1.0]" : 0.5005000000237487,
    "[1.0,-1.0,-1.0,1.0,0.0,1.0,1.0,-1.0,0.0]" : 0.5005000000237487,
    "[1.0,-1.0,-1.0,-1.0,1.0,-1.0,0.0,1.0,1.0]" : 0.5005000000237487,
    "[1.0,-1.0,0.0,-1.0,1.0,-1.0,1.0,-1.0,1.0]" : 0.5005000000237487,
    "[1.0,0.0,1.0,1.0,-1.0,-1.0,1.0,-1.0,-1.0]" : 0.5005000000237487,
    "[1.0,0.0,1.0,-1.0,-1.0,1.0,-1.0,0.0,1.0]" : 0.5005000000237487,
    "[-1.0,1.0,-1.0,-1.0,0.0,0.0,1.0,1.0,1.0]" : 0.5005000000237487,
    "[1.0,0.0,1.0,-1.0,0.0,1.0,-1.0,1.0,-1.0]" : 0.5005000000237487,
    "[1.0,-1.0,-1.0,1.0,1.0,1.0,0.0,-1.0,0.0]" : 0.5005000000237487,
    "[-1.0,-1.0,1.0,1.0,1.0,1.0,0.0,-1.0,-1.0]" : 0.5005000000237487,
    "[1.0,-1.0,-1.0,1.0,1.0,1.0,0.0,0.0,-1.0]" : 0.5005000000237487,
    "[1.0,1.0,0.0,1.0,0.0,-1.0,1.0,-1.0,-1.0]" : 0.5005000000237487,
    "[1.0,1.0,1.0,-1.0,0.0,-1.0,1.0,0.0,-1.0]" : 0.5005000000237487,
    "[1.0,0.0,1.0,0.0,1.0,-1.0,1.0,-1.0,-1.0]" : 0.5005000000237487,
    "[-1.0,-1.0,1.0,1.0,1.0,1.0,0.0,0.0,-1.0]" : 0.5005000000237487,
    "[1.0,-1.0,1.0,-1.0,1.0,-1.0,0.0,-1.0,1.0]" : 0.5005000000237487,
    "[-1.0,-1.0,0.0,-1.0,-1.0,1.0,1.0,1.0,1.0]" : 0.5005000000237487,
    "[1.0,1.0,-1.0,0.0,1.0,-1.0,0.0,-1.0,1.0]" : 0.5005000000237487,
    "[-1.0,-1.0,1.0,-1.0,1.0,0.0,1.0,1.0,0.0]" : 0.5005000000237487,
    "[0.0,1.0,-1.0,-1.0,1.0,-1.0,-1.0,1.0,1.0]" : 0.5005000000237487,
    "[1.0,1.0,-1.0,0.0,1.0,-1.0,-1.0,1.0,0.0]" : 0.5005000000237487,
    "[1.0,1.0,0.0,-1.0,1.0,0.0,-1.0,-1.0,1.0]" : 0.5005000000237487,
    "[-1.0,0.0,0.0,1.0,1.0,1.0,-1.0,1.0,-1.0]" : 0.5005000000237487,
    "[-1.0,-1.0,1.0,-1.0,0.0,-1.0,1.0,1.0,1.0]" : 0.5005000000237487,
    "[-1.0,0.0,1.0,-1.0,0.0,-1.0,1.0,1.0,1.0]" : 0.5005000000237487,
    "[1.0,0.0,0.0,-1.0,1.0,1.0,-1.0,-1.0,1.0]" : 0.5005000000237487,
    "[-1.0,1.0,0.0,-1.0,1.0,0.0,1.0,1.0,-1.0]" : 0.5005000000237487,
    "[0.0,0.0,1.0,1.0,1.0,-1.0,1.0,-1.0,-1.0]" : 0.5005000000237487,
    "[1.0,-1.0,1.0,-1.0,1.0,-1.0,0.0,0.0,1.0]" : 0.5005000000237487,
    "[1.0,1.0,1.0,-1.0,0.0,1.0,0.0,-1.0,-1.0]" : 0.5005000000237487,
    "[1.0,1.0,0.0,1.0,-1.0,0.0,1.0,-1.0,-1.0]" : 0.5005000000237487,
    "[-1.0,1.0,1.0,-1.0,0.0,1.0,0.0,-1.0,1.0]" : 0.5005000000237487,
    "[-1.0,-1.0,0.0,1.0,0.0,-1.0,1.0,1.0,1.0]" : 0.5005000000237487,
    "[0.0,-1.0,-1.0,1.0,1.0,1.0,1.0,0.0,-1.0]" : 0.5005000000237487,
    "[-1.0,-1.0,1.0,-1.0,1.0,1.0,1.0,-1.0,0.0]" : 0.5005000000237487,
    "[1.0,0.0,-1.0,1.0,1.0,0.0,-1.0,-1.0,1.0]" : 0.5005000000237487,
    "[1.0,-1.0,0.0,1.0,0.0,-1.0,1.0,1.0,-1.0]" : 0.5005000000237487,
    "[-1.0,-1.0,1.0,1.0,0.0,1.0,0.0,-1.0,1.0]" : 0.5005000000237487,
    "[0.0,-1.0,1.0,0.0,1.0,1.0,1.0,-1.0,-1.0]" : 0.5005000000237487,
    "[-1.0,1.0,0.0,1.0,1.0,-1.0,0.0,1.0,-1.0]" : 0.5005000000237487,
    "[1.0,1.0,0.0,0.0,1.0,-1.0,-1.0,1.0,-1.0]" : 0.5005000000237487,
    "[1.0,-1.0,0.0,1.0,1.0,1.0,0.0,-1.0,-1.0]" : 0.5005000000237487,
    "[-1.0,0.0,-1.0,1.0,1.0,1.0,-1.0,1.0,-1.0]" : 0.5005000000237487,
    "[0.0,1.0,0.0,-1.0,1.0,-1.0,1.0,1.0,-1.0]" : 0.5005000000237487,
    "[0.0,0.0,1.0,1.0,-1.0,1.0,-1.0,-1.0,1.0]" : 0.5005000000237487,
    "[0.0,-1.0,-1.0,1.0,-1.0,0.0,1.0,1.0,1.0]" : 0.5005000000237487,
    "[1.0,1.0,1.0,0.0,-1.0,1.0,-1.0,-1.0,0.0]" : 0.5005000000237487,
    "[1.0,0.0,-1.0,1.0,-1.0,-1.0,1.0,1.0,0.0]" : 0.5005000000237487,
    "[-1.0,1.0,-1.0,-1.0,0.0,-1.0,1.0,1.0,1.0]" : 0.5005000000237487,
    "[-1.0,0.0,1.0,-1.0,-1.0,1.0,0.0,1.0,1.0]" : 0.5005000000237487,
    "[0.0,1.0,1.0,-1.0,-1.0,1.0,-1.0,0.0,1.0]" : 0.5005000000237487,
    "[1.0,-1.0,0.0,1.0,-1.0,-1.0,1.0,1.0,0.0]" : 0.5005000000237487,
    "[-1.0,1.0,-1.0,0.0,1.0,1.0,-1.0,1.0,-1.0]" : 0.5005000000237487,
    "[-1.0,1.0,-1.0,1.0,1.0,0.0,-1.0,1.0,0.0]" : 0.5005000000237487,
    "[1.0,1.0,0.0,1.0,-1.0,-1.0,1.0,0.0,-1.0]" : 0.5005000000237487,
    "[0.0,-1.0,-1.0,1.0,1.0,1.0,-1.0,0.0,1.0]" : 0.5005000000237487,
    "[0.0,-1.0,1.0,-1.0,1.0,0.0,1.0,-1.0,1.0]" : 0.5005000000237487,
    "[-1.0,-1.0,1.0,0.0,-1.0,1.0,0.0,1.0,1.0]" : 0.5005000000237487,
    "[1.0,-1.0,-1.0,0.0,1.0,1.0,0.0,-1.0,1.0]" : 0.5005000000237487,
    "[1.0,-1.0,-1.0,0.0,-1.0,-1.0,1.0,1.0,1.0]" : 0.5005000000237487,
    "[1.0,-1.0,1.0,-1.0,1.0,1.0,0.0,-1.0,0.0]" : 0.5005000000237487,
    "[0.0,1.0,-1.0,1.0,1.0,1.0,-1.0,-1.0,0.0]" : 0.5005000000237487,
    "[1.0,1.0,1.0,-1.0,0.0,1.0,-1.0,-1.0,0.0]" : 0.5005000000237487,
    "[-1.0,1.0,-1.0,1.0,1.0,1.0,0.0,0.0,-1.0]" : 0.5005000000237487,
    "[1.0,-1.0,1.0,0.0,1.0,-1.0,0.0,-1.0,1.0]" : 0.5005000000237487,
    "[1.0,-1.0,1.0,0.0,0.0,1.0,-1.0,-1.0,1.0]" : 0.5005000000237487,
    "[0.0,1.0,-1.0,1.0,1.0,0.0,-1.0,1.0,-1.0]" : 0.5005000000237487,
    "[1.0,-1.0,0.0,1.0,1.0,1.0,-1.0,-1.0,0.0]" : 0.5005000000237487,
    "[-1.0,1.0,-1.0,0.0,1.0,1.0,-1.0,1.0,0.0]" : 0.5005000000237487,
    "[1.0,1.0,1.0,-1.0,0.0,-1.0,-1.0,1.0,0.0]" : 0.5005000000237487,
    "[-1.0,1.0,1.0,-1.0,1.0,-1.0,0.0,1.0,0.0]" : 0.5005000000237487,
    "[1.0,-1.0,1.0,0.0,1.0,-1.0,1.0,-1.0,0.0]" : 0.5005000000237487,
    "[1.0,0.0,1.0,1.0,0.0,-1.0,1.0,-1.0,-1.0]" : 0.5005000000237487,
    "[0.0,1.0,1.0,-1.0,0.0,1.0,1.0,-1.0,-1.0]" : 0.5005000000237487,
    "[1.0,0.0,-1.0,1.0,-1.0,0.0,1.0,-1.0,1.0]" : 0.5005000000237487,
    "[0.0,-1.0,1.0,1.0,-1.0,-1.0,1.0,1.0,0.0]" : 0.5005000000237487,
    "[0.0,-1.0,0.0,-1.0,-1.0,1.0,1.0,1.0,1.0]" : 0.5005000000237487,
    "[1.0,1.0,1.0,-1.0,1.0,-1.0,0.0,-1.0,0.0]" : 0.5005000000237487,
    "[0.0,1.0,0.0,1.0,-1.0,-1.0,1.0,-1.0,1.0]" : 0.5004995000237012,
    "[-1.0,1.0,1.0,1.0,0.0,-1.0,-1.0,1.0,0.0]" : 0.5004985015231065,
    "[-1.0,0.0,1.0,1.0,-1.0,-1.0,1.0,0.0,1.0]" : 0.5004985015231065,
    "[0.0,1.0,1.0,1.0,-1.0,-1.0,1.0,-1.0,0.0]" : 0.5004980030215597,
    "[0.0,-1.0,1.0,0.0,1.0,-1.0,-1.0,1.0,1.0]" : 0.5004980030215597,
    "[-1.0,1.0,1.0,1.0,0.0,0.0,-1.0,-1.0,1.0]" : 0.5004975050185144,
    "[1.0,1.0,0.0,-1.0,-1.0,1.0,1.0,0.0,-1.0]" : 0.5004975050185144,
    "[0.0,-1.0,1.0,1.0,-1.0,1.0,-1.0,1.0,0.0]" : 0.5004975050185144,
    "[-1.0,1.0,-1.0,0.0,-1.0,1.0,1.0,0.0,1.0]" : 0.5004975050185144,
    "[0.0,-1.0,1.0,1.0,0.0,1.0,-1.0,1.0,-1.0]" : 0.5004975050185144,
    "[1.0,-1.0,1.0,0.0,0.0,-1.0,-1.0,1.0,1.0]" : 0.5004970075134723,
    "[1.0,-1.0,1.0,1.0,1.0,-1.0,0.0,0.0,-1.0]" : 0.5004970075134723,
    "[1.0,-1.0,1.0,1.0,0.0,-1.0,-1.0,0.0,1.0]" : 0.5004970075134723,
    "[1.0,-1.0,0.0,0.0,1.0,1.0,-1.0,1.0,-1.0]" : 0.5004970075134723,
    "[1.0,0.0,0.0,-1.0,1.0,1.0,1.0,-1.0,-1.0]" : 0.5004970075134723,
    "[-1.0,1.0,-1.0,0.0,1.0,1.0,1.0,-1.0,0.0]" : 0.5004970075134723,
    "[1.0,-1.0,1.0,-1.0,1.0,0.0,0.0,1.0,-1.0]" : 0.5004965105059351,
    "[-1.0,1.0,-1.0,-1.0,0.0,1.0,1.0,0.0,1.0]" : 0.5004965105059351,
    "[0.0,-1.0,1.0,1.0,-1.0,0.0,-1.0,1.0,1.0]" : 0.5004965105059351,
    "[1.0,1.0,-1.0,-1.0,0.0,1.0,0.0,1.0,-1.0]" : 0.5004965105059351,
    "[1.0,0.0,1.0,1.0,0.0,-1.0,-1.0,1.0,-1.0]" : 0.5004960139954057,
    "[-1.0,1.0,0.0,-1.0,1.0,0.0,1.0,-1.0,1.0]" : 0.5004960139954057,
    "[1.0,-1.0,1.0,-1.0,0.0,0.0,1.0,1.0,-1.0]" : 0.5004960139954057,
    "[-1.0,1.0,-1.0,1.0,0.0,1.0,0.0,-1.0,1.0]" : 0.5004955179813867,
    "[1.0,-1.0,1.0,1.0,1.0,-1.0,-1.0,0.0,0.0]" : 0.5004955179813867,
    "[0.0,1.0,-1.0,1.0,-1.0,0.0,1.0,-1.0,1.0]" : 0.5004955179813867,
    "[1.0,1.0,-1.0,0.0,-1.0,1.0,1.0,0.0,-1.0]" : 0.5004955179813867,
    "[-1.0,1.0,0.0,1.0,-1.0,1.0,0.0,-1.0,1.0]" : 0.5004950224633817,
    "[-1.0,1.0,0.0,1.0,-1.0,-1.0,1.0,0.0,1.0]" : 0.5004945274408948,
    "[-1.0,1.0,0.0,1.0,1.0,-1.0,1.0,-1.0,0.0]" : 0.5004945274408948,
    "[0.0,1.0,0.0,-1.0,-1.0,1.0,1.0,-1.0,1.0]" : 0.5004945274408948,
    "[1.0,1.0,-1.0,-1.0,1.0,1.0,0.0,0.0,-1.0]" : 0.5004945274408948,
    "[-1.0,1.0,-1.0,1.0,1.0,0.0,0.0,-1.0,1.0]" : 0.5004940329134304,
    "[-1.0,1.0,-1.0,1.0,1.0,-1.0,0.0,0.0,1.0]" : 0.5004940329134304,
    "[0.0,0.0,1.0,1.0,1.0,-1.0,-1.0,-1.0,1.0]" : 0.5004940329134304,
    "[1.0,-1.0,1.0,-1.0,1.0,0.0,-1.0,1.0,0.0]" : 0.5004935388804935,
    "[1.0,-1.0,1.0,-1.0,1.0,1.0,-1.0,0.0,0.0]" : 0.5004935388804935,
    "[-1.0,1.0,1.0,0.0,1.0,-1.0,0.0,-1.0,1.0]" : 0.5004935388804935,
    "[-1.0,0.0,0.0,1.0,1.0,-1.0,-1.0,1.0,1.0]" : 0.5004930453415896,
    "[1.0,-1.0,1.0,0.0,-1.0,0.0,1.0,1.0,-1.0]" : 0.5004896043607483,
    "[-1.0,0.0,1.0,1.0,0.0,-1.0,-1.0,1.0,1.0]" : 0.5,
    "[1.0,1.0,-1.0,-1.0,0.0,1.0,1.0,-1.0,-1.0]" : 0.5,
    "[1.0,-1.0,1.0,0.0,-1.0,1.0,-1.0,1.0,-1.0]" : 0.5,
    "[1.0,-1.0,1.0,-1.0,0.0,1.0,-1.0,1.0,0.0]" : 0.5,
    "[-1.0,1.0,-1.0,1.0,0.0,-1.0,1.0,-1.0,1.0]" : 0.5,
    "[-1.0,-1.0,1.0,1.0,1.0,0.0,-1.0,-1.0,1.0]" : 0.5,
    "[1.0,0.0,0.0,-1.0,-1.0,1.0,1.0,1.0,-1.0]" : 0.5,
    "[-1.0,0.0,1.0,1.0,1.0,-1.0,-1.0,-1.0,1.0]" : 0.5,
    "[0.0,1.0,-1.0,-1.0,0.0,1.0,1.0,1.0,-1.0]" : 0.5,
    "[0.0,-1.0,1.0,1.0,1.0,-1.0,-1.0,-1.0,1.0]" : 0.5,
    "[1.0,-1.0,1.0,-1.0,1.0,-1.0,0.0,1.0,-1.0]" : 0.5,
    "[0.0,1.0,-1.0,-1.0,1.0,-1.0,1.0,-1.0,1.0]" : 0.5,
    "[-1.0,0.0,1.0,1.0,1.0,-1.0,-1.0,1.0,-1.0]" : 0.5,
    "[-1.0,1.0,-1.0,-1.0,0.0,1.0,1.0,-1.0,1.0]" : 0.5,
    "[1.0,-1.0,-1.0,-1.0,-1.0,1.0,1.0,1.0,0.0]" : 0.5,
    "[1.0,-1.0,-1.0,0.0,1.0,1.0,0.0,1.0,-1.0]" : 0.5,
    "[-1.0,1.0,1.0,1.0,-1.0,-1.0,0.0,-1.0,1.0]" : 0.5,
    "[-1.0,1.0,0.0,1.0,1.0,-1.0,-1.0,-1.0,1.0]" : 0.5,
    "[0.0,1.0,-1.0,1.0,-1.0,1.0,1.0,-1.0,0.0]" : 0.5,
    "[1.0,-1.0,1.0,-1.0,1.0,-1.0,-1.0,1.0,0.0]" : 0.5,
    "[0.0,0.0,1.0,1.0,1.0,-1.0,-1.0,1.0,-1.0]" : 0.5,
    "[0.0,1.0,-1.0,-1.0,-1.0,1.0,1.0,-1.0,1.0]" : 0.5,
    "[-1.0,0.0,1.0,1.0,1.0,-1.0,-1.0,0.0,1.0]" : 0.5,
    "[1.0,1.0,-1.0,-1.0,-1.0,1.0,1.0,0.0,-1.0]" : 0.5,
    "[-1.0,-1.0,1.0,1.0,1.0,-1.0,-1.0,0.0,1.0]" : 0.5,
    "[1.0,0.0,1.0,1.0,-1.0,-1.0,-1.0,1.0,-1.0]" : 0.5,
    "[1.0,0.0,1.0,1.0,-1.0,-1.0,-1.0,1.0,0.0]" : 0.5,
    "[-1.0,1.0,-1.0,-1.0,1.0,1.0,1.0,-1.0,0.0]" : 0.5,
    "[1.0,0.0,-1.0,-1.0,0.0,1.0,1.0,1.0,-1.0]" : 0.5,
    "[-1.0,1.0,1.0,1.0,0.0,-1.0,-1.0,-1.0,1.0]" : 0.5,
    "[-1.0,1.0,-1.0,1.0,0.0,0.0,1.0,-1.0,1.0]" : 0.5,
    "[1.0,-1.0,1.0,-1.0,1.0,0.0,-1.0,1.0,-1.0]" : 0.5,
    "[1.0,-1.0,1.0,-1.0,-1.0,1.0,0.0,1.0,0.0]" : 0.5,
    "[-1.0,1.0,-1.0,1.0,1.0,-1.0,0.0,-1.0,1.0]" : 0.5,
    "[1.0,1.0,-1.0,-1.0,0.0,1.0,1.0,-1.0,0.0]" : 0.5,
    "[-1.0,-1.0,1.0,1.0,0.0,-1.0,-1.0,1.0,1.0]" : 0.5,
    "[1.0,1.0,-1.0,-1.0,0.0,1.0,1.0,0.0,-1.0]" : 0.5,
    "[1.0,-1.0,1.0,-1.0,0.0,1.0,0.0,1.0,-1.0]" : 0.5,
    "[1.0,-1.0,0.0,-1.0,0.0,1.0,1.0,1.0,-1.0]" : 0.5,
    "[-1.0,1.0,-1.0,-1.0,-1.0,1.0,1.0,0.0,1.0]" : 0.5,
    "[1.0,0.0,-1.0,-1.0,1.0,1.0,1.0,-1.0,0.0]" : 0.5,
    "[-1.0,0.0,1.0,1.0,-1.0,-1.0,-1.0,1.0,1.0]" : 0.5,
    "[1.0,-1.0,0.0,1.0,0.0,1.0,-1.0,1.0,-1.0]" : 0.5,
    "[-1.0,1.0,0.0,-1.0,1.0,-1.0,1.0,-1.0,1.0]" : 0.5,
    "[1.0,-1.0,-1.0,0.0,-1.0,1.0,1.0,1.0,-1.0]" : 0.5,
    "[1.0,1.0,0.0,-1.0,-1.0,1.0,1.0,-1.0,0.0]" : 0.5,
    "[-1.0,-1.0,1.0,1.0,1.0,-1.0,-1.0,1.0,0.0]" : 0.5,
    "[0.0,0.0,1.0,1.0,-1.0,-1.0,-1.0,1.0,1.0]" : 0.5,
    "[0.0,1.0,-1.0,-1.0,1.0,1.0,1.0,-1.0,-1.0]" : 0.5,
    "[-1.0,1.0,0.0,0.0,1.0,-1.0,1.0,-1.0,1.0]" : 0.5,
    "[1.0,1.0,-1.0,-1.0,-1.0,1.0,1.0,-1.0,0.0]" : 0.5,
    "[-1.0,0.0,0.0,-1.0,1.0,1.0,1.0,-1.0,1.0]" : 0.5,
    "[1.0,-1.0,0.0,-1.0,1.0,1.0,1.0,-1.0,-1.0]" : 0.5,
    "[0.0,1.0,-1.0,0.0,1.0,1.0,1.0,-1.0,-1.0]" : 0.5,
    "[0.0,-1.0,1.0,1.0,-1.0,-1.0,-1.0,1.0,1.0]" : 0.5,
    "[1.0,-1.0,0.0,-1.0,1.0,1.0,0.0,1.0,-1.0]" : 0.5,
    "[-1.0,1.0,0.0,1.0,-1.0,-1.0,1.0,-1.0,1.0]" : 0.5,
    "[-1.0,1.0,-1.0,0.0,1.0,1.0,1.0,-1.0,-1.0]" : 0.5,
    "[-1.0,1.0,1.0,1.0,0.0,-1.0,0.0,-1.0,1.0]" : 0.5,
    "[1.0,-1.0,-1.0,-1.0,1.0,1.0,0.0,1.0,-1.0]" : 0.5,
    "[-1.0,1.0,-1.0,1.0,-1.0,0.0,1.0,-1.0,1.0]" : 0.5,
    "[1.0,-1.0,-1.0,-1.0,0.0,1.0,1.0,1.0,-1.0]" : 0.5,
    "[1.0,1.0,0.0,-1.0,-1.0,1.0,1.0,-1.0,-1.0]" : 0.5,
    "[1.0,-1.0,1.0,0.0,0.0,1.0,-1.0,1.0,-1.0]" : 0.5,
    "[-1.0,1.0,-1.0,0.0,1.0,-1.0,1.0,-1.0,1.0]" : 0.5,
    "[1.0,-1.0,1.0,-1.0,-1.0,1.0,0.0,1.0,-1.0]" : 0.5,
    "[1.0,-1.0,-1.0,-1.0,1.0,1.0,-1.0,1.0,0.0]" : 0.5,
    "[1.0,-1.0,1.0,0.0,1.0,0.0,-1.0,1.0,-1.0]" : 0.5,
    "[1.0,-1.0,1.0,1.0,-1.0,-1.0,0.0,1.0,-1.0]" : 0.5,
    "[0.0,1.0,1.0,1.0,0.0,-1.0,-1.0,-1.0,1.0]" : 0.5,
    "[0.0,-1.0,0.0,-1.0,1.0,1.0,1.0,1.0,-1.0]" : 0.5,
    "[0.0,1.0,1.0,1.0,-1.0,-1.0,-1.0,-1.0,1.0]" : 0.5,
    "[-1.0,1.0,0.0,-1.0,0.0,1.0,1.0,-1.0,1.0]" : 0.5,
    "[1.0,-1.0,1.0,1.0,0.0,-1.0,-1.0,1.0,-1.0]" : 0.5,
    "[-1.0,-1.0,1.0,1.0,1.0,-1.0,0.0,1.0,-1.0]" : 0.5,
    "[1.0,-1.0,1.0,1.0,-1.0,-1.0,0.0,1.0,0.0]" : 0.5,
    "[1.0,-1.0,-1.0,-1.0,1.0,1.0,1.0,-1.0,0.0]" : 0.5,
    "[-1.0,1.0,-1.0,0.0,0.0,1.0,1.0,-1.0,1.0]" : 0.5,
    "[1.0,-1.0,1.0,1.0,-1.0,0.0,0.0,1.0,-1.0]" : 0.5,
    "[-1.0,1.0,-1.0,-1.0,1.0,0.0,1.0,-1.0,1.0]" : 0.5,
    "[1.0,0.0,1.0,1.0,-1.0,0.0,-1.0,1.0,-1.0]" : 0.5,
    "[1.0,0.0,-1.0,-1.0,1.0,1.0,0.0,1.0,-1.0]" : 0.5,
    "[1.0,-1.0,-1.0,0.0,1.0,1.0,-1.0,1.0,-1.0]" : 0.5,
    "[1.0,1.0,0.0,-1.0,-1.0,1.0,0.0,1.0,-1.0]" : 0.5,
    "[-1.0,-1.0,1.0,1.0,1.0,-1.0,0.0,-1.0,1.0]" : 0.5,
    "[-1.0,1.0,1.0,0.0,-1.0,0.0,1.0,-1.0,1.0]" : 0.5,
    "[0.0,1.0,-1.0,-1.0,1.0,1.0,1.0,-1.0,0.0]" : 0.5,
    "[1.0,-1.0,1.0,1.0,-1.0,-1.0,-1.0,1.0,0.0]" : 0.5,
    "[1.0,0.0,-1.0,-1.0,1.0,1.0,-1.0,1.0,-1.0]" : 0.5,
    "[-1.0,1.0,1.0,1.0,-1.0,0.0,0.0,-1.0,1.0]" : 0.5,
    "[0.0,0.0,-1.0,-1.0,1.0,1.0,1.0,1.0,-1.0]" : 0.5,
    "[0.0,-1.0,1.0,-1.0,-1.0,1.0,1.0,1.0,0.0]" : 0.5,
    "[0.0,1.0,-1.0,1.0,1.0,-1.0,-1.0,-1.0,1.0]" : 0.5,
    "[1.0,0.0,-1.0,-1.0,-1.0,1.0,1.0,1.0,0.0]" : 0.5,
    "[1.0,0.0,1.0,1.0,-1.0,-1.0,-1.0,0.0,1.0]" : 0.5,
    "[-1.0,1.0,-1.0,-1.0,1.0,1.0,1.0,0.0,-1.0]" : 0.5,
    "[1.0,-1.0,1.0,0.0,1.0,-1.0,0.0,1.0,-1.0]" : 0.5,
    "[-1.0,1.0,-1.0,0.0,-1.0,1.0,1.0,-1.0,1.0]" : 0.5,
    "[0.0,1.0,1.0,1.0,-1.0,-1.0,-1.0,1.0,0.0]" : 0.5,
    "[1.0,-1.0,0.0,-1.0,1.0,1.0,1.0,0.0,-1.0]" : 0.5,
    "[-1.0,1.0,1.0,1.0,-1.0,-1.0,-1.0,0.0,1.0]" : 0.5,
    "[-1.0,1.0,1.0,1.0,-1.0,-1.0,0.0,0.0,1.0]" : 0.5,
    "[0.0,1.0,-1.0,1.0,1.0,-1.0,0.0,-1.0,1.0]" : 0.5,
    "[-1.0,1.0,-1.0,1.0,-1.0,-1.0,1.0,0.0,1.0]" : 0.5,
    "[1.0,1.0,0.0,-1.0,0.0,1.0,1.0,-1.0,-1.0]" : 0.5,
    "[-1.0,1.0,0.0,1.0,1.0,-1.0,0.0,-1.0,1.0]" : 0.5,
    "[1.0,-1.0,0.0,-1.0,-1.0,1.0,1.0,1.0,-1.0]" : 0.5,
    "[-1.0,1.0,1.0,1.0,-1.0,0.0,-1.0,-1.0,1.0]" : 0.5,
    "[-1.0,1.0,-1.0,1.0,1.0,0.0,-1.0,-1.0,1.0]" : 0.5,
    "[1.0,-1.0,1.0,0.0,1.0,-1.0,-1.0,1.0,-1.0]" : 0.5,
    "[1.0,0.0,-1.0,0.0,1.0,1.0,1.0,-1.0,-1.0]" : 0.5,
    "[1.0,0.0,-1.0,-1.0,1.0,1.0,1.0,-1.0,-1.0]" : 0.5,
    "[1.0,1.0,-1.0,-1.0,1.0,1.0,0.0,-1.0,0.0]" : 0.5,
    "[-1.0,-1.0,1.0,1.0,-1.0,-1.0,0.0,1.0,1.0]" : 0.5,
    "[-1.0,0.0,1.0,1.0,1.0,-1.0,-1.0,1.0,0.0]" : 0.5,
    "[0.0,1.0,-1.0,1.0,0.0,-1.0,1.0,-1.0,1.0]" : 0.5,
    "[1.0,-1.0,1.0,-1.0,0.0,1.0,-1.0,1.0,-1.0]" : 0.5,
    "[-1.0,1.0,-1.0,1.0,1.0,-1.0,-1.0,0.0,1.0]" : 0.5,
    "[1.0,-1.0,0.0,-1.0,1.0,1.0,-1.0,1.0,-1.0]" : 0.5,
    "[1.0,-1.0,-1.0,-1.0,1.0,1.0,0.0,1.0,0.0]" : 0.5,
    "[1.0,-1.0,-1.0,0.0,1.0,1.0,1.0,-1.0,-1.0]" : 0.5,
    "[1.0,1.0,-1.0,0.0,-1.0,1.0,1.0,-1.0,0.0]" : 0.5,
    "[-1.0,1.0,-1.0,1.0,0.0,1.0,1.0,-1.0,0.0]" : 0.5,
    "[1.0,0.0,-1.0,0.0,-1.0,1.0,1.0,1.0,-1.0]" : 0.5,
    "[1.0,1.0,-1.0,-1.0,-1.0,1.0,1.0,0.0,0.0]" : 0.5,
    "[-1.0,1.0,0.0,1.0,0.0,-1.0,1.0,-1.0,1.0]" : 0.5,
    "[-1.0,1.0,-1.0,-1.0,1.0,-1.0,1.0,0.0,1.0]" : 0.5,
    "[-1.0,0.0,1.0,1.0,-1.0,0.0,-1.0,1.0,1.0]" : 0.5,
    "[-1.0,1.0,0.0,-1.0,-1.0,1.0,1.0,-1.0,1.0]" : 0.5,
    "[1.0,1.0,-1.0,0.0,0.0,1.0,1.0,-1.0,-1.0]" : 0.5,
    "[-1.0,0.0,1.0,1.0,1.0,-1.0,0.0,-1.0,1.0]" : 0.5,
    "[1.0,0.0,-1.0,-1.0,-1.0,1.0,1.0,1.0,-1.0]" : 0.5,
    "[1.0,1.0,0.0,-1.0,1.0,0.0,1.0,-1.0,-1.0]" : 0.5,
    "[-1.0,-1.0,1.0,1.0,-1.0,0.0,-1.0,1.0,1.0]" : 0.5,
    "[0.0,1.0,1.0,1.0,-1.0,-1.0,-1.0,0.0,1.0]" : 0.5,
    "[1.0,-1.0,-1.0,-1.0,1.0,1.0,1.0,0.0,-1.0]" : 0.5,
    "[0.0,-1.0,1.0,1.0,1.0,-1.0,-1.0,1.0,0.0]" : 0.5,
    "[0.0,1.0,-1.0,1.0,1.0,-1.0,1.0,-1.0,0.0]" : 0.5,
    "[1.0,-1.0,1.0,-1.0,-1.0,1.0,-1.0,1.0,0.0]" : 0.5,
    "[0.0,1.0,-1.0,-1.0,1.0,1.0,0.0,-1.0,1.0]" : 0.5,
    "[-1.0,1.0,0.0,1.0,-1.0,0.0,1.0,-1.0,1.0]" : 0.5,
    "[0.0,1.0,-1.0,-1.0,-1.0,1.0,1.0,0.0,1.0]" : 0.5,
    "[0.0,-1.0,1.0,1.0,1.0,-1.0,-1.0,1.0,-1.0]" : 0.5,
    "[0.0,-1.0,0.0,1.0,1.0,-1.0,-1.0,1.0,1.0]" : 0.5,
    "[-1.0,1.0,-1.0,0.0,1.0,0.0,1.0,-1.0,1.0]" : 0.5,
    "[-1.0,1.0,0.0,1.0,1.0,-1.0,-1.0,0.0,1.0]" : 0.5,
    "[-1.0,-1.0,1.0,1.0,1.0,0.0,-1.0,1.0,-1.0]" : 0.5,
    "[1.0,-1.0,1.0,0.0,1.0,-1.0,-1.0,1.0,0.0]" : 0.5,
    "[0.0,1.0,-1.0,-1.0,1.0,0.0,1.0,-1.0,1.0]" : 0.5,
    "[1.0,-1.0,1.0,1.0,-1.0,0.0,-1.0,1.0,-1.0]" : 0.5,
    "[-1.0,1.0,-1.0,1.0,-1.0,0.0,1.0,0.0,1.0]" : 0.5,
    "[1.0,-1.0,1.0,1.0,-1.0,0.0,-1.0,1.0,0.0]" : 0.5,
    "[1.0,-1.0,-1.0,0.0,0.0,1.0,1.0,1.0,-1.0]" : 0.5,
    "[0.0,-1.0,1.0,1.0,1.0,-1.0,-1.0,0.0,1.0]" : 0.5,
    "[0.0,1.0,1.0,1.0,-1.0,-1.0,0.0,-1.0,1.0]" : 0.5,
    "[-1.0,1.0,0.0,1.0,-1.0,-1.0,0.0,1.0,1.0]" : 0.5,
    "[-1.0,1.0,-1.0,0.0,1.0,-1.0,1.0,0.0,1.0]" : 0.5,
    "[-1.0,1.0,0.0,-1.0,1.0,1.0,1.0,-1.0,0.0]" : 0.5,
    "[-1.0,1.0,0.0,1.0,1.0,0.0,-1.0,-1.0,1.0]" : 0.5,
    "[1.0,-1.0,-1.0,0.0,1.0,1.0,1.0,0.0,-1.0]" : 0.5,
    "[0.0,-1.0,1.0,1.0,-1.0,-1.0,0.0,1.0,1.0]" : 0.5,
    "[0.0,1.0,0.0,-1.0,1.0,1.0,1.0,-1.0,-1.0]" : 0.5,
    "[1.0,1.0,-1.0,-1.0,1.0,0.0,1.0,-1.0,0.0]" : 0.5,
    "[1.0,-1.0,-1.0,-1.0,1.0,1.0,1.0,0.0,0.0]" : 0.5,
    "[1.0,0.0,0.0,-1.0,1.0,1.0,-1.0,1.0,-1.0]" : 0.5,
    "[-1.0,-1.0,1.0,0.0,1.0,-1.0,0.0,1.0,1.0]" : 0.5,
    "[1.0,1.0,-1.0,0.0,-1.0,1.0,1.0,-1.0,-1.0]" : 0.5,
    "[1.0,0.0,1.0,-1.0,-1.0,1.0,0.0,1.0,-1.0]" : 0.5,
    "[-1.0,-1.0,1.0,1.0,1.0,0.0,-1.0,0.0,1.0]" : 0.5,
    "[0.0,1.0,-1.0,-1.0,0.0,1.0,1.0,-1.0,1.0]" : 0.5,
    "[1.0,0.0,1.0,0.0,1.0,-1.0,-1.0,1.0,-1.0]" : 0.5,
    "[-1.0,1.0,1.0,1.0,0.0,-1.0,-1.0,0.0,1.0]" : 0.5,
    "[-1.0,1.0,1.0,1.0,0.0,-1.0,1.0,-1.0,0.0]" : 0.5,
    "[1.0,1.0,-1.0,-1.0,0.0,0.0,1.0,-1.0,1.0]" : 0.5,
    "[-1.0,1.0,1.0,1.0,-1.0,0.0,-1.0,0.0,1.0]" : 0.5,
    "[0.0,1.0,-1.0,0.0,-1.0,1.0,1.0,-1.0,1.0]" : 0.5,
    "[0.0,1.0,-1.0,-1.0,-1.0,1.0,1.0,1.0,0.0]" : 0.5,
    "[1.0,-1.0,1.0,-1.0,0.0,1.0,1.0,0.0,-1.0]" : 0.5,
    "[1.0,-1.0,1.0,1.0,0.0,-1.0,-1.0,1.0,0.0]" : 0.5,
    "[1.0,-1.0,1.0,0.0,-1.0,1.0,-1.0,1.0,0.0]" : 0.5,
    "[1.0,0.0,-1.0,-1.0,1.0,1.0,1.0,0.0,-1.0]" : 0.5,
    "[1.0,-1.0,0.0,-1.0,-1.0,1.0,1.0,1.0,0.0]" : 0.5,
    "[1.0,-1.0,0.0,-1.0,1.0,1.0,-1.0,1.0,0.0]" : 0.5,
    "[-1.0,1.0,1.0,0.0,0.0,-1.0,1.0,-1.0,1.0]" : 0.5,
    "[0.0,-1.0,1.0,-1.0,1.0,1.0,0.0,1.0,-1.0]" : 0.5,
    "[0.0,1.0,-1.0,1.0,-1.0,-1.0,1.0,-1.0,1.0]" : 0.5,
    "[1.0,-1.0,0.0,1.0,1.0,0.0,-1.0,1.0,-1.0]" : 0.5,
    "[1.0,-1.0,1.0,0.0,-1.0,1.0,0.0,1.0,-1.0]" : 0.5,
    "[1.0,-1.0,1.0,1.0,0.0,0.0,-1.0,1.0,-1.0]" : 0.5,
    "[-1.0,-1.0,1.0,1.0,1.0,-1.0,0.0,0.0,1.0]" : 0.5,
    "[0.0,-1.0,1.0,-1.0,0.0,1.0,1.0,1.0,-1.0]" : 0.5,
    "[0.0,1.0,0.0,1.0,1.0,-1.0,-1.0,-1.0,1.0]" : 0.5,
    "[0.0,-1.0,1.0,1.0,0.0,-1.0,-1.0,1.0,1.0]" : 0.5,
    "[1.0,-1.0,0.0,0.0,-1.0,1.0,1.0,1.0,-1.0]" : 0.5,
    "[0.0,-1.0,1.0,1.0,1.0,-1.0,0.0,1.0,-1.0]" : 0.5,
    "[-1.0,1.0,-1.0,1.0,1.0,0.0,1.0,-1.0,0.0]" : 0.5,
    "[-1.0,1.0,0.0,0.0,-1.0,1.0,1.0,-1.0,1.0]" : 0.5,
    "[1.0,-1.0,0.0,1.0,0.0,-1.0,-1.0,1.0,1.0]" : 0.5,
    "[-1.0,1.0,0.0,-1.0,1.0,1.0,1.0,-1.0,-1.0]" : 0.5,
    "[-1.0,0.0,0.0,1.0,1.0,-1.0,1.0,-1.0,1.0]" : 0.5,
    "[1.0,0.0,1.0,-1.0,-1.0,1.0,-1.0,1.0,-1.0]" : 0.5,
    "[-1.0,1.0,1.0,1.0,1.0,-1.0,0.0,-1.0,0.0]" : 0.5,
    "[-1.0,1.0,-1.0,1.0,0.0,-1.0,1.0,0.0,1.0]" : 0.5,
    "[0.0,0.0,-1.0,1.0,1.0,-1.0,1.0,-1.0,1.0]" : 0.5,
    "[1.0,-1.0,-1.0,-1.0,0.0,1.0,1.0,1.0,0.0]" : 0.5,
    "[-1.0,1.0,0.0,1.0,0.0,-1.0,-1.0,1.0,1.0]" : 0.5,
    "[0.0,0.0,-1.0,-1.0,1.0,1.0,1.0,-1.0,1.0]" : 0.5,
    "[-1.0,1.0,-1.0,-1.0,1.0,0.0,1.0,0.0,1.0]" : 0.5,
    "[1.0,-1.0,0.0,1.0,-1.0,-1.0,0.0,1.0,1.0]" : 0.5,
    "[0.0,0.0,0.0,-1.0,1.0,-1.0,0.0,1.0,1.0]" : 0.49988279674131303,
    "[-1.0,0.0,0.0,-1.0,1.0,0.0,1.0,1.0,0.0]" : 0.49987649774570464,
    "[0.0,1.0,1.0,0.0,1.0,-1.0,0.0,0.0,-1.0]" : 0.49987649774570464,
    "[1.0,-1.0,-1.0,1.0,1.0,0.0,0.0,-1.0,0.0]" : 0.49987612386954455,
    "[0.0,1.0,1.0,-1.0,1.0,-1.0,0.0,0.0,0.0]" : 0.49987612386954455,
    "[0.0,-1.0,0.0,-1.0,1.0,-1.0,1.0,0.0,1.0]" : 0.49987612386954455,
    "[-1.0,0.0,0.0,-1.0,1.0,-1.0,1.0,1.0,0.0]" : 0.49987612386954455,
    "[0.0,0.0,0.0,1.0,1.0,0.0,1.0,-1.0,-1.0]" : 0.499875749619134,
    "[0.0,-1.0,1.0,0.0,1.0,-1.0,0.0,-1.0,1.0]" : 0.499875749619134,
    "[1.0,0.0,1.0,-1.0,0.0,0.0,-1.0,-1.0,1.0]" : 0.499875749619134,
    "[1.0,1.0,0.0,-1.0,1.0,-1.0,-1.0,0.0,0.0]" : 0.499875749619134,
    "[1.0,-1.0,0.0,0.0,0.0,-1.0,1.0,0.0,1.0]" : 0.499875749619134,
    "[1.0,0.0,1.0,-1.0,1.0,0.0,0.0,-1.0,0.0]" : 0.499875749619134,
    "[-1.0,-1.0,1.0,0.0,1.0,1.0,0.0,0.0,0.0]" : 0.499875749619134,
    "[0.0,0.0,-1.0,-1.0,1.0,0.0,0.0,1.0,1.0]" : 0.499875749619134,
    "[1.0,0.0,1.0,-1.0,0.0,0.0,-1.0,0.0,1.0]" : 0.499875749619134,
    "[0.0,-1.0,0.0,0.0,1.0,-1.0,1.0,0.0,1.0]" : 0.499875749619134,
    "[1.0,0.0,1.0,-1.0,0.0,0.0,0.0,-1.0,1.0]" : 0.499875749619134,
    "[1.0,-1.0,-1.0,1.0,1.0,0.0,0.0,0.0,0.0]" : 0.49987537499409845,
    "[0.0,0.0,1.0,-1.0,1.0,0.0,0.0,-1.0,1.0]" : 0.49987537499409845,
    "[0.0,-1.0,0.0,0.0,1.0,1.0,-1.0,-1.0,1.0]" : 0.49987537499409845,
    "[1.0,-1.0,-1.0,0.0,0.0,0.0,1.0,0.0,1.0]" : 0.49987537499409845,
    "[1.0,1.0,0.0,-1.0,1.0,0.0,-1.0,0.0,0.0]" : 0.49987537499409845,
    "[1.0,0.0,1.0,0.0,0.0,-1.0,1.0,0.0,-1.0]" : 0.49987537499409845,
    "[-1.0,0.0,1.0,-1.0,0.0,0.0,1.0,0.0,1.0]" : 0.49987537499409845,
    "[0.0,-1.0,1.0,0.0,1.0,0.0,0.0,-1.0,1.0]" : 0.49987537499409845,
    "[1.0,0.0,-1.0,0.0,0.0,-1.0,1.0,0.0,1.0]" : 0.49987537499409845,
    "[0.0,0.0,0.0,-1.0,1.0,-1.0,1.0,0.0,1.0]" : 0.49987537499409845,
    "[1.0,-1.0,0.0,1.0,1.0,0.0,0.0,-1.0,0.0]" : 0.49987537499409845,
    "[0.0,-1.0,1.0,-1.0,0.0,0.0,1.0,0.0,1.0]" : 0.49987537499409845,
    "[1.0,1.0,0.0,-1.0,1.0,-1.0,0.0,0.0,0.0]" : 0.49987537499409845,
    "[0.0,-1.0,0.0,1.0,1.0,0.0,1.0,-1.0,-1.0]" : 0.49987537499409845,
    "[0.0,-1.0,0.0,1.0,1.0,0.0,1.0,0.0,-1.0]" : 0.49987537499409845,
    "[1.0,0.0,1.0,0.0,0.0,-1.0,1.0,-1.0,-1.0]" : 0.49987537499409845,
    "[0.0,1.0,1.0,-1.0,1.0,-1.0,0.0,0.0,-1.0]" : 0.49987537499409845,
    "[1.0,0.0,-1.0,1.0,1.0,0.0,0.0,-1.0,0.0]" : 0.49987537499409845,
    "[-1.0,-1.0,1.0,0.0,0.0,1.0,1.0,-1.0,0.0]" : 0.49987537499409845,
    "[0.0,1.0,1.0,-1.0,1.0,0.0,0.0,0.0,-1.0]" : 0.4998749999940628,
    "[1.0,0.0,1.0,0.0,1.0,-1.0,0.0,-1.0,0.0]" : 0.4998749999940628,
    "[0.0,-1.0,0.0,-1.0,1.0,0.0,1.0,0.0,1.0]" : 0.4998749999940628,
    "[0.0,0.0,0.0,-1.0,1.0,-1.0,1.0,1.0,0.0]" : 0.4998749999940628,
    "[0.0,-1.0,1.0,-1.0,1.0,0.0,0.0,-1.0,1.0]" : 0.49975423278344827,
    "[-1.0,1.0,0.0,-1.0,1.0,-1.0,1.0,0.0,0.0]" : 0.49975386562473495,
    "[-1.0,1.0,1.0,-1.0,0.0,-1.0,1.0,0.0,0.0]" : 0.4997531167515332,
    "[0.0,1.0,1.0,0.0,0.0,-1.0,1.0,-1.0,-1.0]" : 0.4997527454913855,
    "[1.0,-1.0,0.0,0.0,1.0,0.0,1.0,-1.0,0.0]" : 0.4997519973648149,
    "[0.0,-1.0,0.0,1.0,-1.0,-1.0,1.0,1.0,0.0]" : 0.4997519973648149,
    "[0.0,0.0,1.0,-1.0,1.0,-1.0,0.0,1.0,-1.0]" : 0.49975199624206323,
    "[0.0,0.0,-1.0,0.0,1.0,-1.0,0.0,1.0,1.0]" : 0.4997516234886548,
    "[0.0,1.0,1.0,-1.0,-1.0,1.0,0.0,-1.0,0.0]" : 0.4997516227397793,
    "[-1.0,-1.0,1.0,-1.0,0.0,0.0,1.0,0.0,1.0]" : 0.49975124923824427,
    "[0.0,-1.0,1.0,0.0,1.0,1.0,0.0,-1.0,0.0]" : 0.49975124923824427,
    "[1.0,0.0,0.0,-1.0,1.0,-1.0,-1.0,1.0,0.0]" : 0.49975124923824427,
    "[1.0,-1.0,-1.0,0.0,0.0,0.0,0.0,1.0,1.0]" : 0.4997512488636192,
    "[-1.0,1.0,0.0,0.0,1.0,-1.0,1.0,0.0,0.0]" : 0.4997512469923652,
    "[1.0,1.0,0.0,0.0,1.0,-1.0,-1.0,0.0,0.0]" : 0.4997508738635836,
    "[0.0,-1.0,-1.0,1.0,0.0,-1.0,0.0,1.0,1.0]" : 0.49974937461306623,
    "[1.0,0.0,-1.0,0.0,1.0,1.0,0.0,-1.0,0.0]" : 0.4996365475712059,
    "[0.0,1.0,1.0,0.0,0.0,-1.0,1.0,-1.0,0.0]" : 0.4996343270189195,
    "[1.0,-1.0,-1.0,0.0,1.0,1.0,0.0,0.0,0.0]" : 0.499634320305948,
    "[0.0,0.0,1.0,-1.0,1.0,-1.0,0.0,-1.0,1.0]" : 0.499632846040609,
    "[1.0,-1.0,1.0,-1.0,1.0,0.0,0.0,-1.0,0.0]" : 0.4996317274005218,
    "[0.0,-1.0,0.0,1.0,0.0,-1.0,1.0,0.0,1.0]" : 0.4996317177166821,
    "[1.0,-1.0,0.0,-1.0,1.0,0.0,1.0,-1.0,0.0]" : 0.4996313531501135,
    "[0.0,0.0,-1.0,1.0,1.0,0.0,-1.0,-1.0,1.0]" : 0.4996306102514576,
    "[0.0,1.0,0.0,1.0,0.0,-1.0,1.0,-1.0,0.0]" : 0.49963059533970094,
    "[0.0,0.0,-1.0,1.0,0.0,1.0,1.0,-1.0,0.0]" : 0.4996298636203921,
    "[1.0,-1.0,-1.0,1.0,0.0,-1.0,0.0,0.0,1.0]" : 0.4996298636203921,
    "[0.0,0.0,0.0,0.0,1.0,1.0,1.0,-1.0,-1.0]" : 0.499629863620392,
    "[1.0,-1.0,1.0,-1.0,1.0,-1.0,0.0,0.0,0.0]" : 0.499629862873761,
    "[-1.0,1.0,-1.0,1.0,1.0,0.0,-1.0,0.0,0.0]" : 0.4996294904916105,
    "[0.0,0.0,1.0,1.0,0.0,-1.0,1.0,-1.0,-1.0]" : 0.499629489744232,
    "[-1.0,0.0,1.0,1.0,1.0,0.0,0.0,-1.0,0.0]" : 0.499629489744232,
    "[-1.0,-1.0,1.0,1.0,0.0,1.0,-1.0,0.0,0.0]" : 0.4996294889976009,
    "[0.0,-1.0,0.0,0.0,1.0,-1.0,1.0,-1.0,1.0]" : 0.49962948750433794,
    "[1.0,1.0,0.0,-1.0,0.0,0.0,0.0,-1.0,1.0]" : 0.4996294833935566,
    "[1.0,0.0,-1.0,1.0,0.0,1.0,0.0,-1.0,0.0]" : 0.49962911698932655,
    "[-1.0,1.0,0.0,0.0,0.0,-1.0,1.0,1.0,0.0]" : 0.4996287434870426,
    "[0.0,0.0,0.0,1.0,0.0,1.0,-1.0,-1.0,1.0]" : 0.49962874236578797,
    "[1.0,0.0,0.0,0.0,1.0,-1.0,-1.0,1.0,0.0]" : 0.49962874236503985,
    "[-1.0,-1.0,1.0,-1.0,0.0,0.0,1.0,1.0,0.0]" : 0.49962874199153756,
    "[1.0,-1.0,0.0,1.0,0.0,-1.0,0.0,0.0,1.0]" : 0.49962836961088253,
    "[0.0,0.0,0.0,1.0,0.0,1.0,1.0,-1.0,-1.0]" : 0.4996283692370064,
    "[1.0,1.0,0.0,0.0,0.0,-1.0,-1.0,0.0,1.0]" : 0.4996283688627559,
    "[0.0,1.0,1.0,1.0,0.0,-1.0,0.0,-1.0,0.0]" : 0.49962836662061977,
    "[-1.0,0.0,1.0,1.0,0.0,1.0,0.0,-1.0,0.0]" : 0.4996279957347225,
    "[1.0,-1.0,-1.0,1.0,0.0,1.0,0.0,0.0,0.0]" : 0.49962799573472244,
    "[1.0,0.0,-1.0,1.0,0.0,-1.0,0.0,-1.0,1.0]" : 0.49962799573472244,
    "[0.0,0.0,1.0,0.0,1.0,-1.0,0.0,1.0,-1.0]" : 0.49962799536047203,
    "[0.0,-1.0,0.0,1.0,1.0,0.0,-1.0,0.0,1.0]" : 0.4996279949865959,
    "[1.0,-1.0,0.0,0.0,0.0,-1.0,1.0,1.0,0.0]" : 0.499627993864967,
    "[1.0,0.0,0.0,-1.0,0.0,1.0,0.0,-1.0,1.0]" : 0.49962798864151337,
    "[1.0,1.0,0.0,0.0,0.0,0.0,1.0,-1.0,-1.0]" : 0.49962762148431195,
    "[0.0,1.0,1.0,-1.0,0.0,0.0,1.0,0.0,-1.0]" : 0.49962762148431195,
    "[0.0,0.0,1.0,-1.0,1.0,0.0,0.0,1.0,-1.0]" : 0.49962762148431195,
    "[0.0,-1.0,0.0,1.0,0.0,1.0,-1.0,0.0,1.0]" : 0.49962762148431195,
    "[0.0,-1.0,0.0,0.0,1.0,1.0,1.0,-1.0,-1.0]" : 0.49962762036156033,
    "[0.0,1.0,0.0,-1.0,1.0,0.0,1.0,0.0,-1.0]" : 0.4996276203615603,
    "[-1.0,1.0,-1.0,0.0,1.0,1.0,0.0,0.0,-1.0]" : 0.49962724760815186,
    "[1.0,0.0,1.0,1.0,0.0,-1.0,0.0,0.0,-1.0]" : 0.49962724760815186,
    "[1.0,0.0,0.0,-1.0,0.0,1.0,-1.0,-1.0,1.0]" : 0.4996272472339014,
    "[-1.0,0.0,1.0,0.0,0.0,1.0,1.0,-1.0,0.0]" : 0.4996272468592764,
    "[0.0,0.0,0.0,1.0,1.0,0.0,-1.0,-1.0,1.0]" : 0.4996272408794877,
    "[-1.0,-1.0,1.0,1.0,1.0,0.0,0.0,0.0,0.0]" : 0.4996272349183723,
    "[0.0,-1.0,0.0,1.0,0.0,1.0,1.0,0.0,-1.0]" : 0.49962687335774136,
    "[1.0,1.0,0.0,0.0,0.0,-1.0,-1.0,1.0,0.0]" : 0.4996268729831163,
    "[0.0,1.0,1.0,-1.0,0.0,1.0,0.0,-1.0,0.0]" : 0.49962687260886585,
    "[1.0,-1.0,0.0,1.0,0.0,-1.0,0.0,1.0,0.0]" : 0.499626119995774,
    "[0.0,1.0,0.0,-1.0,-1.0,1.0,0.0,-1.0,1.0]" : 0.4996257491076346,
    "[0.0,1.0,0.0,1.0,0.0,-1.0,0.0,-1.0,1.0]" : 0.4996257491076346,
    "[0.0,-1.0,0.0,1.0,0.0,-1.0,0.0,1.0,1.0]" : 0.4996253748572241,
    "[-1.0,1.0,-1.0,1.0,0.0,-1.0,0.0,0.0,1.0]" : 0.4996253748572241,
    "[0.0,-1.0,1.0,-1.0,0.0,1.0,0.0,1.0,0.0]" : 0.4996253748572241,
    "[0.0,-1.0,0.0,-1.0,1.0,1.0,-1.0,1.0,0.0]" : 0.4996253748572241,
    "[-1.0,0.0,0.0,-1.0,1.0,1.0,1.0,-1.0,0.0]" : 0.4996253748572241,
    "[1.0,-1.0,0.0,-1.0,0.0,1.0,-1.0,1.0,0.0]" : 0.4996253748572241,
    "[-1.0,1.0,-1.0,0.0,0.0,-1.0,1.0,0.0,1.0]" : 0.4996253748572241,
    "[0.0,0.0,-1.0,1.0,0.0,-1.0,1.0,0.0,1.0]" : 0.4996253748572241,
    "[0.0,0.0,0.0,-1.0,1.0,1.0,1.0,-1.0,-1.0]" : 0.4996253748572241,
    "[0.0,1.0,1.0,-1.0,0.0,1.0,0.0,-1.0,-1.0]" : 0.49962013347647694,
    "[1.0,-1.0,1.0,-1.0,0.0,1.0,0.0,-1.0,0.0]" : 0.4996197566044407,
    "[-1.0,1.0,1.0,-1.0,0.0,1.0,0.0,-1.0,0.0]" : 0.49961863385320915,
    "[-1.0,1.0,1.0,0.0,1.0,-1.0,0.0,-1.0,0.0]" : 0.4996175144691087,
    "[1.0,1.0,-1.0,1.0,0.0,-1.0,0.0,-1.0,0.0]" : 0.4996175122247289,
    "[-1.0,1.0,0.0,0.0,0.0,1.0,-1.0,-1.0,1.0]" : 0.49961565106621597,
    "[0.0,-1.0,1.0,-1.0,0.0,1.0,0.0,1.0,-1.0]" : 0.4996152768158054,
    "[0.0,-1.0,-1.0,-1.0,0.0,1.0,0.0,1.0,1.0]" : 0.4996141484609166,
    "[1.0,1.0,0.0,-1.0,0.0,1.0,-1.0,-1.0,0.0]" : 0.4996134178859819,
    "[1.0,-1.0,-1.0,1.0,0.0,-1.0,0.0,1.0,0.0]" : 0.4996130290745718,
    "[0.0,-1.0,1.0,-1.0,0.0,0.0,1.0,1.0,-1.0]" : 0.4996130290745718,
    "[0.0,-1.0,1.0,-1.0,1.0,1.0,0.0,0.0,-1.0]" : 0.49961079030076166,
    "[-1.0,1.0,0.0,1.0,0.0,1.0,-1.0,-1.0,0.0]" : 0.49961078918137525,
    "[0.0,-1.0,0.0,-1.0,0.0,1.0,-1.0,1.0,1.0]" : 0.49960967427593866,
    "[-1.0,-1.0,1.0,-1.0,0.0,1.0,0.0,1.0,0.0]" : 0.4996085671983834,
    "[1.0,0.0,0.0,1.0,0.0,-1.0,-1.0,-1.0,1.0]" : 0.49960855936266296,
    "[0.0,-1.0,0.0,-1.0,1.0,0.0,1.0,1.0,-1.0]" : 0.49960744220501646,
    "[-1.0,1.0,1.0,-1.0,0.0,0.0,1.0,-1.0,0.0]" : 0.499605212379598,
    "[1.0,-1.0,-1.0,-1.0,0.0,1.0,0.0,0.0,1.0]" : 0.49959630525265647,
    "[1.0,1.0,0.0,0.0,0.0,-1.0,1.0,-1.0,0.0]" : 0.4995174927253136,
    "[0.0,1.0,1.0,-1.0,0.0,0.0,0.0,-1.0,1.0]" : 0.4995159913409281,
    "[1.0,0.0,0.0,-1.0,1.0,0.0,-1.0,1.0,0.0]" : 0.4995145092647033,
    "[1.0,0.0,1.0,1.0,0.0,-1.0,0.0,-1.0,0.0]" : 0.4995141449885589,
    "[1.0,0.0,-1.0,-1.0,1.0,0.0,0.0,1.0,0.0]" : 0.49951339985219534,
    "[0.0,-1.0,1.0,-1.0,0.0,0.0,0.0,1.0,1.0]" : 0.4995115539041259,
    "[0.0,1.0,0.0,-1.0,0.0,1.0,0.0,-1.0,1.0]" : 0.4995115531314633,
    "[-1.0,0.0,1.0,-1.0,0.0,1.0,1.0,0.0,0.0]" : 0.499510456455324,
    "[0.0,-1.0,0.0,1.0,1.0,0.0,0.0,-1.0,1.0]" : 0.4995100736620607,
    "[0.0,1.0,1.0,0.0,0.0,0.0,1.0,-1.0,-1.0]" : 0.49951006882738536,
    "[-1.0,-1.0,1.0,0.0,0.0,-1.0,1.0,1.0,0.0]" : 0.4995097135499551,
    "[1.0,0.0,0.0,1.0,0.0,-1.0,0.0,-1.0,1.0]" : 0.49950970796420396,
    "[0.0,-1.0,0.0,-1.0,0.0,1.0,0.0,1.0,1.0]" : 0.4995093318578411,
    "[0.0,0.0,0.0,-1.0,-1.0,1.0,0.0,1.0,1.0]" : 0.49950933110599627,
    "[1.0,0.0,1.0,-1.0,0.0,1.0,0.0,-1.0,0.0]" : 0.4995089527813327,
    "[0.0,-1.0,0.0,-1.0,1.0,0.0,1.0,-1.0,1.0]" : 0.4995085945359925,
    "[0.0,1.0,-1.0,-1.0,1.0,-1.0,0.0,0.0,1.0]" : 0.49950822401799383,
    "[1.0,-1.0,1.0,0.0,1.0,-1.0,0.0,-1.0,0.0]" : 0.49950822364523817,
    "[-1.0,0.0,0.0,1.0,0.0,1.0,-1.0,0.0,1.0]" : 0.4995082232721094,
    "[-1.0,0.0,1.0,-1.0,0.0,1.0,1.0,-1.0,0.0]" : 0.49950822327210936,
    "[1.0,0.0,-1.0,0.0,0.0,1.0,1.0,-1.0,0.0]" : 0.4995081994439663,
    "[0.0,1.0,-1.0,0.0,1.0,-1.0,-1.0,0.0,1.0]" : 0.49950785014332777,
    "[0.0,0.0,1.0,1.0,0.0,-1.0,1.0,-1.0,0.0]" : 0.49950784939818915,
    "[-1.0,0.0,0.0,1.0,0.0,1.0,-1.0,-1.0,1.0]" : 0.499507848651558,
    "[0.0,0.0,0.0,-1.0,1.0,-1.0,1.0,-1.0,1.0]" : 0.49950784827656247,
    "[0.0,-1.0,0.0,-1.0,0.0,1.0,1.0,0.0,1.0]" : 0.4995078475344089,
    "[0.0,0.0,1.0,1.0,0.0,-1.0,1.0,0.0,-1.0]" : 0.4995078397143495,
    "[1.0,1.0,0.0,0.0,-1.0,0.0,1.0,-1.0,-1.0]" : 0.4995074781335594,
    "[1.0,-1.0,0.0,-1.0,0.0,1.0,-1.0,0.0,1.0]" : 0.4995071053779066,
    "[0.0,-1.0,1.0,1.0,0.0,1.0,-1.0,0.0,0.0]" : 0.4995071053779066,
    "[-1.0,0.0,1.0,0.0,1.0,-1.0,0.0,1.0,-1.0]" : 0.49950710388539105,
    "[0.0,-1.0,0.0,1.0,1.0,0.0,-1.0,-1.0,1.0]" : 0.4995071027671236,
    "[1.0,0.0,-1.0,1.0,0.0,-1.0,0.0,0.0,1.0]" : 0.49950710239362134,
    "[1.0,1.0,0.0,1.0,0.0,-1.0,0.0,-1.0,0.0]" : 0.49950709568736285,
    "[-1.0,-1.0,1.0,-1.0,0.0,1.0,1.0,0.0,0.0]" : 0.4995067318756227,
    "[-1.0,1.0,-1.0,0.0,0.0,-1.0,0.0,1.0,1.0]" : 0.4995067315024939,
    "[-1.0,1.0,0.0,-1.0,0.0,0.0,1.0,1.0,0.0]" : 0.49950672889096354,
    "[1.0,-1.0,0.0,1.0,0.0,1.0,0.0,0.0,-1.0]" : 0.49950672441788835,
    "[1.0,-1.0,0.0,0.0,0.0,-1.0,0.0,1.0,1.0]" : 0.4995063587468411,
    "[1.0,0.0,-1.0,-1.0,1.0,0.0,-1.0,1.0,0.0]" : 0.499506358746841,
    "[-1.0,1.0,-1.0,0.0,1.0,1.0,0.0,0.0,0.0]" : 0.49950635837296486,
    "[1.0,0.0,1.0,1.0,-1.0,-1.0,0.0,0.0,-1.0]" : 0.49950635800021,
    "[1.0,0.0,-1.0,-1.0,0.0,0.0,0.0,1.0,1.0]" : 0.49950635799946264,
    "[-1.0,-1.0,1.0,0.0,0.0,0.0,0.0,1.0,1.0]" : 0.49950635762633383,
    "[0.0,1.0,1.0,-1.0,0.0,0.0,0.0,1.0,-1.0]" : 0.4995063568797027,
    "[1.0,1.0,0.0,-1.0,0.0,1.0,0.0,-1.0,0.0]" : 0.4995063460540854,
    "[1.0,1.0,0.0,-1.0,0.0,0.0,-1.0,1.0,-1.0]" : 0.4995059856180595,
    "[0.0,1.0,1.0,0.0,-1.0,0.0,-1.0,-1.0,1.0]" : 0.4995059848714284,
    "[1.0,-1.0,-1.0,-1.0,0.0,0.0,0.0,1.0,1.0]" : 0.4995059848714284,
    "[-1.0,1.0,-1.0,-1.0,0.0,0.0,1.0,1.0,0.0]" : 0.49950598487142833,
    "[0.0,-1.0,0.0,1.0,0.0,-1.0,1.0,1.0,0.0]" : 0.4995059837520416,
    "[0.0,1.0,0.0,0.0,1.0,-1.0,-1.0,0.0,1.0]" : 0.4995056124892779,
    "[0.0,1.0,-1.0,-1.0,0.0,0.0,0.0,1.0,1.0]" : 0.4995056121157756,
    "[1.0,-1.0,-1.0,0.0,1.0,1.0,0.0,-1.0,0.0]" : 0.49950561211577554,
    "[0.0,-1.0,1.0,1.0,0.0,0.0,1.0,0.0,-1.0]" : 0.4995056113683971,
    "[1.0,1.0,0.0,-1.0,0.0,0.0,0.0,1.0,-1.0]" : 0.4995056109945209,
    "[1.0,-1.0,-1.0,0.0,0.0,0.0,1.0,1.0,0.0]" : 0.49950560167633545,
    "[-1.0,0.0,0.0,1.0,1.0,0.0,-1.0,1.0,-1.0]" : 0.4995052389869939,
    "[0.0,0.0,-1.0,1.0,0.0,1.0,1.0,0.0,-1.0]" : 0.4995052389869939,
    "[1.0,-1.0,-1.0,1.0,0.0,1.0,0.0,0.0,-1.0]" : 0.4995052389869939,
    "[-1.0,-1.0,1.0,1.0,0.0,1.0,0.0,0.0,0.0]" : 0.49950523823961546,
    "[0.0,1.0,1.0,-1.0,0.0,0.0,1.0,-1.0,-1.0]" : 0.4995052382396154,
    "[-1.0,0.0,1.0,0.0,0.0,-1.0,1.0,1.0,0.0]" : 0.49950523749298437,
    "[0.0,1.0,-1.0,-1.0,0.0,0.0,1.0,1.0,0.0]" : 0.4995052352515948,
    "[0.0,1.0,1.0,0.0,0.0,0.0,-1.0,-1.0,1.0]" : 0.4995052311411874,
    "[-1.0,1.0,0.0,0.0,0.0,-1.0,0.0,1.0,1.0]" : 0.49950486548471,
    "[0.0,0.0,-1.0,1.0,1.0,0.0,0.0,-1.0,1.0]" : 0.49950486548471,
    "[0.0,1.0,1.0,0.0,0.0,-1.0,0.0,1.0,-1.0]" : 0.49950486548471,
    "[1.0,0.0,0.0,-1.0,0.0,1.0,-1.0,0.0,1.0]" : 0.49950486548471,
    "[0.0,-1.0,1.0,-1.0,0.0,1.0,1.0,0.0,0.0]" : 0.49950486511083386,
    "[0.0,-1.0,0.0,-1.0,-1.0,1.0,0.0,1.0,1.0]" : 0.49950486511083386,
    "[0.0,-1.0,0.0,0.0,1.0,1.0,1.0,0.0,-1.0]" : 0.4995048647373316,
    "[1.0,-1.0,-1.0,0.0,-1.0,0.0,1.0,1.0,0.0]" : 0.4995048647373316,
    "[0.0,-1.0,1.0,-1.0,0.0,0.0,1.0,1.0,0.0]" : 0.4995048643634553,
    "[-1.0,0.0,0.0,1.0,0.0,1.0,0.0,-1.0,1.0]" : 0.4995048636168242,
    "[1.0,1.0,0.0,-1.0,0.0,0.0,-1.0,-1.0,1.0]" : 0.49950486286869766,
    "[-1.0,0.0,0.0,1.0,1.0,0.0,-1.0,1.0,0.0]" : 0.4995044919824261,
    "[1.0,1.0,0.0,0.0,0.0,0.0,-1.0,-1.0,1.0]" : 0.4995044916085499,
    "[1.0,1.0,0.0,1.0,-1.0,-1.0,0.0,-1.0,0.0]" : 0.4995044916085499,
    "[1.0,-1.0,0.0,0.0,0.0,1.0,-1.0,0.0,1.0]" : 0.4995044908611715,
    "[-1.0,0.0,0.0,0.0,1.0,1.0,1.0,-1.0,0.0]" : 0.49950449086117144,
    "[1.0,-1.0,0.0,0.0,1.0,1.0,-1.0,0.0,0.0]" : 0.4995044908611714,
    "[1.0,-1.0,0.0,-1.0,1.0,0.0,1.0,0.0,-1.0]" : 0.4995044815228471,
    "[0.0,1.0,-1.0,0.0,0.0,1.0,0.0,1.0,-1.0]" : 0.4995037438562297,
    "[0.0,0.0,-1.0,0.0,1.0,1.0,-1.0,1.0,-1.0]" : 0.4995037438562297,
    "[1.0,0.0,1.0,-1.0,0.0,0.0,0.0,1.0,-1.0]" : 0.49950373824658406,
    "[1.0,-1.0,-1.0,-1.0,1.0,1.0,0.0,0.0,0.0]" : 0.4995037360081833,
    "[-1.0,0.0,1.0,1.0,0.0,0.0,-1.0,0.0,1.0]" : 0.49950373452012736,
    "[-1.0,0.0,0.0,-1.0,0.0,1.0,1.0,0.0,1.0]" : 0.4995033703539459,
    "[-1.0,1.0,0.0,1.0,0.0,0.0,-1.0,0.0,1.0]" : 0.49950336960581926,
    "[1.0,0.0,1.0,-1.0,0.0,1.0,-1.0,0.0,0.0]" : 0.4995033696058192,
    "[1.0,-1.0,-1.0,0.0,0.0,-1.0,0.0,1.0,1.0]" : 0.4995033696058192,
    "[1.0,0.0,-1.0,1.0,0.0,0.0,0.0,-1.0,1.0]" : 0.4995033681088172,
    "[-1.0,0.0,1.0,1.0,0.0,0.0,0.0,-1.0,1.0]" : 0.49950298863197473,
    "[-1.0,0.0,1.0,0.0,1.0,-1.0,0.0,1.0,0.0]" : 0.499502978202217,
    "[0.0,1.0,-1.0,0.0,0.0,-1.0,0.0,1.0,1.0]" : 0.49950262185312483,
    "[1.0,1.0,0.0,-1.0,0.0,0.0,-1.0,1.0,0.0]" : 0.49950262185312483,
    "[1.0,-1.0,0.0,0.0,0.0,1.0,1.0,0.0,-1.0]" : 0.4995026203546242,
    "[-1.0,-1.0,1.0,0.0,1.0,-1.0,0.0,1.0,0.0]" : 0.4995026188591192,
    "[0.0,-1.0,1.0,1.0,0.0,0.0,-1.0,0.0,1.0]" : 0.4995026166177281,
    "[0.0,1.0,-1.0,0.0,1.0,-1.0,0.0,0.0,1.0]" : 0.4995026158696015,
    "[-1.0,1.0,0.0,-1.0,1.0,0.0,1.0,0.0,0.0]" : 0.49950260917671835,
    "[-1.0,-1.0,1.0,1.0,1.0,0.0,0.0,-1.0,0.0]" : 0.49950224760271433,
    "[0.0,-1.0,1.0,1.0,0.0,-1.0,0.0,1.0,0.0]" : 0.4995022472280893,
    "[1.0,-1.0,-1.0,0.0,0.0,1.0,1.0,0.0,-1.0]" : 0.49950224610421373,
    "[0.0,-1.0,1.0,-1.0,1.0,0.0,0.0,1.0,-1.0]" : 0.49950187222805364,
    "[0.0,1.0,0.0,1.0,-1.0,-1.0,1.0,-1.0,0.0]" : 0.4995018722280536,
    "[0.0,1.0,0.0,0.0,1.0,-1.0,-1.0,-1.0,1.0]" : 0.49950187147917813,
    "[0.0,1.0,-1.0,-1.0,0.0,0.0,1.0,0.0,1.0]" : 0.49950187147917813,
    "[0.0,1.0,1.0,1.0,-1.0,-1.0,0.0,0.0,0.0]" : 0.49950187147917813,
    "[0.0,0.0,0.0,1.0,-1.0,-1.0,0.0,1.0,1.0]" : 0.4995018711053019,
    "[0.0,-1.0,0.0,-1.0,0.0,1.0,1.0,1.0,0.0]" : 0.4995014983526432,
    "[0.0,-1.0,1.0,1.0,1.0,-1.0,0.0,0.0,-1.0]" : 0.49950149835189356,
    "[0.0,0.0,0.0,1.0,1.0,-1.0,-1.0,-1.0,1.0]" : 0.4995014976030181,
    "[0.0,1.0,0.0,1.0,-1.0,0.0,1.0,-1.0,0.0]" : 0.4995014972291419,
    "[0.0,-1.0,0.0,1.0,-1.0,-1.0,0.0,1.0,1.0]" : 0.4995014968548914,
    "[0.0,-1.0,1.0,-1.0,-1.0,1.0,0.0,1.0,0.0]" : 0.4995014968548914,
    "[-1.0,1.0,-1.0,-1.0,0.0,0.0,1.0,0.0,1.0]" : 0.49950112372685795,
    "[1.0,0.0,1.0,0.0,0.0,0.0,-1.0,1.0,-1.0]" : 0.49950112335260755,
    "[1.0,0.0,-1.0,-1.0,0.0,1.0,1.0,-1.0,0.0]" : 0.49950074947644746,
    "[-1.0,0.0,0.0,1.0,1.0,-1.0,0.0,-1.0,1.0]" : 0.49950074947644746,
    "[0.0,0.0,1.0,1.0,0.0,-1.0,-1.0,1.0,-1.0]" : 0.49950074947644746,
    "[1.0,-1.0,0.0,-1.0,1.0,1.0,0.0,0.0,-1.0]" : 0.49950074947644746,
    "[0.0,0.0,0.0,-1.0,-1.0,1.0,1.0,1.0,0.0]" : 0.49950074947644746,
    "[0.0,0.0,-1.0,-1.0,1.0,1.0,1.0,-1.0,0.0]" : 0.49950074947644746,
    "[-1.0,-1.0,1.0,1.0,0.0,-1.0,0.0,1.0,0.0]" : 0.49950074947644746,
    "[0.0,1.0,-1.0,1.0,0.0,-1.0,0.0,-1.0,1.0]" : 0.49950074947644746,
    "[-1.0,1.0,0.0,1.0,0.0,-1.0,0.0,-1.0,1.0]" : 0.49950074947644746,
    "[0.0,0.0,-1.0,-1.0,0.0,1.0,1.0,-1.0,1.0]" : 0.49950074947644746,
    "[-1.0,1.0,0.0,0.0,0.0,-1.0,1.0,0.0,1.0]" : 0.49950074947644746,
    "[0.0,-1.0,0.0,-1.0,1.0,1.0,1.0,0.0,-1.0]" : 0.49950074947644746,
    "[1.0,-1.0,-1.0,-1.0,0.0,1.0,0.0,1.0,0.0]" : 0.49950074947644746,
    "[-1.0,1.0,0.0,0.0,0.0,-1.0,1.0,-1.0,1.0]" : 0.49950074947644746,
    "[0.0,1.0,-1.0,0.0,1.0,-1.0,0.0,-1.0,1.0]" : 0.49950074947644746,
    "[-1.0,-1.0,0.0,1.0,1.0,-1.0,0.0,1.0,0.0]" : 0.49950074947644746,
    "[1.0,1.0,0.0,-1.0,-1.0,1.0,0.0,-1.0,0.0]" : 0.49950074947644746,
    "[-1.0,1.0,-1.0,0.0,0.0,0.0,1.0,0.0,1.0]" : 0.49950074947644746,
    "[0.0,-1.0,1.0,1.0,0.0,-1.0,-1.0,0.0,1.0]" : 0.49950074947644746,
    "[-1.0,1.0,0.0,1.0,0.0,0.0,-1.0,-1.0,1.0]" : 0.49950074947644746,
    "[0.0,1.0,0.0,-1.0,0.0,1.0,1.0,-1.0,0.0]" : 0.49950074947644746,
    "[0.0,-1.0,0.0,1.0,0.0,-1.0,-1.0,1.0,1.0]" : 0.49950074947644746,
    "[1.0,0.0,-1.0,-1.0,1.0,1.0,0.0,-1.0,0.0]" : 0.49950074947644746,
    "[-1.0,1.0,1.0,1.0,0.0,0.0,-1.0,-1.0,0.0]" : 0.49950074947644746,
    "[0.0,-1.0,1.0,1.0,0.0,-1.0,-1.0,1.0,0.0]" : 0.49950074947644746,
    "[-1.0,-1.0,1.0,1.0,1.0,-1.0,0.0,0.0,0.0]" : 0.49950074947644746,
    "[1.0,-1.0,0.0,-1.0,1.0,1.0,-1.0,0.0,0.0]" : 0.49950074947644746,
    "[-1.0,0.0,1.0,1.0,0.0,-1.0,0.0,-1.0,1.0]" : 0.49950074947644746,
    "[0.0,1.0,0.0,1.0,0.0,-1.0,-1.0,-1.0,1.0]" : 0.49950074947644746,
    "[0.0,1.0,-1.0,0.0,0.0,1.0,1.0,-1.0,-1.0]" : 0.49950074947644746,
    "[-1.0,-1.0,1.0,1.0,0.0,-1.0,0.0,0.0,1.0]" : 0.49950074947644746,
    "[1.0,1.0,-1.0,-1.0,0.0,0.0,1.0,-1.0,0.0]" : 0.49950074947644746,
    "[1.0,-1.0,0.0,-1.0,0.0,1.0,1.0,0.0,-1.0]" : 0.49950074947644746,
    "[0.0,1.0,0.0,-1.0,0.0,1.0,1.0,-1.0,-1.0]" : 0.49950074947644746,
    "[-1.0,0.0,0.0,0.0,1.0,-1.0,1.0,-1.0,1.0]" : 0.49950074947644746,
    "[1.0,-1.0,0.0,-1.0,1.0,0.0,-1.0,1.0,0.0]" : 0.49950074947644746,
    "[0.0,-1.0,-1.0,-1.0,1.0,1.0,0.0,1.0,0.0]" : 0.49950074947644746,
    "[-1.0,1.0,0.0,0.0,1.0,-1.0,0.0,-1.0,1.0]" : 0.49950074947644746,
    "[1.0,-1.0,0.0,-1.0,1.0,0.0,0.0,1.0,-1.0]" : 0.49950074947644746,
    "[0.0,1.0,-1.0,-1.0,0.0,1.0,1.0,-1.0,0.0]" : 0.49950074947644746,
    "[1.0,-1.0,0.0,-1.0,0.0,1.0,0.0,1.0,-1.0]" : 0.49950074947644746,
    "[-1.0,1.0,0.0,0.0,1.0,-1.0,1.0,-1.0,0.0]" : 0.49950074947644746,
    "[-1.0,1.0,0.0,-1.0,0.0,1.0,1.0,-1.0,0.0]" : 0.49950074947644746,
    "[1.0,-1.0,-1.0,-1.0,1.0,0.0,0.0,1.0,0.0]" : 0.49950074947644746,
    "[0.0,1.0,1.0,1.0,1.0,-1.0,-1.0,0.0,-1.0]" : 0.49950050047629885,
    "[1.0,1.0,0.0,-1.0,0.0,-1.0,-1.0,1.0,1.0]" : 0.49950050047629885,
    "[0.0,-1.0,1.0,0.0,0.0,-1.0,-1.0,1.0,1.0]" : 0.4994973800988776,
    "[1.0,-1.0,0.0,-1.0,0.0,0.0,-1.0,1.0,1.0]" : 0.4994973744821212,
    "[-1.0,1.0,0.0,1.0,0.0,0.0,-1.0,1.0,0.0]" : 0.4994962562218967,
    "[-1.0,1.0,-1.0,1.0,0.0,1.0,0.0,0.0,0.0]" : 0.49949550921807734,
    "[0.0,1.0,0.0,-1.0,0.0,1.0,-1.0,1.0,-1.0]" : 0.49949475921800757,
    "[1.0,-1.0,0.0,1.0,1.0,-1.0,-1.0,0.0,0.0]" : 0.4994940084724325,
    "[-1.0,0.0,0.0,1.0,0.0,-1.0,1.0,-1.0,1.0]" : 0.4994928879667036,
    "[1.0,1.0,-1.0,-1.0,1.0,0.0,0.0,-1.0,0.0]" : 0.499491765215472,
    "[1.0,-1.0,1.0,-1.0,0.0,1.0,0.0,0.0,-1.0]" : 0.499491765215472,
