{
  "Metadata" : {
    "Game" : "TicTacToe",
    "Seed" : 1692024682116,
    "Type" : "Tabular",
    "Alpha" : 0.0010000000474974513,
    "Gamma" : 0.75,
    "Epsilon" : 0.10000000149011612,
    "Solver" : "Q_LEARNING",
    "Heuristic" : "players.heuristics.WinOnlyHeuristic",
    "FeatureVector" : "players.rl.featureVectors.TicTacToeDim1StateVector",
    "NGamesTotal" : 1024000,
    "NGamesWithTheseSettings" : 204800,
    "TimeTaken" : "00h 12m 31.6s",
    "ContinuedFrom" : {
      "Seed" : 1692024380205,
      "NGamesTotal" : 819200,
      "NGamesWithTheseSettings" : 409600,
      "ContinuedFrom" : {
        "Seed" : 1692024081400,
        "NGamesTotal" : 409600,
        "NGamesWithTheseSettings" : 409600,
        "ContinuedFrom" : null
      }
    }
  },
  "Weights" : {
    "[-1.0,0.0,0.0,-1.0,1.0,1.0,1.0,1.0,-1.0]" : 0.9909876165672706,
    "[0.0,-1.0,0.0,-1.0,1.0,1.0,1.0,-1.0,1.0]" : 0.9816623772171094,
    "[1.0,0.0,1.0,-1.0,1.0,-1.0,-1.0,1.0,0.0]" : 0.9716628828616717,
    "[-1.0,1.0,1.0,1.0,1.0,-1.0,0.0,0.0,-1.0]" : 0.9702390532099776,
    "[-1.0,-1.0,1.0,0.0,1.0,1.0,0.0,1.0,-1.0]" : 0.969909710015551,
    "[0.0,0.0,-1.0,1.0,1.0,-1.0,-1.0,1.0,1.0]" : 0.9664090202953369,
    "[1.0,-1.0,-1.0,1.0,1.0,0.0,-1.0,1.0,0.0]" : 0.9656614517727629,
    "[0.0,1.0,-1.0,0.0,1.0,1.0,-1.0,-1.0,1.0]" : 0.9655237534998402,
    "[0.0,1.0,-1.0,-1.0,1.0,-1.0,1.0,0.0,1.0]" : 0.9648972460844716,
    "[1.0,0.0,1.0,-1.0,0.0,1.0,1.0,-1.0,-1.0]" : 0.9646151561166051,
    "[-1.0,1.0,0.0,1.0,1.0,0.0,1.0,-1.0,-1.0]" : 0.9643307992397048,
    "[1.0,1.0,-1.0,-1.0,1.0,1.0,-1.0,0.0,0.0]" : 0.963646259542112,
    "[0.0,-1.0,0.0,1.0,1.0,-1.0,1.0,-1.0,1.0]" : 0.9630965661278602,
    "[1.0,1.0,-1.0,0.0,0.0,-1.0,1.0,-1.0,1.0]" : 0.9629485826116241,
    "[1.0,-1.0,1.0,0.0,0.0,-1.0,1.0,1.0,-1.0]" : 0.9616281499002834,
    "[1.0,-1.0,1.0,-1.0,0.0,0.0,-1.0,1.0,1.0]" : 0.9606956134539852,
    "[1.0,-1.0,0.0,-1.0,1.0,-1.0,1.0,1.0,0.0]" : 0.9606168866065744,
    "[1.0,0.0,1.0,1.0,0.0,-1.0,-1.0,-1.0,1.0]" : 0.9606168866065744,
    "[1.0,-1.0,1.0,1.0,1.0,-1.0,0.0,-1.0,0.0]" : 0.960021387002065,
    "[0.0,-1.0,1.0,-1.0,1.0,-1.0,0.0,1.0,1.0]" : 0.9596193932052118,
    "[1.0,1.0,0.0,-1.0,1.0,-1.0,1.0,-1.0,0.0]" : 0.9592133572718117,
    "[-1.0,-1.0,1.0,1.0,0.0,-1.0,1.0,0.0,1.0]" : 0.9578864030747456,
    "[-1.0,1.0,1.0,-1.0,0.0,0.0,1.0,-1.0,1.0]" : 0.9573777396397458,
    "[1.0,-1.0,0.0,0.0,1.0,1.0,1.0,-1.0,-1.0]" : 0.9550566332428905,
    "[1.0,-1.0,-1.0,-1.0,0.0,1.0,1.0,0.0,1.0]" : 0.9482992010991492,
    "[0.0,-1.0,1.0,1.0,1.0,0.0,-1.0,-1.0,1.0]" : 0.947569932219814,
    "[-1.0,1.0,0.0,1.0,0.0,1.0,-1.0,-1.0,1.0]" : 0.940466225642844,
    "[1.0,1.0,1.0,1.0,-1.0,-1.0,-1.0,-1.0,0.0]" : 0.9401676616623621,
    "[0.0,1.0,-1.0,1.0,-1.0,-1.0,1.0,0.0,1.0]" : 0.9392021579486667,
    "[0.0,1.0,1.0,1.0,-1.0,0.0,-1.0,-1.0,1.0]" : 0.9385293515471531,
    "[-1.0,1.0,0.0,-1.0,-1.0,1.0,1.0,0.0,1.0]" : 0.9370984183585161,
    "[1.0,0.0,1.0,-1.0,-1.0,1.0,-1.0,1.0,0.0]" : 0.9369724262325738,
    "[1.0,0.0,1.0,1.0,-1.0,-1.0,0.0,1.0,-1.0]" : 0.9358270799044058,
    "[-1.0,0.0,1.0,1.0,1.0,0.0,-1.0,1.0,-1.0]" : 0.9346609201745307,
    "[1.0,-1.0,-1.0,0.0,-1.0,1.0,1.0,1.0,0.0]" : 0.9345955156871113,
    "[1.0,1.0,1.0,1.0,-1.0,-1.0,-1.0,0.0,-1.0]" : 0.9338055363910179,
    "[1.0,1.0,0.0,0.0,-1.0,1.0,1.0,-1.0,-1.0]" : 0.9336065551610003,
    "[1.0,-1.0,-1.0,0.0,1.0,1.0,1.0,-1.0,0.0]" : 0.9321289665374091,
    "[-1.0,1.0,-1.0,1.0,0.0,-1.0,0.0,1.0,1.0]" : 0.9320610275617439,
    "[1.0,0.0,-1.0,0.0,1.0,1.0,-1.0,1.0,-1.0]" : 0.9290744060882756,
    "[1.0,1.0,0.0,-1.0,0.0,1.0,-1.0,1.0,-1.0]" : 0.9284328723227974,
    "[-1.0,1.0,-1.0,-1.0,0.0,1.0,1.0,1.0,0.0]" : 0.927857750245614,
    "[-1.0,1.0,-1.0,1.0,1.0,0.0,-1.0,0.0,1.0]" : 0.9277132490235521,
    "[1.0,-1.0,-1.0,1.0,0.0,1.0,0.0,1.0,-1.0]" : 0.9277132490235521,
    "[-1.0,1.0,-1.0,0.0,1.0,1.0,1.0,0.0,-1.0]" : 0.9263259695331619,
    "[0.0,1.0,-1.0,1.0,0.0,1.0,1.0,-1.0,-1.0]" : 0.9259564916690112,
    "[0.0,1.0,1.0,1.0,0.0,-1.0,1.0,-1.0,-1.0]" : 0.925733916130828,
    "[-1.0,0.0,-1.0,1.0,1.0,1.0,0.0,0.0,0.0]" : 0.9227015126191992,
    "[-1.0,-1.0,1.0,-1.0,0.0,1.0,1.0,1.0,0.0]" : 0.9225466834320295,
    "[-1.0,0.0,0.0,1.0,1.0,1.0,0.0,-1.0,0.0]" : 0.9219242592303732,
    "[1.0,-1.0,-1.0,1.0,0.0,-1.0,0.0,1.0,1.0]" : 0.9203462275023427,
    "[-1.0,0.0,0.0,1.0,1.0,1.0,-1.0,0.0,0.0]" : 0.9190608688602929,
    "[1.0,1.0,0.0,1.0,-1.0,-1.0,0.0,-1.0,1.0]" : 0.9184104322319508,
    "[1.0,-1.0,0.0,-1.0,-1.0,1.0,0.0,1.0,1.0]" : 0.9172595654384655,
    "[-1.0,-1.0,1.0,1.0,-1.0,0.0,0.0,1.0,1.0]" : 0.9151639201125997,
    "[1.0,1.0,0.0,-1.0,0.0,1.0,-1.0,-1.0,1.0]" : 0.9130151963933814,
    "[-1.0,0.0,0.0,1.0,1.0,1.0,0.0,0.0,-1.0]" : 0.9113458416030628,
    "[1.0,0.0,0.0,1.0,-1.0,-1.0,1.0,0.0,-1.0]" : 0.8999366499844071,
    "[-1.0,-1.0,0.0,1.0,1.0,1.0,0.0,0.0,0.0]" : 0.8993341629090654,
    "[1.0,0.0,0.0,1.0,-1.0,-1.0,1.0,-1.0,0.0]" : 0.8961630376168419,
    "[-1.0,1.0,1.0,-1.0,0.0,1.0,1.0,-1.0,0.0]" : 0.8957466492974792,
    "[0.0,1.0,0.0,-1.0,1.0,-1.0,1.0,-1.0,1.0]" : 0.8956422915841066,
    "[1.0,-1.0,0.0,1.0,-1.0,-1.0,1.0,0.0,0.0]" : 0.8903987236198708,
    "[1.0,0.0,-1.0,1.0,-1.0,-1.0,1.0,0.0,0.0]" : 0.8901791918138848,
    "[0.0,1.0,1.0,-1.0,0.0,1.0,1.0,-1.0,-1.0]" : 0.8847764632675449,
    "[0.0,-1.0,1.0,1.0,0.0,-1.0,1.0,1.0,-1.0]" : 0.8838505130172446,
    "[-1.0,-1.0,1.0,-1.0,1.0,1.0,1.0,0.0,0.0]" : 0.8830342046027997,
    "[1.0,-1.0,1.0,0.0,1.0,-1.0,-1.0,0.0,1.0]" : 0.882565169397507,
    "[1.0,-1.0,1.0,-1.0,1.0,0.0,1.0,0.0,-1.0]" : 0.8823299469502938,
    "[0.0,1.0,-1.0,1.0,1.0,0.0,-1.0,-1.0,1.0]" : 0.88185808765757,
    "[-1.0,-1.0,1.0,1.0,0.0,-1.0,1.0,1.0,0.0]" : 0.88185808765757,
    "[-1.0,0.0,1.0,-1.0,1.0,1.0,1.0,-1.0,0.0]" : 0.8807894744573738,
    "[1.0,0.0,-1.0,-1.0,1.0,0.0,1.0,-1.0,1.0]" : 0.8805506952859146,
    "[1.0,1.0,0.0,1.0,0.0,-1.0,-1.0,-1.0,1.0]" : 0.880311437838796,
    "[1.0,0.0,-1.0,-1.0,1.0,1.0,-1.0,1.0,0.0]" : 0.8722691164236237,
    "[0.0,-1.0,1.0,1.0,1.0,-1.0,0.0,-1.0,1.0]" : 0.8712426556242712,
    "[1.0,-1.0,1.0,-1.0,1.0,-1.0,0.0,1.0,0.0]" : 0.8698177898294505,
    "[1.0,-1.0,1.0,0.0,1.0,-1.0,-1.0,-1.0,1.0]" : 0.8677170628502128,
    "[1.0,-1.0,1.0,-1.0,1.0,-1.0,-1.0,0.0,1.0]" : 0.8661193011267986,
    "[1.0,-1.0,1.0,-1.0,1.0,0.0,-1.0,-1.0,1.0]" : 0.8621779159253891,
    "[1.0,1.0,-1.0,1.0,0.0,-1.0,0.0,-1.0,1.0]" : 0.8602338578269157,
    "[1.0,-1.0,0.0,-1.0,0.0,1.0,-1.0,1.0,1.0]" : 0.8592515695631086,
    "[1.0,-1.0,1.0,-1.0,1.0,-1.0,1.0,0.0,-1.0]" : 0.8581204981857821,
    "[1.0,0.0,1.0,-1.0,1.0,-1.0,-1.0,-1.0,1.0]" : 0.857978476655692,
    "[1.0,-1.0,-1.0,-1.0,1.0,0.0,1.0,-1.0,1.0]" : 0.857978476655692,
    "[-1.0,-1.0,1.0,0.0,1.0,-1.0,1.0,-1.0,1.0]" : 0.8575515585138525,
    "[-1.0,0.0,1.0,-1.0,1.0,-1.0,1.0,-1.0,1.0]" : 0.8569803373823309,
    "[-1.0,1.0,0.0,0.0,1.0,1.0,1.0,-1.0,-1.0]" : 0.8568371745500811,
    "[-1.0,0.0,1.0,0.0,1.0,-1.0,1.0,-1.0,1.0]" : 0.8568371745500811,
    "[1.0,0.0,-1.0,-1.0,1.0,-1.0,1.0,-1.0,1.0]" : 0.8561192079255073,
    "[1.0,-1.0,1.0,-1.0,1.0,0.0,1.0,-1.0,-1.0]" : 0.8552528935596451,
    "[1.0,-1.0,-1.0,-1.0,0.0,1.0,0.0,1.0,1.0]" : 0.8549629645119405,
    "[1.0,0.0,-1.0,-1.0,1.0,1.0,0.0,-1.0,1.0]" : 0.8539436319642847,
    "[-1.0,1.0,0.0,-1.0,1.0,1.0,1.0,0.0,-1.0]" : 0.8511406147989004,
    "[1.0,-1.0,1.0,0.0,1.0,-1.0,1.0,-1.0,-1.0]" : 0.8497941569598066,
    "[-1.0,0.0,1.0,-1.0,1.0,1.0,0.0,-1.0,1.0]" : 0.8444411442395163,
    "[0.0,1.0,-1.0,1.0,1.0,-1.0,-1.0,0.0,1.0]" : 0.8442854296617821,
    "[-1.0,-1.0,1.0,-1.0,1.0,-1.0,1.0,0.0,1.0]" : 0.8428769655356554,
    "[1.0,-1.0,0.0,-1.0,1.0,1.0,1.0,-1.0,0.0]" : 0.8425622474533738,
    "[-1.0,-1.0,1.0,1.0,1.0,0.0,0.0,1.0,-1.0]" : 0.8387360977657383,
    "[0.0,0.0,1.0,-1.0,1.0,1.0,-1.0,-1.0,1.0]" : 0.8371145535576431,
    "[-1.0,0.0,1.0,1.0,1.0,-1.0,0.0,1.0,-1.0]" : 0.8351471635281024,
    "[1.0,-1.0,-1.0,0.0,1.0,1.0,-1.0,1.0,0.0]" : 0.8336560422685019,
    "[1.0,0.0,1.0,-1.0,1.0,-1.0,1.0,0.0,-1.0]" : 0.8172526285881989,
    "[-1.0,0.0,1.0,-1.0,1.0,-1.0,1.0,0.0,1.0]" : 0.81467487401604,
    "[1.0,-1.0,0.0,1.0,1.0,-1.0,1.0,0.0,-1.0]" : 0.81467487401604,
    "[1.0,1.0,1.0,0.0,1.0,-1.0,-1.0,-1.0,0.0]" : 0.8144893633705993,
    "[-1.0,1.0,0.0,1.0,1.0,-1.0,-1.0,1.0,0.0]" : 0.8090280169325467,
    "[0.0,-1.0,-1.0,-1.0,1.0,0.0,1.0,1.0,1.0]" : 0.8080702856944253,
    "[0.0,0.0,0.0,1.0,1.0,1.0,-1.0,-1.0,0.0]" : 0.7941466009468338,
    "[0.0,0.0,1.0,-1.0,1.0,-1.0,1.0,0.0,0.0]" : 0.7926998458542855,
    "[0.0,-1.0,1.0,-1.0,1.0,-1.0,1.0,-1.0,1.0]" : 0.7855268027559402,
    "[1.0,0.0,1.0,-1.0,1.0,0.0,1.0,-1.0,-1.0]" : 0.7846667608970569,
    "[0.0,0.0,-1.0,1.0,1.0,1.0,-1.0,0.0,0.0]" : 0.7846667608970569,
    "[-1.0,-1.0,1.0,1.0,0.0,1.0,-1.0,1.0,0.0]" : 0.783586857099745,
    "[0.0,-1.0,1.0,-1.0,1.0,0.0,1.0,1.0,-1.0]" : 0.7831533806871599,
    "[1.0,-1.0,1.0,-1.0,1.0,-1.0,1.0,-1.0,0.0]" : 0.779654165679594,
    "[-1.0,-1.0,1.0,-1.0,1.0,1.0,0.0,-1.0,1.0]" : 0.7785491235402765,
    "[-1.0,1.0,0.0,0.0,1.0,0.0,0.0,1.0,-1.0]" : 0.7781055565267156,
    "[0.0,1.0,0.0,0.0,1.0,0.0,-1.0,1.0,-1.0]" : 0.7767695175647784,
    "[0.0,0.0,-1.0,1.0,1.0,1.0,0.0,-1.0,0.0]" : 0.7765460636177827,
    "[0.0,0.0,-1.0,1.0,1.0,1.0,0.0,0.0,-1.0]" : 0.7740732581074425,
    "[1.0,0.0,-1.0,0.0,1.0,-1.0,1.0,-1.0,1.0]" : 0.7736207259170674,
    "[1.0,1.0,1.0,-1.0,1.0,-1.0,0.0,-1.0,-1.0]" : 0.7736207259170674,
    "[-1.0,-1.0,1.0,0.0,1.0,-1.0,1.0,0.0,1.0]" : 0.7736207259170674,
    "[0.0,-1.0,-1.0,-1.0,1.0,-1.0,1.0,1.0,1.0]" : 0.7731672873028594,
    "[1.0,1.0,1.0,-1.0,1.0,0.0,-1.0,-1.0,0.0]" : 0.7729402275195942,
    "[-1.0,0.0,1.0,1.0,1.0,-1.0,1.0,-1.0,0.0]" : 0.7724854258643058,
    "[0.0,1.0,-1.0,-1.0,1.0,1.0,0.0,1.0,-1.0]" : 0.7722576835370256,
    "[1.0,-1.0,1.0,-1.0,-1.0,1.0,-1.0,0.0,1.0]" : 0.7718015147433416,
    "[0.0,0.0,0.0,1.0,1.0,1.0,-1.0,0.0,-1.0]" : 0.7715730878203122,
    "[1.0,-1.0,1.0,1.0,-1.0,-1.0,1.0,0.0,-1.0]" : 0.77088643420192,
    "[1.0,-1.0,-1.0,1.0,1.0,-1.0,1.0,-1.0,0.0]" : 0.7699676841690192,
    "[-1.0,1.0,-1.0,1.0,1.0,1.0,0.0,-1.0,0.0]" : 0.7690452499299036,
    "[1.0,1.0,1.0,0.0,-1.0,-1.0,-1.0,0.0,1.0]" : 0.7678870037035108,
    "[0.0,1.0,-1.0,0.0,1.0,0.0,0.0,1.0,-1.0]" : 0.7676546583508258,
    "[-1.0,0.0,1.0,-1.0,-1.0,1.0,1.0,-1.0,1.0]" : 0.7655530561829961,
    "[1.0,0.0,-1.0,1.0,-1.0,0.0,1.0,-1.0,1.0]" : 0.7650834579932311,
    "[1.0,1.0,1.0,0.0,-1.0,-1.0,-1.0,-1.0,1.0]" : 0.7648483062883503,
    "[-1.0,-1.0,1.0,-1.0,1.0,1.0,0.0,0.0,1.0]" : 0.7646129191963664,
    "[-1.0,1.0,1.0,0.0,1.0,-1.0,1.0,-1.0,0.0]" : 0.7641414379083623,
    "[-1.0,0.0,1.0,0.0,-1.0,-1.0,1.0,1.0,1.0]" : 0.7641414379083623,
    "[-1.0,0.0,1.0,-1.0,1.0,0.0,1.0,0.0,0.0]" : 0.7641414379083623,
    "[1.0,1.0,1.0,0.0,1.0,-1.0,0.0,-1.0,-1.0]" : 0.7639053432403888,
    "[0.0,1.0,1.0,1.0,0.0,-1.0,-1.0,1.0,-1.0]" : 0.7639053432403888,
    "[-1.0,1.0,-1.0,0.0,1.0,0.0,0.0,1.0,0.0]" : 0.7636690122414052,
    "[1.0,-1.0,0.0,0.0,1.0,-1.0,-1.0,1.0,1.0]" : 0.7634324446748436,
    "[0.0,0.0,0.0,1.0,1.0,1.0,0.0,-1.0,-1.0]" : 0.7629585988915325,
    "[1.0,1.0,1.0,-1.0,-1.0,0.0,1.0,0.0,-1.0]" : 0.7627213202004628,
    "[1.0,0.0,1.0,-1.0,1.0,-1.0,1.0,-1.0,-1.0]" : 0.7627213202004628,
    "[-1.0,1.0,0.0,0.0,1.0,0.0,-1.0,1.0,0.0]" : 0.7612926518837306,
    "[-1.0,-1.0,0.0,-1.0,1.0,0.0,1.0,1.0,1.0]" : 0.7608145200866853,
    "[1.0,-1.0,-1.0,-1.0,1.0,-1.0,1.0,0.0,1.0]" : 0.7605750951704837,
    "[1.0,-1.0,-1.0,-1.0,-1.0,0.0,1.0,1.0,1.0]" : 0.7605750951704837,
    "[1.0,-1.0,-1.0,1.0,1.0,0.0,1.0,0.0,-1.0]" : 0.7605750951704837,
    "[1.0,-1.0,-1.0,0.0,1.0,0.0,0.0,0.0,1.0]" : 0.7600955261043996,
    "[0.0,-1.0,-1.0,0.0,1.0,-1.0,1.0,1.0,1.0]" : 0.7593743708188994,
    "[1.0,1.0,-1.0,-1.0,1.0,0.0,0.0,-1.0,1.0]" : 0.7593743708188994,
    "[0.0,-1.0,1.0,-1.0,1.0,1.0,1.0,0.0,-1.0]" : 0.7591335043117706,
    "[1.0,-1.0,0.0,1.0,1.0,-1.0,-1.0,0.0,1.0]" : 0.7588923966970157,
    "[1.0,1.0,1.0,-1.0,-1.0,0.0,1.0,-1.0,-1.0]" : 0.7586510477332855,
    "[0.0,-1.0,0.0,1.0,1.0,1.0,0.0,-1.0,0.0]" : 0.7584094571789896,
    "[1.0,-1.0,1.0,1.0,-1.0,0.0,1.0,0.0,-1.0]" : 0.7574406742158672,
    "[-1.0,-1.0,1.0,0.0,-1.0,-1.0,1.0,1.0,1.0]" : 0.7571978720764112,
    "[0.0,-1.0,0.0,1.0,1.0,1.0,-1.0,1.0,-1.0]" : 0.7571978720764112,
    "[1.0,1.0,1.0,0.0,1.0,-1.0,-1.0,0.0,-1.0]" : 0.756954826891759,
    "[-1.0,0.0,1.0,1.0,1.0,-1.0,1.0,-1.0,-1.0]" : 0.756711538418622,
    "[1.0,0.0,0.0,1.0,1.0,-1.0,1.0,-1.0,-1.0]" : 0.7559802108317636,
    "[-1.0,-1.0,1.0,-1.0,1.0,1.0,1.0,0.0,-1.0]" : 0.7559802108317636,
    "[0.0,1.0,0.0,-1.0,1.0,0.0,0.0,1.0,-1.0]" : 0.7559802108317636,
    "[1.0,-1.0,-1.0,1.0,1.0,-1.0,1.0,0.0,0.0]" : 0.7552466848667501,
    "[0.0,1.0,-1.0,0.0,1.0,0.0,-1.0,1.0,0.0]" : 0.7547564429729794,
    "[0.0,-1.0,1.0,-1.0,1.0,1.0,-1.0,0.0,1.0]" : 0.7545109539152345,
    "[-1.0,-1.0,1.0,-1.0,1.0,0.0,1.0,1.0,-1.0]" : 0.7537730113490051,
    "[-1.0,0.0,1.0,1.0,1.0,1.0,0.0,-1.0,-1.0]" : 0.7537730113490051,
    "[0.0,0.0,1.0,-1.0,1.0,0.0,1.0,0.0,-1.0]" : 0.7530328505199255,
    "[0.0,-1.0,1.0,1.0,1.0,1.0,-1.0,0.0,-1.0]" : 0.7522904647598752,
    "[-1.0,0.0,-1.0,-1.0,1.0,0.0,1.0,1.0,1.0]" : 0.7522904647598752,
    "[-1.0,0.0,0.0,1.0,-1.0,-1.0,1.0,1.0,1.0]" : 0.751545847380689,
    "[1.0,-1.0,0.0,0.0,1.0,0.0,0.0,-1.0,1.0]" : 0.7512971445133896,
    "[0.0,-1.0,1.0,-1.0,1.0,0.0,1.0,0.0,0.0]" : 0.7512971445133896,
    "[1.0,-1.0,-1.0,0.0,1.0,-1.0,-1.0,1.0,1.0]" : 0.7510481926942593,
    "[-1.0,1.0,0.0,0.0,1.0,-1.0,1.0,1.0,-1.0]" : 0.7507989916740969,
    "[1.0,1.0,1.0,1.0,-1.0,-1.0,-1.0,0.0,0.0]" : 0.7507989916740969,
    "[1.0,-1.0,-1.0,0.0,1.0,-1.0,1.0,-1.0,1.0]" : 0.7505495412034521,
    "[-1.0,0.0,1.0,1.0,-1.0,1.0,-1.0,0.0,1.0]" : 0.7505495412034521,
    "[0.0,0.0,1.0,-1.0,1.0,0.0,1.0,-1.0,0.0]" : 0.7505495412034521,
    "[-1.0,0.0,1.0,0.0,1.0,-1.0,1.0,0.0,0.0]" : 0.7505495412034521,
    "[1.0,-1.0,-1.0,1.0,1.0,-1.0,-1.0,0.0,1.0]" : 0.7502998410326246,
    "[1.0,0.0,-1.0,1.0,-1.0,-1.0,1.0,-1.0,1.0]" : 0.7502998410326246,
    "[1.0,-1.0,1.0,0.0,-1.0,1.0,-1.0,0.0,1.0]" : 0.7502998410326246,
    "[-1.0,1.0,1.0,0.0,-1.0,1.0,0.0,-1.0,1.0]" : 0.7497996905903708,
    "[-1.0,1.0,1.0,0.0,1.0,-1.0,-1.0,1.0,0.0]" : 0.7495492398182932,
    "[1.0,0.0,-1.0,-1.0,1.0,1.0,-1.0,-1.0,1.0]" : 0.7492985383447303,
    "[1.0,1.0,1.0,0.0,-1.0,0.0,-1.0,1.0,-1.0]" : 0.7490475859187294,
    "[-1.0,1.0,1.0,0.0,1.0,-1.0,1.0,-1.0,-1.0]" : 0.748796382289087,
    "[1.0,-1.0,0.0,1.0,-1.0,0.0,1.0,1.0,-1.0]" : 0.748796382289087,
    "[0.0,-1.0,-1.0,1.0,1.0,1.0,0.0,0.0,0.0]" : 0.7485449272043478,
    "[1.0,0.0,1.0,-1.0,1.0,-1.0,-1.0,0.0,1.0]" : 0.7482932204128052,
    "[1.0,1.0,-1.0,-1.0,1.0,0.0,-1.0,-1.0,1.0]" : 0.7480412616625003,
    "[1.0,1.0,1.0,0.0,0.0,-1.0,-1.0,1.0,-1.0]" : 0.7462704743474574,
    "[1.0,-1.0,1.0,0.0,1.0,0.0,1.0,-1.0,-1.0]" : 0.7449980118173629,
    "[1.0,0.0,-1.0,1.0,0.0,0.0,1.0,0.0,-1.0]" : 0.7447427545597987,
    "[0.0,0.0,1.0,0.0,-1.0,1.0,-1.0,0.0,1.0]" : 0.7444872417894519,
    "[0.0,0.0,1.0,0.0,1.0,-1.0,1.0,0.0,-1.0]" : 0.7439754486870808,
    "[1.0,1.0,-1.0,1.0,-1.0,0.0,1.0,-1.0,0.0]" : 0.7437191678427508,
    "[0.0,-1.0,1.0,0.0,-1.0,1.0,0.0,0.0,1.0]" : 0.7437191678427508,
    "[-1.0,0.0,-1.0,0.0,-1.0,1.0,1.0,1.0,1.0]" : 0.743462630461027,
    "[1.0,1.0,1.0,-1.0,-1.0,1.0,0.0,0.0,-1.0]" : 0.7429487850579637,
    "[0.0,0.0,-1.0,-1.0,-1.0,1.0,1.0,1.0,1.0]" : 0.7426914765222644,
    "[-1.0,0.0,-1.0,0.0,0.0,0.0,1.0,1.0,1.0]" : 0.7426914765222644,
    "[0.0,-1.0,1.0,0.0,-1.0,1.0,-1.0,1.0,1.0]" : 0.7426914765222644,
    "[1.0,-1.0,1.0,0.0,1.0,0.0,-1.0,-1.0,1.0]" : 0.7414010651917058,
    "[1.0,0.0,-1.0,1.0,-1.0,0.0,1.0,1.0,-1.0]" : 0.7414010651917058,
    "[1.0,-1.0,-1.0,1.0,-1.0,0.0,1.0,0.0,1.0]" : 0.7411422073867975,
    "[-1.0,0.0,1.0,0.0,-1.0,1.0,0.0,0.0,1.0]" : 0.7411422073867975,
    "[1.0,0.0,-1.0,-1.0,-1.0,0.0,1.0,1.0,1.0]" : 0.7406237141668022,
    "[1.0,1.0,1.0,1.0,-1.0,0.0,-1.0,0.0,-1.0]" : 0.7403640782327028,
    "[-1.0,1.0,-1.0,-1.0,1.0,0.0,1.0,1.0,-1.0]" : 0.7398440264168212,
    "[-1.0,0.0,1.0,0.0,0.0,1.0,-1.0,0.0,1.0]" : 0.7393229329350202,
    "[-1.0,1.0,-1.0,0.0,-1.0,0.0,1.0,1.0,1.0]" : 0.7390619949175438,
    "[1.0,0.0,-1.0,0.0,-1.0,-1.0,1.0,1.0,1.0]" : 0.7388007957008383,
    "[0.0,-1.0,1.0,0.0,0.0,1.0,-1.0,0.0,1.0]" : 0.7382776126236356,
    "[-1.0,0.0,-1.0,1.0,-1.0,0.0,1.0,1.0,1.0]" : 0.7382776126236356,
    "[-1.0,0.0,1.0,0.0,-1.0,1.0,1.0,-1.0,1.0]" : 0.737753381608584,
    "[-1.0,1.0,1.0,0.0,-1.0,1.0,-1.0,0.0,1.0]" : 0.737753381608584,
    "[1.0,0.0,-1.0,1.0,-1.0,1.0,1.0,0.0,-1.0]" : 0.7372281005566597,
    "[1.0,-1.0,0.0,0.0,1.0,0.0,-1.0,0.0,1.0]" : 0.7372281005566597,
    "[1.0,1.0,1.0,0.0,-1.0,1.0,-1.0,0.0,-1.0]" : 0.7369650656097759,
    "[1.0,0.0,-1.0,1.0,1.0,1.0,-1.0,-1.0,0.0]" : 0.7369650656097759,
    "[-1.0,0.0,1.0,0.0,-1.0,1.0,-1.0,1.0,1.0]" : 0.7367017673646346,
    "[0.0,0.0,1.0,0.0,1.0,-1.0,1.0,-1.0,0.0]" : 0.7361743799250677,
    "[-1.0,1.0,1.0,0.0,1.0,0.0,-1.0,1.0,-1.0]" : 0.7359102902027269,
    "[1.0,0.0,-1.0,1.0,1.0,1.0,-1.0,0.0,-1.0]" : 0.7353813174311594,
    "[-1.0,0.0,1.0,1.0,1.0,1.0,-1.0,0.0,-1.0]" : 0.7353813174311594,
    "[0.0,-1.0,1.0,0.0,1.0,-1.0,1.0,0.0,0.0]" : 0.7353813174311594,
    "[-1.0,1.0,0.0,-1.0,1.0,0.0,0.0,1.0,0.0]" : 0.7345858709833384,
    "[-1.0,-1.0,1.0,0.0,1.0,1.0,-1.0,-1.0,1.0]" : 0.734054245394644,
    "[1.0,1.0,-1.0,1.0,-1.0,0.0,1.0,0.0,-1.0]" : 0.7337880334154151,
    "[-1.0,1.0,-1.0,0.0,1.0,-1.0,-1.0,1.0,1.0]" : 0.7332548097548008,
    "[1.0,-1.0,0.0,0.0,1.0,-1.0,0.0,0.0,1.0]" : 0.732720518045008,
    "[1.0,-1.0,0.0,-1.0,1.0,0.0,0.0,0.0,1.0]" : 0.732720518045008,
    "[-1.0,0.0,-1.0,1.0,1.0,1.0,1.0,-1.0,-1.0]" : 0.7319170732072037,
    "[-1.0,1.0,-1.0,0.0,1.0,0.0,1.0,1.0,-1.0]" : 0.7316487219163741,
    "[1.0,0.0,0.0,1.0,-1.0,0.0,1.0,0.0,-1.0]" : 0.7311112132060555,
    "[-1.0,1.0,1.0,-1.0,1.0,-1.0,1.0,0.0,0.0]" : 0.7305726278635862,
    "[1.0,1.0,1.0,0.0,0.0,-1.0,-1.0,0.0,0.0]" : 0.7300329637324675,
    "[-1.0,0.0,-1.0,1.0,1.0,1.0,-1.0,-1.0,1.0]" : 0.7300329637324675,
    "[1.0,-1.0,-1.0,0.0,1.0,0.0,1.0,-1.0,1.0]" : 0.729762726446078,
    "[0.0,0.0,-1.0,0.0,-1.0,0.0,1.0,1.0,1.0]" : 0.7289503904566816,
    "[0.0,-1.0,0.0,1.0,-1.0,-1.0,1.0,1.0,1.0]" : 0.7284074769773853,
    "[1.0,-1.0,-1.0,1.0,1.0,1.0,-1.0,0.0,-1.0]" : 0.7281356125770495,
    "[0.0,1.0,0.0,0.0,1.0,-1.0,0.0,1.0,-1.0]" : 0.7278634760401639,
    "[1.0,1.0,1.0,-1.0,1.0,-1.0,-1.0,0.0,-1.0]" : 0.7275910670943194,
    "[-1.0,1.0,0.0,0.0,1.0,-1.0,0.0,1.0,0.0]" : 0.7273183854668346,
    "[1.0,0.0,1.0,0.0,-1.0,1.0,-1.0,-1.0,1.0]" : 0.7270454308847547,
    "[-1.0,0.0,-1.0,1.0,1.0,1.0,-1.0,0.0,1.0]" : 0.7262249266772987,
    "[1.0,1.0,1.0,-1.0,-1.0,0.0,-1.0,0.0,1.0]" : 0.7262249266772987,
    "[1.0,0.0,1.0,1.0,-1.0,0.0,1.0,-1.0,-1.0]" : 0.7259508775418239,
    "[0.0,1.0,1.0,-1.0,-1.0,1.0,0.0,-1.0,1.0]" : 0.7251270830959005,
    "[1.0,1.0,1.0,0.0,-1.0,-1.0,0.0,0.0,0.0]" : 0.7245765115162839,
    "[1.0,1.0,1.0,0.0,0.0,0.0,-1.0,0.0,-1.0]" : 0.7245765115162839,
    "[-1.0,0.0,-1.0,1.0,1.0,1.0,1.0,0.0,-1.0]" : 0.7240248371395358,
    "[1.0,1.0,1.0,0.0,-1.0,-1.0,1.0,0.0,-1.0]" : 0.7237485857121267,
    "[-1.0,-1.0,1.0,1.0,1.0,1.0,-1.0,0.0,-1.0]" : 0.7234720577567492,
    "[-1.0,1.0,1.0,0.0,1.0,-1.0,-1.0,1.0,-1.0]" : 0.7234720577567492,
    "[1.0,-1.0,0.0,1.0,-1.0,0.0,1.0,0.0,0.0]" : 0.7226408119533716,
    "[-1.0,-1.0,0.0,0.0,-1.0,1.0,1.0,1.0,1.0]" : 0.7223631751152999,
    "[0.0,1.0,0.0,-1.0,1.0,0.0,-1.0,1.0,0.0]" : 0.7223631751152999,
    "[1.0,1.0,-1.0,0.0,1.0,0.0,-1.0,1.0,-1.0]" : 0.7218070674166653,
    "[-1.0,1.0,-1.0,0.0,1.0,0.0,-1.0,1.0,1.0]" : 0.7218070674166653,
    "[-1.0,0.0,1.0,0.0,1.0,1.0,-1.0,-1.0,1.0]" : 0.7218070674166653,
    "[0.0,1.0,-1.0,-1.0,1.0,0.0,0.0,1.0,0.0]" : 0.7212498458320302,
    "[0.0,-1.0,0.0,1.0,1.0,1.0,-1.0,0.0,0.0]" : 0.7209708166354125,
    "[-1.0,0.0,0.0,0.0,-1.0,0.0,1.0,1.0,1.0]" : 0.7201320520758165,
    "[-1.0,-1.0,1.0,0.0,1.0,1.0,0.0,-1.0,1.0]" : 0.7192907661814342,
    "[1.0,0.0,0.0,1.0,-1.0,0.0,1.0,-1.0,0.0]" : 0.7178829994622596,
    "[1.0,0.0,0.0,1.0,0.0,-1.0,1.0,0.0,-1.0]" : 0.7176006000488953,
    "[1.0,1.0,-1.0,-1.0,1.0,0.0,-1.0,1.0,-1.0]" : 0.717317917953422,
    "[0.0,0.0,0.0,-1.0,-1.0,0.0,1.0,1.0,1.0]" : 0.717317917953422,
    "[1.0,0.0,-1.0,1.0,-1.0,0.0,1.0,0.0,0.0]" : 0.717317917953422,
    "[0.0,0.0,1.0,-1.0,0.0,1.0,-1.0,0.0,1.0]" : 0.7167517045840052,
    "[-1.0,0.0,1.0,-1.0,0.0,1.0,0.0,0.0,1.0]" : 0.7167517045840052,
    "[0.0,-1.0,1.0,-1.0,0.0,1.0,0.0,0.0,1.0]" : 0.7164681727432815,
    "[-1.0,0.0,-1.0,-1.0,1.0,-1.0,1.0,1.0,1.0]" : 0.7164681727432815,
    "[1.0,1.0,1.0,0.0,-1.0,0.0,0.0,0.0,-1.0]" : 0.7161843570868878,
    "[0.0,1.0,-1.0,-1.0,1.0,0.0,-1.0,1.0,1.0]" : 0.7161843570868878,
    "[1.0,-1.0,-1.0,1.0,1.0,0.0,1.0,-1.0,-1.0]" : 0.7161843570868878,
    "[1.0,0.0,-1.0,0.0,1.0,0.0,-1.0,0.0,1.0]" : 0.7159002573307245,
    "[0.0,-1.0,-1.0,0.0,0.0,0.0,1.0,1.0,1.0]" : 0.7159002573307245,
    "[-1.0,0.0,1.0,-1.0,1.0,1.0,1.0,0.0,-1.0]" : 0.7159002573307245,
    "[-1.0,0.0,0.0,0.0,0.0,-1.0,1.0,1.0,1.0]" : 0.7156158731904074,
    "[1.0,0.0,-1.0,1.0,0.0,0.0,1.0,-1.0,0.0]" : 0.7147610116164197,
    "[1.0,1.0,1.0,-1.0,1.0,0.0,-1.0,0.0,-1.0]" : 0.7144754870899479,
    "[-1.0,0.0,1.0,1.0,1.0,1.0,-1.0,-1.0,0.0]" : 0.7141896767531257,
    "[1.0,-1.0,-1.0,-1.0,1.0,1.0,0.0,0.0,1.0]" : 0.7141896767531257,
    "[0.0,0.0,0.0,0.0,-1.0,-1.0,1.0,1.0,1.0]" : 0.7127563278903536,
    "[0.0,-1.0,1.0,0.0,0.0,1.0,0.0,-1.0,1.0]" : 0.7124687966733699,
    "[-1.0,-1.0,0.0,1.0,1.0,1.0,-1.0,0.0,1.0]" : 0.7107375550775735,
    "[0.0,1.0,0.0,0.0,1.0,-1.0,-1.0,1.0,0.0]" : 0.7107375550775735,
    "[-1.0,0.0,-1.0,1.0,1.0,1.0,1.0,-1.0,0.0]" : 0.7104480030668874,
    "[1.0,0.0,-1.0,-1.0,1.0,0.0,0.0,0.0,1.0]" : 0.7104480030668874,
    "[-1.0,0.0,1.0,0.0,0.0,1.0,0.0,-1.0,1.0]" : 0.710158161214335,
    "[1.0,0.0,-1.0,0.0,1.0,0.0,0.0,-1.0,1.0]" : 0.7095776068228127,
    "[1.0,1.0,1.0,1.0,-1.0,-1.0,0.0,0.0,-1.0]" : 0.7095776068228127,
    "[-1.0,0.0,1.0,0.0,1.0,0.0,1.0,0.0,-1.0]" : 0.7087045941587867,
    "[1.0,1.0,1.0,0.0,0.0,-1.0,0.0,-1.0,0.0]" : 0.7084130071520892,
    "[-1.0,-1.0,1.0,1.0,1.0,1.0,-1.0,0.0,0.0]" : 0.7084130071520892,
    "[0.0,-1.0,0.0,1.0,1.0,1.0,0.0,0.0,-1.0]" : 0.7084130071520892,
    "[1.0,1.0,1.0,-1.0,0.0,0.0,-1.0,1.0,-1.0]" : 0.7084130071520892,
    "[-1.0,1.0,0.0,0.0,1.0,-1.0,-1.0,1.0,1.0]" : 0.7081211282664922,
    "[1.0,1.0,1.0,0.0,-1.0,0.0,-1.0,0.0,0.0]" : 0.707536493689623,
    "[-1.0,0.0,-1.0,1.0,1.0,1.0,0.0,-1.0,1.0]" : 0.707536493689623,
    "[0.0,1.0,-1.0,0.0,1.0,-1.0,0.0,1.0,0.0]" : 0.707536493689623,
    "[1.0,1.0,-1.0,-1.0,1.0,0.0,0.0,1.0,-1.0]" : 0.7069506880872991,
    "[-1.0,0.0,1.0,0.0,1.0,0.0,1.0,-1.0,0.0]" : 0.7066573454187849,
    "[1.0,-1.0,0.0,1.0,0.0,0.0,1.0,0.0,-1.0]" : 0.7063637091139519,
    "[-1.0,0.0,0.0,-1.0,0.0,0.0,1.0,1.0,1.0]" : 0.7063637091139519,
    "[0.0,0.0,-1.0,-1.0,0.0,0.0,1.0,1.0,1.0]" : 0.7060697788788698,
    "[1.0,-1.0,-1.0,1.0,-1.0,0.0,1.0,1.0,0.0]" : 0.7060697788788698,
    "[0.0,0.0,-1.0,1.0,-1.0,-1.0,1.0,1.0,1.0]" : 0.7048911127471417,
    "[1.0,-1.0,-1.0,1.0,0.0,0.0,1.0,0.0,0.0]" : 0.7045957084415523,
    "[0.0,0.0,1.0,-1.0,-1.0,1.0,0.0,0.0,1.0]" : 0.7045957084415523,
    "[-1.0,1.0,-1.0,0.0,1.0,-1.0,1.0,1.0,0.0]" : 0.7043000084359432,
    "[-1.0,1.0,-1.0,-1.0,1.0,0.0,0.0,1.0,1.0]" : 0.7037077201403857,
    "[1.0,1.0,1.0,-1.0,-1.0,1.0,-1.0,0.0,0.0]" : 0.7037077201403857,
    "[1.0,1.0,1.0,-1.0,0.0,-1.0,0.0,0.0,0.0]" : 0.7028170625373655,
    "[1.0,1.0,1.0,0.0,0.0,0.0,0.0,-1.0,-1.0]" : 0.7025195821053413,
    "[1.0,-1.0,1.0,1.0,-1.0,-1.0,1.0,0.0,0.0]" : 0.7022218038950927,
    "[-1.0,0.0,0.0,-1.0,-1.0,1.0,1.0,1.0,1.0]" : 0.7019237276085434,
    "[-1.0,-1.0,1.0,0.0,0.0,1.0,0.0,0.0,1.0]" : 0.7016253529473186,
    "[1.0,0.0,0.0,-1.0,1.0,0.0,0.0,-1.0,1.0]" : 0.7016253529473186,
    "[1.0,-1.0,-1.0,1.0,0.0,1.0,1.0,0.0,-1.0]" : 0.7013266796127452,
    "[1.0,-1.0,0.0,1.0,1.0,1.0,-1.0,0.0,-1.0]" : 0.7010277073058506,
    "[0.0,0.0,1.0,0.0,0.0,1.0,-1.0,-1.0,1.0]" : 0.7007284357273633,
    "[1.0,0.0,-1.0,1.0,1.0,-1.0,-1.0,0.0,1.0]" : 0.7004288645777121,
    "[0.0,0.0,1.0,-1.0,1.0,-1.0,1.0,0.0,-1.0]" : 0.7001289935570261,
    "[-1.0,-1.0,1.0,-1.0,1.0,0.0,1.0,-1.0,1.0]" : 0.6998288223651339,
    "[1.0,0.0,-1.0,1.0,0.0,1.0,1.0,-1.0,-1.0]" : 0.6992275782655435,
    "[0.0,0.0,-1.0,0.0,0.0,-1.0,1.0,1.0,1.0]" : 0.6992275782655435,
    "[-1.0,0.0,1.0,-1.0,1.0,-1.0,1.0,0.0,0.0]" : 0.6992275782655435,
    "[1.0,0.0,0.0,1.0,0.0,0.0,1.0,-1.0,-1.0]" : 0.6989265047559993,
    "[-1.0,-1.0,1.0,1.0,1.0,0.0,1.0,-1.0,0.0]" : 0.6989265047559993,
    "[0.0,0.0,1.0,0.0,-1.0,1.0,0.0,-1.0,1.0]" : 0.6989265047559993,
    "[1.0,1.0,1.0,0.0,0.0,0.0,-1.0,-1.0,0.0]" : 0.6986251298715563,
    "[0.0,1.0,-1.0,-1.0,1.0,0.0,1.0,1.0,-1.0]" : 0.6977191939505587,
    "[0.0,-1.0,1.0,0.0,1.0,0.0,1.0,-1.0,-1.0]" : 0.6977191939505587,
    "[0.0,-1.0,1.0,1.0,1.0,-1.0,1.0,-1.0,-1.0]" : 0.6968105347769801,
    "[-1.0,-1.0,1.0,-1.0,-1.0,1.0,1.0,0.0,1.0]" : 0.6968105347769801,
    "[0.0,1.0,0.0,1.0,1.0,-1.0,-1.0,1.0,-1.0]" : 0.6968105347769801,
    "[1.0,1.0,1.0,-1.0,-1.0,0.0,1.0,-1.0,0.0]" : 0.6965070418043693,
    "[-1.0,-1.0,1.0,0.0,1.0,0.0,1.0,1.0,-1.0]" : 0.6965070418043693,
    "[-1.0,-1.0,0.0,0.0,0.0,0.0,1.0,1.0,1.0]" : 0.6962032450349747,
    "[0.0,0.0,1.0,0.0,1.0,0.0,1.0,-1.0,-1.0]" : 0.6962032450349747,
    "[0.0,-1.0,1.0,0.0,-1.0,-1.0,1.0,1.0,1.0]" : 0.6962032450349747,
    "[0.0,0.0,1.0,-1.0,-1.0,1.0,1.0,-1.0,1.0]" : 0.6958991441646953,
    "[1.0,1.0,1.0,-1.0,0.0,0.0,0.0,0.0,-1.0]" : 0.695594738889126,
    "[1.0,0.0,0.0,1.0,-1.0,-1.0,1.0,0.0,0.0]" : 0.695594738889126,
    "[1.0,0.0,-1.0,0.0,1.0,-1.0,0.0,0.0,1.0]" : 0.6952900289035566,
    "[0.0,-1.0,0.0,0.0,-1.0,0.0,1.0,1.0,1.0]" : 0.6949850139029722,
    "[0.0,1.0,1.0,0.0,-1.0,1.0,-1.0,-1.0,1.0]" : 0.6946796935820523,
    "[1.0,0.0,0.0,1.0,0.0,-1.0,1.0,-1.0,0.0]" : 0.6946796935820523,
    "[-1.0,-1.0,1.0,0.0,1.0,0.0,1.0,-1.0,0.0]" : 0.6946796935820523,
    "[-1.0,-1.0,1.0,0.0,1.0,0.0,1.0,0.0,0.0]" : 0.694374067635171,
    "[1.0,1.0,1.0,0.0,0.0,-1.0,0.0,0.0,-1.0]" : 0.6937618976394904,
    "[-1.0,1.0,-1.0,1.0,1.0,-1.0,0.0,1.0,0.0]" : 0.6937618976394904,
    "[0.0,-1.0,0.0,-1.0,0.0,0.0,1.0,1.0,1.0]" : 0.6931485014647983,
    "[0.0,-1.0,0.0,0.0,0.0,-1.0,1.0,1.0,1.0]" : 0.6928413427930021,
    "[1.0,0.0,0.0,0.0,1.0,0.0,-1.0,-1.0,1.0]" : 0.6925338766550533,
    "[0.0,0.0,1.0,-1.0,1.0,-1.0,1.0,1.0,-1.0]" : 0.6925338766550533,
    "[1.0,-1.0,0.0,1.0,0.0,-1.0,1.0,0.0,0.0]" : 0.6916096303650114,
    "[1.0,1.0,0.0,-1.0,1.0,-1.0,-1.0,-1.0,1.0]" : 0.6916096303650114,
    "[1.0,0.0,-1.0,1.0,0.0,-1.0,1.0,0.0,0.0]" : 0.6916096303650114,
    "[-1.0,1.0,1.0,-1.0,1.0,0.0,1.0,-1.0,-1.0]" : 0.6903729787452718,
    "[-1.0,1.0,-1.0,-1.0,1.0,1.0,0.0,1.0,0.0]" : 0.6900630417723229,
    "[1.0,-1.0,1.0,-1.0,1.0,0.0,-1.0,0.0,1.0]" : 0.6894422367741626,
    "[-1.0,1.0,1.0,0.0,1.0,0.0,1.0,-1.0,-1.0]" : 0.6891313681275246,
    "[-1.0,0.0,-1.0,0.0,1.0,-1.0,1.0,1.0,1.0]" : 0.6888201883010454,
    "[1.0,0.0,-1.0,-1.0,1.0,-1.0,0.0,0.0,1.0]" : 0.6888201883010454,
    "[-1.0,0.0,1.0,1.0,1.0,-1.0,1.0,0.0,-1.0]" : 0.6888201883010454,
    "[-1.0,-1.0,1.0,-1.0,1.0,-1.0,1.0,1.0,0.0]" : 0.6885086969832336,
    "[0.0,-1.0,1.0,-1.0,1.0,0.0,1.0,-1.0,0.0]" : 0.688196893862286,
    "[1.0,0.0,0.0,-1.0,1.0,0.0,-1.0,0.0,1.0]" : 0.6875723509622101,
    "[1.0,1.0,1.0,-1.0,0.0,-1.0,0.0,-1.0,1.0]" : 0.6869465571001446,
    "[1.0,1.0,1.0,-1.0,-1.0,0.0,0.0,1.0,-1.0]" : 0.6869465571001446,
    "[-1.0,0.0,1.0,-1.0,1.0,0.0,1.0,-1.0,1.0]" : 0.6860055152707643,
    "[-1.0,0.0,1.0,-1.0,1.0,1.0,1.0,-1.0,-1.0]" : 0.6860055152707643,
    "[1.0,-1.0,1.0,-1.0,0.0,1.0,0.0,-1.0,1.0]" : 0.6856912064622976,
    "[-1.0,1.0,1.0,-1.0,1.0,0.0,1.0,0.0,-1.0]" : 0.6856912064622976,
    "[1.0,1.0,-1.0,0.0,1.0,-1.0,-1.0,-1.0,1.0]" : 0.6856912064622976,
    "[0.0,-1.0,1.0,1.0,-1.0,1.0,-1.0,0.0,1.0]" : 0.6856912064622976,
    "[1.0,1.0,1.0,0.0,-1.0,0.0,0.0,-1.0,0.0]" : 0.6850616446600855,
    "[0.0,1.0,0.0,-1.0,1.0,-1.0,0.0,1.0,0.0]" : 0.6850616446600855,
    "[1.0,-1.0,-1.0,-1.0,1.0,1.0,-1.0,0.0,1.0]" : 0.6850616446600855,
    "[1.0,1.0,1.0,-1.0,-1.0,0.0,-1.0,-1.0,1.0]" : 0.6847463910361479,
    "[0.0,1.0,1.0,-1.0,1.0,-1.0,1.0,-1.0,0.0]" : 0.6844308218430022,
    "[1.0,0.0,-1.0,1.0,1.0,-1.0,-1.0,-1.0,1.0]" : 0.6844308218430022,
    "[0.0,-1.0,1.0,0.0,1.0,0.0,1.0,-1.0,0.0]" : 0.6844308218430022,
    "[1.0,0.0,1.0,1.0,-1.0,-1.0,1.0,-1.0,-1.0]" : 0.6841149367647632,
    "[-1.0,-1.0,1.0,1.0,1.0,-1.0,1.0,-1.0,0.0]" : 0.6837987354852296,
    "[1.0,1.0,1.0,-1.0,-1.0,0.0,0.0,0.0,0.0]" : 0.6834822176878838,
    "[-1.0,-1.0,1.0,1.0,1.0,-1.0,1.0,0.0,-1.0]" : 0.6834822176878838,
    "[0.0,-1.0,1.0,0.0,1.0,-1.0,1.0,-1.0,0.0]" : 0.6834822176878838,
    "[1.0,0.0,0.0,0.0,1.0,-1.0,0.0,-1.0,1.0]" : 0.6831653830558908,
    "[1.0,0.0,0.0,-1.0,1.0,-1.0,0.0,-1.0,1.0]" : 0.6831653830558908,
    "[0.0,-1.0,1.0,-1.0,1.0,-1.0,1.0,0.0,0.0]" : 0.6831653830558908,
    "[-1.0,0.0,1.0,1.0,-1.0,1.0,0.0,-1.0,1.0]" : 0.6831653830558908,
    "[1.0,-1.0,0.0,0.0,1.0,0.0,-1.0,-1.0,1.0]" : 0.6825307620190391,
    "[1.0,-1.0,-1.0,-1.0,1.0,0.0,1.0,0.0,1.0]" : 0.6825307620190391,
    "[-1.0,1.0,0.0,0.0,-1.0,-1.0,1.0,1.0,1.0]" : 0.6822129749789239,
    "[0.0,0.0,1.0,-1.0,1.0,-1.0,1.0,-1.0,0.0]" : 0.6818948698336483,
    "[1.0,1.0,1.0,0.0,-1.0,-1.0,1.0,-1.0,-1.0]" : 0.6818948698336483,
    "[-1.0,-1.0,0.0,1.0,1.0,1.0,-1.0,1.0,0.0]" : 0.6818948698336483,
    "[1.0,1.0,1.0,0.0,-1.0,-1.0,0.0,-1.0,0.0]" : 0.6818948698336483,
    "[1.0,1.0,1.0,-1.0,0.0,0.0,-1.0,0.0,0.0]" : 0.6815764462647889,
    "[1.0,0.0,0.0,-1.0,1.0,-1.0,-1.0,0.0,1.0]" : 0.681257703953603,
    "[1.0,0.0,-1.0,-1.0,1.0,1.0,-1.0,0.0,1.0]" : 0.681257703953603,
    "[1.0,-1.0,-1.0,0.0,1.0,0.0,0.0,-1.0,1.0]" : 0.681257703953603,
    "[1.0,-1.0,1.0,0.0,1.0,-1.0,1.0,0.0,-1.0]" : 0.6806192618276874,
    "[1.0,0.0,0.0,-1.0,1.0,-1.0,0.0,0.0,1.0]" : 0.6806192618276874,
    "[1.0,-1.0,-1.0,1.0,-1.0,-1.0,1.0,0.0,1.0]" : 0.6802995613738763,
    "[0.0,-1.0,1.0,1.0,1.0,1.0,0.0,-1.0,-1.0]" : 0.679338538607822,
    "[1.0,1.0,-1.0,-1.0,1.0,-1.0,0.0,-1.0,1.0]" : 0.679338538607822,
    "[-1.0,-1.0,1.0,1.0,1.0,0.0,1.0,0.0,-1.0]" : 0.679338538607822,
    "[1.0,-1.0,-1.0,1.0,-1.0,-1.0,1.0,1.0,0.0]" : 0.679338538607822,
    "[1.0,-1.0,0.0,0.0,1.0,-1.0,0.0,-1.0,1.0]" : 0.6790175561487248,
    "[1.0,1.0,-1.0,-1.0,1.0,-1.0,-1.0,0.0,1.0]" : 0.6783746269975707,
    "[1.0,0.0,-1.0,1.0,1.0,0.0,1.0,-1.0,-1.0]" : 0.6780526796619409,
    "[1.0,-1.0,0.0,-1.0,1.0,0.0,0.0,-1.0,1.0]" : 0.6777304100566907,
    "[1.0,-1.0,-1.0,0.0,1.0,0.0,-1.0,1.0,1.0]" : 0.6777304100566907,
    "[0.0,-1.0,-1.0,0.0,-1.0,1.0,1.0,1.0,1.0]" : 0.6774078178592275,
    "[-1.0,-1.0,1.0,-1.0,0.0,1.0,1.0,-1.0,1.0]" : 0.6770849027466366,
    "[0.0,0.0,0.0,-1.0,0.0,-1.0,1.0,1.0,1.0]" : 0.6770849027466366,
    "[-1.0,-1.0,1.0,0.0,1.0,-1.0,1.0,1.0,-1.0]" : 0.6764381024827938,
    "[-1.0,1.0,0.0,0.0,1.0,1.0,-1.0,1.0,-1.0]" : 0.6761142166840941,
    "[1.0,-1.0,-1.0,-1.0,1.0,0.0,-1.0,1.0,1.0]" : 0.6757900066753704,
    "[1.0,-1.0,0.0,-1.0,1.0,-1.0,0.0,0.0,1.0]" : 0.6757900066753704,
    "[1.0,0.0,1.0,0.0,1.0,-1.0,-1.0,-1.0,1.0]" : 0.6757900066753704,
    "[0.0,0.0,1.0,0.0,1.0,-1.0,1.0,-1.0,-1.0]" : 0.6754654721320879,
    "[1.0,-1.0,0.0,1.0,0.0,0.0,1.0,-1.0,0.0]" : 0.6744899180446676,
    "[0.0,-1.0,-1.0,1.0,1.0,1.0,-1.0,-1.0,1.0]" : 0.6744899180446676,
    "[-1.0,-1.0,1.0,0.0,1.0,1.0,-1.0,0.0,1.0]" : 0.6741640821113025,
    "[1.0,1.0,1.0,-1.0,-1.0,0.0,0.0,-1.0,0.0]" : 0.6741640821113025,
    "[0.0,-1.0,1.0,-1.0,1.0,-1.0,1.0,1.0,-1.0]" : 0.6738379200158264,
    "[0.0,-1.0,1.0,0.0,1.0,0.0,1.0,0.0,-1.0]" : 0.6738379200158264,
    "[1.0,0.0,-1.0,-1.0,1.0,-1.0,-1.0,1.0,1.0]" : 0.6735114314317509,
    "[0.0,-1.0,1.0,-1.0,1.0,1.0,1.0,-1.0,-1.0]" : 0.6735114314317509,
    "[1.0,1.0,1.0,-1.0,-1.0,1.0,-1.0,-1.0,0.0]" : 0.6735114314317509,
    "[1.0,-1.0,-1.0,0.0,1.0,1.0,-1.0,0.0,1.0]" : 0.6731846160322602,
    "[-1.0,-1.0,0.0,-1.0,0.0,1.0,1.0,1.0,1.0]" : 0.672857473490212,
    "[1.0,1.0,0.0,1.0,0.0,-1.0,1.0,-1.0,-1.0]" : 0.6725300034781361,
    "[1.0,1.0,-1.0,0.0,1.0,0.0,-1.0,-1.0,1.0]" : 0.6725300034781361,
    "[-1.0,-1.0,1.0,1.0,1.0,0.0,1.0,-1.0,-1.0]" : 0.6725300034781361,
    "[1.0,1.0,1.0,0.0,-1.0,1.0,0.0,-1.0,-1.0]" : 0.6722022056682347,
    "[1.0,1.0,0.0,-1.0,1.0,-1.0,0.0,1.0,-1.0]" : 0.6722022056682347,
    "[-1.0,1.0,0.0,1.0,1.0,1.0,-1.0,-1.0,0.0]" : 0.671874079732382,
    "[0.0,0.0,1.0,-1.0,-1.0,1.0,0.0,-1.0,1.0]" : 0.671874079732382,
    "[-1.0,-1.0,1.0,-1.0,-1.0,0.0,1.0,1.0,1.0]" : 0.6712168421686757,
    "[-1.0,-1.0,1.0,-1.0,1.0,0.0,1.0,0.0,0.0]" : 0.6708877298829267,
    "[0.0,-1.0,1.0,-1.0,-1.0,1.0,0.0,0.0,1.0]" : 0.6708877298829267,
    "[1.0,1.0,1.0,1.0,-1.0,0.0,-1.0,-1.0,0.0]" : 0.6705582881554345,
    "[-1.0,-1.0,1.0,0.0,1.0,1.0,1.0,-1.0,-1.0]" : 0.6702285166564276,
    "[0.0,-1.0,-1.0,0.0,-1.0,0.0,1.0,1.0,1.0]" : 0.6702285166564276,
    "[1.0,1.0,-1.0,0.0,1.0,-1.0,-1.0,0.0,1.0]" : 0.6698984150558044,
    "[-1.0,1.0,1.0,-1.0,1.0,-1.0,1.0,0.0,-1.0]" : 0.6698984150558044,
    "[-1.0,-1.0,0.0,1.0,-1.0,0.0,1.0,1.0,1.0]" : 0.6698984150558044,
    "[0.0,-1.0,0.0,0.0,-1.0,-1.0,1.0,1.0,1.0]" : 0.6698984150558044,
    "[1.0,0.0,0.0,1.0,-1.0,-1.0,1.0,1.0,-1.0]" : 0.6698984150558044,
    "[1.0,-1.0,-1.0,1.0,0.0,-1.0,1.0,1.0,0.0]" : 0.6692372202276501,
    "[1.0,0.0,0.0,-1.0,1.0,0.0,-1.0,-1.0,1.0]" : 0.6689061263382622,
    "[0.0,1.0,0.0,-1.0,1.0,1.0,-1.0,1.0,-1.0]" : 0.6689061263382622,
    "[-1.0,0.0,-1.0,1.0,1.0,1.0,-1.0,1.0,0.0]" : 0.668242943951738,
    "[1.0,0.0,0.0,0.0,1.0,-1.0,-1.0,0.0,1.0]" : 0.6679108547907554,
    "[1.0,1.0,1.0,0.0,-1.0,0.0,-1.0,-1.0,0.0]" : 0.6679108547907554,
    "[-1.0,0.0,1.0,-1.0,-1.0,1.0,1.0,0.0,1.0]" : 0.6675784332081744,
    "[0.0,0.0,1.0,-1.0,-1.0,1.0,-1.0,1.0,1.0]" : 0.6675784332081744,
    "[-1.0,1.0,1.0,-1.0,-1.0,1.0,0.0,0.0,1.0]" : 0.6669125914468668,
    "[1.0,-1.0,-1.0,-1.0,1.0,1.0,0.0,-1.0,1.0]" : 0.666245416001781,
    "[0.0,-1.0,0.0,-1.0,-1.0,0.0,1.0,1.0,1.0]" : 0.6659113273132259,
    "[1.0,0.0,-1.0,1.0,-1.0,1.0,1.0,-1.0,0.0]" : 0.6645716249784749,
    "[0.0,1.0,-1.0,1.0,1.0,1.0,-1.0,0.0,-1.0]" : 0.6645716249784749,
    "[1.0,1.0,1.0,0.0,-1.0,-1.0,-1.0,1.0,0.0]" : 0.6645716249784749,
    "[0.0,-1.0,-1.0,1.0,1.0,1.0,0.0,1.0,-1.0]" : 0.6638997605679543,
    "[1.0,-1.0,-1.0,0.0,1.0,-1.0,0.0,0.0,1.0]" : 0.6635633238758503,
    "[-1.0,0.0,1.0,-1.0,1.0,0.0,1.0,-1.0,0.0]" : 0.6635633238758503,
    "[-1.0,-1.0,1.0,0.0,-1.0,0.0,1.0,1.0,1.0]" : 0.6628894398340869,
    "[1.0,1.0,-1.0,1.0,-1.0,-1.0,1.0,0.0,0.0]" : 0.6628894398340869,
    "[-1.0,0.0,-1.0,1.0,1.0,1.0,0.0,1.0,-1.0]" : 0.6628894398340869,
    "[-1.0,0.0,1.0,-1.0,1.0,0.0,1.0,0.0,-1.0]" : 0.6625519918098688,
    "[-1.0,1.0,0.0,-1.0,1.0,-1.0,0.0,1.0,1.0]" : 0.6618760820658304,
    "[-1.0,-1.0,1.0,1.0,1.0,-1.0,1.0,0.0,0.0]" : 0.6618760820658304,
    "[0.0,1.0,-1.0,-1.0,-1.0,0.0,1.0,1.0,1.0]" : 0.6611988184718033,
    "[1.0,-1.0,0.0,1.0,-1.0,1.0,1.0,0.0,-1.0]" : 0.6608596781338288,
    "[1.0,0.0,-1.0,0.0,1.0,-1.0,0.0,-1.0,1.0]" : 0.6608596781338288,
    "[1.0,1.0,1.0,-1.0,0.0,-1.0,0.0,1.0,-1.0]" : 0.6601803786785585,
    "[-1.0,0.0,1.0,-1.0,-1.0,1.0,0.0,0.0,1.0]" : 0.6601803786785585,
    "[1.0,-1.0,0.0,1.0,-1.0,-1.0,1.0,1.0,-1.0]" : 0.6601803786785585,
    "[1.0,1.0,-1.0,1.0,-1.0,-1.0,1.0,-1.0,0.0]" : 0.6598402188812831,
    "[1.0,1.0,1.0,-1.0,1.0,0.0,0.0,-1.0,-1.0]" : 0.6594997185836938,
    "[-1.0,-1.0,0.0,0.0,1.0,-1.0,1.0,1.0,1.0]" : 0.6591588774449497,
    "[1.0,1.0,1.0,0.0,-1.0,-1.0,0.0,0.0,-1.0]" : 0.6591588774449497,
    "[0.0,-1.0,1.0,-1.0,-1.0,1.0,-1.0,1.0,1.0]" : 0.6591588774449497,
    "[-1.0,1.0,0.0,-1.0,0.0,-1.0,1.0,1.0,1.0]" : 0.6584761712789258,
    "[0.0,1.0,-1.0,1.0,1.0,1.0,0.0,-1.0,-1.0]" : 0.6581343055682563,
    "[1.0,0.0,-1.0,1.0,1.0,-1.0,1.0,-1.0,0.0]" : 0.6581343055682563,
    "[-1.0,0.0,1.0,-1.0,1.0,0.0,1.0,1.0,-1.0]" : 0.6577920976496519,
    "[1.0,0.0,-1.0,0.0,1.0,-1.0,-1.0,1.0,1.0]" : 0.6574495471805621,
    "[-1.0,0.0,-1.0,-1.0,-1.0,1.0,1.0,1.0,1.0]" : 0.6574495471805621,
    "[-1.0,1.0,1.0,-1.0,1.0,-1.0,1.0,-1.0,0.0]" : 0.6571066538180936,
    "[-1.0,-1.0,1.0,0.0,0.0,1.0,1.0,-1.0,1.0]" : 0.6564198370397303,
    "[0.0,0.0,1.0,-1.0,-1.0,1.0,-1.0,0.0,1.0]" : 0.6557316445645437,
    "[1.0,-1.0,-1.0,1.0,1.0,0.0,-1.0,0.0,1.0]" : 0.6553870315797552,
    "[1.0,-1.0,0.0,1.0,1.0,-1.0,-1.0,-1.0,1.0]" : 0.6543511214960762,
    "[1.0,0.0,0.0,0.0,1.0,-1.0,-1.0,-1.0,1.0]" : 0.6543511214960762,
    "[0.0,-1.0,1.0,0.0,1.0,-1.0,1.0,0.0,-1.0]" : 0.6540051266062485,
    "[1.0,-1.0,0.0,0.0,-1.0,-1.0,1.0,1.0,1.0]" : 0.6536587853751734,
    "[1.0,-1.0,0.0,-1.0,1.0,-1.0,-1.0,1.0,1.0]" : 0.6529650625021817,
    "[1.0,1.0,1.0,0.0,-1.0,0.0,0.0,-1.0,-1.0]" : 0.6529650625021817,
    "[-1.0,-1.0,0.0,1.0,-1.0,-1.0,1.0,1.0,1.0]" : 0.6522699500994309,
    "[-1.0,-1.0,1.0,0.0,1.0,1.0,1.0,0.0,-1.0]" : 0.651921871954853,
    "[0.0,-1.0,1.0,-1.0,-1.0,1.0,1.0,0.0,1.0]" : 0.651921871954853,
    "[1.0,0.0,1.0,-1.0,-1.0,1.0,0.0,-1.0,1.0]" : 0.6515734453836872,
    "[1.0,0.0,1.0,1.0,-1.0,-1.0,1.0,-1.0,0.0]" : 0.6515734453836872,
    "[0.0,0.0,1.0,-1.0,1.0,0.0,1.0,-1.0,-1.0]" : 0.6512246700371584,
    "[1.0,1.0,1.0,-1.0,-1.0,1.0,-1.0,0.0,-1.0]" : 0.6512246700371584,
    "[-1.0,1.0,1.0,-1.0,-1.0,1.0,0.0,-1.0,1.0]" : 0.650875545566142,
    "[-1.0,-1.0,1.0,0.0,-1.0,1.0,-1.0,1.0,1.0]" : 0.650526071621164,
    "[-1.0,1.0,1.0,0.0,-1.0,1.0,-1.0,-1.0,1.0]" : 0.650526071621164,
    "[0.0,0.0,-1.0,0.0,-1.0,-1.0,1.0,1.0,1.0]" : 0.6494755494424714,
    "[1.0,-1.0,-1.0,1.0,-1.0,0.0,1.0,1.0,-1.0]" : 0.6491246740999057,
    "[-1.0,-1.0,1.0,0.0,1.0,-1.0,1.0,0.0,0.0]" : 0.648773447530754,
    "[0.0,-1.0,1.0,-1.0,1.0,0.0,1.0,0.0,-1.0]" : 0.648773447530754,
    "[0.0,0.0,1.0,-1.0,1.0,-1.0,1.0,-1.0,1.0]" : 0.6484218693834384,
    "[1.0,0.0,0.0,1.0,-1.0,0.0,1.0,-1.0,-1.0]" : 0.6484218693834384,
    "[0.0,-1.0,-1.0,-1.0,-1.0,1.0,1.0,1.0,1.0]" : 0.6484218693834384,
    "[1.0,1.0,1.0,1.0,-1.0,0.0,0.0,-1.0,-1.0]" : 0.6477176569462424,
    "[0.0,-1.0,1.0,-1.0,-1.0,1.0,0.0,1.0,1.0]" : 0.6477176569462424,
    "[1.0,-1.0,-1.0,-1.0,1.0,0.0,0.0,0.0,1.0]" : 0.6477176569462424,
    "[1.0,-1.0,1.0,-1.0,1.0,0.0,1.0,-1.0,0.0]" : 0.6473650219514445,
    "[0.0,0.0,1.0,-1.0,0.0,1.0,0.0,-1.0,1.0]" : 0.6466586926445088,
    "[1.0,-1.0,-1.0,1.0,-1.0,0.0,1.0,0.0,0.0]" : 0.6466586926445088,
    "[0.0,0.0,0.0,-1.0,1.0,1.0,0.0,-1.0,1.0]" : 0.6452431557470802,
    "[1.0,1.0,-1.0,0.0,1.0,-1.0,0.0,-1.0,1.0]" : 0.6452417868553325,
    "[1.0,1.0,-1.0,1.0,-1.0,0.0,1.0,-1.0,-1.0]" : 0.6452417868553325,
    "[1.0,0.0,-1.0,1.0,-1.0,0.0,1.0,0.0,-1.0]" : 0.6452417868553325,
    "[-1.0,-1.0,0.0,0.0,-1.0,0.0,1.0,1.0,1.0]" : 0.6448866735119775,
    "[-1.0,0.0,1.0,0.0,1.0,-1.0,1.0,-1.0,0.0]" : 0.6441753800629556,
    "[0.0,-1.0,1.0,-1.0,1.0,1.0,-1.0,-1.0,1.0]" : 0.6438191992452832,
    "[-1.0,0.0,-1.0,1.0,-1.0,-1.0,1.0,1.0,1.0]" : 0.6438191992452832,
    "[1.0,1.0,1.0,-1.0,0.0,0.0,0.0,-1.0,0.0]" : 0.6427485161400998,
    "[0.0,0.0,1.0,0.0,-1.0,1.0,-1.0,-1.0,1.0]" : 0.6427485161400998,
    "[-1.0,0.0,0.0,-1.0,-1.0,0.0,1.0,1.0,1.0]" : 0.6427485161400998,
    "[1.0,1.0,1.0,-1.0,-1.0,1.0,0.0,-1.0,-1.0]" : 0.6427485161400998,
    "[1.0,-1.0,0.0,-1.0,1.0,0.0,-1.0,0.0,1.0]" : 0.6423909070301443,
    "[1.0,1.0,1.0,1.0,0.0,-1.0,-1.0,0.0,-1.0]" : 0.6423909070301443,
    "[0.0,-1.0,1.0,0.0,1.0,-1.0,1.0,1.0,-1.0]" : 0.641674614550626,
    "[-1.0,0.0,1.0,-1.0,-1.0,0.0,1.0,1.0,1.0]" : 0.6413159304640534,
    "[-1.0,0.0,1.0,0.0,1.0,-1.0,1.0,0.0,-1.0]" : 0.6409568873343341,
    "[1.0,1.0,1.0,0.0,-1.0,-1.0,1.0,-1.0,0.0]" : 0.6405974848020655,
    "[1.0,1.0,1.0,-1.0,-1.0,0.0,-1.0,0.0,0.0]" : 0.6405974848020655,
    "[0.0,0.0,-1.0,1.0,1.0,1.0,-1.0,1.0,-1.0]" : 0.6405974848020655,
    "[0.0,-1.0,-1.0,1.0,1.0,1.0,0.0,0.0,-1.0]" : 0.6405974848020655,
    "[1.0,-1.0,-1.0,1.0,1.0,0.0,-1.0,-1.0,1.0]" : 0.6402377225074851,
    "[1.0,-1.0,0.0,0.0,1.0,-1.0,-1.0,0.0,1.0]" : 0.6402377225074851,
    "[-1.0,-1.0,0.0,1.0,1.0,1.0,0.0,-1.0,1.0]" : 0.6402377225074851,
    "[-1.0,1.0,0.0,-1.0,1.0,-1.0,1.0,1.0,-1.0]" : 0.6398776000904707,
    "[-1.0,0.0,1.0,0.0,1.0,0.0,1.0,-1.0,-1.0]" : 0.6398776000904707,
    "[-1.0,0.0,-1.0,0.0,-1.0,0.0,1.0,1.0,1.0]" : 0.6395171171905392,
    "[0.0,0.0,-1.0,-1.0,0.0,-1.0,1.0,1.0,1.0]" : 0.6387950684981888,
    "[1.0,1.0,1.0,0.0,-1.0,-1.0,0.0,-1.0,1.0]" : 0.6384335019829983,
    "[0.0,-1.0,1.0,1.0,1.0,1.0,-1.0,-1.0,0.0]" : 0.6384335019829983,
    "[1.0,0.0,-1.0,0.0,1.0,-1.0,-1.0,0.0,1.0]" : 0.638071573539347,
    "[1.0,-1.0,0.0,-1.0,-1.0,0.0,1.0,1.0,1.0]" : 0.638071573539347,
    "[-1.0,-1.0,1.0,0.0,0.0,1.0,-1.0,1.0,1.0]" : 0.6369836130129066,
    "[-1.0,1.0,-1.0,1.0,1.0,1.0,0.0,0.0,-1.0]" : 0.6369836130129066,
    "[1.0,0.0,-1.0,-1.0,1.0,0.0,0.0,-1.0,1.0]" : 0.6366202332288758,
    "[0.0,1.0,0.0,-1.0,1.0,-1.0,-1.0,1.0,1.0]" : 0.6362564897013002,
    "[-1.0,-1.0,1.0,0.0,-1.0,1.0,0.0,0.0,1.0]" : 0.6362564897013002,
    "[1.0,0.0,0.0,1.0,-1.0,-1.0,1.0,-1.0,1.0]" : 0.6362564897013002,
    "[1.0,1.0,1.0,-1.0,0.0,-1.0,0.0,0.0,-1.0]" : 0.6362564897013002,
    "[-1.0,1.0,-1.0,-1.0,1.0,-1.0,0.0,1.0,1.0]" : 0.6362564897013002,
    "[0.0,0.0,-1.0,1.0,1.0,1.0,0.0,-1.0,-1.0]" : 0.6362564897013002,
    "[0.0,1.0,0.0,0.0,1.0,-1.0,-1.0,1.0,-1.0]" : 0.6358923820660721,
    "[1.0,1.0,1.0,0.0,-1.0,0.0,-1.0,0.0,-1.0]" : 0.6355279099587193,
    "[1.0,0.0,-1.0,-1.0,0.0,-1.0,1.0,1.0,1.0]" : 0.6347978708679266,
    "[1.0,-1.0,1.0,-1.0,-1.0,1.0,0.0,0.0,1.0]" : 0.6344323031537168,
    "[-1.0,-1.0,1.0,0.0,1.0,0.0,1.0,0.0,-1.0]" : 0.6344323031537168,
    "[-1.0,0.0,0.0,1.0,1.0,1.0,-1.0,-1.0,0.0]" : 0.6344323031537168,
    "[0.0,-1.0,1.0,-1.0,1.0,1.0,1.0,-1.0,0.0]" : 0.6340663695058417,
    "[-1.0,1.0,-1.0,1.0,1.0,1.0,-1.0,0.0,0.0]" : 0.6333334029435292,
    "[-1.0,0.0,0.0,-1.0,0.0,-1.0,1.0,1.0,1.0]" : 0.6325989682461871,
    "[-1.0,-1.0,0.0,-1.0,0.0,0.0,1.0,1.0,1.0]" : 0.6325989682461871,
    "[0.0,1.0,0.0,-1.0,1.0,0.0,-1.0,1.0,-1.0]" : 0.6325989682461871,
    "[-1.0,0.0,1.0,0.0,-1.0,1.0,-1.0,0.0,1.0]" : 0.6318630624731347,
    "[1.0,1.0,1.0,0.0,-1.0,-1.0,-1.0,0.0,0.0]" : 0.6318630624731347,
    "[0.0,-1.0,-1.0,1.0,1.0,1.0,1.0,-1.0,0.0]" : 0.6314945570126443,
    "[0.0,-1.0,-1.0,1.0,1.0,1.0,0.0,-1.0,1.0]" : 0.6307564390993627,
    "[1.0,0.0,-1.0,0.0,1.0,0.0,-1.0,-1.0,1.0]" : 0.6307564390993627,
    "[1.0,0.0,-1.0,-1.0,1.0,0.0,-1.0,0.0,1.0]" : 0.6303868259077148,
    "[1.0,0.0,-1.0,1.0,1.0,1.0,0.0,-1.0,-1.0]" : 0.6292757649518315,
    "[1.0,-1.0,-1.0,1.0,0.0,0.0,1.0,-1.0,0.0]" : 0.6292757649518315,
    "[-1.0,-1.0,0.0,1.0,1.0,1.0,-1.0,0.0,0.0]" : 0.6292757649518315,
    "[0.0,-1.0,-1.0,0.0,0.0,-1.0,1.0,1.0,1.0]" : 0.6289046696038092,
    "[-1.0,-1.0,1.0,0.0,0.0,1.0,0.0,-1.0,1.0]" : 0.6289046696038092,
    "[-1.0,1.0,-1.0,-1.0,1.0,-1.0,1.0,1.0,0.0]" : 0.6289046696038092,
    "[1.0,-1.0,-1.0,1.0,0.0,-1.0,1.0,0.0,0.0]" : 0.6285332027889544,
    "[1.0,-1.0,-1.0,0.0,1.0,0.0,-1.0,0.0,1.0]" : 0.6285332027889544,
    "[-1.0,1.0,-1.0,-1.0,0.0,0.0,1.0,1.0,1.0]" : 0.6281613641354284,
    "[-1.0,0.0,1.0,0.0,0.0,1.0,-1.0,-1.0,1.0]" : 0.6281613641354284,
    "[1.0,0.0,0.0,1.0,0.0,-1.0,1.0,-1.0,-1.0]" : 0.6281613641354284,
    "[0.0,0.0,1.0,-1.0,0.0,1.0,-1.0,-1.0,1.0]" : 0.6277891532710204,
    "[1.0,1.0,1.0,-1.0,0.0,0.0,-1.0,-1.0,0.0]" : 0.6274165698231468,
    "[1.0,1.0,1.0,0.0,0.0,-1.0,0.0,-1.0,-1.0]" : 0.6270436134188512,
    "[-1.0,0.0,-1.0,0.0,0.0,-1.0,1.0,1.0,1.0]" : 0.6266702836848038,
    "[1.0,1.0,-1.0,-1.0,1.0,-1.0,0.0,1.0,0.0]" : 0.6266702836848038,
    "[1.0,1.0,1.0,0.0,0.0,-1.0,-1.0,0.0,-1.0]" : 0.6266702836848038,
    "[1.0,0.0,-1.0,1.0,-1.0,0.0,1.0,-1.0,0.0]" : 0.6266702836848038,
    "[1.0,-1.0,-1.0,1.0,0.0,0.0,1.0,0.0,-1.0]" : 0.6262965802473012,
    "[-1.0,1.0,0.0,1.0,1.0,1.0,-1.0,0.0,-1.0]" : 0.6262965802473012,
    "[0.0,1.0,-1.0,-1.0,1.0,0.0,0.0,1.0,-1.0]" : 0.6262965802473012,
    "[0.0,0.0,-1.0,1.0,1.0,1.0,-1.0,0.0,-1.0]" : 0.6262965802473012,
    "[1.0,1.0,1.0,-1.0,0.0,-1.0,-1.0,0.0,0.0]" : 0.6259225027322657,
    "[-1.0,-1.0,1.0,-1.0,0.0,1.0,0.0,0.0,1.0]" : 0.6259225027322657,
    "[-1.0,1.0,-1.0,0.0,0.0,-1.0,1.0,1.0,1.0]" : 0.6255480507652454,
    "[-1.0,1.0,-1.0,0.0,1.0,-1.0,0.0,1.0,0.0]" : 0.6255480507652454,
    "[1.0,0.0,-1.0,-1.0,1.0,-1.0,1.0,0.0,1.0]" : 0.6251732239714135,
    "[0.0,0.0,-1.0,-1.0,-1.0,0.0,1.0,1.0,1.0]" : 0.6251732239714135,
    "[-1.0,1.0,0.0,0.0,1.0,0.0,-1.0,1.0,-1.0]" : 0.6251732239714135,
    "[0.0,-1.0,1.0,0.0,0.0,1.0,-1.0,-1.0,1.0]" : 0.6247980219755679,
    "[0.0,1.0,0.0,1.0,0.0,0.0,-1.0,-1.0,1.0]" : 0.6245178519881338,
    "[0.0,-1.0,-1.0,1.0,1.0,1.0,1.0,0.0,-1.0]" : 0.624422444402131,
    "[0.0,1.0,1.0,-1.0,1.0,0.0,-1.0,1.0,-1.0]" : 0.624422444402131,
    "[1.0,0.0,-1.0,1.0,0.0,0.0,1.0,-1.0,-1.0]" : 0.624422444402131,
    "[-1.0,0.0,-1.0,-1.0,0.0,0.0,1.0,1.0,1.0]" : 0.624422444402131,
    "[1.0,1.0,1.0,-1.0,-1.0,0.0,0.0,0.0,-1.0]" : 0.624422444402131,
    "[1.0,-1.0,0.0,1.0,0.0,0.0,1.0,-1.0,-1.0]" : 0.6240464908751493,
    "[0.0,-1.0,1.0,1.0,-1.0,-1.0,1.0,1.0,0.0]" : 0.6240464908751493,
    "[1.0,1.0,0.0,0.0,1.0,-1.0,-1.0,1.0,-1.0]" : 0.6229163708077523,
    "[-1.0,-1.0,1.0,0.0,-1.0,1.0,0.0,1.0,1.0]" : 0.6229163708077523,
    "[0.0,-1.0,0.0,1.0,1.0,1.0,0.0,-1.0,-1.0]" : 0.6229163708077523,
    "[1.0,0.0,1.0,-1.0,0.0,0.0,-1.0,1.0,0.0]" : 0.622741080050345,
    "[-1.0,1.0,-1.0,-1.0,1.0,1.0,0.0,1.0,-1.0]" : 0.6225389096995234,
    "[-1.0,-1.0,1.0,0.0,0.0,1.0,-1.0,0.0,1.0]" : 0.6221610707523294,
    "[1.0,1.0,1.0,-1.0,0.0,0.0,-1.0,0.0,-1.0]" : 0.6221610707523294,
    "[0.0,1.0,-1.0,-1.0,0.0,-1.0,1.0,1.0,1.0]" : 0.621782853587953,
    "[0.0,-1.0,0.0,1.0,1.0,1.0,-1.0,0.0,-1.0]" : 0.621782853587953,
    "[-1.0,0.0,0.0,1.0,1.0,1.0,-1.0,0.0,-1.0]" : 0.6210252830928911,
    "[-1.0,0.0,0.0,1.0,1.0,1.0,0.0,-1.0,-1.0]" : 0.6202661951810212,
    "[1.0,0.0,1.0,0.0,1.0,-1.0,-1.0,0.0,0.0]" : 0.6200487542401714,
    "[-1.0,1.0,0.0,0.0,1.0,-1.0,-1.0,1.0,0.0]" : 0.619886081244211,
    "[-1.0,1.0,-1.0,-1.0,1.0,0.0,0.0,1.0,0.0]" : 0.6195055868129514,
    "[0.0,-1.0,-1.0,1.0,1.0,1.0,1.0,-1.0,-1.0]" : 0.6195055868129514,
    "[-1.0,0.0,-1.0,1.0,1.0,1.0,-1.0,0.0,0.0]" : 0.6191247115063672,
    "[0.0,1.0,1.0,-1.0,1.0,-1.0,-1.0,1.0,0.0]" : 0.6191247115063672,
    "[-1.0,-1.0,0.0,1.0,1.0,1.0,0.0,-1.0,0.0]" : 0.6175973938959245,
    "[1.0,-1.0,0.0,1.0,-1.0,0.0,1.0,0.0,-1.0]" : 0.6175973938959245,
    "[0.0,0.0,-1.0,1.0,0.0,-1.0,0.0,1.0,1.0]" : 0.6171470286196211,
    "[-1.0,0.0,-1.0,1.0,1.0,1.0,0.0,0.0,-1.0]" : 0.6168314399079379,
    "[0.0,-1.0,-1.0,1.0,1.0,1.0,0.0,-1.0,0.0]" : 0.6164478877774976,
    "[1.0,-1.0,1.0,1.0,0.0,-1.0,1.0,-1.0,0.0]" : 0.6164478877774976,
    "[-1.0,0.0,0.0,-1.0,0.0,1.0,1.0,1.0,0.0]" : 0.6161104332283796,
    "[0.0,0.0,-1.0,-1.0,1.0,0.0,1.0,0.0,1.0]" : 0.6160881976525715,
    "[1.0,-1.0,-1.0,1.0,1.0,1.0,0.0,-1.0,-1.0]" : 0.6160639517109726,
    "[0.0,-1.0,1.0,-1.0,0.0,1.0,0.0,-1.0,1.0]" : 0.6156796313240425,
    "[-1.0,1.0,-1.0,0.0,1.0,0.0,0.0,1.0,-1.0]" : 0.615294926232002,
    "[0.0,1.0,0.0,-1.0,1.0,-1.0,0.0,1.0,-1.0]" : 0.615294926232002,
    "[0.0,1.0,1.0,0.0,1.0,-1.0,-1.0,1.0,-1.0]" : 0.6149098360497609,
    "[0.0,1.0,-1.0,-1.0,1.0,-1.0,0.0,1.0,0.0]" : 0.6149098360497609,
    "[1.0,-1.0,0.0,1.0,0.0,-1.0,1.0,-1.0,0.0]" : 0.6145243603918437,
    "[0.0,1.0,-1.0,0.0,1.0,0.0,-1.0,1.0,-1.0]" : 0.6145243603918437,
    "[1.0,1.0,0.0,1.0,-1.0,0.0,1.0,-1.0,-1.0]" : 0.6141384988723886,
    "[-1.0,1.0,-1.0,0.0,1.0,0.0,-1.0,1.0,0.0]" : 0.6141384988723886,
    "[0.0,1.0,-1.0,0.0,1.0,-1.0,-1.0,1.0,0.0]" : 0.6141384988723886,
    "[1.0,0.0,1.0,-1.0,0.0,1.0,-1.0,-1.0,1.0]" : 0.613752251105148,
    "[1.0,1.0,1.0,-1.0,0.0,-1.0,0.0,-1.0,0.0]" : 0.613752251105148,
    "[0.0,1.0,-1.0,-1.0,1.0,0.0,-1.0,1.0,0.0]" : 0.613752251105148,
    "[1.0,0.0,0.0,0.0,0.0,1.0,1.0,-1.0,-1.0]" : 0.613626352551984,
    "[1.0,-1.0,0.0,1.0,1.0,1.0,0.0,-1.0,-1.0]" : 0.6133656167034873,
    "[1.0,-1.0,-1.0,1.0,0.0,0.0,0.0,1.0,0.0]" : 0.6131364345402113,
    "[-1.0,-1.0,0.0,1.0,1.0,1.0,-1.0,1.0,-1.0]" : 0.6129785952803852,
    "[1.0,1.0,1.0,-1.0,0.0,0.0,0.0,-1.0,-1.0]" : 0.6129785952803852,
    "[1.0,-1.0,-1.0,0.0,0.0,1.0,1.0,0.0,0.0]" : 0.6128646092055551,
    "[0.0,1.0,-1.0,0.0,0.0,-1.0,1.0,0.0,1.0]" : 0.6126027233505311,
    "[1.0,0.0,-1.0,1.0,0.0,-1.0,1.0,-1.0,0.0]" : 0.6125911864484327,
    "[1.0,-1.0,0.0,-1.0,0.0,-1.0,1.0,1.0,1.0]" : 0.6122033898198331,
    "[-1.0,-1.0,1.0,0.0,1.0,0.0,1.0,-1.0,1.0]" : 0.6118152050064017,
    "[0.0,-1.0,0.0,-1.0,0.0,-1.0,1.0,1.0,1.0]" : 0.6118152050064017,
    "[-1.0,1.0,0.0,-1.0,1.0,-1.0,0.0,1.0,0.0]" : 0.6118152050064017,
    "[1.0,-1.0,-1.0,1.0,0.0,-1.0,1.0,0.0,1.0]" : 0.6118152050064017,
    "[-1.0,0.0,1.0,0.0,-1.0,1.0,0.0,-1.0,1.0]" : 0.6118152050064017,
    "[1.0,1.0,1.0,1.0,0.0,-1.0,0.0,-1.0,-1.0]" : 0.6118152050064017,
    "[-1.0,0.0,-1.0,1.0,1.0,1.0,0.0,-1.0,0.0]" : 0.6118152050064017,
    "[-1.0,1.0,0.0,0.0,1.0,-1.0,0.0,1.0,-1.0]" : 0.611426631619565,
    "[1.0,1.0,0.0,-1.0,0.0,1.0,-1.0,0.0,0.0]" : 0.6111136130196334,
    "[1.0,-1.0,0.0,0.0,1.0,0.0,1.0,0.0,-1.0]" : 0.6103214728213067,
    "[1.0,-1.0,0.0,1.0,1.0,0.0,-1.0,-1.0,1.0]" : 0.6094779224569832,
    "[-1.0,-1.0,1.0,-1.0,0.0,0.0,1.0,1.0,1.0]" : 0.6094779224569832,
    "[1.0,-1.0,0.0,-1.0,1.0,0.0,-1.0,1.0,1.0]" : 0.6094779224569832,
    "[0.0,-1.0,1.0,0.0,1.0,-1.0,0.0,0.0,1.0]" : 0.6093503197313429,
    "[0.0,-1.0,-1.0,-1.0,0.0,0.0,1.0,1.0,1.0]" : 0.6090870094478636,
    "[1.0,1.0,1.0,-1.0,0.0,0.0,-1.0,-1.0,1.0]" : 0.6086957051344121,
    "[1.0,1.0,1.0,0.0,0.0,-1.0,-1.0,-1.0,0.0]" : 0.6086957051344121,
    "[0.0,-1.0,0.0,1.0,1.0,1.0,-1.0,-1.0,0.0]" : 0.6086957051344121,
    "[0.0,0.0,-1.0,1.0,1.0,1.0,-1.0,-1.0,0.0]" : 0.6086957051344121,
    "[0.0,1.0,0.0,1.0,0.0,0.0,1.0,-1.0,-1.0]" : 0.6083568603338995,
    "[0.0,-1.0,-1.0,1.0,1.0,1.0,-1.0,0.0,0.0]" : 0.6083040091249324,
    "[-1.0,1.0,1.0,-1.0,1.0,0.0,1.0,-1.0,0.0]" : 0.6079119210273366,
    "[0.0,1.0,0.0,-1.0,1.0,-1.0,-1.0,1.0,0.0]" : 0.6079119210273366,
    "[-1.0,-1.0,0.0,1.0,1.0,1.0,0.0,0.0,-1.0]" : 0.6079119210273366,
    "[-1.0,0.0,1.0,-1.0,0.0,1.0,0.0,-1.0,1.0]" : 0.6079119210273366,
    "[0.0,1.0,-1.0,-1.0,1.0,1.0,-1.0,1.0,-1.0]" : 0.6079119210273366,
    "[0.0,0.0,0.0,0.0,1.0,-1.0,1.0,-1.0,1.0]" : 0.6063253258745711,
    "[0.0,-1.0,1.0,-1.0,0.0,1.0,-1.0,0.0,1.0]" : 0.6059455854670336,
    "[-1.0,1.0,0.0,-1.0,1.0,0.0,0.0,1.0,-1.0]" : 0.6059455854670336,
    "[0.0,0.0,1.0,-1.0,1.0,1.0,1.0,-1.0,-1.0]" : 0.6055511365848831,
    "[-1.0,-1.0,0.0,0.0,0.0,-1.0,1.0,1.0,1.0]" : 0.6039693886644665,
    "[0.0,-1.0,1.0,0.0,-1.0,1.0,-1.0,0.0,1.0]" : 0.6039693886644665,
    "[-1.0,1.0,0.0,1.0,1.0,-1.0,-1.0,1.0,-1.0]" : 0.6039693886644665,
    "[1.0,-1.0,0.0,1.0,0.0,-1.0,1.0,0.0,-1.0]" : 0.6035729616072445,
    "[0.0,0.0,0.0,-1.0,1.0,0.0,1.0,-1.0,1.0]" : 0.6029601894415759,
    "[1.0,-1.0,0.0,1.0,1.0,-1.0,0.0,-1.0,1.0]" : 0.6023812979028963,
    "[0.0,-1.0,1.0,-1.0,1.0,-1.0,1.0,1.0,0.0]" : 0.6023812979028963,
    "[1.0,-1.0,-1.0,1.0,0.0,-1.0,1.0,-1.0,1.0]" : 0.6019832811651566,
    "[0.0,1.0,0.0,0.0,0.0,1.0,-1.0,-1.0,1.0]" : 0.6017044284379308,
    "[0.0,1.0,1.0,-1.0,1.0,-1.0,-1.0,1.0,-1.0]" : 0.6011860520453478,
    "[-1.0,1.0,-1.0,1.0,1.0,1.0,0.0,-1.0,-1.0]" : 0.6007868388652514,
    "[-1.0,0.0,0.0,0.0,1.0,1.0,0.0,1.0,-1.0]" : 0.6000168383215859,
    "[-1.0,1.0,-1.0,1.0,1.0,-1.0,-1.0,1.0,0.0]" : 0.5999872132666102,
    "[-1.0,0.0,0.0,0.0,-1.0,-1.0,1.0,1.0,1.0]" : 0.5995868000476392,
    "[1.0,-1.0,1.0,0.0,1.0,-1.0,0.0,0.0,0.0]" : 0.598351073658197,
    "[1.0,0.0,0.0,-1.0,1.0,0.0,1.0,-1.0,0.0]" : 0.5981451881615548,
    "[1.0,0.0,0.0,1.0,1.0,-1.0,-1.0,-1.0,1.0]" : 0.5979811350170734,
    "[0.0,-1.0,-1.0,1.0,1.0,1.0,-1.0,1.0,-1.0]" : 0.596772662225193,
    "[0.0,0.0,-1.0,1.0,1.0,0.0,-1.0,1.0,0.0]" : 0.5960641627379594,
    "[0.0,1.0,1.0,-1.0,1.0,-1.0,1.0,0.0,-1.0]" : 0.5959649962142824,
    "[-1.0,1.0,0.0,-1.0,0.0,1.0,1.0,0.0,0.0]" : 0.5952729228532636,
    "[-1.0,1.0,0.0,1.0,1.0,0.0,0.0,0.0,-1.0]" : 0.5947513432984702,
    "[1.0,1.0,1.0,-1.0,0.0,-1.0,1.0,-1.0,-1.0]" : 0.5947504628886807,
    "[-1.0,0.0,1.0,1.0,0.0,1.0,-1.0,-1.0,1.0]" : 0.593532278663565,
    "[-1.0,0.0,1.0,0.0,0.0,-1.0,1.0,0.0,1.0]" : 0.5923553067649612,
    "[-1.0,1.0,-1.0,1.0,1.0,1.0,-1.0,-1.0,0.0]" : 0.592310432564294,
    "[1.0,1.0,0.0,1.0,-1.0,-1.0,1.0,-1.0,-1.0]" : 0.592310432564294,
    "[1.0,-1.0,1.0,-1.0,0.0,1.0,-1.0,-1.0,1.0]" : 0.5919023348797903,
    "[0.0,1.0,-1.0,0.0,1.0,1.0,-1.0,0.0,0.0]" : 0.5916636741890042,
    "[-1.0,-1.0,0.0,1.0,1.0,1.0,-1.0,-1.0,1.0]" : 0.5914938286890763,
    "[1.0,0.0,1.0,-1.0,-1.0,1.0,-1.0,-1.0,1.0]" : 0.5914938286890763,
    "[1.0,1.0,0.0,-1.0,1.0,-1.0,-1.0,1.0,-1.0]" : 0.5910849135832371,
    "[1.0,-1.0,-1.0,-1.0,0.0,-1.0,1.0,1.0,1.0]" : 0.5906755891529482,
    "[1.0,-1.0,-1.0,0.0,-1.0,-1.0,1.0,1.0,1.0]" : 0.5902658549884753,
    "[0.0,0.0,-1.0,1.0,1.0,1.0,1.0,-1.0,-1.0]" : 0.5898557106796741,
    "[1.0,0.0,1.0,-1.0,0.0,0.0,1.0,0.0,-1.0]" : 0.5896192055678331,
    "[-1.0,-1.0,1.0,1.0,1.0,1.0,-1.0,-1.0,0.0]" : 0.5877988225869302,
    "[-1.0,-1.0,1.0,-1.0,-1.0,1.0,0.0,1.0,1.0]" : 0.5877988225869302,
    "[1.0,0.0,0.0,-1.0,0.0,1.0,-1.0,1.0,0.0]" : 0.5877751943026757,
    "[-1.0,0.0,1.0,-1.0,1.0,-1.0,1.0,1.0,0.0]" : 0.5873862087761081,
    "[-1.0,1.0,-1.0,0.0,1.0,-1.0,0.0,1.0,1.0]" : 0.5873862087761081,
    "[0.0,1.0,1.0,-1.0,0.0,1.0,-1.0,-1.0,1.0]" : 0.5869731819384288,
    "[1.0,0.0,-1.0,1.0,1.0,-1.0,0.0,-1.0,1.0]" : 0.5861458875283232,
    "[1.0,0.0,1.0,0.0,0.0,-1.0,-1.0,0.0,1.0]" : 0.5860482488999645,
    "[1.0,0.0,1.0,0.0,0.0,-1.0,0.0,1.0,-1.0]" : 0.586034577497032,
    "[1.0,-1.0,0.0,-1.0,1.0,0.0,1.0,0.0,0.0]" : 0.5858225131088888,
    "[0.0,0.0,-1.0,1.0,1.0,0.0,-1.0,0.0,1.0]" : 0.5857564916711541,
    "[0.0,1.0,0.0,0.0,0.0,1.0,1.0,-1.0,-1.0]" : 0.5857018589226133,
    "[1.0,0.0,-1.0,0.0,0.0,0.0,1.0,-1.0,1.0]" : 0.5849682090401508,
    "[1.0,-1.0,0.0,0.0,1.0,1.0,-1.0,-1.0,1.0]" : 0.5849018378622682,
    "[-1.0,-1.0,1.0,0.0,1.0,-1.0,1.0,1.0,0.0]" : 0.5849018378622682,
    "[0.0,1.0,-1.0,1.0,0.0,-1.0,0.0,0.0,1.0]" : 0.5845623569733224,
    "[1.0,-1.0,-1.0,1.0,1.0,1.0,0.0,0.0,-1.0]" : 0.5844863241666991,
    "[-1.0,-1.0,1.0,1.0,0.0,1.0,0.0,-1.0,1.0]" : 0.584070394541485,
    "[0.0,-1.0,0.0,1.0,0.0,-1.0,1.0,0.0,1.0]" : 0.5837934738288487,
    "[1.0,1.0,0.0,0.0,0.0,-1.0,1.0,-1.0,0.0]" : 0.583487539620032,
    "[1.0,0.0,-1.0,0.0,1.0,0.0,-1.0,1.0,0.0]" : 0.5831469686827269,
    "[1.0,-1.0,0.0,-1.0,1.0,1.0,-1.0,-1.0,1.0]" : 0.5828201059224285,
    "[1.0,-1.0,0.0,0.0,0.0,-1.0,1.0,1.0,0.0]" : 0.582668615010848,
    "[0.0,-1.0,0.0,-1.0,0.0,1.0,1.0,0.0,1.0]" : 0.5825431824857878,
    "[0.0,1.0,1.0,1.0,0.0,-1.0,0.0,0.0,-1.0]" : 0.5815556758251846,
    "[1.0,0.0,1.0,1.0,0.0,-1.0,0.0,-1.0,0.0]" : 0.5813393096028249,
    "[-1.0,0.0,0.0,0.0,1.0,1.0,1.0,0.0,-1.0]" : 0.5812177992126966,
    "[1.0,1.0,0.0,-1.0,1.0,0.0,-1.0,1.0,-1.0]" : 0.5811472061092975,
    "[-1.0,0.0,1.0,1.0,1.0,0.0,0.0,0.0,-1.0]" : 0.5807697831504008,
    "[0.0,0.0,1.0,1.0,0.0,0.0,-1.0,-1.0,1.0]" : 0.5805269785404477,
    "[1.0,-1.0,-1.0,-1.0,1.0,-1.0,0.0,1.0,1.0]" : 0.580308242245718,
    "[1.0,1.0,-1.0,-1.0,1.0,0.0,-1.0,0.0,1.0]" : 0.5798881303561199,
    "[1.0,1.0,1.0,-1.0,0.0,-1.0,-1.0,1.0,-1.0]" : 0.5794675979340798,
    "[0.0,-1.0,1.0,-1.0,0.0,0.0,0.0,1.0,1.0]" : 0.5794534260504994,
    "[-1.0,0.0,0.0,1.0,1.0,1.0,-1.0,-1.0,1.0]" : 0.5790466445586442,
    "[1.0,-1.0,-1.0,0.0,0.0,1.0,0.0,1.0,0.0]" : 0.57719279702107,
    "[-1.0,-1.0,1.0,-1.0,1.0,0.0,1.0,1.0,0.0]" : 0.5769355486176455,
    "[1.0,-1.0,-1.0,0.0,1.0,1.0,-1.0,-1.0,1.0]" : 0.576512060658189,
    "[-1.0,1.0,-1.0,-1.0,1.0,0.0,1.0,1.0,0.0]" : 0.576512060658189,
    "[0.0,1.0,-1.0,0.0,1.0,0.0,-1.0,0.0,1.0]" : 0.5764628479808788,
    "[0.0,1.0,1.0,-1.0,1.0,0.0,1.0,-1.0,-1.0]" : 0.5756638125792655,
    "[-1.0,-1.0,1.0,1.0,0.0,1.0,-1.0,-1.0,1.0]" : 0.5752390516107011,
    "[-1.0,0.0,1.0,0.0,1.0,0.0,0.0,1.0,-1.0]" : 0.5744178303856857,
    "[-1.0,1.0,-1.0,1.0,1.0,0.0,-1.0,1.0,-1.0]" : 0.5743882536894358,
    "[-1.0,1.0,0.0,0.0,1.0,0.0,1.0,0.0,-1.0]" : 0.5742403687818863,
    "[-1.0,-1.0,0.0,-1.0,1.0,-1.0,1.0,1.0,1.0]" : 0.5739622158850852,
    "[1.0,-1.0,-1.0,-1.0,1.0,0.0,0.0,1.0,1.0]" : 0.5739622158850852,
    "[1.0,-1.0,-1.0,1.0,1.0,-1.0,0.0,-1.0,1.0]" : 0.5739622158850852,
    "[0.0,-1.0,1.0,1.0,1.0,-1.0,1.0,0.0,-1.0]" : 0.5739622158850852,
    "[-1.0,-1.0,1.0,1.0,0.0,1.0,-1.0,0.0,1.0]" : 0.5726815419783078,
    "[1.0,0.0,-1.0,0.0,1.0,1.0,-1.0,0.0,0.0]" : 0.572432950566273,
    "[-1.0,1.0,0.0,-1.0,0.0,0.0,1.0,0.0,1.0]" : 0.5722659134280599,
    "[1.0,0.0,0.0,-1.0,1.0,1.0,-1.0,-1.0,1.0]" : 0.5722537957537447,
    "[-1.0,-1.0,1.0,0.0,0.0,1.0,0.0,1.0,0.0]" : 0.5720527053239424,
    "[-1.0,-1.0,1.0,-1.0,1.0,1.0,1.0,-1.0,0.0]" : 0.5718256213547622,
    "[1.0,-1.0,-1.0,1.0,1.0,-1.0,0.0,0.0,1.0]" : 0.5718256213547622,
    "[1.0,1.0,0.0,0.0,1.0,-1.0,-1.0,-1.0,1.0]" : 0.5713970183527575,
    "[-1.0,0.0,1.0,1.0,1.0,0.0,1.0,-1.0,-1.0]" : 0.5709679863186983,
    "[1.0,-1.0,0.0,1.0,1.0,-1.0,0.0,0.0,0.0]" : 0.5706151818225582,
    "[0.0,0.0,1.0,1.0,1.0,-1.0,1.0,-1.0,-1.0]" : 0.5705385248231231,
    "[0.0,1.0,1.0,-1.0,1.0,-1.0,1.0,-1.0,-1.0]" : 0.5705385248231231,
    "[0.0,-1.0,0.0,-1.0,1.0,0.0,1.0,1.0,0.0]" : 0.5694914809203371,
    "[1.0,1.0,1.0,-1.0,1.0,-1.0,-1.0,-1.0,0.0]" : 0.5692475592662354,
    "[1.0,-1.0,1.0,0.0,0.0,0.0,1.0,0.0,-1.0]" : 0.5689887725350539,
    "[0.0,0.0,-1.0,-1.0,1.0,-1.0,1.0,1.0,1.0]" : 0.5688163756213767,
    "[0.0,1.0,1.0,0.0,1.0,-1.0,1.0,-1.0,-1.0]" : 0.5688163756213767,
    "[1.0,1.0,0.0,-1.0,1.0,0.0,-1.0,-1.0,1.0]" : 0.5683847603612373,
    "[1.0,1.0,0.0,0.0,0.0,-1.0,0.0,-1.0,1.0]" : 0.5676425890753093,
    "[1.0,-1.0,1.0,0.0,0.0,0.0,-1.0,0.0,1.0]" : 0.5676411290879271,
    "[1.0,-1.0,0.0,-1.0,0.0,1.0,0.0,0.0,1.0]" : 0.5675959292967828,
    "[1.0,-1.0,0.0,1.0,1.0,-1.0,1.0,-1.0,-1.0]" : 0.5675202332664947,
    "[-1.0,1.0,-1.0,0.0,-1.0,-1.0,1.0,1.0,1.0]" : 0.5675202332664947,
    "[1.0,1.0,1.0,1.0,-1.0,-1.0,0.0,-1.0,-1.0]" : 0.5675202332664947,
    "[1.0,-1.0,-1.0,0.0,1.0,-1.0,0.0,1.0,1.0]" : 0.5666539745204365,
    "[1.0,-1.0,-1.0,1.0,0.0,0.0,1.0,-1.0,1.0]" : 0.5649162481934075,
    "[-1.0,1.0,1.0,0.0,1.0,-1.0,1.0,0.0,-1.0]" : 0.564480728901623,
    "[-1.0,1.0,-1.0,-1.0,-1.0,0.0,1.0,1.0,1.0]" : 0.564480728901623,
    "[1.0,0.0,0.0,1.0,0.0,-1.0,0.0,-1.0,1.0]" : 0.5636679356742623,
    "[-1.0,-1.0,1.0,1.0,-1.0,1.0,0.0,0.0,1.0]" : 0.5631715535486596,
    "[1.0,-1.0,-1.0,0.0,-1.0,0.0,1.0,1.0,1.0]" : 0.5627342878157062,
    "[1.0,-1.0,1.0,0.0,1.0,-1.0,0.0,-1.0,1.0]" : 0.5622965843792957,
    "[-1.0,-1.0,1.0,1.0,1.0,1.0,0.0,0.0,-1.0]" : 0.5618584428012864,
    "[1.0,-1.0,0.0,-1.0,0.0,0.0,0.0,1.0,1.0]" : 0.5617616271281316,
    "[1.0,0.0,-1.0,1.0,-1.0,1.0,1.0,-1.0,-1.0]" : 0.5614198626430981,
    "[1.0,0.0,-1.0,1.0,0.0,-1.0,1.0,-1.0,1.0]" : 0.5614198626430981,
    "[0.0,-1.0,1.0,-1.0,1.0,-1.0,1.0,0.0,1.0]" : 0.5614198626430981,
    "[1.0,1.0,1.0,-1.0,0.0,0.0,1.0,-1.0,-1.0]" : 0.5609808434657115,
    "[1.0,0.0,-1.0,0.0,1.0,1.0,-1.0,-1.0,1.0]" : 0.5605413848296681,
    "[-1.0,1.0,1.0,-1.0,1.0,0.0,0.0,1.0,-1.0]" : 0.5605413848296681,
    "[1.0,0.0,-1.0,1.0,-1.0,-1.0,1.0,0.0,1.0]" : 0.5605413848296681,
    "[1.0,1.0,1.0,0.0,-1.0,0.0,-1.0,-1.0,1.0]" : 0.5605413848296681,
    "[1.0,-1.0,0.0,-1.0,1.0,1.0,-1.0,0.0,1.0]" : 0.5601014862950691,
    "[-1.0,-1.0,1.0,0.0,0.0,-1.0,1.0,1.0,1.0]" : 0.5601014862950691,
    "[1.0,1.0,1.0,0.0,-1.0,0.0,1.0,-1.0,-1.0]" : 0.5601014862950691,
    "[1.0,-1.0,1.0,1.0,0.0,-1.0,1.0,0.0,-1.0]" : 0.5601014862950691,
    "[-1.0,0.0,-1.0,1.0,0.0,-1.0,1.0,1.0,1.0]" : 0.5601014862950691,
    "[1.0,1.0,1.0,0.0,-1.0,-1.0,-1.0,1.0,-1.0]" : 0.5596611474215757,
    "[1.0,-1.0,0.0,1.0,1.0,0.0,1.0,-1.0,-1.0]" : 0.5596611474215757,
    "[-1.0,-1.0,1.0,1.0,-1.0,1.0,-1.0,0.0,1.0]" : 0.5592203677684082,
    "[-1.0,0.0,1.0,1.0,-1.0,1.0,-1.0,-1.0,1.0]" : 0.5587791468943457,
    "[1.0,-1.0,-1.0,1.0,-1.0,1.0,1.0,0.0,-1.0]" : 0.5587791468943457,
    "[1.0,1.0,1.0,-1.0,1.0,-1.0,-1.0,0.0,0.0]" : 0.5587791468943457,
    "[0.0,0.0,0.0,1.0,1.0,-1.0,1.0,-1.0,0.0]" : 0.5586721514911854,
    "[1.0,1.0,1.0,-1.0,0.0,1.0,-1.0,0.0,-1.0]" : 0.5583374843577256,
    "[0.0,-1.0,1.0,-1.0,1.0,0.0,1.0,-1.0,1.0]" : 0.5583374843577256,
    "[0.0,-1.0,0.0,0.0,1.0,-1.0,0.0,1.0,1.0]" : 0.5576446170734212,
    "[1.0,0.0,1.0,1.0,-1.0,-1.0,1.0,0.0,-1.0]" : 0.5574528325279513,
    "[1.0,1.0,1.0,1.0,-1.0,-1.0,0.0,-1.0,0.0]" : 0.5574528325279513,
    "[-1.0,-1.0,0.0,1.0,1.0,1.0,1.0,-1.0,0.0]" : 0.5574528325279513,
    "[1.0,0.0,1.0,-1.0,-1.0,1.0,-1.0,0.0,1.0]" : 0.5570098423492597,
    "[-1.0,0.0,1.0,0.0,1.0,1.0,1.0,-1.0,-1.0]" : 0.5565664087369346,
    "[0.0,1.0,1.0,-1.0,-1.0,1.0,1.0,-1.0,0.0]" : 0.5565664087369346,
    "[0.0,1.0,1.0,-1.0,-1.0,1.0,-1.0,0.0,1.0]" : 0.5565664087369346,
    "[1.0,-1.0,0.0,1.0,0.0,-1.0,1.0,1.0,-1.0]" : 0.5565664087369346,
    "[-1.0,0.0,1.0,-1.0,0.0,1.0,1.0,-1.0,1.0]" : 0.5561225312470987,
    "[-1.0,0.0,-1.0,-1.0,0.0,1.0,1.0,1.0,1.0]" : 0.5561225312470987,
    "[1.0,1.0,0.0,1.0,-1.0,-1.0,1.0,-1.0,0.0]" : 0.5561225312470987,
    "[-1.0,1.0,1.0,-1.0,1.0,-1.0,0.0,1.0,-1.0]" : 0.5556782094354299,
    "[1.0,-1.0,0.0,0.0,1.0,-1.0,1.0,-1.0,1.0]" : 0.5556782094354299,
    "[-1.0,-1.0,0.0,-1.0,-1.0,1.0,1.0,1.0,1.0]" : 0.5556782094354299,
    "[1.0,1.0,1.0,-1.0,-1.0,0.0,-1.0,1.0,-1.0]" : 0.5552334428571618,
    "[1.0,-1.0,1.0,1.0,0.0,0.0,1.0,-1.0,-1.0]" : 0.5552334428571618,
    "[-1.0,0.0,1.0,0.0,1.0,-1.0,1.0,1.0,-1.0]" : 0.5543425736195343,
    "[0.0,0.0,1.0,1.0,-1.0,1.0,-1.0,-1.0,1.0]" : 0.5543425736195343,
    "[-1.0,0.0,1.0,-1.0,-1.0,1.0,0.0,1.0,1.0]" : 0.5543425736195343,
    "[-1.0,1.0,0.0,1.0,1.0,-1.0,0.0,1.0,-1.0]" : 0.5543425736195343,
    "[-1.0,0.0,0.0,0.0,1.0,0.0,1.0,1.0,-1.0]" : 0.5543341572577418,
    "[1.0,1.0,0.0,-1.0,1.0,0.0,0.0,-1.0,0.0]" : 0.5542365303098002,
    "[1.0,1.0,1.0,0.0,-1.0,-1.0,0.0,1.0,-1.0]" : 0.5538964700684139,
    "[-1.0,-1.0,0.0,1.0,0.0,-1.0,1.0,1.0,1.0]" : 0.5538964700684139,
    "[1.0,1.0,1.0,-1.0,0.0,-1.0,-1.0,0.0,1.0]" : 0.5534499199671711,
    "[0.0,1.0,-1.0,0.0,-1.0,-1.0,1.0,1.0,1.0]" : 0.5534499199671711,
    "[0.0,-1.0,1.0,0.0,1.0,-1.0,1.0,-1.0,1.0]" : 0.5534499199671711,
    "[1.0,-1.0,-1.0,1.0,0.0,0.0,1.0,1.0,-1.0]" : 0.5534499199671711,
    "[1.0,1.0,-1.0,1.0,0.0,0.0,1.0,-1.0,-1.0]" : 0.5530029228688087,
    "[-1.0,1.0,1.0,0.0,0.0,1.0,-1.0,-1.0,1.0]" : 0.5530029228688087,
    "[-1.0,1.0,0.0,-1.0,1.0,1.0,0.0,1.0,-1.0]" : 0.5530029228688087,
    "[1.0,1.0,-1.0,1.0,0.0,-1.0,1.0,-1.0,0.0]" : 0.5525554783258821,
    "[-1.0,-1.0,1.0,0.0,-1.0,1.0,1.0,0.0,1.0]" : 0.5525554783258821,
    "[0.0,-1.0,0.0,-1.0,-1.0,1.0,1.0,1.0,1.0]" : 0.5525554783258821,
    "[-1.0,-1.0,0.0,1.0,1.0,1.0,0.0,1.0,-1.0]" : 0.5521075858904989,
    "[1.0,-1.0,1.0,-1.0,1.0,-1.0,0.0,0.0,1.0]" : 0.5516592451143182,
    "[0.0,1.0,-1.0,-1.0,1.0,1.0,-1.0,1.0,0.0]" : 0.5516592451143182,
    "[0.0,1.0,1.0,-1.0,-1.0,1.0,-1.0,-1.0,1.0]" : 0.5516592451143182,
    "[0.0,-1.0,-1.0,-1.0,0.0,1.0,1.0,1.0,1.0]" : 0.5512104555485504,
    "[0.0,-1.0,-1.0,1.0,1.0,1.0,-1.0,1.0,0.0]" : 0.5512104555485504,
    "[1.0,1.0,1.0,1.0,0.0,-1.0,-1.0,-1.0,0.0]" : 0.5507612167439567,
    "[0.0,-1.0,-1.0,1.0,-1.0,0.0,1.0,1.0,1.0]" : 0.5507612167439567,
    "[-1.0,1.0,0.0,-1.0,-1.0,0.0,1.0,1.0,1.0]" : 0.5503115282508485,
    "[1.0,1.0,1.0,-1.0,0.0,1.0,0.0,-1.0,-1.0]" : 0.5503115282508485,
    "[1.0,1.0,1.0,-1.0,-1.0,0.0,-1.0,1.0,0.0]" : 0.5503115282508485,
    "[1.0,0.0,-1.0,1.0,1.0,0.0,-1.0,0.0,0.0]" : 0.550248858109428,
    "[1.0,0.0,0.0,-1.0,1.0,-1.0,1.0,-1.0,1.0]" : 0.5498613896190871,
    "[-1.0,1.0,1.0,-1.0,0.0,1.0,0.0,-1.0,1.0]" : 0.5498613896190871,
    "[-1.0,1.0,1.0,0.0,1.0,-1.0,0.0,1.0,-1.0]" : 0.5498613896190871,
    "[0.0,-1.0,1.0,-1.0,-1.0,0.0,1.0,1.0,1.0]" : 0.5498613896190871,
    "[1.0,0.0,-1.0,-1.0,1.0,0.0,-1.0,1.0,1.0]" : 0.5494108003980834,
    "[0.0,0.0,1.0,-1.0,0.0,1.0,1.0,-1.0,0.0]" : 0.5493612526157028,
    "[1.0,0.0,-1.0,1.0,-1.0,-1.0,1.0,1.0,0.0]" : 0.5489597601367969,
    "[0.0,1.0,1.0,-1.0,0.0,0.0,1.0,-1.0,0.0]" : 0.5486126575399746,
    "[1.0,0.0,0.0,1.0,-1.0,1.0,1.0,-1.0,-1.0]" : 0.548508268383736,
    "[1.0,-1.0,0.0,1.0,-1.0,-1.0,1.0,0.0,1.0]" : 0.548508268383736,
    "[1.0,-1.0,0.0,-1.0,1.0,0.0,1.0,-1.0,1.0]" : 0.5480563246869568,
    "[0.0,1.0,-1.0,1.0,1.0,1.0,-1.0,-1.0,0.0]" : 0.5480563246869568,
    "[1.0,1.0,0.0,1.0,-1.0,-1.0,1.0,0.0,-1.0]" : 0.5480563246869568,
    "[1.0,-1.0,1.0,-1.0,1.0,-1.0,1.0,0.0,0.0]" : 0.5476039285940631,
    "[1.0,-1.0,-1.0,1.0,-1.0,1.0,1.0,0.0,0.0]" : 0.5476039285940631,
    "[-1.0,1.0,0.0,1.0,1.0,1.0,0.0,-1.0,-1.0]" : 0.5476039285940631,
    "[1.0,-1.0,-1.0,1.0,1.0,1.0,-1.0,0.0,0.0]" : 0.5471510796522062,
    "[-1.0,1.0,0.0,-1.0,1.0,0.0,1.0,1.0,-1.0]" : 0.5466977774080836,
    "[1.0,-1.0,0.0,1.0,-1.0,-1.0,1.0,1.0,0.0]" : 0.5466977774080836,
    "[0.0,0.0,1.0,0.0,1.0,0.0,-1.0,-1.0,1.0]" : 0.5466483647211371,
    "[1.0,1.0,1.0,0.0,-1.0,1.0,-1.0,-1.0,0.0]" : 0.5462440214079393,
    "[0.0,1.0,-1.0,1.0,1.0,-1.0,-1.0,1.0,0.0]" : 0.5462440214079393,
    "[0.0,-1.0,0.0,1.0,0.0,-1.0,1.0,1.0,0.0]" : 0.5458609582460218,
    "[1.0,-1.0,1.0,-1.0,0.0,1.0,-1.0,0.0,1.0]" : 0.545789811197563,
    "[1.0,-1.0,-1.0,-1.0,0.0,0.0,1.0,1.0,1.0]" : 0.5453351463222899,
    "[1.0,0.0,-1.0,1.0,1.0,0.0,-1.0,-1.0,1.0]" : 0.5453351463222899,
    "[0.0,-1.0,1.0,1.0,0.0,-1.0,1.0,0.0,0.0]" : 0.5452412277696538,
    "[-1.0,1.0,-1.0,1.0,1.0,1.0,-1.0,0.0,-1.0]" : 0.5448800263269998,
    "[-1.0,-1.0,1.0,1.0,1.0,1.0,0.0,-1.0,0.0]" : 0.5444244507561172,
    "[0.0,0.0,-1.0,1.0,1.0,1.0,-1.0,-1.0,1.0]" : 0.5444244507561172,
    "[0.0,-1.0,-1.0,1.0,-1.0,-1.0,1.0,1.0,1.0]" : 0.5435119310629914,
    "[0.0,-1.0,1.0,-1.0,0.0,1.0,-1.0,1.0,1.0]" : 0.5435119310629914,
    "[-1.0,0.0,1.0,0.0,0.0,0.0,1.0,-1.0,1.0]" : 0.5431853094720863,
    "[1.0,0.0,1.0,-1.0,1.0,-1.0,1.0,-1.0,0.0]" : 0.5430549860273151,
    "[1.0,1.0,1.0,0.0,0.0,-1.0,-1.0,-1.0,1.0]" : 0.5425975835891788,
    "[0.0,1.0,1.0,-1.0,0.0,1.0,0.0,-1.0,0.0]" : 0.5419585460544059,
    "[0.0,1.0,-1.0,0.0,1.0,-1.0,-1.0,1.0,1.0]" : 0.5407633906479506,
    "[-1.0,-1.0,1.0,1.0,0.0,0.0,0.0,1.0,0.0]" : 0.5399815935617952,
    "[-1.0,0.0,0.0,1.0,1.0,1.0,1.0,-1.0,-1.0]" : 0.5398435378364168,
    "[0.0,-1.0,0.0,1.0,1.0,0.0,-1.0,0.0,1.0]" : 0.5396373345889149,
    "[1.0,1.0,-1.0,-1.0,1.0,0.0,-1.0,1.0,0.0]" : 0.5393829207352739,
    "[0.0,-1.0,1.0,0.0,0.0,-1.0,1.0,1.0,0.0]" : 0.5390190957500024,
    "[1.0,0.0,0.0,0.0,1.0,-1.0,-1.0,1.0,0.0]" : 0.5382495321960779,
    "[0.0,1.0,-1.0,-1.0,1.0,0.0,0.0,0.0,1.0]" : 0.5380433849820331,
    "[0.0,0.0,-1.0,0.0,1.0,0.0,-1.0,1.0,1.0]" : 0.5375361281648793,
    "[-1.0,0.0,-1.0,1.0,1.0,1.0,-1.0,1.0,-1.0]" : 0.5370729098188128,
    "[1.0,-1.0,-1.0,1.0,1.0,1.0,0.0,-1.0,0.0]" : 0.5356813462832756,
    "[1.0,1.0,0.0,1.0,0.0,-1.0,0.0,-1.0,0.0]" : 0.5356357958996724,
    "[-1.0,0.0,0.0,1.0,1.0,0.0,1.0,0.0,-1.0]" : 0.5353891388355931,
    "[0.0,-1.0,0.0,1.0,1.0,1.0,-1.0,-1.0,1.0]" : 0.5352165628240235,
    "[-1.0,1.0,0.0,1.0,1.0,0.0,-1.0,1.0,-1.0]" : 0.5352165628240235,
    "[0.0,0.0,-1.0,0.0,1.0,1.0,-1.0,0.0,1.0]" : 0.5337311928846531,
    "[1.0,0.0,1.0,-1.0,0.0,1.0,0.0,-1.0,0.0]" : 0.5329404035724766,
    "[-1.0,-1.0,0.0,1.0,1.0,1.0,1.0,0.0,-1.0]" : 0.5328856574755275,
    "[0.0,0.0,1.0,1.0,0.0,-1.0,0.0,1.0,-1.0]" : 0.5328274332625951,
    "[0.0,-1.0,0.0,-1.0,1.0,-1.0,1.0,1.0,1.0]" : 0.5324180755288475,
    "[0.0,-1.0,-1.0,1.0,1.0,1.0,-1.0,0.0,1.0]" : 0.5319500255321484,
    "[0.0,1.0,1.0,-1.0,0.0,0.0,0.0,-1.0,1.0]" : 0.5316229039730002,
    "[0.0,-1.0,0.0,-1.0,0.0,1.0,0.0,1.0,1.0]" : 0.5315982196843072,
    "[1.0,-1.0,0.0,-1.0,1.0,1.0,0.0,-1.0,1.0]" : 0.5314815070169119,
    "[1.0,0.0,-1.0,0.0,1.0,1.0,0.0,-1.0,0.0]" : 0.5313738420409052,
    "[0.0,-1.0,1.0,0.0,1.0,1.0,1.0,-1.0,-1.0]" : 0.5305430625544066,
    "[1.0,-1.0,0.0,1.0,1.0,-1.0,1.0,-1.0,0.0]" : 0.530073135667754,
    "[0.0,-1.0,1.0,-1.0,1.0,1.0,0.0,-1.0,1.0]" : 0.530073135667754,
    "[0.0,1.0,-1.0,1.0,-1.0,0.0,1.0,-1.0,1.0]" : 0.5296920577083616,
    "[1.0,1.0,-1.0,-1.0,1.0,-1.0,0.0,0.0,1.0]" : 0.5296027383837951,
    "[1.0,-1.0,1.0,0.0,1.0,-1.0,0.0,-1.0,0.0]" : 0.5291683942436004,
    "[1.0,1.0,-1.0,0.0,1.0,0.0,-1.0,0.0,0.0]" : 0.529163011570004,
    "[1.0,0.0,1.0,1.0,-1.0,0.0,-1.0,1.0,-1.0]" : 0.5287067979863831,
    "[1.0,0.0,0.0,-1.0,1.0,-1.0,-1.0,1.0,1.0]" : 0.5286605307400143,
    "[-1.0,0.0,1.0,0.0,1.0,1.0,0.0,0.0,-1.0]" : 0.528541803722029,
    "[1.0,-1.0,0.0,1.0,1.0,0.0,-1.0,1.0,-1.0]" : 0.5283657319841459,
    "[-1.0,1.0,-1.0,1.0,1.0,-1.0,0.0,0.0,1.0]" : 0.5282589842898835,
    "[-1.0,1.0,-1.0,1.0,1.0,0.0,-1.0,1.0,0.0]" : 0.5281887194370415,
    "[1.0,-1.0,1.0,0.0,-1.0,0.0,1.0,1.0,-1.0]" : 0.5281229240299626,
    "[-1.0,1.0,-1.0,0.0,1.0,1.0,1.0,-1.0,0.0]" : 0.5278455918976298,
    "[-1.0,0.0,0.0,1.0,1.0,1.0,-1.0,1.0,-1.0]" : 0.5277164358504597,
    "[0.0,-1.0,1.0,-1.0,1.0,1.0,0.0,1.0,-1.0]" : 0.5276210165824977,
    "[-1.0,1.0,-1.0,-1.0,1.0,1.0,1.0,0.0,0.0]" : 0.5276130265296464,
    "[-1.0,0.0,1.0,1.0,0.0,-1.0,1.0,-1.0,1.0]" : 0.5275657185770944,
    "[-1.0,1.0,0.0,-1.0,1.0,1.0,1.0,-1.0,0.0]" : 0.5275301533015888,
    "[0.0,-1.0,1.0,0.0,1.0,0.0,-1.0,-1.0,1.0]" : 0.5275046040951217,
    "[1.0,0.0,1.0,-1.0,1.0,0.0,0.0,0.0,-1.0]" : 0.5273311833027285,
    "[-1.0,-1.0,1.0,-1.0,0.0,-1.0,1.0,1.0,1.0]" : 0.5272436795075125,
    "[0.0,-1.0,1.0,1.0,1.0,-1.0,1.0,-1.0,0.0]" : 0.5272436795075125,
    "[-1.0,1.0,1.0,1.0,0.0,-1.0,-1.0,1.0,0.0]" : 0.5272088244778879,
    "[0.0,1.0,1.0,1.0,-1.0,-1.0,-1.0,1.0,0.0]" : 0.5271737868803986,
    "[0.0,-1.0,1.0,1.0,-1.0,1.0,-1.0,1.0,0.0]" : 0.52710850672742,
    "[1.0,0.0,-1.0,-1.0,0.0,0.0,1.0,0.0,1.0]" : 0.5270926813847869,
    "[-1.0,1.0,-1.0,0.0,1.0,1.0,0.0,-1.0,1.0]" : 0.5270124358524164,
    "[0.0,0.0,1.0,-1.0,1.0,-1.0,0.0,-1.0,1.0]" : 0.5270004285564516,
    "[-1.0,1.0,1.0,0.0,1.0,-1.0,0.0,0.0,0.0]" : 0.5269314317049782,
    "[0.0,1.0,-1.0,0.0,1.0,1.0,1.0,-1.0,-1.0]" : 0.5268710109502565,
    "[1.0,1.0,1.0,-1.0,0.0,-1.0,-1.0,-1.0,1.0]" : 0.5267704499349702,
    "[1.0,1.0,-1.0,0.0,1.0,-1.0,-1.0,1.0,0.0]" : 0.5267704499349702,
    "[0.0,-1.0,1.0,-1.0,1.0,-1.0,0.0,0.0,1.0]" : 0.5266661199324383,
    "[1.0,1.0,0.0,-1.0,-1.0,1.0,1.0,0.0,-1.0]" : 0.5266276107440608,
    "[0.0,-1.0,1.0,1.0,1.0,0.0,0.0,-1.0,0.0]" : 0.5265913795711128,
    "[1.0,1.0,-1.0,-1.0,1.0,1.0,0.0,-1.0,0.0]" : 0.5264672864279032,
    "[-1.0,1.0,1.0,1.0,1.0,-1.0,-1.0,0.0,0.0]" : 0.5264642229630675,
    "[1.0,-1.0,1.0,-1.0,1.0,0.0,0.0,-1.0,0.0]" : 0.5263956161042737,
    "[0.0,-1.0,1.0,1.0,1.0,0.0,-1.0,1.0,-1.0]" : 0.5263735436861418,
    "[1.0,0.0,1.0,-1.0,-1.0,1.0,0.0,1.0,-1.0]" : 0.5263482988063847,
    "[1.0,1.0,1.0,-1.0,0.0,-1.0,1.0,-1.0,0.0]" : 0.5262967466591296,
    "[0.0,-1.0,0.0,1.0,1.0,1.0,1.0,-1.0,-1.0]" : 0.5262967466591296,
    "[1.0,1.0,1.0,-1.0,0.0,-1.0,-1.0,1.0,0.0]" : 0.5262967466591296,
    "[1.0,-1.0,0.0,1.0,1.0,-1.0,-1.0,1.0,0.0]" : 0.526220211939571,
    "[-1.0,1.0,0.0,0.0,-1.0,1.0,1.0,-1.0,1.0]" : 0.5261855542370627,
    "[-1.0,1.0,0.0,1.0,-1.0,-1.0,0.0,1.0,1.0]" : 0.5261563848607936,
    "[1.0,-1.0,1.0,0.0,0.0,-1.0,-1.0,1.0,1.0]" : 0.5261237267763921,
    "[-1.0,1.0,-1.0,0.0,1.0,1.0,0.0,1.0,-1.0]" : 0.5258225692058132,
    "[1.0,0.0,1.0,1.0,-1.0,-1.0,-1.0,0.0,1.0]" : 0.5257883969342793,
    "[0.0,0.0,1.0,-1.0,1.0,-1.0,0.0,1.0,0.0]" : 0.5257702196350008,
    "[1.0,0.0,-1.0,-1.0,-1.0,1.0,1.0,0.0,1.0]" : 0.5255256487116795,
    "[1.0,-1.0,1.0,0.0,-1.0,0.0,-1.0,1.0,1.0]" : 0.5253713743796717,
    "[0.0,-1.0,1.0,1.0,1.0,-1.0,0.0,1.0,-1.0]" : 0.5253691723920715,
    "[-1.0,1.0,-1.0,1.0,1.0,0.0,0.0,1.0,-1.0]" : 0.5253479171003688,
    "[-1.0,0.0,0.0,1.0,0.0,1.0,-1.0,0.0,1.0]" : 0.5251777441868598,
    "[1.0,0.0,1.0,1.0,-1.0,-1.0,-1.0,1.0,0.0]" : 0.525098966373888,
    "[1.0,-1.0,1.0,1.0,0.0,-1.0,-1.0,0.0,1.0]" : 0.5250460878874896,
    "[1.0,-1.0,0.0,-1.0,1.0,-1.0,1.0,0.0,1.0]" : 0.524872789867669,
    "[0.0,1.0,0.0,-1.0,1.0,-1.0,1.0,0.0,0.0]" : 0.5248633996052331,
    "[1.0,-1.0,-1.0,-1.0,1.0,1.0,0.0,1.0,0.0]" : 0.5247580565503271,
    "[1.0,1.0,-1.0,-1.0,1.0,1.0,0.0,0.0,-1.0]" : 0.5247162865270654,
    "[0.0,1.0,-1.0,1.0,-1.0,1.0,1.0,-1.0,0.0]" : 0.5245914847395879,
    "[0.0,1.0,-1.0,-1.0,-1.0,1.0,1.0,1.0,0.0]" : 0.524536757681993,
    "[-1.0,1.0,1.0,0.0,1.0,-1.0,0.0,-1.0,1.0]" : 0.5245334391164644,
    "[1.0,-1.0,-1.0,0.0,1.0,1.0,0.0,1.0,-1.0]" : 0.5242949660100562,
    "[0.0,-1.0,0.0,0.0,1.0,1.0,1.0,0.0,-1.0]" : 0.5242766006005427,
    "[0.0,-1.0,1.0,0.0,1.0,1.0,0.0,0.0,-1.0]" : 0.524238298567888,
    "[0.0,-1.0,0.0,0.0,1.0,1.0,1.0,-1.0,0.0]" : 0.5240450148110516,
    "[-1.0,0.0,0.0,1.0,1.0,-1.0,-1.0,1.0,1.0]" : 0.5239764915557271,
    "[-1.0,0.0,1.0,1.0,-1.0,-1.0,1.0,0.0,1.0]" : 0.5238899447160379,
    "[1.0,0.0,0.0,-1.0,1.0,1.0,-1.0,1.0,-1.0]" : 0.5238680885793585,
    "[-1.0,1.0,0.0,1.0,1.0,0.0,-1.0,-1.0,1.0]" : 0.5238456621769617,
    "[1.0,0.0,1.0,-1.0,1.0,-1.0,-1.0,0.0,0.0]" : 0.5236742591196417,
    "[-1.0,1.0,-1.0,0.0,-1.0,1.0,1.0,0.0,1.0]" : 0.5235744114277758,
    "[-1.0,1.0,1.0,1.0,1.0,-1.0,0.0,-1.0,0.0]" : 0.5235181273141405,
    "[0.0,1.0,0.0,-1.0,-1.0,1.0,1.0,-1.0,1.0]" : 0.5233922648140142,
    "[1.0,1.0,-1.0,0.0,-1.0,1.0,1.0,0.0,-1.0]" : 0.523368425335282,
    "[-1.0,0.0,1.0,1.0,-1.0,0.0,-1.0,1.0,1.0]" : 0.5232841959122873,
    "[1.0,1.0,-1.0,-1.0,0.0,1.0,0.0,1.0,-1.0]" : 0.5231344187338539,
    "[1.0,-1.0,0.0,-1.0,1.0,1.0,-1.0,1.0,0.0]" : 0.5230750766065149,
    "[0.0,1.0,0.0,1.0,1.0,-1.0,-1.0,-1.0,1.0]" : 0.5230362569054375,
    "[0.0,1.0,1.0,1.0,-1.0,-1.0,-1.0,0.0,1.0]" : 0.5226580043921856,
    "[-1.0,-1.0,1.0,1.0,1.0,-1.0,0.0,1.0,0.0]" : 0.5226478440404824,
    "[0.0,1.0,0.0,1.0,-1.0,-1.0,1.0,-1.0,1.0]" : 0.5226066931009229,
    "[-1.0,1.0,1.0,1.0,-1.0,0.0,0.0,-1.0,1.0]" : 0.5225963417699526,
    "[1.0,-1.0,-1.0,0.0,1.0,1.0,0.0,-1.0,1.0]" : 0.522490010132568,
    "[-1.0,1.0,-1.0,1.0,-1.0,0.0,1.0,0.0,1.0]" : 0.5224411323332507,
    "[-1.0,1.0,1.0,1.0,-1.0,0.0,-1.0,0.0,1.0]" : 0.5223035480025678,
    "[0.0,1.0,1.0,1.0,-1.0,-1.0,0.0,-1.0,1.0]" : 0.5222893684737635,
    "[1.0,1.0,-1.0,0.0,-1.0,1.0,1.0,-1.0,0.0]" : 0.5222816319495723,
    "[-1.0,1.0,1.0,0.0,-1.0,0.0,1.0,-1.0,1.0]" : 0.5221985778459426,
    "[1.0,1.0,-1.0,0.0,-1.0,0.0,1.0,-1.0,1.0]" : 0.5221774402295546,
    "[1.0,-1.0,1.0,1.0,-1.0,0.0,0.0,1.0,-1.0]" : 0.5221026062178866,
    "[0.0,0.0,-1.0,1.0,-1.0,0.0,1.0,0.0,1.0]" : 0.5220506207012232,
    "[1.0,1.0,1.0,-1.0,1.0,-1.0,0.0,-1.0,0.0]" : 0.5220120221319968,
    "[1.0,-1.0,1.0,0.0,1.0,-1.0,1.0,-1.0,0.0]" : 0.5220120221319968,
    "[0.0,1.0,-1.0,0.0,1.0,1.0,-1.0,1.0,-1.0]" : 0.5220120221319968,
    "[1.0,0.0,-1.0,0.0,-1.0,1.0,1.0,1.0,-1.0]" : 0.5219959081446294,
    "[1.0,0.0,-1.0,-1.0,-1.0,1.0,1.0,1.0,0.0]" : 0.5219866026075901,
    "[-1.0,1.0,0.0,1.0,-1.0,1.0,0.0,-1.0,1.0]" : 0.5218911058807467,
    "[1.0,0.0,-1.0,-1.0,0.0,1.0,1.0,-1.0,1.0]" : 0.5217101698654503,
    "[1.0,-1.0,1.0,1.0,0.0,-1.0,1.0,-1.0,-1.0]" : 0.5215335556649359,
    "[1.0,1.0,0.0,-1.0,1.0,-1.0,0.0,-1.0,1.0]" : 0.5215335556649359,
    "[1.0,1.0,0.0,-1.0,-1.0,1.0,1.0,-1.0,0.0]" : 0.5215072126706763,
    "[0.0,-1.0,1.0,1.0,-1.0,0.0,-1.0,1.0,1.0]" : 0.5214974205713829,
    "[1.0,-1.0,0.0,0.0,-1.0,1.0,1.0,1.0,-1.0]" : 0.5213337691407712,
    "[1.0,-1.0,1.0,1.0,-1.0,-1.0,0.0,1.0,0.0]" : 0.5212389045038957,
    "[1.0,-1.0,1.0,-1.0,1.0,1.0,0.0,0.0,-1.0]" : 0.521204985947757,
    "[-1.0,0.0,1.0,1.0,-1.0,-1.0,0.0,1.0,1.0]" : 0.5210735937057575,
    "[0.0,-1.0,1.0,1.0,-1.0,-1.0,0.0,1.0,1.0]" : 0.5208864334325672,
    "[-1.0,-1.0,1.0,1.0,1.0,0.0,-1.0,1.0,0.0]" : 0.5208531499622778,
    "[0.0,1.0,1.0,0.0,-1.0,0.0,-1.0,0.0,1.0]" : 0.5208477623068062,
    "[-1.0,0.0,1.0,0.0,1.0,0.0,0.0,-1.0,1.0]" : 0.5206037120610716,
    "[0.0,1.0,-1.0,-1.0,0.0,1.0,1.0,1.0,-1.0]" : 0.5205944661550508,
    "[0.0,1.0,1.0,-1.0,1.0,-1.0,0.0,-1.0,1.0]" : 0.5205751854150832,
    "[1.0,0.0,-1.0,1.0,0.0,1.0,0.0,0.0,-1.0]" : 0.5205158312877601,
    "[1.0,1.0,0.0,0.0,0.0,0.0,-1.0,1.0,-1.0]" : 0.5204217590435283,
    "[1.0,-1.0,1.0,0.0,-1.0,1.0,-1.0,1.0,0.0]" : 0.5203629063297921,
    "[-1.0,1.0,0.0,1.0,0.0,-1.0,-1.0,1.0,1.0]" : 0.5202351839782111,
    "[1.0,1.0,0.0,-1.0,-1.0,1.0,0.0,-1.0,1.0]" : 0.5201580159392445,
    "[1.0,1.0,-1.0,-1.0,0.0,0.0,1.0,-1.0,1.0]" : 0.5201393754568736,
    "[1.0,1.0,1.0,-1.0,0.0,1.0,-1.0,-1.0,0.0]" : 0.5200952806729618,
    "[-1.0,1.0,-1.0,1.0,1.0,0.0,1.0,-1.0,0.0]" : 0.5200812059298793,
    "[1.0,-1.0,0.0,1.0,0.0,1.0,-1.0,1.0,-1.0]" : 0.5200791835054256,
    "[1.0,0.0,1.0,-1.0,-1.0,1.0,1.0,0.0,-1.0]" : 0.5200285946126398,
    "[0.0,1.0,-1.0,-1.0,-1.0,1.0,1.0,0.0,1.0]" : 0.520018457762862,
    "[0.0,1.0,-1.0,1.0,1.0,-1.0,0.0,-1.0,1.0]" : 0.5200026711949176,
    "[0.0,0.0,1.0,1.0,1.0,-1.0,-1.0,1.0,-1.0]" : 0.5199925794280049,
    "[1.0,1.0,0.0,-1.0,-1.0,1.0,0.0,1.0,-1.0]" : 0.5198860625058691,
    "[-1.0,1.0,0.0,1.0,1.0,-1.0,1.0,-1.0,0.0]" : 0.5198605084674102,
    "[0.0,-1.0,1.0,1.0,0.0,1.0,-1.0,1.0,-1.0]" : 0.519757610450525,
    "[1.0,-1.0,1.0,0.0,1.0,-1.0,0.0,1.0,-1.0]" : 0.5196290648645657,
    "[-1.0,-1.0,1.0,-1.0,0.0,1.0,0.0,1.0,1.0]" : 0.5196148955456905,
    "[0.0,-1.0,-1.0,1.0,0.0,-1.0,1.0,1.0,1.0]" : 0.5196148955456905,
    "[0.0,1.0,-1.0,1.0,1.0,0.0,-1.0,1.0,-1.0]" : 0.5196148955456905,
    "[-1.0,-1.0,1.0,1.0,1.0,-1.0,0.0,0.0,1.0]" : 0.5194532793247053,
    "[-1.0,1.0,-1.0,1.0,0.0,1.0,0.0,-1.0,1.0]" : 0.5192756950443355,
    "[1.0,1.0,1.0,-1.0,-1.0,1.0,0.0,-1.0,0.0]" : 0.519134029552403,
    "[1.0,-1.0,0.0,1.0,-1.0,1.0,0.0,1.0,-1.0]" : 0.5189763654194,
    "[1.0,0.0,1.0,-1.0,1.0,0.0,-1.0,0.0,0.0]" : 0.5187490556578224,
    "[1.0,-1.0,1.0,-1.0,-1.0,1.0,0.0,1.0,0.0]" : 0.5187188416296934,
    "[-1.0,1.0,-1.0,0.0,1.0,1.0,-1.0,1.0,0.0]" : 0.518652682211752,
    "[1.0,-1.0,0.0,-1.0,1.0,-1.0,1.0,-1.0,1.0]" : 0.518652682211752,
    "[1.0,-1.0,1.0,-1.0,1.0,0.0,0.0,1.0,-1.0]" : 0.5186006574179863,
    "[1.0,0.0,1.0,0.0,-1.0,1.0,-1.0,1.0,-1.0]" : 0.5185620255719563,
    "[0.0,0.0,-1.0,1.0,0.0,1.0,1.0,0.0,-1.0]" : 0.5185451221247402,
    "[1.0,-1.0,1.0,-1.0,1.0,0.0,-1.0,1.0,0.0]" : 0.5182612310893143,
    "[1.0,-1.0,0.0,1.0,0.0,-1.0,-1.0,1.0,1.0]" : 0.5182221508609817,
    "[0.0,0.0,-1.0,-1.0,1.0,1.0,1.0,-1.0,1.0]" : 0.5181245288758694,
    "[0.0,1.0,-1.0,-1.0,1.0,1.0,1.0,0.0,-1.0]" : 0.5177619305198033,
    "[1.0,-1.0,1.0,-1.0,0.0,0.0,1.0,1.0,-1.0]" : 0.5177384872017542,
    "[1.0,-1.0,-1.0,1.0,0.0,1.0,1.0,-1.0,-1.0]" : 0.5176885415605602,
    "[-1.0,1.0,-1.0,0.0,0.0,0.0,0.0,1.0,1.0]" : 0.5176457381329654,
    "[0.0,1.0,0.0,-1.0,1.0,1.0,1.0,-1.0,-1.0]" : 0.5176160329925218,
    "[-1.0,1.0,-1.0,0.0,0.0,0.0,1.0,1.0,0.0]" : 0.5175803790232832,
    "[-1.0,-1.0,0.0,1.0,1.0,1.0,1.0,-1.0,-1.0]" : 0.5172057472849136,
    "[1.0,1.0,1.0,-1.0,-1.0,0.0,0.0,-1.0,1.0]" : 0.5172057472849136,
    "[1.0,0.0,1.0,-1.0,1.0,0.0,-1.0,-1.0,1.0]" : 0.5172057472849136,
    "[1.0,0.0,1.0,1.0,-1.0,-1.0,0.0,0.0,0.0]" : 0.5171843031479304,
    "[1.0,-1.0,0.0,-1.0,-1.0,1.0,1.0,1.0,0.0]" : 0.5171620332699557,
    "[1.0,0.0,-1.0,0.0,-1.0,0.0,1.0,1.0,0.0]" : 0.5171575142471618,
    "[1.0,1.0,-1.0,-1.0,0.0,1.0,0.0,-1.0,1.0]" : 0.5171029525807586,
    "[1.0,0.0,-1.0,0.0,1.0,0.0,1.0,-1.0,0.0]" : 0.5169123072603723,
    "[0.0,0.0,0.0,1.0,-1.0,-1.0,1.0,0.0,1.0]" : 0.5168396584387669,
    "[1.0,-1.0,0.0,-1.0,1.0,-1.0,0.0,1.0,1.0]" : 0.5167224697316909,
    "[1.0,0.0,1.0,1.0,0.0,-1.0,1.0,-1.0,-1.0]" : 0.5167224697316909,
    "[-1.0,1.0,1.0,-1.0,1.0,-1.0,0.0,1.0,0.0]" : 0.5167224697316909,
    "[1.0,0.0,1.0,-1.0,1.0,-1.0,0.0,1.0,-1.0]" : 0.5167224697316909,
    "[1.0,1.0,0.0,0.0,-1.0,0.0,1.0,0.0,-1.0]" : 0.5165935947224715,
    "[1.0,0.0,1.0,0.0,-1.0,1.0,-1.0,0.0,0.0]" : 0.5162400342483421,
    "[-1.0,1.0,0.0,-1.0,1.0,-1.0,1.0,0.0,1.0]" : 0.5162387084171306,
    "[1.0,-1.0,1.0,-1.0,1.0,-1.0,0.0,-1.0,1.0]" : 0.5162387084171306,
    "[-1.0,1.0,1.0,0.0,1.0,0.0,0.0,0.0,-1.0]" : 0.5160590215997813,
    "[1.0,0.0,0.0,-1.0,1.0,1.0,1.0,-1.0,-1.0]" : 0.5159598125498037,
    "[-1.0,1.0,0.0,1.0,-1.0,-1.0,1.0,0.0,1.0]" : 0.515945752631653,
    "[-1.0,0.0,0.0,0.0,-1.0,1.0,1.0,0.0,1.0]" : 0.5159350618920242,
    "[1.0,0.0,1.0,1.0,-1.0,0.0,0.0,0.0,-1.0]" : 0.5158871687339909,
    "[1.0,1.0,-1.0,-1.0,1.0,-1.0,-1.0,1.0,0.0]" : 0.5157544628569871,
    "[1.0,-1.0,1.0,1.0,1.0,-1.0,-1.0,0.0,0.0]" : 0.5155082781969663,
    "[-1.0,-1.0,1.0,1.0,0.0,0.0,-1.0,1.0,1.0]" : 0.5153112523428036,
    "[1.0,-1.0,-1.0,1.0,0.0,1.0,1.0,-1.0,0.0]" : 0.5152697325665302,
    "[0.0,1.0,-1.0,-1.0,1.0,-1.0,-1.0,1.0,1.0]" : 0.5152697325665302,
    "[-1.0,1.0,-1.0,-1.0,0.0,-1.0,1.0,1.0,1.0]" : 0.5152697325665302,
    "[-1.0,-1.0,1.0,-1.0,1.0,0.0,1.0,0.0,1.0]" : 0.5152697325665302,
    "[0.0,1.0,-1.0,-1.0,1.0,0.0,1.0,-1.0,1.0]" : 0.5149760811136075,
    "[1.0,-1.0,-1.0,0.0,1.0,0.0,1.0,0.0,0.0]" : 0.5148063412857042,
    "[1.0,-1.0,-1.0,-1.0,1.0,1.0,1.0,0.0,0.0]" : 0.5147919388951226,
    "[-1.0,0.0,1.0,-1.0,0.0,-1.0,1.0,1.0,1.0]" : 0.5147845170605443,
    "[-1.0,-1.0,1.0,1.0,1.0,0.0,0.0,-1.0,1.0]" : 0.5147845170605443,
    "[-1.0,1.0,0.0,-1.0,1.0,0.0,1.0,-1.0,1.0]" : 0.5146972784463778,
    "[0.0,-1.0,1.0,0.0,1.0,0.0,-1.0,0.0,1.0]" : 0.5146626323035188,
    "[1.0,-1.0,0.0,0.0,1.0,0.0,1.0,-1.0,-1.0]" : 0.5146479854777145,
    "[-1.0,0.0,0.0,-1.0,1.0,-1.0,1.0,0.0,1.0]" : 0.5145475125841089,
    "[1.0,0.0,0.0,-1.0,1.0,-1.0,1.0,-1.0,0.0]" : 0.514382775723787,
    "[0.0,0.0,1.0,1.0,1.0,-1.0,-1.0,-1.0,1.0]" : 0.5143715216956756,
    "[0.0,-1.0,0.0,0.0,1.0,-1.0,1.0,-1.0,1.0]" : 0.5143633867289483,
    "[1.0,-1.0,1.0,-1.0,1.0,1.0,0.0,-1.0,0.0]" : 0.514298815853328,
    "[0.0,-1.0,1.0,-1.0,0.0,1.0,1.0,-1.0,1.0]" : 0.514298815853328,
    "[1.0,-1.0,1.0,-1.0,0.0,1.0,1.0,0.0,-1.0]" : 0.5142933896695385,
    "[1.0,-1.0,1.0,-1.0,0.0,0.0,-1.0,0.0,1.0]" : 0.514241740781917,
    "[0.0,-1.0,1.0,-1.0,0.0,1.0,1.0,1.0,-1.0]" : 0.5141720736533314,
    "[1.0,-1.0,0.0,-1.0,1.0,-1.0,1.0,0.0,0.0]" : 0.5140212680993874,
    "[1.0,1.0,1.0,-1.0,0.0,-1.0,1.0,0.0,-1.0]" : 0.513812628458694,
    "[0.0,-1.0,1.0,0.0,1.0,-1.0,-1.0,1.0,1.0]" : 0.513757316596835,
    "[-1.0,1.0,1.0,0.0,0.0,-1.0,1.0,-1.0,1.0]" : 0.5136321883269159,
    "[-1.0,-1.0,1.0,1.0,1.0,1.0,0.0,-1.0,-1.0]" : 0.5133259543899682,
    "[1.0,-1.0,0.0,1.0,0.0,1.0,1.0,-1.0,-1.0]" : 0.5133259543899682,
    "[-1.0,0.0,1.0,-1.0,1.0,-1.0,1.0,1.0,-1.0]" : 0.5133259543899682,
    "[-1.0,0.0,1.0,1.0,1.0,0.0,-1.0,-1.0,1.0]" : 0.513157460709922,
    "[1.0,1.0,0.0,0.0,-1.0,0.0,1.0,-1.0,0.0]" : 0.5128637237508048,
    "[1.0,-1.0,-1.0,0.0,0.0,-1.0,1.0,1.0,1.0]" : 0.5128387931599893,
    "[0.0,-1.0,1.0,-1.0,0.0,-1.0,1.0,1.0,1.0]" : 0.5128387931599893,
    "[-1.0,0.0,0.0,1.0,1.0,-1.0,1.0,-1.0,1.0]" : 0.5125292795867974,
    "[1.0,-1.0,-1.0,1.0,1.0,1.0,-1.0,-1.0,0.0]" : 0.5118630072651882,
    "[1.0,-1.0,1.0,0.0,0.0,1.0,-1.0,-1.0,1.0]" : 0.5118630072651882,
    "[1.0,-1.0,-1.0,1.0,1.0,0.0,1.0,-1.0,0.0]" : 0.5113743816236033,
    "[1.0,0.0,1.0,0.0,1.0,-1.0,1.0,-1.0,-1.0]" : 0.5113743816236033,
    "[0.0,-1.0,1.0,0.0,1.0,1.0,-1.0,-1.0,1.0]" : 0.5113743816236033,
    "[0.0,1.0,-1.0,0.0,1.0,-1.0,1.0,-1.0,1.0]" : 0.511130731870651,
    "[1.0,-1.0,0.0,1.0,1.0,1.0,-1.0,-1.0,0.0]" : 0.5108852668672388,
    "[1.0,-1.0,-1.0,0.0,1.0,-1.0,1.0,0.0,1.0]" : 0.5108852668672388,
    "[1.0,-1.0,0.0,1.0,0.0,-1.0,1.0,-1.0,1.0]" : 0.5108852668672388,
    "[-1.0,0.0,0.0,-1.0,1.0,-1.0,1.0,1.0,1.0]" : 0.5103956625064903,
    "[1.0,-1.0,1.0,0.0,0.0,-1.0,1.0,0.0,-1.0]" : 0.5103632485365048,
    "[1.0,0.0,1.0,0.0,0.0,-1.0,-1.0,-1.0,1.0]" : 0.5099485298409334,
    "[0.0,1.0,1.0,0.0,1.0,-1.0,-1.0,-1.0,1.0]" : 0.5098030753415616,
    "[-1.0,1.0,-1.0,1.0,1.0,0.0,0.0,-1.0,1.0]" : 0.5096983322571444,
    "[0.0,0.0,0.0,-1.0,-1.0,1.0,1.0,0.0,1.0]" : 0.5095316647218265,
    "[1.0,0.0,-1.0,-1.0,1.0,1.0,0.0,1.0,-1.0]" : 0.5094637395932464,
    "[0.0,1.0,0.0,-1.0,1.0,-1.0,1.0,1.0,-1.0]" : 0.5094149830109728,
    "[1.0,-1.0,1.0,-1.0,1.0,0.0,0.0,-1.0,1.0]" : 0.5094149830109728,
    "[0.0,1.0,-1.0,-1.0,1.0,-1.0,0.0,1.0,1.0]" : 0.5094149830109728,
    "[-1.0,1.0,0.0,-1.0,1.0,-1.0,1.0,1.0,0.0]" : 0.5094149830109728,
    "[-1.0,-1.0,1.0,1.0,0.0,0.0,0.0,0.0,1.0]" : 0.5092521008584976,
    "[-1.0,-1.0,1.0,0.0,1.0,0.0,0.0,-1.0,1.0]" : 0.5091988845301254,
    "[-1.0,1.0,0.0,1.0,1.0,-1.0,-1.0,0.0,1.0]" : 0.5090150568240464,
    "[-1.0,1.0,-1.0,0.0,1.0,1.0,-1.0,1.0,-1.0]" : 0.5089239068945425,
    "[0.0,1.0,-1.0,-1.0,1.0,-1.0,1.0,1.0,0.0]" : 0.5089239068945425,
    "[0.0,-1.0,1.0,1.0,0.0,1.0,-1.0,-1.0,1.0]" : 0.5089239068945425,
    "[1.0,-1.0,0.0,0.0,-1.0,0.0,1.0,1.0,0.0]" : 0.5088657597260162,
    "[1.0,0.0,0.0,-1.0,1.0,-1.0,0.0,1.0,0.0]" : 0.508783924026343,
    "[0.0,-1.0,0.0,1.0,1.0,-1.0,-1.0,1.0,1.0]" : 0.5087383854778591,
    "[0.0,-1.0,1.0,0.0,1.0,1.0,-1.0,1.0,-1.0]" : 0.508583347719862,
    "[0.0,-1.0,0.0,-1.0,1.0,0.0,1.0,-1.0,1.0]" : 0.5085107785408871,
    "[1.0,1.0,1.0,-1.0,1.0,-1.0,0.0,0.0,-1.0]" : 0.5084323392104046,
    "[1.0,1.0,1.0,0.0,0.0,-1.0,1.0,-1.0,-1.0]" : 0.5084323392104046,
    "[0.0,1.0,1.0,0.0,-1.0,0.0,0.0,-1.0,1.0]" : 0.5077204250631472,
    "[0.0,0.0,0.0,-1.0,-1.0,1.0,0.0,1.0,1.0]" : 0.5075546118401513,
    "[1.0,-1.0,0.0,0.0,1.0,1.0,-1.0,1.0,-1.0]" : 0.507500752250418,
    "[1.0,-1.0,0.0,0.0,1.0,1.0,0.0,-1.0,0.0]" : 0.5074833123734406,
    "[1.0,0.0,1.0,-1.0,-1.0,1.0,0.0,0.0,0.0]" : 0.5074748857356736,
    "[-1.0,-1.0,1.0,-1.0,0.0,1.0,1.0,0.0,1.0]" : 0.5074477271702749,
    "[1.0,1.0,0.0,-1.0,1.0,-1.0,-1.0,1.0,0.0]" : 0.5074477271702749,
    "[1.0,0.0,1.0,-1.0,1.0,-1.0,0.0,0.0,-1.0]" : 0.5072075441625392,
    "[0.0,-1.0,1.0,0.0,-1.0,0.0,0.0,1.0,1.0]" : 0.5071283662044129,
    "[0.0,1.0,1.0,-1.0,1.0,-1.0,0.0,1.0,-1.0]" : 0.5069546818286852,
    "[1.0,0.0,1.0,-1.0,1.0,-1.0,0.0,-1.0,1.0]" : 0.5069546818286852,
    "[-1.0,0.0,1.0,1.0,1.0,-1.0,-1.0,1.0,0.0]" : 0.5068084819831075,
    "[0.0,-1.0,0.0,-1.0,1.0,1.0,1.0,1.0,-1.0]" : 0.5067961388234687,
    "[-1.0,1.0,1.0,1.0,0.0,0.0,-1.0,-1.0,1.0]" : 0.5066081884934865,
    "[0.0,0.0,-1.0,-1.0,1.0,-1.0,1.0,0.0,1.0]" : 0.5061815060361531,
    "[-1.0,0.0,1.0,0.0,-1.0,0.0,0.0,1.0,1.0]" : 0.5061091431779028,
    "[0.0,-1.0,0.0,0.0,-1.0,1.0,0.0,1.0,1.0]" : 0.5060311705270981,
    "[-1.0,-1.0,1.0,0.0,0.0,-1.0,1.0,0.0,1.0]" : 0.5058040842469568,
    "[0.0,1.0,-1.0,-1.0,1.0,1.0,0.0,-1.0,1.0]" : 0.5057609278662382,
    "[1.0,1.0,0.0,1.0,-1.0,-1.0,0.0,0.0,0.0]" : 0.5056146597122222,
    "[0.0,-1.0,0.0,1.0,1.0,0.0,0.0,-1.0,1.0]" : 0.5055715238988606,
    "[1.0,1.0,-1.0,0.0,0.0,1.0,1.0,-1.0,-1.0]" : 0.5051206047380616,
    "[-1.0,1.0,-1.0,1.0,0.0,1.0,1.0,-1.0,0.0]" : 0.5047101373163541,
    "[1.0,0.0,-1.0,-1.0,1.0,-1.0,0.0,1.0,1.0]" : 0.5044820421490975,
    "[1.0,0.0,1.0,1.0,0.0,-1.0,-1.0,1.0,-1.0]" : 0.504317743055291,
    "[0.0,0.0,-1.0,-1.0,1.0,1.0,1.0,1.0,-1.0]" : 0.5042408214006112,
    "[1.0,0.0,1.0,-1.0,0.0,1.0,-1.0,1.0,-1.0]" : 0.5040925948769168,
    "[-1.0,1.0,0.0,0.0,0.0,-1.0,0.0,1.0,1.0]" : 0.504033570237001,
    "[1.0,-1.0,-1.0,0.0,1.0,0.0,1.0,-1.0,0.0]" : 0.5039076793697677,
    "[1.0,1.0,0.0,-1.0,0.0,0.0,0.0,1.0,-1.0]" : 0.5037935973861126,
    "[1.0,-1.0,-1.0,0.0,0.0,1.0,1.0,1.0,-1.0]" : 0.5035792856535988,
    "[-1.0,1.0,-1.0,1.0,0.0,-1.0,1.0,0.0,1.0]" : 0.5032545004440959,
    "[0.0,1.0,0.0,-1.0,1.0,-1.0,0.0,0.0,1.0]" : 0.5030572672081232,
    "[1.0,1.0,0.0,1.0,-1.0,0.0,0.0,-1.0,0.0]" : 0.5030243544931693,
    "[1.0,-1.0,-1.0,1.0,1.0,0.0,0.0,-1.0,1.0]" : 0.5029925101342844,
    "[-1.0,-1.0,1.0,0.0,1.0,1.0,1.0,-1.0,0.0]" : 0.5029925101342844,
    "[0.0,0.0,0.0,1.0,1.0,0.0,-1.0,1.0,-1.0]" : 0.5028761224117015,
    "[1.0,-1.0,-1.0,-1.0,1.0,0.0,1.0,1.0,0.0]" : 0.5028408139177645,
    "[1.0,1.0,-1.0,-1.0,1.0,0.0,1.0,-1.0,0.0]" : 0.5028305504389871,
    "[0.0,0.0,0.0,0.0,1.0,1.0,-1.0,1.0,-1.0]" : 0.5027652057554873,
    "[1.0,1.0,0.0,-1.0,1.0,-1.0,-1.0,0.0,1.0]" : 0.5024950051157699,
    "[1.0,0.0,1.0,0.0,1.0,-1.0,-1.0,1.0,-1.0]" : 0.5024702630546714,
    "[-1.0,1.0,1.0,1.0,0.0,-1.0,1.0,-1.0,0.0]" : 0.5024521117429679,
    "[0.0,0.0,-1.0,1.0,1.0,-1.0,1.0,-1.0,1.0]" : 0.5024491571325799,
    "[1.0,-1.0,0.0,-1.0,1.0,1.0,1.0,0.0,-1.0]" : 0.5024411913431002,
    "[0.0,-1.0,1.0,1.0,1.0,-1.0,-1.0,0.0,1.0]" : 0.5024279529160842,
    "[-1.0,1.0,0.0,-1.0,0.0,1.0,1.0,-1.0,1.0]" : 0.502424977837317,
    "[1.0,0.0,-1.0,-1.0,1.0,1.0,1.0,-1.0,0.0]" : 0.5024030882441423,
    "[1.0,-1.0,0.0,-1.0,1.0,0.0,1.0,1.0,-1.0]" : 0.5023816928535126,
    "[-1.0,1.0,-1.0,-1.0,0.0,1.0,1.0,0.0,1.0]" : 0.5022017805930803,
    "[1.0,-1.0,1.0,1.0,0.0,-1.0,0.0,1.0,-1.0]" : 0.501972258769829,
    "[1.0,1.0,0.0,-1.0,0.0,1.0,1.0,-1.0,-1.0]" : 0.5019448726680572,
    "[1.0,-1.0,1.0,0.0,1.0,-1.0,-1.0,1.0,0.0]" : 0.5019259713818248,
    "[-1.0,1.0,0.0,0.0,1.0,-1.0,1.0,-1.0,1.0]" : 0.501907810738865,
    "[0.0,-1.0,1.0,1.0,1.0,0.0,1.0,-1.0,-1.0]" : 0.5014985005711038,
    "[1.0,-1.0,-1.0,-1.0,0.0,1.0,1.0,1.0,0.0]" : 0.5014728021283511,
    "[1.0,1.0,0.0,-1.0,1.0,0.0,1.0,-1.0,-1.0]" : 0.5014707788610181,
    "[-1.0,1.0,-1.0,0.0,1.0,-1.0,1.0,0.0,1.0]" : 0.501469879941171,
    "[1.0,-1.0,1.0,1.0,1.0,-1.0,0.0,0.0,-1.0]" : 0.5014641497542042,
    "[1.0,0.0,1.0,-1.0,1.0,0.0,-1.0,1.0,-1.0]" : 0.5014610179511719,
    "[-1.0,-1.0,1.0,1.0,1.0,0.0,-1.0,0.0,1.0]" : 0.5014538428780584,
    "[-1.0,0.0,0.0,-1.0,1.0,1.0,1.0,-1.0,1.0]" : 0.501449475768476,
    "[-1.0,1.0,-1.0,-1.0,1.0,0.0,1.0,0.0,1.0]" : 0.5014492936228311,
    "[-1.0,0.0,0.0,1.0,1.0,0.0,-1.0,1.0,0.0]" : 0.5012631493756767,
    "[-1.0,-1.0,1.0,0.0,1.0,-1.0,0.0,1.0,1.0]" : 0.5009807688280323,
    "[0.0,1.0,1.0,1.0,0.0,-1.0,-1.0,-1.0,1.0]" : 0.5009758747815457,
    "[1.0,-1.0,1.0,-1.0,1.0,1.0,-1.0,0.0,0.0]" : 0.5009636819730469,
    "[1.0,0.0,-1.0,0.0,1.0,1.0,1.0,-1.0,-1.0]" : 0.5009622162234691,
    "[-1.0,0.0,1.0,1.0,1.0,-1.0,0.0,-1.0,1.0]" : 0.5009451685865233,
    "[0.0,0.0,-1.0,0.0,1.0,1.0,0.0,1.0,-1.0]" : 0.5008078505583959,
    "[-1.0,-1.0,1.0,0.0,1.0,1.0,0.0,0.0,0.0]" : 0.5006039266215306,
    "[1.0,-1.0,0.0,1.0,-1.0,-1.0,0.0,1.0,1.0]" : 0.5004990005236538,
    "[0.0,1.0,-1.0,1.0,0.0,-1.0,1.0,-1.0,1.0]" : 0.5004960139954057,
    "[1.0,-1.0,-1.0,0.0,1.0,1.0,1.0,0.0,-1.0]" : 0.5004891147563643,
    "[0.0,1.0,1.0,1.0,-1.0,-1.0,1.0,-1.0,0.0]" : 0.5004861873946338,
    "[-1.0,0.0,1.0,0.0,1.0,1.0,0.0,-1.0,0.0]" : 0.5003546432690721,
    "[1.0,-1.0,0.0,0.0,1.0,-1.0,1.0,-1.0,0.0]" : 0.500118306109136,
    "[-1.0,0.0,1.0,1.0,0.0,-1.0,-1.0,1.0,1.0]" : 0.5,
    "[1.0,1.0,-1.0,-1.0,0.0,1.0,1.0,-1.0,-1.0]" : 0.5,
    "[1.0,-1.0,1.0,0.0,-1.0,1.0,-1.0,1.0,-1.0]" : 0.5,
    "[1.0,-1.0,1.0,-1.0,0.0,1.0,-1.0,1.0,0.0]" : 0.5,
    "[-1.0,1.0,-1.0,1.0,0.0,-1.0,1.0,-1.0,1.0]" : 0.5,
    "[-1.0,-1.0,1.0,1.0,1.0,0.0,-1.0,-1.0,1.0]" : 0.5,
    "[1.0,0.0,0.0,-1.0,-1.0,1.0,1.0,1.0,-1.0]" : 0.5,
    "[-1.0,0.0,1.0,1.0,1.0,-1.0,-1.0,-1.0,1.0]" : 0.5,
    "[0.0,-1.0,1.0,1.0,1.0,-1.0,-1.0,-1.0,1.0]" : 0.5,
    "[1.0,-1.0,1.0,-1.0,1.0,-1.0,0.0,1.0,-1.0]" : 0.5,
    "[0.0,1.0,-1.0,-1.0,1.0,-1.0,1.0,-1.0,1.0]" : 0.5,
    "[-1.0,0.0,1.0,1.0,1.0,-1.0,-1.0,1.0,-1.0]" : 0.5,
    "[-1.0,1.0,-1.0,-1.0,0.0,1.0,1.0,-1.0,1.0]" : 0.5,
    "[1.0,-1.0,-1.0,-1.0,-1.0,1.0,1.0,1.0,0.0]" : 0.5,
    "[-1.0,1.0,1.0,1.0,-1.0,-1.0,0.0,-1.0,1.0]" : 0.5,
    "[-1.0,1.0,0.0,1.0,1.0,-1.0,-1.0,-1.0,1.0]" : 0.5,
    "[1.0,-1.0,1.0,-1.0,1.0,-1.0,-1.0,1.0,0.0]" : 0.5,
    "[0.0,1.0,-1.0,-1.0,-1.0,1.0,1.0,-1.0,1.0]" : 0.5,
    "[-1.0,0.0,1.0,1.0,1.0,-1.0,-1.0,0.0,1.0]" : 0.5,
    "[1.0,1.0,-1.0,-1.0,-1.0,1.0,1.0,0.0,-1.0]" : 0.5,
    "[-1.0,-1.0,1.0,1.0,1.0,-1.0,-1.0,0.0,1.0]" : 0.5,
    "[1.0,0.0,1.0,1.0,-1.0,-1.0,-1.0,1.0,-1.0]" : 0.5,
    "[-1.0,1.0,-1.0,-1.0,1.0,1.0,1.0,-1.0,0.0]" : 0.5,
    "[1.0,0.0,-1.0,-1.0,0.0,1.0,1.0,1.0,-1.0]" : 0.5,
    "[-1.0,1.0,1.0,1.0,0.0,-1.0,-1.0,-1.0,1.0]" : 0.5,
    "[-1.0,1.0,-1.0,1.0,0.0,0.0,1.0,-1.0,1.0]" : 0.5,
    "[1.0,-1.0,1.0,-1.0,1.0,0.0,-1.0,1.0,-1.0]" : 0.5,
    "[-1.0,1.0,-1.0,1.0,1.0,-1.0,0.0,-1.0,1.0]" : 0.5,
    "[1.0,1.0,-1.0,-1.0,0.0,1.0,1.0,-1.0,0.0]" : 0.5,
    "[-1.0,-1.0,1.0,1.0,0.0,-1.0,-1.0,1.0,1.0]" : 0.5,
    "[1.0,1.0,-1.0,-1.0,0.0,1.0,1.0,0.0,-1.0]" : 0.5,
    "[1.0,-1.0,1.0,-1.0,0.0,1.0,0.0,1.0,-1.0]" : 0.5,
    "[1.0,-1.0,0.0,-1.0,0.0,1.0,1.0,1.0,-1.0]" : 0.5,
    "[-1.0,1.0,-1.0,-1.0,-1.0,1.0,1.0,0.0,1.0]" : 0.5,
    "[-1.0,0.0,1.0,1.0,-1.0,-1.0,-1.0,1.0,1.0]" : 0.5,
    "[-1.0,1.0,0.0,-1.0,1.0,-1.0,1.0,-1.0,1.0]" : 0.5,
    "[1.0,-1.0,-1.0,0.0,-1.0,1.0,1.0,1.0,-1.0]" : 0.5,
    "[-1.0,-1.0,1.0,1.0,1.0,-1.0,-1.0,1.0,0.0]" : 0.5,
    "[0.0,0.0,1.0,1.0,-1.0,-1.0,-1.0,1.0,1.0]" : 0.5,
    "[0.0,1.0,-1.0,-1.0,1.0,1.0,1.0,-1.0,-1.0]" : 0.5,
    "[1.0,1.0,-1.0,-1.0,-1.0,1.0,1.0,-1.0,0.0]" : 0.5,
    "[1.0,-1.0,0.0,-1.0,1.0,1.0,1.0,-1.0,-1.0]" : 0.5,
    "[0.0,-1.0,1.0,1.0,-1.0,-1.0,-1.0,1.0,1.0]" : 0.5,
    "[1.0,-1.0,0.0,-1.0,1.0,1.0,0.0,1.0,-1.0]" : 0.5,
    "[-1.0,1.0,0.0,1.0,-1.0,-1.0,1.0,-1.0,1.0]" : 0.5,
    "[-1.0,1.0,-1.0,0.0,1.0,1.0,1.0,-1.0,-1.0]" : 0.5,
    "[-1.0,1.0,1.0,1.0,0.0,-1.0,0.0,-1.0,1.0]" : 0.5,
    "[1.0,-1.0,-1.0,-1.0,1.0,1.0,0.0,1.0,-1.0]" : 0.5,
    "[-1.0,1.0,-1.0,1.0,-1.0,0.0,1.0,-1.0,1.0]" : 0.5,
    "[1.0,-1.0,-1.0,-1.0,0.0,1.0,1.0,1.0,-1.0]" : 0.5,
    "[1.0,1.0,0.0,-1.0,-1.0,1.0,1.0,-1.0,-1.0]" : 0.5,
    "[1.0,-1.0,1.0,0.0,0.0,1.0,-1.0,1.0,-1.0]" : 0.5,
    "[-1.0,1.0,-1.0,0.0,1.0,-1.0,1.0,-1.0,1.0]" : 0.5,
    "[1.0,-1.0,1.0,-1.0,-1.0,1.0,0.0,1.0,-1.0]" : 0.5,
    "[1.0,-1.0,-1.0,-1.0,1.0,1.0,-1.0,1.0,0.0]" : 0.5,
    "[1.0,-1.0,1.0,0.0,1.0,0.0,-1.0,1.0,-1.0]" : 0.5,
    "[1.0,-1.0,1.0,1.0,-1.0,-1.0,0.0,1.0,-1.0]" : 0.5,
    "[0.0,1.0,1.0,1.0,-1.0,-1.0,-1.0,-1.0,1.0]" : 0.5,
    "[1.0,-1.0,1.0,1.0,0.0,-1.0,-1.0,1.0,-1.0]" : 0.5,
    "[-1.0,-1.0,1.0,1.0,1.0,-1.0,0.0,1.0,-1.0]" : 0.5,
    "[1.0,-1.0,-1.0,-1.0,1.0,1.0,1.0,-1.0,0.0]" : 0.5,
    "[-1.0,1.0,-1.0,0.0,0.0,1.0,1.0,-1.0,1.0]" : 0.5,
    "[-1.0,1.0,-1.0,-1.0,1.0,0.0,1.0,-1.0,1.0]" : 0.5,
    "[1.0,-1.0,-1.0,0.0,1.0,1.0,-1.0,1.0,-1.0]" : 0.5,
    "[-1.0,-1.0,1.0,1.0,1.0,-1.0,0.0,-1.0,1.0]" : 0.5,
    "[0.0,1.0,-1.0,-1.0,1.0,1.0,1.0,-1.0,0.0]" : 0.5,
    "[1.0,-1.0,1.0,1.0,-1.0,-1.0,-1.0,1.0,0.0]" : 0.5,
    "[1.0,0.0,-1.0,-1.0,1.0,1.0,-1.0,1.0,-1.0]" : 0.5,
    "[0.0,-1.0,1.0,-1.0,-1.0,1.0,1.0,1.0,0.0]" : 0.5,
    "[0.0,1.0,-1.0,1.0,1.0,-1.0,-1.0,-1.0,1.0]" : 0.5,
    "[-1.0,1.0,-1.0,-1.0,1.0,1.0,1.0,0.0,-1.0]" : 0.5,
    "[-1.0,1.0,-1.0,0.0,-1.0,1.0,1.0,-1.0,1.0]" : 0.5,
    "[-1.0,1.0,1.0,1.0,-1.0,-1.0,-1.0,0.0,1.0]" : 0.5,
    "[-1.0,1.0,1.0,1.0,-1.0,-1.0,0.0,0.0,1.0]" : 0.5,
    "[-1.0,1.0,-1.0,1.0,-1.0,-1.0,1.0,0.0,1.0]" : 0.5,
    "[-1.0,1.0,0.0,1.0,1.0,-1.0,0.0,-1.0,1.0]" : 0.5,
    "[1.0,-1.0,0.0,-1.0,-1.0,1.0,1.0,1.0,-1.0]" : 0.5,
    "[-1.0,1.0,1.0,1.0,-1.0,0.0,-1.0,-1.0,1.0]" : 0.5,
    "[-1.0,1.0,-1.0,1.0,1.0,0.0,-1.0,-1.0,1.0]" : 0.5,
    "[1.0,-1.0,1.0,0.0,1.0,-1.0,-1.0,1.0,-1.0]" : 0.5,
    "[1.0,0.0,-1.0,-1.0,1.0,1.0,1.0,-1.0,-1.0]" : 0.5,
    "[-1.0,-1.0,1.0,1.0,-1.0,-1.0,0.0,1.0,1.0]" : 0.5,
    "[1.0,-1.0,1.0,-1.0,0.0,1.0,-1.0,1.0,-1.0]" : 0.5,
    "[-1.0,1.0,-1.0,1.0,1.0,-1.0,-1.0,0.0,1.0]" : 0.5,
    "[1.0,-1.0,0.0,-1.0,1.0,1.0,-1.0,1.0,-1.0]" : 0.5,
    "[1.0,-1.0,-1.0,0.0,1.0,1.0,1.0,-1.0,-1.0]" : 0.5,
    "[1.0,1.0,-1.0,-1.0,-1.0,1.0,1.0,0.0,0.0]" : 0.5,
    "[-1.0,1.0,0.0,1.0,0.0,-1.0,1.0,-1.0,1.0]" : 0.5,
    "[-1.0,1.0,-1.0,-1.0,1.0,-1.0,1.0,0.0,1.0]" : 0.5,
    "[-1.0,1.0,0.0,-1.0,-1.0,1.0,1.0,-1.0,1.0]" : 0.5,
    "[1.0,0.0,-1.0,-1.0,-1.0,1.0,1.0,1.0,-1.0]" : 0.5,
    "[-1.0,-1.0,1.0,1.0,-1.0,0.0,-1.0,1.0,1.0]" : 0.5,
    "[1.0,-1.0,-1.0,-1.0,1.0,1.0,1.0,0.0,-1.0]" : 0.5,
    "[0.0,-1.0,1.0,1.0,1.0,-1.0,-1.0,1.0,0.0]" : 0.5,
    "[1.0,-1.0,1.0,-1.0,-1.0,1.0,-1.0,1.0,0.0]" : 0.5,
    "[-1.0,1.0,0.0,1.0,-1.0,0.0,1.0,-1.0,1.0]" : 0.5,
    "[0.0,-1.0,1.0,1.0,1.0,-1.0,-1.0,1.0,-1.0]" : 0.5,
    "[-1.0,1.0,-1.0,0.0,1.0,0.0,1.0,-1.0,1.0]" : 0.5,
    "[-1.0,-1.0,1.0,1.0,1.0,0.0,-1.0,1.0,-1.0]" : 0.5,
    "[1.0,-1.0,1.0,1.0,-1.0,0.0,-1.0,1.0,-1.0]" : 0.5,
    "[1.0,-1.0,1.0,1.0,-1.0,0.0,-1.0,1.0,0.0]" : 0.5,
    "[1.0,1.0,-1.0,0.0,-1.0,1.0,1.0,-1.0,-1.0]" : 0.5,
    "[0.0,1.0,-1.0,-1.0,0.0,1.0,1.0,-1.0,1.0]" : 0.5,
    "[-1.0,1.0,1.0,1.0,0.0,-1.0,-1.0,0.0,1.0]" : 0.5,
    "[0.0,1.0,-1.0,0.0,-1.0,1.0,1.0,-1.0,1.0]" : 0.5,
    "[1.0,-1.0,1.0,1.0,0.0,-1.0,-1.0,1.0,0.0]" : 0.5,
    "[1.0,0.0,-1.0,-1.0,1.0,1.0,1.0,0.0,-1.0]" : 0.5,
    "[0.0,1.0,-1.0,1.0,-1.0,-1.0,1.0,-1.0,1.0]" : 0.5,
    "[1.0,-1.0,1.0,0.0,-1.0,1.0,0.0,1.0,-1.0]" : 0.5,
    "[1.0,-1.0,1.0,1.0,0.0,0.0,-1.0,1.0,-1.0]" : 0.5,
    "[0.0,-1.0,1.0,1.0,0.0,-1.0,-1.0,1.0,1.0]" : 0.5,
    "[-1.0,1.0,0.0,-1.0,1.0,1.0,1.0,-1.0,-1.0]" : 0.5,
    "[1.0,0.0,1.0,-1.0,-1.0,1.0,-1.0,1.0,-1.0]" : 0.5,
    "[-1.0,-1.0,1.0,1.0,0.0,-1.0,0.0,1.0,1.0]" : 0.5,
    "[1.0,0.0,1.0,-1.0,1.0,-1.0,-1.0,1.0,-1.0]" : 0.5,
    "[1.0,0.0,1.0,-1.0,1.0,-1.0,0.0,-1.0,0.0]" : 0.49998978085949536,
    "[-1.0,1.0,-1.0,0.0,1.0,1.0,0.0,0.0,0.0]" : 0.4998643425770274,
    "[-1.0,0.0,0.0,0.0,1.0,-1.0,1.0,1.0,0.0]" : 0.4998372795596135,
    "[0.0,1.0,1.0,-1.0,1.0,-1.0,0.0,0.0,-1.0]" : 0.49980552165451697,
    "[1.0,0.0,1.0,-1.0,0.0,0.0,1.0,-1.0,-1.0]" : 0.4997832221080541,
    "[0.0,-1.0,0.0,1.0,1.0,0.0,1.0,0.0,-1.0]" : 0.49973608489160154,
    "[0.0,-1.0,0.0,-1.0,1.0,-1.0,1.0,0.0,1.0]" : 0.4996932235424228,
    "[0.0,-1.0,1.0,-1.0,1.0,0.0,0.0,-1.0,1.0]" : 0.4996919680263563,
    "[-1.0,-1.0,1.0,0.0,1.0,1.0,0.0,-1.0,0.0]" : 0.49968089493483164,
    "[1.0,0.0,1.0,-1.0,0.0,0.0,-1.0,-1.0,1.0]" : 0.4996677704600973,
    "[1.0,-1.0,-1.0,0.0,0.0,-1.0,1.0,0.0,1.0]" : 0.49966680052129436,
    "[0.0,1.0,1.0,-1.0,1.0,0.0,0.0,0.0,-1.0]" : 0.49959089620994496,
    "[0.0,0.0,-1.0,-1.0,1.0,-1.0,0.0,1.0,1.0]" : 0.4995846048768342,
    "[1.0,0.0,-1.0,1.0,1.0,0.0,0.0,-1.0,0.0]" : 0.4995679386381407,
    "[-1.0,0.0,0.0,-1.0,1.0,-1.0,1.0,1.0,0.0]" : 0.49955326077223666,
    "[0.0,-1.0,0.0,0.0,1.0,1.0,-1.0,0.0,1.0]" : 0.49952746694679684,
    "[0.0,-1.0,1.0,0.0,1.0,1.0,0.0,-1.0,0.0]" : 0.49951623229645553,
    "[-1.0,0.0,0.0,0.0,1.0,-1.0,1.0,0.0,1.0]" : 0.4995154295035835,
    "[1.0,1.0,0.0,-1.0,1.0,-1.0,-1.0,0.0,0.0]" : 0.49949376478006,
    "[0.0,-1.0,0.0,0.0,1.0,1.0,-1.0,-1.0,1.0]" : 0.4994727054957314,
    "[1.0,-1.0,-1.0,1.0,1.0,0.0,0.0,-1.0,0.0]" : 0.49946714130019765,
    "[-1.0,-1.0,1.0,-1.0,0.0,0.0,1.0,0.0,1.0]" : 0.4994377264321952,
    "[0.0,-1.0,0.0,1.0,1.0,0.0,1.0,-1.0,0.0]" : 0.4994359230349449,
    "[1.0,0.0,1.0,-1.0,0.0,0.0,-1.0,0.0,1.0]" : 0.499391478580004,
    "[0.0,0.0,0.0,0.0,1.0,1.0,-1.0,-1.0,1.0]" : 0.49937661769390507,
    "[0.0,-1.0,0.0,1.0,1.0,0.0,1.0,-1.0,-1.0]" : 0.4992484671029997,
    "[1.0,0.0,1.0,-1.0,0.0,0.0,0.0,-1.0,1.0]" : 0.4992461785679602,
    "[1.0,1.0,0.0,-1.0,1.0,-1.0,0.0,0.0,0.0]" : 0.4992236586168953,
    "[1.0,-1.0,-1.0,1.0,1.0,0.0,0.0,0.0,0.0]" : 0.4992028719999882,
    "[1.0,-1.0,0.0,0.0,0.0,-1.0,1.0,0.0,1.0]" : 0.4991716731465468,
    "[1.0,0.0,1.0,0.0,0.0,-1.0,1.0,-1.0,0.0]" : 0.49912786056886355,
    "[0.0,0.0,-1.0,-1.0,1.0,0.0,0.0,1.0,1.0]" : 0.4991090365908695,
    "[0.0,1.0,1.0,0.0,1.0,-1.0,0.0,-1.0,0.0]" : 0.4990934141816797,
    "[0.0,0.0,0.0,-1.0,1.0,-1.0,0.0,1.0,1.0]" : 0.49904988657349647,
    "[0.0,0.0,0.0,-1.0,1.0,-1.0,1.0,1.0,0.0]" : 0.4990140853009022,
    "[0.0,-1.0,1.0,-1.0,0.0,0.0,1.0,0.0,1.0]" : 0.4989494253024274,
    "[0.0,-1.0,0.0,0.0,1.0,1.0,0.0,-1.0,1.0]" : 0.49894198805996665,
    "[1.0,0.0,1.0,0.0,0.0,-1.0,1.0,0.0,-1.0]" : 0.49890212913385307,
    "[0.0,-1.0,0.0,-1.0,1.0,0.0,1.0,0.0,1.0]" : 0.4989010461267309,
    "[1.0,0.0,1.0,0.0,0.0,-1.0,1.0,-1.0,-1.0]" : 0.4988653967129581,
    "[1.0,1.0,0.0,0.0,1.0,-1.0,-1.0,0.0,0.0]" : 0.49886514656131137,
    "[1.0,0.0,0.0,0.0,1.0,-1.0,1.0,-1.0,0.0]" : 0.4988396691001499,
    "[-1.0,-1.0,1.0,0.0,0.0,0.0,1.0,0.0,1.0]" : 0.4988287853599305,
    "[0.0,0.0,1.0,-1.0,1.0,0.0,0.0,-1.0,1.0]" : 0.4988220564766942,
    "[1.0,0.0,1.0,0.0,0.0,0.0,-1.0,-1.0,1.0]" : 0.498805441730437,
    "[1.0,0.0,1.0,-1.0,1.0,0.0,0.0,-1.0,0.0]" : 0.4987918652999102,
    "[1.0,0.0,1.0,0.0,1.0,-1.0,0.0,-1.0,0.0]" : 0.4987794741971471,
    "[-1.0,0.0,0.0,-1.0,1.0,0.0,1.0,1.0,0.0]" : 0.4987783121944963,
    "[0.0,1.0,1.0,0.0,1.0,-1.0,0.0,0.0,-1.0]" : 0.49872205139132486,
    "[0.0,0.0,-1.0,0.0,1.0,-1.0,0.0,1.0,1.0]" : 0.4987138626153119,
    "[1.0,0.0,1.0,0.0,0.0,0.0,1.0,-1.0,-1.0]" : 0.4987006583546441,
    "[0.0,-1.0,1.0,0.0,1.0,0.0,0.0,-1.0,1.0]" : 0.49869440369433005,
    "[1.0,-1.0,0.0,1.0,1.0,0.0,0.0,-1.0,0.0]" : 0.4986906327904557,
    "[0.0,-1.0,0.0,0.0,1.0,-1.0,1.0,0.0,1.0]" : 0.4986589443029102,
    "[1.0,-1.0,0.0,0.0,1.0,0.0,1.0,-1.0,0.0]" : 0.4986078277479263,
    "[1.0,1.0,0.0,-1.0,1.0,0.0,-1.0,0.0,0.0]" : 0.49859052739921605,
    "[1.0,-1.0,0.0,0.0,1.0,-1.0,1.0,0.0,0.0]" : 0.4985021116165585,
    "[-1.0,1.0,1.0,-1.0,0.0,-1.0,1.0,1.0,-1.0]" : 0.4984999999287538,
    "[1.0,-1.0,1.0,-1.0,0.0,-1.0,1.0,-1.0,1.0]" : 0.4984999999287538,
    "[1.0,1.0,-1.0,-1.0,0.0,-1.0,-1.0,1.0,1.0]" : 0.4984999999287538,
    "[1.0,0.0,-1.0,0.0,0.0,-1.0,1.0,0.0,1.0]" : 0.4984900325981294,
